{"layers":[[0.5490188525190579,0.755576086835895,0.30850923048373585,2.182882581863826,1.9102108030741003,0.9641899327350992,-1.9051438244143346,-2.183074480898158,1.3552326869489106,-1.1273851707905909,-0.34859995040390135,-1.159865851418693,0.8098752756570855,-0.6413338389044517,-0.9956739245345275,-1.8860057630751887,-0.9277753821395255,0.7388862857909297,0.39411330861450705,0.2745570187409588,0.6111101910263735,1.6870244502719967,1.4033389904389788,0.7789511619244325,-0.6246904893300991,-0.9835290661232735,1.3338695332119106,-0.548904384917133,1.1897366442861168,0.5082511326744084,0.3906645691001602,-0.6131274241604164,-1.2091818252369864,-1.5805314595965159,-1.3368710609298096,0.8901448186955238,0.9,0,0,0,0,0,0,0,0,1,0,0,0,0,0,0,0,0,0,0,0,0,0,0,0,0,0,0,0,0,0,0,0,0,0,0,0,0,0,0,0,0,0,0,0,0,0,0,0,1,0,0,0,0,0,0,0,0,0,0,0,0,0,0,0],[0,0,0.8359392790417001,0,3.2878174193045906,0,0,2.731975511038265,0.9521305916616827,0,0,0.4181944055034718,1.7130373286660767,0,0.6906253589662434,0,0,0,0.8422982741494847,0,0,1.267167665346762,0,0,1.8880662415697056,0,0,0.1812532752108582,0,1.5101999278288873,0,0.6165549612098519],[0.9770353257298409]],"weights":[[[-0.5107704056041511,-0.10300197308416248,0.2984106117130996,-0.08914272772794396,0.18672688791597783,-0.22539885844028754,-0.32878385099964186,-0.15817769415746416,0.13281434418469767,-0.2752655758316789,0.15995474199309934,-0.3155306750666066,0.4431307798652463,0.21892941192402776,-0.12362176789461196,0.18586895267410736,-0.009739176365910722,-0.028726872254319444,-0.010449771182160337,-0.027275162268463264,0.08919306142724727,0.00863131046026143,-0.14190663183477065,0.27463996657847994,0.12144173115930261,-0.5330052778551114,0.13143166166688497,0.00801881929931014,0.12093498132506009,0.14603210524980811,0.5565060900831545,-0.08883612012386034],[-0.2909568876796402,0.13631674289951803,0.2573880127065366,-0.07238685031898,0.16560284890524501,0.05277610103939284,-0.13791561222072538,0.10948619135602893,0.4419997393268745,-0.24346140678003034,0.06678984065767415,-0.04481096283993185,-0.36533355630994957,-0.013908077116796171,-0.6080466110419223,-0.5006332123591279,-0.6041654209586381,0.15786187192989856,-0.3841255141826842,-0.008323773064069296,0.21163419966702057,-0.3667656802668441,-0.15856859162447276,-0.10705901560435194,0.037976378908309114,-0.016236467525009308,-0.41430567163365994,0.01792640570404472,-0.4299720054254615,-0.29255383010470914,-0.20958781463737752,0.08502186225810568],[0.11031749991095605,-0.36145994138815823,-0.19402893594969536,0.6390559264173231,0.042166203247881846,-0.0032199319362622805,-0.03879511679138218,-0.00247713363252584,0.08451567404811933,-0.33382393240797126,0.15446246763749186,0.23800069593545412,0.45377749457969074,-0.20132191673821048,0.13865086452023231,0.028890810728995787,0.07251820919952195,-0.07837840505999884,-0.0742875303526488,-0.3590120646848583,-0.1669139550313687,0.036705048351503296,0.19149952754141497,-0.09456501404929629,-0.05646476899183347,-0.20902501619592226,0.013506523774882385,-0.4264618745485498,-0.0639399452147466,0.042104671858640086,0.040071422160690574,0.12334296335859835],[0.018705104653244757,-0.7533215052490184,0.07594757696219727,-0.11128882242708553,0.029098124430180432,0.20480799744184264,-0.27559601427516045,0.2626100861646886,-0.15083485893677226,-0.003089015124778255,-0.6987734267876903,0.6290569852421496,-0.012471644406306255,0.19971643922942764,-0.5306834975966191,0.34414937031742937,0.2285722257221998,-0.08753709715976565,-0.3314446139874531,-0.10678075600923433,0.10407003609279743,-0.2011754427230263,0.30593232617231914,-0.24986581182168488,0.2885382734724207,-0.4788489379982546,0.10520724901880842,-0.315978533771238,0.19000034196306237,-0.2597717629457597,0.24287930381910208,-0.1539011924401668],[-0.40985755426338955,-0.16413109882655974,0.0563313905113675,0.080512817849667,0.3504924328478507,-0.24307942564987495,0.034152940240923885,0.2386323242759159,0.184249613588484,0.04722112137357989,0.7510242172439985,0.3167909371135284,-0.18527670815970046,0.11991696820070481,0.1420016961690899,-0.2912387768493238,0.28095369640394263,-0.23287365304361987,-0.11390756910204149,-0.15228747478464916,-0.19109853731731027,0.2852541694592274,0.24758303938621531,0.2699076895866827,-0.3121185808795073,-0.10608880217106308,0.032256769035142276,-0.12080034665586423,-0.006019980840828176,0.3293386513926581,0.03919521207218853,-0.13408019434564847],[0.3235063192643444,0.21044322132441304,-0.08657852239017597,-0.2356068266972864,-0.2234425704650866,0.17704592995332333,0.13319128851521486,0.0027806478431303665,-0.0004266099434019408,0.19333316749514937,0.06601043549427461,-0.28157535751292934,-0.14196999841964167,0.2068000815943794,-0.15180221921081583,0.00507678016095885,0.010328297939598738,0.20079807846471756,-0.021356128005999148,-0.11435427419912753,0.10393246396280716,-0.0006314241322952084,-0.14636807230000473,-0.17694614655938135,0.4493318651493758,-0.3152599501040047,0.4699900182425133,-0.3373297168668861,-0.09554549560754352,-0.055777070198493435,0.01998359014237775,0.22412994559363628],[0.1096849570246639,0.05090575451157897,0.47076871337217807,-0.13283648405516135,-0.14085242970509226,-0.14625376573980356,-0.15841917075326392,0.3200131098952687,-0.49107202107111964,0.4002306684133958,-0.05558193244027214,0.4587733536674018,0.04577305779562817,0.010815047996104001,-0.08688482463301839,-0.13513660692872914,-0.21461399987905172,0.08515932097549529,0.07109550300488653,-0.050868603582915714,-0.2144248423876154,-0.08468233420868947,0.2709398077802176,0.21456428226149898,0.0656773040157787,0.39282500279699134,0.2809184676843865,0.1044847590670123,0.2535924308805854,-0.10380621357627334,0.2268070041787035,-0.07441546917721688],[0.22740696064947002,0.4553437110423693,0.17682856952017825,0.28018672122489674,-0.5353261317829269,0.2448734257477569,0.30802324340807113,-0.1286456401588868,-0.11803114567981729,0.2536905853202586,0.6177943702394197,0.019121391800715662,-0.21400984230939585,-0.1774459299765134,-0.21527334807651277,-0.19165283104493747,-0.28923150025493605,-0.14937477856709894,-0.1119478499970465,-0.25717964515918385,-0.0005957534918321057,-0.0842887465572799,0.07716941857052019,0.2788822936123033,-0.22839988394244434,0.1310912295791955,-0.23390800974821443,-0.10531765226742217,0.007130402896851888,-0.09956196117554664,-0.2404261437062316,0.010552555549896377],[0.13580099027441267,-0.274531884946872,-0.17241686403553783,0.049285396933137826,-0.4385971614017192,-0.3105426009826948,0.07820755763785531,0.06101738013355338,0.18617604101082735,-0.12102848932887016,-0.2545740911584292,0.33506057028455155,-0.2401549898279695,-0.4118708670764019,0.07808744704854734,0.1093191389901417,-0.2686008224970708,-0.12483190191579834,-0.3321495644732011,-0.18190632057288045,0.0703788511232519,-0.009275127300593006,0.1957723091923061,0.027332905812334992,0.06041924340139628,-0.24917037595923888,-0.1526403661178735,-0.35110832553546517,0.22191553048203297,0.047702509588657495,-0.008402200687800484,0.3121587554218097],[-0.054748727429290725,0.03364408090415879,-0.2338465077279487,0.021575019121963506,-0.12478075712981597,0.3268726208869109,-0.3982439050297168,-0.007220711400998633,-0.17412677729687542,0.024934473526667007,-0.3173582845970314,0.27694430658288227,0.16651886268136185,-0.07268189780959601,0.18334243429596087,-0.30758588314111845,-0.15537682847853,-0.002841175082107881,0.016919259371812156,-0.3131942502362604,0.19501687092562617,-0.12619430103744564,0.030394859952855076,0.3912438608985002,-0.08523916669832346,0.17196724266780802,0.5053576785884994,-0.1625923280797127,-0.01747631026360423,0.07126622940922128,0.2678546002054917,-0.13859822651082054],[-0.08124241050794885,0.16198912565019077,-0.1634172606255081,0.30043969856719505,-0.21982438631172546,-0.1521401608545452,-0.22952479505534948,0.4350840312878337,-0.42598815152337094,-0.6122429033573475,-0.36482024779634875,-0.40241447695056676,-0.05814580258507099,0.1274013162694622,-0.13916945401012876,0.1886909267272269,0.43558742709277265,0.25461483126161133,-0.14622902714767613,0.006194554663073039,-0.4995434968698377,-0.23989037887861284,0.34436745902375854,0.11097533732114652,-0.044140419713994856,0.2918433319595384,-0.2765267243722734,-0.0409442962816701,-0.2167773523124776,0.09673176266723937,-0.04895639074032122,0.39212198206601895],[-0.14388779946183422,0.06330508217397501,-0.16752827584152014,-0.0838655958293635,-0.3546797628997765,0.17214736052286034,-0.22837607111291305,0.0855973577901168,0.06789232789157267,0.44603548309347735,0.010514891763003227,-0.40105451082690285,-0.2017702959488756,0.1895562853626612,0.17746134307551792,0.2085919543622309,-0.3996169440612486,0.24595023631292426,0.3744536514403652,0.48947630993967783,-0.17334723324020607,-0.1675034880657275,0.03638286911888608,0.07392786251088462,-0.026045116561273136,0.49843293504002545,0.24173247275695597,0.24235317840596432,-0.0915252075676746,-0.21780338781269246,-0.06456034296692788,-0.06408976208281386],[0.37844979331925116,0.4434324156115299,-0.060032499393748044,-0.3115951621184188,-0.24343895150230457,-0.16340127449857625,-0.33833890877164013,0.14080899804027533,-0.07893207325336832,0.061815987397672176,-0.07970152902695304,-0.09242840841340529,-0.02904495885395611,-0.053555187366912296,0.09834086132633495,-0.14178359918389427,-0.40894323898278584,0.32810282456660084,-0.009971781639118913,-0.5248417967842081,-0.0056726165711171745,-0.05359379256975994,-0.17552416908525806,0.13494342450745014,0.2543101995085964,0.1569653163509176,0.46505776936846777,0.2452833531746293,0.11876172308856217,0.14062123682331823,0.2663876968899309,-0.07660652634294156],[-0.289929909393208,-0.10346481366323654,-0.11784755108890073,-0.25923375206751653,0.07706168364180428,0.000061930065564524,0.32274711515909144,-0.4445316275755484,0.07730097594629427,0.25918023399498813,0.05183389880995214,0.03651801482218554,-0.02986401470188674,0.14630076383367704,-0.25303448054152683,0.26940518484633064,0.18038010385721265,0.24387736166925258,-0.0478362869674359,-0.37661587143421826,0.39384443386576234,0.16229207087078956,0.4608281700832054,0.6559121316525955,-0.2664855796597507,-0.010783953725727779,-0.12391908113233654,-0.14639917127232416,0.25004995623876325,0.40546087898265865,0.2987296696500531,0.1275849475888343],[0.08102761116087635,-0.25641804796002804,0.031487404450746444,-0.22809623527245343,-0.1557310399886413,-0.035149007248181686,-0.4132162382903719,0.07792921868881479,0.20094348767457412,0.5022597994658756,0.019434705872737993,0.12409198884287434,-0.3542016314869288,0.07600085063484714,0.18415882277533327,-0.10686741436865552,0.200965923571238,-0.02155442776087291,0.16815402769846458,-0.49865955070784385,0.20528571715153368,0.16421791261108465,0.33918201166388046,-0.18441167885954168,-0.21255790637144675,0.09913567922462892,0.11722018316532036,-0.20263750520537196,0.19817017572517762,-0.024121760303554906,0.22794807590403385,0.014882312823026827],[-0.08848352829254749,-0.16392659825677924,-0.21331005012336557,0.3609258471082971,0.08430505709215469,-0.06773766983908429,0.27681475674197326,-0.03417734611607925,0.3575640372908632,-0.2751146866676269,0.025930930728635605,0.23642773440967974,-0.08121910871372748,-0.02684062414529385,-0.42519044451131643,-0.10656651148142539,-0.2572077947787944,-0.12404028824882828,-0.1597647736607343,0.08776915915333898,0.08593969809049981,0.04884410594290217,-0.21068931337559055,-0.2466860612275971,-0.2118615617185676,0.0709767065698299,-0.18060474916339628,-0.5316020966783882,0.10344004720015874,0.28517735414524736,-0.0062266483607570245,0.30316215511172007],[0.0930814504571536,-0.18604882257030542,-0.07423178070318232,0.3598312501006006,-0.05483333739031494,-0.2536909806738125,-0.2955718637557249,-0.26102254665479,-0.07460786232709107,0.3140205468835631,-0.15886101794719001,0.28627046618591623,-0.15850649235809458,-0.49175056746738327,-0.29446854350287827,0.03684708853456991,0.521402878430517,-0.5977054974751308,-0.3319670431860976,-0.05137795102793252,0.2923571864401267,0.04495868506658076,0.03495189126309711,0.2782844867985411,-0.13259271361505154,0.22895070088927005,0.01095640134109183,-0.036200260632372694,-0.19373789691605156,0.014904325196648468,-0.1588450362458455,-0.045185804916872054],[0.521226996608634,-0.124356028485546,0.2502211382067188,-0.04692101004403507,-0.028444016499759712,0.32461047953692934,-0.253386319413141,0.002950095149034123,-0.20842099359303806,-0.09036997542591338,-0.23677191572182077,0.04251638796261115,-0.11125249372516202,0.3116462958123306,0.30131113113893165,-0.03713234800752945,0.08210341544967292,0.0897670460148447,-0.4132370475061938,0.17512796334884348,0.016396354399328027,-0.24493359344764826,0.6271832595323408,0.16169479026992298,-0.39313579741772053,-0.13249866073745972,-0.12785977862883854,-0.15275041464855685,0.03812416576645405,0.11882247376525266,-0.14263445909486888,0.6358079752188992],[0.009859851637687694,0.21461983157547834,0.22694130960300032,0.015708401454305847,-0.14592921840844744,0.22165728228710507,0.10964737042270528,0.20460535375544114,-0.547015592323202,0.6602149838400073,0.48817048314062794,-0.3989592583384658,-0.13162139663011965,-0.33461286345447283,0.037442760821223976,-0.4102959277687218,0.05399690102725998,-0.15966686395279858,0.029565394502177347,0.18081897210312248,0.05929141843822765,-0.3539628494752372,0.24379071670476302,0.16239470856479385,0.10061315584611025,0.15813001447144212,0.04295147998835806,0.41794762647962597,-0.3014943890617853,-0.5501796481077078,0.22590960249269595,0.06067231885484025],[0.2893538858292456,0.07915593828097343,-0.03903629388983727,-0.1322684793014066,0.10734519176529299,0.3109850186842587,-0.4224370534718217,0.6602199545640317,-0.12011834990621217,-0.11941562867163971,0.0982683489191408,0.2628509386330086,-0.1634909266836012,0.004187306027369413,0.17091929398267444,0.10327283448746606,0.3595001519698855,0.11598671094150109,0.7030056676968851,0.11009382427852679,0.3432220434394051,0.4081920342983539,0.05107138464040075,0.07484151060869496,-0.05963001237348187,0.07384720083956646,-0.038486057225257386,-0.17193843014230428,0.04837233632925652,0.1334831105263118,-0.26071286725452036,0.2231650225263205],[-0.05621354125583686,0.10898792093442694,0.35923150163591977,-0.08898687521989447,-0.06096881634525648,0.1407714405346894,-0.16611454241156332,-0.3616585442579818,0.1576139261358527,-0.526490395080786,-0.4227736209220428,0.2032427024539081,0.09232387212211485,-0.12201029694220332,-0.07362592647970297,-0.3227131854464027,-0.32061302789730284,0.1528546261030999,-0.02185453618246861,-0.15482373821520362,0.18530255916013977,0.10872381183030369,-0.09393729493396635,0.13715906630232336,-0.0679843627438302,0.07190116287476278,-0.028052686761236213,-0.09038304292423863,0.33197684318068066,0.09549539700033138,-0.12819038730808624,0.17689353062571436],[0.350079768826292,0.1433740308829202,-0.14500711452510678,0.38838064193070165,-0.18255197000828172,0.17037660444768882,-0.1436024322168113,0.43200015051219637,-0.32234241520716755,0.14448618358374102,0.010779926022197605,-0.17781508406423738,0.3393590573176978,-0.23596443518650073,0.2609299584342069,-0.17443628746988535,-0.6215107843276562,-0.18098912033933354,0.13937323575381225,-0.23983547094558336,-0.12011859516007226,0.07328540233097702,-0.16645029048164442,0.15689747101185186,0.36789188721021376,-0.0123543537420018,0.37695512431779754,-0.2754260052946008,-0.10036769574985918,0.23105734166335734,-0.17590019673530496,-0.026059975323039625],[-0.1872054879734061,-0.35539279304204197,0.13347502104083722,-0.478565381351286,0.18852859398488694,-0.1121145465921716,0.2551088451037991,-0.20717193292942596,0.3626484035833717,-0.26489245083671914,0.07308985289655534,-0.03337555491168891,-0.01416251931274983,0.15097799012316002,-0.30635122845757884,-0.3666154526988734,-0.3277681790054375,-0.4149446675042781,0.09253500174029405,0.3205459991617288,-0.0462952102292665,0.21132136516605565,-0.11548913217173117,-0.3572399075955789,0.07285338698947949,-0.3122359930606758,-0.15359428457883317,0.17646010763352213,0.16063150080833105,0.24505321602133964,0.08374344982686474,-0.31721599017531393],[0.044526550090370404,-0.27370062415878105,0.6457469776550303,0.12672595791654911,0.29844135991846504,-0.2032375075897638,0.12001508507885704,0.3184141811557605,-0.02028543365262834,0.04654284604952548,0.07282607798314791,0.06859043569843647,0.2151804702102424,-0.1917620890265415,-0.1429092679647844,-0.13778521634277188,0.09656718110794331,-0.38001654053748013,0.03222832681989018,-0.12114520919519269,-0.1884291585581552,0.07806349671414524,-0.3027604427609149,-0.14157333488381485,0.008641115695162845,-0.12164761561146607,-0.22844915772600582,0.37369200901822536,0.2821630177190064,-0.18294738916740236,0.6375346466431806,0.07248475687665698],[0.3330210037365608,0.16070037346061766,0.1658399081091283,0.2804331662184159,0.4973893457550456,0.3299007296283683,0.6242638367559218,0.09924285622651963,0.27763277691296406,-0.636671568513097,0.11223062133246832,0.04304714355258067,0.023314142382777556,-0.16943195856912527,0.16157218611294447,-0.24965016218693883,0.02466304113924576,0.1558872904043036,0.23659707309757605,-0.2514341813888934,0.3917613167588845,0.05245208017748352,0.1679572012088351,-0.09111500151493027,0.2416408934988534,0.01693873201959964,0.5610619842426572,0.6146656419607855,0.08358402632817222,-0.06769066836444272,-0.010564971831239537,0.05283305930206298],[0.4315152266912584,-0.26859335788758354,-0.10410827897129894,0.1845953630044258,-0.21004260250535317,0.2018719210241589,0.11698687292030528,-0.25708398149109474,-0.05396306286783436,-0.17857546852037198,0.04910396799594941,-0.5636578068215831,-0.05973940272190439,0.4701816528364097,0.16912775758923637,0.27925393016881045,0.026194954689326557,-0.5173259006904541,-0.35887936034097473,-0.09466973172606997,0.4023019192219528,-0.19954283696506533,-0.03926661340543569,-0.33919698844192303,-0.6223747528386816,-0.04232037152100891,0.34425257877261123,0.010506800154787176,0.006634504512940294,-0.045626297330132244,-0.4630271803596638,0.23025242891067108],[0.22267658899592457,-0.2666167323011517,0.18433420265772257,0.5886231557464547,0.3167276261686015,-0.19777265009116032,-0.02653446860903007,0.13306950739183612,0.31112551793001075,0.062504267867669,0.16660576154349457,-0.08076451262491509,-0.27129482858826837,-0.27997330133421566,0.3731322257441331,0.15674727198168195,0.22346195405154737,-0.544129021627613,-0.02226967467794599,0.027125676291445567,0.11588026114284453,0.023622737426860288,-0.15516589553086985,-0.20463533281893392,0.09283814469810678,-0.10554378874174108,0.2515186658673037,-0.2534792946326913,-0.07021946496369243,0.13205843967495925,0.5192372703917438,0.06743177365123439],[0.22833560359358918,-0.020225222107276165,-0.07034177068658638,0.36140692621023784,0.34461588492709366,-0.12361551036631073,-0.558365344188402,-0.1344182796505386,0.33087631774778725,0.24898822201058127,0.2793468105252224,-0.10360980040492954,0.012066929619738044,0.11769668327441962,-0.15968974900903585,-0.20596016485429092,-0.15903937636418863,0.11445920586327807,0.2427817125045977,-0.007590074585104067,0.03721243421838202,-0.10546829292124009,-0.04716255497468491,-0.1549329853403657,-0.19213156517572394,-0.05465132380503869,-0.20611265046435467,-0.38588809374283756,-0.3102674050105466,0.3332146825885355,-0.2872513910442116,0.2413297582345006],[-0.038533438743180326,-0.23737630269327034,-0.5494332512370375,-0.070527617557704,0.3091421882870322,-0.18852986156490043,-0.04951389465057254,-0.16400029383098133,-0.05845049328761767,0.09022253687099292,-0.6818255573872319,0.08770175110843968,-0.1578772334692088,0.006149462315870831,0.28339476563932176,0.08332738782085987,-0.03812799791359618,-0.37119611641609085,0.11438519547893136,-0.16792835837923167,-0.27114169961704193,0.3084463244556766,-0.0561540075078845,0.1437705306342468,-0.07754395515679963,-0.5994061459057011,-0.09045423860621685,0.004581589000495985,0.16763248902471262,-0.3522621579382898,0.12434960270268786,0.17270436850214813],[-0.1964511825028487,0.05033726452236726,-0.3244401094093049,0.09005489251719016,0.23650322411646776,-0.6329596953495046,-0.14240771152858714,-0.3215330609844907,-0.5288902702363674,0.4019862900409324,-0.15896762336076498,0.046154169366292505,0.25703338955663746,-0.08088576491748745,-0.30968817348670535,0.3207883970016655,-0.2945377644469044,0.4152209732474453,0.0657281158860342,-0.02796438846185309,-0.02953888871572752,-0.510491032754763,0.037909200876654094,0.26645079186772,0.07599725344692433,0.18356423796155077,0.2528677574940959,-0.24728295190203647,0.18750076229736434,0.2966954211438745,0.06235659374375353,0.12095328223360419],[0.1960260082434114,-0.3949138393710675,-0.2646747673763983,-0.11915278757945875,-0.14160677842296546,0.3172756946685304,0.3399605559772413,0.1478629681707203,-0.28185544675223406,-0.15576400795217288,0.17243834024737054,0.06701378668644889,0.16888379068048154,-0.21422424189109807,-0.08469410259242344,0.08844751886128567,-0.23548804298323067,-0.048193655935045016,0.22962268306286773,0.13481823260870293,-0.20919861903646386,0.09407476870841369,-0.3152782648950492,-0.3232212581594863,-0.17511474110853462,0.2916395456067045,-0.21560286005058768,0.22109377811075653,-0.27523665453937257,-0.2514462471400288,-0.19381058503219573,0.16232160808483445],[0.3064430680705519,0.054584067416571375,0.05014922459513713,-0.5153543998751464,0.3085298878650765,0.025863398603221448,-0.20661556638091458,-0.0004329430042072851,0.1616151453163129,-0.06184842565774539,-0.3937281902015844,-0.17708785676005037,0.2012456007338988,-0.537507019137821,0.002074927774950096,-0.1831436699127426,-0.5145245239520194,-0.006403425547744981,-0.10409809453946746,0.1690825906942713,-0.22557662781704627,-0.15155375134209903,0.06447074196704869,0.25058356124988945,-0.3632914647231247,-0.24197603193064085,0.10755134417745782,0.1318615947915983,-0.029412534100063382,0.07485486445654412,-0.30954893398586963,-0.1407020382288197],[0.0011917645694225127,-0.00043565160752984014,-0.07910248376093751,-0.042630584357097386,-0.0009987624375780676,-0.47775954352960415,0.05414167166600977,-0.537385330733287,-0.16409415376277375,-0.005449149973980736,0.013965863679147077,0.5253046355486982,0.18677168869181104,0.19570319819814194,-0.03723928712298308,0.19830512239773376,0.1692533180208898,-0.0754634281163611,0.059115025322920914,0.21201719882078376,0.05159925618812296,0.014060676957820976,-0.11722765723910475,-0.22602252539280587,-0.3483272622037307,0.29497934125747094,0.4815719799828952,0.04977473245874685,0.17168712835986485,-0.45209509583072777,0.18761450534201182,-0.16784979665314023],[0.041198712841076596,0.03001480379190867,0.3234976422200947,0.10981961190964308,-0.2320304783921267,0.17813558118785536,0.17973583310134245,-0.04201412999784811,0.23490298924446248,0.1810915684277974,0.059271844952754116,-0.00888720957516407,-0.24776053802459508,0.2892876546898039,-0.2461708000267481,-0.14568792839091388,0.004459267948062971,-0.14557606520030328,-0.5721981762913698,0.2686187655000831,-0.21343055674429834,-0.012151780310040564,0.2963058226573878,-0.157914170518545,0.44781600486477285,0.3318512013573555,0.47998725334263814,-0.5753076706536072,0.2759201281536644,-0.09481629130378777,0.016100577221613975,-0.14185721043631544],[0.1000046453492274,0.1124238419236287,0.16024850299960056,0.010256558152755758,-0.033825365363508955,0.24382068847188879,-0.2578814675033473,-0.05330263944060465,-0.01351461041709794,0.5393842886124619,-0.14808785161604032,-0.28027632101042727,-0.12488586426263198,0.1876366426383794,0.021026369542629215,-0.41221839385205555,-0.3276074448510912,0.33083880745525723,-0.037939300842727806,-0.09616689736580775,0.2096868271889311,-0.2859126948004169,0.1339042329592049,0.2117946642762428,-0.025467247851663818,0.02694475982645094,0.03835382850024359,-0.063828044334331,0.1929788363546496,0.21378021831564306,0.8502649439722434,0.025168271080021523],[0.022687453579862005,-0.35809682655471503,0.5379734761648921,-0.18498453141454255,0.037512894143406465,0.037995448841011775,0.028027248648442825,0.10855621533276202,-0.08630839179560171,-0.16906744993156037,0.1898663078596593,-0.3383177954357596,0.6324985067768748,-0.41560621149732196,0.08464364124754932,0.15752140337070772,-0.41181186158613486,0.0813496794190415,0.42138507720963414,-0.046530743987955356,0.12281785416997448,-0.08880105053559142,0.029785105500115226,0.5224011481080324,-0.34668090565526744,0.3090937640599275,-0.04545822967473537,0.0589936900926965,-0.22708010290073313,0.29695704834782066,-0.021848005061728085,0.16211337289094002],[-0.04978243882103341,-0.6025032255647279,-0.035072543054708444,0.05767217835001471,-0.08312729353384268,-0.03433929221551014,-0.00899363664975894,0.08380831965327995,-0.370965190788305,0.4184269603714927,0.11074101167543617,0.33913050653873145,-0.019516659737381998,-0.3796602242753114,-0.10633250044653764,-0.08669448590588405,-0.003024885125022142,-0.05131311240281154,0.40539936246358604,0.2131349603997354,0.1291701403175243,-0.00587509682785861,-0.40050069652134335,-0.21763781175250452,-0.22253635774307315,-0.28388766783320757,0.22807723790884463,-0.3238977608677429,-0.2019814590366077,0.1761812996341976,-0.1289665578072535,0.2626386656884174],[-0.058379436806403034,0.03202225466531128,-0.2138897545065889,-0.2060782913956439,0.22088530479352683,-0.1311133223106366,0.015541298299141951,0.3319518688899521,0.17787752038900134,-0.20815914705723731,-0.0008486917783941242,-0.08210557693844983,-0.07526214120817273,0.4078522077740005,0.39334846518504585,-0.11799781456740481,-0.28977448403975,-0.3311597065661728,0.25970229073750306,0.22735204676269535,0.2183745987300692,0.22978771125892647,-0.38483783043586645,-0.23401841331387632,0.11732474325802306,-0.0005508516895859793,0.2305360735132734,0.6406826080334096,0.2149083589353352,0.12113899520547965,-0.30256414872138576,0.11623026710293122],[-0.01512686418917388,-0.32895675095429555,0.050016374044024606,-0.3875587637329968,-0.260363369266401,-0.07549417798995973,0.15430173718194704,-0.18516162103761366,-0.31354610947803924,0.22100734861497162,-0.33155547034478494,0.0442006152031129,-0.18899676910528565,-0.21218559963130096,-0.2738336239215446,0.04138455410494468,0.14255527107932472,0.032432856292044086,-0.08257212063859096,0.4254186036218135,0.12626545902013045,0.10513332812072958,0.1497106440795263,-0.2164852176248431,0.32197558632580714,0.3321188172963705,0.18724538012551736,0.05481166549257252,0.4213544668319151,-0.1707343273736713,-0.24498886116582705,-0.04749448862031802],[0.27816759215268616,-0.09994538383221424,-0.0006180705057868708,0.3857517113790748,0.023255543979576875,0.0509525546052424,-0.25531130592560297,0.19400230132642232,-0.5505934346434402,0.4421750345883015,0.2393507737177724,-0.097263025604656,0.10933911098812224,-0.1734085518868117,0.1116267645281529,-0.22156881079826465,-0.28493472709966206,0.028505304383664623,0.11210668507899789,0.22881756748110488,0.17218202814356398,-0.006150723388722118,0.06250139912052105,-0.08923910853494585,-0.09854533132628579,0.1020955767468629,-0.016982362521853506,-0.10885049963701457,0.3102713589265795,0.33232798492588717,0.16642304828303675,0.10822173482333566],[-0.2517270294752208,-0.1724570111846413,-0.2606528300385969,0.37398258853890576,0.2169338216452515,-0.23223953960071894,-0.06567587985796397,-0.30338902240488885,-0.3466063274020197,-0.021611353914329442,-0.0959058198961158,-0.3104427250408681,0.5516464086952567,0.14188492108275597,0.12795136109711375,0.21031804792470543,0.3825170690989201,-0.43121041347840966,0.09819712678862784,0.3395898933143449,0.1461851724666781,0.28014959038411813,-0.4636273811267269,0.027749652463355964,-0.6300937025624118,-0.3279213360851293,-0.17421098566691778,-0.3246476195419894,0.09140351023321477,-0.032305718247712674,-0.3004247393501363,-0.0847696146321136],[0.1673777151812372,0.43471135183973714,-0.03438118241116612,-0.15267577620323286,-0.4213066678202987,0.3813084865405807,0.039543745320697814,-0.08037773983847409,0.37231961177025225,0.6192566754565484,-0.053212996710985117,0.0967196405867463,0.48585442235328247,0.021385753818370504,-0.08086063485989939,-0.10452567862692819,0.23507343083997284,0.1450373552272434,-0.00047092583177168096,0.2935209579019642,0.5071630003319665,0.24730457061275019,-0.27316150974809406,0.04990880501552804,0.09314447016437805,-0.1658008961443009,-0.3795972997236054,-0.1292616177077987,0.09674186528171413,-0.04318321341329767,0.09336209007312393,-0.054685568429292494],[-0.23910134551256304,-0.24838670465537227,0.051059726147062785,-0.04824943337892531,-0.054746754654054285,0.10332509725954417,-0.39170957498077447,-0.11118634953210466,0.3509546562162616,-0.08648758031459357,0.2754713429680654,-0.014234397032435984,-0.1732445758416618,-0.17033912648649224,0.4507523752694506,-0.2791116878309958,-0.041700872723225806,-0.09663586974604928,-0.0873290525332636,0.14206878494466688,-0.2377349642713461,-0.02384230959581133,-0.05087531777396039,-0.06651772129146503,0.20109867997122133,-0.19559151075927186,-0.44171944573775224,0.47563245131610277,-0.041485519356496976,-0.22860188236824533,-0.17544871377607374,0.1956925313906841],[0.37221738945414884,0.12364370869965878,-0.07484830924687336,-0.27068798004156086,0.20633190676690888,0.05501527595995857,-0.175910607954396,-0.35367817489797915,-0.45893721463805703,-0.10468962040628355,-0.14950973286946634,0.06408400398124083,0.15765461439247822,-0.011359188049760488,-0.38502844923508245,0.2753939797137138,0.13395952107924544,-0.20692023982362537,-0.1843121420783029,-0.3269937489738343,0.10374826807047634,0.13797181687792387,0.13067011085202987,0.07390785966189307,-0.1388900593315875,0.004630086884116798,-0.4390613101394356,0.25597347500569284,-0.06620382541978706,-0.5371037062072522,0.23687352862718689,-0.3175875523443061],[-0.3658754365675976,0.2935615221687863,-0.10737296648351383,-0.21341691415634936,0.24004684889193834,-0.03671653150664707,0.3972247283694698,0.04037095459723068,0.021468629356032783,-0.14310595340055396,0.12549330733901679,0.2114663612896739,0.05731381777856422,0.17321045447300998,-0.18989384545398807,-0.34008738302123803,-0.24079793919277143,0.3524542503827308,0.005739528277168069,-0.22378586839830472,0.11124929184169995,-0.11853863828479938,-0.2490362877353839,0.3467551796913473,0.04677247111221338,0.15055664932909715,-0.03602244707332884,0.23520494675609474,-0.01853475853209793,0.11367914848724414,-0.4410858858784742,0.21247232403103875],[0.00028175569595528506,0.6329950064883977,-0.03272400813080068,0.18788094730185095,-0.18033529745770968,-0.3529309175905487,-0.2512676602777964,0.31334108390335424,0.10552714134879429,0.44889147248150596,-0.19159625965350532,0.2342806917458004,0.08471032498161192,-0.15194790874557781,-0.3246231988386896,0.0011348964255354986,0.49101317740171796,-0.09300633713936395,0.08913038829463323,-0.4574204665746475,-0.27021524478689185,0.3769413486493483,0.11476804774740368,-0.27801759305313295,-0.2220916398327714,0.10153127427231261,0.18015169217865062,0.4449597031218411,0.19280571547081918,0.12791721449749685,-0.325049938634344,0.11906016196496591],[-0.17491115877835,-0.21390317474312953,0.06028472354703862,0.1344748050228312,-0.3716546011299973,-0.007201566675204411,-0.2145275234436516,0.3418113716908274,-0.16248431269454083,-0.055334401932441026,0.048183608178769065,-0.13892449195797432,-0.45403596429124465,-0.1319376269287885,-0.29255931399312307,0.27371751292775004,-0.09693567885531457,-0.10517921433692302,-0.16659975770942256,0.2859367351170916,0.4843140963215046,0.026885034643887796,0.2198299371591859,0.12816415798845077,0.3364292604759256,-0.3580269453894228,-0.31600728053936544,-0.6683074814220388,-0.13576167339398884,-0.33657479548998503,-0.0334900919594528,0.5337177944670389],[0.2185473720764529,0.18130620091421945,-0.23443837426397396,-0.3893665379870434,-0.08389614078435659,-0.215390927300465,0.17352379450386374,-0.34415564164793766,-0.18534235005879932,0.23737259325983462,-0.020110837557739764,-0.2796643572150317,-0.10199807831937802,0.1113646351718093,-0.10707203305673811,-0.3743477144963864,0.41712761627920075,0.11424063037815191,0.015472018231253786,-0.07945438113473147,0.4338248222659098,-0.10054056703255865,-0.3101393429581232,0.029113725843410813,0.054448551533053745,0.49375907615799813,-0.09921885479447846,-0.23301734519343806,-0.023137511961331195,0.052212776452020555,0.1952766685571613,0.3796675288638161],[0.14862414286926742,-0.2997266346349331,0.1888903001459049,0.4582927617527348,0.04078987863324974,-0.3837379768807585,0.08011720583258114,0.4415856463628811,0.21166360650988722,0.07188338152340375,-0.11791602605659501,-0.11334067736641128,0.14089738367550433,-0.057742796618952895,0.07652930598612787,-0.046617197983794295,0.4171855372341824,0.18559224389735945,-0.23988263707992055,0.1463024096895604,0.16196616189782997,0.20634541546422308,0.196781311480127,0.1821719171796967,0.0848330196615281,-0.27157408454794857,-0.13321884979152318,0.1271768819790965,-0.19121776632856866,-0.08630045695213141,-0.3783482590862331,0.40747147660835586],[-0.24793026354019593,0.44395699433358765,0.21550664125873195,0.470214704284192,0.03376827707949681,0.27624967180051935,-0.11647837364118997,-0.11169268687631534,-0.2548037744406888,-0.03248399083505797,-0.16300858340229513,0.26049221219819135,0.1319781651023522,0.08238818686086966,-0.2736792243162231,-0.04046736564352465,-0.1085259397723203,0.4628605711149905,0.3534334868292757,-0.11362257159761055,0.014326549800289457,0.2115378372632445,-0.22518974163940478,-0.13598739400367862,-0.10326100708489713,-0.14843919470912978,-0.2936649224993522,0.20323329743395793,-0.6978611568650709,-0.23553206976290395,0.05023848283643455,0.11478239794427038],[0.029433612723075216,0.3026548255978898,0.3853670571559125,0.32641039929055504,0.30669396403706894,-0.3292450283184033,-0.06262284015347648,-0.580925681073168,0.0875844961484178,0.24011442813788386,-0.010202430201914402,-0.1504150323929714,-0.15046297464883554,0.2966818653699622,0.19320440288875562,0.0977604598020045,-0.35527816280237773,0.2474886750209641,0.33968113839160596,-0.16395967429474476,0.008628109883190122,-0.0742259547360332,-0.20927838126082507,0.3835264721629744,-0.09889161957428716,-0.07044330473286001,-0.23134799958602476,0.1857159693628562,0.08981442117199412,-0.6452609545806196,-0.20418554910257636,0.06285042778185479],[-0.22816924584931816,-0.3654979808024976,-0.3556052628959944,0.06673453144262669,-0.31083930632059514,0.530859368075874,-0.06233843461787217,-0.05335426803654535,0.2915432225681674,-0.1049775349632898,-0.011112671391778687,-0.29032894674895243,0.21008096583521088,-0.17714725978205234,-0.41666772996596674,0.28437626858454,0.18808496683086284,0.12489243424442693,-0.5244863685489073,-0.0399547228129857,0.16053786138123313,-0.14090810828002703,-0.31171540864166747,-0.2723259682712519,-0.025663874052811904,0.2228947514403942,0.24459209658682757,-0.3348952925198416,0.009181209701174095,0.1270052852457058,-0.01604804093116552,-0.23598189178228338],[-0.22833627903147602,0.22436302775908376,0.2663016176400048,-0.17560870680421917,-0.2748280118571155,-0.6012221484175704,-0.05081950420324771,0.490382890365077,0.11965871050215166,0.01755861356226311,0.051030381132011055,0.10518610125331257,0.1035878388385433,0.5660761647116276,-0.0778498239861228,0.5145572246192567,-0.004208288262291463,0.1772934329592848,0.4863917590716101,0.23471931242131494,0.17191612742101042,0.40881798910142886,-0.174511570283883,0.27517485393455104,0.27946671737186946,0.6691404757320322,0.2425779063312017,0.5857324031055398,0.2138069047278915,0.5898069567639478,-0.1798718481293289,-0.23817972397612494],[-0.05283929052662914,0.4590950995370323,-0.08146465238517284,-0.2763190781186115,0.012095037412384978,0.03647555347526856,0.03567416438610021,0.08086336181531673,-0.25065994110508155,-0.20736408184911004,-0.09162719176998578,-0.047286969349757235,-0.15557042585650718,0.3547239612248875,0.1352157153693686,0.1228840009392886,-0.221635450680679,-0.061228886068064606,0.5105418707864249,-0.0941903332281398,-0.44028834598318767,-0.47062304834468843,0.4484691553334257,-0.14032603936492288,-0.1835860307637371,0.23762042035524034,0.0099432177826835,0.5911217137824464,-0.3940921887089276,-0.2009907797375461,0.2727621625162049,-0.37190315676184577],[0.41944047668856443,-0.4830247472784955,-0.19404685393800652,0.13594035575645724,-0.18778453850911866,-0.051295034056182236,-0.32244746003059127,0.029020314777645412,0.0070686727668919334,-0.031985422714152015,0.1263957671504833,0.35844455265878766,0.2710335154227287,-0.05925141753270896,0.3873873667881601,0.18041453226637233,0.49237227336770145,-0.21274580309081634,0.355561256219854,0.5731841477067305,0.1930540896039506,0.061785649059727214,0.13818324551103572,0.08633067156982174,-0.06375711859648343,0.7719256189072314,0.3672145846462252,-0.02241151841327217,-0.08320627823998374,-0.07441125944655984,0.020105094340686906,-0.10366927940896245],[-0.13889469121403397,-0.25328191555571306,-0.20168578614957994,0.3968232255023401,0.038599727312322925,0.09775400214517056,-0.23631589545759946,0.11453923906181492,0.27133130404385997,0.24841044501648077,-0.21408521005378764,0.05757215209379572,-0.30201847900247936,0.45973114371547985,-0.4542147884248423,-0.0695020541999738,-0.024390908453838643,0.23148194005448533,0.21149237615238378,0.1485593174617012,0.14198745107597552,-0.21723171400108873,-0.5004780509777089,-0.03849816589892076,0.09048222506157796,-0.10835191487795759,-0.17413447385682823,0.26659797091929055,0.5523665869661921,0.3114129576882739,0.12207551274847168,0.13508047375980511],[0.01034988673054661,0.022198531209963027,0.025507117090526072,-0.1653635614901935,-0.48886972935668643,0.10416088008127443,-0.3843489734635663,0.5609669771125122,0.2587339847215211,-0.10491794971517572,-0.15364431961981595,-0.0430925478072829,0.6086011965843549,0.30023107802268084,-0.136704399703753,-0.10093729466408947,-0.21909261815514686,0.06535683585532996,-0.33058156987587,0.02964755893503689,0.39688707714309857,0.5905610179111377,0.013214187277707908,0.06214773721097906,-0.014869648924135313,0.45960518616776674,-0.1996728581545703,0.39196198616457517,0.012955292505907162,-0.3307542489043351,0.0030218027956341134,-0.4076552001313161],[0.18075711692343796,-0.31151760920472277,-0.20966141874870908,-0.7071323175650714,0.2677038344714471,0.44939727596373463,0.30514384857784976,0.01032979515231444,0.05103468361347818,-0.17237470712876982,-0.24996819502973874,0.09144569291568529,-0.41386901415336924,-0.18388606936334792,0.23217453666894972,0.38346440269343895,0.13005718729326737,-0.24523332085504973,-0.024886150274754125,-0.22701392756230396,0.4206291039695603,-0.22551761939788748,0.027549105076052703,-0.006513462325686812,0.16535456598524897,-0.4328000427249787,-0.06852577094328008,0.3009365101460279,-0.239677406138666,0.10832618700267532,0.14382855900878747,0.16570883511981546],[-0.12373309122900682,-0.08043686250518578,-0.078056805284061,0.2812685433328593,0.23916882862411776,-0.01272287121783384,-0.1512664006170368,0.5029550848673006,-0.14498100294126495,0.0026681792001183595,0.04041819177244356,-0.0241662020902968,-0.10668346109486686,-0.061480806315157926,-0.03030382528011773,0.1640746124531189,0.07866486082032109,0.24717357881808572,-0.20802028044107038,-0.339637762431248,-0.6464255321063153,0.04526621156307001,-0.5163551542801829,0.0435545042917002,-0.10745261183382529,0.2027739167667409,0.21043048864150485,-0.12872677519757325,0.2615967868193334,-0.31956295486582487,0.10691861513242361,-0.34862973615967513],[-0.030295322743983985,-0.24579377776444017,-0.17772406524014542,-0.031447868087795476,-0.24196338285965657,-0.08900292553445133,0.3560953116625288,0.04884552101666069,-0.19980149972124628,-0.06243366624169305,-0.2544022982622219,0.12405946715441375,-0.366328760301395,0.186937890283815,-0.2669018321108436,0.0003507285407006092,0.10003433746162303,0.17011720780472356,0.029676549953433856,0.0776766179193871,-0.17088133362847663,-0.12030152377968377,0.10429032191738004,0.173523000942957,-0.149962564944115,-0.17707562524000311,0.014320124691492483,0.44108463490219946,0.3374961556993891,-0.42145056132286934,-0.39027669196843195,-0.422878507227252],[0.03645276854845092,-0.1526110398921533,0.19251817055086937,0.3414574583895026,-0.16014538971639486,0.13643359230474328,0.15042714842756238,0.24155872342732143,0.2896087840793457,-0.2367376055101407,0.5536406521128602,0.2931300935344939,0.1140067454107395,-0.12011520241629123,-0.32405604985531733,0.2211621205767059,0.07049712071995141,0.02969926252921648,0.10432379547682614,-0.20672425293166316,-0.0073415100122666355,0.3470875169984057,-0.32949302362265115,0.22723921494774116,0.11939646129138022,-0.04640408075473823,-0.05769133625294833,0.07222140192497982,-0.26700214599481265,-0.03679496854878374,0.19038579532465677,-0.2068781876985748],[-0.15110982443478438,0.1418452159213975,0.10366885922555102,0.2944567176793327,-0.06653605867254919,-0.05831919406714012,-0.10261258534889567,-0.1919487743361164,0.4188085030533859,-0.08693044002560117,-0.3263029818676996,-0.2827839919613222,-0.23426311306096917,-0.40972703441469993,0.015323704169968557,-0.29528229315288546,-0.06769323106799152,-0.2918279082767837,-0.37798612700175044,0.16481619158645083,-0.08721260702471037,0.1925961891712303,0.2098556922216092,-0.16600074084511823,-0.3965580853849129,0.040933569291212314,0.004856989638675489,0.03898106722310137,-0.36497121658651016,-0.01944433358772576,0.2596630427954579,0.1508432998382966],[0.2047064936030669,0.06360468176215658,0.15459459531738545,-0.4749921039696738,-0.10198179091753165,-0.20801859443812137,0.2770155870118653,0.0491439465773169,-0.09060117901139259,0.1838809443405502,-0.02691060052584454,0.14688763254005577,-0.02839923474231317,-0.1756220441132049,-0.10580331970640966,-0.04553436416020774,-0.3899881111335425,0.4599854861044662,0.0685305420334756,-0.34921424879849255,0.19489902601749165,0.20376591161706986,-0.195658230730571,0.20029419409158497,-0.027850480505328148,-0.44843041161073743,-0.24403539185385492,0.3344088043123882,-0.13938265502859867,0.17482929933038913,-0.40827367702692563,-0.1692801632149455],[-0.45953093391830807,0.35775996142991034,-0.016351314410727343,-0.3195343964297232,-0.23662982268266888,-0.07490647791007374,-0.18480280826185772,0.09406141307016996,-0.23484935449146838,-0.30233768230218394,-0.43020405365931325,0.31163575961150936,0.08054499657794424,0.09806202382205811,-0.008355432815045381,-0.2314828130116931,0.10836453910215935,-0.1254981917702998,-0.249016986951784,-0.05242119390016825,-0.06411431618096684,0.18676326236626992,0.5527916894997287,0.2927065269523119,0.02712267157522641,-0.1613862704540154,-0.386198854720809,0.11400460880218663,-0.7697253436573795,0.025414910135510373,-0.047740447330827794,0.2711962432886558],[-0.2523332121013877,0.4933196589882454,0.0942675365027521,0.17498055039292565,-0.1324626317515519,0.11540460025811049,0.09205393706632994,-0.01257730854103255,-0.15279099885602013,-0.18605572177427515,-0.08543178897433876,0.2611200218297311,0.10209923944168914,0.20432196035043865,-0.43392969040906176,-0.20309432569708363,0.33468081071335953,0.31111444982367814,-0.01962561205257048,-0.2811539691943871,-0.33157947372248714,-0.36829864103782745,0.004982912412233205,0.14151397125598475,-0.2154849778952019,0.11841754924526142,-0.4399232707182949,-0.6531734139362966,0.06351455440895341,0.6734179461531329,-0.22434532299473123,-0.15737416176423316],[-0.3357928810346063,-0.42146127531088945,0.2771992481185804,0.37658141407437035,-0.07307849345518233,-0.06011727200515866,0.4134932800464969,0.17531771791918885,0.014378540731118827,0.18658182738790752,0.012863111727337869,-0.27558629707146776,0.16222487374635916,-0.4877085994510376,0.3302079927701244,-0.18544142980033726,0.0074162264689500166,0.12819613459804985,-0.25596180979123206,0.2597484888567807,-0.3091826136768548,0.3567366043553892,0.045613990407386805,-0.15670669274015467,0.09882502851066544,-0.06261807430346968,0.27792867476471,0.03586064844777152,-0.09561689702490894,0.048046429533076106,-0.15466610629230826,0.07790372297288654],[-0.019736477144270823,0.38830211145106525,0.38245927291590914,0.1679739432771855,-0.3414782184011669,-0.08044484044603198,0.588357656433556,-0.007794060164703145,-0.2123810133888532,-0.21980882046621072,0.074551613370122,-0.4938022114551548,0.07215186255154624,0.3302508819440865,0.09785103803941754,-0.2800030138061836,-0.2345403493377675,0.13094849552862586,-0.09668386743941108,0.12186514253988785,0.2139848501730674,0.38584875339618113,-0.05463979505386346,0.39219697907288303,0.1977511247311202,-0.03651292672673677,0.13713585236969547,-0.2316136423118344,0.31768498841296644,0.1841809972836484,0.00909243878058406,0.07938260715094016],[-0.19140110309249703,0.41357046702229194,-0.13120671133071635,0.35699981536838904,0.3855091981076178,-0.4626470980658031,-0.1421158411854136,0.08335829371574209,-0.16610307361335838,0.12481815904632365,-0.13228893198012456,-0.2830387697279996,-0.5415576822320297,0.5849767561645756,-0.20766008009758508,-0.09696237716488977,0.5413843627560592,-0.08183460226999431,0.0081607577350117,-0.2011628651117042,0.11021246147061135,0.1685574753527788,0.5497389016134868,-0.06185635032607002,-0.1712360555745254,-0.0539094044364735,-0.1716842573601478,-0.17181768406344164,-0.2560760711241557,-0.05400525746757743,0.4925910624095382,-0.2172143006546849],[0.34666084660298624,0.08326698828485748,-0.20434398764889344,0.18212524967772908,-0.0466569221818814,0.0715956534437717,-0.23233271837331188,0.2521151237908138,0.1275137993336017,-0.1326734189269254,-0.3048295070231644,-0.010146927619003293,-0.19801370304866212,0.025335848996497424,-0.005108635225535227,0.04614669690717916,-0.6588100072145207,-0.42804176175065856,-0.6182708033186446,-0.2702156837421999,0.12845905504090507,-0.12905640097707663,0.13469823871432973,0.07663926832230306,-0.19536974900556436,0.2351724710858726,0.1385600267656927,-0.5405023976972844,0.10996360731169906,0.4628837183655415,0.0014266678749315853,0.5197089423694062],[0.17947124946311133,0.18184605275698648,-0.19481923719703167,-0.4182359119947559,-0.5511942074895305,-0.4555719599087133,-0.165121244923333,-0.14536946547001497,0.20207264556546728,0.2918258121528996,0.5462892802731124,0.3824516734451997,-0.17565300411841195,0.33094618222136324,-0.1053764674386387,-0.09822486730621642,-0.00191892910658059,-0.3101985009652268,-0.2192287411461444,-0.25552781503059974,0.005902582336828657,-0.09278880841353776,-0.21036129452269423,-0.2007509035743673,0.011345113083782717,-0.041879210768303414,0.19290692368115792,0.555646316956639,-0.2009842267363537,0.594156020932704,0.029195940155644473,0.16135250721927707],[-0.21689023039960814,0.08345356951802617,0.525717194560996,0.13597288114261447,0.4385778503989505,0.2380068674460044,-0.20681635859309755,-0.16726696648720232,-0.029708318133058846,-0.26741493401065636,0.02392469641688863,-0.34208464596781235,-0.4378336004767905,0.11690533559802259,-0.3397832670791597,-0.017146232024248736,-0.07658869054260471,0.34314335023249243,-0.018486210585283578,0.1455805676308024,0.26313394280783226,-0.07211938828640566,0.2914086640117783,-0.5894901058777747,-0.17929170908798886,0.35534631397196076,0.05465265908021916,0.1930616342517152,0.37257626098816926,-0.26813428744876355,0.012242142037339638,-0.0049824764285575016],[-0.08556320816471515,-0.1246901992996254,-0.35579181621098666,0.2268508427323095,-0.13544033348004622,0.009033322934206741,0.20925591792812956,-0.00330369985870994,-0.329367280002546,0.19603122637365897,-0.07208342353747112,-0.09930958542442768,-0.09663992828889795,0.1053198352325206,-0.008059204469893045,0.14142316728960924,-0.05430354428419671,-0.1694460140752698,0.012991860993698832,-0.032353261976824685,-0.28415451363177163,0.18487202650308304,-0.4695176199293425,0.10918156628734314,0.14120485767206825,-0.049798051432000785,0.19909686393192855,0.021570870047300558,-0.0185793256911973,-0.06822245210876425,-0.2234066075588317,0.18630937365021635],[0.01400449073382209,-0.00922080860779011,-0.28079231390992326,0.18724235841984105,0.10234489304008032,0.04585366510322344,-0.23327505792879577,0.20992994162490386,-0.001628827647656946,0.0901785347699042,-0.28117243904078276,-0.18727386085448117,-0.28483813540817243,-0.18934850745381507,-0.20752039801393823,-0.2058228445430874,-0.05774566617307754,-0.32518605203520506,-0.19574151843166826,-0.056059082574209516,0.38084554193176057,-0.1663852974951659,0.19071213946326207,0.05232280324355794,0.006658250610670711,-0.3076547302852176,-0.2161384458982689,-0.2721375741738203,0.048768535316402045,-0.10253352076452943,0.2526680112113923,0.43249074084634737],[-0.15562698448981194,0.09311267938638715,0.35763345364799626,-0.13053684279820724,-0.022673012860420554,0.3049753088537187,0.023931513174670172,-0.2663461001153648,0.10308898015186548,-0.2376452548851465,-0.10005291497378699,-0.027634415039957654,0.5566742732964528,-0.008093103512755918,0.0010680015507704118,0.04276063003506955,0.0058115634352934546,0.5120991589562325,-0.21834819350806287,0.14936852480438917,0.28525568698962384,0.17473000676353082,-0.07551044190811251,0.30758728754360415,0.19094665257023352,0.06622758016845119,-0.40360415452640924,-0.11699063211735623,-0.09479176938279577,0.1408086976827629,0.12768225535554187,-0.21465828706462206],[-0.1794117285106676,-0.21884249441973647,-0.05915211076794188,0.002757009971146589,-0.41108556815252706,0.26037975651502687,0.01539293821419579,-0.10811714006960395,-0.3423518993708433,0.1372211558016417,-0.06915923097262654,0.0028858405275408597,0.1377817856936605,0.3705853462958854,-0.02933318946943353,0.5678696309168487,0.33580297626620265,-0.025914802503058748,-0.051139773658038463,-0.15112943489032715,0.012678776173419814,0.21332949044768992,-0.25107372429722946,-0.23640303695376702,0.3356249598512684,-0.03020959127017148,-0.25979512815049133,0.19841942224652404,-0.22611950228955757,0.3877646189207049,-0.31724117644936617,-0.15613502897779888],[-0.0009557771262006659,-0.10462550725146336,-0.42795930690704015,0.12351437107096847,0.07400228655479783,-0.19140566964426836,0.5072438134826812,-0.20706888198934958,-0.032053851508790004,-0.26893353395128056,0.5349396635439001,-0.0869937001373504,0.004668351157019686,-0.24708359099867583,0.13472465121283983,-0.054635473338284855,-0.08995798194293178,-0.3491289054104869,0.25110317982335545,0.13661462277685688,0.38174569135342884,-0.4648435030456183,0.28114171119567843,-0.37529394740973826,0.05649153009718388,-0.2814527216887395,-0.07046603142172313,-0.1166814328135375,-0.06679103182453094,-0.17858065140960114,-0.39355593917137416,0.19391688314864758],[-0.1883419513246221,-0.23241785957147856,-0.11231873302138858,0.3127185219329459,-0.06133012042953971,-0.32721283767595155,0.11248484998666172,-0.023893328976756296,0.09474224354217604,-0.25392744011228047,-0.29185394021791167,0.4971273475297794,-0.191904940212428,0.8792229838809785,-0.2486471754918224,0.15964618023902982,-0.12567011512566764,0.10847792555235142,-0.49962302342965403,0.05497679275053359,0.20659257027520517,-0.10899808044357535,-0.269438903771834,0.3659163826210025,-0.015516633663798433,0.22132034014166835,-0.12835650699421577,-0.16795876439578036,0.6154966774665136,0.384256277290054,0.08633573509310274,0.15385316147667677],[-0.1856386309552999,-0.13043659668551308,0.566250108698748,-0.23030959054130695,-0.4188691619554551,0.10730266398354546,0.09365928919570286,0.1750461099398218,0.18817921773267338,0.10975543599313224,0.005939330112628663,0.2071722392183667,-0.12103147249053832,-0.5152650385823777,0.1323043405751109,0.020393141581267697,-0.15579088468834534,-0.0943546280549121,0.08208008579564857,0.2553458415266942,-0.07318604685030033,0.045885415114270425,-0.45836846537784925,-0.045039175814615064,-0.3316192155393163,0.3020149304401566,0.5315116967796366,-0.27168664643649626,0.04435211198259385,-0.2945662443800371,-0.06120056837851007,-0.16623995102290734],[0.06542148238621767,-0.19417950865431544,0.00017282082189368588,0.112297586271822,-0.3066030220549567,-0.1969147028696782,-0.040180003220194514,0.2601534954139341,-0.0728098811200951,-0.09913972323987225,0.14493685121730354,0.00811381172054148,-0.49156270655028667,-0.027739618758997484,0.009072968165457536,0.1118349939343955,-0.04257913425661605,0.020567018594153108,0.07904518129086566,-0.031172140315299447,-0.012172648283817963,0.15787614425510338,0.1693404918579875,-0.09388473020280083,-0.328282493920837,-0.03853853504696452,-0.17208709166078132,-0.07494498938206519,-0.30410573150403303,-0.02834790052952086,-0.3213917838366303,0.09585007176711728],[-0.31750253668724804,0.23265242073935158,0.26416554077496035,-0.047169199333679135,0.25365228285289504,0.11884463581282446,-0.1898550534369245,-0.6099592780715049,0.4597664066885892,-0.09531681801191044,-0.07274672054105115,0.11252331749651438,0.30427697247054347,0.02105939370074849,0.22147028383671416,0.49213136209767316,0.1497367807684231,-0.04372831679335588,0.24126496686513646,-0.24364752831696332,0.6113655630814115,-0.0290704464620567,0.526709724495291,-0.3535221897379316,-0.0021143493258378027,0.24533542916514361,-0.4187661305791724,0.27936830613338426,-0.36891215554412016,-0.23077942903667512,0.07721186573708959,0.1348141470079045],[0.6201073621379155,-0.23603254238279348,0.1247016326904044,-0.1346668143030863,-0.08741224627190869,0.21445689628845696,0.5883157815704805,-0.01452644028636991,0.004368653096045787,-0.346297628086163,-0.09944185882034381,0.3070299936445631,0.18691176505639626,-0.31502138079327074,0.21960734554954087,-0.26493356737138,0.14468962750694,0.262130678808713,-0.014827093931163712,-0.25471899058505193,0.12083681148541453,0.05284820295726634,-0.24979233516549856,0.14151395234302408,-0.04124053419406223,0.5848086215788875,-0.108181449110219,-0.12541472213558078,0.08583284820115683,-0.12223304395925491,-0.4354994024379484,-0.14653438250420958],[-0.4860851617142883,-0.11008919178562686,-0.20893803526924343,0.24163800618272083,-0.13023875604549526,-0.21976609736044173,0.25022404610675836,-0.5751741631496551,0.3401397209362509,0.027262615104973666,0.46646382266467296,0.05214334655367437,-0.03887252890223987,0.19789084772395382,0.06424667792442688,0.0360881533020268,-0.1317167257428191,-0.19342696500115783,-0.3162637637992562,-0.11847751246683416,-0.22974497499589852,0.3229121033054122,0.025720505584797177,-0.4224124671841675,0.49076972503866534,0.21626865645356122,0.521935749492183,0.08203297433328856,0.3477758885741729,-0.4693229099676995,-0.0316533593992969,0.33449553850402686],[0.3076847372023254,-0.5966527705030781,-0.32252690701320125,0.11782293284169887,0.13168513381917807,0.06005993934943005,-0.38486467980411343,0.004475638180522644,-0.2850822118507377,-0.14250724949779664,-0.009180817346925012,-0.09020610126816685,-0.162959289266426,-0.24033485383717637,-0.23400886453058545,0.013484759351495,-0.13647181756923396,0.5319094919585704,0.029385688917991606,0.03079674458402647,-0.23794285944453533,-0.21620368474259782,0.03291826020240802,-0.6671948065775651,-0.09449343283683224,-0.12868985814765818,-0.1819199430082683,-0.024191560423233095,0.14261857282171142,0.016302787863729407,-0.3793339987139166,0.21867625865244938],[-0.05107007884844507,-0.16710275728364354,-0.1871553584080185,0.25855833799419514,-0.13379906393839913,0.690595780218875,-0.006576851885931169,0.148110579426045,0.368163199744068,-0.16484964063933258,-0.32426679251648316,0.1824301220746348,-0.04618506993444801,-0.2484585982480465,0.0023237977682506617,0.007597358863041268,-0.03339919230233027,-0.002257496332982595,-0.05038993017517092,-0.1919059252061147,-0.2611729584863686,-0.1351328089854446,-0.2667384036197291,-0.5488410937849415,-0.017034304826392795,-0.18657612794581035,0.7610653697748787,0.04275530524129744,-0.06838201112815981,0.204132708282437,0.32338823188499716,0.1315310705174055],[-0.0027852911025597537,-0.1579026724449573,0.22027418556623635,-0.34745993416697246,0.08751417642745064,-0.28697753806629106,-0.16351968390072755,-0.13481902794822034,0.2226255458215352,0.48871436767477694,0.042943089603181765,0.3828586855701505,-0.005083775988639449,-0.25557585010893247,-0.04807660462919741,-0.2946964250431265,0.09262588240439072,0.09766166316515461,0.07091527166484991,-0.016846378648324622,0.2702550519773255,0.2530537477779736,-0.34123926732435933,0.03169063397689323,0.1562648673735776,0.23603693461521585,-0.3631220465894733,0.38455292971992167,0.28719339002347377,-0.537430377490678,-0.18342744298943925,-0.0707815835309919],[0.49138090880652174,-0.3060698239221825,0.18217068405488335,-0.29370494832925104,0.2771981333471479,0.3677027685189279,0.20023400638683939,0.40545378688409167,-0.16585885734459782,0.15387669229608303,0.16792119036085568,-0.3348532658926005,0.4719465573555193,0.05386935898369865,-0.16180917523807703,-0.0032204479279384925,-0.07211040277358971,0.35808408158513255,-0.4543188608697743,0.0669469200811577,-0.16679280468984517,-0.2020137785465433,0.04009918025775083,0.24105515074754852,0.32339249300277356,0.06723530541894972,-0.03837884099529745,0.05389454132654847,0.1849407511477831,0.34934863284714285,-0.46541376681504676,0.4946288293758749],[0.3570563402934546,0.1907871897086661,0.5530543923196467,-0.8078642255872339,-0.14215669089293637,0.3042640684336845,-0.19647995611915697,0.03383005431115466,-0.2064403245223991,-0.12093513210314766,-0.28606011060006603,0.17116173561669087,0.022078032867479273,-0.29931923378973085,-0.0650269511549479,-0.027262908877406684,-0.2565445346276378,-0.4859053864507868,-0.20266459103401632,-0.3559080107965449,-0.12386448482529551,0.22890096347102126,-0.3090564344279145,0.3764648267067669,-0.2815598576135107,-0.27928004116248034,-0.1400913964481793,0.23307769172786816,-0.33298932304809153,0.45330918983352286,-0.23478047427073342,0.07715043305351697],[-0.02283109179794126,-0.23672714100461933,0.02858771288815733,0.32472724269736397,-0.0729065339396571,0.05056422182618745,0.018550846039819983,0.13508211243858292,-0.1619204121337946,-0.2995924607671932,0.12826023904958347,0.03218154158835154,0.20848104448856783,-0.02843648162269958,-0.6428526529967609,0.41772809450450893,0.5901683518715465,0.15048674148222593,0.5934831527786759,0.2552014889257606,0.05933478463543988,0.12723162891832707,-0.40815288411911566,0.2873362863711609,-0.058744912601981565,0.3260570011960624,0.040984584600232646,0.4548557100180687,0.05708552009013085,-0.13535841295809967,0.3444497872166936,-0.03874168598053565],[-0.02699731803038445,-0.000020701278998494067,-0.675000929660884,0.0536549799802442,0.029019625533463694,-0.2343367751459038,0.6407059678562449,0.2365324434167103,-0.2921907380027297,-0.09382855001889512,-0.19341840403046975,0.3077887334744947,-0.20691985735437043,0.1686944651021987,0.636663237343818,0.09646891535685352,0.044436484812833146,0.20233517791195096,-0.0024122525675978825,-0.025676007420663987,0.16310053110769587,-0.09307097764151798,0.015525860284079365,-0.057605928675183604,0.009749948007385354,-0.4342625535729828,-0.37526851803080274,0.5731618488727743,0.06755417771224088,-0.08069756792337053,0.07665968772116621,0.25601371119970173],[-0.17188855413884987,0.20294173958009443,0.15378128255263396,0.09904465819188936,-0.011060683167840472,0.48757307900976643,0.2145783316001425,0.282613038709989,0.30845092269168684,0.45989968449410135,-0.17346621049168406,0.08576187244232211,-0.1353361620404863,0.10369127319855653,0.17790719690492193,-0.2463578582142454,0.14333091947799112,0.2582650718385015,-0.23713967648048728,-0.2208308721643097,0.1655586258542208,0.45695042434039385,0.2993493970169297,0.09119109212032186,-0.20987001692513269,-0.12119019413735659,0.03213064084691282,-0.32394153278466503,-0.3959970264135093,-0.09788937421286543,0.4049073988878471,-0.08052346574240507],[-0.16880213746576397,0.2596440359371515,0.27617991731486474,-0.1649250588595303,0.22443260948363397,0.12394203503248799,0.15267283400597925,0.02335137062923474,-0.11278082469043305,-0.2212726111781474,0.28598944333340076,-0.26202127277475984,0.1774544760841128,-0.07662476908073568,0.09498055541174169,-0.2754008701893038,0.08087495726333357,-0.07040479623010085,0.027345032572679475,0.09898616457376118,0.018644674483618905,0.26961529023717884,0.35350436240636707,-0.013865033802450622,-0.1593899872068457,0.08188227964587373,-0.28637489589467824,0.16480148384551485,0.3516714594936623,-0.038114958135804754,0.015174637751849365,-0.5260390550560026],[-0.4775621510133619,-0.24743980454222173,0.3781656807530073,0.1237985847777953,-0.20143408852458808,-0.2830952940920714,-0.13073534453920188,0.18058623640687937,0.11317844767593115,0.1315232054744164,0.26313195449817117,-0.040937597225203605,0.13194183149115904,-0.004434410958367347,-0.00519224336660694,-0.2494735780268346,0.19277872212374839,-0.10833335845291177,0.24302973675887923,0.06487023938175918,-0.028464759233955913,0.053890134928848164,-0.20397280832727893,-0.08081388530795149,-0.014255946303948474,-0.2085208413991332,0.20037402657974754,-0.1663201865426306,-0.048949875878163004,-0.24387137436743742,0.011184977244334683,0.32677056008220784],[0.05599495335911955,-0.19640312634663484,-0.16000303024558546,-0.21221575063063172,0.41105876665634816,-0.42665513901842966,0.12090987106692223,0.2916435629801619,-0.6182794126641192,0.11111223695546407,-0.2539624022852675,0.11843532007851638,0.06705767799940483,0.2189772529992943,0.01747489837756008,-0.2337343150344886,-0.100651402884009,-0.25047666675917285,0.16598493101424713,0.43734713070050324,-0.25379897030551585,-0.5892163971387108,0.11427535277315157,0.16854859036425496,-0.019297667503977444,-0.29107086960554,-0.2144294338085074,0.25726619448994065,0.0018940737366122018,0.20945257862887498,0.3071092960051645,-0.28103430723216083],[-0.16718588926884123,0.07546226219861657,-0.07739396437279479,0.14129081628782264,0.03483460620044846,0.025856970305909638,0.19352868144306273,0.32570636250305113,-0.17556737641132167,0.2735906912200939,0.08713325254402414,0.5199777640944977,0.05193223966880979,0.05516119839443448,0.09051334154370845,-0.08325808388416205,0.1720722529452255,-0.16406994048296147,-0.11959301014855621,0.03047348571676746,-0.09064596945701894,-0.24803151005360974,-0.10482082533773386,-0.06370809188062537,0.3705256547268837,-0.04891316587626791,0.02769618730700642,0.04685713383882945,0.10229168955252387,0.3187313172042488,-0.2410110807583868,-0.10420669164674555],[-0.05469172150892602,-0.3345911562673526,-0.12834433954995883,-0.2309270029772707,-0.3132884031190859,0.2624695867799961,0.03785684181934454,0.062376882219089505,0.1091561877561819,-0.08956166076868383,-0.061188302071703365,0.1482684419457038,-0.03082244356563105,-0.3341280293883698,-0.1224972375599951,-0.29554209525618247,-0.07016889181023686,0.04357275721740447,0.19816516342287582,-0.04423463642180897,-0.2816423645103325,0.5804389826371119,0.0942397244648244,0.3805140538378209,-0.05175569536975355,-0.08554459980820912,-0.21147861067608523,-0.31277880786270734,0.05085913240783019,0.08610234593127769,-0.1319018306847235,-0.20206060630053677],[0.12951877476972182,0.08710044373396258,-0.34390352776483263,-0.15611875582907025,0.2999341785439155,0.3022416447652334,-0.15686615864495718,-0.07350569012421665,0.0006569436633319175,0.3742792267649415,-0.028748982583360234,0.0993829146777736,-0.16300368222913372,-0.24648104213494657,-0.02163333321026214,-0.05877932374480663,-0.2147702517404171,0.25718746941612347,0.12393515362456256,-0.34341857995120995,-0.023796743800821384,-0.1277393233895059,-0.009812134330736917,-0.06275216042841389,-0.30717959750845863,0.15396740848580814,-0.3708437669747051,0.09674692449854848,0.04110686724624516,0.16246536609898013,-0.13188982408931746,-0.24763377452689692],[-0.599703651245801,0.2707302466430374,-0.1994582625526527,0.04307403412215135,0.1027339638455165,-0.08577252375171082,-0.29795563489301813,0.008117303768552278,0.1970029566280641,0.017657720533466797,0.16054480042204172,0.0884542213760185,-0.22465100943759408,0.26362369448868384,0.13912996793791244,0.19973070074231344,-0.2840813053363952,-0.11359396111313351,0.1681466114987373,0.08320009919213392,-0.05690205648797897,0.17258627191272521,-0.07537014702111357,-0.3529464419161321,-0.14333208630118582,0.21526954710484975,-0.19643301131662355,0.07722526716391663,0.19874219018268055,-0.07103311221294867,0.2066600123637221,-0.11323042442058191],[-0.11356483499466,0.1991704213458812,0.05353463809149924,-0.20192349726349298,0.3259885330176552,-0.22684376760006647,0.18863621997073707,-0.1334388300274807,0.10044531920907096,-0.09912667113091003,-0.338957320439576,0.21663935522473626,0.21071518209346068,0.010618878323980663,-0.0795511705028336,0.3019261858859446,0.6484804095702729,0.16938698918317097,0.2568292022201082,-0.00003583631592644167,0.12443662716434248,0.6313037154014685,0.0832936540878417,0.20232617442668005,0.30418474186503963,0.43652167475702547,-0.06196379524721491,0.15310130226216498,-0.2583804964422961,-0.20523773040946489,0.09935179411580213,0.20709970269403194],[0.04883355731285013,-0.31485610467164427,0.04628617691032001,-0.16512583947491768,-0.009811337629931987,0.16946353326019947,0.35537073081661585,0.11552328405237942,0.39379886029068994,-0.020647322849767225,0.15746126363919627,0.1785521600276476,-0.15986892894986637,-0.10915188384070652,0.04366916056771667,0.4291537687941852,0.1694309994156199,-0.0009188747364408224,-0.2747819859480561,-0.3439432363660877,-0.12270357112232905,-0.4828483943916731,-0.0698116073383223,0.38860283349976665,0.21581225279675406,-0.047416398456824105,-0.3049749313671434,-0.022007724389026567,-0.24738358476715933,0.19223578846297865,-0.00954730288618558,-0.20123170254960995],[-0.009978658818137804,-0.08666155020267016,-0.0623088103393335,-0.31399847194453956,-0.12249926650943382,-0.34995305984204267,0.29875168850370476,-0.1434556382760067,0.28457522638507693,0.4277774298289416,-0.49543945789528127,-0.05109745461587241,-0.15643678767174043,-0.08369586581657519,-0.4151606481185999,0.20209013178103274,0.1709047706633851,0.2801545836940495,-0.040101114669546176,0.13997925968481342,0.20336357079316394,0.16861958458046597,-0.1701724993202981,0.3694214051103296,0.15093303191712507,0.06234722869979287,-0.0625932365822367,0.05300047194629019,0.1463472098819945,-0.23204089661476712,0.21269169431879908,-0.15964110823491087],[-0.3962665043963051,0.04638853374186306,-0.008495592908584912,-0.5084478359990844,-0.20388320185003458,0.2242752782549264,-0.13134308268301617,0.29657428818706905,-0.21597493288390487,-0.37455227990508005,0.16492789451237874,-0.3933234035903525,0.236057199599829,0.3517070966840664,-0.05813391579646324,0.4827397881522719,0.3550613088827254,-0.3373940028051841,0.24749811709226696,-0.5263067175287336,-0.15778977451879173,0.4745564289934505,0.0990634943364959,0.05084887230763323,-0.5031611826723001,0.21023137866746117,0.12458790082236189,-0.20297023804197184,-0.3269337771377767,-0.17915235885804107,0.17119583672049085,0.3547339543305662]],[[-1.662389021099138],[1.542060155939357],[1.5458430822475613],[0.39214267361449195],[0.5917416464624652],[-0.3916274107935629],[1.8067348114826685],[0.3840275641514384],[1.8158668848046304],[0.1877496965684525],[-2.1692835820708734],[0.9177252127230615],[1.2342742029721636],[-0.7188908222106031],[-2.8443940382852637],[-0.11451430809396623],[0.2633117979109058],[-1.5391195591812048],[3.6782485015088726],[-1.5012909186357248],[-2.4230285191408774],[-2.4492194232157716],[-1.0416765460187711],[-0.9379172745500672],[-0.10074777223752128],[-0.8257696122492201],[0.5087704811896371],[-0.9783167740685649],[-1.4816119719461311],[-1.7805744655141371],[-0.11113018469632553],[-1.1962019681962892]]],"biases":[[0.19627250648500635,-0.19016483331726292,0.656201392414413,-0.286945212475066,0.3138874658228729,0.6177270738643083,0.43136220821474724,-0.9832343689005489,1.1212718415063718,0.957654492479124,0.80949320102187,-0.22654484436282235,-0.2394189129853144,0.035676333065011515,0.19671170452260905,-0.8943328779955486,-0.8752442512264205,0.1754863828065633,0.5023294022596475,0.20569735689677268,-0.31415447336373103,-0.18917684693494963,0.22951630615613727,-0.6429983792930254,-0.916819893295179,0.37066786176673616,-0.7041601392977886,-0.04384387862334005,0.2553917219533937,0.14926770693194502,-0.5097277962134543,-0.7410965129223795],[1.0004438067135462]]}