{"layers":[[0.5490188525190579,0.755576086835895,0.30850923048373585,2.182882581863826,1.9102108030741003,0.9641899327350992,-1.9051438244143346,-2.183074480898158,1.3552326869489106,-1.1273851707905909,-0.34859995040390135,-1.159865851418693,0.8098752756570855,-0.6413338389044517,-0.9956739245345275,-1.8860057630751887,-0.9277753821395255,0.7388862857909297,0.39411330861450705,0.2745570187409588,0.6111101910263735,1.6870244502719967,1.4033389904389788,0.7789511619244325,-0.6246904893300991,-0.9835290661232735,1.3338695332119106,-0.548904384917133,1.1897366442861168,0.5082511326744084,0.3906645691001602,-0.6131274241604164,-1.2091818252369864,-1.5805314595965159,-1.3368710609298096,0.8901448186955238,0.9,0,0,0,0,0,0,0,0,1,0,0,0,0,0,0,0,0,0,0,0,0,0,0,0,0,0,0,0,0,0,0,0,0,0,0,0,0,0,0,0,0,0,0,0,0,0,0,0,1,0,0,0,0,0,0,0,0,0,0,0,0,0,0,0],[0,0.1200503562558998,0.8219574485579255,0,0,0,0,0,0,0.738238414439566,0.2286162223168085,0.4415216682573431,0.08857370793106574,0,0,0.9189311393484056,0,0,0,0,0,0,2.3092189439222466,0,0,1.6010062044214894,0.8480914287435859,0.939732631965658,0,4.059826245226024,2.8796975593190286,3.1466412154584558],[0,0.9685026422542845,0.6489249058410043,0.09152917904390367,0,0,0,0,0,0,0.4205180810814809,3.3976143106254364,0.9171875402257725,0.3398452642124505,0,3.000860403013675,1.0886679480985342,0,0,0.8652851191073208,0,0,0.7864254650535785,0,0.6388401558609866,0,0.538007372159071,0,0.9713357911159464,0,1.7742196197552376,1.9661501427046633],[0.6912678706787725]],"weights":[[[0.3969500152614749,0.09883128930239804,-0.0522166862676462,-0.07574801164646129,0.13488858255554348,0.1688161026806528,0.07318088786867416,-0.27357197141761946,0.2959360082068251,-0.20668397483285675,-0.3900016968581495,0.38575004146626285,-0.45535117132144365,-0.3777536308740312,-0.16738019903250745,-0.10883760630145338,0.4254996264837286,-0.18161299679984907,-0.06403919662097364,-0.1432216695713739,0.08100390348726363,-0.17890778982075473,0.19817688931531066,0.007540870240256257,0.17208928172421922,0.23507648421665528,-0.02341679283556755,-0.24015849809837234,0.18785875540539804,0.05633028113412531,-0.21385058396307385,-0.04624097321504963],[0.1888025809903923,0.01046535355799236,0.3460508664044657,-0.01763998612455528,-0.22678555970157926,0.6375686329579694,-0.0412126589421139,-0.06326615151221134,0.09349267441749926,0.37047677674801555,0.46742713194279195,0.0857978428547866,0.138013078684439,0.47252759829141877,-0.10786268934956006,-0.04171808670536591,-0.09835661977858182,0.23384562107602058,-0.30078214900789985,-0.22550868192368342,-0.08092203683458604,0.2057999370279573,0.15327127557999146,0.2814784039213207,-0.012548869615875513,0.07947988640106496,-0.05288995078683557,-0.03970287497084917,-0.08432381144172163,0.02943738271679457,-0.30324644125744,-0.0832156295495978],[-0.04948356285387745,-0.11557741691518399,-0.34438576857113345,-0.2005035652765689,0.17391090830498682,0.10629284068836004,-0.10215775920875551,-0.01236111907985206,0.05438829394364572,-0.1582705743206363,0.5008611665356485,0.06263536983112739,0.23175008769227365,-0.19256199059279677,-0.3374048383938808,-0.4578165448221166,-0.5685548595508537,-0.028262784525731943,-0.34690570666492776,-0.036594715619309104,0.18816203991644612,-0.026799628019879517,0.08949606963412131,0.2595698189593142,-0.19235352318908255,0.24149652076444142,0.14795877833388563,0.05537265526053214,0.016546024931274068,0.10687268927036334,-0.35619483597284846,0.1785890595710835],[0.17728804069151685,-0.12842659319934344,0.04253234460242109,0.1574561200003668,0.0012637654187242883,0.21637493322170934,0.04111469325737395,-0.5884242210490586,0.06546130101105602,0.1463261339279449,-0.15839838548221896,-0.20936620405151946,0.43586050951349853,-0.26392187135055223,-0.4460164401059516,0.302946841504088,0.02061646414167605,-0.10056843023450035,0.20737425321544598,-0.05447025535320544,-0.07429763761474512,0.02700072108649452,0.41080235598726816,0.1816756395500754,0.4199514024938885,-0.30027194368741067,0.26626387432601933,0.06237726982545727,-0.5870582482665982,0.41122681733501704,0.4308680054970089,0.05173215667586324],[-0.31196894335285125,0.00823049555309241,-0.34538766629696527,0.2914836806840825,0.4419624350468231,-0.19875637195746843,-0.26361320110812503,0.6003476277637003,-0.40552686851105124,0.05048816569386438,-0.19563012537491795,-0.13867071914852838,-0.20819624949971577,0.2746495593515482,-0.16395704233668099,-0.2939095876423667,0.27211596211501254,-0.20963522715218336,0.09706622272573774,-0.1658856354562898,-0.2590627708064558,-0.02110649025545583,0.036737606811599724,-0.11704452472234422,-0.09506200244146631,-0.36449979496867935,0.6999302347469716,0.19537287660573716,0.025145182860028807,0.14035679572680104,0.13449026319343033,-0.06040023906616564],[0.013948380477511948,0.05857850608570391,0.2783567015247516,-0.14736835254377048,0.4904048136525257,-0.2621615977210686,0.10555095727250921,-0.5894209885854456,-0.5480018292253441,-0.2730525127536119,0.05800815974655204,-0.19032104212863726,-0.09154860964547089,0.14655307185682176,0.0439344549488912,-0.11535573527314368,-0.19721696106734699,-0.3876322968184086,-0.13614006579569493,-0.2868413121040504,-0.10477337519187248,0.35035160519401637,-0.143373869443299,-0.005454780675531321,-0.19342946439420827,-0.14654269741376416,-0.11186915118367526,-0.0249434248511153,0.23507658021631117,-0.015667273328462433,0.15380970416355225,-0.0186920173737083],[-0.07700393819795213,0.21576815404858693,-0.28380956740333113,0.27911915290474304,0.40139132249424986,-0.37804861509833,-0.07069977156732275,-0.09985063298770629,0.29506662217534607,-0.04545612099325641,-0.019807135490333163,0.2089289405990919,-0.5416843327279702,0.15906709063967697,0.23885196071889206,0.0866676710087121,-0.13141892783314152,0.320551065397114,-0.09651281624755012,0.17633303938310035,0.13233130359796416,-0.3148344527675761,-0.39502054980319107,-0.12210674564668926,0.39208691957509545,0.18875364569780106,0.1497600451393257,-0.37830840358704304,0.32196471032514246,0.2484746207490838,0.013461039888960856,-0.3308902374044624],[-0.057313040358072026,-0.3814291109207597,-0.13682146900453654,0.08302415817110959,0.19655282601816562,0.18887959440575725,0.17768248810365952,0.0005954205115613648,-0.16647836915865147,0.03428051024655998,-0.30773868628919465,-0.2566972948911027,0.10373610683306927,-0.04868700866015406,0.48538231462329356,-0.5405466310120323,0.11081170851559947,-0.0092291848506283,0.4096616786149853,-0.12609249281094917,-0.20633963804162153,0.35179034581116503,0.14547093120571786,0.08562336590537657,0.08115883489708588,-0.37738679211144016,0.10871991633874493,0.09282056562029896,-0.22879229079058178,-0.5564400912235833,-0.09254639777239743,0.11182596941042777],[-0.01016911582512486,-0.21211600339910086,-0.335246328862523,0.025532366865938474,-0.653063292376776,0.2834815293872674,0.2266116630039345,-0.3740078399347845,-0.418414041278764,-0.1706629569641576,-0.07010014555549553,0.0035300041687208144,0.11724440253792526,0.26463517927247915,-0.15757064881238514,0.3096296336105453,-0.233091669616324,0.0002909157269399673,0.04714331259703835,0.09603005720551892,0.16944660045533824,-0.11597100848752875,-0.4207191684478705,-0.03841320975402097,0.02299856140565244,0.17249935512747575,0.2857693969203425,0.18476270448315948,0.0376222041424966,0.2584833739751108,0.27251574916253307,0.15118487839300312],[0.4794340407452356,0.07928357138212086,0.15268131428121084,0.28285955185571565,0.38912378087406746,-0.21056793002604504,0.1743398925622652,-0.22664110049763933,-0.011884994263065541,-0.07696356167418598,0.3319746329803393,0.28457078648909817,-0.14611744142620292,0.1753759899004861,0.4407079751439243,-0.043127159486356675,0.30237746594843035,0.4006039709977398,-0.5792097454109786,0.031089364091125653,0.09539485540341724,0.21465600455514453,0.13078645266671624,-0.008015002142252668,0.08838452413222886,0.519402496057634,0.19850354080648336,0.5481694468518252,-0.05449189503792757,0.3345402530979347,-0.0038888747896839277,-0.02941240075317591],[0.44230815147526054,-0.24330853683029252,-0.055275520854452594,-0.005928354489226107,0.06694685074522029,-0.03626238551566176,-0.11296386474115129,0.09474273492480308,0.10448160580637494,0.023148502709505494,0.05093694634707149,-0.1510616921983909,-0.05575402314633791,-0.23059002464707742,-0.03344032046719033,-0.12926528962250483,0.17938051921099424,0.22924142696859923,0.2025964560542789,0.03485039342273835,-0.15456434157342416,-0.05465103292236211,-0.12656495378799412,0.1777252188585949,0.01579699813474218,0.10419290165257443,-0.2923554889912257,-0.16275986920735322,0.0072614846230714914,0.17221544257550236,-0.6096413943861034,0.404666587161808],[-0.06240207356058839,0.15428230356485775,0.3156369958301589,0.05223125506273158,0.22479466849054164,-0.2645978030586636,0.10550121279251326,-0.007511730893715842,-0.23525345777296658,-0.2862851784562447,0.16887370417864817,-0.2029741521182307,0.12849134273191468,-0.1415122611474973,-0.08171246173727977,0.20026739435082014,-0.44735304686317173,0.057304883507245497,-0.3320920510174403,0.13061141404886728,-0.07181624251900047,0.13200026116176933,0.6681563561376281,0.22930621618964214,-0.07598067780027008,0.15412000076791044,0.18111765514267808,0.06724338814995723,0.024967005068594655,0.0687537835668069,0.18771292924974878,-0.25513793002713864],[0.0447948296464931,0.28931817609296584,0.06949341748550289,-0.16104758859493604,-0.4882172813019843,0.14171576694346086,0.05224530419883597,0.04430506001107613,0.18405614492611155,-0.06552339321345864,0.13064731023512066,0.3693003849204002,0.11592736566402743,0.06209254960086251,-0.04354968306302424,-0.25440347129752794,0.07376543767503249,0.03341178857974161,-0.4211732293848627,-0.3237158491108431,0.28897837595507575,0.5371163819114393,-0.0834583291204294,0.30103940550268066,0.32077661198048923,-0.05032876003397222,-0.05812484003073772,0.018329850888481804,0.04860243685088169,-0.016896966182195886,-0.2291814638582091,-0.23549122635174827],[-0.025534730841089894,0.32032140350709415,-0.3630357063812858,-0.46018435150788894,-0.01916071407534948,0.28628801447481106,0.13652966215824738,0.40512744494862946,-0.6001954819615493,-0.36472656096674366,-0.24972677604976348,-0.1206649066950281,0.15094179172229497,-0.23840628222872073,-0.4445778240860946,-0.714725701054253,0.4280230301650661,0.26855232337251705,0.24728137908824355,0.2355946126422756,-0.1992381168885967,-0.1682896997023018,-0.3821212038051166,0.10058535172411104,-0.1686085696259146,0.20172394080950865,-0.15326435174527236,-0.25757964190939836,0.09311068140410439,0.051909655450365244,0.540465419739309,0.5052158922753006],[0.34262827784782424,0.008313592909394483,-0.26636349639918805,0.15496964527275026,0.26116369046916005,0.10348103036115142,0.0026876239554548516,0.05509017568346913,0.13015348798616816,0.11328197390961653,0.09318083434350176,0.4553565418095798,0.27481808445377015,-0.06476089839801752,0.34117039981778563,-0.13455692176211898,-0.08895658292494084,-0.05154973805244334,-0.16119662253444833,-0.2233046533512247,-0.07603875969234984,0.49315355054517684,0.02244576473794011,-0.06879598667061053,0.5110566421665753,0.016310357958585077,0.0742017678871637,-0.09808658411919408,0.1721394996843752,0.052131203025823636,-0.07573909357616823,0.020820223020705964],[0.15503532499245798,0.35090851636422493,0.1407164589261549,-0.0074648143514669425,0.10440768055243506,0.11664322189228478,0.014551173299431765,-0.2129391799902954,0.3386623603793438,-0.11757542349237413,0.2572615468850183,-0.03368586572878424,0.008350252789617776,0.14171675976691928,-0.13031083261289023,0.09839705198918887,0.14592211930052668,0.19799146672343546,-0.10258549616766913,0.24855223495994547,-0.2799398454088343,-0.016899945129885432,-0.028157314090907187,-0.3172174205151557,0.35973314427462333,-0.158353746849531,0.12743709467454292,0.0916893785047019,-0.43555735234033266,0.01695928144694022,-0.030921781180889597,0.0424519522437166],[0.20174511950887425,-0.024027675706541178,-0.7418489042222172,0.4157784049777531,-0.08665561971960771,-0.09468962292747148,0.14200651677197376,0.3090233942009556,-0.08781442788945978,0.2069976083991372,0.04666217598499276,0.41953688737741535,0.3588411459054099,0.09903225369947297,0.08837328698025691,0.15957530311398158,-0.019888776308097707,-0.037093084313682585,0.3106988504702177,-0.3340865338338516,0.2382293547229448,0.2534002628513669,-0.12426223546162701,0.24607107523968247,-0.2727941497888622,-0.6302286208436872,0.028942988944017138,-0.02929776137464197,0.19637461491732222,-0.3389775800885607,0.0475666432316771,0.03908476155636276],[0.4933523130596724,0.07612790468887937,-0.2258134045108142,0.023145902230497888,-0.0793631170257285,0.42001895170241516,0.048380984281874075,0.06879536632479978,-0.16911149839174477,0.31449471070196805,0.5008265895786044,-0.018226581951636605,-0.3154363229687391,-0.03311059907976824,0.31850013347926615,0.4290710237510882,0.09822695455916441,0.20567160481462507,-0.42170232059222323,0.4933828706505701,-0.3538937981754438,-0.1014580884407876,-0.2648426549371609,-0.29819446680969963,0.04265221599351647,-0.026170529749060645,-0.4082148795544785,0.14528266833783846,-0.5095823466093174,0.6097078481949325,0.051127326680518906,-0.342807154696263],[-0.17038062002095172,0.18623468244582167,-0.27791341122563623,-0.26409641631644165,-0.11459886407902145,-0.22633543074080262,0.33291415786837053,-0.11001580264511736,-0.02853895146885463,-0.06434576607777232,-0.3195831038739436,0.09193072721732812,0.4415663171530315,-0.14539743342966766,0.4941634031375941,-0.11721900152287673,-0.054906611772132914,0.025706087002006817,0.08779795866013594,-0.11485720248686306,0.13882817934338065,-0.29808825500665664,0.15168258431388648,-0.14273408357714015,-0.019543980855282854,-0.0355103931306099,0.22627855236144626,0.16304433681933259,-0.38443327296734214,-0.10693241221722995,-0.17030383867423785,0.3760236128176899],[0.19309774972704655,0.1771048027316547,0.03979727257355102,-0.3336976737161538,-0.09914344870207216,-0.17958660738279317,0.1461985449087311,0.0663255946781366,0.023992816207017726,0.2178701697784339,-0.5356990616291597,-0.5318519419834387,0.45423842375767015,0.2704932022031377,0.23921340004114033,0.6544199550096189,-0.14152075557675206,-0.1992830928480272,-0.07775332947570435,0.0492041369785803,0.2258065085771831,-0.5656244039132923,0.28431698753275336,-0.049756438351911916,0.05047786252550268,-0.2983051816157153,-0.18053199491485694,-0.3000337168836364,-0.06165433170560596,0.2198380752612117,0.08885691940771369,0.19590829955090389],[-0.22628368645338753,0.0530212097420235,0.0234038788801617,0.036742612522625936,-0.4184565544133251,0.09581831358378469,-0.3448901198630892,0.3431542778895794,0.03384467663733555,-0.5968431892613134,0.06580302829208984,0.008874435837342046,-0.14927803314591867,-0.14948510476788218,-0.41012073535150073,-0.41005692982848047,-0.06752088221466461,0.1510020585395699,0.30693651676439293,-0.2198242465078983,0.1947579969425737,0.2664190750531096,-0.05433471320868013,-0.11749211702561932,-0.0161089672511078,-0.06627663626167214,0.1738048122986631,-0.19287317638463028,0.049541370729352004,-0.0427301032879232,-0.15946357580713694,0.018047441623118006],[-0.15223751394195856,0.32087627776835853,0.2966445800813049,-0.043474834597169054,-0.559870165437781,0.04804244488027483,0.1586594498859221,0.19085330664049288,-0.3737444218486725,0.01605145162186308,0.5297163176963368,0.47802377030171184,-0.6169445411569559,-0.057891067956749885,-0.23746729470597558,-0.09681025094059584,-0.11953302083463474,-0.04726540463178983,-0.4624267754354015,-0.5050120732281013,-0.19950368536346713,0.2574797536086858,0.22474051237646125,-0.18266983623555455,-0.12532811500230445,0.3103461862000008,-0.5164361939087602,0.34451523665013595,0.25096092099087397,0.12346735039316029,0.004615806324595284,0.171830756456004],[0.037861295776319435,-0.13997286964001862,-0.38225423526950797,-0.10841300622278346,-0.2964760096344707,-0.48937423153261006,-0.08317522758237447,0.0717638967763795,0.17443713897550475,0.0918476903556863,0.28235208506742737,-0.08944966234009315,-0.1227610101240561,-0.032233581156041184,0.04962862236620246,0.09420955050330021,-0.02130713076725144,0.19904007009535124,0.08484148611433798,-0.029681806304893834,0.08821898603937142,0.0975167755590582,0.254249947240857,0.04365283969746258,-0.12333801867172536,-0.06822772052706519,0.004997459691216296,-0.17175585138876392,-0.05666592346881835,-0.019702109895524334,-0.29837024084426567,0.09149643480658513],[0.08530540449541214,-0.15415761013650756,-0.031990172467021114,0.24099978642818629,0.18029610250928985,-0.11740148788395027,-0.16174350351712924,-0.2982358861091094,0.1214426291004499,-0.1470670660857935,-0.5684273062671201,-0.015185207854060401,0.09840844182653277,0.13968529659017867,-0.08746165869861097,-0.3389983344677712,-0.02283836810942098,0.07800695909406184,-0.2312607463009065,-0.0005392462964907819,-0.3861994972284637,-0.17328682380469615,-0.35138451598026804,0.16953595765463694,-0.04306627062732264,0.14427937364966356,0.4081394260469483,-0.15543412361075407,-0.3059956552789756,0.28262327557244166,-0.07291248557317526,-0.05763856066114556],[0.461423910769462,-0.2263518061864841,-0.2289604043214392,-0.10192042662659241,-0.12391205474885539,0.2957624441353844,-0.021274660138280783,0.30360124586737086,-0.3892448869334332,-0.09137203929636022,0.20550798240652315,-0.26633575635032086,0.20332086634326668,0.15187488960883688,-0.08513982184552085,-0.09894551455281486,0.04688645002005574,0.32796425489564107,0.14666982053440866,0.018846537062456606,-0.21415276649671144,0.09574565699711476,-0.24185864159274834,0.08118962651620243,-0.021864741345247157,-0.2694089426393134,0.12933057050663035,0.010847882956183084,-0.2655994701891562,-0.2758260539284032,-0.08745591498710165,0.20625611258259366],[-0.2696535055317201,0.4435185093118294,0.10967360473699088,-0.13677223856769455,-0.2538196221902194,-0.28933489883663766,0.021238239681975104,0.018126499723655876,-0.47221085193812723,-0.18332562798077817,-0.03329417948072129,-0.3149008780279413,-0.10857777686565433,0.03561454806138703,0.09615849535487746,-0.06436594360479196,0.33384249778144526,0.10843839761303493,-0.15176687357557708,0.015394953365268464,0.17778566904529414,0.13941551280414208,0.14367867478868734,0.2139679192527884,0.024114643024249368,-0.3389445087916792,-0.16273576058047196,-0.015302943142779388,0.09859421658534293,-0.03952216647775225,-0.22019234639441634,-0.21663810551395624],[0.370835607190148,0.12024419746358561,0.19623590437977737,-0.12146690675606663,0.07608930288524891,0.01796918873030248,0.2879992948280645,0.040491308499685796,0.07514214779010994,0.1237950456609401,-0.23631239414075103,0.04483153018330082,-0.2946733429497144,0.06509665250599311,0.20992220614859902,-0.2535628820887985,0.0015333983981528111,0.3789168922572381,-0.37559373622026504,0.1155748521763874,0.22894727477135404,0.18315140591110285,0.14283949651673883,-0.30937270135049394,-0.11539956730739659,0.22751388502345166,0.028492114273260052,0.14253899598992023,0.3577795477971223,0.25173387420054427,0.12644192004295368,0.2969142348894451],[-0.23694146936311755,0.3001640629640789,-0.26954050213332625,0.7617900026598401,0.3483242761091144,-0.5141856956728434,-0.36728238236187927,-0.12286732717295905,0.31771859891524684,-0.516035255840324,0.0628578201238492,0.289751765054082,-0.0015927758528875653,-0.18883796184930865,-0.15050841272714566,0.008836037672271708,-0.04512008035185451,-0.5177290264993386,0.062290050354305515,-0.194643396484364,0.39010610631338466,0.1652194777932728,-0.10808966902533144,-0.09684979110297026,0.1759180009413165,0.16723539132075263,-0.17282045279319022,-0.07943932549560741,0.4016215808308977,0.29086431990543743,0.2468044748705317,0.048461106434243194],[0.1129683612871691,0.46691027962466114,0.5656422532800917,-0.26749200622251335,-0.2547572041590445,-0.25356318820567925,0.048845820147290914,-0.2823727573669319,-0.24446547054733994,-0.11080204987583536,-0.318880565902902,0.03584178460028271,0.27546515774206054,-0.19958454913034365,0.019334834900572494,-0.4969701861000773,-0.33908850892551196,0.1764777486732636,0.22374658663024619,-0.2981493183003943,0.18502971807806473,-0.30538929451719,-0.10901698966816721,-0.15918578943524736,-0.2681333452441343,0.05126771412557501,0.14632333455680535,-0.0343156452009692,0.0903508351239101,-0.21183409320769825,-0.07967505001633783,0.17823755034795571],[-0.004701899075688171,-0.18592120242966348,0.47306880185073447,0.01217660338347347,0.16718398811555504,-0.23088130352484512,-0.3067678721778465,0.4719682414900862,-0.030641958503172563,0.07497838667400739,0.36581871367585034,-0.03169756903501688,-0.26479895130429776,0.07931855054423764,-0.2111710016144775,0.05213818036723325,-0.30666522024832465,-0.07260184522496792,0.21120736980501395,0.12193866535077615,0.06205097025647117,-0.2603017970764769,-0.08662993710380393,0.19328624509566228,0.42631830479984617,0.25987673256953736,0.576571387994872,-0.0051923685369401245,-0.11806209678103115,0.4216515805683593,-0.09490707435346961,0.24031074652342155],[0.07733925240169094,0.12714191387048263,-0.01190579847005535,0.5617938741696646,-0.2865326945895012,-0.29523819407546503,-0.05387300216300505,0.3278183362144593,0.6641181076055828,-0.21631737798201198,-0.07786463062012706,0.24206528270875952,-0.12378560943204357,-0.19544810311054914,-0.0533696614386922,-0.3001077227277662,0.4401956559210613,-0.15186201504527314,0.20754928109285897,0.4609158918936855,0.019769668355769304,0.1894952528567697,0.2268521360866927,-0.2391977590549557,0.005722914137599622,0.2391186958416598,0.0349512169212895,0.3933545635814749,-0.25914668203647995,-0.14407843352429184,-0.07907072750333176,-0.0612339460959238],[-0.33219674885136036,-0.04570694212417388,-0.26371733141717113,0.0760400201478996,0.31881559160927075,0.3223570561406171,0.27632616803319665,-0.3545173456200325,0.10948039474003544,0.191904740852739,0.45336381041826557,0.2497909650616102,-0.27946775260495077,-0.041667761945051104,-0.017471118609220612,0.13973083362969066,-0.16935345273206054,-0.11197845358277175,0.39327592400107575,0.19052609849048843,0.12961223980206843,0.02918214826417527,-0.052871665976558825,-0.29080184987388596,-0.13607417593618248,0.22360862363508913,-0.5614890088151714,0.13465912957335865,0.29460769782258445,0.06952817370734903,0.06584894409481702,-0.0006442473968322328],[-0.20448315812096454,0.0013927697508156836,-0.11617299027471682,0.27413846806020753,-0.0322399205079005,0.22031409022072795,0.3995697448978011,0.1294234886219151,0.1045904833788921,-0.5366581172415298,-0.19929639487294246,0.18005361260808148,0.026280459446075186,0.23811795771884306,0.015299440627898479,0.12750009029101275,0.2163292032635246,0.2593837991879044,0.053541027378131024,-0.12550796428115618,-0.014656439624253897,0.2869931793007936,-0.5319810375777417,-0.2329324106518263,-0.6139330897810211,-0.527148971062983,0.045068483575830515,0.3429366686498024,-0.11110085059400594,0.029597238731403505,-0.41401516833945895,-0.4881789870828308],[0.22883372793677775,-0.22059026389779846,-0.08935291084865757,-0.13259796723175074,0.2503416649072186,-0.15088616111025335,0.1487076654026049,0.12343357772852714,0.14759379900176264,-0.04607322566670233,-0.02324668368913701,-0.11398104938183949,0.28712622252638276,0.13113450249053685,-0.10261420479415811,-0.1434047894368744,-0.24620499412605248,-0.17276843458993713,-0.32211598011259374,0.015977038301261397,0.2580281913851902,0.11888630255720758,-0.2859400446270059,0.18684292784331025,0.2382093474827468,-0.1619543782730292,-0.08678793244989544,0.18404708732039704,-0.3234846675311867,0.10259970621795537,-0.3963077446944587,-0.3805902705916539],[0.24234722226264072,0.02735330050489362,0.06331857392532399,-0.05385632305886589,-0.22250513337196073,0.23982724552631624,0.11778008761147585,-0.3148766866410286,0.09665904626404094,0.03731881922091303,-0.24917908691856802,0.05265438216675726,-0.33134029349731997,-0.34191840375967464,0.19101625244389953,0.11065575125270191,0.23456667774312936,-0.09725020477458113,0.06371737616237497,0.2420741339044568,0.007953267178987002,0.0651131996010518,-0.21541144469797013,0.2071618838929471,0.26380999509196645,0.46565341883725186,0.22068001187205052,-0.04782353294543703,0.0338440152156056,0.264969279889942,0.041016496166261365,-0.313992853960036],[0.12691290639073938,-0.37911975880870386,-0.5388231581236088,0.17482313814606107,0.3075457954708142,-0.326496647907105,-0.22325736337879504,0.08533109974978276,-0.08608816490074805,0.2261898122738718,-0.004845469313031326,0.1550146000441014,0.017678438844935168,0.005162585378769359,-0.2745641060387862,0.041449746144684996,0.03478439327683551,0.2625748284264725,-0.09753357694904821,-0.12490891525415669,0.1929340354646274,-0.07241649587686383,-0.11273739905604552,-0.39832721925267023,-0.01618507233160607,0.463727627142373,-0.2420544718030908,0.172273714128324,0.171239700134168,0.057612506356809694,0.13966388906034904,0.5262825424793663],[0.03295190798140016,-0.2692336552987552,-0.308091875348401,0.07261622813005952,0.09769711698854255,0.12540033789258526,0.16081051269702024,-0.1408018295566587,0.38882768044903854,-0.04324483957186036,-0.05654637395870438,-0.35995079875544783,-0.02513386513314229,-0.38634883757064575,0.0038008298165332056,0.07487874055842056,0.10609094649360117,0.16758810604384797,-0.2328637669087734,0.2932987767998457,0.1674402543575191,0.27629327092886463,-0.13763149588829257,-0.03847266117594242,0.10006458954071668,0.4839267699174995,0.31629631891372645,-0.1928739241737891,0.040162132116142925,0.044682536884235666,0.43585573935343724,0.0659013929658015],[-0.1848274543329444,-0.3154721100282726,0.28974456178240765,0.3168552447179722,-0.4838340012660252,0.2538930693694791,0.11152947710017312,0.37714395341194606,-0.46602553621824727,0.30326460439818187,0.315997437693528,-0.09604565603819845,-0.3492852926772097,-0.10032828654589317,-0.02800606270274612,-0.27325334939561535,0.4261141118034954,0.11858400144567136,0.07098714877854537,-0.29201523845345356,0.3444238792719188,-0.2860104493607008,-0.14069041888527906,-0.2046309622710979,-0.5129501473241934,0.5300105123512436,-0.2521952136880897,0.019896535296330096,0.28845098210175407,-0.3160807085925125,-0.07991351810505821,-0.03506094769383786],[-0.26676094123216554,-0.39694595283976375,0.1811967536186686,0.22038934166051063,0.08820252941745842,-0.3402270139837314,-0.1655076625325327,-0.04342677164752292,-0.18613364114418343,-1.0376254235167386,0.24355154585514946,-0.22627110833862685,0.2418487880523991,-0.18617558583360297,-0.02908999017057878,-0.05551682978470481,0.05654078795241863,-0.444714659582142,0.4081576241988962,0.3196491966902039,0.0977909493060231,-0.19383371215457745,-0.0776189751851482,-0.2220266842618295,0.11564207181813044,-0.036618479768357345,0.11964410870262411,-0.11518647302415555,-0.037451136521827584,0.03258801481297417,0.024815473977714102,0.2258310544121749],[0.034990476227414316,0.3647294516720715,0.12385527706764264,-0.3030081090494079,-0.3406167361707139,-0.29896236212176724,-0.43710562113172774,0.2777577805001497,-0.06476443069272371,-0.2507688968226521,0.16387413965317818,-0.010467299455017356,0.0876796717761423,0.28668048464440266,-0.008603081833798563,-0.2535541364965489,-0.05223407515243715,0.35175590269113777,-0.1695753564614721,0.17827446945837758,0.10190678938827624,-0.04747380559681061,0.10712320577770401,0.08144703598525456,-0.39371788911928624,-0.11731322546838079,0.20400977012974375,-0.16767155584357238,0.04294106715373205,-0.22092528653164872,0.2549257803479031,-0.02056965553809164],[0.5457036563703924,0.22150671946384567,0.34291461647675514,-0.20935976899701772,0.11895237263815278,-0.3655956339348277,0.01597380870925592,0.43770445916723066,0.281390199814987,-0.10464722127714447,-0.5318790432013719,-0.08641450523788942,0.052430164258037835,0.012846607385908327,-0.02059847378440269,-0.23611659452818087,-0.11739427864945134,0.28744733587837784,-0.317066156908896,-0.28018563603503477,0.2166262172130475,-0.1114638621869767,0.24529933495595008,-0.42715835174712985,0.04236742908423758,-0.004491602508406374,-0.0023379130332097033,-0.050024125771776264,0.2595652528085321,0.21761018164987458,0.30301923122491575,0.41345082502228986],[0.3221824477945737,-0.10132265683679131,0.05231531936088477,-0.21278994668777276,-0.03188869269043573,-0.06460050938782386,0.294479807482029,0.06628396112379259,0.058732786961824934,0.12649086839619753,0.12980865378423267,0.06788771772664193,0.19886874447754904,0.05589516800831631,-0.44917927000076885,-0.298369609113226,-0.14852760023124395,0.11513649694448692,0.2151005729259686,0.4517878240133102,-0.27435063743390864,0.14185796579545137,-0.3471770234293375,-0.7542295055219979,0.10397319374794028,-0.08966511790211591,-0.12523353364942819,-0.4678326742582085,-0.21492176463121052,0.10765177643570306,-0.2582490154607807,-0.0454980615698552],[-0.26404528386396264,-0.31643452579316694,-0.35033288032949594,0.057583562556610186,-0.24519720507032647,0.1820861041352437,-0.213554593902164,0.13005107742115693,0.298941420396216,-0.3131429035413963,0.22367641551720605,-0.27273053866746916,-0.01857526181339246,-0.046988994988274274,-0.008867864784027442,-0.01996675600803967,-0.14145859488086912,-0.044043230131872294,0.15595320296078208,-0.3419729080550432,-0.007725141028911861,-0.09076829657288979,-0.07365262013770539,0.056854885026168894,-0.19563719144621003,0.1401533162429913,-0.26430075883710197,-0.3274646892444041,-0.016880737535684327,-0.12663535164520914,-0.2699339600834581,-0.16446507325620446],[-0.2349054272669078,-0.26848816974716744,0.3727575198181319,0.07482994972871106,0.10746944667668897,-0.45641155342640083,-0.5135306755074823,0.0816699783775789,0.08895067349566067,0.046282164055216464,-0.32846730166156546,0.1163299050563658,-0.16515987351277706,-0.08824548881001239,-0.016230628247510166,0.10833239092709238,0.08805313467442338,0.44347323223810947,-0.16791507037293307,-0.17128176254423758,0.21434130104571789,-0.49115384729909134,0.011832183547826758,-0.06108457990915946,-0.008810379851078052,-0.028439631518143004,-0.18836862557716397,-0.020162995849593034,0.04156154870615705,-0.19373818911887514,0.0347148217760774,0.0921484111014437],[0.44092689043391764,-0.08371685222183059,0.32026352399742564,0.0659276928147841,0.1937483194807917,-0.30580474946299174,-0.3469908273066669,0.2717007731342137,-0.020965853803283162,-0.22172286496219598,0.0042858962614438015,0.3021803267189517,-0.05116087196897048,0.20020980207357297,-0.17202663318231956,-0.1485708608822991,-0.12073140822732081,0.26217301102680585,-0.1594937117940833,0.002907857432327241,0.08426932172275142,-0.05100941797462849,0.605544043820791,0.04796821399225983,-0.38205224939533833,0.13467124771382508,-0.3502055008418232,0.5269579192339768,-0.2293618938102079,0.22512069884279137,0.1096950840934731,-0.6366249804815358],[-0.09012993191736153,0.05870624240717041,-0.11500173221914047,0.05574152656782096,0.4174557788982134,-0.5017668508046397,0.10168039658097779,-0.355097154724927,-0.11032044876243745,0.20938307288573307,0.14077975155766087,0.2140409885011654,-0.00714631848913066,-0.4779049545657241,0.007733507644911241,0.32668709035177174,0.27318653810328597,0.05351653330202618,0.21235516399601548,0.05545184104264022,0.03776145729348034,-0.29125757385967305,0.033719908302219055,-0.10005003377676852,0.16017001518961832,0.030873663059123174,-0.07493109834094651,-0.1195513612404203,-0.0034968554598115687,0.30656576292005117,0.05070704438107798,0.12281875636053205],[-0.5394913198137752,0.37418170076570717,-0.36248338227132465,-0.22071891990307566,-0.01391108679064535,-0.2113907551641593,0.01089790836264901,-0.4700301269849126,0.07921396539939847,-0.054044948450906995,0.3274571169304105,-0.034403506144382236,-0.003793139579566959,0.1334315726745431,0.4970963770848052,0.07398956920900442,-0.37648080941179213,-0.07281601569269562,0.09964871423091028,-0.2795484623471884,0.04805745867463776,0.09809639846293738,-0.11031980841033208,0.0392079309406936,-0.32947943919785355,0.10649709569179876,-0.001120193697434642,0.36017125059226346,0.2586149340410157,0.2611256520648721,-0.10139980282214268,0.02975868546356704],[0.15367400974226353,-0.3254713603258924,-0.45817363703727726,-0.017584281710928656,0.09987425717911227,-0.03281690622130431,0.20454839331661692,-0.414960408802008,0.20831033504945365,0.18056833344841883,-0.013443377155422957,-0.19206442440651114,-0.39304914446094225,0.09624957009625684,0.399928331019097,0.4609206522737855,0.0861931782149754,-0.09410890642788033,-0.25159101946378226,-0.35068221046933196,-0.09772625372170438,0.5668983749152406,-0.1698196171329569,-0.058035004966753935,-0.11041980458278629,0.28780642478470086,0.06762087702014752,0.18041114395172544,-0.22372313368229138,-0.07704787330492192,-0.2886207891975187,-0.3686036490024833],[0.107862241296585,0.0037211820891390867,0.02497017921189852,0.08937872902942595,-0.20321906536380313,0.3016331546371394,-0.1399175806705979,-0.049084430730229056,-0.14641708475163087,-0.058620996365788866,0.06506292132652254,0.568282262158306,-0.09814270877887131,0.2565577614687104,-0.10499260649713686,0.20922105157991333,-0.1181088543676634,0.5030944420457251,0.04320843895959658,0.16211993634659316,0.260071664226134,-0.14131441928104402,0.24348096705744274,-0.10793170614415011,0.20160030234302848,0.5507250151587337,-0.15647107487975076,0.309190455139169,-0.170711941895158,-0.28952094494788433,-0.2545779092335779,0.14613980564334533],[0.2540620670551689,0.3896666228496108,0.11826314619176925,-0.18947691908939207,0.15239635708417024,-0.48905918504617124,0.35887171679206986,-0.10426356065690992,0.016258943006678597,0.0004910429106634722,0.14111246654357654,-0.005750980408146837,0.30724779710937467,0.28327337382390305,-0.43144627841967625,-0.17482857928461445,0.00327400924132897,-0.01726343893907311,-0.017419261123309524,-0.05412765330985749,0.1925017929440438,0.45765905724486544,0.11587320991229422,-0.3659767437977835,0.6894492352716035,0.3619932761283441,-0.03774749270581583,0.34496418026621334,-0.18969133418771592,0.006446233295481025,0.22148472264551292,-0.239311028647422],[0.06825895202200827,-0.35449301036908126,0.044612952218253975,0.11632516959610759,0.09612964467202054,-0.056018024394405265,-0.17586178187495072,0.3067609520284485,0.441544318833357,-0.6263497327685191,0.28880848467870524,0.1798238588252283,0.11826910647348679,-0.2969946101019144,-0.07241268423620104,-0.187901042887437,0.22474492145480482,0.2456051258980885,-0.11548420888879883,-0.14966874800182944,-0.1069537269888423,0.05497184333798702,-0.015153319934852517,0.034185367819811026,-0.1461765162903064,-0.028760032869548514,-0.2822637060896424,0.0498940960086136,0.4041807542212392,-0.4722953997947605,0.4448548099573974,-0.056369201969556706],[0.10842584212330644,-0.42189703203751794,-0.0992805208959064,-0.00009686407587552292,-0.03830145173694942,0.4935960802799849,-0.4781645528031858,0.21794381873181964,0.04082930617273458,-0.03878165019861941,-0.16494173737383008,0.42033284179299,-0.14627064067018103,0.2492433272852512,0.15402136996972887,-0.276420403772741,-0.2831236310794634,-0.05930544317056956,-0.41078278167869653,-0.25098648549725605,0.3142807453089957,0.37798309354103576,-0.18351391677836573,-0.3241292357282014,-0.5947314484795727,-0.3286162514145011,0.13692142180465555,-0.11790725388063449,-0.2006151113743015,0.3333431745540345,0.11947899738387921,0.13516906072587842],[0.24672400278780512,-0.26172212518899046,-0.2692375280881782,0.6147581707419324,0.2975697545579966,0.41088718918697326,-0.02339635623669073,0.06480528728470775,-0.4406297964842608,-0.0955000132224302,-0.004405874460892737,0.20821171938571698,0.026154271000750826,-0.18063325657683935,0.21605904725991507,0.04508203104094797,0.26277756512196976,-0.2154246720008181,0.5685847971370064,0.0015790147472255723,0.15299044342904908,-0.03204254736737237,-0.6141859886524224,-0.08228554956964543,0.15180838244497388,0.511312289509217,0.3436307138738459,-0.49375145484905,0.11588770203511109,0.5202591136653385,0.0945486153985311,0.3500154342025905],[0.26899224575884384,-0.26053244886824317,0.02623331227628673,0.40128589787826124,0.12488392095094518,0.11157010653637507,-0.11946146115609015,-0.017807283897505178,-0.24104106577357137,-0.3738239539710033,-0.12168038020266919,0.5180386108770592,0.36738433425391387,0.28845909087725224,-0.3631390069259048,-0.019826847870630205,0.4795436633667047,-0.09950033939804633,-0.15734059401509565,-0.4955411309121905,0.3890143217497291,0.059820546385541344,0.12205833780667702,-0.41601414668462644,-0.027918756224233062,-0.6088382346136935,-0.7513566631511382,-0.23850981105361868,-0.10865569493806708,0.23176598273293011,-0.08390721194545536,0.10104051593998617],[0.27790626470669333,-0.11746637913832057,0.23522163436718788,0.32747048885555896,0.14625620635803072,-0.01788642412499374,-0.25917789299701877,0.4781988105511533,-0.11547156469077835,-0.06613420226007091,0.07474874741857188,-0.3209702965748604,-0.20571174252706415,-0.10210108649499892,0.5172782513549168,0.34890093184708443,0.04270710794954745,-0.21868736676768138,0.3743964419855165,-0.013461625773609858,-0.4473698331483764,-0.046781058317536414,-0.1747170773044352,0.12055965104164144,-0.26674369983564133,-0.06309096312287195,0.6183762373712074,0.4610905680848196,-0.08875242583274523,-0.4776408245869415,0.08414768544817064,0.23486632342959432],[-0.24914449098321337,-0.41805450073361,0.17399066312767383,0.38700189292629233,0.00672698406143825,0.5217230438912458,-0.15090777312194456,-0.4250435067958287,0.23496936540920432,0.08391383314903851,-0.09001224220427878,-0.318385487287306,0.04323814814174205,0.043690459734136385,0.0270733977395493,-0.10035471879752464,0.2257149784871704,-0.029193398571721853,-0.2029590315484293,-0.3954109009105172,-0.006846358272843106,-0.015696888038287306,-0.08782685636881338,-0.0895998924223813,0.1419115451395843,-0.09215427748208017,0.39172593490775337,-0.11036690442734995,0.074453188855465,0.2515713100178796,-0.14929384796434444,-0.016548656030814617],[-0.06790767003587725,0.14202359749055662,-0.4027462886338147,0.1529219535200932,0.3701612033242956,-0.41111641294981716,-0.22418118023286132,0.08439697585334727,-0.05811784201567576,-0.3665537833768378,0.1345952583247673,-0.13504742693543687,0.38396522706150715,-0.18109062266297724,-0.5721010362457667,-0.11216225199568727,0.24657462871808375,-0.3983052862529916,-0.2919852305663123,-0.05552731330187854,-0.2794510182918583,-0.1528687854592184,0.1254405945302883,0.35393138881068237,0.1347024743331242,0.010468215541881197,-0.0772284134149469,-0.050894810198444954,-0.015692695095519005,0.14087783674449394,0.07259375351965822,-0.08484937796145596],[-0.11819278295778499,-0.034616719013135615,0.07639998500036375,0.5383757282910239,0.5752045237942057,0.20342261561431457,0.14149339806716657,0.15757914430293807,-0.050231506886613694,0.04902741785786952,0.1285564335765009,0.048693000687223535,-0.1458301773625955,0.030301865813147047,0.24096602815329013,-0.3359238442727388,-0.007016701990899869,0.16550788646053205,0.2929375471282543,0.15408668253769559,-0.039481754657512365,0.3454846776868927,-0.0702498855315497,0.6974884426495307,0.07655738264244971,-0.13492649678545002,-0.1619202489909712,-0.06320851477695122,-0.29447114072548275,0.10127082792486813,0.2609295718954845,0.11368152514611223],[0.0745121543316621,0.09000368099081549,0.17389099681392103,0.09166072232362923,-0.11289523719681467,0.055915520661294744,-0.06048038284030335,-0.0811763293469357,0.22385775778507896,-0.2034851652584713,0.25725954243837285,0.1755234217474303,-0.07294172249586496,-0.05898058944062485,0.3504529928233024,-0.014232430815131064,-0.31693941543986165,-0.0488067162733501,0.019468001891564918,0.027921487083474247,0.03945383179782988,0.059872020684453346,-0.32401822293585253,-0.011782767714357505,0.154924149706376,-0.24019482379818585,0.2872886020043322,0.05725073329156316,0.3296783010189734,-0.23745402082649605,-0.27872116089760735,0.11907136193205366],[-0.31633130150201794,0.20529284005050383,-0.1454917909975225,0.44546404379185145,0.1312509602297506,0.20326568340420686,-0.3720340096025048,0.03953078547448473,0.20026184449999987,-0.22959386172348178,-0.3060018369341324,0.15614461082306297,-0.00686308139898954,0.21931824562971877,-0.03601792072001767,-0.5338220546885906,-0.24085893246334866,0.12057718734122508,-0.2861053938221645,0.2595826069694709,0.20267254202168045,-0.04378904506066722,0.20594051455858842,0.15152298075380197,-0.49203484754627863,-0.2061349885820092,-0.07720882038390761,-0.08793886856194284,-0.06410636478548741,0.39680849702225546,-0.002106750703700893,-0.2090968134932647],[0.15626072286118264,0.12352816475432482,-0.06776209141528576,0.5060944165439406,-0.0584940446098948,0.5176082515061481,0.0629113866458858,0.26621909772875935,-0.21618428090249828,0.11099857137246212,0.01975063600461288,-0.11116041752496361,0.08292674797217421,0.008091632019504335,0.46654194563268675,0.1844003909346891,0.3668697220705564,0.18298069858976315,0.05466785185989425,-0.022824155381918388,-0.28152874988657767,-0.2432781876211311,-0.27901866647951273,0.012593633789671342,-0.3199888740310993,-0.12382357879631253,0.06936340442328306,0.23901087953515446,0.12527452210651888,0.7203030291350343,-0.040941024906077886,0.3537482905572406],[0.2688480616322082,-0.03263562972555866,0.11128549559254756,0.1633140957729599,0.499482180005773,-0.004254486863046578,0.022791491435721553,0.06495653596379579,-0.01998060767258423,-0.4455206160693667,-0.08848883162686444,0.40710386334629356,0.3467674765959108,-0.17777578153409507,-0.014384331650953599,0.31785170781936517,-0.16541720711007527,0.007467831810048526,0.13219143514494597,0.1490602844287487,0.1981363005263119,-0.09933415637010501,-0.4492468371285169,-0.2692624791264053,-0.11254674370406845,0.13368683945354368,-0.18095540642419794,0.3395705320735756,-0.5157009874469429,0.21119498807881837,-0.0352657234111486,0.10728667560761529],[0.0033280329289329413,0.1166625489858375,-0.09999234904204525,-0.13780022076877232,-0.42194023989460683,-0.010908558539222003,0.06083410764637633,0.19336167742855676,-0.03418225546593053,-0.046972169237525785,0.22011076578414393,-0.0940793144756273,-0.31505039826700787,0.1290570437579992,0.16237721172490815,0.26177415754558647,0.034880382369981575,-0.22837579750545106,-0.0652127860569194,-0.5542368140589808,-0.07855412980375634,0.19817321338907798,-0.14296189566297576,0.41512504404952555,0.11888381800378152,0.10670929256611741,0.0020887674331670028,0.06862811668488916,0.0867928370850065,0.013182697882024665,0.19217173788556138,-0.27730060533516854],[-0.15574320469376882,-0.3494687235564337,0.34484143168041337,0.13089599174831543,0.25680174881016665,-0.1869179727629626,0.03312950967096617,0.2158076112622903,-0.19970505621271087,-0.23611698233533426,-0.2485431492915094,0.22066755806409297,-0.4974430722578612,0.29017630098916203,0.109181060213423,-0.12347314069453669,-0.20678503823082056,0.09003099812344455,0.10143484627529575,0.05981128359536782,-0.08438385719577439,-0.10677935250791018,0.31705767560653375,-0.5766590094165895,-0.21124088947258876,0.19318473458395277,-0.10566668644998288,-0.031926245446303105,0.17852372246731515,-0.4525147084689121,-0.18415195953924743,-0.04110425364139987],[0.1553830376612981,-0.05144432307903739,0.01634873002137992,-0.1255194728201747,-0.46362017502797415,0.1274829589605138,0.30337411356366045,-0.22557867346544613,-0.14109095216066028,0.02583896475707607,-0.05836973331798416,0.34237569255921774,-0.05002078026806753,0.15331386378312994,-0.18800925330693297,-0.11401741245803576,-0.31630457078054336,-0.1759983773101484,-0.6138441730068543,0.05896854301702499,0.039701705782010197,-0.4843461236808633,0.19764687629751634,0.2538884879560993,-0.03146693821251646,-0.03709399923521478,0.08058579884055266,-0.5976496222151616,-0.05903179075794225,-0.12116760488948836,0.19318128492119346,-0.14383890411591288],[0.795761093823016,-0.026001023273649736,-0.24235331520291067,0.0476825067314533,-0.07485098575777906,0.1632109724032529,0.20489729666599726,0.046419780967280506,0.21935243659940426,-0.027988723953129024,-0.2737290402084314,-0.10089825553939581,-0.14867985632367287,-0.05424877448358732,0.44289939636058673,0.023887071048908706,-0.07822149935228337,0.019109526556648236,-0.11809729826917642,-0.04998002972915567,-0.058645911637658615,0.2886411716741851,0.1490440994229847,0.18217981536342567,-0.009250930554777364,0.38725106906623885,-0.04797455400456633,0.05130545208343388,-0.030062121660862983,-0.09210053415298236,0.5430863989746435,-0.1923167756813513],[-0.08085940284535623,0.11107088722192464,0.047943908656291084,0.053304810103359426,-0.0052289204645309135,-0.3157855797410657,-0.11205432439031277,-0.30171876347507814,-0.15667742855555042,0.12119524033042571,0.31899120139796194,-0.055356056326693014,-0.0766487519428378,-0.06958003861757975,0.160004676808575,-0.5544646792503304,-0.6755370813571424,0.36696563698875173,0.23457183515698538,0.47324970471930244,0.21807499509183784,-0.5636444551123806,-0.44485157161505456,-0.08885461873891141,-0.054054060055252484,0.2710941971759849,-0.4612594998047669,0.07016637939981987,0.1715773966879622,-0.1700570923441494,0.41077701439614556,0.4590616809594445],[-0.015664699232799534,0.0820869285581491,-0.06321876694819957,0.3359200412246217,0.18737341471387128,-0.2541820779255728,0.4102534704039434,0.006631748376598085,0.4651348346518901,0.211114641732707,-0.26387095374286584,0.3205632467031966,0.2499817408671066,-0.43747800039615137,-0.262150176641393,-0.45111565335649895,0.06331604855965663,-0.24059635185466377,0.16897248660131461,0.2260451770485562,0.19597534085948787,0.06549098775831737,-0.01400264219748314,-0.10282760248158479,-0.23230861817403972,-0.16851038070643862,-0.025779392845542703,-0.12470046786976831,-0.2315555329612751,0.03519268969031863,0.0945401857803195,-0.4209481331116239],[-0.16749411541739517,0.49968609190429863,-0.05462866553566091,-0.012926216300858636,-0.19359281885032073,0.008994881228098925,-0.030424454756418747,0.48788876784158713,-0.19873325962407262,0.14284536301122033,-0.15252177605624345,0.4364711460689519,-0.299996067406972,-0.29338810963706213,0.4507583215725073,0.4018304941275681,-0.10848950927057546,-0.1699915028765947,-0.15646396016856265,0.2295633630303219,0.3381250320036243,-0.24311604047589416,-0.12381730928788236,0.1886766746161638,0.17768672787843534,0.24975033330878293,0.3884695559430385,-0.5316047553927219,-0.04319891492145165,0.12312123964668374,-0.15030482603269735,0.16096182758015562],[0.2757804389388906,0.20290126844129727,0.2935344798594583,-0.000546597629708293,-0.07390420509237167,-0.29940857246194613,0.208877815996453,0.15548264821368535,0.03999341340360525,-0.3862282280420221,0.33670281629456394,0.04253681798269325,-0.04329518622253301,-0.08769220540577989,0.19249861059503798,0.04039326723637908,0.3302475389552475,0.43828482726884255,0.18104089387977085,0.3981919457213013,-0.13361586006721743,-0.01741062144562567,0.11317758526001956,0.2573924980575394,0.054203450215041235,0.221515451397887,0.08251079208319645,-0.3913618608818501,-0.00002683903624350818,0.20327250822461615,0.0024862546110761283,0.3276564778972434],[-0.0070742262710941865,-0.010776632755282463,0.09105168367594042,0.03164694384755865,-0.04609893876121056,0.3214325412005232,-0.35653542052205045,-0.19030545658095316,0.12548334767159094,0.32336893305031356,-0.16381605234069638,-0.06866261559064284,0.19478055214748038,0.1526449096276397,0.20933550429077064,-0.018274693197740464,-0.0056276359869029185,-0.48177718885090826,0.5606464780491641,-0.03377661970339973,0.38646908985717676,0.4576954097719073,-0.09767925674117062,-0.43660652461319566,0.35733118930999785,-0.07517780541621948,-0.022905195043771455,-0.17376955943030561,0.13371489303368214,0.16285978026559544,-0.3186321443170144,-0.16156586360952177],[0.05340934705404335,0.4592440009226791,0.22741976497018387,0.35743576873550714,0.027159425927253046,0.24674610529283086,0.10112786216361673,0.4339974536101329,0.1783203076950401,-0.27610409238380185,-0.27956654924145186,-0.0010818191596877285,0.3152297587639443,-0.13262682871486087,-0.0810019137568429,0.1963671835394585,0.14344384918923914,0.3576681272473515,-0.06782996403154364,-0.11060605118998636,-0.13852072689380296,-0.40061358751442483,-0.09250364698513307,-0.16956158929960022,0.1116506982427692,0.15404035461593893,-0.05688001841522564,0.11730361328537013,-0.009796118115196175,-0.1992002270680574,0.07936162696097845,-0.031190940050940523],[-0.1136348055252252,0.39958254692531564,-0.15538546001046663,-0.38792323213553864,0.3514175937986012,0.2794298982349566,-0.09080485190487576,0.24416716372710445,0.05061337736943498,-0.19091187632792664,0.020523848776900094,0.11656964798225393,0.07184374213556653,0.24247779088446636,-0.191049204350395,-0.4800053277872391,0.20648732112407614,0.4816781510946021,0.09696843138048887,0.2357716254485754,-0.17162627154965476,-0.23307456920689726,0.1843878295423119,0.15009327983018897,-0.031538863850570274,-0.44820570499031365,-0.0027330253737399644,0.28602893628123294,0.041526373684244396,0.019096271994356415,-0.2657988526160477,0.21084543542859902],[-0.1776554296024576,-0.06019638154251139,0.12507128794725647,0.1058079902785394,-0.14056837964209082,0.13914725739976047,-0.055739268741205626,-0.16521453171429237,-0.13011326395422,-0.0994014013786404,-0.42308890435743657,1.0808517121779357,0.3226746324489079,-0.22231368098901338,0.2358166372921325,0.5408000304345636,0.2948224152868866,0.19313826648870538,0.02191642447273184,-0.20340948672887538,0.14375376179995802,0.26851349780456135,0.00027022137531652283,-0.022282799833903338,0.28522530046692945,-0.0308678297271279,0.05032919044964878,0.20159102788661845,-0.14285783652544712,-0.2827626794717481,-0.008585735215941616,0.16354830659345126],[0.2693830442910685,0.29219185931004704,-0.09564501298496247,-0.39549114707722993,0.2699395460419627,-0.43988015515201484,-0.30026955383812315,-0.26162073304303896,0.021111635549743383,0.16140185685875288,0.0000695290356491633,-0.18598569464935966,-0.27018895334432574,-0.31437602126910547,0.2162790058196959,0.26610109297958867,0.32588641653563716,0.2832169827106224,-0.3025443522946488,0.18480770007930414,-0.09515574652685405,-0.314917228127082,-0.010361650549206082,-0.226991039192456,-0.029980843536109754,0.27580039038781445,-0.009190471855861252,-0.2097947129984795,-0.008602054285139757,0.4097785515188837,0.2529905737846721,-0.1746528561063966],[0.16046805168986486,-0.3282288880108581,0.2811997882018843,-0.3124428156677132,0.24746421303218638,-0.5159484598123747,-0.20398908035257182,0.2591389927184404,0.15058731018664726,0.14437492462738472,-0.11750194647598264,-0.27693980511825167,-0.011392108591743992,-0.07678562160839243,-0.41527510689303615,-0.47990958427298325,0.15785159984169078,-0.45113717334235437,-0.10116788001555813,-0.0061150055586078125,0.0007867773172778516,-0.012909293827648773,0.021678824252781264,-0.5268338996817301,0.14273464653931303,-0.1718511945168943,0.13787502941801522,-0.29671352448182,0.13147412045616186,0.2793804145652653,0.05916978256042925,-0.05916393106280396],[-0.054898357089839214,-0.16515510873791753,-0.2295996299614651,0.24013058883750363,0.4230628878192316,-0.12420495059381642,-0.33007949415621246,-0.10362869006610072,0.24032410586771588,-0.11950521816101517,0.2310058119039035,0.35566405203797014,-0.004217952992249353,-0.07564861163862349,0.1033611630453515,-0.023703009162935374,-0.2810864128107095,0.19868824924416073,0.010295378964375835,-0.34351904668143046,-0.1988078819636762,-0.09981475138036226,-0.018985762928193872,0.3627097673369878,0.2977364364709135,0.3597405538307181,-0.07489731286194916,0.07406843259346339,0.07072258582054372,0.22829259166184931,0.040360009419843204,0.14176943331100936],[-0.035235245417832656,-0.6299922084448285,-0.4318901918442283,-0.07221629803922769,0.2775451329206206,0.11476068428995177,0.006526815695053484,-0.10980759966930519,-0.1845612389855844,-0.042784500772362684,-0.34450280037460773,-0.23693071149378958,0.0939103831051404,-0.13686837049248315,0.06268698615495695,0.14512669822326524,0.09179884186690304,-0.25995232691345077,0.4606273926148873,0.05891605622492558,0.3514870204835824,-0.14565913493354135,-0.19511432199286502,0.32101330934687583,-0.46964878523878506,-0.4785232738707856,-0.1344030625193354,-0.012937355114526917,-0.12130425677112015,-0.2548545812785841,0.47398974436864305,-0.001990381194361742],[-0.29822211758510886,0.5737418410860882,0.0322418059064714,-0.3999442805880404,-0.08820922525679951,-0.22062189524860074,0.08449623555902387,-0.0003915331972212765,0.23350630395796548,-0.024448299873892805,0.2371760166734172,0.02777828193416788,-0.29256475776004953,0.004796151823680554,-0.20036322998266742,0.2648264704564179,0.1267504571316245,-0.049806906939054776,-0.0833496022144563,-0.4374585370070859,0.2559961305265467,0.7245017281009275,0.07251881562188048,-0.010862250618801481,0.23854429400206892,-0.35746727979573123,-0.277477455629675,-0.13916294345855473,-0.020619653518374078,0.2483251808309717,-0.2639452326056144,0.21807596998889756],[0.16145978536856773,0.21636964887156696,0.04293330008360438,0.16986035116693884,0.4614824523518359,0.1758580403411566,-0.017262388400865813,0.1259242417585092,-0.11690074322075616,0.38084113376170403,0.43573676026452385,-0.1551929628153987,0.42016504516056125,-0.1504857364210618,0.14288439289631666,-0.03696764358165094,-0.15884909736746153,0.21849919539118864,-0.011022557016499759,0.4862097017295073,-0.24393428362255393,0.08019647796000214,-0.13659224823869562,0.03167148426694833,0.17901796073704565,0.000591391720292269,-0.1719568939506429,-0.15395417389852126,-0.09460310788343759,0.3983008035159078,-0.3544135349328815,0.33572615386403704],[0.13012019658623614,-0.6543412723962769,-0.08651829027790771,0.3827951358477785,-0.055084862978255,-0.07532270834759583,-0.10763473767046881,-0.2757899404474875,0.1468073140409587,0.018423791886764265,-0.10587850607542226,0.23430227460800096,-0.2608432625902824,-0.15598710659697146,0.430248601619645,0.32394026690211025,-0.2005476803575956,-0.018313605902200766,-0.30624496874902823,-0.15699653781241477,0.4392688496847844,-0.0980473823475291,0.28007664748463484,-0.15399257010887016,-0.5599941773767493,0.011884725140589032,-0.24877750717677083,0.07461239333041397,-0.2887336544334276,-0.18038438882741242,0.2646575374973524,-0.2864803308591999],[-0.3930681779236809,-0.7159384372531213,-0.1959604839434776,-0.325534465071296,-0.3487512433027028,0.9042871525374082,-0.19429698261420827,-0.15931299569494056,0.32559109144876486,0.2114608914263903,-0.24448041356180858,-0.01703317979027311,0.20647221282471315,-0.3977591438119814,-0.160263794227542,0.5434513275166738,0.22972251653014883,-0.03723683940326863,0.35971783858541256,-0.12298384429456062,0.2855144730682001,0.17882524284908688,0.17294909621592358,0.2902767003563301,0.20450609973297834,0.42660262019609624,0.36034571974712143,0.4052796193982309,0.027211669294082388,-0.051242164521653255,0.10754398655396051,0.006538133976094506],[-0.29737521276757584,-0.1614427392507053,0.1933185792409458,-0.1594955468282482,0.566502129712869,-0.10332525937061332,0.20754734245043038,-0.22381112108349313,0.32040600403254793,0.3739247808175382,0.6083641751070706,0.09562884085607727,0.0961903698643696,-0.038856983935375,0.5595310425127195,-0.493922517937436,-0.605567961239078,-0.20047131409728222,0.10605914551025966,0.2809092608292763,0.3427206655200381,-0.29500242311462044,-0.41035259367212396,0.315477382080864,-0.031896335756677864,0.3175327373909976,-0.1800432786546435,0.11790439805711071,-0.2738090433259649,-0.28538444640325766,-0.010758629441612105,0.10127090571562081],[0.3445243460530317,0.21326219658856813,0.08883199629311428,-0.2705486487217757,-0.22186896618291385,-0.017973711356792134,0.4556373895223167,0.41074195006480735,0.4206170876042228,-0.3698096945452246,-0.34967688326934054,-0.5047414177342479,-0.0029230760183511367,-0.029715404111833616,0.3656711723354765,-0.4768086058916109,-0.10703077698327298,-0.23731664938941258,-0.08749545026169286,0.11922450786827356,0.3765114740415978,0.5341642991717661,0.5644473909148896,0.009423557489623067,-0.11501192888400194,0.00769465569999651,-0.1672146848983149,0.2094205001127994,0.3196751054547207,0.3423064063705122,-0.10518066414948692,0.12323616776276719],[-0.2842444761694083,-0.16708971058667177,-0.3055601504562679,0.028578679009391126,-0.648098292941483,0.20482340280049596,0.3119134384042061,0.6043103659199607,0.26834481548047057,-0.0959261061205014,0.5682013969767267,0.1995352094793244,-0.0922477827499148,-0.08533369808593896,0.07416598922509549,-0.11408941426629486,-0.3513675200856773,-0.09830490355787232,-0.013819021537832585,-0.00499046349794728,0.3210602019250034,0.24169729065344672,0.025188153687945518,-0.251035710574036,-0.4687534909186521,-0.06317135644218934,0.008556373119699512,-0.3490986453118756,-0.24449326459271736,0.04050051464979274,0.18378986086154,0.09843954364565605],[-0.10575560780821601,0.22609097321989002,-0.3422046349619992,0.24484463310963211,0.06956463781212323,0.3724567316235958,-0.23376891028143773,-0.3170678493846918,-0.10929323816833542,-0.24345514970016874,-0.2756500684447694,0.02750309994227279,0.051696174849908384,0.28617033684030435,0.1029681245559115,-0.19011638269640033,-0.006234109050743769,-0.17285819727721957,0.28096479991501266,-0.2070877956042372,-0.17892642753232238,0.1781977639877651,0.10210125848761069,0.20663160775381276,0.2440620157332879,0.12353829265999693,0.16340777192812234,-0.1373802103252408,0.16389905061422333,0.4377057911002837,-0.2581149922532467,0.21219224681177015],[-0.3500305345578322,0.10771240146603027,-0.11783070567699241,-0.043711689437006006,0.17082527151559876,-0.16055216572997258,0.09618677506388552,0.2535353716502476,-0.019655190014508425,-0.13198072600477878,0.24020405393257532,-0.405663645320763,-0.05354595308130774,0.44352383552395563,-0.06927901918726179,0.03839103781417694,0.10966179268979627,-0.43775033886467474,0.19690258763445004,-0.34231335138747304,0.011254017278575541,0.20869676123199868,0.4125841387701412,0.06488923972270456,-0.04485051339091661,-0.5238119315971871,0.08793835800927532,-0.05165812342563013,0.018389211531884074,-0.15408617472025546,0.2386098578440204,-0.09176579687693975],[-0.31307104400274366,0.17910737562384418,0.36274453242833016,-0.43683075004574645,-0.1706732768734755,0.4227130819747261,-0.14686986260694906,0.04637150437731597,0.10639896502436347,-0.04258600291711225,0.26632941560231504,0.13348500486163506,-0.0643058933773708,0.0724057108826859,0.3024083744036795,0.1283132913736478,-0.08709370225730391,0.22234341321217005,0.15824665744607921,0.3408102597731571,0.07030412631663288,0.4256180505025924,0.12074982455870502,0.10008988368114093,-0.07879668789432163,-0.25604826805584996,-0.10485107482350317,-0.4457701884002784,0.3678947413543337,0.06248579791709762,0.3486293333781711,0.18839046369514584],[0.2099711304743705,-0.28760917616122866,-0.15634277136367808,0.17756093055129896,0.1099655385785261,-0.04223838406431565,0.20074266505078478,0.13897355608201076,0.1331173957065078,0.2218888959226751,0.5625981381204386,0.07274956484750619,0.09928183820564733,-0.06899911878028714,-0.5170040639308832,0.34879789971490155,-0.2619540359369809,-0.2820216779692236,0.01712541700254454,-0.10014026642385845,0.3511252237769795,-0.26390270142113764,0.2792722486582814,0.019082318999758423,-0.25694163994066777,-0.435600932106375,-0.027171637344282174,-0.28003808112629397,-0.7584835852670058,-0.06444986581912417,0.19183732280043939,-0.2631070131806197],[-0.21316915360693217,-0.084380561505988,0.10942363347972218,-0.23490444452090026,0.19038653517785026,0.019337176712852552,0.09478883419834748,-0.29041016091102095,0.18704294091887178,-0.17310038982632958,-0.08587785158605483,-0.14859437667343742,-0.42660293008330896,0.06905044101381516,-0.12715979772976302,-0.18007336875570096,0.1273995154509185,-0.034305742792204594,0.37299929857887076,0.039658059303200814,-0.37474557066059383,0.17017656444165258,0.1914807269582176,-0.1867736462257864,0.2816102300454931,-0.08010447545764654,-0.12398348536445815,-0.20554944550256998,-0.24658868527641797,-0.2940015428702232,0.004671060656804154,-0.02659827897895905],[0.16268259985972042,0.4572363166363117,0.2141228075597072,0.3131545337144767,-0.021302680782377376,0.4102250497558248,0.27502561789489527,0.023129235808447952,-0.05294444619403747,0.08340454107626505,0.4141880648576382,-0.2628197677135558,0.26886886100497764,0.07522650352025274,-0.6748440898510633,-0.2795464620621377,-0.002794494757294454,-0.0003203662497779621,0.08567733763272772,-0.04950121385433468,0.018275000533600996,0.4449708257575021,-0.26098103127076044,-0.06897762089388405,0.35159858589760645,0.07594073054931903,-0.44658998343226874,0.16648380075571267,-0.06312620716264242,0.08496083160853675,-0.32883733309453245,-0.1563600946913756],[0.13170325087745505,-0.3798756826608319,-0.24539338120740947,-0.02267082823830707,0.35444435015296666,0.3505122049443996,0.47205360742635666,0.10348405814962798,0.27908055785267716,0.3200474812706268,0.012150389781586031,0.022900508594803304,0.10508512773697429,-0.3499792669017198,0.09298056232051471,0.1120066444206747,0.059054132224568734,-0.36964869421966184,-0.3859526570578817,0.642662195611688,0.16481945670414597,-0.01966860728408944,0.6314563639519015,-0.49671354458396255,-0.18377067932680932,0.1192116297877761,0.13376401401923946,0.05370684758967516,-0.20157967261185214,-0.2864406398032619,0.08854128350237025,0.41645468184559403],[0.1290063830246532,0.5721309108651207,-0.23963483510530545,0.2991929233050543,0.18021918189086075,-0.002933940066750724,0.10590932181867599,-0.5372816332690481,0.4052257412206614,-0.3950259788059504,0.268581806464518,0.25447222072447306,-0.009083753925689598,-0.08332667578316234,-0.37228884272856017,-0.02753361336775174,-0.3707859263465848,-0.35930922143435223,0.17612787487831194,-0.010975913528955588,0.3316087123157452,-0.08468014813866011,0.042525475001784725,0.136383714963026,0.3093087945776883,0.20701116109391493,-0.2859747553760097,-0.02123346593437697,-0.3440700322478711,0.24899554198937374,-0.14290981325785876,-0.4800928448728357],[0.6092274304146158,0.005857127594766541,0.14045351296732742,-0.28309942104463093,-0.10678354590146366,-0.11317488023460093,-0.05769794451459499,0.16603115238438484,-0.2759259280518266,-0.029102449067333207,-0.09386943853116875,-0.12838371576821692,0.11800987872046943,-0.12010636424864977,0.1857104329046987,0.15835221461329108,-0.4581722695787739,0.2271707286191204,0.10751824125861818,-0.05376171568242422,0.25042216972110987,0.22342596338449144,0.08779604886672088,0.045894991753827115,-0.1331775697696127,-0.1176533462426061,-0.24829033244602197,0.024661153277706863,-0.055673266916539246,0.32839005335465105,0.15224496615053257,0.23550599845078754],[0.5669875614693313,0.08770945601230258,0.35150560013928395,-0.5304765875987085,0.18305880442985076,-0.5698568508198263,0.23530920799020077,-0.33407024908828603,0.3238178553365612,0.1791070441812913,0.11394146705938608,0.08887762096004406,-0.2691189618560287,-0.564184558130061,-0.07299895747095407,-0.115065025990189,0.24759858204190194,0.23937680732288968,-0.3339274989804254,-0.004114815774507421,-0.13175545614703577,-0.5043729496595232,-0.26893669401468023,0.0032512907145449237,-0.6034044258182183,-0.22250262834479986,0.048974573215323426,-0.3321629081615271,0.17917046420222021,0.23857472157586185,-0.04962764955985405,-0.0360489919528482],[0.28297354454773327,0.45092984746191045,0.016280134040111763,0.09902919806301648,0.18943235313184448,0.11249153795884262,-0.02901807439497371,0.08998100353847831,0.08147279366002,0.12010467607162667,0.30622544426605613,-0.49403787916646374,-0.26933621093058846,-0.3907937998184477,0.41777084148831456,0.2726431621474647,0.18769020305604747,-0.15712645745839646,-0.231174719182805,0.08328126502717954,-0.027786188469464408,-0.029175828823967652,0.4355283882694262,0.029499245783848712,-0.24497969492478633,-0.09421380053490444,-0.03710252001421478,-0.008481289290415755,0.36543591576265855,-0.054113002108426025,-0.0839182540139256,-0.08203643732744466],[-0.4116319656900404,-0.05021910487759563,0.07403088974067779,0.25396575478143946,0.195148141169138,0.04944857627408601,-0.407274625511417,-0.11463433167544501,0.05089917275370147,-0.0010463926814181298,-0.16522633299739878,-0.05929263554929944,0.2907737318010196,-0.22744444110419978,0.07609068427294824,0.17488059175592313,0.4811326915248135,0.1229429127660517,0.3660870575798549,-0.2956937913330164,-0.02148198700001728,-0.20592747707584363,-0.10682064514866653,0.30619302230805295,-0.120544867618525,0.378397735184784,-0.34333535326945763,0.029867798809323876,-0.13346709294155068,-0.12931350888106094,-0.2672901469044534,-0.027797256038562517],[-0.3282336420189514,0.24276735325939305,-0.01704237515146546,0.4682511373085162,-0.43780026540365974,0.07846698575141957,0.1055674684221764,0.11199824799192278,-0.48126956873336285,0.5681301967772958,0.14542373880796472,0.2735472610377595,-0.053600981093581544,-0.16414319357568674,0.1891447041168247,0.037371568284984835,0.0949802613312673,-0.26311560350892604,-0.18880233458860401,-0.08276480668187543,0.1840922100633807,0.44261273789159655,-0.25118801110995653,0.02423152737511352,-0.119274188548293,-0.060247651297000146,0.2420609008472665,0.04993784070429363,-0.050517305902448996,-0.5403818461556678,-0.23065433320686257,-0.01986930634354283],[-0.09008954756815318,0.3631721944669453,-0.00962782665961576,-0.09675556787668213,-0.17368531764417194,-0.05740760285590208,0.5263490207595152,-0.026690810161199778,0.17069199714884972,-0.18527398883933108,-0.126803051115269,-0.49011087911715173,0.02723918715385138,-0.09880923953366848,0.013432785278101187,-0.20870486171283908,0.27395129792765704,0.3376083672837513,0.042338081152459045,0.16624603991650957,0.2338870331529254,-0.4384795226537187,-0.30256356427870545,-0.33236511271582053,-0.01624405937361066,-0.12893338320645575,0.08492017537311528,0.28114570493984115,0.13784458781161674,0.333280397035179,-0.1636845061373716,-0.2006246411161192],[0.25491587631940443,-0.0069340758304921556,0.1482225285363256,0.3423935876746589,-0.5679822649293842,0.12897153871477274,0.3202293410391762,0.16226886386762301,0.23161127879420623,0.6385518587447618,0.11717069480336964,-0.05071704734544975,-0.08508682091178439,0.27482821601930235,0.19331299058121193,0.26434677673167045,-0.049996190109755624,0.1099344499331436,-0.077757561885486,-0.3452055290566905,0.03164442318806961,0.1407147376276854,0.18600273968295575,0.21093115613539146,0.07285044157212135,-0.11273611288002623,-0.13454011769769966,0.15514155670635874,0.6359476643488637,0.24802975569997404,0.013651720676494011,0.3142774263175868],[-0.03402006715110339,-0.1071667494176434,-0.12318826834837171,0.19491446783548041,-0.16541306607796374,-0.213683074125115,-0.03386382024007698,0.42918181421392326,0.12459544550096463,-0.006844493974708225,0.3525535800901132,-0.1003303640435048,-0.3734922572943085,-0.25006183881807054,-0.39483056571554276,-0.22587626505681202,0.1003032939123962,0.13228148768061532,0.6634739694249743,-0.4575014796683045,0.14230029135283662,0.08715129603724488,-0.2963887539181709,-0.20174195468363557,-0.08455308122569449,-0.06559147006658214,-0.020196873236518656,-0.3389463898238853,0.059182440975480324,0.036610179400891,0.05334981712260729,-0.1405651880676044]],[[0.362338828510046,-0.1769052046930178,-0.2691445659941316,0.5538564884534393,0.10453244530568236,-0.27445380304761374,0.23886478135116254,-0.19575788522167054,-0.31252598758722977,0.2975491400524759,0.049024785301450075,0.044654988992721495,0.23761681919594171,0.21723741167976035,-0.20285601475789958,0.4746334423505981,0.07019388381850548,0.04048565816845263,-0.23699330801300686,0.09149652155124226,0.21697233547101244,-0.4343625240454349,0.39325864377913533,-0.20476963961002137,-0.03189621078660233,0.16428089597232853,0.16884922990057674,0.059783048314908285,-0.12478952920073523,0.3189435238745192,-0.2904155829565346,-0.23820478572034204],[0.2893551777801443,-0.18122650621789146,0.07652138069117487,-0.341539688744548,-0.31270915820882894,0.2377717677935052,0.033016695794711275,-0.09820519880053007,-0.2755564997734665,-0.35598297199850254,0.4759337168310317,-0.0457081267684331,-0.2846263743109581,-0.015286069227063943,0.2673971725105788,-0.08866059968208538,-0.22578324237803912,-0.16571916128484276,-0.05923023199661423,-0.2923107119748906,-0.035143479274434196,-0.07614869613401157,-0.07708334616216073,0.09546530012256006,0.05148882677317971,0.20720241764588682,-0.016285525192407987,-0.17568423431919405,-0.04715146071955219,-0.17737020205919246,0.10797849367275518,-0.381020001419028],[-0.15401805544064753,0.03449489604313011,-0.1329465449735122,-0.5116338223483343,-0.36199680681829716,-0.33241882028948266,-0.1999850355539297,-0.26945546250453817,0.043392187198152445,-0.16352013674387364,0.07993562258228411,0.18730379951319784,-0.2794389607829465,0.27387007717624257,0.09609402186062009,-0.48005569637280704,-0.1324018342317329,0.08987778144044471,-0.14006488062148312,0.1308457447557224,-0.22219851512717537,-0.13802161335870516,-0.1159947387469656,0.004795128078987471,0.231439098270561,-0.3900198220194789,0.17284809853360167,-0.12176286684926765,-0.3663461482249628,0.1743034056849365,0.37713994423108116,-0.11645876717308334],[0.013286929717564294,0.0654051254156334,0.056229735685968354,-0.04923306518873656,-0.0715782626420797,-0.06738623200970434,-0.16343264702901436,0.014789976666204201,0.3794498464005668,-0.4012782896823281,0.1629379914661602,0.21094423879075955,0.12769345930309678,-0.31086564337981143,-0.42183331273600205,-0.04097509388283243,0.09422123278929798,0.23115032553492534,-0.07880148427303925,-0.16379619793699216,-0.14518838097594428,0.21800619641745783,-0.2045575291853671,-0.27234376476596006,0.09702654042754184,0.04608030640404653,0.10265600765101149,-0.15761677060093562,-0.1165999895951984,0.3167392455117575,0.04531357233219453,-0.0645427940664762],[0.08181758303333808,0.17913949404138543,-0.40128448028694047,-0.32022222892201596,0.29650366073217943,0.021379161230684698,0.16126600373866323,0.3158795775036711,0.3783786292294511,0.023975752861177847,-0.3739911958868463,-0.13084956031363462,0.11964466971639282,-0.09380497287147395,-0.28117394405812507,-0.018159189753339012,0.28215232441912863,0.25583231975010345,-0.3741818336668896,-0.4723236600443589,0.17926142034872558,-0.02339563885632163,-0.11134719094782503,-0.6085709841618958,-0.2365290160360963,0.03605825078883265,0.49881882920877285,-0.03907345283723306,0.18859960634169984,0.04263215229802649,0.1753044028268509,-0.47376893003979825],[-0.2515488272925392,0.003387167035590099,0.24317515513785926,0.2946736844977812,0.1988066227344228,-0.07193963844527665,0.0679657643816272,0.31580757946851556,0.09173178447332311,0.03761445095651959,-0.5369090123288475,0.14007580943479542,-0.06770225983117754,0.14116031206282925,-0.11403864399151716,0.031080265813909897,-0.17893985838269882,-0.1097700450001907,-0.07057990335323416,0.06706857991942772,0.1895139589085613,-0.09047603126565211,0.22148871558831185,-0.1997060790161752,0.02425450703819581,-0.35256810318024323,-0.022738916896534307,0.08869184860164518,-0.004572739197879501,0.00802666015313932,-0.38254155413355845,-0.4403454454462801],[0.04174895013510857,-0.13854374774959669,0.032422957577760834,-0.11104892831807522,0.16954275554305703,0.03396700978798473,-0.05075560472764618,-0.17687673141175694,0.1927183391444936,-0.35720235404442663,0.39623562828460696,0.043993267591120926,-0.04256287784054841,-0.05937943834103075,0.20641231388318823,0.5201755841089987,0.3145742588006086,0.1888490852040007,0.15306339215008394,-0.4027155314443665,0.25069128473285535,-0.1607708365546219,-0.09052771921657235,0.08924970114742403,-0.4287313100866417,-0.16387108371828604,-0.0672678711695485,-0.03144464286985984,-0.47198462452523127,0.3905780826294247,-0.03546247839760331,-0.0028511951872237963],[0.11302733664462634,-0.01414169695118238,0.16750582028968378,0.06282686797262844,0.16290632099860422,0.4571077032724552,-0.13308417369010342,-0.12271608078096514,-0.19079617670021554,-0.025340835540136376,-0.13214133485044402,-0.12289526321910933,-0.17317662250155225,0.015921792742769062,-0.1357803482050969,0.2931826289289279,0.31205284069205913,-0.19862050249831129,-0.12890378201867142,0.10493280719474495,0.09067869757892376,-0.24134337580830284,0.30975719154861736,-0.1493359519271174,-0.17934408642282193,0.09565857854673852,-0.17474552507914745,-0.013119121253083066,0.21362760660817684,0.06904577652466073,-0.2635779860159421,0.4063816278048446],[0.2861102789920968,0.05084318115526195,0.21064363877184886,-0.3674700935529325,-0.18296206693583272,0.2593531226670077,-0.04515323598792324,-0.09367840286558184,0.2905858302423018,0.020944760886971135,0.09851928935231166,0.2722598542303586,-0.020023310409884046,0.0013843552572160179,-0.37492962408155917,0.13534250747776533,0.32828577103165135,-0.32558515008553224,0.3822795874677518,0.2031401216689382,-0.1154980862053289,0.2715007022765761,0.29412305190587706,-0.18122503234093054,-0.41776942555973534,0.1300783458598288,0.03932785811892764,0.40563295476373495,0.2325051582298211,-0.025275192101373432,0.3626095498773416,-0.2708947190480926],[-0.19194764449220617,-0.2749435859170515,0.10999837491574256,0.051285254700254974,-0.35402177870844004,-0.059944261412784916,-0.056672166431688105,-0.2479676969414442,-0.36841502197982035,0.6597666615219178,0.26021396975419536,0.027751839913436868,-0.0625563545173483,0.09980054453155275,0.16563292221239712,-0.34308885168073877,0.34572362308567106,0.7279024182659263,-0.1277648528468376,-0.0002257657578292148,0.0009702654743932815,-0.11123684156431775,0.10344805247685122,-0.03456952339065861,-0.044799389399428124,-0.020784702849697582,0.08526078485082575,-0.13008793395120638,-0.20844320049411721,-0.0959408412901769,0.017607655816963278,-0.21760363287831183],[0.15470026516196453,0.10349985640429062,0.2024859095856877,0.08670342673182148,0.010640688688919108,0.07739040765983782,0.5447597298374801,0.3495367958403426,0.24580919105875265,0.2480218365872641,0.20527166341987374,-0.26660740486866136,-0.032680583862110424,0.15289990551094898,0.02167143589529726,-0.053894890902542514,0.3970782790068132,-0.08310339066426269,0.11692710394949969,-0.32092884182804043,-0.3687820727901489,0.04175382910566293,-0.027199445558226513,-0.010748362432123352,-0.5531179186803167,-0.06215431701256665,-0.18919561720800235,-0.13166813559485233,0.04178363015891814,0.3670090288878603,0.4075008331591775,0.28914235734874766],[-0.15655831930964126,0.28169494264737854,0.22258260037013256,-0.5602082801313878,-0.40173626472428653,-0.5708294008966339,-0.24407879229158558,-0.04262678145405825,-0.1374878911345502,-0.22570104080750697,0.26758938466099685,0.50200722088378,0.46231645979237745,0.045706210169970916,-0.26986511848899647,-0.06316325855065552,0.4732678144518015,-0.3868753844383885,0.19782193697890055,-0.2685505792129088,0.1894200318467388,-0.2907553233742276,0.28909241345839826,0.11491143783609652,0.18881023697692673,-0.05096366570170645,0.32316849997423724,0.6811149639313564,0.2853699690613168,-0.13083256774276247,0.3889223934757178,0.07478633419437664],[-0.0050189385189471,0.16782448880379838,-0.026429747885297446,-0.24845944090059455,-0.20687044353657108,0.05944192334079453,-0.0009289425166448526,0.09753926030416243,0.2158279944009445,-0.15921215626976837,-0.15714406014862678,-0.09630919952155649,-0.1905827734389435,-0.4311465227801834,-0.4225782469958816,-0.2937677116880961,-0.009081113759136535,0.056984271115408346,0.0869129132440636,0.0008806022207466569,-0.35012970093711043,0.06264301092953864,-0.22530012732049756,0.052710952791330264,0.03904868350043583,-0.024378668932395188,0.11067743227546967,0.15086382795230988,0.1059275504946792,0.1310921679449803,-0.03720972776483868,-0.3285961084509925],[0.041819623074865794,-0.2524872814349243,-0.12076043549422613,0.20987480605129313,0.21242223346991018,-0.25120263088815464,-0.2213754483709259,0.06584613439737809,0.384415389192224,-0.1014266119455057,-0.2921994793276387,-0.424838360427228,0.09912942267103124,-0.2782662781105114,-0.0636966943524006,0.2927482659611503,0.3429011454217352,0.24898013531627977,-0.034711874127184475,-0.13787312579136482,-0.5920211306598032,0.049386621853885156,0.13398129795793187,0.03975683024449718,0.03326492130721137,-0.43678296743007794,-0.45021267809374643,-0.343911283473383,0.031849807786767714,-0.24605662860473057,-0.25956152020292744,0.08475246503518281],[0.03616652165728309,-0.046790053458289696,0.16320758206655642,-0.2538961560419513,0.12126793640502785,-0.15746195007448924,-0.2985825720949033,-0.3085430278853505,-0.017307834136239993,0.22189344739220906,-0.08377884442807808,-0.15359866264563643,0.05207772739800458,0.27581109444867913,0.15592353348849844,-0.36060925724258425,0.062785399801734,0.22756049109782372,-0.07475650228630223,0.09612711843603702,0.05478043182020578,0.12076315003704925,0.11061360748859705,0.3336307730892254,-0.2279950852552157,0.15258135751550456,-0.13365642161501623,-0.01690808522752919,0.05809175148694034,-0.45872142169098,0.2746015569775527,-0.3093202887202849],[-0.26905520216836043,0.28633518467758023,-0.3878815486293088,0.2053771661227918,-0.5918670763145303,-0.5016957204758957,-0.015257192601864485,0.0895570744239291,0.041146358279708445,0.0810816524405289,0.2704168582046156,0.419521175923845,0.08287635561831859,-0.36980255592408184,0.3512145419359921,0.13329153029946497,-0.08322404804375252,0.1518951421053047,-0.24132375166891454,-0.04678577626172331,-0.35500784487495063,-0.009486032979017886,0.01221558957398464,-0.02112913111168324,-0.014114052766909337,-0.22079838728979514,-0.32857638281410423,0.12639552508320676,0.16357912727127324,0.044778394967851354,0.24384477832612028,-0.13081127350341493],[-0.0031044078987985954,0.016913868606312183,-0.17378972929303865,0.30090955532541,0.11644798515773735,-0.10212522615746136,0.3009130893411008,0.11246411248671188,-0.09732330676873252,-0.5421524780093497,-0.5333432964279573,-0.17427633771597004,-0.4228495941176753,0.15677839849274167,0.32478440874985626,0.24558536440070425,0.275445757110484,0.28502398469630524,0.11176136872402581,-0.01700977430513501,-0.24348803324564003,-0.18719117041651023,-0.08616825388833639,-0.04859428940914866,0.013319544881019848,0.23562612186913318,-0.49597146814237975,0.013478741354026139,0.19374744723445406,-0.19396153237217803,0.11875768645604881,0.12001511043834034],[-0.36585104258696477,0.20242123451003602,0.03475626530534631,-0.0935111483316902,-0.054183298610790444,-0.012955735527563217,-0.08061957059225806,-0.12092550590162593,0.6618397276750655,-0.366677696153423,-0.15540036278986394,0.08112064088855021,0.04172389669426749,0.1305343443044942,-0.08114845415150629,0.006696864612036095,0.023086749637509535,0.16375415414005104,-0.16893381912989835,0.1304761670452705,0.30403504766106193,-0.22225072461166745,-0.2647462146499209,0.04597044894536281,0.1310808639821106,-0.7301714666358985,0.5367942602533758,-0.28806419983978976,-0.0035758856035240033,0.17340960545843767,0.5937045887222416,0.24698698304198313],[-0.00306599757266463,0.09108017698631492,-0.3802850579483241,-0.39540706500778655,-0.024379623009323257,-0.2290475983385218,0.28685331736111697,-0.01672583664630603,0.11590341858315181,0.15704997266474413,0.15038404709282888,-0.045973742535468855,-0.08818564101611362,-0.21435729150677424,-0.20080564669628645,-0.10595823542325832,0.3804299125610488,-0.24960768970335218,-0.2691119529870931,-0.009306794311725711,-0.05397972985980228,0.010042021529753621,-0.24220804326879974,0.09131762120543221,-0.32939916049175716,-0.45989784160781433,-0.07873364015514835,-0.1598243349151278,0.08104873308878444,-0.2891962481424263,-0.12682928356680512,0.23099465322824436],[0.054031679390522884,0.37487791525971986,0.4833632599783888,0.12959421442128846,0.25140869941531674,-0.5671658356933719,-0.17539736096731615,0.6679863471888341,-0.19823215921064452,0.340058242746019,-0.00999668702630202,0.12801250799873956,-0.09896435403237604,0.12499054752604367,-0.21508644939599986,-0.0484472318905259,0.14163611286399036,-0.1418431880947733,0.46096835717804674,-0.015280031856064443,-0.1511526644478295,0.14711466329201633,0.05207363131223402,-0.04870196841234426,0.018931837226256246,-0.24457909166395092,-0.2592349106963693,-0.04492432006930292,0.13531784203995884,-0.037031227590097325,0.15840074189214878,0.5264128209798546],[0.035218483927670574,-0.07125256787968202,0.5200774593145361,0.13038485928811605,0.5478987633859806,-0.06715709849116112,-0.0896319977958779,-0.11327625958164701,-0.25895191639280846,0.31897410195744397,-0.3073482968684997,-0.18839741839911475,0.15001117552754117,0.17942778841204807,-0.27386873590703253,0.04174615068529555,0.07961914278500594,-0.5363797882047334,0.6135587906181283,0.002709335894062229,0.3232488103660365,-0.005423940796298751,0.18835347641602,0.18240300103165497,0.22422635433014546,-0.3273439797794555,-0.054530808124739,0.022002627319170156,-0.039429997394943385,0.03740134648646973,-0.2982991728611362,-0.27282736255255646],[0.09161159473979925,-0.22810268051221555,0.12462204889133342,0.3343964747237747,0.39371941966019247,-0.041584330704230364,0.0252799746327714,-0.015228656209406147,0.3255117122691283,0.16655399325129167,-0.06327194444060533,0.06139974874008223,-0.15969450765924073,0.09015714023145523,-0.13964268212308803,0.465862581213094,-0.38355368681589697,0.2411948760678612,0.149228886365354,0.5037482660458725,-0.29661668392711105,0.23792339096302198,0.3268531518909274,-0.17483081265352748,0.10338775892281811,-0.2281744262185943,0.7737815738784397,0.18869793470051363,-0.03468089413149827,-0.21354384096322068,-0.2287762529269552,0.010386454201926966],[-0.1838341574997721,0.5930085948590499,0.1798561996195342,0.38823917275434977,-0.2458470625482691,0.15843924301713377,0.0915178577327635,-0.07222818382019983,0.3254752551138046,-0.10587535127334266,0.03684683156327819,0.11187702712762256,-0.21822223817772315,0.0854381977193492,0.022373497629325247,0.013739034221620322,0.2873640302582465,-0.02242040895623718,-0.4128902028395075,0.042142248608589256,0.04736495614834635,-0.027635210603345284,0.17273981421550366,-0.23462685109889667,0.17583985561445753,-0.30890800067000684,-0.18444196274912494,-0.453287224807597,0.18548235307674268,-0.38910098022192685,-0.029823000211951972,0.22481557636777427],[0.1501344328072993,-0.07022894299847732,-0.17310262365739282,0.3111298170085953,0.10691799120476529,0.11517929598929387,-0.07520177738724558,0.20222056403161756,0.08836973568861603,0.28016877583447325,0.04042529522196197,0.22780023944488845,-0.02240358481896948,-0.36682264733512937,-0.44376913991433137,-0.43920113697710556,0.0047248154558611,0.31628297996766586,0.012308671284748824,0.011432310527616984,-0.03829679241076166,0.17812429571439567,0.0998672693670764,0.01993007463055913,-0.9408804938297669,-0.20171423439782518,0.38001424748659013,0.13968275445829642,-0.22682329418790526,-0.37662464398086765,0.05468717394452653,-0.14644410569738417],[0.0015062331369614021,0.020433242054222273,-0.10261696530487643,0.2262864040861271,-0.21059377775883004,0.13521951051226588,-0.4413902544699762,0.11290136115182246,0.08831659400915162,0.2580455901874616,0.1630015359547507,0.27007711448310395,-0.05777162154222899,-0.0835382736667643,0.2884007067417274,0.033243435297690686,-0.10876039518317333,0.2696598374251306,0.3584608025203958,-0.47239267726916073,0.03759982310981813,0.006971477130071139,0.11761481667465708,-0.19598920828798,0.1589064370334863,0.31253704403994237,0.10258059806466187,0.07599379661791347,0.17687753471190915,-0.31968299642052606,-0.20895848058487732,0.2909586016379996],[-0.1928803508589434,0.03248027305585569,0.0941195454227467,0.19624317659660845,0.24732176260251967,-0.637714627636553,-0.2857455677571972,-0.3960299031687024,0.009669869815534794,-0.23012309799543837,-0.10800293303661904,0.16477122152697962,0.0636044630722225,-0.1871568537166844,0.13213978238047885,0.14731283200496872,0.3572907457497463,-0.34191447111904655,0.11163092449239195,0.09097839354315229,0.15029308796366103,-0.140564915359111,-0.1423428620567123,-0.1336241379577082,-0.2725385575386155,-0.8869190769752201,0.14046121895958003,0.2568350922121464,0.10430655321935835,-0.1298609923301209,-0.24419195625408882,0.23107214811994128],[-0.1616398386825383,0.051440638167987475,-0.06946170678521554,0.23293995633121098,0.09413878464496807,0.026573265071260475,-0.04946656601708567,0.3116608670220603,-0.31530270393244936,0.12570588585234457,-0.20929352393827344,-0.016228141890420655,-0.3807852776931771,-0.011009420989592645,0.4096019576837386,0.04033457686580614,0.23502698758689458,0.23875765025016762,0.00029963753159570404,0.18123571821558607,0.23995935635988988,-0.21745213161556792,0.07310171679892007,0.5996492648761533,0.49618191468265077,0.25989433611484447,-0.017990943134882663,-0.2584995684643792,0.16000673365875998,-0.14694441820403006,-0.3064680730458387,0.1363360876387037],[0.23018523928147497,-0.15202914963268171,0.3218680820287104,-0.2865237288582613,-0.3841490715950922,-0.1496817839256948,-0.18806317112050489,-0.11270070614704294,-0.22099617241294603,-0.15808927017564212,0.1720178326777081,-0.09825174546132225,0.16935937657818007,0.26427012968827207,0.03811649921081141,0.19678141720774905,-0.2568601253599165,-0.004048379786121798,0.035675718977939384,0.09493572748438404,0.18265639061900762,0.29817184457036644,0.20535027185736565,0.08449538399184216,-0.010919640288007284,-0.021509005657286025,0.0072523656437975615,-0.33700036131385264,0.1899124463495336,-0.7838077569276053,-0.04870991500339741,0.12523399879409286],[0.3817689034003935,-0.42881296031463084,0.3259526623232837,0.05525398803140626,0.419496817662354,0.17488857196261196,0.10988843297092853,-0.3563671481675942,-0.054051259776586834,-0.1801248620971737,0.11966189824450955,-0.32279077980060694,0.1410501707035522,0.03248750878901455,-0.5310754640298958,-0.07286373057458273,0.12990234355701805,0.10446192164208952,-0.07014803680448448,0.11685178727032086,0.17112080454784975,-0.11116089273306105,-0.05176506514443228,-0.05173245358505535,0.6950710700479508,-0.04079747300673431,0.2624713723070373,0.3408161069552453,0.004456602146577402,0.002520491895250902,0.07493211711286474,-0.12666158792982948],[-0.33853712660914387,0.11390081037350679,0.2174045948922537,0.024875301283938625,-0.1639670940238032,0.2137692125950095,-0.20744627003497482,0.5054558067578167,-0.08313306655149699,0.2251373793451476,-0.20000084091641127,0.2838474353054753,0.048261750331406915,0.15569377988712343,-0.32297532125750683,0.08151619482286958,0.4631607955327298,-0.35568214968620454,-0.15795901627567663,0.09401094565539221,-0.18075269076108252,-0.08793562989641304,0.1721417804825316,0.15719151397029302,-0.4463455857928661,0.048131881278895804,-0.1870061052977119,-0.07199350849272003,0.0028408119543040316,-0.353082617806875,0.06100225042933549,0.1317687141425342],[0.27999804886493596,0.07485728259697816,0.024093247970591196,0.050036512242614004,0.16976496289930088,-0.31841630247975433,-0.1515834536869814,-0.03182328623198292,0.1279788287692226,-0.3670594735579952,-0.1317791365177869,0.19903439030520975,0.5310908200090191,-0.22963601278913046,-0.5008079240340008,0.4461332614010504,-0.20349160769748803,0.11260036523959473,0.08416003766248391,-0.038990263275044526,-0.12381422382372623,0.22965983310280577,-0.04744387762313652,0.02403798326554378,-0.04924740611603229,-0.1648237062405906,-0.10369497366834134,-0.07042328204226893,0.02661179739931897,0.1122990358219095,0.08552694944556284,0.4287785670659074],[-0.5644784560973971,-0.2217485323192774,-0.10454501717333942,-0.0642524943958177,-0.04425996332200427,0.1060178682187943,0.3839638799025394,-0.2849916042775623,-0.06771246016325594,-0.11866234144046442,0.07978718098345539,0.30116000353072997,0.052401095560244464,0.08062683255849762,-0.1493290154158289,0.3043330943409004,-0.5301762691965186,0.3612551308035858,0.000507800452330153,0.1065555064273494,-0.3506787983610852,0.0009556957916708813,0.13086709479314335,0.006951542690822487,0.37166022629711976,-0.3117491325654057,0.2967999444701508,-0.1357669806126842,-0.24562855053409696,-0.3761015556325531,0.10634815246630445,-0.010306165892380887]],[[1.326979754962229],[-2.811128647284775],[-1.5256013060120277],[0.037063951486216835],[0.06514886095125429],[-0.9125333113110221],[-0.5662215645656019],[-0.16662148881760572],[2.209281056598737],[-0.9573025868687617],[0.5787301629276206],[1.436805821624329],[0.4089323474162789],[1.3939837668484265],[-0.2905245735364264],[-1.1589295599952723],[-0.49982189680496253],[-0.2752940411753932],[1.9142883557823145],[-1.414479306403939],[-0.6520895780126988],[-3.297672948589903],[1.0914272384442971],[-0.06482829672512225],[0.4565082970883548],[-2.6573090113166113],[-0.4407550246208126],[-2.1695508928309213],[2.3424551349807867],[-3.576685090383553],[-0.18377946789145705],[0.9471283341592132],[-0.976604064871576],[-0.35835182159433265],[-1.3515895946737007],[1.3141557651501372],[-0.1555423059097177],[0.9362006597123201],[1.4235062435607535],[-1.3400991373239375],[-0.17932701333435164],[-0.6135568469897147],[-0.12055358260754827],[1.6489549114825228],[-1.0590639244575908],[0.6120268126892945],[0.35794189048439357],[-1.4985692436793578],[-1.5904730707504737],[-0.25032372993307817],[1.9544471302513835],[1.9201106101391479],[-0.4855738872356812],[0.2684072712543951],[0.21249687100673292],[0.6034993401343937],[1.5746423236086455],[2.7748544583204997],[1.7816096867085152],[0.3642157092844195],[2.7677847811170193],[-0.8754929770235361],[1.0201446715535052],[1.7248925812096756]]],"biases":[[-0.04646307041092379,0.27954104063914703,-0.03554283258991961,0.0836831677609685,-0.17800320041468407,-0.19533307059815427,0.29496970492686175,-0.8023013592126255,0.4694122252484612,-0.9545320708491305,0.46928763418066843,0.475577830108187,0.5862075221831033,-0.3518291916346782,0.05773408396257902,0.7296304612460073,-0.07537348146678402,-0.9125802590371331,0.14639892715416666,-0.8442887620580571,-0.08768113067034969,-0.8731959661975852,0.045381798448378204,0.6165821788399203,-1.141713379866121,-0.28477180081836545,-0.4783370539558829,0.7966786319348498,-0.9088968705756043,0.6870016050810861,0.9867936225162981,-0.4989362018817044],[-0.447808920350961,-0.5635119661443938,-0.550593195625589,-0.605900942793789,-0.687059008720428,-0.7841877838957398,-0.5146660377629045,-0.8485528657138711,-0.09965703781035935,-0.6917604101656467,0.7499941828888682,-0.39824611112429475,-0.3530257088170532,0.004596233623753042,0.9457728380470921,0.5431123829789246,-0.07271875515067086,-0.9375018054759167,0.9380630034498043,-0.06272169205617875,-0.6246804590854254,0.11365418055091088,-0.6980462175274946,-0.9944491649339308,0.9322563993781551,0.5781733666565702,0.861028928177716,0.6437726355676955,0.9120039987740475,-0.559830804432213,0.8895235594558623,-0.5412407944647614],[-0.937058416710955]]}