{"layers":[[0.5490188525190579,0.755576086835895,0.30850923048373585,2.182882581863826,1.9102108030741003,0.9641899327350992,-1.9051438244143346,-2.183074480898158,1.3552326869489106,-1.1273851707905909,-0.34859995040390135,-1.159865851418693,0.8098752756570855,-0.6413338389044517,-0.9956739245345275,-1.8860057630751887,-0.9277753821395255,0.7388862857909297,0.39411330861450705,0.2745570187409588,0.6111101910263735,1.6870244502719967,1.4033389904389788,0.7789511619244325,-0.6246904893300991,-0.9835290661232735,1.3338695332119106,-0.548904384917133,1.1897366442861168,0.5082511326744084,0.3906645691001602,-0.6131274241604164,-1.2091818252369864,-1.5805314595965159,-1.3368710609298096,0.8901448186955238,0.9,0,0,0,0,0,0,0,0,1,0,0,0,0,0,0,0,0,0,0,0,0,0,0,0,0,0,0,0,0,0,0,0,0,0,0,0,0,0,0,0,0,0,0,0,0,0,0,0,1,0,0,0,0,0,0,0,0,0,0,0,0,0,0,0],[0.6014825289982331,0,1.8954153274610217,0,2.1541756059304706,0.28326863635140365,0,0.8179978529513676,0,1.435576828048474,0,0.36699668653409234,0,0.04588458558337591,0,0,0,0,0,0,2.842076936304523,0.7037716153377259,0.5699076807419221,1.4587657943353216,1.2973484882057902,0.655997990513623,0.10252882627938606,0,0.40337048009649623,0,2.150432793271218,0,4.96021825737206,2.1804332458449958,0,0,0.33051972581905475,0,0,0,0,1.4011382545445912,0.13159199366215252,1.2354675643095787,0,0,1.15273714514189,0.4497371750126303,0,0,0,0.3685135559909626,0,0,0,1.945947063575319,1.6763427833140474,0,0,0,3.4222712154657295,0,0,1.54281327799272],[0,0,0,1.9861230325730272,1.3094492685263048,1.0750862789824382,0,0.9614525831130138,0,0,3.611777564416305,0,0,0,2.8683016139423616,5.574904839946594,3.976461793847454,0.5472988788396878,0,0.3130766244184222,3.662902564306906,1.363694944920041,0.3054851815345268,0,0,0,0,0.01531501373779666,2.0213069408100224,1.477665079314405,0,0],[0.6729670312597668]],"weights":[[[0.06584761495343419,-0.02403221632843356,-0.20376334077377353,0.0365831074082816,0.17070556323187608,-0.029499401370861076,-0.3251483677846567,0.20157558271347037,0.19340987470722507,0.1522114903989296,0.06740975960723225,0.10873098275828952,0.1044901012000366,0.04727578744733628,-0.005272537946930557,-0.17227759310403956,-0.05310680296212363,0.18996985027749386,-0.13177647873856807,-0.16546514585492594,0.1199197788411507,-0.05239169554460284,-0.05737819207071246,0.27327977588850416,-0.4235601889588016,0.036134478187455736,0.06058515568018755,0.023214191345450393,0.015496481079908057,-0.1314858813828956,0.1371241372175324,-0.2726105468006317,0.00849149273013728,0.00034810194614377993,-0.10473816237423299,0.00989608254055153,0.03658071625994171,0.012474729120854034,-0.17863962336589578,-0.055812453968972386,-0.30784141956608263,0.08953886902357298,-0.29898734939746563,0.2790424181734258,-0.12355562555236593,-0.13029626335245717,-0.004617254363278444,-0.13915320822501515,0.05534359239489076,-0.09991914818800911,-0.09294555551239723,-0.36035082032978816,0.22567041775049124,-0.03782546212910288,0.032485521229348224,0.03835692046690115,-0.3293758162362514,-0.1827746777706488,0.005891726939844066,-0.12956049987104548,0.13199480651276108,-0.18640988897819127,0.06478961572236143,-0.1533622418016717],[0.1368598648033091,-0.3382353311693021,0.07210627813403912,-0.008250389158410913,-0.019883453516653982,-0.17975023632583217,0.14403437534852437,-0.2078847311836889,0.04111813514312418,0.1308910697505602,0.215550590406088,-0.12554942931210641,0.1415944742067776,0.12241034655714304,-0.030707434668331837,0.3017676467249165,-0.08443868594859869,-0.06156901932075176,-0.16048809290269356,0.010593994953399981,0.17112416367155633,-0.04202301101329071,-0.019268652480865064,0.03975202285418219,-0.1265888860199883,-0.2462893910548459,0.13898266327542924,-0.042045452502661826,-0.03601023417800814,-0.21340212158626218,0.283843925608507,0.081311771478868,0.004964594636580705,-0.0632513634957915,0.05091241984667039,0.007123671848625174,-0.026059143557072097,0.23715526603120854,-0.04436179469258295,-0.14404293269355722,0.1845501074973018,0.10120230655718432,0.1069738539032548,-0.08868634638523377,-0.24125961424751677,-0.07890455813806653,0.23094670479735124,0.14406442827911647,-0.14750368503188477,0.0518342304299639,0.34142316556235286,0.12437559599706206,0.2672978126970738,-0.1682087519214681,0.0385254759875926,0.31463760097331894,-0.08083986578673474,-0.07961013303135557,-0.0633085205571336,0.31927716945040663,-0.23321765224208538,-0.14189248869806995,0.004639880246893981,-0.01614494764326948],[0.2158330265552766,0.3425906617522393,0.16229032827397316,-0.35622574505960214,0.13589807035209694,-0.11651184971362069,0.08876419783040795,0.004431057280046318,0.03199582812374804,-0.18742405027511227,-0.081861394851603,-0.13515506027781007,-0.02191173833629856,0.09459198784709635,0.014952708812989253,0.11776464502901228,-0.058559172368793905,0.16419176783773903,-0.45686409821769475,0.0045571536701021825,-0.1836965180644182,0.3048493483083298,0.07950393035816637,-0.26704693502780835,0.11402920662426144,-0.04510288217840364,-0.12840077161640678,-0.0567849924723318,0.1555729757470306,0.21439307325885867,-0.05616113935647646,-0.09702156339581879,-0.05443771032706058,-0.14312166394986203,-0.01138364780236203,0.030975641972511896,-0.0752021719258177,0.19927830598432794,0.20843158665728476,0.06142142130606576,0.01809005139392553,0.12751339302974624,0.0934216557562972,-0.09640904675696212,0.16388882220799525,0.3888136614355959,0.07341656418251814,-0.12468141149230082,0.31451493085345644,0.17640774759379255,-0.15343848405789431,0.28869006822630305,-0.33647054491840095,0.22612984754956883,-0.08464065452339337,0.13237584125625013,0.0268132952460401,-0.09439890035380422,0.15256754409255566,0.01895120018359563,-0.19888567247008018,-0.06735013538061993,-0.07471640352738862,-0.08759138372258846],[-0.14608016573389332,-0.07655617652365496,-0.15689411806121925,-0.10640392013961503,-0.04769222463881551,0.5865174994650076,0.10548223451996651,0.09603007563348613,0.2608136270500124,-0.14369002435747785,-0.0841654837777452,-0.004131471419703189,0.15754414504580164,-0.2520916878809323,0.05702379965888669,-0.09850320476942649,0.1927769726294188,-0.0515679332269282,0.008183298790265902,-0.022493971236921862,-0.04002667656383482,-0.08633946778479228,0.17461563236449518,0.14739972054814518,0.20011493315328446,-0.007096405351193313,0.1653671591246016,-0.10913484298472097,0.14944756003751505,-0.018510702891522277,0.14731014846775656,-0.32213621340998316,0.1475125472899592,-0.0830812915431445,0.00745644704490092,0.12774207714609012,-0.11035208172711536,-0.13349181926552306,0.3389151005481559,0.03112264585994573,0.0883286111619074,0.14010738916936766,0.04994807801594625,0.13751981657706647,0.16538783710406207,-0.1443293787321536,0.3648444000984957,0.032544786324403725,-0.05787059917136246,-0.03164199816353027,-0.2608529851771303,0.04383522968015273,-0.030108414930040444,0.057687786399482625,0.08516950423438499,-0.017001807649070645,0.06507201920868508,0.3825743708655455,0.005035562223637417,0.01486718175511943,0.11355379314325328,-0.25798435668446545,-0.23399651300095808,-0.010362086495251027],[-0.1293455398447944,0.20846333721858007,-0.049283534824382184,0.15087384359368708,-0.13905370376037027,-0.045423563070485576,-0.05675033616471031,-0.13293724814888436,0.09274760501750022,-0.09830931286351952,-0.3314853371924706,0.1072113283450416,0.12882871250329986,0.2128664399343057,0.16132000411739367,-0.027350652000302192,0.010105635548641101,-0.20906824247351619,-0.07086897065643885,-0.042811640047711576,-0.2398665882877327,-0.07419951061024874,0.031366703554235716,0.29909240412421195,-0.058225914819250116,0.08816177788287011,0.10480312952817789,-0.1065723350321875,-0.0945171665452988,0.14432679825245287,-0.12250963091048164,0.0019487517171177472,0.21427157855321313,-0.16821122981246586,-0.12926772168430592,-0.07508420940631888,-0.04134324242906245,0.0303293908874265,0.05449380080398277,0.1410099345944609,-0.1593546383760134,-0.14762294728642575,0.04043730072791007,0.11439373974540326,-0.09582873129212892,0.017015042782592,-0.01862589871985431,-0.09141724287313963,0.05698951112571202,-0.15511101427599427,0.2819792633491188,-0.2408233030653224,-0.3174879576612425,-0.11829923426737453,0.0597043381337782,-0.005436794018449844,0.093840422598166,-0.07910706473568452,0.3357179406795508,-0.06525781758352388,0.1641095612657101,-0.06083938838278861,0.18633306110602485,0.39644983230385433],[-0.2938443561256133,-0.1048822139537648,0.2910416236769254,-0.026392929576029955,0.12894154382655448,0.056651300669062855,-0.06621288252391423,0.16700863054738652,0.13827189698849815,-0.07879780159743158,0.00508584698584934,0.12150342607179644,-0.17636107906150317,-0.11906054262171331,0.058121513196963785,0.0891497993962598,-0.10309201293537883,0.22749246351561436,-0.18676310791537248,0.24799441001376893,0.2786020407336648,0.3027657763339628,-0.23362821584431648,-0.0009197890090769545,0.094253521681589,-0.1993082975099696,0.16158991695951816,0.14714630306509874,0.10556582821648833,0.036003240683863284,0.017940371573640205,-0.3156404461539832,0.3543237396245427,0.38210895097995473,0.0450692998647334,-0.0346246477835949,-0.12776957978106,0.13300594331165924,-0.026009073630973916,-0.11216419597469558,-0.08227206941480329,0.19745060490767394,-0.30134984930966147,-0.09995541232626108,-0.026330705519111132,-0.10533044040627763,-0.23812126297027975,-0.156032962389657,-0.1928183152611368,-0.14413150824801502,-0.15305895029093908,0.3014931624259746,0.12172369723078741,-0.34735629033434756,0.08024693558490484,0.26006866609368134,-0.17915716786487787,-0.2138224057180993,0.03156666090712271,-0.18533627634402194,-0.1284417012027166,0.33413227882276897,0.10505313791434129,0.4315376629387505],[-0.13546554434262575,0.03030457922511917,-0.06399325752256736,-0.08026338361402605,-0.14736956880629454,0.21736776041592992,0.1774503404754527,0.18625148221390003,-0.0452254839131755,-0.26261175084046356,0.19104910609993941,0.0868902511790186,0.030035807325167693,-0.08147945162589615,0.1547442853166918,0.07835642378729443,-0.22930125566204354,-0.11510980929360165,-0.049383112988638594,-0.1559597697503223,0.052650001781958576,0.18716689344310708,-0.28098333149157456,-0.14641722770661722,-0.08084567239393145,-0.40960534586406233,-0.10659310630438833,0.019852529493957584,-0.0019204475781928255,-0.24137634952473302,-0.01413488147820151,0.3648188110735709,0.09767893843689192,-0.2374234690336069,-0.06346465088623078,-0.017881695150670358,-0.03035697315760604,0.18766775925511606,0.107293935173515,-0.05967845285966005,0.24511641594043188,0.09981063756864587,-0.06962710365215727,0.1503813333343594,-0.13734183706483277,0.012886239402918994,-0.1484750881456434,-0.20202412168149325,0.14521365550209306,0.1343894580030339,-0.13450003421547024,-0.22246218918751748,-0.18088605983192046,-0.06738323013794395,0.05005158020341593,0.13950199945390152,0.09476094586921784,-0.2963462013263538,0.22439454546555154,-0.04465725351907017,-0.23445974616619794,0.14735164166273823,0.10359780690271778,0.16386412605827305],[-0.026512994346810075,0.14780723551834943,-0.29935251408712304,-0.28047038974270055,-0.0560551302198465,0.05060599922626245,0.18636560479752115,-0.1441335977804454,0.05701524798803581,-0.05077637233698955,0.039176472761351784,0.021628117743818114,0.008350382201584523,0.18109101479509085,-0.04106654358745273,0.15123358199244397,0.128966232839529,-0.04160538329372189,0.1557076528252416,-0.3019939704358173,0.02875679683532762,-0.00647112583641266,-0.3618074431243077,0.1077424865067017,0.2160807686141633,-0.038708553289616816,0.14309104262225952,-0.21915464588853595,0.24068778241380853,0.41581694513412404,-0.20933451570723333,0.3107709358943283,-0.14256173939512323,-0.14369081663231256,0.4144050032899575,-0.0003858784589363364,0.03401944056010853,-0.12482128891311564,0.37553390593481106,0.35220816612911104,-0.1409783306994099,-0.10320070098238344,-0.1721022496607715,-0.2052933564633917,-0.12367870238809389,-0.008006248728179878,-0.050944001246257385,-0.027690475291866183,-0.04831510636655206,0.24352896392190598,-0.17182312698747315,-0.03647832165766165,-0.009679790460838469,0.15217072898317746,-0.04914642628790195,-0.09707444707428624,-0.04873291129506844,-0.05961305700706955,0.12264402721408407,0.19982045565858444,0.05253848973501296,0.1548858838626729,-0.006914321832548553,0.11504561575366448],[-0.09809141359017289,-0.5019161712406521,0.2199263652335217,0.05625085215813085,0.010193530687085964,-0.05990602052006682,-0.23999138704900766,0.22770890169169308,-0.07228404972009465,0.20218484004827617,-0.45133498107968834,-0.059716314606731234,0.05132203654021934,0.1785001738274292,-0.07417188414701213,0.16756911357267776,0.06514078541614594,-0.06972017974403025,-0.13426410314255632,-0.32281081807890477,0.05993891082053928,0.019755447636473824,0.018427107529815107,0.16030880109570253,-0.3369551727726886,-0.007360890354661321,-0.12981677835604707,-0.5045298342505186,0.2485212385098476,-0.267108301045878,-0.3508431316248821,0.20144319791138726,0.19369683172129154,-0.06139491915787111,-0.041007385504029825,0.1254627660211933,0.2564091211885633,0.17851377305645438,-0.19321807892479362,0.025067767699611113,-0.40823554164744597,0.01974095075896035,0.06572425590204166,0.025407913912472397,0.02454925949387802,0.34879166981550996,-0.20771215457835546,0.29881575331012633,-0.10218881784863301,-0.19278578442033364,0.07068534637381609,-0.06650193734322442,0.05571268670161731,-0.1360741592848852,0.007969582564645828,0.13488442838256,0.35868725326910017,0.14194874080877845,0.008503010140558768,0.10044727122659214,0.14804113319059128,-0.07283469460121272,-0.15969085713545209,0.1513648821599923],[-0.05029416768856604,0.22941381932604415,-0.10712607886005227,-0.07242674207767773,-0.044949154564713975,-0.2388833890987357,-0.14168527442896445,0.03447406158873037,-0.1809914564132757,0.059921314762989425,0.08807915154514769,0.11144518587711157,-0.14330561628429558,-0.316586583365178,0.10127690652685135,0.2809525975396869,0.04161885317095162,0.21926428229103304,0.050239271902920914,0.1847191146726543,-0.2937401118050271,-0.4136822862267729,0.10850109867478655,0.14815647951109673,0.43762211222969216,-0.15136280165302352,-0.2955573384804595,0.05569921477792713,-0.15292781532071842,0.07323994314982592,-0.0537302072885811,0.02577473207089215,0.039783973444922585,-0.42476262728872116,-0.01083871554511744,0.513746316412448,-0.03472873629681577,0.053352661365848604,0.1439695892569024,0.001736034761772454,0.0761623669513418,-0.05766819282964118,0.06227865739505173,-0.15870020769887425,0.27852989976963016,0.08610628861918258,0.05221589395852261,0.08049278360363016,0.18343074209642413,-0.2666640161855401,0.06339265753440738,0.3396252315251134,0.007195241573655801,-0.16650849798512746,-0.07843315637068599,-0.11506454375178639,0.20569845545107857,0.30880499745412954,0.14559942004666546,-0.06824794188660267,-0.4005522539762805,-0.1806775173920967,-0.05554940537342186,0.1907495250517558],[-0.3804224192405668,-0.08634488423381348,0.17073698662448106,0.0005270213855991839,-0.1191342125896668,0.23491265182091017,-0.055216751819909315,0.2922785919402568,0.28471657448221727,-0.14221636058534756,0.03550011823356587,-0.030751462520024937,0.3859011891075757,-0.16723021334063287,-0.2650011995912044,0.25586198403540594,-0.03201295495028809,-0.5161799274466878,-0.1304888459240933,0.3334829598736337,0.01620634297808175,-0.055974857061903145,-0.2050784224614966,-0.15281083487495148,-0.05094069912230423,-0.16840505407218076,-0.19735181412969752,0.09257760374931466,-0.1598923345583102,-0.3771322872682819,0.09456970041556319,0.09248833601332145,0.013001271767229613,-0.029238443895376397,-0.163322818859273,-0.14288242460301692,-0.07074850316791209,-0.19676725438427442,0.13849143881868556,-0.24330369936274235,-0.46309423369103353,-0.34154465329530076,-0.07572101355560598,0.16947071688285165,0.021072639855845048,0.14483345285241006,0.1990474493545968,-0.07028242254916599,0.1537353507447452,-0.3936113199419598,0.13641336226321066,-0.10432691676375204,-0.08430020515931382,-0.07019698950125082,-0.08075082309750484,0.12719032998980453,0.2671451406907302,-0.07521670580466212,-0.12721842336426964,0.22877192221600462,0.2467023778648582,-0.03790944787834673,0.029850909749059334,-0.300425878424688],[0.06157919092107625,-0.049852330858687684,0.029299202253527525,0.09564911875827302,-0.20546576867388194,-0.14965413510323053,-0.20461451591501098,-0.17147227851299238,-0.07111183449023564,0.11483608357643445,-0.1813467111243879,0.07671354398971512,0.17736738912230496,-0.004925746625729855,0.1620630279981422,-0.11305938775262767,-0.023009723819374543,0.22254305640967587,0.0019025607262767338,0.04292485494279447,0.04206642861056149,0.04335109160207643,0.12561951329990376,-0.0416454830159268,0.18895041618285927,0.05257287620467359,-0.19318184274700131,0.15960397407148347,0.24916675558825055,0.06070132631453477,0.09647910397353657,-0.1545484994610115,0.02065672121013646,-0.059420520206579605,0.3571840070880119,-0.0058756588835057804,0.2035735421247038,0.0038086938838194045,-0.1199044271100484,0.2983943166256755,-0.19496140906351228,-0.025501425326049064,-0.270603777070647,-0.07599298782157966,0.02159545543223927,-0.12222390276404393,0.1838985216187319,0.29724387140380243,0.12658513414738493,0.2740909315504721,0.013724876142458516,0.06770008616607347,0.10857791557799396,0.1558001358115765,0.11526050365740993,-0.10334151126761006,-0.09779091308058818,0.0471309490851562,0.05081902233359687,0.19138746291735836,-0.15933787800387486,0.03050362262776786,0.1162494044942567,-0.10330591579905547],[0.12280098707231926,-0.12893396117200895,-0.06109052053540095,-0.1321326751508668,0.17444348256696282,-0.20397123236976494,-0.09894174390868456,-0.10223051326543114,-0.4497070647771974,0.044107562321302286,0.21064998965348705,0.34175076979704216,-0.10580830541009069,-0.24460446483557835,0.12188247523776195,0.05118176088789372,-0.025028456553914953,0.041188729135058805,-0.0062236667093904735,-0.5159952342587186,-0.19284994003281036,-0.06707018301250628,-0.1635547824151926,-0.08621953167881674,0.04195149931293177,-0.5445396587815785,-0.0841171229636785,-0.03823169809678985,-0.22477345848362973,-0.14890073213722152,0.19029885397881882,0.005382722921495108,0.45296939639300565,0.16021706782049674,0.17503377364683137,0.09630197287494353,0.08176899088324326,0.12181705519849476,-0.05178336300096852,0.06129406005766588,-0.1325245079874271,-0.13330518644936262,-0.06562790551094606,-0.009428537474636954,-0.21211903436324914,-0.19162950240901194,-0.02243675594237829,0.21186189890366952,0.03515287103195628,-0.07880241484455347,0.028261671772226736,-0.022930276694347343,-0.1836732018502637,-0.1002072195997286,-0.07713210867781418,0.027661215766049442,0.3398760431042142,-0.13600614044587414,-0.2132245950010225,-0.20108693173118955,0.048246539628836085,-0.1118144157231875,0.030370655707023738,-0.29449519778081557],[0.018925254855272845,0.12087848983874437,0.1037662502689756,0.1545234570707846,-0.28856425511081435,0.04212208808829702,0.08847224285608912,0.29411590625703843,0.006600746746800825,-0.26943500669464965,0.03089470935991511,0.059388655877994724,-0.2770977108083856,-0.12416062887266041,-0.1620924052719667,-0.027660472901435404,-0.18350057842198297,0.1472777645959643,-0.02455077044930809,-0.05531882099868938,-0.13415451966549763,0.03902880044243954,-0.08715894113793972,0.009321178474950832,-0.13274035934618988,-0.054314347871591666,-0.06635470865275919,0.19250590969951611,-0.09249212407969684,0.03464410841330217,-0.030623589824270978,-0.1309358378091735,-0.0586272631003112,0.3417437783911322,-0.157752272169097,0.47335436047799073,0.24859931812244304,0.09972994534111064,0.13264407498915218,0.2302403598837198,-0.09295766155521848,0.15499233271025123,-0.009786272334746772,0.01676443306833912,-0.14353647465436228,-0.07892919843566135,-0.08509565900418994,-0.17623292956511502,0.07266084216367381,-0.2993241263444063,0.08525234926479004,-0.05514263987528424,0.05648024752451509,0.03562026322253729,-0.1489149841984184,-0.07278718493650921,-0.0841750155638087,-0.24909879204046206,-0.17716788421742916,0.31077977619032887,-0.20660509115411926,0.09103904961089114,0.1391828166329795,-0.07415580901194595],[-0.12445848440865123,-0.15542015948943053,-0.12266711603334846,0.30419205189181614,-0.03143528716193248,0.2763238362033402,0.046726277922405406,0.004920680147593269,0.04332829004256748,-0.05101120151432341,0.004855766779019334,0.05214786203352832,0.04956002854342237,0.0007644961455106057,0.13659692731963508,-0.08878966011535701,0.05058256380425794,0.0033579325184490074,-0.030804773829360945,-0.34757585144662856,0.06013723139782641,0.12980123212533695,-0.03263447557194102,0.0667763820291339,-0.17089986357030568,0.08096601605027086,0.3172547563914591,0.022023655153327035,-0.028441015280086503,0.07780539290130879,0.04910809467710097,-0.049299742819124324,0.10158823236297251,-0.24341428438551543,0.1028230329255574,-0.058090242543861144,-0.4517015567831497,0.2698696218174619,0.04996157033164422,-0.03517388511369587,0.05640697236672451,-0.0891196048207054,-0.047841935342178336,-0.1581422214512827,-0.40270681370883016,-0.15615083763932264,-0.12930317396456084,-0.01489897771878987,0.24182135497719867,0.1768220251703691,0.035395310092945664,-0.03794931646512823,-0.1886057442737506,0.09211970513924075,-0.10348279023723783,0.002956006564880205,-0.38566174787838337,-0.06615131782339995,0.023231821655731913,0.3638622002818013,-0.1661104449997844,0.0689426247489634,0.30885892343922217,-0.051513240218364294],[0.014431631529770722,0.14920804274112284,0.03761563480658883,0.013476598870155496,0.19893128513741634,-0.2623798710392631,-0.023707013951803458,0.05106154079786815,-0.03424415859038384,0.026187026970718532,0.1823980661303422,-0.2884392466715825,0.03258846233272449,0.14915691345354276,0.18769834389924397,0.04886940447212134,-0.05657978489881894,-0.12087122146703544,0.009755784377883318,0.030032588370339914,0.0515733652698302,-0.22815468000493705,-0.1761619077304501,0.013502888455776232,-0.2588967778180542,0.010590100267703632,-0.0798826521934922,0.07376189963146537,0.2651529543039703,0.21347198817623866,-0.08198845337926217,0.060465299274529254,0.0035725307265638646,0.21140447365011147,-0.03519492818020847,0.10398636624287906,-0.060270695263434385,-0.0524865991768418,0.12866317558120968,0.0926806788731837,-0.02765366057047949,0.19433580344450885,0.17704403564512092,-0.02385563358057853,-0.0022962631751503814,0.2953012705274269,0.1748640404350267,-0.08122806979489285,0.2835292629547444,-0.03135686517157089,-0.09811199066078874,-0.052685939059607674,0.43624474570525795,0.07276610871523187,-0.14686087224918926,0.10797145153171618,0.21070667033959892,0.026384518818890926,-0.12014544131806527,-0.16831347869596125,0.05437878316901552,-0.12962307794885958,0.10586323835289478,-0.04906934839298137],[-0.32013870084177265,0.3097650265630661,-0.05821836284772872,-0.005253778020350534,0.05626604943576933,0.22223325283834058,-0.12116236573258636,0.053122797654979265,0.1346946027435132,0.27052683464584976,-0.17037953968043518,-0.2696485918106592,-0.05391550891125286,-0.018103807385679776,0.07251439584254928,0.1401131305760057,0.14565104076297528,0.16330842910503418,0.16481435208085943,-0.28931765726349223,0.031802992066281476,0.09758944196154737,0.16027241476770207,-0.21516596801344506,-0.16351396181089112,0.0234532982193752,0.09771141219157113,0.24460100020017347,-0.019650403588025882,0.13884090086958414,0.2065399830986436,-0.22524398032866425,-0.08108878866759761,-0.11682740187949836,0.15864580424476335,0.1515787913042671,-0.0019636122991421715,0.22377064249259207,-0.019660039644320646,-0.06464128032137355,0.03027599569852767,0.011670265360183977,-0.06764775393879559,-0.20649244899221458,0.1301258743725153,0.04112108795102328,-0.14985942511807293,-0.007295935306878047,-0.1013651233548228,-0.03125437460223072,0.05536673395784946,-0.050306053129063145,-0.21260280909665008,0.017265285365835974,0.09685626803357851,-0.20151265123086862,-0.030313489252450844,-0.05220809832197156,-0.03144670064876052,0.04155708995899748,-0.21090858079890457,-0.02873692429225994,0.19494697639865802,-0.2260336590360749],[-0.038963162657250756,0.36719167801602426,0.24981255418354073,0.3082631348765476,-0.20509502152146547,-0.27373093908317403,-0.05105551532578563,0.1632280682074768,-0.0260050517662176,0.15757990967725635,-0.07595032713982847,-0.19513301846530742,-0.04449171280856734,0.31654444058582554,0.3994077957978639,-0.29529892680168784,0.13869282392176646,-0.09148270275357558,-0.005066566121162433,0.14028331130628485,-0.02046854379968842,-0.2872252135750763,-0.19357747601047656,-0.10685252524383257,-0.21136409929825403,0.26747068775535227,-0.1333737816161742,-0.22670444557907027,0.1037712594472288,0.02585914384844154,-0.05460130971939379,-0.12998866841297207,0.0011688843664493544,0.03259639481869945,-0.08525580213949628,0.07890589561307398,-0.24110957782996628,-0.033839502305083695,-0.07009606072050407,-0.35845388387600163,0.14729224897795137,-0.02740761947926285,0.15461389274135187,-0.18185246196720511,0.06382815908471534,-0.06439039679568465,-0.003653300807875075,0.22935208405571203,-0.06160956374863772,-0.27559572005882593,0.3558728510396395,0.002513207591709408,-0.0938015913865335,-0.20272960560404418,-0.07252413906944559,-0.19073622529066528,0.02646488205796768,-0.24586953084837615,-0.16044781428202767,0.20523498638022283,0.33410158742624557,0.013206613324164123,0.059299343300373564,0.1973096286900605],[-0.08924477358800524,-0.09802860645438653,-0.1403198553072805,-0.3711382909375744,-0.0751025109062399,0.38200471380702483,-0.3374455881088099,0.05817381623197475,-0.02227163191450386,0.32242190824428935,0.10008825081713672,0.193449398633544,-0.08798335480064962,0.03643719057596129,-0.09953069975568428,-0.08661413288038658,-0.1234398633448624,-0.09711525829498538,0.26185158991595503,0.2180199001734704,0.08166707048974113,-0.08026424520132613,-0.11015187262866918,0.13323455023783776,-0.165094464514495,0.06668908605384648,0.13932819425002316,-0.0883964648039259,-0.10436591711282027,0.09914289023127484,0.09498729472562967,-0.012889142516803238,0.05248266336272231,0.10354683777398672,-0.015907724080305365,-0.024786269587492315,0.23306764439188513,-0.025309257873162225,0.11687236539855725,-0.03219020083275321,-0.22207018171963155,0.1747034156918252,0.1502675761197688,-0.1077905340361099,-0.04799917176148079,-0.0272075015653897,-0.18757169939413462,-0.13200585665245695,-0.049853640701008665,0.005608098917090043,0.22694397957180268,-0.1635107403796799,0.08341131276468702,0.049858365029318924,-0.1659676714076613,0.2038896278653801,0.26075900962480025,-0.4489455523354363,-0.26233116915482696,-0.16319545594404566,0.018278541454752023,-0.18645680638690504,0.11010811713054994,0.22504790394752167],[0.4009949971846929,-0.18457512979343518,0.09015464800106814,-0.1262355539018094,0.016887407373962316,0.4059447182805811,0.05873135396594417,-0.08806147795415716,-0.03945592688026607,0.009666183562762444,-0.22422150426549498,-0.09152667107075736,0.01262785503408653,-0.01654761329464201,-0.02333125867235884,-0.11039370453246786,0.19082186587366734,0.14715309452135927,-0.16142629745640608,0.1907890021265663,-0.08417220059051644,0.11388559475209835,0.2517319399691432,0.17803260509989385,0.1245136240435558,-0.13357745949862895,-0.01015235215577528,-0.007820092055019733,-0.11381550664797241,-0.1557384972858809,-0.08623581059028468,-0.09529880443334836,0.15599420194802613,-0.21701085474529647,0.11456313217681627,0.012335143210597248,0.23325620301723854,-0.13301380212209318,-0.13099670360542512,-0.3846905466729549,0.38389626161809126,0.18748117911062825,-0.2255105298365213,0.30138629355459046,-0.07500571421802665,-0.30185450715796713,0.2320090041857906,0.17569638456982603,-0.31137825330109825,0.06708597776195535,-0.35913726262611373,-0.11944688070786005,0.21545336109686522,0.0034153634621652148,0.04536411304797087,0.08048079123429107,-0.11758744250817023,-0.045965525634416755,-0.18913162719992155,0.06996718407351481,0.2697168926437431,0.3221322774433391,-0.10176364700995745,-0.0004949031596262437],[-0.2347921412646356,0.1303742707243601,-0.20285687229251295,-0.23635867199995308,-0.10853297951392023,0.026811795107430807,-0.053079488495002346,-0.01823853547774705,0.04050516497049181,0.039076163379089535,-0.09761124248862706,-0.028284377829181973,-0.034855878681808616,-0.04325190291930027,0.056891330936608336,-0.007364984665869867,0.027425644698256656,0.16868938239528192,0.11069992664126199,-0.17450847433050992,-0.06314824585187302,0.05978952106636563,0.2136598040389039,0.04417527908524452,-0.0607471439853032,-0.015465366849706933,-0.15791914041313956,0.00688234361019082,0.05618941390260164,0.10734556074960727,-0.09037147089212898,0.262405238004127,-0.29698701623262563,0.062347908942352294,0.2759373381535671,0.2006515619452819,0.08447018529428481,-0.11888898485916888,-0.04890840859993403,-0.13115684011595638,-0.09012329091125523,-0.033818192442570255,-0.07451962801363325,-0.29919306653529026,-0.16418265002929935,0.2842346183471577,-0.05594705397974987,0.07915879425000116,0.07369840317495288,0.18379781691475638,0.009851153535074117,-0.05358567245969717,-0.06589328931379426,0.031398133818188435,-0.1717189421646739,0.13328570433880083,-0.06755494865967848,0.11623021539994305,0.014243933911384392,0.11032227360688798,0.020330825731083028,0.4452928466705378,0.057900614401557575,-0.11835451428695738],[-0.17022963792788037,-0.06158443100817826,0.13667782724058222,-0.3530471279898565,0.24046241023765427,0.009075956069524257,-0.3386483344406078,-0.025747962894097406,-0.07221767765907855,0.022759496248361565,-0.305339620955174,-0.00641038878620724,-0.24253597346004907,-0.11066126562321597,0.028433602163344927,-0.07515521271643537,0.030820870337645797,-0.04613265824256817,0.15230973035887363,-0.16930777599159427,0.003632826788995543,0.14738142092449524,-0.07117125674426247,-0.052282374901327644,0.014762715822238186,0.2862910671757241,-0.3647397760377859,0.007389626639042748,0.3325941448691895,-0.05131903276811468,0.01567221093373594,0.1776016602618923,0.28929839666153395,0.12042921459484895,-0.13596114421832892,-0.4108390491384677,0.018463417321801883,-0.07266555056382673,0.01447976896426995,-0.2233658671640596,0.07431596895962565,-0.15159065335825192,0.16059764476048496,-0.08068828891585202,-0.09130447520367327,0.31131967460610765,-0.07463081889049127,-0.1650315875162061,-0.01410430540185459,-0.2340721144239651,0.08048574888844699,-0.09336793099376865,-0.2866713657329137,-0.05024568320059484,-0.0876785904241861,-0.37045264514885556,0.17429519436822183,-0.28013226955692705,-0.26180344427188806,0.09519234967875309,-0.053871189716801035,0.3272467551080309,0.11361969822717867,-0.00884786063951888],[0.15348412428863892,-0.044117035951612385,0.07560493621365795,0.05256677429586213,0.2838051572979466,-0.3077721617280132,0.022169605485818852,0.14909217064974747,-0.36372162805124997,0.08986857836385109,-0.3983417151777558,0.01565217153942569,-0.15546282873107992,-0.2042436213170222,-0.08174772835992314,-0.22910242498524613,-0.0522475078199884,0.00938822952242914,0.262989210505847,0.1290176276427802,0.46960156522149005,0.2095910162992,0.26834325886842186,0.09940522824517864,0.1327646600541819,0.0015517562052215494,-0.3695277607388828,0.14154660041437309,0.16545126364618723,-0.47398365779489476,-0.048538187104958996,-0.183924186740526,0.06871545541800213,-0.07112704153371784,0.1177205617364059,0.11912669240628285,-0.09444583385103814,0.0501912389964306,-0.1772945150642935,-0.03582215771533246,-0.04340977566126733,0.3679768686741366,-0.40442447672565035,-0.19218204903081568,-0.0537494228883274,-0.03488500861950708,0.11437469401081596,-0.06542128515895332,0.09941392946871574,-0.035643936807181496,-0.10611874807254411,0.07733913814868161,-0.037683665451945486,0.030242340339982174,-0.058144857590301614,-0.050202890707961786,0.004448730883535574,-0.26694666863409927,0.14094848189597595,-0.00822956662575344,0.014250261160852026,0.17314953612589587,0.01607649295789197,-0.02410924184143588],[0.04757080619351722,0.2857679364963489,0.1557213222797641,0.32320339425114597,0.12937607530942385,-0.050448182284445954,0.43413291903275697,-0.005381394346354255,0.01056103305172561,-0.051104848576794246,-0.01532789093253023,-0.24019199374240185,0.2932916354830742,0.06646086839541808,-0.007060146106047655,0.1330058574855316,-0.06877520042754078,0.1637714345310779,-0.06899347518334216,0.06409046843777445,0.08757404246612732,0.00015977706177580192,-0.14650113237174492,-0.06410315722601084,0.010590767352205635,0.18724680189337184,0.13784465653867325,-0.18389254878606692,0.20170220011767145,0.09001239891674723,-0.1960222943448583,-0.12694663692947555,0.18741580583323447,0.037570391616905834,0.08426047855891679,-0.17244688046543005,0.022639953335554616,-0.15955488839807921,0.502853066389529,-0.047123299161616124,0.15995448551659347,0.19182997657677442,-0.055368210948916696,0.19970013576746476,-0.22494326536693227,0.030321166109319023,0.059971462502002276,0.24864413200123223,0.03608192957193529,-0.08979224611170537,0.14762577723296488,0.15360370301996024,0.0016973534522303742,0.04860046321123271,0.0522036151659033,-0.0020619780688728123,-0.178084963873634,0.19953743079239308,0.26017326347474634,-0.33799392676778184,-0.11800735097415488,0.05431812881958771,0.06171841565462574,-0.05358157557457449],[0.07452010013213226,0.06543469716134233,0.08198477488705662,0.01202386617238085,0.29975273091202576,-0.12384508445922923,-0.08424278681350923,-0.08776831937800522,-0.04218253336692656,-0.19517348927803124,-0.06440784559429755,0.0034013700075074165,0.03744267042830035,0.19930817598018943,0.04694459095061643,0.16464256826377932,0.17912455840377023,-0.1782710663708734,0.15338334859600267,0.397763255230408,-0.10956260697161567,0.04950513664449043,0.09513573117491331,0.30151758132664236,0.1043978087152844,0.11004747440659525,-0.122002245922673,0.1675753689886894,0.33902459812932884,-0.0006443675322166289,-0.11538982636369456,0.28300779841347823,-0.33736695912630754,0.04578815799542765,0.255534618355005,-0.32401648115916926,0.24124915015824105,-0.08095124788098784,0.10060423393218679,0.07426518721912317,0.35629618792517787,-0.03376288038906022,0.09489743807849216,0.20638028587798052,-0.07142219445936562,0.28255054176906436,-0.1534299141125357,-0.1056168890673286,-0.14097250839698655,0.16688445490244205,0.27823198361001994,0.12293640374418005,0.23437051058429687,-0.44562101562618245,-0.06909755723575542,-0.2067131220550664,-0.11076841181718183,-0.09782931211231591,0.011740610570066213,-0.13403379306617594,-0.35740326003624556,0.10222085173305909,0.10857981075643965,0.08543987002311214],[-0.10157790345451417,0.09372481957968039,0.21616205199357055,0.1204700281470694,-0.07152639961309916,0.0435971775754,0.04876098619848968,0.04408616913114278,0.01568693022323491,0.1097462434296521,0.21467460089181015,-0.19105463899489203,-0.2387086815374394,0.0533459692239396,0.23152722890003755,0.2240594294795348,-0.20308534689290103,0.22012314508469816,0.03553040762253922,-0.0981071956855163,0.11392035121036359,-0.23219535288888352,-0.22833050244023623,0.0029297541633555766,-0.3623541482632054,-0.03864423527707954,0.09545340527184736,0.119484522636857,-0.40028081247720587,0.1093602728586155,-0.4858197633844664,0.05424712069917846,0.029182330867690055,0.0881466092521504,-0.2554557717080078,0.09578839902118437,0.18975539189209029,-0.26773663660820074,-0.04081897860452321,-0.08010810984460809,-0.1372025799972041,0.20079114915048935,0.29710238543173456,-0.1513115303407875,0.20822548814335673,-0.27457797338257484,0.12953469425774522,0.2350500675825042,0.29326829297922524,0.15059678493538312,0.26197929838505307,-0.10308927674561233,-0.13340303698381714,0.22396118987890642,-0.12997865084403862,-0.12300884522826137,-0.23503566534493156,0.07993099607868319,0.20514784976040468,0.0994159775001344,0.028911473632798758,0.07580903836815465,-0.22360234829555437,-0.11269462558983856],[0.224259756157872,0.05039989043446171,-0.047537036128647264,0.024615170154410046,0.20300396418582817,0.031028318502638177,0.05158605308786898,-0.04267796702152702,-0.0692973227984373,-0.22330518689578005,0.034236973395455464,0.033060211569497504,0.4278667073612571,0.21472633840130353,0.14969372976868728,-0.04645546619120222,-0.08066183353682646,0.0742478155703228,0.2979422228238042,-0.08194180271422528,-0.02252405668389659,-0.24846512796413953,-0.2641774854768685,0.06107030341398049,-0.12204835866660874,-0.3040924879599942,0.02385859526991606,-0.18634278538630264,0.10345385968194161,0.19160538908547242,-0.2988783843082396,-0.2024566063340331,-0.04882829976312449,0.03521978787430755,-0.12035461784998824,0.24622450067474153,-0.41263809080455427,0.2725520381130454,-0.13025319423480153,-0.10110845952258325,0.01602672050131654,0.06699360413303847,-0.03767909000051407,0.11769150216241174,-0.0007001508074433037,0.09209318116016021,-0.2175887853449733,-0.05475210507756315,0.12000300341169245,0.23159253400089572,-0.21605164030024973,-0.17602132921565875,-0.01474265360645815,-0.06255162174654497,0.06754974286255033,0.026233182544899133,0.045701369522103776,0.06315724352895229,-0.13208682889946868,0.00488225204522657,0.0987514318209206,-0.19868337589682591,-0.04644908551602549,0.16439588824473617],[-0.2486396039015039,0.2385680484737053,-0.10539782827730138,-0.34548638325796394,-0.25320173077956976,-0.22537327400225626,-0.11641556413946261,-0.007807586332546562,0.1190913348124926,-0.13877005698408698,-0.6277302575711349,0.33122192993338584,-0.10323344504555242,0.016896132860311514,0.21389655494415802,-0.1287945493780598,0.3496517559605756,-0.29466577042268427,0.02314375247307633,-0.06306565279484072,-0.1311514824582493,0.044053926327788574,-0.08474044220346338,0.24658454563958196,-0.15275995788016236,-0.6959007217746763,0.0009446999373595958,0.09672695623794872,-0.012066807839140355,-0.13511838408122123,-0.08856163227958741,-0.01502899585075031,0.10733284183161933,0.20303830481155286,0.18035006320047287,-0.28221496795491696,-0.14468348910500037,-0.10645769086974514,0.09967661446598935,0.23582260455938442,-0.009348984436143357,-0.0783390693611328,-0.21567846928268988,0.09526711802013468,0.13136426004501245,0.0677933456874638,0.07203264866371376,0.22636981204157997,0.12541673026957742,0.01108132048994016,0.029736216433431186,0.06553180966035727,0.008736915334649735,-0.15885760937997784,-0.016924539978538156,-0.1461266141652895,0.0031926877164161903,0.10540990590547983,-0.18624571299565482,-0.07788034050710467,-0.28145476452451884,-0.010137434836200552,0.11443069456539783,-0.12414228107309824],[0.015500088013738022,0.1948337602879311,-0.06319188129127691,-0.3150356727881106,-0.19030491029278235,0.1175319921784845,-0.17499982018324312,-0.03135994537585198,0.0282219665383334,0.30691292774865814,0.06652800491907657,0.03299406325550299,-0.02235628088389187,0.02910949591268218,-0.24138628306191934,0.37374843762067805,0.028154788692294447,0.11484748720548522,0.2107380522017815,-0.1341068206006796,0.28860188099655154,0.20113258271359974,-0.2857537327913918,-0.27555953120376114,0.172241844367473,-0.05088974477431572,-0.06483127502683785,-0.02166516927092587,0.14745379568463826,0.0570830340099464,-0.023595854606106515,0.016241813249553694,0.4461671105143043,0.3190478766290021,0.13087235598823171,0.23170311840393154,0.10810521594337269,0.12932846570020565,0.03028178057491839,-0.17183449394922432,0.016753096713563315,-0.013519215824480036,0.22167156314386957,-0.05566301150194412,0.11760868496457393,0.017925956025219205,0.16222781572212533,0.1041305815286664,-0.2839608547857407,0.23874208371401237,0.12127983845495749,0.23681605954883547,-0.07632185730539141,-0.13735719875578886,0.06846298992137674,0.1135303451671913,-0.12026695859799448,-0.3811299448653831,-0.16558662780213096,0.24343786797002726,0.08235112017660422,-0.00006760382167779485,0.329352896051973,-0.14698379783313628],[-0.08796459950022693,0.1573794629086255,0.019176230270449218,-0.40708552906874124,-0.3922555345780745,-0.23990159835691643,0.11379286380636802,0.11412344169983911,0.006277052758355812,-0.14443245771186933,-0.06143692699918686,-0.3553014420657982,-0.1267680688942594,0.1584706728600252,0.07484952537995347,-0.06082130275242503,0.09977598292303275,0.2443280875044096,-0.03873269954372475,0.04186819663460413,0.10325388946075018,0.05658175173794835,-0.20339008347107865,-0.03252105544664061,-0.30631887532210095,-0.014166462664641515,0.020047396271123855,-0.01861062608388041,0.0037082353757776046,-0.1549544807532601,-0.058864789191985276,0.06117203445773847,-0.10002033196452943,-0.33832203219827045,0.0532296348104354,0.04997945567526222,0.09249943315469292,0.20931403582416652,0.14330244520506485,-0.28698588558844285,-0.11881513205808604,0.05290186196998818,-0.14003690229443114,-0.14617794920427044,0.20241831506569388,0.1376481079849739,-0.13324198444986327,0.14816711600223767,-0.053923944490947305,0.28821124610715887,0.2735979476690269,0.09181712013269828,0.1981771295825547,-0.1118185600946249,0.01827018204194739,-0.006865534133680557,-0.1249116529439059,0.0017088403975181498,-0.001807182023473582,-0.054572236461231265,-0.21540445866043165,0.06529288035725715,-0.07674471551137606,0.18061399619332547],[0.059584416551635426,-0.034121581806887166,-0.015338091671798898,-0.14239102368317086,0.17290247852239318,0.06132944737588308,-0.040180745433164626,-0.20218319534086412,0.2962247271531452,-0.07024869323086994,0.0023549382788671806,-0.20833278101315314,-0.025616863073941325,-0.3005132517930393,-0.3764641772683378,0.06427238091715554,0.034173368543389725,0.016713780157609937,0.02067970176965332,0.11646633811866267,0.16599562069423612,0.06136812485770379,-0.011213634276025704,0.17522291843618035,-0.06142457842812149,-0.056950616918786,-0.0006018646834607117,0.04195261374671636,-0.14728063213606743,0.11018470474303013,-0.05247447007186463,0.1053124931862859,0.3669701933479203,0.004948536284537352,0.02469255872825896,-0.35916332347081753,0.08038623939759819,0.04291708815400696,0.0332640166393039,0.008183436158214487,0.0003500473162128658,-0.1032511026431263,-0.09486271301156,0.126273718429675,0.22345273016931358,0.05422817045382359,0.06061911608925707,0.2066578471048381,0.03697822655930563,-0.05177144216387731,0.30626100309186743,0.1600654949953409,0.34144665770938076,-0.07018737807599251,-0.04066425639209476,0.18783224053548672,-0.0802671540536843,0.20261307861299255,-0.1381287392546186,0.2927779591007102,-0.06638157566782288,-0.06438093767575277,-0.04330968050881243,0.22629380026997314],[-0.15945014157975404,0.051965581769156464,0.18206270597002092,-0.4132062593662996,-0.30303250532049886,-0.03332442792449651,-0.14686572137061285,0.2745982531083536,0.037624604507862584,0.20892867981207203,-0.23357341594880865,-0.012575765238576469,-0.18491406608405286,-0.0062656730021290324,0.1509760165391711,0.10852429962088343,-0.050825937358952786,0.31418379001219227,0.12799000731158697,-0.04294895410990275,-0.00023933990869109398,0.1093843605713273,0.10781504968688659,0.02505817815059603,0.06585923833382497,-0.19520576610587617,0.035956232564689404,0.07738428927733453,-0.1486559857945411,-0.1750909565995099,-0.0025563096645374204,-0.021158552380687187,-0.34377826819454327,0.008315950267648942,-0.032209371696672165,-0.08951430362238004,0.20286313807720321,0.16729674669340003,-0.20223283934578476,-0.06945279548724183,0.17557282452375667,-0.1254444213799932,-0.021955830234883865,-0.22016411234877428,0.16032716580021408,0.26443374298025996,-0.13009872192798172,-0.1654745074626612,-0.061266347375125874,-0.02323952165212285,0.07949939374337815,-0.02716332209790373,0.15474150473918638,0.07090282533088224,-0.1574487555457205,0.10702446156998782,0.042312804023552614,0.12262714498193975,-0.4740592529182954,-0.18773831453400502,-0.05716424692187539,0.5722389673772673,-0.08952591651702833,0.069174260400748],[0.08713119996607267,0.0773423698979046,0.021037536140905828,0.006646272244756179,0.09830507187169632,0.11564632425719282,-0.24070297769651483,-0.5384586609354315,-0.37857032506342675,-0.2906456768885068,0.059120366389189875,0.021472758892774422,-0.3623760892200871,-0.18675707488604862,-0.22372181356225893,-0.20541330575489186,0.1907028053430587,-0.1775688607216634,-0.16991141663899487,-0.15648204692698356,-0.09529635415518081,-0.07113862915937484,-0.20588830460149818,0.1496811409520564,0.23239800297816332,0.15666059369495605,0.26141980860340674,-0.38410717604205596,-0.02483782036521711,-0.13814472820764667,-0.06849527335827148,0.04062749974713132,-0.06822729732230676,-0.1755259136020184,-0.11380170774599917,0.025778010370561814,0.09030968410477258,0.1842568521913765,-0.1524640415533369,0.07715805732279704,0.13351062110922887,-0.004879719391731112,-0.1373648118711032,0.12140420405223112,-0.07631787777762938,0.20345238918388137,0.2594747507988199,-0.014817195670331957,0.2391073602111529,0.16431774265971624,0.21753223559885237,-0.03666188823427034,-0.15523430341693745,0.3217763256309661,0.08177119893100322,0.14162558562163377,0.03403792287855288,0.23043190172392658,-0.07793401734823228,0.2657188504847003,-0.3729233270336257,0.09145527236265698,0.10516749083066032,-0.1316714337847291],[-0.18015051107468769,-0.07206611693528395,0.33812877457943546,-0.2192165661306046,-0.0029278449104786844,0.07781263548874223,0.041267580762414054,-0.24536374990415108,0.030527853298737403,-0.2648266960425452,0.11076036564604,-0.028228229216076206,-0.04961271490293758,0.07408010880954244,0.28127260345491883,-0.056006239157612325,0.0528656458255742,-0.05797029603455244,-0.057876939429861156,0.0484567913765081,-0.2199657230809556,-0.06922318587264782,-0.025687616371481932,-0.12279618003960147,-0.26213724244782965,0.1736093033282978,-0.08843369562077574,0.08751228612827,0.1791966532070236,0.17422209197350078,-0.493976705330901,0.1558459414914372,-0.3851813435883927,0.21708679195674277,-0.055635559738905264,-0.07379774988357363,-0.3454377447833661,0.32078855793505845,0.08245676081958002,-0.1452600178652817,0.0037102368505664914,-0.037529160679875294,0.05165386690279738,-0.3079627015604855,0.1591377622170819,-0.25528860889297644,-0.06353722389671419,-0.05909699428519307,-0.37012578069208407,-0.02463135237202774,0.37406145027486404,0.18023007042750377,-0.02838969743813911,-0.031125070701848376,0.25826365293977066,-0.22834612053255016,0.15011671653426414,0.01096548493591682,-0.033388611139380193,0.08437035436528213,-0.21258285182490677,-0.10497766589450075,0.15903155232711483,0.031220138750450852],[0.4631494657274777,0.019743603906672506,-0.029655234897041863,-0.022453292429879642,0.022422655281257187,0.03513877668719723,0.2929363607885817,-0.11630674800720832,-0.0934714882426658,0.022628056919986792,0.13151419189019464,0.0693139469988394,0.21187637521284547,0.0977504203986725,0.3512540780128095,0.12458768298519492,0.03984997562289136,0.06281940169487642,0.22495270793318767,-0.051838578642019836,-0.048484120391908976,0.3143045055597883,0.5323511695323812,-0.02574606972337784,0.12030288762633252,-0.17985136730363435,-0.08925227352272287,0.04109700099825394,-0.027327431120435966,-0.0793731230138286,-0.16435505908528206,-0.026576141724381885,0.1694451711333164,-0.10955765083846448,0.4664416226969914,0.3791389818115067,-0.17770992738399213,0.05882382526770393,-0.04465022281513969,0.06969100091291762,-0.1221448185147555,-0.006438703587972619,0.165612214737702,0.22478859959107164,0.1475962413407592,0.2316468420066936,-0.13628279340343585,0.18427414118756155,0.024277901457018067,0.04552973969758265,0.06896459497336539,-0.14854890970468795,0.1100682224594463,0.07119893415679499,0.16445357913170722,-0.3220844346582227,-0.07765797612193191,-0.009678385036322732,0.04346651162017622,0.02918876637044719,0.02127951942855233,0.06297095280065164,-0.04273350563418657,0.14560719041255013],[-0.030811316397022386,0.06650879251605843,-0.05106021608186092,0.1631525215072386,0.16325011640791823,0.06366070597866232,-0.0052614216197731205,-0.07845009397730354,0.04678488265827912,-0.15256972482944894,-0.34362698896953797,-0.05478638913385611,-0.2904522266351548,-0.13358739816297802,0.00012047288307886361,-0.040230534382824215,-0.014065018032685976,-0.11308254516994279,0.04370417334974289,-0.03248758155175066,-0.08598476418059835,-0.1925365594000464,0.11187464656374528,0.07447538224547773,0.41787843423726223,-0.18904696464051143,-0.03718740771432753,0.1228326627506845,-0.07427517825122562,-0.34966287134562696,-0.12060789064766743,0.3274198118601854,-0.03745110736792214,0.43363130928953075,-0.11936674596803959,-0.5092321820231419,-0.03754126760945075,-0.009852826199845927,0.10002627651764459,0.02791247667435053,-0.0515825516893788,0.23264210803574645,0.04481625523017674,0.05858176310179506,-0.419948052837395,-0.2499753171927929,-0.08406443187391484,0.09514255618550069,-0.17000118819357443,0.13619480802545827,0.06496622259992689,-0.07010072748636971,0.17242251444751308,-0.12119553856393331,-0.10933874737198529,0.09784071115475926,0.1923024085902792,-0.0853344712187767,-0.17840886448625634,-0.030915341698701547,0.26433535537982084,-0.26518337376896584,-0.004284097776187792,-0.009902766021527886],[-0.2997725527551219,0.07225379124397172,0.503640215250957,0.11646611090959787,0.07260001828267228,0.0967204584365984,-0.0858026490807631,0.5772773864318751,-0.005793424545631939,0.18264916835539452,-0.11481360238695132,-0.1876193034370116,0.0882593907170532,-0.12054884052098394,0.0752007170302979,0.09770419051512787,0.17307325691692302,-0.02761002597712381,0.22868569916391515,-0.0532997673361434,0.19489048983590423,0.09590034012979497,0.162822151589329,0.009381455446872843,0.22342552521532813,-0.016527781083876748,-0.1866663007902459,-0.011682142738046285,-0.06690249987453732,-0.20097979922670423,-0.0777649158997936,-0.11183537678127999,-0.10312423120496553,0.06668342065568535,-0.13333896362146297,0.027803990676119834,-0.21416292655800362,-0.2953967933825989,0.0769307269387933,-0.4160537872636513,-0.1666807721783645,0.059743775991415046,0.08410508702480052,-0.08150441754012475,0.08761871039239837,0.24128666474208277,-0.010761334239016483,-0.22052573754655996,0.13351346514681744,-0.01727074640816128,-0.05492509929885576,0.09680525758444466,-0.10627660546166695,0.2808626949650441,-0.2838004491662413,0.09747011331754171,0.24436259028192667,0.19892588875067851,-0.027811753443036467,-0.0072457728471805646,0.11180458614334457,-0.34359630742351366,0.24123210638954795,0.08482139792049775],[0.03682048184814922,0.19880908386730406,0.10544701004895426,0.03028921387544166,-0.27920866684933854,-0.09666832540924808,-0.23409182463272415,0.23513296624519336,-0.44282990825134155,-0.1433380827393376,-0.15302597540237758,-0.2797573826809266,0.3182619479936017,0.13965040696427725,0.19177381283506734,0.04975851895409738,0.009188470662976601,0.012986530817447993,-0.046957498910959544,-0.3768133008589203,0.10194553040289611,-0.01945348860125057,-0.05761278812550371,-0.16540808820206182,0.06925724740365173,0.34995899199034386,-0.025146251147681212,0.023680159893830755,-0.049336671553666056,0.14762967846579061,0.2174816188581789,0.13736004840805296,-0.23313667809558433,-0.005119811291959117,-0.15712123701763447,0.3072522651232426,0.08651490876089253,-0.0351155422506514,-0.2042360732385412,-0.06206714009876067,0.03087784208830599,0.5212873094147088,0.1606233977318366,-0.05210150643335232,0.2050189911252541,-0.07134232348623017,0.15423805093702256,-0.045160110160072396,0.3703841354606229,0.012309545501263562,-0.07161429783199877,0.20711416595299031,-0.2712853705525555,0.0938381527143059,0.029407877159780688,0.2634506630605187,-0.16651664549933554,-0.005123285976429021,-0.046054544421721105,0.10707267829121374,-0.06020094477729699,-0.07208791403338448,-0.2262071242722376,0.029155903902596612],[-0.19752855937856417,-0.2709569087858468,0.11032926708620677,-0.01257521581307764,-0.045305523409475495,-0.20845502611737682,0.06690457544190276,0.006216607393918421,-0.20782099870312928,0.05683261655770895,-0.10349125806671262,-0.20175143282522695,-0.13583284180907446,-0.2750986079571339,-0.06728857386210725,-0.18929444910504933,0.14558168548575448,-0.01730443614316306,-0.2648547257480756,-0.06339195270194152,0.15047634306955449,-0.2857073280005707,-0.02150616616812932,-0.14432421104501605,-0.012552223437942161,0.14741563262441143,-0.058408345762863696,0.260516022591464,-0.06919048977125684,0.15831145970474578,-0.1357527375498492,0.00013938217967531178,-0.6211069977760769,0.02879578230156572,0.01577432822529227,-0.08838353122399685,-0.0959443459452574,0.07320302221437254,0.0130971917948302,0.25494960726660737,-0.08575696306949536,0.15831735306678824,0.12359175398523449,0.009763609514572521,-0.18004981891687422,0.32478519098032893,0.22363201320941412,0.3802022792042279,-0.2040652308441797,0.09506467605354066,0.1680338693831742,0.08850858321000728,0.051216908404851984,-0.12081618429514145,0.023986488817926685,0.2783216666185156,-0.06685713747930941,0.1038429360061791,-0.0027942391846834474,0.03830731666609457,0.027550151147697252,-0.0076277643117993316,0.29356384735706964,0.10880638492731572],[0.24497202254815417,-0.002925638912257644,-0.20508373080701867,-0.38867877587961286,-0.18649345477238544,0.1792259164517985,0.18708868960521777,-0.18026303027550264,0.17225953903769403,0.015710560907524363,-0.12410784930022957,-0.19037031985457734,-0.1910985972076863,0.14609466027087475,0.027757828271591584,-0.0892356372209322,-0.0658045457434851,-0.26006414187630555,0.0625975048788224,0.16305751563975396,-0.06351517014641095,-0.2692855467219194,0.31273089549080063,0.09975258965457003,-0.05698368363636976,-0.08313753171784095,0.1122890990919228,0.04623089386425262,0.05213262880524779,-0.09889397046958173,0.14870351254109834,-0.15701891989741143,-0.1438771809129146,0.08244229539120862,0.497598995860137,-0.00008645203280714046,0.010330182388897984,-0.2822328175969617,-0.07745823014145055,-0.1368017009878856,0.28574846124263614,-0.049526953044111324,0.07225241348260995,0.10037601967712245,-0.33776491411808346,0.165782937771118,-0.267010978766991,-0.12312570414132015,0.20017019074686812,0.04325116779130477,-0.11947006961346109,0.1365228697097527,0.09308605616446125,0.18605736769656775,-0.13490342576954648,0.16126633431792253,-0.11839411477284623,0.053168957470087805,0.05059591923893619,0.04123225289184331,0.09881781062922554,0.13146849170687783,-0.13755144210734185,-0.09361550855090436],[0.10810948165547483,-0.26109095357419315,0.03890525094292108,-0.13443232665365007,-0.08909485485672272,0.015390398242630113,0.21342705457990604,-0.3086414807922461,0.01382981693632286,-0.05376419655712355,0.27726677852247317,0.3569733261560374,0.030944613836306485,-0.17235783485235798,-0.052022532509976266,-0.14162703477341035,-0.10504701200023842,-0.22023140817024725,0.4410211217767385,0.1109289393547004,-0.21481005406164375,0.014489718619548182,-0.2410679824824967,-0.2744505299929374,0.16147156460695064,-0.2633794012292615,0.07496868612395421,0.15042942453180103,0.09081576531284206,-0.147459692431036,-0.13480432712743004,0.052988761307606484,0.28970561358086,0.029677857752781027,0.0286332551490882,-0.02593475996734923,-0.028161630732385548,-0.050870696800493324,0.013039958916287796,0.13116821886096164,0.09356740008052479,0.027503412234755394,0.2110056235646642,0.15029390843607912,0.06937274565165671,0.25644850707498495,0.2069240565499892,0.04216569642313351,-0.07661414434450989,0.08850192314313073,0.0742562780547707,-0.030240093734157862,-0.06667362023540484,-0.005436291445790592,0.23614201635050963,-0.2195685900877246,0.05027888674920865,-0.12129616228008366,0.2745222690092955,-0.18709413752701884,-0.009394870607604775,0.3911900383187689,-0.1116334644479254,0.13171259583632922],[-0.11236801291512528,-0.13044512904277591,0.1571430723249444,-0.06297638484915766,-0.2972798987094922,0.04949699346553482,0.026519077070593956,-0.1304727431308869,-0.3437154397439543,-0.024863634338765754,-0.14834266534688992,0.15118093465069488,-0.040844064371970364,-0.1285283061975354,-0.03904913111058378,0.12802366204785168,0.0039328633696629626,-0.35705890685729785,0.21479551535580146,0.011652559255787691,-0.06366198246271992,-0.30837646241649774,-0.15301856082827175,-0.34861931979921595,0.15861255108042596,-0.044809564920235544,0.0404914571270153,-0.01411837482282414,0.11104991904964892,-0.09665406304184072,0.23530074624782657,0.03833382842205445,-0.03194329077119637,-0.13256159168708725,0.2128956217745879,-0.14082341342750374,0.12189185423137387,0.19414596818353988,0.1818474127719782,0.20181774755024687,0.05995977868718177,-0.05994527615311394,0.18261162121634708,0.0007770938130186529,0.01131713158122439,-0.06393112883292579,-0.18508785595692717,-0.101783457945056,0.03736384616182749,-0.2161667805197466,-0.10923632975977042,0.01438222271833076,0.11479198492378258,0.093072056676081,0.07192674594547552,0.39645564948860385,0.09682488309819051,-0.12078095797637539,0.2934545689244446,0.12302255989972563,0.25047056281248625,0.1869032949747997,-0.16185834598767487,0.18811192398413384],[-0.030521824206494914,-0.21473018166270882,0.21083341620776253,0.04112082600877617,0.03888871000399373,-0.07750933492874337,0.032057559147638824,-0.017287500877894633,0.1498850451641059,0.1069258810414307,0.17588032992206237,-0.029468547287812685,0.16026379950925418,-0.022410069128980928,0.0002974795573037498,-0.160791302885651,0.04459394359450252,0.008340968432873045,0.23121570281104697,-0.27781915433215126,0.20324279802149356,0.01148501154853184,-0.02624686466464482,0.17495772765414977,-0.06775755643699931,0.11541983991996442,-0.06011915346487896,-0.042431014389345954,0.08148210872156775,0.13755291987812418,-0.3021214471372398,0.11743437782298566,-0.028099156769290055,-0.16770832493456064,0.014974343111473432,-0.013588621221109508,0.05094620733749431,0.214620701046147,-0.014843994523246142,-0.11404782466331359,-0.21342482604056168,0.2704725891016566,-0.2518040818140684,-0.16341227355721974,0.09432057639453162,0.005693565400489698,0.07428864022884976,0.2586823574675878,0.047875324161086225,-0.07526998066054838,-0.12838348735597274,-0.007107261996060125,0.07366878265718528,-0.0008555766580645479,-0.0017140875726901865,-0.31126330731639196,-0.01621077918334314,0.41203151801319055,0.2493709690372578,-0.1553244496811825,-0.20892913811384323,0.1463663039116485,-0.1243473544630505,-0.2592932958971179],[-0.24439157911718068,-0.08550453904939903,-0.07543236416709993,0.07399852447683883,-0.16267825606230313,0.319816707627826,-0.03676495958307995,-0.05920323888756265,0.0037828257463935365,-0.19260925035687382,0.0363287263970594,0.3061932777844766,-0.028240942965649916,0.22564898564720925,0.029858806526859794,-0.010099618736726141,0.12635347461343227,-0.20987807407414144,-0.2500723686164913,-0.028987436582737895,0.009253604210114374,-0.017165908358173516,-0.15527114581156273,0.20596752036837246,0.278146034510146,-0.35551423811811933,0.10072128556383254,0.33782840591859054,0.18120171499433277,-0.39583109153756185,-0.13911056660687626,-0.17030351958948411,-0.02518827116164142,-0.04395030555263696,-0.14889839894244578,-0.1818617332983429,0.03264818965020399,-0.1937490675747885,0.27388369027271775,-0.338579633821766,-0.18886566162648788,-0.04534369960107267,-0.09057631965471102,-0.16847254008610893,0.21553443696730804,0.07099975035583957,0.13710386127700835,-0.11102264770598264,-0.02630359254514859,-0.11880780346151817,-0.10757143667862257,-0.11960080595683709,-0.01417568672848163,-0.09816809421510198,-0.08782935323521056,0.19308321841487322,0.34887443779754795,-0.0921929185137114,-0.23415073095889208,0.21214430084090738,0.20015682105176544,-0.35268263395744354,0.09723174294512633,0.040321493230412626],[-0.05455515869677714,-0.12429501091307184,-0.08722063621777773,-0.24273721894954273,0.12305114756741047,-0.05699789560920255,0.00472848809249508,-0.026171324272836034,0.42062491235522326,0.3362916796092294,-0.2991081573060089,0.041179634854375924,-0.012255200274713924,-0.039685631198385536,-0.02066689590646428,0.05400743544658518,-0.4290342848435912,-0.19615287395978834,-0.02430025084138758,-0.0740806288677379,-0.17246042235186165,-0.36084676975540847,0.1464129063131924,0.1407651775210323,0.0639236229649477,-0.16105487298710924,0.2818694784945218,0.24822462868015385,0.13978543735543256,0.02765228551918731,0.11267371283324476,0.13433423538161493,-0.011418928493850325,-0.21446819673779635,-0.029775088214462737,-0.27679787228637454,-0.004423923914383509,0.024747713918233116,0.07956205639231169,-0.13795862470815579,-0.072731218468458,-0.1337750615956972,-0.17843226368831222,-0.14963834501970774,0.038037490153811984,0.026963587723137075,0.021336618539962257,0.06458923764512225,-0.04902572955013792,-0.057282348937585416,-0.2863529208520689,0.34131826669759446,-0.12973024248706647,0.1250208688293935,-0.05650511921680021,0.11488381216459884,0.026495340623512376,0.13773212280472108,0.2953930535937348,0.0421476249136205,-0.13537487814419258,0.12936045047062902,0.3414833202253398,-0.06540081768772395],[0.17380227041881413,-0.18041125713921252,-0.10965714671186712,-0.42078877734287673,0.20993638901138478,-0.20344813445754673,0.029779956622619706,0.03896774909897679,-0.2804837305659644,-0.15062794333034749,-0.12895878733345684,-0.16226548651496822,-0.07371159608840966,0.09644364442422582,-0.09289819739501551,-0.3754459506797833,-0.09782913834748769,0.09648524988905134,0.13077104980811668,-0.3173683509407744,-0.04873630009445736,0.13940861961918516,-0.1655334755180691,0.19436459826359415,0.06418630584111912,0.2853734639116216,-0.12378064164324859,-0.1596311112927677,-0.11443935115805107,-0.1786823105268859,0.16351318941557275,0.00509651867860686,-0.16451851786629346,-0.11414947829863345,-0.07493678001390623,-0.27418047467886836,-0.17709301194309635,-0.2190243677704068,0.17023811889912985,-0.058441955586722175,-0.003138426375820306,0.00684650500253419,0.024894987419041947,0.2082920454718123,-0.06933947972947943,0.1994330083063004,0.13790314260832992,0.2390289039185982,-0.0015542398608729701,-0.12266457106024925,-0.0427883184386277,0.25253638079255547,0.24039256394361078,-0.04598169045022638,-0.10639438896818976,0.13472986127761485,0.074542869019938,0.22004546854365392,-0.07819443478353338,0.26067507979667914,0.1908674837536658,0.10243148411149304,-0.16268537073192102,0.2816695967124222],[0.16930804174809125,-0.1356555994770372,0.08165743817787048,0.07048748734183492,0.036732019267880736,-0.137189053041151,0.20138204556338749,0.1921287759030318,0.06413700409860534,0.30855649705601235,-0.14276322176294443,-0.2729865337563326,-0.17063016333855804,-0.06257905066329669,0.2281329678429895,-0.07327872485824727,-0.16379671624260866,0.0028802703180198395,-0.2577161548022116,-0.031557328151946916,-0.13591278005946392,0.36003575392402015,-0.16354096625599723,-0.026098370409516288,-0.11193006030571186,-0.20351752603956022,0.10997049832467518,0.09787543623693662,0.04392629883132934,0.3381143175499456,0.14465163115791557,-0.004441078460922039,0.18343654564677997,0.30678335090395337,-0.21206672117324896,-0.17262541542537446,-0.015954851097169993,0.3264563539905507,-0.11355921390756765,0.04613973632979366,0.08653137967324986,0.141053279179611,-0.018395229229383088,-0.2591156288771018,0.2625843753866427,0.07181803190570128,-0.23179598631421675,-0.003634262831968445,-0.011929221055869268,0.07630010858114564,0.13803304766484367,0.13037986961975873,0.13752809233871596,0.40130140056369057,-0.0387848526951294,0.12571936023329788,-0.1688780953972132,-0.16965866857387693,0.37873978135477315,-0.004339830034341357,0.32901093322530095,0.03196576608697162,-0.15169292094287423,0.00016934765634546358],[-0.05215349043707929,-0.2205468636565903,0.26317678043927856,0.22011414704468993,0.227020942502687,0.1153713484461098,-0.08763117109234006,-0.03376404668787786,-0.19184694823044407,-0.1915429776292624,0.11350924111220564,0.1364159017619085,0.10084154831932288,-0.2265817512637819,0.01301682949358608,-0.05539399017591108,-0.13990115226788954,-0.0235507008321764,0.07098766417207206,0.21837608005715536,-0.011658216964863927,0.2320513003188583,0.20854221533548786,-0.11053157128126956,0.351565616175992,-0.10267044825830715,-0.11236737568211068,-0.04968543142809165,0.22395093861934942,-0.3013984596053749,-0.25619520567200593,0.2185671546300077,-0.08107991215865493,-0.1434706212691455,0.1061199804480784,-0.09987184170561564,0.09766750743593747,0.09889462713485746,0.14423963000418727,-0.030911247058328054,0.08290818280711441,0.13513377517418088,0.07076169585641685,-0.02212028230908291,0.18024105653443198,0.09800963612236582,0.017599223840670336,-0.15169605081108448,0.1421618608744557,0.10861540770420898,0.22520569652980654,-0.4125184238230738,0.16272070919967677,0.08913178320931374,0.043197837163010046,0.22927850020476992,-0.04868173094430414,0.24485176734226388,0.3180770886811705,0.17972970617610234,-0.08153899450171637,-0.12840721648483205,-0.11583802622645024,0.026587841962219916],[0.014648562446207538,0.052506832323920075,0.08476705959517628,-0.021772570253347005,0.03994640773579309,-0.07092298135735746,-0.06397326397677489,0.11629966240097817,0.15468560797201686,0.029873190026028125,-0.060234068908662945,0.25461415021336053,0.12516395867550265,-0.10750083760831255,-0.015092093799360733,-0.3777361493036903,-0.11968166747021143,0.016089748060563805,0.14514357588133103,0.17055294232579007,0.1407451798562186,0.07667783734189045,-0.17535205891370292,-0.152456155358362,-0.0049183406317663565,-0.06601359627694307,0.16909045944153134,-0.3286641773307523,0.12395651914638062,-0.34979101483496494,0.02541665716672364,-0.14760918585243693,0.14314834096161227,0.17424454014230498,0.2384294261358681,-0.05346798312689396,0.06430314579674787,0.01500855214315031,0.1293708558130751,0.0951105766660217,-0.10466539890921786,0.13949122871522873,-0.12135944893453184,-0.3098129995578811,-0.29823538053668935,-0.5149716048276458,-0.08958040663454472,0.14045567483106602,-0.2990963353413283,-0.11574885186845196,-0.07412707681236697,0.09234869784515995,0.04716219152482751,0.041372272871758486,0.3506370248098079,-0.44934796052456916,-0.21899310430643398,-0.0617480831487003,0.29645487830782447,0.07546780343037947,-0.07235669646204045,0.23597373140641312,-0.08920202273908814,-0.004836439585545948],[-0.06277879693333005,-0.12235658415682069,-0.2389457944830847,-0.17758396675738364,0.03146191414046277,0.25414349326071584,0.08778608749586765,-0.2754193084747845,-0.15098240078795036,-0.08882879159822822,-0.10439532045749837,0.04596927287267792,0.04989729836923702,0.2104246059420378,0.1304993820037657,0.03560034536172831,0.5127244923267373,-0.07250885141926762,-0.1800827439958804,0.27810323915624324,-0.10293503396750277,0.3651820209986652,0.02810247303412734,0.23977303604303668,0.11828653169623016,0.2897831809625362,-0.1937212825094365,0.284145275129025,0.04374185411337625,0.2683849447508521,0.2121642462195599,0.050189329641619505,-0.036444108842238726,0.2568250292875195,0.45782981239392234,-0.18908145268853987,-0.16375699180699688,-0.17836019585337198,-0.18206609239209223,-0.3088706131530574,-0.08377495330201888,0.23426888959963324,-0.11606081254283694,-0.26407693874611,-0.16682177581944332,-0.10169240473802876,0.18375045690254335,0.0036650921048312665,0.27249766181582075,0.32238281295497234,0.2361217767451736,-0.26315440507703486,-0.13164089585842764,0.23429631743080212,-0.0983095462787323,0.18392786822181045,-0.11823137147702441,-0.032305611895063646,0.02921280381212074,-0.018485522260369962,0.07494840160446585,0.2273917311146658,-0.052090593802495484,0.23151605559807836],[0.039941076190370066,0.14615520030782642,-0.11550615749397465,0.06468567116762028,-0.24735688344565546,-0.05419542057229223,-0.15955299359881586,0.19972054962792432,0.04232896697841424,-0.011569620130964072,-0.038683789341092935,0.17629031828117261,-0.06912947835385905,0.05182317383551562,0.09955130772486356,0.02574606460272952,0.0431179916436094,-0.04350834210848344,0.0762934672668478,0.04554179191546698,0.2502643702855797,0.28671518984008526,-0.07938758034631949,-0.3067736909991522,-0.38884314308999446,-0.14529373886896366,0.23311172452270168,-0.20480748708071722,-0.004886449375972838,-0.20594731279724465,0.007197836618438552,0.14805652174542858,0.102471987775367,-0.26559646303941786,0.04712115045444906,-0.21964655992886573,-0.14551997321813367,-0.14033753861730275,-0.0547723754369525,0.5355946207555738,0.182292284227167,0.08812433656677257,-0.0974338558605477,0.044892615831288035,0.016562470028798994,0.1419052478165522,-0.15456692920540416,-0.00018548182125154188,0.051187176493136054,0.2133658770046707,-0.08086303494505208,-0.13948724343269708,-0.10901248703750775,0.1451929706640415,0.08926177977167168,0.09061695988968844,-0.17144974705117444,0.015471456636141311,0.3634913853711912,0.05623779868679559,0.31074858366922525,0.05434657754386196,0.1445320971692075,0.23472575149901465],[0.08695708452668867,-0.1797001803344986,0.18083427363364743,-0.2619059400006331,0.20222745832154163,-0.09518438947745973,-0.024975432157503353,-0.07890175490205914,-0.13388268638433962,0.032347847217005135,-0.2248529727628288,-0.23129919218882786,-0.10490814614911485,-0.14114330663984506,0.42629045985417285,0.0561895603932421,-0.08597447237306341,0.10802732671060893,0.23958608130517328,0.055828202613839625,0.1627248382319158,0.11833843662061878,-0.11601930413675121,-0.0855150164305656,0.05399254839689172,0.1308855560630312,-0.24596515352855144,0.3132433289445274,-0.03806743590002251,0.10559014156775293,0.15895697987224602,-0.21448144140160502,-0.03630849284335331,-0.31456891549272703,0.08171351042955269,0.13290757037591117,-0.19089936693174614,0.3460027233987327,0.12512539440734674,0.006648663278751598,-0.26532857823611083,-0.1548157591872688,-0.3897143090525696,-0.07511576928128107,0.1805096941186949,0.06669943764150962,0.13189306953778338,-0.15933619977680546,0.16100923850259674,0.20678903673418844,-0.06891616945947728,0.2150284240738973,-0.06606355934406456,-0.1496006126011277,0.062053953077430814,-0.2635389722754227,0.1804345049942729,-0.10894212097946289,0.06771941075338557,-0.29306002673629394,0.04428222852439953,-0.21149014598763116,0.3284885490429169,0.14127387945417064],[0.13095474275787905,-0.24468672140760914,0.16016092770712181,0.20765654753170099,0.02208806732923934,-0.10733401372591621,0.038770795978853294,-0.1851632595057289,0.031192277093811144,0.24505822852885487,0.2215368035938514,-0.08014113798225511,0.022114387826304528,0.08187847929989961,-0.33907533776838106,-0.12327013828384963,0.06464648122849723,-0.12571091735755638,0.14524439744912412,0.11702159913030226,-0.19027109312826035,0.21877111949299247,-0.14750505221128665,-0.01117986630145182,-0.10582805045577377,-0.2950747450647963,-0.009972146734782486,-0.12529494519435663,-0.10124353857774702,-0.06680433502745192,0.0806206271558816,0.46285719531679537,0.31853126919772184,-0.17246351481851196,0.3688573786280357,0.005023845069977287,0.10091780744938443,0.0318211856385987,0.17114035743393027,-0.08213988585768958,0.035832655489415347,-0.08262612468385834,0.01836194156182608,0.232310976101289,0.12401457474233786,-0.13763815904902682,0.33405832479559655,-0.11904345046726279,-0.07108008369796193,-0.3000462854152109,0.26973760034741306,0.1830426691034692,-0.029943350288842655,-0.06480468766146148,0.02708248650942783,-0.025131670021066938,0.09905627210851392,-0.2571994439836965,0.26259215125011715,0.06630036236399568,-0.30063918867163697,0.1469810469780626,0.22195603527736074,-0.29384162203703673],[0.24149341815397518,-0.21403563175366225,0.034393628335863326,-0.16448069045702873,-0.19669947697624637,-0.15549096499468626,-0.20525384191073673,0.17234109701142272,-0.08589318173151653,0.10813831537592698,-0.174813903653189,0.02903345118334794,0.03850333449070873,-0.10244741791443222,-0.26094422719027227,0.06148468321821805,0.0699253752152324,0.20171698396628926,-0.11991497958613773,-0.5071708171196823,0.24126810938353102,0.27907687193341285,0.2654955814711939,0.5471111491106995,-0.10468399373872073,-0.06646690057269215,-0.21362836532109608,-0.003648389400011076,0.20868917258009315,0.10711660808046107,-0.08130786115047625,0.13986002353162097,0.10732362452894706,-0.08199548498404306,-0.15051521281017205,0.05139610268933064,0.020799539457340553,0.21345899973839264,-0.06835244789054902,-0.15788935787082709,0.01569606515219338,0.2656791934751581,-0.022238449169718257,-0.061584116954949135,-0.1253533904350507,0.19789700922762907,-0.15097492391901818,0.055975910856008414,0.02719278615024926,0.13978690366944355,-0.04905593002542919,-0.02193009603502807,-0.3716400981446115,0.38297088415445907,0.32643409496423115,-0.2183403629526825,0.2536419188357116,0.15671352843115507,0.01859087208340321,-0.04100063815782135,0.17396322725260696,0.015730621042782094,-0.03815155154774438,-0.08748679896306154],[0.15012581593610658,0.13177990843682788,-0.16586773389238543,0.024919288033610484,-0.25790263486863446,-0.07826204485215905,0.10629761423346705,0.16952425815717465,-0.00381170474175421,0.1300241823118885,0.347484218601278,0.14855905702675593,0.10989193947629851,-0.2746771976961084,0.029372959632429044,-0.19615888108814292,-0.06623481973678706,0.22891091954357293,0.3383860709139264,0.02723497395384258,0.02897118351172547,-0.019660847070017817,0.0659500147410124,-0.01799712262957454,0.0023167050435201797,-0.029552446910255034,-0.06432778591036269,0.16504592286305544,0.08648749766775732,-0.17558317122045428,0.03679407756978125,-0.15400506505491113,0.095713651375985,0.27857148157870987,-0.08522898088588432,-0.36880510982185594,-0.14148428272863744,-0.002722268222930875,-0.23880218767929542,-0.005566621112292946,-0.19940830750412702,0.18825830608816546,-0.013883577063917305,-0.20547753486512468,0.06550105126047338,-0.20856681827892504,-0.11924444205015869,-0.020524768123198266,-0.09738658672790791,0.32985736060466503,0.005138214910114551,0.4052302946776881,-0.07084101640621128,0.07599426696075524,-0.059964253088383435,0.06141387265129577,-0.27650930001924773,-0.11854386133267386,-0.10067064957748974,0.0037921122644817727,0.17486638898243775,0.04679198005189526,0.22875403041795167,0.1544273955872571],[-0.3401089795228369,-0.29301755884638453,0.07561865157209752,-0.06259738214364792,0.2344808892889639,-0.10850823377563623,-0.03999939255939805,-0.20991841259019678,0.1528349498839177,-0.10294036225297787,0.02968134630908371,-0.10151025332662411,-0.08833675357358307,0.17358657213328085,0.012825951496740972,-0.15891983151450756,0.030343595905536976,-0.12809361855753884,0.1456497161520241,-0.03837382078337052,0.038693209033199505,0.02535691722824493,-0.17280964369306293,-0.03750429503507657,0.06940432238132466,-0.253381977322169,-0.31442253186607527,0.0857697892804082,0.26447064044441215,0.21661032630010427,-0.12077270093379645,-0.204778474083736,0.1669564068178152,0.05779593558692751,0.11527654026406904,0.15545340221006163,-0.226914696893896,0.012094945225270595,0.002417054916778106,0.08116089399813264,0.09458518379813069,-0.19919939203890621,0.13479672712842283,-0.06493965129366833,-0.2201484393186603,0.14384169395454144,-0.1309188599267484,-0.030015644620582926,0.01849996629441815,0.053517720501022686,0.01455151250618873,-0.009942544299809165,-0.21436891338595748,0.2303171007012595,-0.04242196792871959,-0.22179576265803255,0.38403904658396293,-0.05564815026154402,0.36146655803711225,0.07081627308271475,0.06188081223597073,-0.3517511290786632,-0.18138060746784435,0.027453056605183813],[-0.1313359527474864,0.15000797944703312,-0.1769047298017665,-0.005791440288777006,-0.011133211391608357,0.01933705028854693,-0.30597538411934144,0.07097576431563808,0.147227534316137,-0.12707961540411677,-0.24044521230496285,-0.0154596139456892,-0.3810409560540286,-0.0940254149909989,0.07722966075579998,0.0033427029442537146,-0.036606145331982295,0.1638896884338226,0.05766066671976548,0.09504246547329306,0.15278666730752044,0.33300307264175444,-0.19512059654257666,0.01630880768847031,0.060650741807562865,0.07336669968058743,-0.018820102360130417,0.11406905112178466,-0.009584281124193296,0.09416330689481399,0.05585071704277625,0.2790948207691866,-0.01289910827229672,0.05080701352483942,-0.2314691784142739,-0.07413833042745935,0.09302067855974573,0.07975317511899997,0.2645895810865339,0.08417155893309537,-0.04945470166212492,-0.06196892140652628,-0.32531633304639956,-0.1653995860389597,-0.11730218950369688,-0.024111064337405105,0.10118161520513257,0.16759997752916914,0.3590643171893238,-0.052355967206435386,0.15686693370051824,-0.020216561307934682,-0.01142848961419355,-0.1308526015437005,-0.3222990558278711,0.07087740037095687,0.12379769268520895,-0.24242009961543998,0.08619324654074759,0.04631543361062519,-0.07027041780583881,-0.16361151810124813,0.2534140381357162,-0.041769699858295595],[-0.273992777006684,0.16159378285299145,0.4295060107289395,0.1708259351349627,-0.15449609538849335,-0.09906328637616026,0.029806564392352644,-0.17511071192747588,0.28158472712430593,0.0841560441089621,-0.2965105684512903,-0.1127185523103176,0.2208698968035157,0.23213750687192033,-0.11689065599226138,-0.0773841354706601,-0.030398873095938986,-0.061679082076043466,0.2458549661240146,0.08780479886510614,0.1076116382708702,-0.08166393811419298,-0.17248745785989894,0.09113993217920813,0.051999980086098636,-0.05693304921768568,0.01641553979735847,0.1197458689501178,0.023453335370489783,0.09019436409812423,0.18665698144399395,-0.2816385224996928,0.13071697039212887,0.12857653346764242,0.17970479741702317,-0.10390689439774585,0.33210202397714256,-0.1590557261732707,-0.11034444762200345,0.15128848688419,0.40680755595569573,-0.030076823638930876,-0.12263824518613903,-0.009576600610231379,-0.21886216797065744,0.06563144616391366,-0.39381471871627255,0.11620781300392141,-0.13514202942966141,-0.051688445337662405,0.09385255779519881,-0.08179800577934186,0.11097298375944716,0.006836369178752159,-0.2044115807142358,0.18449340061455027,0.029097087610712606,-0.010913950936685755,0.07521825715272676,0.14890733306873677,0.013112572853361558,-0.1988754770069062,-0.11018875315987588,0.38381573166880645],[0.037927538946075534,0.1449232461513354,0.07241908401663637,0.2702237648813334,0.08562851347995067,0.02725681287629776,-0.2467751387107719,-0.04398974896982242,0.12981643095833637,0.1010223251550831,0.26358658552397823,-0.012944422739387125,0.1107481227112048,-0.08758017039474851,0.09094858339161016,-0.04473330683594435,-0.00026508007564742404,-0.05773388909521093,-0.24853600645461493,-0.20030743711005672,0.11001330269338146,-0.06672263951962402,0.2760815237253924,0.07216200815158329,-0.08425411184063607,0.03197607415826773,0.02626950429773778,0.13364002212885603,-0.17879471984060058,0.20135373741878704,0.05474304542031056,0.03620021396614352,-0.20614452435107283,-0.21799854075901381,0.09667008963676342,-0.2970609540641656,0.1731051799963902,-0.47643185718191133,0.1760834672882128,0.2507753022541255,-0.004867233299828109,-0.12363510640017868,-0.11878551592643796,0.06509338104725414,-0.06938244056942128,-0.2138088577390844,-0.1943959863091956,0.036063419976271154,0.3342646388213844,-0.1655620986356546,0.04695442712100674,-0.12534588811971512,0.0377320089231223,0.21808928999566538,-0.31753925891025836,0.17645777287998493,-0.09810191895638547,0.019127751958210884,-0.06731972100482056,-0.15991554155805127,-0.24036956165595996,0.33929924470477235,-0.4367282361448426,-0.058752039072812616],[0.016897680668767616,-0.02564447484575644,0.028667080218399674,-0.09493241311188579,0.08726076479460207,0.029153096841113835,-0.04056752313072662,-0.12207082113928418,-0.09322320915419226,0.1294112447981514,-0.09480410318402835,0.17053839309481253,0.17613885548026295,0.0749081187134664,-0.06870566850277,-0.21072658340600056,-0.027406144227953243,0.11579849842423152,0.12903685588125985,-0.14338915054417983,-0.20219314508063072,0.08204783279481152,-0.16834358762062404,0.023024657501073575,0.209165718871087,0.02368614100497744,0.1819883230381542,-0.20873320851324093,-0.07831187364609173,-0.0907988721950131,-0.13668734897226,-0.14794159916555277,0.025319073225790495,0.2451480265773405,0.15876141102360364,-0.10049808376357414,-0.0007997992816171041,0.01910964916122398,-0.15395786866048164,0.1327363440480441,-0.29799982046381657,0.07616955846091442,-0.08429608401783266,0.15508317603675495,0.017345889028368918,0.10102103429575779,-0.04592713136690457,-0.09115380035943868,-0.06740688736848138,-0.19076306177874525,0.2297777122147795,-0.04593271044263175,-0.11691921360621291,0.04243879313686715,-0.3576205264978059,0.0420783902648685,-0.17350995857888624,0.03542021633145695,-0.09255134285499236,-0.01670992755753605,0.16565619770544604,-0.0605920053330315,-0.018335695028216192,-0.23365250874926766],[-0.13065890158924873,0.09411860083155973,-0.1408456798777417,0.07086099092564112,-0.11487455997944261,-0.02063445648878793,-0.03605793703788659,-0.4242130173642625,0.2501494659814837,0.005585046386189938,0.17306187213568217,-0.24276562456528397,-0.2770454142315539,-0.2051255289610031,0.23752101712622475,0.13152118327730208,-0.3768140342220238,0.0028656170878754027,-0.15376454097069006,-0.010042400939973018,-0.013552076061294285,0.03608812899443733,0.15296543453551503,-0.1955271533474016,0.0220291762263733,0.2935373171384988,0.09593039506550693,-0.02304018914926162,0.06832838177646339,-0.035747114526998656,0.4467116048219569,-0.06861424881596753,-0.22168757045443743,-0.21979059170268345,0.018351009477352853,0.06031481728217432,-0.10860491755422315,0.028130311764615838,-0.07905141700789796,-0.31559583481343445,-0.051668329926032854,0.21257345482944315,-0.43988174959025517,0.057236715272817755,0.13711727073429208,0.20532678275190674,0.14774240098802907,-0.329334566122571,-0.12903706126310338,-0.09878987370317423,0.039861275065755375,-0.09825943231558164,0.039993426163526684,-0.11482484005538299,0.02731370243559505,-0.07706182264067753,0.14148778606328585,0.2643370546097094,-0.08007619452310599,-0.10306279696861573,0.19894987856529198,0.03030478587937445,0.2506228231357655,0.301554747233802],[0.01035098099921619,0.007840022458928415,-0.07784098551969185,-0.04741181136580985,0.05236002564817544,-0.05513569352697653,-0.18034586302434136,-0.28548789602164293,-0.21623022106912104,0.26557779184237845,0.21746145678932005,0.12600768050769628,-0.08757752839427255,0.21949379668426924,0.1897219579645086,0.1478821385872606,-0.21933624080646488,-0.0027386276650979797,-0.12714596998802247,-0.032078272682719455,0.16155593388419995,-0.10104752564587187,0.1051433979960713,0.19105764426456914,0.01427288682674582,-0.17774114958267814,-0.1844641775927672,0.019648449555088876,-0.07311394391625277,0.0180124747734838,-0.04449518724857626,0.35966458607846064,-0.31839566826961674,0.0857753027637998,-0.06837327768907796,-0.044987867583807815,-0.08725019698262201,0.10240378426498249,-0.23818965251753862,-0.11793399785689129,0.051819107994252524,-0.22584532585832978,-0.18531556920378162,0.09312613259792339,-0.011475361858540265,0.1291220173126989,-0.170667267791607,-0.131890768694627,0.01102158694635679,0.5180350956513697,0.2752040561036631,-0.09373666708021945,-0.09459227145311985,0.027619934262457548,0.2900150571644449,0.15977482440859833,0.03082844193707697,0.11612729136421311,-0.028014853160360675,-0.010854773054451395,0.1273357640210191,-0.02058107606119492,-0.04793503268692478,0.14248958237564607],[0.024756328430555967,0.06903817395801817,-0.13485239549618427,0.05547841700552595,-0.24247039903356227,0.08918151279606558,0.26869820950857226,-0.11009558772692304,0.2953952263108097,0.17328212878012714,-0.13259345392262115,0.0540279480661976,0.07707856936737738,-0.23644175102216722,0.11872779444048455,0.010086499559501865,-0.03321548071790751,0.06346355744339709,0.05521730439451234,-0.2969898560109488,0.0106327379681324,0.2343630778447932,0.12503338138217784,-0.15728922895755434,-0.04219080006410554,-0.2619069248042428,-0.02711718478930184,-0.04528800168995309,-0.15812833039137358,0.060070047921034826,-0.03262233363885153,0.23825871334876278,0.22892288279045098,-0.0001432395441279597,-0.1467237424186463,-0.11726706835751864,0.0031184201675208993,0.014196073791444313,0.05531072103925784,-0.14515890807190193,0.06360702638095986,-0.039477152653735775,0.00837467834965542,-0.03927635918419516,0.16924945167614047,-0.0232788515073673,0.20840361299083096,-0.46059230573099935,0.05340064416206802,0.11879820789578015,0.050853381324413326,-0.36235373541396415,-0.07580062232946158,0.042170108266753964,-0.023064205361031744,0.018421199150272415,0.14886395514486897,0.03514547710625129,0.010628242768382326,-0.2849448970213981,-0.5023650966635586,-0.10685905622433602,-0.33573568932895526,-0.38968124847083097],[-0.07507097740530908,-0.12613635799104386,0.23016049583503834,0.24594116975146796,-0.0888300034720517,0.35915249766180396,-0.08401995456921271,-0.07765107522415325,-0.050617485325064826,0.18795155209631,0.05026142021342275,-0.087329088679283,-0.003457196378410487,0.1266552828946702,-0.21738670158186027,-0.043997211168995194,-0.27297398217618096,-0.2311176681235694,0.21797839954306522,0.022568736678409265,0.26627560183561905,-0.24071160655642973,0.16801427442348732,-0.041173506433954184,-0.0909593933931013,0.10101989668593549,0.263995702158824,0.050811447965030974,-0.21767614887588846,0.08017421523912936,-0.10519899267501265,-0.044911394196014906,0.10779801451919893,-0.15130578871128242,0.02153382911435192,0.025023369228794886,0.4375291984549105,0.12589941478500313,0.16777171357528695,-0.4161360393537191,-0.10897301114764207,-0.13844770600791892,-0.05435030929144583,-0.09479647721436342,-0.08350139604685294,-0.17676583688853542,0.19597196559963254,-0.05526796747963525,-0.20484797540768956,0.08366679042981646,0.3313787033215818,-0.2237711444582745,0.008947624943911915,0.3106785522092305,-0.015673510388377443,0.22458204627875616,0.16398386441155702,-0.011848215054956441,-0.3166754093669417,0.047188479390819243,0.14333728755827427,0.10111214968992487,0.04501466274309443,0.09815917661338953],[0.1531216317221301,-0.16266439946735445,-0.3396949890585818,0.0664286599334171,-0.08231839182984003,-0.009915344010357038,0.06113740664482102,0.13367815637340447,0.10531817973150623,-0.16377166788526404,0.1866504981205153,0.00015503552492252549,0.07234801949479858,0.26350874580793876,0.21698686906706333,-0.5150822532804036,-0.021130117259261796,-0.3252583789015512,0.0952882397878372,-0.16190786142651462,0.1589914569539176,-0.1487914880989749,0.26388838398012177,0.09934861299326725,-0.14275606694086856,0.11641165554845719,0.02026814266640124,-0.08726101911696123,0.1494836577896684,0.03978233592821604,-0.18265326611621097,0.08338364326698507,-0.024322347868802913,-0.14599893513302975,-0.07321375122850536,-0.11456842430445607,0.09581182674204437,-0.09271073598944675,0.04753028492570762,0.16446566684673916,0.2896242719866141,-0.26824832424043227,-0.10893464987040828,0.049638005205474595,-0.1374661903075605,-0.0737552095964432,-0.16892994632264766,0.09065036964709436,-0.3969160295999901,-0.08127928163104219,-0.14320531918746623,0.05677393023512696,-0.07402504187282409,0.11031612517136806,-0.05420746042753721,0.07286488858505409,0.013590056136603156,-0.21799211469188967,0.3517652017641876,-0.001190792883776413,0.39774406762665737,-0.13092051789691708,0.08249691392003607,-0.10808770568925191],[0.2501672144157453,-0.48050562543577124,-0.1753510499675857,-0.08485934708652706,-0.043410582542141175,-0.16112669062435508,0.02518849319366675,-0.2832150156537509,-0.20599219171511995,-0.08164786671366576,0.13334905097380412,0.07999168000099773,0.32790214705779536,-0.14227547099148743,-0.06928053522049538,-0.10555596264508352,0.08947069799907165,-0.07509876815117827,-0.1487014435456831,-0.13409872413457957,-0.24615084070495152,-0.10115442581624844,0.04646445532655787,-0.05128648085509793,0.05750759697358551,0.055394720427678436,0.2703518696152454,-0.30984476871326116,-0.042911610134415315,0.18910223462174447,0.25750610729675494,-0.21326509325439433,0.33553741210388305,-0.07077910382092499,0.27573233470498176,0.13686409482539444,0.26918167498111445,0.10486748995758158,-0.06038027710089612,0.2570292704724114,-0.11208158660719156,-0.15063058103881408,-0.1800826803860781,0.10062135522767947,-0.19254151401741773,-0.016052650668881258,-0.0967224461406199,-0.5236287056209636,0.15837042005238294,0.18077128355029182,-0.1994226775489981,0.1516663933641902,-0.01777942589086288,-0.061666648683098665,-0.07980801258285362,0.06308451092264125,-0.12328540283121733,0.4332849877007714,0.1893868555075386,0.045065453026424805,0.172180698248138,0.06498249966191984,0.16626201130835164,0.06962130649512281],[-0.12455434186113816,-0.33387500167046286,0.2980004350288376,0.16577936422930575,0.16677083158622827,-0.26626066165976636,0.37057573157017104,0.04122027540758477,0.20628983342856522,-0.2933715148037249,-0.2490076559506882,-0.09252031746308484,-0.1363019931464832,-0.057838232239267644,-0.018886003257163747,-0.12474846930979645,0.3104167764767383,0.03486178433414226,-0.11164145201481514,-0.025529789828891432,-0.18477221165450264,-0.07013778810081661,-0.21805699702446235,0.12627445432958376,0.05945981059565931,-0.1397614407048303,-0.12714160789338685,-0.32519940806201886,0.4246519438618734,-0.2668126118481727,0.18048941731942264,-0.21567031574067255,0.15785473636412223,-0.11121896995402382,0.11987103974587657,-0.08567820136060911,0.2339005743498116,0.25046827071301314,0.08699148986594768,0.05438369292643014,-0.2808201292688228,-0.05392396163181485,0.05371293483562747,-0.23452921006890742,0.021244582416697456,-0.013622836967024512,0.08297312296098026,-0.15617214792123596,0.16929240139890006,-0.020597202185109836,0.15434495355828667,-0.09101481980334386,-0.17677979527528023,0.13273044500776768,0.00706207818096844,0.024507882531625048,0.043564089835486104,0.1907015048533592,0.19771368343279444,0.07019853485102544,0.3721556811964549,0.056329744252071566,0.15817992342272172,-0.6282330435086555],[0.12044824038233502,0.018422760398928657,-0.06647630603749652,-0.24118374992032565,0.005052183249594482,0.16270514899687616,-0.07143168459883713,0.06091636513666524,-0.2645867242731009,-0.3217125948641627,-0.08110676815068109,-0.19737968820655513,-0.2875483674648623,-0.3771350881932234,-0.22004059285287045,-0.07696368467769593,0.07586427079466443,-0.01509009751694385,0.021419198722830313,0.12676492053707694,-0.16675938836108295,0.08992135963217246,-0.09912838289323914,0.024610146416224925,-0.04566473857029442,0.24641545528291406,-0.009716085940557407,-0.05683947269390196,0.07641932300018667,-0.06351248049660317,-0.16855674643234891,0.06681188729852154,0.04971343615715821,-0.28257062956906615,-0.11265380360403328,0.011038804570518104,-0.02624152641431169,0.07503973239855052,0.08704016514940383,0.1659734131317314,0.147550218161305,0.04609046582976372,-0.25452539999121226,-0.3461766104842312,0.21326794813174327,-0.17262544000543942,0.035237809523855586,-0.21326074662775893,0.08737591312034078,-0.16860421216799168,0.15872267405616078,0.17154239971318513,0.007905725586382905,0.04665871159322451,-0.2942242209038551,-0.14701902155244292,-0.026709248670649607,0.06856252717981223,-0.03232275185395132,0.02498822868032898,0.29835518577095277,0.054641960938643666,-0.1311972338602594,0.12625659103728631],[-0.11356152883455031,0.13856299102122555,-0.03605029010582545,-0.11295950559772415,-0.041464944693635056,-0.30527473878644956,-0.0784440690145181,0.07427934029078562,0.015256809243788562,0.14126549068740304,-0.3135564504872433,-0.1540558878478391,-0.06168571501515275,-0.02920415614863141,0.12158200649841329,0.041856985696551156,0.4125053961941056,-0.07161177587427817,-0.15008940589664863,0.28596141376649226,0.036291655800098584,-0.32168779822560833,-0.04412893075379904,-0.21940014293739465,0.05519885818188403,0.16964378655097778,-0.019093177398174625,0.07364638912375572,-0.01594237731198515,0.03964320136638401,0.022575153926242656,-0.05298403610305914,-0.0716368805199344,0.04683773911247061,-0.28724226530824765,-0.08009138489619629,0.25883793732839344,-0.09134253750623901,-0.10729066414000005,0.09762565661484923,0.041592088380153915,-0.14126971753765913,-0.36076703532848436,0.14584461223805162,0.003849267564248928,0.16188151108531523,0.05744662549426704,-0.13738510462785358,-0.2528647457408395,0.012878518798543138,-0.3183973908898956,0.1471712850175448,0.1042061058593374,-0.046503946064878184,-0.08454622937350662,0.2939561820743866,-0.07903986273582157,0.11245709047911931,-0.2684259303744301,-0.402002974467013,0.21778017786402204,0.2327694022097432,0.11367324270290716,-0.3862952401308757],[0.20840872130515178,-0.2109969063911248,0.07120279462027905,-0.012295234015824493,-0.1909118273569274,0.13560488238275445,0.080467629042037,-0.2695101680386127,-0.05063770345324525,-0.408095345217136,0.19380458351732957,-0.20638262637882573,-0.15109152011549065,-0.04395755226372983,0.32206432835892407,-0.13736776626154493,-0.1070789580733743,-0.3120779210260843,0.07385895051893429,-0.6355765498584041,-0.024175199117382896,0.3711675324486483,0.03809407321082531,0.06964591308775026,-0.0669366635617392,-0.08364415916605084,0.14904285841795428,-0.17933428158478465,0.2126243890612692,-0.09870620549617518,-0.16256660998018127,0.04062483809559236,-0.10765421637328265,-0.05371097341645408,0.16561620870625127,-0.08868147948839042,-0.018549022618895742,-0.355533879501893,-0.05354773162173934,-0.1644421538325662,-0.19332333646595304,-0.09136998425042532,-0.1211434551388368,0.10392674478474735,0.0914486502123709,0.12259502201008902,-0.25556289483209693,-0.01062377174930457,0.27672161905837905,-0.25799908081046763,0.024512170015735302,0.09783975361073473,0.047489903362108545,-0.11200872344359211,-0.29418321655154883,0.13242425894649196,0.2535584910814595,0.31178424348878303,-0.1540055491224409,0.3026168294871517,-0.20463551035765787,-0.10359344763594407,-0.10784933481951624,0.053332803831379706],[-0.18890791337849672,0.2245243112232598,0.0697732202872933,-0.030330487108569962,-0.12868182464853847,-0.10358798700465441,-0.04462037497262033,0.21636626664325515,0.005929116785646107,-0.15057642398336882,0.017294085013140875,-0.10522435497757285,0.1782644102682613,-0.319898705142278,0.09372217610384401,0.012928675476709024,0.0970940042380699,0.06633894866809253,-0.2196259420177551,-0.1602168232846905,-0.17900292637899795,0.02522146668513622,0.05456315944541671,-0.22977181118613507,0.19248067606577532,0.15238697042419375,-0.01018117261726644,0.19051605045505787,0.15692993145325107,0.1924337520872979,0.47551279782973627,0.06844678249441101,0.1389552231532322,-0.043236140426563305,0.09907986026754038,0.027329274398591386,0.06556458561756004,-0.17293723188224744,0.19182154765584508,0.16145893798353964,0.11083161057793962,-0.25355400862453875,-0.24257852500027008,0.18345346845303837,0.30476617359829933,-0.04476138216927829,0.02616991548495882,0.04102750467137198,-0.07141808406406103,-0.3383431813633828,0.2526735030290953,-0.24589152167433295,0.0011553420861833183,0.11008894093156295,-0.02087156771712306,0.12378625365259005,-0.3567170950463998,-0.2537509472854412,0.2063988908027646,0.14727094209192026,-0.38212102379321433,-0.16005795338843593,0.10884318355595196,0.15816092050222308],[-0.12587129385065612,-0.20800329045905383,0.08389555463448059,-0.018545667405007026,0.4077044487504558,-0.38663012346865183,0.06655886703813131,0.18634812799801037,-0.487242651591215,0.17633805618037263,0.06700359317729111,-0.24799024418350957,0.002624312030922222,0.12490488194101183,-0.023271854136710197,-0.1118935431153806,-0.05436332665393596,-0.15383044728149473,0.2102927306634821,0.19128988264478297,0.01771359975978956,0.15293287296592828,0.09962598245310332,-0.22140440179686952,0.13805628777983067,-0.22253402330886593,0.014374970452222127,-0.10774811987896595,0.08939173235999838,0.04166571408202857,0.017929496743250724,0.08598501217282702,-0.04322652510071793,0.12134164047825836,-0.25157163622512857,-0.16248432992570058,-0.10723342192309428,0.003048015168564667,-0.09081593994761976,-0.21055390900362664,0.05295377971393289,0.13703158772325952,-0.03340921638477351,-0.1336727797678728,0.13441325680028124,0.03067885349022195,0.1567146222782959,-0.18212227891306115,0.29803266229720926,-0.0639025307420812,0.14721364796801828,-0.08324448935075499,0.29549047552161384,-0.27139337221643406,0.00815580021968982,-0.13377731850777333,0.0724432453207379,0.17470324475628582,0.047748612692095134,-0.13173037689071124,0.03578227370244689,-0.31450904340118435,-0.09719703788470345,-0.02414364233767918],[-0.20074479280233692,0.05394341830205703,-0.12357745959287617,0.14557062250829994,0.09874491443475866,-0.021513423217127955,0.13674321450983043,0.14267773458738361,0.004679644343746351,-0.07249938830994819,-0.022360780176802937,-0.15657143253231032,0.050594150845777994,0.13032443216137862,0.049483960809174575,0.009367183508363318,0.2613983562925539,-0.1269762383514283,0.19278813594330013,-0.1477384254964799,0.03331435451205725,0.02414851819606373,-0.11046940619852086,0.12804619532436634,-0.03391513307951774,-0.044360824042571696,-0.3203044978054615,0.20792009597163505,0.23403904953486107,0.10179325669585881,-0.2283891213123994,-0.04489279799259897,0.1615953907225435,0.1874775260994851,-0.3312437146029597,0.18153203855706168,0.24368001964918418,-0.5786467154252277,-0.015123314406530532,0.3380809522009123,-0.024541367695990145,0.2152768867165753,0.19679732270741512,-0.11931682393946752,-0.19573410750350934,0.14953936027159936,-0.2024009237229162,0.09171284803381359,-0.4435546311271111,-0.043888820844804985,0.3372831926237802,0.006317398432951965,0.10419385447041367,0.09558810372053311,-0.10798949556292906,-0.1307501339221507,0.05028799410610802,0.0023482398831397755,-0.06679138894472832,0.23554187188814582,-0.18207968228989715,-0.014884856643684054,0.08692488479298266,-0.06803091728652619],[-0.12000215686499295,0.012942000717507174,0.06184217984708266,-0.1046568802112716,-0.019322448703941866,0.05806932021592768,-0.06332574662989461,-0.002501712173234181,-0.12515699892652174,0.03011911352063192,0.07816264658876924,-0.32383137323427524,0.2046938346626698,0.07174559776780828,0.301022588401897,-0.44101804804155126,-0.09987479892065394,0.0889423290462378,0.07064672224452301,0.21963277135001827,-0.2549688388337266,-0.07144169569605681,0.2618413696135224,-0.3920291635556328,0.08913625103250515,-0.0019393760804873863,-0.1649603954832866,-0.20503776500628088,-0.27411825190914746,-0.07013616847864287,-0.2208340971107737,0.10656776765030293,-0.05604954349016354,-0.10642924141601226,-0.18440799643768088,0.23997809292592245,-0.14484176129550594,0.30021327429897293,0.036246015684184583,-0.26449434561022356,-0.10476986428301294,-0.13769200277694127,-0.2594064279273648,0.26671683759395687,0.14899028856234858,0.23239189929064752,-0.02208883172319574,-0.15618261198674377,-0.0791300077943797,-0.127282108229579,-0.09005040441008257,0.2930669725184907,-0.01650132888620902,-0.29999492670882727,0.05094552061993529,-0.4925456468300345,0.08007086194704369,0.13395318181966714,0.1149690523563978,-0.10323227628059493,-0.0047083928875395155,0.24619634606455343,0.18932560299475396,-0.12190329952044401],[0.08249976803783626,-0.11090948664331153,0.21031981328312638,-0.09904148172594332,0.1512139586932614,0.02756100186961307,-0.3178027937241268,0.20038814733624222,0.14472283967728106,0.2787061886459244,0.0247844764531726,0.051287564797083185,0.03596642603478432,0.18415981479333224,-0.3495616666222629,0.06515180246121585,-0.0013807829789278258,-0.014412530213893217,0.09371432280990515,-0.07193564379981769,0.49525721533123024,-0.055652225000079526,-0.13092574268968657,0.10650552153703062,0.049986375394366275,0.02244269145356933,0.4305877672530703,0.190106158742897,0.2398222804472912,-0.15812336092597656,-0.10831075665785174,0.10180660390715254,0.20369813238120474,-0.4337175699445872,-0.23310255048400902,0.10058998889584764,-0.29429799642385146,-0.026623777547704577,0.011178100766685562,0.07995720458095634,0.2760492004510257,0.2579160827853633,-0.12595544029555314,0.26270972126165604,0.17904365376334078,0.2801493945670489,-0.4124865963711605,-0.06334642282616237,0.21379104273235178,-0.19003660386384488,-0.0493835437968473,-0.27324624849682644,0.13982984104536242,-0.3517510996458494,-0.1830977530736133,-0.2666683410737004,-0.12214343161063801,0.23198457527970684,-0.01784610035657587,0.024253092202129317,-0.12540938939178006,0.21188701293105558,-0.1306970824271193,