{"layers":[[0.5490188525190579,0.755576086835895,0.30850923048373585,2.182882581863826,1.9102108030741003,0.9641899327350992,-1.9051438244143346,-2.183074480898158,1.3552326869489106,-1.1273851707905909,-0.34859995040390135,-1.159865851418693,0.8098752756570855,-0.6413338389044517,-0.9956739245345275,-1.8860057630751887,-0.9277753821395255,0.7388862857909297,0.39411330861450705,0.2745570187409588,0.6111101910263735,1.6870244502719967,1.4033389904389788,0.7789511619244325,-0.6246904893300991,-0.9835290661232735,1.3338695332119106,-0.548904384917133,1.1897366442861168,0.5082511326744084,0.3906645691001602,-0.6131274241604164,-1.2091818252369864,-1.5805314595965159,-1.3368710609298096,0.8901448186955238,0.9,0,0,0,0,0,0,0,0,1,0,0,0,0,0,0,0,0,0,0,0,0,0,0,0,0,0,0,0,0,0,0,0,0,0,0,0,0,0,0,0,0,0,0,0,0,0,0,0,1,0,0,0,0,0,0,0,0,0,0,0,0,0,0,0],[1.114275113718889,0,0.9192237906834673,0,0,0,0,0,0,0.31131806482856184,0,2.0976878257504485,0.4429861215010252,0,0,2.0971951778461704,0,0,4.0942337515746114,0,3.2682651960746867,0,0.18476229990669762,0,0,0,0,0,0.06197709110559689,0,1.4218582340237735,0],[0.9803226641140578]],"weights":[[[-0.3454449443570099,0.06955217571653165,0.24169648685666192,-0.06571119685686863,0.041234150164519895,-0.06616360088077922,-0.035570740944045456,0.25693850565085413,-0.1453420068499076,0.11967395287503022,0.10278593141771167,0.22468729283741967,0.30306709526196096,-0.06125760183765061,0.20748424066256504,-0.19281057111750247,0.09743769563509243,-0.07162886485229585,-0.49491059741807975,0.22093689207799386,0.22478909641930303,0.04287215143591301,0.24663298001334752,0.0013564826156929664,-0.6247600088031952,-0.2529813705802602,0.13686866728891753,0.12999560283331282,-0.17701312182993237,0.07165982562023256,0.14099637875049378,0.02221236667999007],[0.0970118988911453,-0.10464163956743021,0.064131941843539,0.14433172130654792,-0.16349323651015144,0.21068660699474312,-0.37098533187615595,-0.5184831004438353,0.013443369176878064,-0.021626194716620264,-0.3145671124903495,-0.03611326490593885,0.19571455486950254,-0.44592365234860726,-0.22073766359684124,0.17299558809694673,0.2042592349568729,-0.1610187419699189,-0.0014571986691276988,0.0649119784022761,-0.3850291117452018,-0.2351945897004757,0.0002808136108006322,0.15414486676583064,-0.29258330355535517,-0.12538380605967894,0.041628739972425145,0.047637870521696886,0.18962675648925403,-0.2827303044364589,-0.12531969595785908,-0.2555110840093871],[0.1169329701953874,0.06990925012841227,-0.19242883407464997,0.19021218774585755,0.07766352523398022,0.051572682683240494,0.15700982959739357,0.07869176588048485,0.15548912625983244,0.020439680673475537,-0.23818701974531706,0.5902991784386052,0.2522694541248181,0.3388203736948182,0.03541842579768632,-0.15340471599516264,-0.2964630973725339,0.00591974899226963,0.2460320869666987,-0.25432017833882453,0.3182463377872126,-0.17240898417938158,0.10783157131302398,-0.21429841326674046,-0.14782484465199358,-0.24689615198585277,-0.3854740846571977,-0.14750498964438466,-0.048971769665729914,0.05372525254487848,-0.00992056809576237,0.1279019392444614],[0.3152657967142371,-0.574630006221388,-0.2195538673984176,0.11185926711826126,0.08564989237654845,-0.088890537648797,-0.22055037102290953,0.10547605806047876,0.1756766952994219,-0.10901363031184136,-0.23842926089393895,0.038540317366444296,0.22870154567982642,0.05805325307922629,-0.2817152011764303,-0.08895892443049742,-0.2664916125422218,0.2119953351244202,0.19680812529030353,-0.29238811472409887,-0.03244987357396731,-0.15738141344823375,-0.21340023287349574,-0.43556390834109815,0.0719021200516052,0.21574687689646274,-0.22127233953996658,-0.2398319499554771,-0.07653702711315552,-0.057166385486551966,0.9956495660173179,0.3522261393052568],[0.1773826579168803,-0.10388959109042363,-0.06144438874149342,0.2160449325549349,0.02758356840895714,-0.5505185691050429,-0.19209839203754714,0.2650353054845427,-0.13021330585144836,-0.36231391992002693,0.023820365976930963,-0.3340992887096631,0.23639380724246553,-0.19284394167667787,-0.06949858807718101,-0.04767754909669838,0.051588766471318805,0.531679915353741,-0.015106688809459552,0.14190072815081994,0.09628441048469408,-0.2585270398417591,-0.1195413928042179,0.14628483275152815,-0.1731515022572428,-0.10068934516857836,-0.33836865956534223,-0.14277778428094132,-0.12421893123802581,0.06647455402148571,0.06019278362900452,-0.055603050325025216],[0.08836629318031496,-0.15274967964020142,-0.27978600050127256,-0.008712344551240113,0.109066016683671,-0.5047627308281134,-0.016486294280701613,0.058033052713054874,0.5346101411778916,-0.13806740636326156,0.32744598177729006,0.12669869419344149,-0.18323287300423252,-0.021528706250404463,0.18348831202599927,0.2285656457648901,0.04434859183332097,-0.17380280861712952,0.13745685459053406,0.0014063664008753466,0.29957838905555123,-0.2545652082713721,-0.10429666129580886,-0.1561202817574032,-0.037059877280537994,0.16357223968445653,-0.12575019165967224,0.23926612288103358,0.1799561218307565,-0.41715966531774373,-0.30569930179296595,-0.005131916275256098],[0.09571991820286421,0.06949577046881973,0.1683232256309236,0.7869534044569031,0.634633418418087,0.3090041940760855,0.3900722364646312,0.2700254548314203,0.24942764631214423,0.28041519445386237,-0.17061393024486018,-0.3903453902865557,-0.09402852583367051,-0.25525878716222516,-0.16043748464440707,0.46946946827746094,0.025800776365614748,0.41799123089358575,0.029154837837109662,0.002436560530874198,0.0531855348668694,-0.2959535242212643,-0.29877522075943885,0.2379019439829115,0.03677957372602362,-0.19869008704363528,-0.13444914339854785,-0.07325932518243969,0.08973090374165797,0.1863879462067606,0.6809771928896304,0.2606960900595854],[-0.03685906699459901,0.20183273307121613,-0.414062096038958,-0.13085269576561828,-0.3807175851890851,-0.22880044522878032,-0.31684744096438466,0.06227796346240675,0.25629035719517135,-0.09896377318102798,0.2180953330249269,-0.2356704302535717,0.07797145027086945,-0.1631894269533435,-0.043630793003029016,-0.5812188911042971,-0.11906135652996956,-0.19877389960362934,-0.3838589424716528,0.05566314771626917,-0.2490466307440049,0.3000636463012019,0.026786259259926427,0.38596637302068926,-0.023466615052866017,0.10545692703346973,-0.011367536940290694,0.01651580028363565,0.017670645872284244,-0.14817842077937657,-0.15198251301472301,0.09917047673974956],[0.21357797118601257,0.15257305156164383,0.19773923315145417,-0.22440266089314662,0.057213667313933805,-0.2061096771889555,-0.2708400012486057,-0.27725915637361365,0.03415592914565454,-0.021383863769782494,0.5377692385165063,0.24348203958636577,-0.030498613122254076,-0.1715764605659955,-0.16731644580480715,-0.40385551601164016,-0.5082497007829083,-0.027267686985139136,-0.19469317819189041,0.2409989706455909,0.1935241229377759,0.22753795684321879,-0.3890607458782974,-0.32507948650215823,0.19161670400445016,-0.3419334888641615,-0.07476050349908003,-0.028702100183038037,-0.261851951870752,-0.10196749224470261,0.30401790626430825,-0.18880649704506955],[0.1499738777014971,-0.5041127870600531,0.0169325837077054,0.2587643514901123,0.1590896903240717,0.30195058348112325,0.352467125473474,-0.19217306975848145,-0.12676542835406948,0.026397457785418618,-0.13741185163578667,0.2587081960746774,0.11392017782321504,0.14141568910494778,-0.2263422648562848,-0.24996550771444495,0.1952528484535168,0.47653898860367966,-0.6470978309001496,0.1329552499913169,-0.04374086325772788,-0.30014612668545604,0.28016561101923215,-0.01609343965487035,0.3885336670823538,-0.12451063815390061,-0.011605181777527623,-0.24879783956631693,-0.03546592295543122,0.14127603395904859,-0.2824701038456377,-0.09355428777275106],[0.12808162260756503,0.08552397554166696,-0.0650903654264496,-0.021988915282385772,-0.21507409480819406,0.3269064993666034,-0.1943497645533542,0.24586080110436,0.3748864997293365,-0.26732377098392723,-0.19674450301809498,-0.12791212075625272,0.16729781968682755,0.27309160383438535,0.02053378823046084,0.09566208523871078,-0.4174379911402878,0.04882495263144293,-0.011972431770850535,-0.22617596527960673,-0.4541473345194546,0.10734539779371165,0.050424909965405364,-0.013261410244088024,-0.055174097292357324,-0.2445894137327022,0.36564340714760546,-0.17165100387935894,-0.13455189097864848,0.020700360634983903,0.40502602370750024,-0.25139490467841774],[-0.22418400557264173,-0.14372547795541327,0.1634433113204087,-0.11838041333191641,0.10941424336838318,0.01784609210220757,-0.31568532702904717,-0.08959298811047635,0.230045744533667,-0.024577341996551236,-0.0020080748525886,-0.22701520102368344,-0.1966683955430598,-0.1228427933087715,0.2001855971507986,-0.08126011786675565,-0.08585638247959564,0.2747934272209239,-0.44850441718669476,0.0007485759438984878,-0.20335922424561154,-0.32071743643395695,-0.6698235122115089,0.2827479700217044,0.5518866108736427,-0.05989110355148268,0.018357621296025205,0.2417129351052627,0.16193334618686434,-0.21225371087610906,-0.0978841348054211,0.10052059590557753],[-0.07265100690594466,-0.024780159441306484,-0.18599631184168083,0.36918982854352883,0.13220260994468233,-0.16105269979566963,0.06478794607785426,0.1034768677048659,-0.2572819993802667,-0.4785950334840781,0.241993610634629,-0.24931292093178636,0.025727835408572316,-0.05538382396389401,-0.332957117681596,-0.07701562946327582,-0.04321697893043433,-0.1689511159664705,-0.23330772495387267,-0.5591416377395516,-0.2277950270610033,0.011462114330792276,0.09570148449844193,0.1175767974937553,-0.0015599283278681477,-0.13740387593414843,0.02371386107588692,-0.08661251990847973,0.007900378648031794,0.11941548550286535,0.08820343900159171,-0.24861880979236908],[0.1400501923766866,0.05003365811236853,0.014933001017979609,0.026582446611076314,0.34743850612647614,-0.17053769726137172,0.22943979088496452,0.20390663568383516,-0.18754353088298248,0.19369407093380325,0.08562633723687764,-0.1429946905580476,-0.12357164837567496,0.09228788546459057,0.11765162043169794,0.2807431360944162,0.38688214758697004,0.41283289982318405,0.2010653879693391,0.13097947280321962,-0.14553204384472274,0.10652752361375736,-0.3350512697129984,-0.17277540425418245,-0.1287911739751894,0.08263386356067438,0.2324437970084838,-0.10112107340790391,-0.004980786900024941,0.09093195080920774,-0.3378530749092919,-0.20723740071870678],[-0.24610669908964042,0.39732246118174785,0.5125747857201464,-0.04458893861770043,0.08105027376296135,0.13426964122766336,0.005396016870687749,-0.1434213147832341,-0.044895321877337746,0.13640384692540086,0.1280587247184451,-0.15289104436268025,-0.2734529825347582,-0.38899732417894384,0.11271104448886485,-0.0887113734951999,-0.07367763509013697,-0.10280035146205974,0.2071151453340417,0.4495838434966408,-0.10736164663261867,0.30291797248736885,-0.06758751380326646,-0.038106168571620164,0.18943855846784305,0.1250313366652243,0.09904121167349558,0.04312528187007982,0.006378023779896258,0.07344473679733197,-0.014536154507368351,-0.01469205314046259],[0.1328406404640014,0.20675616709075342,-0.012822809717806633,0.13195801105311478,0.07791122597838235,0.44189310361869966,-0.28255488835491954,0.10627355036407608,-0.40637366394776436,-0.07494180851465687,0.2970013865123567,0.09964915657406864,-0.047106323239285534,-0.008701675267910186,-0.1802916428911314,0.06164552792129678,0.34023452588120084,0.2719164407388368,-0.12076677777914532,0.14828994890918595,0.40443501652580904,-0.2577221904189741,-0.19226484084716935,-0.12779418953221802,0.23153206615984764,-0.11740738618669545,0.32358401625338296,0.0012899821016705071,0.2422213527838395,0.036487665438948734,-0.03420865741928156,-0.42187092773673374],[0.02860877062227737,-0.005594742897766781,-0.04057429615539921,-0.12238640726698967,-0.002765002676277324,-0.2641989486865871,-0.010011429218276543,-0.1549525247955969,0.3837295155139746,-0.26650574183720677,0.026124516646120977,-0.6310741985618794,0.16445009975735012,-0.4114290709446355,0.4777023365914763,-0.49612877323710003,0.16420519290243518,-0.07714185669844396,0.15383241578245765,-0.33767047027459024,-0.17595232607435823,0.2443152912171319,0.05185448205357548,0.06672205682188308,0.565699005883172,0.16302913597373897,0.15429693766511415,0.10888276569658842,-0.23802177563087185,0.10857591128252826,-0.07927841393716895,-0.09587359774428181],[-0.12887611621836179,-0.10199864817992965,-0.03944280011269958,-0.047319491052796404,0.045609149745509295,-0.19542501536496243,-0.2513823222277007,-0.11331125413716507,-0.3810618124866593,-0.008318226895947332,0.3155837657416661,0.16631003962306645,-0.25711189864679124,-0.1703213283823003,-0.19811867414434806,0.2218802791338481,-0.04899320414139082,0.17118449678463576,-0.16016832434504413,0.3410622006694751,0.1981422311134053,0.3574957271719895,-0.1292937204156636,-0.27745076243338185,-0.2839012804110875,0.03473829140085185,0.5443244238637456,-0.15068931124899798,0.14059891163001462,-0.2809229922319903,-0.09040330124745477,0.013778921908149135],[-0.20607335460608686,-0.18043793311093886,-0.2253856452283595,-0.1733873454998123,0.1806680551415528,-0.19021397367851106,0.2900972334764505,0.3745175016271369,-0.04711195370843395,0.31393881675169283,0.1481643319496205,0.13243892663459295,-0.24424657700095542,0.05071105844720034,-0.05626837523576499,-0.1874262536431574,-0.09875707174949115,0.028321609173051644,0.22514096177197743,0.04441377633567565,0.264712900688286,0.1216964721710221,0.3195603566060124,0.3065896577705562,-0.42431273906228495,-0.09164748060963591,0.12013641720268738,0.18186943035574185,0.04257539965426822,-0.048645300563641206,-0.04160765467463305,0.023644417622637078],[0.2224109022956004,-0.04739317151490122,-0.006088504488564061,0.307677161745221,-0.2595842658928304,0.3710918783820477,-0.19114991694375102,0.13133706178213742,-0.1246109471450111,-0.017200389560280176,0.05125562050620071,0.4555369454284201,-0.305304626761574,-0.058257184603220886,0.06295365663572584,0.0778838761650699,-0.08520776888416808,-0.1589792493713771,-0.14568385603675954,-0.0942920177006208,-0.26696075656323687,0.032750461483716346,0.18052291412620153,-0.05841896582438322,-0.2641430902573038,0.05991855472388496,0.050648626159650295,-0.2660771211121143,-0.23919085179119753,-0.07138708287848877,0.1248223227788543,0.17076915450904648],[0.1961941044445864,-0.027722127456599122,-0.09196424973563026,-0.24552084864865778,-0.34774238721037287,0.03549710712559541,-0.20979793433722607,-0.13178609035341884,-0.45577700119042386,-0.11065855467213831,0.0848028406347894,0.553835862576119,0.11645486988698757,-0.020798489529890267,0.2627937084835178,0.0031360816370765952,0.4533288738944485,0.20180384072511967,0.6735706859252196,0.07756939072323497,0.10239225334696422,-0.17560064700876898,0.15717292875526626,0.08416223596662911,0.2541304376516882,0.5886960082907672,0.05787836476001612,-0.22268329311806254,0.13839195677522226,-0.1321638025187391,-0.07329011764346732,-0.11338978968387244],[-0.43600884736060525,-0.28690838417691156,0.3051793040895679,0.19756061542469358,-0.17528843228864915,-0.048860289194585,-0.35882619118094417,-0.2548288174328815,0.0020745344221209197,0.37617323928071295,-0.5543349319113486,-0.19619781034842296,0.22768029713612323,-0.3110799330429198,-0.28846695147492185,0.3597334671230837,-0.0895327006041873,0.04858428384348996,-0.0895743246813478,0.15770995799115933,-0.09402702115386452,0.5798990804675638,-0.24097295833655577,0.08756417855434363,-0.013163642161706348,-0.24795351693999362,0.2658871117094546,-0.13018856934645168,0.17656393057478859,0.19071864820301995,-0.06859613805082149,0.15631408501620833],[0.1512151219022405,0.2500744686322289,-0.3749231456225899,0.018175296067222277,-0.09234548750602324,0.1043130926412383,-0.11125837758901683,-0.43514213015300407,-0.061722643212992444,0.2839474365831008,-0.09102124912173315,-0.15707210415059505,0.08924466668375691,0.9471818438880965,-0.039492629016610825,-0.11706457747803671,0.01959471373129201,-0.11591812946903915,0.5868078229590933,-0.21251166816849135,-0.009919831817130931,-0.34181595238936563,0.05227260167488432,-0.12193579965795141,-0.1559949160058915,-0.03544659721596903,0.4933788869340957,0.09212129782818833,-0.19947176803301986,0.2817687257126585,0.23845499807729378,0.02044198489618479],[-0.13283810520734013,-0.008728223240436503,0.09192190155202978,0.027719742796393977,0.0006254739213452826,-0.10034481794215967,-0.1257555048302683,-0.0734885087845478,-0.1880762298029155,0.09306703707432518,0.4988765901456212,0.298892364324586,-0.13784926391754965,-0.11158077298107613,-0.15165840199477165,0.37877206346165265,0.18188566109310764,-0.06476695749210949,0.23986806636391045,-0.28026237241379287,0.3584114824929993,0.1142466325182494,0.046101200402910394,0.2789324302537835,-0.10751600214173711,-0.28290198162712493,-0.0382388021805321,0.047593427580885264,-0.04788690069652579,0.03910627219441607,0.4358824364238602,-0.04036156747139243],[-0.06925219553316944,-0.013751861942472236,0.03321752792733289,0.10897757982436597,0.06509807375291952,0.01324027329147023,0.443742084974366,0.3303847730185857,-0.360506056611651,-0.1766701193710561,0.3902910471976162,-0.0009670931861961157,0.3249597451905024,-0.20619017852413463,0.34881723493070477,-0.11124322866265501,-0.13927278858048706,0.42431179708326056,-0.1148380141469547,0.6240994628969135,0.3380045884877182,0.34356660711182285,0.02311355804484786,-0.2550442097509582,-0.22055066062318557,0.19841056161490614,-0.10361873362438988,-0.09105991155722142,0.3226312329880651,-0.37733986777805056,-0.13391961070793384,0.2091199919522136],[-0.015831346081484076,0.016540222251921893,-0.1870594613017953,-0.28366094645242135,-0.23500585781661992,0.11691375447010921,-0.30024873138649655,0.006177972373225971,0.2622423529527244,0.2596980003788449,-0.04598648850809468,-0.09860975271489034,-0.06966030904375112,0.23596643419716054,-0.1622573475708763,-0.17435047262741277,0.49293542652579747,0.35495591446676256,-0.1084713781562779,-0.09009554401229637,-0.31815312646223537,-0.043019555770518164,0.03336789330507486,-0.07154340211653887,0.07977136120768895,0.2573447082271307,-0.16210303211056853,-0.1329108860472201,-0.08875106270033975,-0.10593421731600663,-0.07820130229548587,0.10864042067381584],[-0.06157537234235156,-0.29713398249706924,-0.2098095716750602,-0.014396444051611019,-0.591895686099021,-0.03993109242532622,-0.19154876499050044,-0.0980569674369979,-0.3504502877192245,0.23878217886616748,-0.3160793892026413,0.19756546922588233,-0.04330068049213117,-0.2453019431871598,-0.20507892350986026,-0.2652655287489208,-0.22579129649514776,-0.11915628864782538,0.1268371607547953,0.40771398558309657,0.1179951985237384,-0.5720316827265783,0.060347110115061865,-0.19295267029019741,0.3386591822200064,0.05617389832552121,0.02723155082387652,0.3436642430227335,0.09968930479510865,-0.14567439846518873,-0.12141773254479105,-0.1393891827142079],[0.07080915498658649,0.18993239567525919,-0.06136967665350043,0.10945342860063939,0.14376432054241794,0.1723186410558634,0.2521020277858858,0.15019105688672435,-0.11263635942501858,0.15972953960159075,0.24668331210241487,0.10175297979803201,0.2195679839083437,-0.07399731971887023,0.44360706579184983,-0.22483772205821995,0.025468769014124475,-0.19855828067404427,-0.09296383041429554,0.047753092046354535,0.1683636397234229,0.25254619193023387,0.2853043051467893,-0.44356914982109275,-0.15645894366858623,0.6245702533354808,0.1528051169763194,0.25442975828382225,0.2738980528526732,0.22660217410206823,-0.03348257788505142,0.013126948131709401],[0.12430557840891289,-0.15467958634585924,0.31211318126142135,0.09266763433363942,0.029669852837557898,-0.1477177491879273,-0.3502923867372722,0.35075795650871544,0.04872840515443984,0.0232115053234761,-0.10689816681689973,0.13457529451536698,0.2574653166426222,0.18255502311332122,0.3018312578285658,0.6027059468196413,-0.08684120493901361,0.0691433050281328,0.5386723663361116,0.22700897081800317,0.15823941216802648,0.1659439380098103,0.13543531445905868,0.5296416987588259,-0.0711734836041719,0.08643514304974481,0.04290665979759976,-0.09296264974802718,0.2889543587785483,-0.5250459711731766,-0.3079959741875691,-0.27186368351953116],[0.09604248899234283,-0.10539602868381207,0.47884630098320086,0.08015823297505374,0.2154037542371694,0.05327596860362489,0.09263400053375175,0.11451824801743238,-0.09654888225431511,0.2545976840695427,0.2028075917390741,0.03976227970387407,0.003069396640202873,-0.1885155118743135,-0.1546974841994178,0.20087866116129283,0.37034481664357133,0.13969254173315196,-0.23134398452519606,0.42002165476629927,0.006882790645150962,-0.14568621875756552,-0.04280360835467537,-0.05347515088243063,0.12194957661535975,-0.1626972348002005,-0.21545869634801598,-0.14993889506550354,0.301623532161562,0.005098291927493656,-0.39578937903221545,0.10633325078063277],[0.3111560197729553,0.0034430037888671973,0.28118800940363703,0.02616711454603104,-0.6034519379466449,0.5249405345417497,-0.3040000850053651,-0.07303647910615244,0.26230697501087247,0.021496027673248836,0.005975409785067979,-0.1785464212923769,0.22761153490735242,-0.06342401545477054,0.029666424616924633,-0.056187097995527,0.4486432579711865,0.0204947789819853,-0.24543449365321832,0.33223122166615754,0.020367979758364525,0.5664070070850238,0.44278339751526613,-0.19729531548562299,-0.6626201336672967,0.4388484504568039,0.2614711675273036,-0.28657027282141506,-0.3437183109817813,0.08620034698554134,0.1691152997571493,0.2037571272198512],[0.1886447019718167,0.19112056891850807,0.2379342671120653,-0.40039443275523884,0.4874752684748681,-0.04449320622993189,0.036969723978340176,0.33271121739071946,-0.19121499577822568,0.0664149861497048,-0.30699592998303726,-0.019481326505819112,-0.03188199686983696,-0.21221644293775546,-0.045786518165543875,-0.14473252317251978,0.021850017086750155,0.18463890508923786,0.5092542630294182,0.2609541704091489,0.04573345841695002,0.5859784774234411,0.21749065459934133,-0.22998392805754966,-0.2963849150385008,-0.0725533175109794,-0.09029122470231472,-0.1498188866259227,0.10405520912690269,-0.17878360715186054,-0.110847125339787,-0.027572455703831503],[0.1687005544072222,-0.15216317900039927,-0.44532235961540356,0.10355738064580458,0.07729029153537723,-0.3328330949137852,0.0177088238345238,-0.007627790900307118,-0.2888514115923429,-0.004332933788294179,-0.4196594483558292,0.19289004659105502,0.4080971986327484,0.09189676050766891,-0.200858813621139,-0.0871589510416027,-0.17815473096033405,0.02179015988317268,-0.21144003499765968,0.06680555552711685,-0.39184682872261617,-0.47770618867533526,0.2045160321737783,0.13855055979666347,-0.18732535996076416,-0.031280606092195934,0.49062286913759867,0.08420377742103392,0.14372005425882375,-0.15134745249821493,0.758872801069974,0.20412477833382664],[-0.01934182916490824,-0.028451257982836153,-0.4177005549355103,0.2679917034218322,0.17678124299422082,0.17997460235239127,-0.30842406209767925,0.11187943189741514,0.5866563967254694,0.05662059503151269,-0.3193205875035766,0.26205841997272866,0.07255942982912421,0.38909759604083083,-0.17174520613929306,-0.05675431656570664,-0.11939867379124224,0.2841991328222132,0.23064484914794253,-0.0571309245011594,-0.1463111528959114,0.2885488101051299,0.18418108845215928,0.47570781679128726,-0.22958754244333332,-0.005233776714858098,-0.3676386522513235,0.15937871934116082,-0.25761675419826713,0.2794876261579464,-0.06252151264646487,0.28468578116161164],[0.2206665838974302,-0.10244064973630462,-0.40557945853796756,0.05011273638207657,0.029342506306250876,0.32885160975307814,-0.1296024128242698,-0.3330007691733547,0.1399398791713735,0.12570360115457327,0.1713953417484486,0.3213069517017931,0.23999622260462977,0.053299420980902824,0.37337643048168045,0.09715435896761782,-0.07359997222768305,-0.24092080981678168,0.0001530065089033795,-0.08903085437502686,-0.3464125451129922,0.2373683204593837,-0.105328196015314,-0.1235548103783357,-0.21624289129373908,0.251744953971795,-0.2052913461630059,0.3375026761288412,-0.04345660009256933,0.03160327135265686,0.1596690494177113,0.3630448847800445],[-0.27605736074849735,0.23382463008293108,0.20565518579623104,-0.06122817786293993,-0.10305678360847195,-0.03379723300636852,-0.07059317586142458,-0.0975455723782012,-0.15828200905302536,0.42939369850819953,0.15672172334190632,-0.1384965597631006,0.08540216170017272,-0.07823882162635704,0.10996906569185354,-0.12349509008362396,0.06256173345791058,-0.46748680201696236,0.1492096556815871,0.28668007149722174,-0.10439349359186005,0.4554355215048017,-0.00776195295510516,-0.41956244897321154,0.0328757826335349,-0.3966775627984413,-0.3129543379259517,-0.022939385714169074,0.09978437101614122,-0.10693961658241598,-0.03411735312820326,-0.23243984505516338],[0.1491913812773558,-0.059350037757430266,0.17611326559620016,-0.19124996405560193,0.3188494483765243,-0.008379503266380926,0.10652951366703615,-0.14968066519335713,0.04151074921781065,0.09770525475784034,-0.24697166394392314,-0.04005292342306921,-0.49372268053798973,0.14592210389680008,-0.3702728127320228,-0.08929226772308964,-0.103980535146536,0.13435214952650487,0.3302865360138798,-0.3126474114903084,0.08296197717251205,-0.1945607377386967,0.04457055691223232,-0.02171199161370383,-0.25643347735496547,-0.15919643888143298,-0.0052756823383204735,0.17660728408884374,-0.15113819156682495,-0.04223267279631299,-0.15623154104275322,-0.4161177669318317],[-0.04801792823362345,0.4392186171368686,-0.2568391154072756,-0.00583222752082274,0.21764430853440725,0.2869042508208244,-0.4742142875583429,-0.11670985557966797,0.21806878455750867,-0.07682167348575061,-0.6000650450462132,0.5611684071247344,0.15542015028974324,-0.040910977703148235,-0.4819751861338329,-0.18426284233996099,0.2698871789348426,-0.041824465449760005,-0.2211703213346316,0.13617221434112864,0.20112714822106892,-0.14343255656022127,-0.13597590056611503,0.12777105523304716,0.039174535869355244,-0.17164955309461355,0.02730541101849665,-0.12655929109341496,-0.12994890821297153,-0.09703425937710178,0.0930780190341318,0.0503491385874226],[0.09982204017673081,0.6483856745761132,0.11583192680385193,0.07535511252485848,-0.11430425296136196,0.11165841643936283,0.2669037746965509,-0.29003820172814637,-0.06719393762221222,0.35105481884690065,0.08252212286986364,0.007485473855248943,0.2956901315879527,0.2579851914017818,0.06755460235632586,0.4392873690137809,0.17709516549552742,0.06671522431753628,0.02927563753825542,0.38108111146107165,0.3066084672799347,0.21000708253434594,-0.22114865498544425,0.3275457245776833,-0.37649018009235496,0.14868652029381121,0.04935621762370173,-0.07982479543214638,-0.4643965893913513,0.21929636727868707,0.22087961809614728,0.2253328383997193],[-0.10217064036905206,0.13295789717595094,0.17140223143833683,-0.10052621655550666,-0.08460655336554448,-0.2802096260078098,-0.024479267803705396,-0.3798673417846353,0.24343459450878188,-0.17716158660222897,0.3718107584564132,-0.14366987584225765,-0.03369199896347651,-0.11017420472236203,-0.2884989378984217,-0.12546358516273282,-0.5390848611479306,-0.3144675261876783,-0.23006854837472848,0.08753358177751897,0.11011373363301456,-0.31986043271818226,0.05631772417906456,0.09853941908862103,-0.17754412255216206,0.41588355386179576,0.023215933812089837,0.07968727472422256,-0.07730661009015351,-0.22470076899657612,0.25209799806854194,0.029828862444467988],[0.048644304152769074,-0.34816125098462264,-0.40899077680236545,0.3818093461470904,-0.5411141648436636,0.04374583001376627,-0.05468375356999309,0.34591993821992395,0.022715699405031937,-0.10473439642511573,-0.02906085133858304,0.12437239592676905,-0.09653753541014,0.12509047788832633,0.17050446950955978,-0.30211866398571413,-0.5220927298872627,-0.03519503462428146,0.006637939193734587,-0.08983304516255415,0.23504387342025437,-0.19745718501849957,-0.03850812300562315,0.08237569067942048,-0.12213260210915224,0.13333985105612672,-0.009334977860554153,-0.09678908085566804,0.08363367164800921,0.1713259946723367,-0.17545739087456466,-0.1007983081082935],[-0.2512963317548539,-0.027810723738993924,-0.04126889693240747,-0.08718501931525711,0.05965605551351867,0.19999505092846154,-0.19211102047602066,0.07192640789086105,0.191923096215584,0.013519877592753709,0.20325650252221206,-0.14338873882815487,0.0991352245229106,-0.05143267130884121,-0.26377648465726156,0.46741843730759675,0.3050703916590663,0.294060386175645,-0.33367134220970135,0.10700574684342495,-0.11864152516419639,0.06046486547943889,0.3487296712884447,0.04120403444952381,0.06307386053541068,-0.21852122334056423,0.3188778506305252,-0.25838277480675054,-0.24062249190247686,-0.2519085606324276,-0.2274956723277775,0.13836834282081162],[0.0670336371759186,0.2577362254462337,-0.02473126249122258,-0.031524345810664815,0.1776922347806631,-0.08320153640791236,-0.029108621208624313,0.18057880649865177,-0.13352118505999908,0.10567502386926014,-0.023229992562955645,0.24269765077885141,0.14296248165117456,-0.015513915944843868,-0.19657080548741657,0.12950343828380387,0.33107110183652294,-0.3220911070076932,-0.26144443049107063,0.2734114484090803,-0.11874028264943215,0.17713842103225833,0.021238754638651207,0.0032308341097579438,0.3932131127889556,0.20269450998598057,-0.612321458701296,0.025525751955544376,0.24399118658376132,0.004840228066612195,0.0022706818381160944,0.0741272127893399],[-0.1423727964717134,-0.3272466209904747,0.020112003823330414,-0.2592129075214361,0.3405401910353889,-0.08716789105047822,0.025373269864058114,0.2139899261286272,0.45546535100465546,0.09221663375639268,0.3116262921839772,0.5044404745975439,-0.2537405274783607,0.5950412581531859,-0.06885626391951354,-0.2550552609454904,0.4868513894899499,-0.05430101993852057,0.1661069659623184,-0.09689834817671228,0.23005876801468683,-0.13749003720705796,-0.33420159266972865,0.10408893370344466,-0.184749756077209,0.14908489036539602,-0.09466146206513047,0.14092976057436443,-0.011029804488061021,-0.1636628066761797,0.1895250535399454,0.16982305415730864],[0.10322519208174809,-0.23269785077607893,-0.03688902760446955,-0.09230580530414373,-0.2352486968748052,-0.10657530997763119,-0.15373606815388993,0.23345773104399875,0.41730012732651744,-0.025798940847469427,-0.32450705514232875,-0.142831173982183,0.08051752555582789,-0.021781467812189977,-0.05642993326598738,-0.3701841048446903,-0.1328594953170545,-0.2989246054392368,0.29477136959852074,0.28872490569349185,0.5040460681847614,0.011934183448557933,-0.5230281286181967,0.10435620691822317,0.25848911217821935,0.06717147441159618,-0.08064432911590194,-0.03838845716067054,-0.3061460738532601,-0.2728850131567739,0.002385826766091184,-0.06717070698975788],[0.079242644164059,-0.03511563361048564,-0.28776595663828414,0.053650856230231574,-0.4821397963586489,-0.1986554756679475,0.05178327427981549,-0.019729700277221207,0.03766994625732619,0.316729029853542,0.24336094287238513,0.3055746260327687,-0.20147232454089906,-0.2183052752493029,0.20505001351752403,0.09338385663361384,0.3271813087738003,-0.35414754169592016,0.04584660817921483,0.15950534435163446,0.2922087554545047,0.33434777408561006,-0.4853387263695929,0.046255505954672295,0.40099159740980034,0.5586277148024883,-0.16322907605328874,-0.12733169718312673,-0.027734408501937827,0.16042088646942795,-0.08513548953039561,0.05080279187391316],[-0.08402960532843037,0.5016273476559657,0.07194116343170741,-0.2164806259544892,-0.24672648120271254,-0.10507140232605738,-0.22545853447560446,-0.305221629205735,-0.003696328087287349,-0.4630921124649142,0.12367880775471671,0.05353261388249115,0.03552162822605517,0.25034042325773925,0.41091238366883764,0.2593660350623379,0.030569912494449403,0.25043314353302254,-0.33398461927842465,-0.03852678105168857,-0.3514060442778537,-0.30102208241271633,0.02194661964623248,0.26133594057898935,-0.03356109438644713,-0.6306837135376393,0.02012026334547406,0.03599735444907421,-0.20880678597380622,0.21451846310146327,-0.2933919710126849,-0.31229103043185075],[0.18344043122884704,0.36367286505207075,-0.021131868370222674,0.23703649938380028,0.10175278351832272,-0.11200049942125317,-0.12758867347417924,0.08428368143983675,-0.37730532666326194,0.1121837990167215,0.2627873658059345,-0.2919524442013629,-0.1431112744180127,0.3698669110565569,0.25576071136225736,-0.08238060955314473,0.2965922217072581,-0.24850193882192373,-0.052208130017980095,-0.06925622959568492,-0.12435701218541956,-0.006270667929816869,-0.0960552062297902,0.27562756932672333,-0.1816641321319492,0.07897552283026327,-0.16222822550186197,-0.24523337107078982,-0.1407854215127395,0.04395631757768483,0.08663752033077492,-0.2236837258941499],[0.025514718715456047,0.06633288706473331,0.4229785702370054,0.02678723939188233,0.4372009388175266,0.26494970716866245,0.04756715041344644,-0.01789821397354,-0.12841256698055062,0.11185989425019993,-0.0675957556355562,0.16055166481855515,-0.37390331920656533,0.17389499481344592,0.14968082720945017,0.1994885072884412,-0.3800933460747966,0.33827854907521815,-0.3331930339828908,-0.02426093653097641,-0.2259769339263172,0.148668139786246,0.05333735619580754,-0.16629737891397492,0.2903500979042253,-0.3720724073196954,0.07081173324807283,-0.025161907987374003,0.13390432375282527,-0.06419284063616301,-0.09393423961655112,0.08876337246358439],[-0.12164806834600717,-0.12285236748477835,0.3858746879185907,-0.10995297336540555,-0.5371734585279727,-0.3637422919136918,0.09274283472799374,-0.04911138237872102,0.022793584895415536,0.012413336384592376,-0.4384680058643162,-0.32504958250172383,0.049757264522139334,0.3329719895924168,-0.1370772234613109,0.12506835771075525,0.045864582036948376,-0.08572634563362247,-0.2214232891964844,-0.1536642554272551,-0.06510543882825273,-0.13046631709126746,-0.18129001057437566,-0.31950031597767764,0.30946767815534254,0.3861480407643366,0.00198431991198407,-0.22771508687450712,-0.03357156922627174,-0.6841625209937626,-0.11565402491647112,0.007808599158153951],[0.17221113654963965,0.1634845448976033,0.02192937473446619,0.3703108739802363,-0.035663296788550305,0.22506314006200187,0.2606157532661064,-0.14527686149590638,-0.16282859523589427,-0.024402039748019026,-0.0014094145070479155,-0.14821769360315393,0.18360419983459436,0.08102298476355949,0.1280098832016366,0.1746185240566401,-0.3035564196879239,-0.13693410427215671,-0.06185871737806976,0.3551529980907712,-0.006688521033674613,0.12652835683330846,-0.07344469700575698,-0.03433426048347427,0.003644819460370593,0.04849044263122905,0.4329481393476775,0.00034380005820060965,-0.0541817711215039,-0.0014675374753644914,-0.2817435666435447,0.076860157625181],[-0.18070833243089174,-0.5653896561173142,-0.06891399714789775,0.3112065568772617,0.020204502513622026,0.09044311422175305,-0.1377335520833582,0.38133416792721747,0.2821492490456872,0.011450436862716807,-0.6684231557178212,-0.629399989352771,0.08223455461372352,0.11374293813770811,-0.15046534305302595,-0.1629513906788172,-0.10375476995843039,0.02342740406078795,0.22898556895657265,0.3651046046718471,0.5512841998647653,-0.37216881543464136,-0.07066486499572144,0.169505870698872,0.12137617768161071,-0.24472844409559452,0.0173327799707455,-0.09883092841732365,-0.20938554452244898,0.1252932046628312,-0.19013265915732672,0.1303479847409217],[-0.18633106556320367,-0.09800087801151534,0.038416690434248085,0.28252379824599116,-0.06684870545873714,0.05657631544662721,0.135154515022252,0.2916875331893517,-0.20597930328932573,0.2561731101667816,0.4264419009467168,0.2227542822081181,-0.254598962985356,0.3500242753862762,0.13947955359850786,0.21696933351544118,0.07168479578938518,0.126994154135296,-0.30842229180241393,0.0055052540727156644,-0.1654214167926209,-0.18804515193020702,0.07450857552939519,0.13556329579208534,-0.02981256566668534,-0.6501829524229031,0.09914918846157945,-0.19357777284706953,-0.07964919081624042,-0.24978984379370575,-0.11128149864389542,0.09743332626967724],[0.07283931437490355,0.19040245539865105,-0.38968771717281797,-0.07229368091366167,-0.017484165110296886,0.1570836511970129,0.029594121109050374,-0.2807053565468424,0.13526692689793754,-0.07670523070471827,0.454257367472163,0.39190370291699295,0.3358565874938053,-0.02500291440417705,0.054485985300622305,-0.5800183471908339,0.13536851239405587,-0.07758842642229434,0.29266492112655196,0.21834944262365544,-0.4899061793008427,-0.0056335577167937355,-0.1308751577672364,0.12199785233995415,-0.44617732864448334,-0.060936237111875,-0.3776525138336505,-0.35119924554710136,0.18238471257709205,-0.25059834142331516,0.27610886716290306,0.30270550999959994],[-0.4555109494414183,-0.10412932321356169,-0.009990191330824854,-0.008266513590776448,0.3027553234202552,0.21444131963528235,-0.2928723567789188,-0.41062798782344034,0.09737853073103088,-0.23698780239482017,0.051909423423351975,0.30779695415678965,0.08042818509937691,0.1881339820804711,0.5648345858147302,0.16117149001587108,0.40728531336730445,-0.23103015146528297,-0.10445688216757487,-0.47048094708275384,-0.2025501518079838,-0.29801679749375126,-0.32308045738119234,0.06869174211548576,0.1285271287074814,-0.23463538983421653,0.40692498816452183,0.3680551049014493,0.12157845172660343,-0.15940736964986396,0.4764073828484782,0.3157987787904019],[-0.8119968017366609,-0.01799566114333804,-0.09616708980852477,0.11610253866577545,-0.20943794577845273,0.08459034941072559,-0.16375104832204626,-0.14931197580615446,0.4317541645150566,-0.12420353246028011,-0.5644621166510057,-0.05115546135190118,-0.2226189754804762,0.3184135358712851,-0.20407175947783318,-0.04148722953073179,-0.3884282593154455,0.029832794250094736,0.2747435711119761,0.31762277662416355,-0.1304429307919451,0.07608350236121542,0.21474233543206686,-0.296715546725043,-0.5857128628468717,0.1973746561537613,0.5271783011311104,0.057559037395104706,-0.41350624833061067,0.051107088169399455,0.25810277066197973,0.2439216197612743],[-0.25765406469475854,-0.026902002532921892,-0.35785634608691885,0.1713779609359707,0.241377359929737,0.27164376630968107,0.14840404466187554,-0.09263001683447278,-0.12721678171726927,-0.09277653868186496,-0.050828847771450254,-0.35791858001458715,-0.4525722403540478,-0.2937592831444668,-0.41550995058408413,-0.44894372028100266,0.15855340607832108,0.7273598989062026,0.24471883150173218,0.0736101152093115,0.05606097859322602,-0.05251462853586294,-0.22232651865752345,-0.18068009069987978,-0.12744727442925632,-0.0016827485459725898,-0.043106523616943476,0.10085535889704496,-0.0850120490845579,0.0811750891285548,0.592408087970653,-0.16898203719125582],[-0.07865862739680786,-0.1898143705634315,0.13732278833111614,0.4381619426360461,0.4151769028244276,-0.19309998684625634,0.49691913659834436,0.4158126486179651,-0.36561414402673703,-0.06614155161130526,0.08904115475477949,-0.06920503973044363,0.39747424989436564,0.07946398785781823,0.2870127697701225,-0.49628658434838574,0.1015105305234436,-0.2683141279232293,0.12265347247749188,-0.4111626362266396,-0.16597149559014115,-0.03369982175951425,-0.06356323414674003,0.06080516435510444,0.10135413018182961,-0.04039896165073011,-0.12704560973984638,-0.011441483385504306,-0.06944664401989076,0.14194926256874835,-0.16152476414014225,0.4900308332344084],[0.09130267228708809,-0.021049870118882617,0.19643526183423954,0.23743903128360816,-0.021925217179939116,-0.31873966177829993,-0.2891795100243911,-0.1907956404138411,-0.05673415485166594,0.018980134727067978,0.24152370460575143,0.035220980963974836,0.24611544873619012,0.10791502318584748,-0.24767765818686685,-0.19554582092831568,0.2007817444567218,-0.05440666939640027,0.3563247228202324,-0.0754503752959544,-0.49210546470192756,0.2757977809257128,-0.35891313104716277,-0.17722562034107497,-0.09034465170834102,-0.033923094763335895,0.003335992294143934,0.07137337744452761,0.13483453840925824,0.09842277062331468,-0.16791071484348208,0.25907372949916535],[0.3615420914329887,0.4866351876723326,0.5116423814170413,-0.032580388041240096,0.06526447203251899,-0.19081369448743074,-0.2108039846836687,-0.0477167528904154,-0.258528391162409,0.03827221095776327,0.08240079296463479,-0.6071260966909596,-0.1198334237496133,-0.12429005354674791,0.05250639862465478,0.17980454628852602,-0.06421701257925562,-0.08483204862322494,0.04478381487795752,-0.4271034956550025,-0.10599764254686699,-0.335522781010107,-0.11094471790818884,0.015772888729013543,0.09132049347339757,-0.02869229051637904,0.020624903931266286,0.6196208361837813,-0.017762659167171697,-0.21655610190651753,-0.2007188454954386,-0.08464988739019727],[0.13568519905910081,-0.2910203359234759,0.16046965642479954,-0.033506172864218815,-0.053757974847061074,-0.4180744283918757,0.520863916747083,0.2804578721806576,0.37580655614059794,-0.32241038993848714,-0.15761443565750582,0.0839586726253918,0.32867967431136796,-0.12065495579313722,-0.001150533277832653,-0.033535881674947296,-0.2831506712243633,-0.08033880135391125,-0.5781773101057108,-0.1254924002668734,-0.15366343656624176,-0.020809989129828597,-0.022772066167582622,0.2819911816062211,0.05448792674402038,0.36277344666402295,0.02740682180769181,-0.13508406441956722,0.25668752641429354,0.0834106519388411,0.056449023924766306,0.45062711419568935],[-0.12524289907213818,-0.03824152772917587,-0.21267362007096013,0.3420438281235979,0.006518122710133381,-0.45293793190078446,-0.13370178834056487,-0.2026523553189846,0.12418573876423859,0.016966908290105224,0.19473479122750245,-0.05485266165278293,0.3760227221750949,-0.5259920216199897,0.03207345705964991,-0.24417664120036012,0.062231906895441745,-0.06148461060616442,0.1101894363562117,0.0434840013536334,0.0019763299918501304,-0.15006574815101784,-0.07634065739605059,-0.23284991964447674,-0.1810454837661527,-0.18771746746846185,-0.22447445361173304,-0.15186188972466658,0.18041081704801243,-0.5124739477599068,0.08679505399611485,0.15654231858631407],[0.32681223902013423,0.3192293103376688,-0.1672731755108878,0.3480669203042673,0.3343362453005042,-0.32490444135049473,0.00845471705538815,-0.3022210674955517,0.09106089935953102,0.05241224082780808,-0.19423334242752213,-0.02478308819960643,-0.20013411356741487,0.06149686648954587,0.20726309316622205,-0.0387130557701818,-0.1301229872888625,0.39569667860484103,-0.45970452382313726,0.1603918463293939,-0.011252814843147736,0.1886352809548487,-0.1715073508948314,0.19063397086805847,-0.053893714752493375,0.5745235677229665,0.33511066757371083,0.3071894128232667,0.09901197669542497,-0.0682409275236423,-0.21467286721973738,0.0892417849864784],[-0.015216342918870302,-0.0878032965213317,0.43945178923085093,-0.22199583628469485,0.2579724753713282,0.32459355160520353,-0.12730288770471052,0.13548949952236533,-0.5216783955968629,-0.02495977002823931,0.17495084365789118,0.09927690403042198,0.011697415791566503,0.06954462628724227,0.029850820068371104,0.36604040334655735,0.18648939209012602,0.14228117243682273,0.029138854861195745,0.2848908870828895,-0.14458215706264582,-0.191239218097272,0.2542356020965835,0.039532082864638295,0.2864846746023787,-0.004531923839223933,-0.27390588504068264,-0.015451306824360493,-0.5261638924562543,-0.01998389723562701,0.18994435763074852,-0.0033260169979881186],[-0.015794504904920154,0.3920367341838842,-0.06890399461768813,0.0689009520335445,-0.3611087544554133,-0.10740194413348102,-0.17124553966298256,-0.04856216397809817,-0.3516303509737856,0.08595253838159192,0.08290891028320825,-0.380134571597642,-0.671580880543998,-0.32116876430621794,-0.20687850901804855,0.0877770316680966,0.22546185708517513,0.16455513127279864,-0.28683119017330716,-0.18131062573576023,0.1674450093552093,0.30549763850631956,0.30238386502537506,0.1642847456629105,-0.14315061132976864,-0.1216663858404403,-0.35315761511228994,0.0635472113785811,0.022859483173349182,-0.42138720522860046,-0.4242472787755953,0.27045520546137547],[0.010939092289540063,-0.23135550758113738,0.20326968227643535,0.11219917543340113,-0.4482789445617817,0.08343107373406924,-0.2714122892790704,-0.0605368795832482,-0.06158254414833959,-0.5122354888593539,0.4061358429983234,-0.009749210670521206,0.43423125860287554,-0.4241329669404369,0.10455232943803737,0.2622936110713901,0.18373438840295264,-0.026373804982293955,-0.311972250438479,0.32576021110347875,-0.48568856474737027,0.6451416215283172,0.12744426162516753,0.25772460809333536,0.02859062589412919,0.14077579972992177,-0.07196257213886977,0.2228983539731844,-0.2533672370286874,-0.09588991802987494,0.11021457698478283,-0.5878967996072388],[-0.4442637169887428,0.21324844593426942,-0.3313645120676286,0.4939324905341423,0.16293438168780153,0.052710076500298755,0.5202565303659146,-0.3829709857839255,0.25134117322937466,0.11182420935942904,0.11952117887255295,0.030231163755803096,0.017992336505896298,0.3257210621799047,0.14689972189056238,-0.33442498676320426,0.17484419651520586,0.16479722214373635,-0.0013286793371800618,0.26718816314527694,-0.302220663520716,0.5035988349003637,-0.3165105461762262,0.20929840142337475,0.20350882157468794,-0.18662866345898782,-0.2663286222627528,-0.07875532680899829,0.21404988349353188,0.03757819033311066,0.1731119177490252,-0.5584938278108087],[0.11643825347225462,0.0505157432996837,0.1664572588054201,0.14873226248167815,0.1440275373963315,-0.1526514443299069,0.21211703052505884,-0.01752972005048184,-0.11439691766470453,-0.08292405459477421,-0.049838107738087126,0.10468468911753125,0.08483611639836643,0.03675109464048003,0.2017107630232094,-0.09949913191668458,-0.18225457040212528,-0.23073502190618103,0.09118915181803741,0.3383519577550421,-0.023577000846264535,-0.2637199903130454,0.2909136151020756,0.14055353601057846,-0.0015389781960946567,-0.3329342135219213,0.18985293472926584,-0.07269080502978865,-0.02321767297615007,0.20861176194745695,0.10084270478411608,0.1345869578940695],[-0.2933474443734442,0.23075831576193012,0.20721376091097815,-0.1534159357851342,0.005713543416580461,-0.4654772412512003,0.004579017999378587,0.10777572471094336,0.1556444524721728,-0.04067166363730837,-0.13288859410219336,-0.4228918929964701,-0.23519515810131444,0.34030878548318905,0.029038618839817395,-0.1685280972568209,0.09540414322676737,-0.1925078685287842,0.12398290442720473,0.16560403055935738,-0.316697765368471,0.26480297606989056,-0.350720118251515,-0.14592713986122355,-0.11387124939865526,-0.28870696242314164,0.47822177574606933,-0.03464090832067804,0.036343510175274894,0.09444079736056216,0.11565923806527172,-0.20935667505314698],[0.33069918054636904,-0.24443677966943533,-0.19219961536611532,0.39611806365529806,-0.5657324725916928,0.06473021693149522,-0.06546365892961321,-0.15028393882701718,0.019163665395409726,-0.10571928808525412,-0.1469445730440441,-0.11973478607347704,0.22576861663411693,-0.16868880592929353,0.13828774034559327,-0.36837480870087297,0.1542165242345635,0.7111033460546261,0.2775968657047613,0.26125915673417416,0.29507867790320935,-0.028460683410915885,0.07271871003890379,0.12039091999918726,-0.04824536124222313,-0.03973450027732918,-0.10231102864800891,-0.24868696769677626,-0.1762729160246049,-0.15069061167818795,0.015193666026288364,-0.13905542507328014],[-0.23067454186407343,0.21906628053777863,0.11053834347404501,-0.13678669722652045,-0.09212923433395936,-0.647404527751477,-0.45911722323934884,-0.21927839801542132,0.08641734593884198,0.3199217401950746,-0.06434806927705432,-0.12009822956904018,0.27651222111788964,0.01435097612017452,-0.09060142581334005,0.1345025851620725,0.2792969632179838,-0.0021335338617842676,-0.0865047906776406,0.6133590936405234,-0.13214439998556643,-0.3113993493230589,0.14595076554533404,-0.2689051694477218,-0.10126685200275336,-0.04467651819201211,0.10839933565984078,-0.4697113796432165,0.41779808246220074,-0.18234728096543049,-0.26276623902912305,0.16306013947727035],[-0.34852512795287965,0.4325337637766426,0.39731784880546245,-0.22430513045647968,0.01817436219105295,-0.1817413118210217,-0.06127759963136703,-0.19052757261235664,-0.3903107068634999,0.2598474825036505,0.10234308853442996,-0.2512680006586535,-0.12323852532891715,0.0632507114615958,0.2656839178930806,0.6742243740362774,0.02286804905514038,0.13972258957778483,0.11354753245968367,-0.2218579292490443,-0.12995789589612164,-0.00908850233075682,0.014247631952026187,-0.03437008694054266,-0.3665995711744195,-0.08999358752736443,-0.2864781713090194,0.06131927453907244,-0.00498752766183131,-0.048893010516870734,-0.20538351373887406,0.15118003984722725],[-0.22822995423280334,0.1200278691533646,0.43804018650463145,0.16795812281459896,0.0066158465060827225,-0.43346801025041914,-0.0104860457068332,0.13558013084037893,0.12654807658806008,-0.34417695694200023,0.2728962775713987,0.0999072852841803,0.27842238418321064,-0.603480187569174,0.34176782129052263,0.22313887583778053,-0.16373178923586332,0.3778582293387675,0.16222337856223956,0.21099388957351917,0.11589091648104906,0.18160725951679788,0.30728048780383815,0.16502660941363906,0.03243609623018753,0.334615995175943,0.09806755590354525,0.3571407679453094,-0.1106940240703182,0.33093695145513746,-0.2603866581158006,0.08706715382705753],[-0.0015417335779215138,0.224757450865222,-0.17345776471190164,-0.0019109313987572781,-0.11110944888133395,0.017583964295577393,-0.1915390577496305,0.3850196940765552,0.17664120604831873,-0.06420783116600763,-0.07456171461496167,0.13314566013163054,-0.14419025150516593,-0.35704220704705725,-0.2424967618579252,0.12117461669935199,0.20342564555603737,-0.09216287425733377,-0.12666182543807927,0.1558427343370258,0.5154586692190248,0.3769136364331853,-0.1687016968323548,-0.2900816557319066,0.18622250429187004,-0.28145808303873127,-0.10824282965503765,0.4921004436847868,0.31542308926058377,0.31360678291324523,0.018295209241758245,-0.17846075995659605],[-0.11599954367035412,-0.3243588403177285,-0.08484840230234193,0.15095376991991172,-0.07572689928472877,-0.27378679349541474,-0.11622330356877336,0.4746088098631006,-0.08397509658598869,0.2162533560375787,0.036486533315556305,-0.5106268133706994,0.07852816282403582,-0.05294896904569378,-0.01781058381445779,-0.20082528833161906,0.3767738128710831,-0.14436135178720905,-0.21741240934680767,-0.4711782956352891,0.2993012355502248,-0.48628175303084925,-0.11852924663299884,0.29573326396634625,0.2242793170752187,-0.09114397980085384,0.057196719937047745,0.07584769150858811,-0.215759814900896,0.09775794252275478,-0.20177390665639872,0.11177041187616833],[-0.15955333034810035,0.18913216940448935,0.11959213919511333,0.33219895394143784,-0.20521215258577377,-0.025785123258365496,0.1317756073508616,0.46048379984659804,-0.181258186602662,-0.008643937769789256,0.06192101180691948,0.016428676380038573,-0.01481413996908384,-0.4077759959819101,-0.2295291795992174,-0.17377271232227418,0.22535400443067627,-0.246393702208851,-0.08326578768415333,0.29776344811135236,-0.3186639291643879,0.028873695069651557,0.2835075379954842,-0.1584887237244491,-0.13543466906782514,-0.002801177175818113,0.24910833121406867,0.1248109632222968,-0.010110301095293966,-0.38883657208684036,0.21181810557668665,0.03872568388851438],[-0.32646660695931967,0.2718326355763801,0.08983897137135283,-0.3153179365380016,0.3326792713898622,-0.39227601048398547,-0.050509449608744074,0.015646891135499368,-0.0794479030600906,-0.29785764120896774,-0.011785863816181184,0.17151287871831145,-0.03545673542886667,0.07373433672449885,-0.14397627139625635,0.040967540667657516,-0.10409836960551211,-0.18356397815018097,-0.30030870725597353,0.10274290977206747,-0.06646258818541383,-0.23539506944875013,-0.07240893128226845,-0.30314290307053493,-0.10440778762353757,-0.2748902429001467,-0.17040451858103822,-0.0025945506270113943,0.2973015242827928,-0.2750692175241624,-0.09365541864886252,0.05516421590131096],[-0.07529143567472725,0.2788014632676363,-0.15454273434808918,-0.09818041263140408,0.3450029292382361,-0.049576455949675254,-0.09998887347373175,-0.3521161995046516,-0.21666187093536848,-0.17211987845145554,-0.029690639556266392,0.06724882911161592,-0.0029356143716809924,-0.1802738209993811,-0.1742002474760061,-0.1146861912685949,-0.31660002701713447,-0.25654322567506743,-0.011437090180918364,0.13149448147255477,0.01885595976061314,0.1467869034299483,-0.07700641367629793,-0.05478981647115954,0.11683567166163683,-0.3435943959953881,0.43823581655690247,-0.004562924501195462,0.23752380979051912,-0.09436968232092542,0.24760232749575503,-0.27521929394165795],[-0.44259486491909444,-0.11870750757356578,0.17968495832923423,-0.12612155940765649,-0.22230809809488866,0.26180237406533985,-0.1482477135468524,0.4000774145512586,-0.07443300523107273,0.3063127792937282,-0.1324796784449617,0.09370503265288273,0.2666884189005298,0.14967657007516758,0.03628761082084685,0.07699377705272464,-0.22279129899907363,0.0543439965352065,0.07983153473776199,-0.014052411431620908,0.1311245805327731,0.21147449142929114,0.1923927774821606,0.29510710788938077,0.011581542538705754,0.0048839569114167165,0.1184030521514092,-0.3592298160288031,-0.17055260078780046,0.12294384591950398,-0.07480498203096461,-0.1606799248132379],[-0.574412756905288,0.39127308955090384,0.11000221681412642,0.05752990820248926,0.26733835359156677,0.056072679000564916,0.12414962963190868,0.13620979764619193,-0.17325609065348666,-0.39240177747638855,-0.14365054705104624,-0.2816275409178284,-0.11216364559857278,-0.5400515513450233,-0.22004355856649868,-0.15621026846473696,-0.0156207072276327,0.10478143487189075,-0.30901322484849525,-0.07342043100175304,-0.16398905776652933,-0.23707858078861127,0.24623131801815026,0.3517467681609496,-0.0379330208398486,-0.08300043138404584,0.12785655665992637,0.08528729009685464,-0.10226869492369856,0.3335679051068359,-0.5418014815143539,0.12656329924899348],[0.2020252933640618,0.09603440395067595,0.136871509305926,-0.21039860730082288,0.08700506918720587,0.053187414932651264,-0.17857757880963132,0.11864455993956309,0.059650017287055816,0.408385324107132,0.07453486083263508,0.3698973070265889,-0.058227732527394375,0.2670319649262614,-0.1106137871088076,0.15710141928486496,0.04533431764766399,-0.1976731826683621,-0.17340310917077795,0.06830215282791532,-0.025693307422823438,-0.13508171219308926,0.2573991070051484,0.3330203281371991,0.2717203769348666,-0.09397893344267604,-0.12168135936404714,-0.043152069975233596,0.2764018044214863,-0.03900800523868786,-0.47994563882040553,0.29510305382727925],[0.10861122305968685,-0.11819237008018738,0.288558842163106,-0.21270847749007207,0.24193027384887864,-0.04927943671107169,0.586513282208402,0.37845335939819597,0.02222567080312359,0.027458640844551997,0.11531979223962757,0.15311024766670545,0.46680206897995685,0.061769226372879245,-0.3611871493342767,0.031450381122224765,0.2879464798260813,0.04511917765970096,-0.2077326424474297,-0.15592802415080606,-0.01739534058397363,0.4338104087269176,-0.009527412265760855,-0.09480867558401151,0.03874909499415745,-0.16581967038307457,-0.15643993277695822,0.45164012969873846,-0.2758079091908975,-0.24323350883782874,-0.030194634805009984,0.18793040477592113],[0.24023336107512944,-0.20219445991977034,-0.2962004645316167,0.3690845124552673,-0.13285296038176855,0.3945125210736208,0.10322110888981147,-0.09734094136760861,-0.13959507275654398,-0.3030998596456781,0.16307226953662426,0.045688727187343674,0.3542391321142754,-0.13026951932788278,0.3375574309258822,-0.12534852593005968,-0.18669842938613765,0.17397471547461887,-0.1534761280441677,0.036787367240850063,-0.05246080104836268,-0.0019168549762037402,-0.17070419784902816,-0.12648054137987513,0.1813192159633247,0.00020329056324917756,-0.10766976120335618,0.14088159390288313,0.24157780027182274,-0.013014253988499223,-0.1104715837022552,0.16633245014537804],[-0.4280348774866938,0.4634799709518191,-0.327741721943415,0.10764839484235385,0.12851044660503788,0.1186729691498798,0.08306131796067912,0.3370895758763057,0.30424202540981904,0.07857186318597964,0.17644254219900835,-0.2186468361956334,-0.10677790234624791,0.15004409102520758,-0.15114694929588526,-0.1827070747902052,-0.17612217644457423,0.15611505951808843,0.0018789851764421889,0.25734760044864197,0.01473380549616553,0.2484492971360723,0.014497756831839131,-0.26661743158306,0.10047803165761184,0.16104196981993862,0.25577585964727606,-0.15113161167635727,-0.15813848241176842,0.3436241888159373,0.31174722616346195,0.14170599926282718],[0.21379625918581277,0.10627710925680948,-0.1355107872201093,-0.24448801508013304,-0.20085432986266977,-0.38105147665246325,-0.27005359485769403,-0.44904171040492347,-0.31641626514279186,-0.11030340953338488,-0.10327325351199278,0.5215086526016176,0.05032734129715235,0.1087011726814396,0.3390852633889516,-0.08631055302348867,0.5638728716661173,0.4101297845293719,-0.0503407486188924,-0.011254555156669914,0.020737011458589718,0.006322680765417676,0.11155456863378299,0.06607150209574916,-0.4698903879063262,0.4252617487231446,0.1362107345173555,0.1190391723519889,-0.3925781874579645,0.1611139235893663,-0.36326633965720245,0.0027465470342294194],[0.24497462604530373,0.030284058430091947,0.3375306736191614,-0.009044714185283338,0.40434900701836335,-0.18168669440712323,0.32852557833722773,0.31303371753887,0.27851470681725554,0.6041758987761535,0.06836111518390757,0.10014497375182684,0.03406468016113281,-0.14021785368470507,0.4088936765921286,-0.33646760710023155,0.9041064794738817,-0.2531050803157235,-0.37758320379313287,-0.32591012655121565,-0.27213721768912497,-0.38136830204702177,0.3238484982272718,-0.3401521451523374,0.13645991740683722,-0.24984204778482225,0.2848392218125777,0.3649074368756382,-0.01666437545415997,0.3474577725920451,-0.1262425289166802,0.04909929647973577],[-0.18642649357569074,-0.695447959480098,-0.4120497821629638,0.5518489947519418,0.14923134911482197,0.1121129135055968,-0.07082856280499375,-0.003108836636203357,-0.18825830070124774,-0.2989531365902011,0.1422282353536091,0.2591548975877106,-0.3589339065612805,0.2913189376905371,-0.1083748041359571,-0.05047672838472622,0.006239021225220201,-0.1660642024936413,-0.1994300696007183,-0.10559775903535883,0.051002817940358026,0.08663449618737591,0.09864653410443532,0.23860537024261794,-0.2500372048087309,-0.22948657448914345,0.15525487609356803,0.35955704834212465,0.45703434571238255,-0.03292589386183512,-0.24572244575261876,0.29965599632309914],[-0.2571154761033149,0.12995934338551304,0.09919292988987126,0.010974980743286301,0.1748771188807295,-0.3234473774664535,0.12702688597665632,-0.015179655189364875,0.4223891953088348,-0.6144020653472144,0.19795302356041242,-0.1307683775721193,0.29214577849679996,0.45261185441692936,0.15220549479569995,0.3420151625196983,0.1976007087131659,0.19258422865559222,-0.11591761791395752,0.09474937442052388,-0.2611137179108654,0.1088713773417828,0.04953629482168829,0.1470071091994124,0.04794042054251884,0.33037253968368296,0.31387128923588864,0.04628392431144219,0.18728859592585387,0.30688680388021317,0.004982455326796745,-0.1503800153205323],[0.17415572833256282,-0.1309712788957425,-0.12956705864392307,0.37203158076545645,-0.061658265701075465,0.31349128926061354,0.08105314058020845,0.18297227636612548,0.2648553225614421,-0.08564286714328789,0.4445100025126233,0.15289366094048762,0.2087208668249922,-0.4578533841818061,-0.2820083980615668,-0.4130673225305204,-0.29374078818869664,0.3453772327747006,-0.0494850050586506,0.13427981058179142,-0.291351860593545,-0.7513395923870363,0.1790379811649201,0.012060776199049031,-0.44304542961149423,-0.10399255760226365,-0.5064675634075613,-0.1751624531527468,-0.24431554110214554,0.05208942250093365,0.20950893593383665,-0.37090838674792903],[-0.32613852740330207,0.2848461677739869,-0.3360511325921215,-0.005388496937066668,-0.2814783592060032,-0.057187016038470324,0.11506307128582575,-0.5707039939754001,-0.15870315037531216,0.2449117522505943,0.7675878530836091,0.08164950266040467,-0.24349934601457937,-0.1181089267004268,0.510998291569708,0.14652152285406767,0.22250626810529403,-0.1410537759898782,-0.31573350089052593,-0.14341521967305343,0.044714337297424286,0.045437371340198776,-0.13345065082612165,0.5334995536724715,0.2748459990764422,0.24726604497313107,0.11356355656609277,-0.020995594379476363,-0.2952102309637816,0.3419413934894902,-0.14855736554726365,-0.13891261752334785],[0.13477187587005832,0.3656915267223024,-0.17572558410307063,-0.13967277677675471,0.2809198098558478,-0.0028839935048147023,-0.21872314682870905,-0.2015003339403139,0.16543638843607483,0.06490237387091664,0.21042763887705324,0.04049583956238533,-0.22985657517001098,0.1267865244956584,0.121381179627022,0.0009270068191673771,-0.055845148853012894,0.33690699058754114,-0.19209837364721746,0.2750615925528069,-0.4056912896358893,0.19266060579329622,-0.05389064275683874,0.04652780867173206,0.03553898473587302,0.022910552591645848,0.10050535872207135,-0.24008524886773336,-0.06733672797580581,-0.15596101624807387,0.2679075461683331,-0.24555269383765366],[0.15529422644504384,-0.44845021145598646,-0.1042784701327902,-0.008190353827767857,0.3457925333038686,-0.04929463544763983,0.09557483929840513,0.3912811215836221,-0.21351067328740056,0.1270100984413659,-0.06996422427912961,-0.3032488473715919,-0.00239664276192516,0.3144461858869974,-0.020877815471830322,-0.5677743547536462,-0.10062901830655434,-0.1610049348708376,-0.012361050662307721,0.0056133508195956965,-0.25677570865750216,0.38866532007846133,-0.15652519868818254,-0.3594578178860254,0.19454661476717539,-0.1709912767469085,-0.1778218610260684,0.31089011286235996,-0.01812027783540616,-0.4081804911969218,-0.023174496510342805,0.28339027065717226],[-0.2437321923256269,0.17919469007655406,-0.11800407513207142,-0.2543568117980276,0.21442130082285643,0.3201913762338091,0.34430053540349637,0.1563676559394966,0.6241138440741547,-0.10312642577967791,0.005219752704492092,0.15650240618921188,-0.045939980885921376,-0.33349796550378047,0.032542917917385526,0.20663676827349495,-0.38112271796824004,-0.053992181090525046,-0.02696503137796387,-0.2877583566114588,0.1267575913318071,0.017086623677973818,0.06290533650848257,-0.06437646706217919,0.2024361030801209,0.1582966770542135,0.2014111859633061,-0.2844442377741454,0.09906336173162188,0.3689987641689378,0.21756504385481876,0.04050314911413766],[0.021241699183611223,0.3759760829152957,0.2305523741257918,0.2167008362328246,-0.05437741373845163,0.34374320552891185,0.38850060026719313,0.43848604368542926,-0.37958656122508827,-0.17506148104614905,-0.12091392773384828,-0.04373849967563575,-0.1989706726918304,-0.18092587347404998,-0.27695293146387423,0.015914384655883428,-0.011939257124942296,-0.34708840957789744,0.09209388614512865,-0.43141732729343973,0.010189142377400415,-0.22965612179105271,0.06108480542221649,-0.09789122345162239,-0.2772435794729741,-0.259362087203359,0.03505449987628571,0.13024639086889328,0.02496684662617674,0.4064838301051124,0.07765271580314155,0.24549519732447678],[-0.18906748447954622,-0.05850111043126871,0.3767515370201072,-0.05017378146352081,0.4916926554432119,-0.02433700651474343,0.2675364963508482,-0.49188180082774113,-0.001772562002089839,-0.06752401174688596,-0.29944240788126636,0.08254856185085323,0.019575268102128125,0.05589984232506245,-0.32814762685524623,0.05728202555438368,-0.5786330195667015,-0.19114912809696308,0.38336322590722033,0.07630438827341776,0.08922109678717154,-0.228140309265577,0.5531870662115789,-0.27394568669347946,0.48480505066992075,0.22213575053004905,0.12447846844793425,0.07343676553714851,-0.21752597025216908,-0.28610110761677454,0.032450934145549996,-0.193306622169412],[-0.4171845312864745,-0.08578592762926046,-0.04253250895393566,-0.2813654555268668,-0.15737781208062515,-0.15857466655721764,-0.17224657537592458,0.3348793666826703,0.08371066890543555,-0.14919355381586544,-0.21027839056808809,0.08966820992244452,0.10818828441752971,-0.014377262199955942,-0.2011095017884404,0.19804729966066978,0.3019963870122811,0.21463118026365388,-0.045680307199700544,0.0008641117970479337,-0.014192315085958076,-0.18862756209615655,0.0996677457664962,0.10083796011295305,-0.5227727096235807,0.23033911499272486,-0.30966758434695224,0.09842730025452548,0.12561440545843947,0.1434805316336582,-0.7093348079141627,0.24102231103997349],[0.30756656044608127,-0.12236500165128845,-0.10833511557650005,-0.22122219705783508,0.029554961532585147,0.11846492524037212,-0.16121854950863326,-0.02110250537437025,-0.12126515179556328,0.03214426041773836,0.41779421268111105,-0.24319068842758348,0.06674563291964171,-0.25385435035267306,-0.11191345736636511,0.04065850734235633,0.28774579178664145,-0.059050628848120915,-0.04679410039133156,0.1715961107134198,0.002566440962004985,0.06032953506099731,0.6016462016648629,0.055113559205912786,-0.17344516641219362,0.2506883636142843,-0.4618842943476601,-0.22043996571626692,-0.40212769989779235,-0.5060534760200771,0.008381496503641629,0.1778328784153752],[-0.11638776085992554,0.2952635976012462,0.24877951600589945,-0.10350226457733072,-0.17421129641092148,-0.0488380053336018,-0.07685637469640713,0.07252038521173645,-0.33718319151409853,0.3636104914585643,-0.1376576341519363,-0.08244844274762307,0.2085403661648547,-0.12244952777638449,-0.2060353906383129,-0.08156741072258915,0.3533529420011202,0.05091892154313146,-0.2963597985592652,-0.07888951581780808,-0.06579240701079495,-0.043918689926469585,-0.1395953190894648,0.30203907285571335,-0.27476860492096006,0.2408578877780922,0.16144340497650544,-0.026178590217020174,-0.20288123931660845,0.3345966035352322,0.1380549641529636,0.15453846770064325],[-0.3307385235109162,-0.1607285019771238,0.259612551406895,-0.10223022156628306,-0.04625187723191751,-0.14717836772402898,0.08764987492045025,-0.06374808542785572,0.02045426781466412,-0.6104643803489742,0.192509705751173,0.006730997949922199,0.16528601667424242,0.2149514967372219,-0.18001621287631314,-0.21678313986763842,0.00610586510411765,0.11418522580694321,0.24115026813469273,-0.13057158351191325,0.45654947545620056,-0.03171927527185151,0.01203971140404819,0.1577717542645046,0.013162184097940817,0.30824082350018,-0.08350584613176129,0.43009285802573594,-0.25643256155895167,0.15910466134316825,0.11604810930279609,-0.18341386807839646],[-0.07375406549411329,-0.02912954888022723,-0.18695877375205353,-0.24720561260329052,-0.26580158287162714,-0.1303382060827221,-0.04003073702242902,0.3947639386937702,-0.11190939508918947,-0.4474482379076499,0.005964855209034859,0.4078694660033158,-0.41879444875701893,0.5108015605548271,0.12571615126425564,-0.2832419552602839,0.36997653452458645,-0.05776669877451945,-0.22332323924529673,-0.2289772544647697,-0.2388889092187608,-0.04084657305387602,-0.6168327085461309,-0.31971480774593625,-0.10988662095706057,-0.32697378014647716,-0.5336118348736377,-0.00574988076437101,-0.001178784749149855,0.04283363929716957,0.317349471381684,-0.02480631291100382],[0.03583025270084923,-0.19885464097338226,0.306273542760019,-0.27786601691010676,-0.08757090322733642,-0.0650906058485726,-0.06529075807651179,0.35459470623454953,0.4612826703245905,-0.00554109831341722,0.13930930854043144,0.0877673173347065,-0.05056226777164525,-0.0827247479125482,-0.08866192909589894,-0.05498776845557173,0.046228842188426475,-0.18418942612185416,-0.21138407845031892,0.1472312818583568,-0.08205890546536378,-0.22372591472594033,0.4081563347914799,-0.16619186405063854,0.018161355065898936,-0.14429960082403553,-0.18937198921828372,-0.37498368493636086,-0.3054337089105177,0.5177420734005377,0.15477073815265804,0.29275820737278485]],[[1.2828872997320404],[0.25027578445713555],[1.1240296458609467],[-1.761774940505562],[-0.8061271239230233],[0.34983234139146935],[-0.2886438818942303],[-1.3071604578492508],[-0.18959699212609693],[2.4634600648293463],[-1.6871222943816968],[-0.913307322278353],[1.3437482379807288],[0.031489684864447184],[3.5734216036602775],[-0.8408184558403717],[-0.6000549452458886],[0.7076627193415663],[-0.03553239329957384],[-1.393035683914825],[1.0794769801297532],[1.4614915752335818],[0.6822042814660371],[0.7710674973928585],[-0.6949212178360584],[0.7764352496209056],[0.21714648314000665],[-0.05450854254970125],[2.4626098273461423],[0.44205354140711484],[-0.08175009683384854],[-2.4904040259721167]]],"biases":[[0.7667141302498717,0.5214702563362955,-0.9050728353697316,-0.4768575903103145,-0.579860854122594,-0.20239354120298958,0.27506225358903713,0.6144656741444986,0.9245446903997121,-0.6669383731392922,-0.6194308185270776,0.2902734756025206,0.21728006361663843,-0.6783663258574195,-0.4670276039971614,0.4454230838927175,0.0012085563626180885,-0.31560267573626805,0.7201242394420366,0.1860023738245375,0.5162473852630882,-0.7056094705762672,0.3009659324594152,0.869302462257551,0.6727434613887078,0.11084709223451372,-0.9706729104749933,-0.7035549829042445,0.6724568787425533,0.13138279272850828,0.637143248646838,-0.27893671408911347],[0.21772959625299068]]}