{"layers":[[-0.5020985965203933,-0.0691055250914595,-0.762403044770538,0.2116246070474137,0.13779345709345572,-0.11443049911715594,0.489582791589583,0.31305231600852823,0.7009769253472887,0.4040824427352004,0.466403276067369,0.641208211972944,-1.2788938266219896,-0.9396065448214909,0.19888605560495878,-0.6452081590450917,-0.3361029227283956,-0.0787303507743551,-0.6809157652492044,-0.5876173239623755,-0.45378227882314764,0.44061717260918537,0.06585598889448012,1.1656394606728733,-0.20892547394544755,-0.43202736961237537,0.8331746677151407,-0.17659605594425096,-0.5273374212300859,-0.6225042460787499,-0.6209753841821763,-2.114687991852041,-1.0683119452395105,-0.3104967472040564,-0.4237546851509882,-0.4297906895012019,0.4,0,0,0,0,0,0,0,0,0,0,0,0,0,0,0,0,0,1,0,0,0,0,0,0,0,0,0,0,0,0,0,0,0,0,0,0,0,0,0,0,0,0,0,0,0,0,0,0,0,0,0,0,0,0,0,0,0,0,1,0,0,0,0,0],[0,0.8000728643326118,3.3770209491907983,1.2943315233866795,0,2.044368970959881,0,0.0616948550016041,1.3948253489269207,0,3.0808871957633217,2.724502046876307,1.878543697121568,0,5.105801053851221,0,3.3726246795311807,0,1.69900289422089,2.6889646974105195,2.075981728671574,2.9188024060638504,0,0,0.14745915213553545,0.5454100869053583,0,0,0,0.5506011485895863,4.153811792375644,2.7637157755945903,1.5609667084284387,0,2.6291744675352207,2.061484030783439,0,0,0,0,0,4.057108779376876,0,0,0.795594841227337,0,0,2.5376247628748847,0.08329247683077255,1.8556589813052202,0,0,2.2973077122283985,2.5557557157558484,0,0,0.3843217885278869,0,0.6476535172228131,0.6854687739246382,0.2033514651265491,0,0,0],[3.973308521723304,0.6441951679356441,0,0,12.379034607135688,0.5577529607526507,5.630095276729919,0,0,0,2.964241664754307,1.6396143273912778,8.60391002020401,0,3.594996043540738,0,5.4716521802689675,0,11.318772343034244,1.8254582407854612,2.3364812570177205,0,4.200815917466781,0,0,4.830866296133467,7.924841889936081,0.11490971050231383,0.17440029662603976,0.22307862651804086,0,2.7776981984869686],[0.35789176248122107]],"weights":[[[0.5137529013979498,0.6703398419103286,0.6171696834532385,-0.5894424826965418,0.1161828671352773,-0.9025345478666521,-0.2919440780062423,-0.379606406627728,0.6443732020638195,0.3500528572148311,0.7556200045111245,-0.1494467154952036,0.3504540855963811,0.8040784944293727,0.2670241367350296,-0.053080958006906404,-0.0062818070848882634,0.2706536723520127,0.6725187920695159,0.6876665600025081,-0.0764146364788008,0.053727849722284005,0.035845226447904034,-0.8441646740616155,-0.6948090759912185,0.44348889097904404,-0.129785507716129,-0.03835637015066124,0.5912411411631238,0.024589576314356532,-0.7552224773914361,-0.02649526257135546,-1.01596461434006,-0.15934965262507778,0.586906936689281,1.038256189590936,0.45835582383181406,-0.03848307481809995,0.9170982776793384,0.5379391411203344,-0.5195109310010559,0.812793060065925,-0.41783709565379695,-0.873191837422191,0.8483592398030536,-0.06645151505080288,-0.1490362624764415,0.5910849898546819,0.5358765043475937,-0.9298969190411647,0.4447233283545302,-0.11004954405587758,0.5543693009603204,-0.6378859813075938,0.44700326902090043,-0.06930613438634367,0.20821369981097768,-0.9432212803208219,0.259193210476749,0.812976239991539,-0.7692507591223193,0.9530199602792626,0.9508124099647441,-0.375266818060369],[-0.18225695100925296,0.19726960884928715,0.1897554909772406,-0.394428577924719,-0.016863806398397498,0.8826735842496953,-0.7420314088289112,-0.8206888597302925,-0.008192068395245063,1.035564485468192,-0.19095749393646788,-1.009345437591756,0.1725445435091387,-0.7906341202089832,-0.4221262887951132,-0.4953891498367276,-0.3324448509433156,-0.8051722888046793,0.12988394148948376,0.42367820789929056,1.0140468973119356,0.3338015775378559,0.2918298160429293,-0.338241668458979,0.07610982377369901,0.038094819758322546,-0.2821169743439848,-0.6173565687564034,-0.7871607687872774,0.6441451318028152,0.7656959551599941,-0.20233348356535952,0.33683804675131335,0.5921636608617935,0.1466097381164316,-0.4758340764985458,-0.3085817829704552,0.48815276196737584,0.3860147719492363,-0.4254554144951356,0.12227189967624712,0.4450100743629435,-0.6524970069084169,-0.5287365102740845,0.326675889918738,0.5071579591460461,-0.3538689354187424,-0.7503351565334272,0.19123846816475926,0.2740174046224043,0.31683112166375643,0.09540785180761702,-0.07131085848412072,-0.8346510157502308,-0.3616502982808221,0.79293360261162,0.5042318168786385,-0.051103919823393844,0.5463250836061899,-0.7306544949061522,-0.11710226288019492,0.1461495440701727,-0.9175837392603761,0.5092709987150404],[-0.33112168431554,-0.39232604484291855,-0.8935237415536068,-0.4111567025016111,-0.8266422933168847,0.2594835206450129,0.00688256644365515,-0.8890582958163405,0.8681018733081003,0.7763292061277904,0.012426908354140601,0.20910989024947554,0.40647371515503855,0.29155469710658527,0.3326139991584844,0.4320022085342336,0.5724448307018773,-0.7139273415636408,-0.30788566980203763,-0.8162404164811378,-0.23938514676848632,0.5618375679812838,0.009613486720725126,-0.7292313372581594,-0.7662039551001779,0.35951802804006916,-0.9354199896946337,0.2934647194360095,-0.7699038472214412,0.31848875230551515,-0.3584664573745313,-0.22793195618782075,-0.15089300676028924,0.2987238869318128,-0.6003202494809752,-0.8627037567178131,0.7237139514406221,-0.7264817639946689,-0.5210668376757246,-0.4448977230643816,0.0810698962739499,-0.6386078895806533,0.7113616085179414,0.6885026699369409,-0.2507574838078763,-0.720332158541868,0.9443458095403865,-0.7841718547140919,-0.26740074057883084,-0.8811589237875225,0.9020477382659712,0.9359269935523284,-0.39796934548849827,0.36026821665682457,0.1293747240661545,-0.38435979971032236,0.36349750580837376,0.5007981605952166,-0.5940424047745576,0.35062171861800107,-0.699161452687686,0.4408410093954114,0.2012981312784736,0.7116801933020582],[0.9097158181815272,-0.16833592369311595,0.44694163015920424,-0.8326225018925154,-0.6876633574163742,-0.3429519863351353,-0.6950692195610502,0.30896324219021615,0.7348645737605483,0.42979941713681863,-0.8002834648597861,0.005229892055699525,0.25012711047407993,0.09323552584974043,-0.5767634866927007,0.38470518010334454,-0.000040477512781069246,0.29577721097712734,0.8744536941902341,-0.8230575506296529,-1.0161564861121832,0.2961639950554385,0.06295065530677721,0.2855024936145481,-0.7113620146047337,-0.2563039287700016,0.44662106590157774,-0.09251220613427379,-0.022661404619877888,-0.42981839046579623,-0.6391348387458533,-0.6421166164212724,0.26468791061097546,-0.3061051608665101,-0.12144421396962671,-0.11442740953966744,0.1264576749784491,-0.18862188124531531,0.0691017198636406,-0.8999774501115472,0.4120939475011947,0.07814105804221917,-0.07573459778808231,-0.8595606447711303,-0.22022431694614625,0.041326320655470684,-0.1468662204715446,0.5355654032350441,-0.3512961491704677,0.6845150152083544,0.5954975960441534,-0.8021764428571494,0.3506281559718436,0.3718134308080584,-0.46212963613107494,0.8339174897661388,0.02784152507216892,-0.04719703421109833,-0.22703826602572985,0.5471105879418583,-0.7316966770169815,-0.4478043614819928,-0.08944431369155825,-0.7824921525897396],[0.7689155192825904,0.5156937441173609,-0.8762296878220187,0.2831724208504254,0.8985327990459231,-0.942753866567427,-0.5833711114145086,-0.11481373437686429,0.5246086663704508,0.9260183752107665,-0.03435625963666093,0.14936392581588323,0.8430215946314158,-0.6443918713372555,-0.7920982189154647,-0.4799106022587247,0.7377316552784579,-1.0596456252912898,-0.9486406661231297,0.43414849244937087,-0.35701641818474217,0.7526218717320595,0.0984638658954715,-0.6878673242174969,0.00853108745258993,-0.2992425900225389,-0.35172420804122395,-0.871584323529057,-0.9126896660249454,0.4193599611773161,-0.4450620759961725,-0.22541399526190667,-0.13390545536291834,-0.9902933839181237,0.11205108448515307,-0.8237689770538249,-0.13296534504127444,0.08296820565718259,0.10655411922578031,0.630115619998194,-0.5187605396736944,0.46697007884574654,0.39965086573923275,0.9563441074010429,-0.9125129256156446,0.4911139631344087,0.31481252645118013,-0.4448996862468651,-0.0240935484016372,-0.0874538753654581,-0.09758812956808499,0.23990191616516912,0.4052033443089984,0.9134071268369176,-0.9050678102045451,-0.11026489780617828,-0.3831025258132864,0.8259750513381439,-0.9171922365748999,-0.08468924836721252,0.18169059319735104,-0.3279389072773499,-0.9881758346414559,-0.2875765709995694],[-0.2705865384115115,-0.31945936808646386,-0.11658647122459807,0.28604096552311997,0.9814084762720596,0.9922111022618189,-0.14823755734133734,-0.1462320817049989,0.6621535857170988,-0.5884870439436025,-0.6158753911952393,-0.38770984411709786,-0.6266656110873119,-0.6518080157767765,-0.2970665151973049,0.31700423729592103,0.7136139060877367,-0.6580128720990794,-0.42813533067662973,-0.7793162884129347,-0.666722708648973,-0.8731427478122761,0.8732739936706029,-0.051554552654567196,-0.17264914306143203,-0.9652791451187228,-0.9184463343722415,0.4501036772941956,-0.7473165603405127,-0.39088220054763906,-0.7519467895507742,-0.7287329242420112,0.7640286766340335,-0.004814311222404766,-0.3579345053652516,-0.7348005420760132,-0.06744007339218838,0.3229048012358307,-0.1310724049560924,-0.20598609970961926,-0.09845408495526381,0.6724587483585637,0.09444264379023451,0.5999967302833478,-0.35282695117887913,-0.5020522305747342,0.6246030075479225,-0.23353370947265903,0.4774579019998204,-0.652728533626664,0.05977360271204609,-0.25723396963609113,0.3331156442458856,-0.7211770714800857,-0.8729744307338527,-0.20618619179576111,-0.3132011080605133,0.940909770385758,0.2084149883643041,-0.6538094234222138,0.19427988928752232,0.5258592359971224,0.27147259242620797,0.3931420453937113],[-0.7533722799659929,-0.38203663331097354,-0.06616469648599375,0.5758904888595893,-0.11361490211970443,0.6860251726516727,-0.5540353193040694,-0.11372084709014717,0.9683746648846345,0.4683329397192703,0.5655046479953979,0.8396848802039366,0.7039066255986569,-0.5856916751987331,-0.6737746093211752,0.3893959839055906,0.9701352086999703,-0.8024876370665684,-0.9010529551631642,-0.6212471883702296,0.25477927411901014,0.4503452986123351,-0.0057777604266707324,0.5138108438720363,0.17402845442919596,-0.8706517327802171,0.3562962370707587,0.47778861373735587,-0.30426175096979785,-0.07453915481609494,-0.6505470709034005,0.7870936867068643,-0.40194412672040747,0.6218150637741041,-0.0897337616534709,0.6957488971226389,0.2395090998536608,0.4033782859394119,-0.37714355742548805,-0.22892632930555523,0.45410392109199726,-0.7128411921522594,-0.7439358104425919,0.40097194644031275,-0.4430469145790897,-0.8434341961763712,-0.863043449731716,-0.6751859974440211,0.4401520144172073,0.4533867761963172,-0.7054753580243955,-0.46322596923398546,0.7407462875232858,0.5733381970130127,0.49550549572684277,-0.39779366629094676,-0.045472716030847855,0.7241466778228534,-0.7977898053957305,0.31033792683543193,-0.6003907944757084,-0.5045098318155702,-0.7737126886841492,0.2711007347667965],[0.33312987920054277,-0.39752433888968036,-0.6363091757699425,0.3571549932876756,-0.6874502510378513,0.6640157673035814,0.4503627247465982,0.8478981753749695,0.40901756552628127,-0.5987218334758457,0.9616653290125441,0.8370832956921735,-0.5265845421277666,-0.5471985890782441,-0.6123052074107665,-0.027531463314914035,0.27917772552277187,-0.3081657850937606,-0.01205878033674513,0.9224023833380539,-0.24815233086985394,-0.4081591467448596,-0.30949826295936256,-0.13954386694565543,-0.16783219767637,0.882986916583764,-0.7989830765188883,0.24884849652807137,0.5972832465575765,0.8224277857117226,-0.7751898136498302,0.7824683644890026,0.39987913914470613,0.3999985550403144,0.014029085985239421,-0.03610411586480046,0.2501854745244139,0.0467492536918474,-0.2389178534882133,-0.3735572556553083,0.4365811629154118,0.1413351032251078,-0.4399698344121921,-0.28202120001552694,0.2327941976519761,1.0357767939254292,-0.1238160049141045,-0.630269154126908,0.6826395350768538,-0.3243672124430521,0.666635705742968,-0.8448546853532801,-0.39575715659882377,0.6876096257891269,0.5379908046200597,-0.07652296392025892,-0.5628810195652683,-0.3434657882691428,0.45957078272288837,-0.05746757708469174,-0.3179606950871965,-0.8720318446834612,-0.8139886830598393,0.8311152126030633],[-0.7025549269058342,-0.23324003575693195,0.26945941490176567,0.5892936156825851,-0.9481326127892598,0.43474504742324016,0.635107672675486,-0.1317642432453616,-0.9144587387168965,0.2370611258237594,0.7685708795626132,0.27221901416338107,0.9049728771255832,0.9600811980893049,0.8322241173644033,-0.29082158007765996,0.6796206637398753,-0.14958523038508548,0.59888042455405,0.2598867941843336,-0.7821640772200331,-0.20817317192029403,0.2620514791559273,-0.28035501995743906,-0.5069652607034211,0.5378958632851203,-0.854638793594842,-0.3052175223321454,-0.8603156042366722,-0.6721200717610673,0.4365297780709509,0.9378527088394335,0.4813997913719451,-0.6908448178234462,0.08822596179186491,-0.01478877019848972,0.31332630764154246,-0.8307267923768745,-0.48159103855127644,-0.48438965336185025,0.5493844303496697,0.29983025660755824,0.25177833452636705,-0.5606670644303856,0.767133241238377,0.7038594243180983,0.2689049395670972,0.39142186040843746,0.6907044834501793,0.7321821017009756,0.7034512345163273,0.4234525102697284,0.9274260537568069,0.11551531577795529,0.07332779365254515,0.08310038140693868,0.4088538693032063,1.0041345160983972,0.5304747895731894,-0.4206865113215269,0.1339651924942382,-0.8494731020593044,-0.05307662094353669,0.36720719757957265],[-0.6452783580776307,0.4497215711700022,0.7757220573379369,-0.6512219876146231,-0.1204590741809653,0.0009809827617567495,0.12393448815434659,-0.7656914717426093,-0.09053018417308648,0.202473138074526,0.0010580955533819874,-0.7314194304436739,-0.7239540750651424,-0.2562610963404202,-0.22883341330960305,0.9069035597300886,-0.5910811905191884,-0.00012853273529054855,0.058671551280141856,0.9696210640225807,0.12646147665639473,0.004891156213060064,-0.804996244113431,-0.492801629129987,0.48154231659081315,0.15810903917897431,-0.4913779742888497,-0.17899373197414586,0.19345434844804768,-0.39608681197067824,0.7890101449513529,-0.7984767481874285,-0.022164550149653604,-0.07960409951354057,-0.8908956518056507,0.6990013457552223,-0.6374779258800556,0.6825350149708557,-0.1354656153673822,0.5498977822756487,-0.3537775949146266,-0.6596369062667372,-0.7241802080955771,0.262563966518419,0.9707926201914243,-0.9930925490957816,-0.5223770888951564,0.22703294529498153,0.14360063145902355,0.8443264999950416,-0.06234917035481881,0.6903101128166281,0.03452369174011976,0.1697387783366709,0.8417928960738829,0.008717306384714744,-0.038165427913032506,0.16196452347179766,-0.5409864936735976,-0.5851800516562717,0.2961796482940777,-0.5581426640836006,-0.7782942634730617,-0.45434168517504736],[0.978554195557456,-0.38511854281437624,0.29938309174140654,0.8083013326109956,0.16151067552252124,0.2817817099408609,-0.03446374376297151,-0.31242841400451266,0.36925220978937234,-0.07866512403206198,-0.9332419849776271,0.47031653085514,0.08279664214063118,0.7250250751943041,-0.40759280528956615,-0.8130517818832519,-0.3832384617031833,0.4472252033410471,0.5932542618155777,0.727115055775538,-0.3305892669870441,-0.3304966373320887,-0.3110476626408726,-0.8193442197985162,-0.7722144068735907,-0.47435498724285247,-0.36969753971791564,-0.33741081897049124,-0.6888278714594274,0.4527329118083307,-0.3987177635765744,-0.2814963327810976,-0.5059040492286409,0.7078349699815327,0.8264138913699897,0.2662419966422019,0.27187070899509364,-0.5662725901911738,0.3288780161842832,0.022073631614415584,0.1216087947926836,0.414202762625016,-0.12574289501306155,0.8367249651098717,0.5442026055046923,-0.13817513598981662,-0.7499891556498596,0.2879269693073517,-0.07968489407722237,0.6630747153782445,-0.20601400765833422,0.17079756893750148,0.043655689560379685,0.09154086218245676,-0.37579950713215887,0.11410956424913851,-0.855058851910415,0.0021547323978648365,0.6367676374646362,-0.07012249593574862,-0.4666188487278388,-0.7437347920932306,0.4792702133436162,-0.5463665635440158],[0.40853285556062674,0.6802377158428967,0.886934521794359,-0.5026534381812147,-0.13656210209130215,0.24980588227095332,0.5447561972266589,0.09965437653141067,-0.7436972811925009,0.30935351631807556,-0.30049359345328397,0.6943679085109481,0.8368412511479245,0.07003008140632395,0.8743453989752753,0.20527003336475824,0.7663979254154177,-0.381046429065361,-0.17350538688058073,-0.11781852712392576,-0.44420160456128654,-0.48201996081796367,0.7579455100433827,-0.7900583652497325,0.7214791468524497,-0.5420748985722491,0.4287679791102371,0.2506102350358723,0.19073356786460302,0.47660862918157154,0.691877943876739,-0.16107704680582308,0.296039938039412,0.3782776792686055,0.8970943754877841,0.11486800109216996,-0.4644062745312284,0.4063232921278917,-0.29923342508055534,0.38408934919594584,0.8315483609980556,0.15566518135421847,0.9545832872128415,0.5659012188196852,-0.994534817348053,0.9146934583536734,0.023367475742635285,-0.5711982319910336,-0.9495713107066394,-0.218221457801157,-0.34000150575841426,0.2393234568003182,-0.9000877714392249,0.10089207891424719,0.5372379361317384,-0.7204962775310312,0.5852817398459526,-0.4423977615382859,0.41314952376526554,0.8634558336905377,-0.2597454074350894,-0.523447907572442,1.0029793947382601,0.8533212533816404],[0.7319551085381959,0.2652718008150077,-0.8193605337654438,0.9231205592703344,-0.15858010289983102,-0.13508542122559786,0.887046344997823,0.7657949166484352,-0.025784358524532248,-0.49036909328435707,0.37716594188219166,-0.8293728012955972,-0.16023291955791946,0.09919972078013331,-0.23720536655655586,-0.05813007210019997,-0.8634870113467028,0.5793859975268044,-0.2654661183045782,0.09588952157088725,0.8673538999625067,0.08623548688804075,0.7542770297801915,0.08505674633377834,-0.4919354316114322,-0.7922884646711459,0.07925662706319658,1.0283056268709572,0.1715642351513603,0.21856220216502742,0.3343046376604217,-0.7304188816401275,0.1957275156890075,-0.29792011762808485,0.8029157545790752,-0.22981491212392072,0.9092917521726177,0.9388746456471955,0.3406743429011394,-0.8253276252350104,0.49141856382007054,-0.33609745709187283,-0.445337045940126,1.0059969118013186,0.06950847660270161,0.8275477162841752,0.6629385101465799,-0.8285079494319726,0.2239248209779682,-0.47762111726020456,0.8585612868502761,-0.25877085089301416,-0.6187745595716236,-0.363845514385498,0.06787719254261293,0.712711853267064,0.43463488214483975,0.8209144413467201,0.27536703456777156,0.7324428829442537,-0.011098521669863495,0.09560447631015066,0.9333168559372631,0.6480134176381864],[0.6185821597216364,0.08440199902266685,-0.37213855284164177,0.08153690502016374,0.4312733705379107,-0.3197277417145279,-0.4333006654794619,0.721499639469654,-0.8430413214991451,-0.3221156646098311,-0.5812444831262645,-0.2232517768830131,0.7444669910661119,0.979752555568913,-0.10677538077731008,0.6658031614687093,-0.8878712045797245,0.3880458306841138,-0.3553834300328233,-0.6899401993352868,0.13665934706260158,-0.6070142167021453,-0.5829079165264268,0.5585959977356207,-0.32917513084427114,0.09368237725368282,0.09650690981842326,0.14153470532383425,1.00680954811755,-0.8897337915079242,-0.8312788516417574,-0.8996709135255293,0.16423154225044498,0.44869796899175035,-0.3256150384541987,-0.9480850705133941,0.8850138944308334,0.9449979380106299,-0.43678785431279676,0.015536253673025609,-0.5845337815364146,0.4711607914816335,-0.2639309083378582,-0.006434853349481845,0.2201017037208123,0.25090225734546817,-0.7685311434519211,-0.41212605950576436,0.433074733032007,0.09899241141192008,-0.018224327556865937,0.17656122295440785,0.02969618989720003,0.7010486307441415,0.6811197614721503,-0.0994240705941385,-0.8539180877821787,0.9509055095328878,0.6248899041578363,0.2538504719589082,-0.8473697721429795,0.7084496775732817,0.750338337277039,-0.003436369785317449],[-0.48668973658258813,0.6029284057150143,0.903590356252142,0.15261911357815247,-0.12089546529998539,-0.7702329485438035,0.09653375751244672,-0.8129339909583799,-0.24641030276413578,0.011138113544720284,0.674702527244466,0.48301694387597727,0.606033577396761,-0.69085109349496,-0.43471027633572584,0.5519106697820095,-0.2087897732301129,0.4008955816252159,0.1724256193545558,-0.11303721392333187,-0.22218146075153292,-0.3174366489013527,0.1337035738843213,0.2749372378018744,0.5253876370562484,0.8718736936139686,-0.7221787292410105,0.5896534244806131,0.13912475400356905,-0.435152290099042,-0.15661795503173734,0.006700797358565348,0.5843895362130118,0.6929672957388942,-0.14848930461929938,-0.014989723879664242,-0.6831920449128316,0.41216807816051354,0.3692915181210894,-0.5373794113761052,0.38011734732701336,-0.5879047878715442,0.5545271219740184,-0.26668407759590923,0.6703287720909843,-0.044234799853261834,0.0862263709173819,0.740929724821196,-0.18081994476555163,0.658479873042515,0.2044119464583449,-0.7912921828472571,-0.5597110193221609,-0.2012150195800781,0.671635855256802,0.02398498545929147,-0.3310551225179893,0.18193418241425402,0.6020733759952845,0.43461986359553534,0.35309475200406043,-0.26874527004862975,-0.17174063004980347,-0.7287972760770193],[0.40456213882471653,-0.45755122944446797,-0.15955198209209798,0.21311013388843958,-0.09639475082803467,0.5607241242661447,0.853172722612973,0.10245464330232602,-0.6261357098095183,0.8819973005182133,-0.4372625203401093,-0.55793015101434,0.44482607266197455,0.16521600762958913,-0.25487940681437155,0.29780500942882143,0.8292041306847343,0.9912548783676013,0.05503097276807514,-0.27313546231424696,-0.9053374117477738,-0.7677918705971617,-0.20791019001134756,-0.49079981236405407,-0.4351159554102977,-0.8564828316144018,0.18053669195657854,-0.7902816855529262,0.4746427253750559,0.38810420961083053,0.17414770605008112,-0.5021883797174658,-1.003263695701848,0.6173619514237959,-0.18347151002913933,0.3406403227088092,0.551707950726023,-0.18976502138412865,-0.21206993382218253,0.7267379905866594,0.6919724817994568,-0.10460116027892194,-0.781578358205635,0.5493007392844075,-0.281119152112637,0.7238105774019467,-0.6054485656703678,-0.3932334923210767,0.1318838425409277,0.9101678486950796,0.23085617183330126,0.5190590158675411,0.9300846127039035,0.09772965749838017,0.8450280432185762,-0.0363722822105641,0.22368445551610935,-0.5491609556274476,-0.1166324084525858,-0.19860724699972984,-0.4162998371121961,0.0438677854416854,-0.23476313548055,-0.2774818232421449],[0.2874157004439222,-0.34672185245474063,-0.9333218900411666,-0.012155946814640241,-0.08095723825710041,0.3537343356637443,-0.742349088627881,-0.8588400525097141,-0.900818580320971,-0.8829148182656126,0.5141029633696799,-0.6525940489411388,-0.6343144566693084,-0.6401880910449581,-0.12010187536822123,0.5021987140691533,0.7926481526703034,-0.2899670582763204,-0.5463351426071978,-0.04829304562068041,-0.03065988425898293,-0.20820000790013676,-0.9811183999860356,-0.6612312785399765,-0.14677519218088522,0.7464936376311404,0.4082376804144033,0.8193267806170466,0.9725586185707978,0.22579010426379834,-0.38729566085672956,0.7597147589680948,-0.36620774255883687,-0.6281972394083553,-0.39779504727726606,0.4146134624733567,0.4503706485306841,-0.5518655467755779,0.5975481188016742,-0.5532596400354637,-0.8792623368103955,-0.6987359008262699,0.7522141635473175,-0.48631610651924223,0.06395427502790686,1.0159345697179898,-0.5741122287339316,-0.30886652415956495,-0.19743976687459316,0.5292126576452599,0.2996586298109319,0.24961596061077282,0.9286860871468764,-0.19235427633720256,-0.3357423501432034,-0.2681051430445056,0.6183780716504576,0.5101048974870522,0.7298427134667876,0.6184117469273483,-0.2841434478285785,-0.8664778965350401,-0.8447012997548053,-0.7781758978498807],[0.6349828427914082,0.17798224057640477,-0.316460411918093,-0.32576493114802624,0.7468414022263717,-0.08017978126151004,-0.4545558469644478,-0.42793810912988806,1.0035967868193072,0.6151680702338431,-0.9416139269910738,-0.7768065489604135,0.042326849711366306,0.012655790455227356,-0.5679343739088154,0.8211317845549975,0.4831705147652195,0.794731740798182,-0.5160060402498271,-1.003356108301076,-0.6746972063157008,0.6843937944616805,0.9709909651324291,-0.5360697104968222,0.8304684642666961,-0.2810912544890753,-0.7008245663299579,0.5704660779497538,-0.48483376166864606,-0.6150294406492358,-0.23633745199537423,-0.04155205926174898,-0.8765963935522083,0.2829397478641981,-0.8394543676437242,0.9066981962309517,-0.5339435040430447,-0.5322399619833383,0.8798837897745573,0.8815419861071766,-0.4238754099443939,0.5652159798738566,-0.05454059266205042,-0.17451785108498996,-0.6469763241332286,0.22052247317142284,0.8359604270610794,-0.515059017008886,0.5288922780231289,-0.2651486939546582,0.037762952315757964,-0.6893247137934767,0.8081978446489393,0.6199307450694577,0.15353226245232574,-0.6444591507563079,0.470349037425172,0.6349697887717899,0.5132966953426606,0.1090417835037362,-0.08286683926124228,0.6603541995420353,0.33232725859134965,0.3428050000710091],[0.07644656038485567,-0.2229969324225137,0.24883373405296405,0.2885282676547496,-0.40022881023099083,-0.8201863478706142,-0.3307571178446336,0.9087418077330554,-0.8530678928039533,0.786329786542329,-0.33059776562989157,0.004738768437949497,-0.23328693745265375,-0.44302529185797385,-0.3918395178483548,0.8211726804062701,0.31722485359919844,-0.4480417370285982,0.46235063398186566,-0.12939211380887258,0.36276904761293244,0.33206865288974846,-0.8281668721761357,-0.8544528795843919,1.001254608674019,-0.9476142881953461,0.4908429289763339,0.6948244259723757,-0.42136242044792666,0.9224295358296565,0.8619232750709773,0.1592148149944411,-0.8991796448411964,-0.2558638797739436,-0.3465338063408005,0.7296041805086388,0.5189530975692663,0.9835211530501843,0.2423011654885663,0.30840996195114606,0.9620443770410686,-0.8253613944465403,-0.35244915755449524,-0.8423883669825735,0.9364450324288325,0.5620671240957552,0.35194243117406093,0.28746497404427035,0.5018858096131472,-0.8376430273157519,0.9039614578822786,-0.6483932748653113,0.23140407207729732,-0.2198111700406605,0.983663993908794,-0.297433405653824,0.890763306220683,0.7746498663046869,-0.2999166109637437,-0.27806538049582613,0.17717680291163118,-1.0228145146390115,-0.3618261456524014,0.4404558524995853],[0.07294674882656127,-0.3930918960513675,0.6390178105226851,0.4260983419090849,0.8440686631919749,-0.4251958996239363,-0.513453833654912,0.7475708985219418,0.5568226376874076,-0.8440919556669986,0.2810471032972713,0.5375017529842787,0.745808321205272,-0.8028099387410655,0.16766102712087047,-0.2227469790550625,-0.39473890139379564,0.4061800910342236,0.6928004037496839,-0.4024548317824151,-0.6378707475031674,0.9233434899336881,0.8641405606558783,0.7036482550541504,0.01972454312776184,-0.2890618408527379,-0.02595998022508831,-0.11001139979813256,-0.4302131756802687,-0.9988377762878503,0.7952346847632147,-0.58341649889709,-0.30101097493995793,-0.673263669776418,-0.5117620841736943,-0.1228762510624774,-0.008995851481310935,0.5798415964215186,-0.3683485804098852,-1.0057716677584627,0.6015811009286812,0.08098140791190325,0.5439981648202827,-0.7449019040078296,-0.030296737134330596,-0.2018925833088386,-0.48547401454666983,0.20693711940719792,-0.6684068224244439,-0.6193888370453494,0.6855885075350476,-0.040334502147664854,-0.7948452062774436,-0.19164955169100786,0.2850069411577609,0.021600006804907746,0.37212402692723484,0.6216887934014893,-0.8473708692253521,0.7930201524369261,-0.6438853477663096,-0.22105119701092849,0.4031583433250002,0.22119192865618445],[-0.1589277338973129,0.13054198885381282,-0.5311250744406298,1.0205523297374042,0.3114476006808537,-0.08290241111569227,-0.7934093108683211,-0.02342838619117688,0.28216255064139106,-0.3170116983953633,-0.9049753282091686,-0.912274391177153,-0.6153232707004646,-0.022896852065649603,-0.9433670659173189,0.7185450333697823,-0.9748343456548558,-0.45418316352267096,0.6447100798037493,0.36986233544346847,0.8697097508195533,0.4482374122143572,-0.16265004173359268,0.2022104421960688,0.9892353243845742,0.7421603362788933,0.2334701323353208,0.7667989127923064,-0.02473787568565238,-0.19213378840505882,-0.5373919055562637,0.36266124952243284,0.5590444412389385,-0.4457162174434623,0.5925125936568431,-0.9045856921114717,0.18758400835163433,-0.06136458211631542,0.04287405925683087,0.9739697441915615,-0.7771864652661452,-0.5309431988598552,-0.8583885522684176,-0.08821374165289446,0.8375858411075493,0.389244745480096,-0.4818215027671211,0.053979905450170784,-0.4147430058890333,0.278890633804661,0.43784393207515504,0.9141187024316045,0.019351173580043964,-0.6875089261239535,-0.13713307405325464,0.6049805440612663,-0.9537742460864723,-1.0157539964621825,-0.25669822859773167,-0.6537609848713051,0.10862387639286011,-0.9831547119753425,0.2679783029511869,-0.4484998354995018],[-0.1856417153855785,-0.3559082868334771,0.2584496609305531,0.07736331772694392,-0.34667947270229,-0.011853260410601201,0.9263389433931772,-0.23894778747622236,0.8771312489858986,-0.09937795207956382,-0.9802633940577448,0.5860755512179612,0.1858549607639686,-0.6399509612521406,0.7856740408787538,-0.574061793118591,-0.2921365876227092,0.8897326564272254,0.4009120263711429,-0.0922436824630314,0.22809202556749694,-0.10156834095383357,1.036096092547575,-0.6748675236509606,0.9330935582123174,0.34927734580737,0.012233618176902963,-0.37507985525663445,-0.7683805584855398,0.8846301551183009,-0.0389114490333245,0.8341988349769929,-0.8867747345371042,0.6710708119764651,0.3926471949048965,0.6872158013101135,0.18695899083478573,0.5351867586472427,0.7490249989093646,0.6215204938286829,-0.8240186881352763,-0.021984110553497423,-0.7824724014757372,-0.14237908358909454,-0.9588269420727094,0.7945260575182707,-0.3536115095264026,0.6921616599218277,0.3117301693960364,-0.7969046111943211,0.6581018019999778,0.6774285429020375,-0.2751893318962085,0.10016787582289834,0.22111052735787548,0.4003377225337652,0.05883542014506854,0.15648804233606006,0.04324631087136752,-0.8898584981124403,-0.6360685610622274,0.9940680086465825,0.36783808099738535,0.4920455460169383],[-0.1163062437024102,-0.2976376899036033,0.34866527750489423,0.34535674142121053,0.4998729220314655,-0.1666541852822576,0.20848323758286677,0.31912835781124665,-0.45129363116915727,0.33194625570897723,-0.4912311445955075,-0.5019095004604222,0.2309117930252817,0.3337360549884135,0.36364514816584703,0.6765120857820637,0.14622668510981507,0.5108502812802793,-0.5244560889667175,-0.2876378742787647,-0.8221881382219094,0.3089500661690607,-0.031178808482740128,0.6919404618401686,-0.8804630250851879,0.17412480881128833,0.8219244820577513,-0.4492781558854204,0.038193724002556974,-0.43931856354812276,0.6833740440963761,-0.39634204840575243,0.7164822961525299,-0.8653723073838938,-0.7054528944354032,0.731428822145744,-0.9463837392468532,0.44852628111778603,0.34275012362847385,-0.8907328035930477,-0.33913443595178233,-0.6942679863375497,0.6984891619920164,0.4640446301190939,-0.7984076253718763,-0.16088938036368755,0.9665500668278662,-0.19690480011033554,-0.2741354138503292,0.17753530241615156,-0.3707157752723271,-0.6952320358907362,-0.20090364787736814,-0.7323091963587252,0.8292829566972211,-0.45891753909905814,0.2812896316888451,0.34701237976392657,-0.27245265602098334,0.9037186980048704,0.8029680823730719,-0.6670192102104758,0.44702146033614637,0.8742305588483409],[-0.7978873819842615,-0.1549034515552632,-0.1747644236801738,0.5331799115651198,-0.6145328225192023,-0.11585885498679568,-0.9300179112365331,-0.8584003989145902,0.6936175892115395,-0.9396589856224911,0.7839624412694677,-0.992830320536996,-0.248746686977158,0.5433904383136008,0.4497141713949039,0.769596309623725,-0.8365071974079371,-0.4205622666091,-0.5384488518303229,0.6255820423861348,0.3862126348015832,0.10397713244301686,0.12678928742799236,0.6423207388698496,-0.1285289187401361,0.561671984968506,0.3536076489678844,0.3381427998425836,0.7805675735570224,-0.651718252792769,0.35221028246765973,0.2709799921323747,-0.7558454598071594,-1.006984600786971,0.8847093219741057,0.8537984121061615,-0.8070639962288214,0.36552839106193796,0.2477986066630501,-0.9434194277223646,-0.34233331251186905,0.676393727947724,-0.5815123990815894,-0.310160239895224,0.7522681220830654,-1.0039824071837495,0.29845854469464356,0.31700628390942087,-0.5955815723844998,-0.7863287489822026,-0.8406649808690694,-0.8652728790095799,0.5772351226873996,-0.40284477260464974,-0.7989867805052223,-0.2139288673457447,0.6616998987662709,-0.01783480645338095,-0.36416932901821414,0.3866352037879818,0.5665372442653931,0.7597975012913372,0.7985923271224915,-0.3134012010190596],[-0.5658863970440564,-0.6649850838097077,0.36898684107623614,-0.41487498252372723,-0.6077819434013668,-0.014689151846648159,-0.5122078231708866,0.792666138116487,-0.9065947027964214,-0.5866981231564455,-0.6740168541346352,0.40688776526424497,0.16259166598322145,0.6155281150487749,-0.7536584711561275,0.7006754024251476,-0.421916102736793,0.8888787997579195,-0.49934180079144297,0.6762438371636988,-0.2529604634543396,-0.3297972403544117,-0.9353540166964234,-0.7267030033829924,-0.9136657701527342,-0.10217660621097509,-0.08748894988639469,0.57402562146767,0.22080905367810472,-0.5675286972486183,-0.9328743568070865,-0.06768747446773929,0.9856155420547279,0.11350468098936885,-0.6077989215983632,-0.8155992650473077,0.937584612490204,0.9471624371096219,-0.4536487925184677,-0.8425674624420997,0.8243377900046656,-0.14477325170808275,-0.8334985658888354,-0.28957940014131356,-0.2259508412148668,0.5095208722213235,0.1827398030475427,0.9048576711975788,0.16956659532827234,0.7108588575590474,-0.06152484491889847,0.3390577084401932,0.8054005406363159,-0.7062871899511777,0.5843726365589653,0.5341456077373745,0.36816744448233707,0.6918545967907147,-0.9237907750358595,0.8392008968367557,-0.3983539169313164,0.06258661760703224,0.03580738660711377,0.24478248126446905],[-0.861641613866633,-0.07912776283450985,0.059082355465626506,-0.39241676030731276,0.8023485461210622,-0.3280493062390963,1.020241021500189,-0.9314266375251439,0.6710394763938408,0.61803913077551,-0.5283924169824594,-0.03472782654221168,-0.7533321289857164,-0.9564152071560401,0.18244082801864556,-0.6201677942306294,0.6512426139477596,0.6642336633489612,0.4788377751749237,-0.020327133450871452,-0.6967181516731329,-0.6195548965390013,-0.12150310564671465,0.44926301993957757,0.07173044991468251,-0.15966406076613124,0.16775264302038964,0.2810614977027184,0.1809045734785566,0.7123946331198534,-0.2191762061283943,0.892691945194915,0.021008618452357946,-0.5527142820790891,0.26321496873506894,0.8096071008863897,0.5752664679171092,-0.8911862484897736,-0.12709784503810143,-0.4941010847936613,0.017783054771024813,-0.42649563726529605,0.35455373323871214,-0.1377506821417113,0.49463402331044104,-0.9529991737043189,-0.35988873134305666,0.46256548315623947,0.4970410099840918,0.11758742180874819,0.4931801954958368,0.21506097092812773,-0.8311189424855879,-0.5868739542280295,0.1304537507879313,0.16844879153418568,0.9516700795521175,0.7765013472039796,0.0664984299739809,-0.2039714714353705,-0.2533969938902769,0.07986379356201997,-0.48796309859347387,0.24954309383199666],[-0.16042952901957078,-0.6188683035611962,-0.9674625682484234,0.2674844755436713,0.5238315271236581,0.4641409883733758,0.5380166931677857,-0.6986619496843427,0.029133277761557646,-0.8483547153400702,-0.024304818625550673,0.5275840342928572,0.43593192398350117,-0.8899385182577518,0.9343957868318521,-0.19413460843877559,0.07774007335157357,0.5657828820158929,0.6336121747385524,0.6394665589190155,-0.19626272587952556,0.47971215006897105,0.03991997806918332,-0.34913920829932216,-0.8563748389103716,0.4270549233819057,-0.11457519230474765,-0.476068875405611,-0.8128129999444923,0.8981846156635482,-0.6144762196429976,-0.2781893685669644,0.5973904519403991,-0.9896988038874877,0.959536057291572,-0.9105470351515819,-0.94116374835994,-0.4629762061120349,-0.5019560917451438,-0.9586079658946717,-0.8959248136881663,0.4422456849719861,0.01572039147091423,-0.6714468382766474,-0.13742250792735156,-0.707801179013772,0.5636968238275455,0.6065112046168407,0.9595315478146533,0.4704260701222289,-0.9224337684909036,-0.012627046299327782,0.33141503019935487,-1.0279302789422253,0.39277707302857207,-0.4769104339630769,-0.6248168316122843,-0.9918997971685541,0.1022736459434707,-0.2595446307326189,0.7410531698697799,0.8744861730114621,-0.32271153318825213,-0.05187159937098327],[-0.4207573172999156,-0.4710832759195214,-0.39356314239236917,-0.5179739392781617,-0.947172568721357,-0.26246282320223485,-0.8532136563261687,0.007710742289594135,-0.37143235474997477,0.8247856623487836,-0.4705490345737375,-0.5433357472882958,-0.698545438860289,-0.04092589561667453,-0.5808995761189486,-0.25791325323979963,-0.7028395428862038,0.8234430538712987,-0.3857053855770617,-0.9091936452395304,-0.9008718983217386,0.15307336910508024,-0.5769965374585619,-0.5952994023795372,-0.9599691839097114,-0.6971667507441883,0.21166970507103877,0.6644500292631693,-0.666723649707495,-0.18397334242780983,0.27586414604809467,0.46093391072713585,0.9296483150055799,-0.7913940379632858,-0.8737465654671206,0.04922793003460476,0.5834678384177807,0.8646479599214081,-0.06604872886955089,-0.09787524211229784,-0.37041019813196857,-0.15161697854199002,0.0031602645903904703,-0.4621538448627788,-0.3557692479340815,0.33137431106159076,-0.25750750712227377,0.2326933371766049,0.40999659678729905,0.5477838053998338,-0.017294897688499445,0.2744750830988949,0.7471276725397217,0.3975529163650688,0.2762824123585709,0.8924189930288132,0.010918562777819179,-0.40681745224535165,-0.20991212233740938,-0.2732215084806101,0.07693054447079371,-0.41428305660076764,-0.5502035048227386,0.6902533052562322],[-0.46850784931603645,-0.6354680191226384,-0.22436586438910527,-0.5791598563987962,-0.2925404538931434,0.2907291885758608,-0.0846389132141649,0.7315067424938528,0.2422038939306128,0.6659265006929634,-0.7114802087745227,0.15692044814825223,0.08531727804276379,0.28538061954366534,-0.9528355184184111,0.6465597803363837,-1.0077683757114477,0.38191506289830274,-0.2010251903391522,0.6727678241454709,-0.7002019374550857,-0.2985100944890108,0.8889885308584952,0.4817129123928526,0.46288346266335123,-0.5137139633425631,-0.17225825068709208,-0.17847554150530512,-0.7564140470446741,-0.07953066910112105,0.7821808737466955,0.693532070901389,-0.31512833181737837,0.12020391704330453,0.31487151818144865,-0.8423866088785018,0.03418240937075128,-0.44663323497323404,-0.31529839393898357,-0.3434154770538977,-0.041700494238539464,-0.14190619697672335,-0.8472027667825255,0.24330368971990934,0.8445509161285717,-0.6281305596304838,-0.43143489644502975,0.8711722788164258,0.42738970558169714,-0.48721845116123935,-0.7661792933798945,0.4425362487034738,0.875598981963394,0.44207321404270505,0.03874695978048272,-0.9291196357795787,-0.2662001449542675,0.5296486980969233,-0.5007400486207225,-1.0100429785174385,0.4069526082540357,0.10440494931773389,0.8439237121185237,-0.18001583914236985],[-1.0365330123357046,0.7041243370237382,0.42574975401102866,-0.16402858570900883,-0.15568888269363107,0.09177255217982164,0.7894523475520191,-0.08535875178788113,-0.2966003652165461,0.1813715792945742,0.5962039073125154,0.15573377645545225,-0.8407411208014104,0.2015137490725399,-0.605729541803798,-0.12581977953139414,-0.8018865922099969,0.8093067271273591,-0.47831157269682134,0.6907182725864177,0.02327186297873459,-0.40334470604552414,-0.7785958296532939,-0.3206674049122753,-0.3843185973940601,0.7930672089997989,-0.8975602346957189,-0.6172320655874322,0.9712246747862066,-0.11177918262967779,-0.8820049884109873,-0.11522087084044909,0.6856512752332384,-0.7110760598881496,0.8861864935510217,0.9763036488417098,-0.7221818988162028,-0.3576865120606926,-0.492980649987227,0.0711208495212818,0.03787160168907144,-0.8521911850744485,0.15568186434320255,0.18607347837872518,0.6798238679245373,-0.5441111338629411,0.9156722295061593,-0.8773966230508355,0.4417321014809918,-0.32217667095922686,-0.3054037387976623,-0.8427327484424273,0.4417089994189458,0.0388390358385833,0.4495537430885086,-0.6076533570436772,0.6369383778619156,0.06716978415597522,0.7941851882676436,0.4157733896161835,0.3005843652655614,-0.3415238801661863,-1.0212679941850324,-0.3656829159152709],[-0.5413387253458809,0.5764475372776716,-0.08682813341563261,0.7454626074841271,-0.9507668344320256,0.5005545790082332,-0.04005989106910197,-0.624507474519042,-0.7362461781899472,-0.8647226896817698,0.5754678752191855,0.8229194350787199,0.9159894991077611,0.5469219928348449,0.32486810171719177,-0.3356589471076531,0.33593340569232943,-0.4498649991515971,-0.8678304574845835,-0.2435330583599278,-0.4328975849312797,-0.5693409159514077,0.10483158886410054,0.7184415371308952,-0.17556408893540507,-0.36575551338537976,-0.6993326923717672,-0.4808744023457535,-0.416344035483367,0.9645285072360802,0.2317626288375781,0.44165481932532474,-0.9968478527748291,-0.4377955425677026,-0.44088555258823053,-0.9552547380201364,0.9268984702968215,0.6360438636058621,0.3349082412540317,0.5976097013274729,0.7819143442282808,-0.8224047383936,0.4810873030344514,-0.7449960596245193,-0.5592088945573943,0.35779700786941987,0.6339153453256725,0.7935465667345771,-0.9377782574809047,0.33238105853381444,-0.9638797167966339,-0.5115888470678154,0.6073409079490671,0.6637531017202625,-0.6207481173774635,0.09867560526539174,-0.09953432863188767,0.7729431407080469,0.18357365603517914,0.23017256160322241,-0.2869521577336064,-0.6082864103406145,-0.6153539038300775,-0.9436028617331642],[0.6959746978088658,-0.1307804971422395,-0.5926006785225522,-0.3824407435459522,-0.6162086795422721,-0.462924458291898,0.7693009669190074,-0.3901776624216892,-0.5809410282812211,0.8002869523569849,-0.7684820276486712,-0.88594117291108,-0.6956544313968586,0.8512658933313925,-1.0343523402407848,-0.46108770516434644,-0.18864182585039577,0.156352652315561,-0.04708993735755966,0.08088852023896764,-0.9287858089661624,-0.8765337247982992,0.7654721412014289,0.8665754552146583,0.34699017335902754,0.2533705416047891,0.8449797928850142,0.7726197634164401,0.33365352536292237,-0.23459282568407339,-0.8749382233284301,-0.7025487886593293,0.05190631507422756,0.4657963211187871,-0.2845767142783342,-0.3813078703120077,0.16386228162172684,0.06073979336079172,0.6426780752452788,-0.7653768657683335,0.9029234478507744,-0.6351030024906807,0.3447638808164321,0.30167782358851586,-0.6005583556853584,-0.020646411973682496,0.31309779450561237,-0.792202099776634,0.13726526653265925,-0.43718756789003044,0.6278173474978681,-0.440347600280272,-0.6756545890117829,-0.825206229276113,-0.1245593522388495,-0.23440798217467748,-0.49861139437156565,0.08841877427693247,0.1457379304528875,-0.18450316422965102,0.5850165987497593,0.8484551109567167,0.13615639782199365,0.6777634561263145],[0.7393773214691407,-0.9693353970116532,-0.30858078884567536,0.3651807357121466,0.4410047814856879,0.5450947001377938,-0.5106881958941161,0.5952462408549466,-0.06954886472356807,0.8437141049606325,-0.3475292604506782,0.5022751317758191,0.33133499937276933,0.8937956826753766,0.750733177037459,0.51711561791469,-0.23011831867288846,-0.8443315648658521,-0.47776853791117085,0.7912428577950195,0.42331652848297363,-0.41910630395838944,-1.0374941964779418,0.4756522137923133,0.21759511270863177,0.8518429568237096,0.11688917591127874,0.7078508507212319,0.9122334616557558,0.3480089206365512,-0.629779845170113,0.4253302198785869,0.5556855943588935,0.8792728057452461,-0.8572371321033526,-0.4993452843799315,0.31078510802349735,0.6512698182350574,0.928875998596993,0.5498444441419705,-0.864543016573633,0.10261022952975835,-0.6061881084874432,-0.2414456566177604,0.3979265667932354,0.7491504829083377,-0.011680598565597076,0.4836589603553995,-0.936498275832507,0.631197270624025,0.42132245285058295,0.9670193906145339,0.028246068244788144,-0.13433879939986987,0.4655780513636096,-0.1784651015572195,-0.22297565013387535,-1.0029014729974233,-1.0434219722974936,-0.8402002740379936,0.92998400316836,0.7321484112053619,-0.16318146784695176,-0.7423740743675015],[0.13680387921645765,-0.2079839005285178,-0.8021589768928947,-0.6538454971726347,-0.1184901139710226,-0.493658896677128,0.8272881918916001,-0.7682959257813763,0.5502950488737804,-0.4974612814920676,-0.19710763771429504,0.44924375319214493,-0.4778406210869758,0.7266770918189434,0.7261333229353548,-0.5107463208697595,-0.7246383811437251,-0.6775081216333714,-0.9294461091733203,0.41349118299514137,-0.1931283802627513,-0.7858546894646932,-0.15948687381803123,0.044825029185114856,-0.09567108875177135,0.8672639787156788,-0.4851669663482766,0.5114998750987522,-0.18941432899194682,0.08714067630628941,0.8661666828654121,-0.06746517349949513,0.21340926095390608,0.3688569037935953,0.936672711392418,-0.5177098879792902,0.9749386551485625,-0.8497079069507544,-0.5724854085169512,0.05939478798862173,0.21220386030569538,0.5884944243070113,0.8257067546518352,0.20387373126825,0.9716305794953296,0.09031433882507121,0.2397318975045582,0.945006733589295,0.6827919813989622,-0.4058594982321062,-0.06744329642617336,-0.014018157407198395,-0.9669824871912356,-0.05083281930248835,-0.9311183759184374,0.2674287962409651,0.8161426483342075,0.7947096259298839,0.49790254626052377,0.08064620615860953,-0.09019124144893773,-0.4405140880185146,-0.8737872253808852,0.19229219690027777],[1.0165567961990056,-0.24937579918201463,-0.5501970779045374,-0.5394175210752153,0.1523237278956705,0.11230438568155474,-0.5325931028228597,0.8558204233842935,-0.282780285136355,0.31786543916350113,0.4664415802022305,-0.07959543292089823,0.9356336349071779,0.6464996348212668,-0.48735259636272416,-0.22645148300323517,-0.715303045411508,-0.7181679312656015,0.5491097007357036,-0.217593565499923,-0.5922698479659683,0.7565350555811692,0.28132101298194717,-0.7784686443317709,0.3496920058522866,0.8028561060795643,-0.5681902180557451,-0.7157342524565771,0.11679626369988515,-0.17952527761593728,0.37797394049670724,-0.6196145642259522,-0.30844432375253517,0.48260864726442754,-0.7999581209307499,-0.6566994400814848,0.2866262163379337,-0.9882005914688278,-0.6859856631242244,-0.040501279872465046,-0.21290547113380942,-0.09785414787449506,-0.09623296255712972,0.14320029084084707,-0.9727758188606476,0.6685117240464025,0.09857584518956952,-0.35177042411376575,-0.3428075359640609,0.1710957998834956,-0.507477670263129,-0.44387106538783766,0.8355643412688657,-0.13065018244110824,-0.3527180222120688,0.9434575516911236,0.4241973944689262,-0.5372324172611982,0.6038608049146864,-0.23461034217516527,-0.986552110722395,0.4616623729744096,0.6320017975426612,-0.05646707694269219],[-0.05987726132184016,-0.09619161487785993,-0.6664174356990061,-0.9086341430594667,0.4578284717595344,-0.8971258388775784,0.7633985234212555,-0.7943026114099417,-0.43985313027863676,-0.5786848644653071,0.31240292150605975,0.1106944689951197,0.10831731910747387,0.36626773005935814,-0.25843469684269854,0.1608340330170648,0.5294161169281763,0.3019180539352945,-0.43677228135755775,-0.29885276788531734,0.28168065883123644,0.8474488305522271,0.46432879914058767,0.5858132241937416,-0.5853731495970832,0.2831871400261001,-0.12175216021995092,-0.36110173822012076,-0.7952389685340292,-0.06277006950266231,-0.11537149110612711,0.7293102932137354,0.72969663273704,0.45653213908305645,0.4085172519513152,0.7822844881228774,-0.10565814305093778,-0.17145400231411934,0.5501299814212038,0.28197153544676007,-0.08550857163652342,0.3687873693782643,-0.3497888792273169,0.3677520831185501,-0.8403137743822795,-0.029018479066734337,0.9234903310623017,0.8450906092814943,-0.846971908004485,0.9090267140009729,-0.009405743113063601,0.9827815677097703,-0.9377188454136689,0.23311311386429878,-0.837823049853506,0.02201881660562221,-0.9811774233682409,-0.6251596724670347,-0.13823051549387347,-0.6334999112017757,0.8403288797817196,-0.29638117378888984,-0.4906161114278314,0.035558518440423494],[0.6403987575893103,0.4438399373666188,0.6746057614000769,-0.6362866763175111,-0.8250761118538529,-0.4595148780589048,0.6680299920024009,0.9773500878766143,-0.1761162165125935,0.7815533861131558,-0.7851122892071326,-0.03888690943853156,0.03698949941616483,-0.06809491575962241,0.8253155513590577,0.6682516743331284,0.7478879871379833,-0.4001579048447844,-0.43716229255048594,0.26936694899850455,0.8677906840130636,0.4923277385231797,0.4755859023089616,0.5796029624150518,-0.3641063444048664,0.7086210174897581,0.2897561049753733,-0.43805249544845354,-0.10033663111494762,0.4269451554242721,-0.2911801829518346,0.010991888918915109,-0.9201224388784289,-0.5769054874404894,0.669135548495284,-0.5357066435552237,-0.873871852462043,-0.5244734163773023,-0.8521546785600893,-0.5257792955034363,0.27428653733354225,0.4322789041178001,-1.0202444714048005,0.6493252258515467,-0.11157849605973817,0.2169695186847823,-0.6754265604943246,0.7639245824842912,-0.18447650099338014,-0.7901058074938228,-0.8843030567063621,-0.8193844977684993,0.6158041594657908,-0.546089248349588,-0.19325893711417816,-0.926403317535833,0.679638318536672,0.9183590439018473,-0.12377205358549614,0.690840378406522,-0.7697019114505288,-0.6492525734224112,0.1838266632159226,-0.10681797372579276],[-0.5870440143672503,-0.9871797963541169,0.749842869616863,0.15497686297214933,-0.6652532205465393,-0.31245714228546045,0.8473118055345756,0.22576995857660248,0.34687326823370385,-0.8853835350913966,0.667000505740088,-0.7032515461916441,-0.8030022657387059,0.7466760853535764,-0.9965029050478243,-0.01644060150970054,0.007111491697171943,0.181936942785958,0.006833886508478243,-0.46389174455749055,-0.9598171271826044,-0.14152430863992513,-0.565732041576373,-0.7053596593193101,0.5278187893724597,-0.6508865023095554,-0.6947173306788024,0.6916157845457627,-0.7595103054862209,0.941673036096347,0.6993543273882163,0.015484704237322506,-0.35876902701734154,-0.8252372940372139,-0.6206295027509631,-0.16974738460530803,-0.07774314930943571,-0.6245641054810077,-0.7394997282487591,-0.082521688341885,0.24569521194234498,-0.41858241994482065,0.4299220018320852,-0.181569899653392,-0.14429661692449908,0.8877888773838458,0.8893630070063259,0.47887362470697337,0.30603363230637576,0.22470751534058117,-0.4863420705694318,0.3309923979000592,0.1903822965564077,-0.35766631338473903,-0.5859588111420903,0.5930813916829178,0.7834255690841629,0.2999980341220451,0.8134749754822739,-0.9304785453396384,0.6297618408022321,-0.9913959599368614,0.41927618337661027,-0.4594132718160186],[0.29896327546495205,-0.3119860367549521,-0.8561091824158702,-0.25473024024454527,-0.18951914731326197,0.4476928618078479,0.004448630057701322,0.3610734991075867,-0.43614426530644174,-0.17023769332593658,0.8313527197253605,-0.9705775186510233,-0.792517979982395,-0.5971158429458779,-0.37093697521798435,-0.757367766843113,-0.4046997098937573,0.35724808846138956,0.0889875035992285,0.2692167750771277,0.3019655982103629,0.16861008444593859,0.9670350953253448,-0.0014667828996101275,0.39380506996605136,0.630961554476094,0.7441802434239511,0.9579843885946014,0.8871067574348837,0.32341281924702964,-0.6592033521925729,-0.8188427276865432,-0.16904656227816756,0.4555305228165638,-0.8747710341886951,0.6985970859619087,-0.5850740656094582,-0.5446446250892826,-0.20732514229770196,-0.025608242803766834,0.5456403517709579,-0.023679456033600867,0.14849634280676394,0.5839767911610673,0.7653246943488472,0.9834328628125757,-0.8373931296739661,0.9666485507255829,0.5776280368353908,-0.24837202574328773,-0.6958358735497102,-0.7110162412399348,-0.5333396753551373,0.8909685908831797,-0.7398336330648021,0.09934102918002806,0.37828665779370424,-0.956597083925304,-0.9526458907033087,-0.5394344999163616,0.5195190116965698,-0.8348999460118277,0.3616073055299941,-0.07202201885712936],[0.5975951766261283,0.049602694460894346,0.6479431647357626,-0.10361181970133751,-0.4829830382228789,-0.025877627577400194,0.2652018958529663,0.5563564654216364,-0.22313611948141818,-0.9617003452518809,0.9724564733741854,-0.1517144196374916,0.17138407531368796,-0.7596347788415155,0.3090477107288754,0.5085509270256242,-0.7830658616351377,0.33741306462443327,0.23092175241666718,0.9098143904647751,-0.13625446803423794,-0.14554076882735498,0.288802575685248,0.3879223654681691,0.8455160614249215,-0.4733946645377955,-0.39270553424301363,0.9706935653616339,0.24239305842921435,-0.5791247805192095,-0.7551424502318065,-0.5357618538716342,-0.28476786491005296,-0.827995491612522,-0.08870071789439805,-0.7484380763753018,0.5253307051731275,-0.33820756517386885,0.34651209648538467,0.33175473383790943,0.1535537770543735,-0.4756045325749913,-0.750017993426912,-0.7571259023414239,0.4858799742366768,-0.1272040228464739,0.8364169032636547,0.9865091574501286,-0.1169461727787237,0.15119319481126406,0.09032858949837974,0.058171932124286604,0.39709382347034566,-0.020175322845824052,-0.26747344960633823,-0.45328257004121564,0.706024379213351,0.26783688527321686,0.8432030898110859,0.20199610484063574,-0.3505770781150038,0.40085570847127483,0.55824353133866,-0.4485606888849193],[0.14881044054966552,-0.0936517857703286,-0.07408970974957911,0.9527248295977315,0.854003346563206,0.0738561523775252,0.13968612586597365,0.944410539380528,-0.6853176819442256,0.7536248082904354,-0.3806329635934357,0.36402439139023746,-0.44088189234761316,0.7413828291859319,-0.3109838356753554,-0.9194156961247804,0.16026457612138167,0.15910461894085215,-0.6624847440943794,-0.4022996789265849,0.7093494671322363,-0.7292750350117326,0.08063524388442506,-0.8565575325512855,-0.7190129869758585,0.23398387882579016,0.39441218049774,-0.770636519285876,-0.33201292068912547,0.8232214591379352,0.3022966802662767,-0.12620392472595374,-0.193002312064647,0.8109012624951996,0.5646816776817128,-0.9265112588083386,0.9393309211077417,-0.5541903955511062,-0.9442772527858593,0.29913918633640146,0.29145973297250904,0.16125734138972586,-0.5552788235783755,0.5943777703805843,-0.8180380198440066,0.09144379976791141,-0.35180858325689846,0.5610532782410058,-0.3474262531119019,-0.15502771593824957,0.4312927188952382,0.9845534588162669,0.3614733048397011,0.004455598561062738,-0.25244731444491464,-0.5571705350192063,0.9046291107363523,-0.35592309317849763,-0.36023936547183777,0.9416636282681258,-0.2654396987426299,0.6274140371704752,0.5647740321513471,0.9441594509287311],[0.7608699153752948,-0.6950493619005974,-0.7181711779572009,-0.40925424132531,0.23617944629108925,-0.8880850284324969,-0.22480787479352177,0.15041978906781317,-0.8847315835717409,-0.7540175692704834,0.4885187011361258,-0.08176207609041657,0.8442709210614101,-0.24511398376638185,0.534943124706966,0.7402695320956134,-0.21464075682919548,0.010743588641936055,-0.3282790459174337,0.8918000445193529,-0.5784563197328744,0.5270596731369391,-0.37345249644786305,-0.9049408926763824,0.7303519131202296,-0.5111342397590031,0.26287936040331883,-0.688920857780304,-0.06827031732999644,0.6347917941221476,-0.23080194221439942,-0.015841112273340764,-0.3924505167985463,-0.8594475930947375,-0.08644502827990135,0.07059852610596432,0.8932155863949736,-0.714633201990462,-0.19436030765979967,-0.9956089907973791,-0.334800409895949,-0.4889808666875251,-0.7757494146488882,-0.5039377664411666,-0.45128061942808456,-0.3894945036711102,0.22468574175852124,-0.4461822976044281,-0.17625350513945096,0.71595730884291,-0.15259069257068397,-0.6758031269321317,0.340609267201146,0.4462742274424375,0.39368783344610236,-0.754854850964741,0.6455215491393413,0.7854635662498026,0.9235004110318731,0.09154170575115253,0.7489573858944485,-0.15091053629951975,-0.2142011897081999,-0.27203408762228865],[0.8709318899975382,-0.06964099028187473,-0.7172617115081646,-0.1355456390274758,-0.49194790906795527,0.9347469976688046,-0.06317189696812271,0.6486988849641455,0.9390140618993577,0.32146143292156537,-0.4069337950743092,0.4632675492784192,0.8958431993226526,0.20240312310864442,-0.8724354052682559,0.4157061630633717,0.9709161297536578,0.012151038666037322,-0.1200479243115879,-0.9016027117383387,0.37972332225367483,0.6024692549412084,-0.4872772256618373,0.14588681802407932,-0.20266038337791087,0.47521782314995303,-0.21788906547652834,0.44403241508781793,-0.4138226968782683,0.41278212373226747,-0.7835070206227572,0.23471259915958687,0.22506613809269022,0.5548145308537284,-0.14906799835314508,-0.6733530384687829,-0.08370633362295817,0.3977932173258264,-0.2619171487838886,0.6744979963551068,0.0719242693325492,0.9627624378211717,-0.10253609543566172,-0.32884575409855005,-0.502772438432256,0.09724792019088428,0.8358276425801441,0.15607088404017702,0.4993011983451565,-0.44076162535771496,0.948668687030056,-0.825962438196731,-0.2265771471687591,0.44425402540713615,-0.057658930954246554,0.7436893804652698,0.275536381649554,0.09961668047950507,-0.5896621881954622,0.736113964222499,-0.7257987543237203,-0.7404955004125707,-0.8787840060036987,-0.08143548997237063],[-0.17099792586967363,0.4609390561439659,0.9926052684921504,0.20473551255122305,-0.3447030713265814,-0.05589931022170144,0.9287771022288512,0.02657167597319948,-0.511124651319034,0.27024162048794864,0.8828805849176207,0.8338671628107727,0.3160880183650318,-0.7267962303424174,-0.2291155808811008,0.8782543850900226,-0.8446870722973671,-0.9296139160253849,-0.7758881170157271,-0.4520863552085614,0.5814162430404293,0.4869403645711431,-0.18670556527041718,-0.4202240928126707,0.19295860513815763,0.04360734827176802,0.6020339149479714,0.20267262299073266,-0.8555920726897305,-0.08831566566450759,0.3275567716429101,-0.895708548027148,0.5483790496160441,0.6081431191287769,0.33600409360518163,0.5348979516743892,-0.3984436461967131,0.2286865379043905,0.8895196815535773,-0.22832455189219436,-0.2077389061381595,-0.000955246501904667,0.3761108305558552,-0.0043369296486014865,0.8340190059933407,0.7051084832274587,0.6218830096782648,0.34975167217410186,0.96186904376388,-0.8789796494249106,-0.40645410063298704,-0.3610128158086394,0.11060917562597285,0.8894384836108834,0.6694120203525881,-0.4113712039354877,-0.3987749318245538,-0.7050977350595665,-0.6444717595172959,0.4996206401282896,-0.29777333628985114,0.3806807525647107,0.4016719638675432,0.45575188723949345],[-0.6527163072249985,0.7639271208679099,0.47983462205209265,0.8027747108303469,0.5552020100953602,0.34806775431915604,-0.6418421094621207,-0.1656122402075162,-0.6882966862215535,-0.7165071161016496,0.7589645660457249,0.8397878033748822,-0.7011136047051851,0.74566950770867,0.7615295985431431,0.543974453226693,-0.18617316569930206,0.9309785152733503,0.8587677281951196,-0.3297506760537111,-0.47911962190509483,0.9026685973344857,-0.8624174763867877,0.20697064308228738,-0.7933602144903745,-0.5997470668382034,0.3784886127545317,-0.9357718382984407,-0.5763174237819104,-0.10069149199084289,0.8434975969695895,0.46002907939762044,0.1839836352483875,0.7246329478589753,-0.1928590171351639,0.6763747477695745,0.11484568380577606,0.7715211224238184,-0.48644177040648306,0.7814818284518518,-0.8032526236683294,0.06498450382953816,0.20506839100318267,0.4492944521103151,-0.13206823371736298,-0.9401060840644879,-0.49896204697046476,0.5600913036571773,0.016870179974257788,0.018037310616893988,-0.8391535561541307,-0.6181909532508666,0.0915193217857486,-0.804166845703757,-0.49404469265563716,0.9833469269424706,0.9565319976674133,0.1318245664108817,-0.8879776372480218,-0.3673418254156193,0.3618736540087803,-0.19923921072768866,0.3283102668250401,-0.4231351900985364],[0.8501465212912979,-0.29631972759223124,-0.8382262399621291,-0.9244722137945303,-0.2872104689887138,-0.1939814919109867,0.6535367864127177,-0.5923277706983487,0.5493781005403178,-0.34461084643004214,0.8205479175776409,0.24946985834009583,-0.5335160431825082,-0.6356283576296454,-0.8365845198316473,-0.6133677278439407,-0.15865799929125943,-0.14544795232047036,-0.4032160649993847,-0.1034214118329572,0.9421438914314139,0.7066439123545697,-0.19793427244723208,-0.8028271200092947,0.7776947712429108,0.744464752811391,-0.14244479988397227,-0.35301757445170134,-0.6568692088787793,0.3812431830956304,-0.8907328707947034,-0.2849541308034645,-0.4617728103432241,0.7851745737360241,0.5534341941108535,-0.6140814648605838,-0.7760743647397415,-0.8834699976438286,-0.3367033728213672,0.5718199470601326,-0.24169971348647096,0.12782152462290514,0.588035216577068,-0.45731094053696597,-0.6734229392441515,-0.123818217869656,0.4581409754385851,-0.13928678380577386,-0.7753240810161339,-0.469145191009473,-0.9094718724437706,-0.13059478441312924,0.7096515285373517,0.8888993310511436,-0.3951972551701091,-0.20052298922549155,0.7656021270944361,-0.8825133020399121,-0.49896424540610396,-0.26526373506635276,0.7922485863289463,0.4207147062082209,-0.3852681305215154,-0.688480684037254],[-0.02157592368402986,0.7827041522827026,0.564563599969247,0.6404281040709499,0.70894494808296,-0.12137484949993643,-0.5689208318515905,-0.22739399256379259,0.29439121590963024,-0.6724496050266525,0.1312841915444581,-0.9656442007701784,0.9671505159353541,0.41799604517972166,-0.4428621258311318,0.9968958356715854,-0.432229320411866,0.19676681585682415,0.6593543741781048,-0.21431204085935565,0.7528789044145898,-0.0032528706152831445,-0.7313155815284421,-0.5236454662594001,0.8751523589794838,0.9227741378424721,-0.2954904057835573,0.5373923863778446,-0.4765285425827521,-0.2540037177601111,-0.19851456913678714,0.6088206403982689,0.3338194948542101,0.43505433793085874,0.31526023179975493,-0.8809757009657209,0.6083692930323847,-0.81143409619129,-0.2475390065007299,-0.11393163527682353,0.9426256521669424,0.054668576622536214,0.8127063962378197,-0.6999430074137188,0.24312054126311977,-0.25317074274748796,0.7989224135573008,-0.0326540910705451,-0.4972492439775021,0.34846350793108133,0.5242244860152314,-0.2205303511366677,-0.5873391922497921,-0.686107459868982,-0.07722372299583878,0.2420441834407391,-0.7040694235541421,-0.145322537186918,-0.1077981658289616,0.041320555491715816,-0.3787003420645368,0.8513479903212057,0.25647617281357044,-0.3869611144325465],[-0.5913287697892532,-0.8701553924401929,0.10455309782332965,-0.3271265961783168,-0.2179851793785064,-0.5349463599477752,0.7771588490833813,-0.9038106699589401,-0.40168928701664636,0.836396471348289,0.04010932134207769,0.9615361227471211,0.9772405493903629,-0.9503270959614691,-0.30716720585086266,-0.6816341068701449,0.60016933573525,-0.8061956203631649,-0.48782856436508726,-0.3118879698697415,-0.16048949310937663,0.19435281694348194,-0.3755068974021153,-0.3206981438693552,-0.16371923491161483,0.8278378518610094,-0.49632446175499684,-0.26482257214370064,-0.7940860614536587,-0.31478700019668804,0.851459387973102,-0.15514739296089988,0.7455215565231096,0.030231433190232235,-0.41191162120495034,0.9299911621669229,-0.7628966705140987,-0.24382352506099284,0.30708229616101274,0.6123052948620904,-0.7749150598712973,0.06490655128429249,-0.9031741211165857,-0.4637704972396613,0.8576061468711437,-0.8913108003001005,-0.9220507652266339,-0.2200353000110883,-0.3974815836895374,0.1601525635394777,0.9243390365754599,-0.5166062114550437,0.4399341716202304,-0.6744797682158482,-0.05793020154119016,-0.6752656064850947,0.6896718682724272,-0.22601589764771854,0.3007223877505679,-0.3809774950719865,-0.21938170465606527,-0.7778447041797308,-0.4924909728087199,0.00011827522498733318],[0.3619928617463087,0.9842038940427064,0.5242275664833128,-0.07754741904524906,0.44369138581228074,-0.574998587067008,0.839757014356603,-0.40398067414857863,0.21633211012065487,-0.9671526778833677,0.24482158793003872,0.4792674140889376,0.07463293265537262,-0.0749848008896363,0.10451533536572225,-0.8137462403543787,0.3565696926025375,-0.02603413789680907,-0.4855512137348809,0.6673263936774322,-0.3201939693539022,0.07904767187756177,-0.8804755877702004,-0.5369297222400793,-0.9247644474292255,-0.0642200949527404,-0.783530280166872,-0.09395317489639683,-0.11878564763295951,-0.1813922843538146,-0.9883196289720451,0.06887046154540853,0.4303399079083775,0.6830494983897999,-0.12940376911177878,0.2284853979060448,0.06789954633028283,0.44314674935569,0.9060930995948978,-0.8979542510218138,-0.7512536084750188,0.016561504549312423,-0.4786716257097244,-0.08507980583390556,-0.45139468381459386,0.14365055503720314,-0.5624685563860026,0.5382343771966012,0.28870766929926706,-0.7732023948928975,-0.6486787398149801,0.9569757719886426,0.29419741689890805,-0.5380336501117092,0.7046593782529504,0.8785145974254308,0.8193217032547022,-0.38452787589888787,-0.97373061126784,-0.22579988598979606,-0.4296237738490414,-0.5848574990534644,-0.6326698862097648,0.25597492241715414],[-0.2229255799422338,0.9373740487628158,0.8226036543975008,-0.29429438471667474,0.4792393569681828,0.6868292395337788,0.47017856987632267,-0.6667406852560755,-0.8804294976848868,0.9262936191512504,0.1111154395024233,0.3665787951222559,-0.2924704971231998,0.2990379433582897,-0.19679281547469815,-0.6415885423175438,-0.6448098658699812,0.29072866640872597,-0.6519301608996075,-0.651144596094315,-0.5087381904486782,-0.620813908465743,0.8664926836873134,-0.2338331155424978,0.9483068341856026,0.07003569950805069,-0.4932733313535571,-0.16436043720163224,0.07194210503645358,-0.39322205080765754,-0.1424825850889976,0.9054098700122427,0.756661709810684,-0.526315727897797,-0.9637646174202977,-0.7748525325436544,-0.8205685841071183,0.16361865036079914,-0.04714085398916396,0.2698487562401338,-0.6799369607370289,-0.08230799883040672,0.14486145859512833,-0.3857343046174447,0.9765179126981457,0.21695322403841058,0.2898286639419565,0.1072521761880994,0.9536935286874244,0.9967590066720666,0.32373465319050165,0.41335277344115173,-0.4953365396493642,0.3054037602653636,-0.2717862417964588,0.07621900439448984,0.0836327719449292,-0.005939441643191511,-0.6817183146956621,0.7328818973763366,0.3196937346602806,0.8047424889019757,-0.2683055102097511,0.44564612629520656],[0.2160739457332992,-0.10781382941810605,-0.3177486793524807,-0.024611795993472383,0.11014119438405662,0.4604110262754213,-0.6263999123838117,0.17904619836045232,0.898439647786351,0.5345065673061955,0.23285176909484004,-0.6225437648050466,-0.3013630629743742,0.9355053027032595,1.012435811969831,0.14626435316471587,0.6233991074595905,0.2716281777590687,0.931893128635619,0.04556025779060322,0.5877048767525942,0.770463617209518,-0.3576243772017715,0.6079296149073504,0.9349857730159131,-0.3325753920462342,0.17564099468164585,0.7293505193903818,-0.6218585866723989,0.36662871352129517,0.8213504725040894,-0.663598152933285,0.405848540655595,0.48865191343158165,0.5964057287166293,0.1940924710850363,0.9629133798465658,0.6357241931872498,-0.4009884764878542,0.8603452177877504,0.25880429754753737,0.5157113674513718,-0.40877717063762925,0.16825507395626782,0.04736790039545065,-0.1346528742898257,-0.03203040463511621,-0.29204946111172136,-0.5805560413762294,0.7525731562364996,-0.8590941236430185,-0.9325283849333036,0.5108976382326286,0.2832725397141865,0.4293252877067501,-0.5604435784887077,-0.026693824177290364,-0.15699067105024758,0.20582240633240548,-0.6000060550768614,-0.08899670493489886,0.5852830755718058,-0.6431360385696839,0.8425056556634375],[-0.5603318823193273,-0.04964283283951389,-0.9292014017338418,-0.30619182294811387,-0.6781740432622494,0.6949654637327548,-0.24865800568177615,-0.3994584412451897,-0.7628954675872748,-0.015716542788469075,-0.000306924726111422,-0.04642911271687693,-0.4010464147267911,0.6341943331456364,0.5166417507120852,0.40182843509262955,0.8868946051494603,-0.25908014258345796,-0.7471049666594911,0.05158218709211299,0.014846603713843937,-0.8163555189731279,0.9543747583255037,-0.9793401120353517,0.496942939637435,-0.9487158691339627,-0.2118284558509913,0.5285890203945599,0.8962079581354055,-0.8576210366991891,0.6712251835723622,0.058402560198083514,0.10955329687535392,0.6628293553724918,-0.7706645299242718,-0.07025196151371467,-0.9229175828609151,0.15117180981110848,-0.07328990040763847,0.21071614775812947,-0.7772621371545464,0.5567509293638268,-0.9957666950410163,0.2556257628387869,0.799381876971183,0.6775336660763622,0.57191403172209,-0.4703231455872402,0.36863568489968174,0.6679423868003878,0.5389656532305191,-0.2632423446150623,-0.9635020716327742,0.8736491050155313,0.5302873194662485,-0.5744351614906044,-0.43936771921088563,-0.6992968684289208,0.4779044754820641,-0.15138562530600305,0.6628850795035541,0.3521824511413199,-0.9985077623540672,-0.38430761528436336],[0.3556201809977177,-0.4094743816083342,-0.4873495273879114,0.950336770708577,-0.45380892398740785,0.11126030750955328,-0.4764414442649562,0.427231171103634,0.7165979884838458,0.787842506721253,0.753078490694113,0.7969114115262514,-0.005908972988629777,0.13626369419657786,-0.04554921142102508,-0.8392581103218191,-0.38007447336121425,0.8872311488619079,-0.07371567435815042,-0.06239822501305328,0.9556868108897165,-0.6889138626870804,0.914824440670694,-0.299308055222463,-0.09145831447343368,0.721321721361817,0.5660247745852749,0.6712420632696418,0.38120046616238296,0.7380248582174093,-0.970203790167335,-0.7418016738688062,0.050390194104334804,-1.0060003700074576,0.16561512057459746,-0.7533953647210571,0.3914071424322675,0.5463147593651775,-0.8337041117134811,-0.39454647434554113,0.1268245759421413,0.778609290414102,-0.3925769718065433,0.11549448385313368,-0.7439582141390813,0.03150566761764405,0.10942108324666307,0.075232328375348,-0.7299636709395344,-0.5127078479964481,-0.6227546040989025,0.5882794448072415,-0.21220338486319193,-0.45189292894104477,-0.20702225723014772,-0.9455374483246025,-0.3970153737310127,0.7626583103957303,-0.05879323338296283,-0.600438102063316,0.8750023968218928,-0.9776593288070489,-0.43179531331460225,-0.8355377047186907],[0.002069083977517235,-0.6172048862452041,-0.5922633245391368,0.6643900936953377,-0.7933337002492619,0.18928208196477042,0.43210759313713853,-0.9675152105728367,-0.5907363861843686,0.05093572446269804,-0.03929410983111474,0.3192706304727351,0.576190601027945,-0.36626422286474575,-0.5540618643515532,-0.9006248388040861,0.8052788659898598,-0.4456415217425856,-0.6465934629188238,0.5331481271193628,0.6116185722296592,-0.4383874998191723,0.778000294466296,-0.956667389625272,-0.4972363620036758,0.7884765041025408,0.007985779436064358,0.4062931377072772,0.5420967010677002,0.780484691044274,0.8916213871755565,-0.5909974223147275,0.48392424180787486,0.8956768331654353,0.55482423561494,-0.7534919537866587,0.6520319248383453,-0.8535081662396866,0.47289262115982206,0.3847872891679055,0.3247712662955605,-0.9584540189985924,-0.8898188717890821,0.010120309254045756,-0.6305586507326436,0.19275327377046045,0.6487910748048764,-0.7730827763696395,-0.7726791063505151,0.3900609625325838,-0.16759934535917653,0.4473199650463732,-0.3361907296901876,-0.008811004310181279,0.05181775016146008,-0.1306680110996308,-0.36116079336259266,-0.10037079994948087,0.17383967763727198,-0.42930961598860795,-0.09860203909918742,0.2621914649087692,-0.5161520998556527,-0.693445065521923],[-1.0109939475698024,-0.7021386334584693,0.09471367950051011,0.954858560878689,-0.9310280723865092,0.3791557879189586,0.5530970453627708,0.8598717616979706,-0.8767883968488418,-0.43908785191298827,-0.5964824362268606,-0.26769602608877574,0.07427396915244062,-0.9633205415405126,0.9518156130163472,-0.991287214938846,0.7594139305359309,0.6858534391695297,0.32363140474711277,0.4993323673291379,0.02455192238400794,0.15526110097426982,-0.831344244638051,-0.3329270673160375,0.03255407747693299,0.37091149768702325,-0.6265689161273517,-0.199729223619418,-0.04125803900939306,0.8539738903990703,0.25239568420395464,-0.7780812822967833,0.5707714597633616,0.6709205250528608,-0.9872529122473014,-0.6373819355922014,-0.6797368165713021,0.21685892774322374,-0.30849719653722213,-0.6215562972220863,0.29185538589310317,-0.8557142490841083,-0.9087337693290899,-0.18162734948283993,-0.4193478397215735,-0.0909892341299468,0.08052477421314974,0.17901021532888436,0.5834574452449741,-0.06583605281006707,-0.8108711875000403,-0.8996212933286276,-0.12827738497795316,-0.5630930714391245,0.7486265890728884,0.2343402256795717,-0.7443524717769819,0.10056593724919079,-0.7145162571763372,0.7715374609062272,-0.15158508124383588,-0.7962592788492536,-0.9706508275356901,-0.1896836414730241],[-0.013276718525043954,-0.7786623598808307,0.6107430078176015,-0.7074942437539015,-0.6694339620231585,0.8750223272223144,-0.37201194847846925,0.547254617666343,0.3380573325578264,-0.44883783709581004,0.21531965187647403,0.9731656303240004,-0.8798323216384062,-0.5489904674328003,0.9454651605903293,-0.32230570932534036,-0.455103084686529,0.31862852795292407,-0.35817154971567833,-0.7700235072678534,0.3395965667901411,0.7616383445390539,0.5780772119090816,-0.6371464844041382,-0.2789510588462983,0.6892830779396708,0.47044809581087016,-0.1435423296043487,-0.5114889550464604,-0.5982977821711445,-0.7216151051849526,-0.3090093340479587,0.6404812529199737,-0.7954104688662256,-0.1819099036695009,-0.4315803486220545,0.5478244978130298,0.49849270724049904,-0.7159995195758276,0.5797800712828576,0.26259463145550316,0.599925255341287,0.3382305485843435,0.8123285495478164,0.18177009949657572,-0.5311891374476594,-0.20930491085442962,0.2268439769518897,0.19373762817135434,0.4513423598473272,0.6803309950511787,0.9133792668165908,0.08471921271623972,0.5422293442870035,0.9347282803355786,0.23800731101738637,0.4427150126537396,-0.36110436751086683,0.42187502052013526,-0.4358589750629048,-0.6305859272913179,-0.36200397186656313,-0.4459153334066689,0.9828025847367955],[-0.2854830733064524,-0.2594264679421972,0.32508507438115725,-0.9871342876652741,-0.2891853793185697,-0.1453578653101939,-0.5472936538536936,0.8365755081101969,-0.4950612526876043,-0.7266960131895308,-0.3668314169736941,0.06467341137986625,0.3761612645033204,0.4731303735397237,0.7989756886951469,-0.37708894510449187,-0.24167896703839464,0.559788007082037,0.13366625642284746,0.6788387468256893,0.1370588455956305,0.4978206046380462,0.9795562167252505,-0.2101696394471347,-0.266368907426143,-0.8180495742193937,0.8600512053327143,-0.7643620008231846,0.9180150938209933,0.6452936185079278,-0.6317819250455377,0.393231054160939,0.7687300088311593,0.6176270252320467,-0.1453601267298778,-0.8052132889388774,-0.5496060640322259,-0.9610301485830741,0.7254103266287374,0.19512684352146678,0.23946956026077487,-0.16996529167675486,0.5141580422451645,0.9120013845473376,-0.17624838024507145,-0.4362671959762372,0.5672369122474663,0.11601426470427395,-0.7427016964727486,-0.011226087507106864,-0.49748878705308697,-0.9676628073137747,0.5717888183649642,0.6775073323239506,0.17054065505593308,-0.4012018405661293,0.9313159931796731,-0.4990589137102104,-0.6380840795983821,0.1414986155067643,-0.320118012939138,0.8475820654633188,0.2164237145304591,0.5095303553603597],[-0.5827927756409473,-0.5175019112150487,0.6970905763353519,0.0710815438767104,-0.95079121633449,-0.4970432979576518,0.6001530824239599,0.48120280039175484,0.2120087973376647,0.9528159939406516,0.1514351529399205,0.6342453907775163,-0.3128838550820734,-0.6659819262161955,0.6508296126828936,-0.9659676684416822,-0.2083591110667016,0.4259143161857907,0.40266795387503734,0.5329604535441104,0.23676074609859124,-0.832667428343284,-0.5547542162578112,-0.8397046010170358,-0.3577307410035127,1.0109326158427927,0.8380171053888749,0.13905070845072148,0.9649660409165506,0.45534145322602504,0.7125780178328268,-0.41134144251220545,-0.523294109973198,-0.3629735466136272,-0.12265445425787094,-0.9803106162021605,-0.22576445191294953,-0.07347325355296976,-0.4214123119815494,0.2644890875249899,0.4919695524818728,-0.5497179346139399,-0.7605580844354619,1.0139030821393065,0.8970928350379334,-0.9759193702070909,0.30721922697768816,-0.3134064923771193,-0.8625578226143338,-0.530272067461254,0.9640833791471431,-0.5963151666401114,0.4402926341294973,0.05607507947908332,-0.34487451437994754,-0.6183044920484775,-0.035824506570863016,-0.6040762742326244,0.7132178389171709,-0.1580108331147649,0.924129762626295,-0.899193478983995,-0.966066006798225,0.9601879452532415],[0.8255690378950464,-0.317140091133946,-0.38049804614428734,0.12844554639785033,0.6412567152401033,-0.9645014363131207,0.2821785134196659,-0.013868114141694109,-0.7248974911320467,-0.24587595170049578,-0.7148759635729737,-0.8128010427711813,0.5114837613556495,-0.7025090169672563,0.5543673395618319,-0.9446263737963833,0.1659441621078702,0.6488867308517775,0.1631461723034312,-0.12002190471172602,0.27456982594240703,0.8557548602401316,0.7146296414976367,-0.6863430590158781,-0.07262058179574667,0.21671553744733157,-0.2535421450879033,0.23022965734926742,-0.08868592661936203,-0.4421531983472849,0.38436995015037634,-0.8245853374985849,-0.5899217997869214,-0.4204462797888992,-0.06090431203758123,-0.49405868842345174,0.221301669822708,0.08070727781062502,0.18033965253755685,-0.8342670038950551,-0.019382928009839515,0.8124357362399478,0.8122330355831893,0.12892493029115723,0.10223089758294729,0.6720351514051495,-0.30580116923139805,-0.1431755737995675,-0.6213680899486508,-0.2620755500812174,-0.19305608310401953,-0.12516359171342226,0.23697047069874308,0.41993833347286874,-0.3772153448215884,0.36953206857175536,0.5907740510144381,0.1701505960300437,0.5550755788787177,0.562597476246434,0.18981620950987135,0.9392295251610039,0.5379224145991314,0.8417640810188298],[0.5867567059615213,0.5592603464948458,-0.3334796923728312,-0.3656125866473357,0.71319332629823,0.1636451938264953,-0.9948230071958779,0.8894317212297028,0.5211569546812439,0.8665466468252475,-0.7087621544246658,0.6375720801823945,0.5452078905391158,0.0016539059499745307,-0.8053170086385012,-0.4147613829007467,-0.24318234351015425,0.10259572072966248,-0.7591751347735182,0.4767615801044061,-0.8373470531317789,0.7273616003133645,0.8816146104957538,-1.0136693946889708,-0.6680272385980036,-0.7687236511264323,-0.9354268787469219,0.2885561830062382,0.4871916109943928,-0.05383751955680723,-0.40515929769805453,-0.8792496283913807,0.8798395459010591,-0.07207327735645412,-0.3468169078878548,0.9526251878547416,0.4471436923173327,0.000572434244088502,-0.8885604581845786,0.5720757627205638,-0.03287088012325194,-0.7230398401428795,0.9400507281033729,0.11830873568468289,-0.5698311677654121,-0.20559065455266304,-0.06939911974180842,-0.16433150723210363,-0.9085348139243471,0.7427592748813695,0.2164661085283125,-0.6374341137985943,-0.9131724032549883,0.05179214736823363,-0.6261095290604825,-0.6370979022241797,-0.11595193453047349,0.6545122261254721,0.8244026185453247,-0.6485632665480988,0.08533986011554594,-0.07370864657850777,-0.5306224763138945,-0.9076716328607207],[-0.5696243286451375,-0.27764867768259627,0.212341955627802,-0.08472108380073701,0.8550033960019213,-0.8261301254114084,0.5640083712110693,-0.7819729781007005,-0.5606222086956575,-0.06095663063561185,-0.0036526001031146416,-0.24725463613330925,0.1532039302257112,-0.7316445886820347,0.5077628273926659,-0.534606797087919,-0.7996084020622626,-0.5862255835031254,-0.8727290469670202,0.6402208690994152,0.33426785907717693,0.8110002717459677,0.492767032240029,0.6867085871183984,-0.562178173821476,-0.5980566016642064,0.4397097894381566,0.34231168339700624,-0.1683023221644061,0.22754549681693836,0.11537804414039615,-0.008553931774457037,-0.6304985166728979,0.7022415500810599,-0.15280921905586864,0.9358392844179967,-0.9425513393037697,-0.7975002451833383,-0.22241802170618666,0.10850563241354741,-0.1347766988268478,0.11481359280825136,-0.845335623788649,0.40983569883141985,0.6129167954060349,0.9387600426346129,-0.6918038398678746,-0.12467260375308052,0.24223387236305502,0.4683157861252813,0.5040636143991768,0.8329196976492262,0.2293474257351717,0.20450495920221076,-0.6773233077682342,-0.9997429712788329,0.7845700439404582,0.07575135055113913,0.5097453824800331,0.487120906232997,0.6185856830209834,0.2110568020235449,0.1950229812023631,0.3767916204322003],[0.46399061262901475,0.065497802663894,0.6118572796779019,-0.6277676941380617,0.6849905874809692,0.602195358161033,0.04098469828283288,0.4833771521565938,0.8697078068494468,-0.9739658841123404,0.23186537738478707,0.6048274572385021,-0.054432818404211686,-0.4051395610476635,-0.6431356166115297,0.3981762633445781,0.44026273261540994,-0.3122204862854824,-0.4607269683811231,-0.9676209694774821,0.69791985392572,0.9335854191356179,0.3266986185032547,0.5806034288961127,-0.3834973867403735,-1.0075034382825636,0.6382725197069881,-0.21052731019230808,0.9530608173812993,0.5865140655583098,0.4757414102012654,-0.10966113012473915,0.4372483401265192,0.9632926691944647,0.9498911651269708,0.7293487322349259,-0.8804888562550728,0.5645909723807211,-0.2205186390653325,-0.6302734993931507,-0.05433349101497547,-0.06522491002967992,-0.6605236240423813,0.81298557915135,-0.8215882325408383,0.8338058139047542,-0.08081239622768385,-0.2968554173479639,-0.018503880780896625,-0.660957688719585,-0.7671179703386182,0.6239518854130613,-0.26595208309926366,-0.8039624470920671,0.3030201209956028,-0.0638822916591454,0.7230750791274465,-0.4923637924047701,0.8912701512864138,-0.9066271095640742,-0.23657205487966898,-0.8022233096696317,0.6874946599191057,-0.029089152661442852],[-0.39589242307922323,-0.38654098527098607,0.8250533788629066,0.3304414041926491,0.4749129960563135,0.4044764522050403,-0.5388845512789441,0.17594216656356004,0.6167374337632443,-0.5094061076657797,0.7291224912129362,0.8175777181868693,0.8828260174554452,-0.574794908281553,-0.1329445725462454,-0.40832704496354183,-0.7484157965407184,-0.5426353911500765,0.453551759398463,-0.20940899373122762,-0.9262417628525651,-0.23088021935728212,0.4728343517343706,-0.023419361610577873,-0.8319556115951918,0.3659766355741301,-0.1580021083329327,0.06888308699535256,0.3758918499552608,0.9556846884491035,0.9671747996221531,0.591859295749934,0.3723122548154527,-0.17453064355229034,-0.05645515821717469,0.474319126109193,-0.9078334106041848,0.2956152628163197,0.9801823287099033,0.8697730103495648,0.2865690557334688,0.21707675356487882,0.3039870093419413,0.5299122400528737,-0.8890840840168757,-0.6867259269694846,-0.7679204346375816,0.4453831117061614,-0.20152165453179405,-0.8444798509065231,0.5301804033720459,-0.26665863715043336,0.610090674666531,0.8660631791405902,0.40486927929266636,0.10199631356475003,-0.16582807746691777,0.5986815068708826,-0.8115544524729826,-0.24136671071027085,0.602271224170463,-0.42381923363326807,0.45661938636348187,0.7814641675311107],[0.8510262408047594,-0.3834688938877674,-0.7342507994977695,-0.26057893516895697,-0.1400236562645026,0.9293293498508555,-0.9579014585770609,0.3713767228331167,-0.030634890081561804,0.9383692604475223,0.2718836690768883,-0.8550153546113208,0.35401860149388803,0.03059885067427883,-0.988455700480121,0.29689098797194646,-0.3717224413880626,-0.8568779226972999,0.8706883447552559,0.11075886686698946,0.9871104703405816,0.7273457900344786,0.9419345634570706,-0.3452913194381453,-0.4767234576263103,-0.1867314680395413,-0.7345912818403229,-0.17684966638213023,-0.4942962349843032,0.0834797757978977,0.9491907085577221,-0.43164806084532886,0.3100530863866684,0.009557439534548991,-0.07309034603797615,-0.23667970915269895,-0.8604252057155107,-0.42831533651594134,0.5264457111368046,-0.2071835748651368,-0.04407976073189323,-0.6022964538539429,-0.08812470940801057,0.5608690700117985,0.14933215336450864,0.5943796850073558,-0.8583500391831514,-0.588520510193076,0.13493964533766983,0.14632571680424192,-0.695624973740397,-0.7910870048510975,0.15027607161528697,-0.7414302650108019,0.0929605119958071,0.20346458620404734,0.025070688101980595,-0.45027516887328367,0.7411144770524689,-0.85374355600002,0.7949975986582307,0.7991305795451561,-0.5773526052172888,0.37326194975519156],[0.2404243029067692,-0.33343035283375544,0.05668822622158806,0.15086735867048343,0.14712979671202378,-0.974424091914734,0.3077040700216724,-0.1755555831804341,-0.09502389703853834,0.07684740749021768,-0.6217318900275214,0.14662222972700706,-0.28262010219156253,-0.3189253691656696,-0.7815837713969114,-0.9334043706922703,-0.5778359255271369,0.23410159644063971,-0.3607341385351483,-0.2482336054998648,-0.1403198336779668,-0.3530016908792792,-0.4132255502949843,0.8928293557722028,1.0095188507332207,0.7993120977432876,0.6508683418776356,-0.7615066931016318,0.29682697835533317,0.20392928173771166,0.31740854596230916,-0.202238446571068,-0.5760455323656114,0.6458345390904882,0.34480389529364325,-0.2818501199616069,0.48014013713078635,-0.30609135924265235,-0.12275088515599396,-0.4586904799844471,0.502000486211207,-0.23339202130779127,-0.993138922493266,-0.4379502125880838,0.6396534735315227,-0.5277494951052845,-0.6441762795467315,-0.27122508758150016,0.7075202737985223,0.3554034692358506,0.01986827027882494,0.11552355822650881,-0.7346164530534566,0.704456151368774,0.8310657837651908,-0.4813157280968634,-0.6294845314904577,-0.15848131166982038,-0.8369418374210806,0.7999555142587881,-0.9308630106426535,0.47560619636397905,0.8680875726645367,0.9374770664390885],[-0.9116415520406191,-0.8325787654043633,0.35934726256793353,-0.2296739481987289,0.2302879181040773,0.5800816834756612,0.5932074379463986,0.715280527136121,-0.36326464535691205,-0.45669286844048945,0.9474718301080918,-0.3925206640702747,0.6708582052840684,-0.3858089525242964,-0.7235903256411856,-0.8200387737542256,-0.25778085513143134,-0.07945331310224632,-0.014461592270433475,0.13464789622018103,-0.8567836545091974,-0.048883540104837926,0.7483108439669913,0.15205937176144524,0.5151895592647855,0.9680172253455731,0.9071069390235255,0.5993669297650054,0.718018546247737,0.5676593477476585,0.12434681313072032,-0.2758360559331282,-0.9782061528448155,0.1297622572419843,-0.35372722726716466,0.21199113430276595,-0.7993612403298552,0.2632440746326513,0.5275810299506883,0.5154714360216437,-0.14957731947914973,-0.7194426407889338,0.4951711770137332,0.049542238323167884,0.7286276845410443,0.7799798944901768,-0.6455248654015524,0.2527895903815805,-0.7294759047586019,-0.9835034373725844,-0.08232376917510593,0.12521240854548116,0.23266486757732044,-0.01681150296038907,0.26346518433238597,0.9885634147685511,0.8635632745435843,-0.07554590466329923,-0.5433612448945456,-0.9689086125244325,-0.5219559673315012,0.9369361874679569,0.7875768621697337,0.8188747202685146],[-0.957763543823102,-0.5775268439282809,0.05087926689029543,-0.21394821243275047,-0.6734173590333425,-0.8190342774438353,0.05174666150034186,0.0722736301431973,0.20724704013032305,-0.7134419268196065,-0.44347588041003616,-0.2658450088487867,-0.5129089189435928,0.29882271426153056,-0.38932898965758717,-0.4774847440392812,-0.5226140225230217,-0.4004939457068187,0.6494941809889793,-0.4382372942899077,-0.31570691130903505,0.832478321604957,-0.811074614131397,0.11523347367035204,-0.20773996592967484,-0.046381205305374026,0.40574343541468916,0.7940829869831942,0.5345841559086848,-0.7616773020765302,0.982129670397093,0.804841959967924,-0.6970729454243546,0.7711519277621708,0.1652402121983191,-0.24540614497980678,-0.690603985988439,0.8871209387468293,-0.4704055592124387,0.4690829468595326,0.6693839324318389,-0.014289076221384792,0.6406641096426259,0.08777455318425971,-0.445044107030832,0.5966275968852126,0.44098125570721763,0.7874171341896975,-0.13016253032166353,-0.8386951597912882,0.4882966757869514,0.5093166893649524,-0.43292267379920135,-0.5702586026176859,-0.38429035507379106,-0.156664247892118,0.12301987477781581,0.3234491776236911,-0.41666731526368184,0.04628342742388397,0.52819722698454,0.042095074406207356,0.5299709099510793,-0.9162196503101935],[0.5882405088894397,-0.15542573976150084,0.26798063671555494,0.5968419717670923,0.7202359646192755,0.07192144141216673,-0.23371171460852927,-0.41605572979394106,0.23610765719784813,0.9681337712658105,-0.3268633907336403,-0.6070874274027837,0.4576108907284333,0.8270448654904938,0.11840058272826884,0.9480691828377974,0.7970470952197682,0.3886674595642233,0.5197053784123062,0.07598473852811981,-0.9118250642186528,0.513326217999377,-0.15533675250859796,0.28419662779940885,0.18760617462309262,-0.9332985072991271,-0.016520259500657542,0.7075373740635247,-0.609815013326446,-0.3870709676385264,-0.9829250058218325,0.7798057697557569,0.1900387701866497,0.28110676152973324,0.2333444126949654,-0.5402449750875435,-0.41343906929059826,0.6238108937738767,0.8665802497196987,0.4287036847250704,0.49061932537174757,0.8298804910593661,-0.06768340194429025,0.1428070965900399,0.5725264928223253,-0.023156961236498238,-0.4788041629037994,-0.248352282939112,-0.6659901474746935,-0.83829354207809,-0.23605262759928158,0.2613051089127861,0.257242431725285,0.1826222011084373,0.4514205648680263,0.7066933822072217,-0.9681597315861082,-0.46195694810071974,0.34845901634210397,-0.11963247100385963,0.6172775990626848,0.9251640862761904,0.8328120782935703,-0.26342148435003176],[-0.8737740571430479,0.4228401800983101,-0.945648028429548,0.5396368486690194,-0.20805639044495833,0.42831937830913314,0.7032247597686895,0.9594078118182672,0.9277013668745152,0.8768414439814185,-0.3389622995972707,0.19703434501723663,-0.5466420933587492,0.7788232191352679,0.7098160844970572,-0.22607655735031726,0.6746223747980196,0.5061649094643079,-0.6249424187741754,-0.4729349977788677,0.9279528300837059,0.10243266422413748,0.7005783532095456,0.9729987039696705,-0.5958704063751145,-0.6234555216693266,-0.5927965777231664,-0.8815781191338521,0.8258083138789405,-0.2805511095360289,0.5911703218374991,-0.054384904440139464,0.4934203703510838,0.9671715211378471,-0.2953236858967381,-0.5910527715624276,-0.380201048606249,0.7326087353912402,-0.8449980987042397,0.45561765369442486,0.08576915990731569,0.8357926741769751,-0.6296818267037813,0.9060390545551057,0.45073424515073335,-0.007729763973809964,0.5347393941285599,-0.684402512555684,0.9054974849909374,-0.8057577882504566,-0.577035706299672,-0.08816435970101272,0.034673352302952674,-0.6418739238737353,0.28295641441298813,-0.7732490664349343,-0.21675270165725832,-0.9151569131224595,-0.1560857134285446,0.26952480791039357,-0.51848273467303,0.7885917123735615,0.9631246895088345,-0.3180834815470027],[-0.2317713007204427,-0.04778315077799604,0.7216776380402967,-0.5824697921222026,0.38624131677769813,0.5592210414690916,0.3600478813487871,0.26521842644065013,0.8944616175593887,-0.9086361724051027,0.8995645008023813,-0.5711530720286048,-0.47192153121701474,-0.7763311675441369,-0.4806035008857607,-0.8917305308411143,0.4714542496234464,-0.9012445647197282,0.9019250433121062,-0.20748308709941224,-0.3282724808665948,-0.31603650540010675,-0.5072079092147804,0.05239596231998613,-0.21088542002738617,-0.1810030687182265,0.8301750894283392,-0.02218547991811796,0.31621069433008,0.45893491438690387,0.0385214213367313,-0.09171028138736854,0.6179290623066214,-0.9203802133526874,-0.39226634819279027,0.9280809001859609,-0.9575033643037805,0.08753314364337193,0.8024127570680589,0.08757239242227813,0.7817733437911124,-0.4640723112484192,-0.7758001694630343,-0.7318070316984617,-0.4788916057770439,0.6202935697867897,-0.401554320271955,-0.9288509488809522,-0.6492553193846994,-0.5579476817885902,0.931901143003266,-0.5027745440656758,0.6635749898249959,-0.6079590959044108,0.4113069407430106,0.37111056509253865,-0.15406870414547702,-0.7964611828036372,0.9101453021785486,0.20121006621067483,-0.12343166007722343,0.028196299783220597,0.035348614917377,0.6301342026537202],[0.171822167424126,0.247202359744341,0.7777309536437358,-0.36428581700360907,-0.5408594822291692,-0.16124873524192887,0.5262614384651924,-0.46718172645324063,0.2684288201496939,0.19915267005661028,0.35896285414092755,0.8392662667572698,-0.6188159622748692,0.10957343150538561,-0.7460404139344846,-0.5955407246834714,-0.7879061898608956,-0.2914696841088933,0.16980644588906932,0.12610205724912418,0.7922736925878516,0.1089112436949235,0.045835681386376545,0.38739431806530145,-0.41646063668581307,-0.09265148504980421,-0.5919520771796244,-0.3126177237323011,-0.44747042614321003,0.5242470504915264,0.4108571897952996,0.5108511365596199,0.12107064875678338,0.07954500100068657,0.031218870775131295,0.2561515239675937,0.42070984428019353,-0.5319093453662118,0.5237439502973633,0.021767710823154207,0.3711090376059058,-0.03218137708637813,0.07922131779527185,0.2942519008183917,-0.5937803989525705,0.08566074439258388,-0.0455795318264497,-0.7738430940276102,-0.1779012461783844,0.7004185417399351,-0.11597805561354127,-0.8826415197145792,-0.9449835561981517,0.48308349077111357,-0.9458589832762815,0.5754132381939303,-0.7809182012143574,0.6322560493862743,0.44263556326540326,-0.3844950486346107,-0.12115362414372657,0.19596088222427627,-0.42531798185833664,-0.9220866098217708],[-0.7452571703969486,0.9693209085605043,0.33124821435768453,0.9562501589173372,0.9481642071421983,-0.8021507284983534,0.36376029148227473,0.4949331006091142,0.9644123960956373,0.7526352284433754,0.09357461755981077,0.9121263910572427,-0.9923021412430842,0.05267959149104117,0.42560670733156053,0.5764735306926344,-0.25475772545613196,0.29402398085242776,0.07368967899112358,0.8854936128640635,-0.9527782741111608,0.2583576018723341,0.7781499854803037,-0.44953098433333777,-0.9109358976883616,0.8666469986616536,0.12298770852334022,-0.9347452991090344,0.517506003221421,-0.8738805287500192,0.16558931023524814,0.3682354663080687,-0.15224156668438543,0.4814983185194123,-0.07110094443717097,-0.1861089419247234,0.9557979010054144,0.46510346550247,0.08103660985782844,0.7825457697953583,0.9561988086744683,-0.26771469159760963,0.2594986823602979,-0.7547518050312775,0.18384720444527472,-0.6907102996664961,0.801472046448571,0.3622001117620824,0.5993756513007634,-0.11140164562757514,0.8771447608985576,-0.8744971137248533,0.6607682500676273,0.28226118601369815,0.06651712937435046,0.6277839545920515,-0.9302661445072903,-0.8859726426172577,0.11699816475489908,0.44425741292372256,-0.25075464303158973,-0.5977231335969485,-0.9154814838456375,0.2737052066081826],[0.8765767022256743,-0.7836250985930683,-0.7795504774869,0.3156465759399232,-0.8356692869240152,0.22151326809139027,0.891327040870513,0.8259434863047371,-0.7146500434070452,-0.9268012141528433,-0.9346866552650428,-0.6303170115899986,0.03405247875581837,0.535346160904701,-0.2591056609749728,-0.3581443403290825,0.5589227803518202,0.6326338444683304,-0.5995120201923427,0.687065193887612,-0.03663348782577454,0.12503207226605262,0.6410189550797034,0.10231652573580409,0.9368953622120157,0.2830855456060727,0.18046585539611637,0.2220781850063458,-0.5854875077455837,0.3201819890323832,-0.46874855172491103,-0.2161574081116936,0.7709690731954278,-0.5821606383213294,0.333552972817475,-0.8536145578314648,0.09480303737018914,-0.7153424473081972,0.15633250596203446,-0.3908499918945351,0.7029138477594061,-0.3776575811285449,-0.3449273680890564,-0.0029854440939796312,0.19280069413305248,0.8721847829333504,0.9973180928078164,0.11383965826647288,-0.9436439920448769,-0.6263082107114201,-0.826259355839201,0.4926374493299522,0.2168333164397922,0.46146133826998664,0.359865990472074,-0.821154386629085,0.07314089544828235,0.3861365260846032,0.2989378710790118,-0.5009621229686237,0.3700592149499747,-0.06004035297441144,-0.618210716943774,-0.368511991777947],[-0.652317268928076,0.5407971900633683,0.7720187980685598,-0.7673321976106549,0.6183624567106791,0.8994205991822898,-0.8842647986272145,0.2615835360069872,0.8502916068891498,-0.6906385648149694,-0.8536118519362755,-0.7484532014583812,-0.9232088993469254,-0.24232458876959795,0.3700752526141162,-0.9500770183601589,0.10256546728315881,-0.4536414153870305,-0.37183681297721366,-0.2706001671886125,0.13801604067918533,-0.10198897885335269,-0.3491874211060807,-0.0014457328140938708,0.9722304167256236,-0.2526483902150213,0.3209616973376159,-0.1625523433227677,0.985407910460906,0.9460750310608612,0.4324376541330892,-0.08111069757722433,0.4303811109107444,-0.38717151292689467,0.5460111805143817,0.3378940996491695,-0.29458835992600246,-0.8974731715355113,0.4855421034216446,0.5760337598163059,0.09995907917075841,-0.15927844789146714,-0.17194880815742408,-0.2496837106795181,-0.9101107726722495,0.16160669889007057,0.661307110079421,-0.5096507602552096,-0.8572190084705432,-0.38651412890063236,-0.18947406292650681,0.12897681705181865,-0.20339984222454857,0.25474705849773277,0.38648176972497544,-0.6311424268326856,0.7532736608318927,0.6394892347724946,0.8516810938696796,0.34243195478792343,0.7133995554701242,-0.6543102379537467,0.5043878254604885,-0.19686570434288764],[0.7264674071582148,-0.5653703860316219,-0.6940615790251713,-0.845522707283718,0.8358796805723988,0.946825074502648,0.5934203519945698,0.9122733668992878,-0.8673001909720365,-0.760007758398325,-0.14877634038170975,-0.22389205287347005,-0.4241004842021235,-0.468360070722142,0.309473090864482,-0.7608374042629328,0.5473903809886363,-0.05308733547008042,-0.5281965413292762,-0.5678701436724122,-0.6733089464871034,0.5226889352255872,-0.4728829613384235,0.07601093351478132,-0.5609282409285244,-0.8562879037523733,0.4823184387258012,-0.5548241926109453,-0.4723219661969327,0.7062004311899156,-0.9207541266040825,-0.7381500714876421,0.38552529235335303,0.22656975705027366,-0.38609577725296185,-0.8282161768951052,-0.6859041217542816,-0.4324945250619789,-0.7477559053719274,0.22996555961091164,0.9249359890095483,-0.5714094884109933,0.7340392470502904,0.3526763152056431,0.7037982109300648,0.823842177007165,0.8966129860115409,-0.662160010976897,0.4279812683422539,0.4747146966063301,-0.5914751555717006,0.40859746244746675,-0.7008900249970034,-0.24820793868345914,-0.7844567940577984,-0.3132322286098604,0.9226160973139969,-0.325541157047291,-0.47725812238688,-0.644440385102974,-0.4261981286728284,-0.8621400394507824,-0.6809866597611938,0.1710377275646374],[-0.23820368203957573,-0.06475273924547077,0.07140316571932966,-0.2004995485257784,0.5824431058546025,0.8100774907813129,0.5539713657384662,0.7627143963032758,-0.5558204740758176,-0.18515558705721916,0.7867429964518201,0.9019472417642853,0.17104912165589017,0.7472451824322,-0.6728050015463077,-0.026899154921790135,0.5008384605948414,0.8190626366489611,0.3522847861516249,-0.27479545837333597,-0.7060407466146635,-0.2152062040849367,0.05767167259721759,-0.003516150877393796,0.8303259983832786,0.6402822735607098,0.5533530194740139,0.6136936750788354,-0.5896468521330614,0.06434586953554784,0.09712959373261124,-0.7102557397367177,0.08425334511408528,-0.8663439323688467,-0.658619868620246,-0.2522553328213444,0.653593165145504,0.9875705663115047,-0.19054517824484876,-0.5326647489640707,0.06704790476215464,-0.5144414662584802,0.05933199829509901,0.004218787579875095,-0.6178644130311898,-0.9480315892123398,0.18416229287995944,-0.6619598143818054,0.4369573797601553,-0.17585197243346296,0.7498609044240927,0.6873833707206275,0.8966927998923494,-0.3404202450267849,0.4242015537432018,0.9338446562178156,-0.40663083120238935,0.5543471569457584,0.6239844713079157,0.21234634367843702,-0.0621617225947434,-0.6483061409143345,0.014099247708481456,-0.7686319028023155],[-0.7394255802375407,-0.5669626347289296,-0.4577839720370871,0.9203236526705928,-0.7601847332507362,-0.8475526965733741,0.5085882425620082,-0.1806663556557276,-0.18318356237490052,-0.0246316033744709,-0.7693893948381862,0.23864596731119697,0.03412391609042136,-0.16929510343394075,0.020730834664047505,-0.648877468199292,0.5075864465333481,-0.9734195500345539,0.3613711919497999,0.020908474642977307,0.5143635665994396,-0.46481420073258306,0.05729212364073896,0.6314859117113851,0.8088261436306603,0.35859292710162416,0.06181165171844738,0.8473081650308715,0.6005549712912318,0.89302742474377,0.13068459571324495,-0.2895933827553359,0.6074158226465239,-0.6226074463104034,-0.5886754962293529,0.754710271886897,0.2579560188213256,-0.9345670020512021,0.4714174584939333,0.2910584296616527,0.5686206827092749,-0.7618226025702287,0.35629084267462413,0.5567486263815848,0.9586327563039851,0.9657374180462055,-0.14133089837845866,-0.09431623620581955,-0.11146500112346075,-0.5003992808228751,-0.7284088980051796,0.13959006102875135,-0.02086109414306413,0.4219265859355425,-0.3130080317983063,0.5127151033346262,0.479638029277614,0.11894964147120102,0.11397002427329152,0.248928359590819,-0.6735137084973243,0.2538050299166964,-0.4085352868935134,0.3856139225244583],[0.9595698518013599,0.9926112057947124,-0.39514248716649436,0.9166559892517614,-0.07263874063756137,0.5196105843503976,0.00841477172430273,0.37182667200084923,-0.4760701102977033,-0.12719367961878705,0.440033621208119,-0.2635465476242576,0.05125309026536095,0.578228034223894,0.4914971631499477,-0.10023689393232908,0.026426003198256793,0.25339153240703965,0.022249799050660688,-0.8626504096517629,0.3283979816649674,0.5930430929297856,