{"layers":[[0.5490188525190579,0.755576086835895,0.30850923048373585,2.182882581863826,1.9102108030741003,0.9641899327350992,-1.9051438244143346,-2.183074480898158,1.3552326869489106,-1.1273851707905909,-0.34859995040390135,-1.159865851418693,0.8098752756570855,-0.6413338389044517,-0.9956739245345275,-1.8860057630751887,-0.9277753821395255,0.7388862857909297,0.39411330861450705,0.2745570187409588,0.6111101910263735,1.6870244502719967,1.4033389904389788,0.7789511619244325,-0.6246904893300991,-0.9835290661232735,1.3338695332119106,-0.548904384917133,1.1897366442861168,0.5082511326744084,0.3906645691001602,-0.6131274241604164,-1.2091818252369864,-1.5805314595965159,-1.3368710609298096,0.8901448186955238,0.9,0,0,0,0,0,0,0,0,1,0,0,0,0,0,0,0,0,0,0,0,0,0,0,0,0,0,0,0,0,0,0,0,0,0,0,0,0,0,0,0,0,0,0,0,0,0,0,0,1,0,0,0,0,0,0,0,0,0,0,0,0,0,0,0],[0.952127059116297,0,0,0,1.1877903422088494,0,0,0,0.7433872366062007,0,0,2.3709117694707937,1.6892241136384323,0.9188100408117245,0,2.029169330503632,0.22996075450913728,0,0.789746470770994,0,0,0.3416163459069102,2.235432918437466,0,2.1258481337802024,0,1.3249520500253031,0,0,0,2.1929769704062783,0,0,0.43045890899379824,3.923995906496591,0,0.1575875367676546,0,1.8341738538549246,0,0,0,0,0,0.1425460048063859,0,0.3964606998481045,0,1.654682019681297,0,0,1.0013450130872874,2.2069597553789633,0,0.9135760442056963,0,2.7724197218535096,0,0.8717062504399196,0,0,0,0,1.8855933376641838],[0.976485142683622]],"weights":[[[-0.03324012637708162,-0.08324508165294676,0.0645263163083426,0.022716034431470317,-0.21630221019184248,0.13085798947732988,-0.006084004380071854,0.13157611284324464,0.14905730558592636,-0.20947249667574777,-0.4014648492367198,0.12296861958540829,0.3678509755548925,0.03956379920847396,-0.09128316016295458,-0.063564280428673,0.1446826647425238,0.09598275995552069,-0.006570467033939254,-0.2187163622388346,0.11728937419378085,0.19568969371707692,0.026397680150993294,-0.29933285056611353,0.14503565378518052,-0.007853541767290861,0.1756401290467946,0.02327924814311564,0.14862317427015376,0.040204032416529305,0.09111914629108665,0.07004623889926877,-0.015332535703125974,-0.3602573229850302,-0.287490541714494,0.22788671826916035,0.26153292176413034,0.050791562966412754,0.26054537529507943,0.3006680560131619,-0.33317425848716176,-0.250248707564627,0.13633278268815602,0.29984579413814555,-0.1968677280769267,-0.08622585004541555,0.16078686291641178,0.05763432881075787,-0.258024981487757,-0.04009747056512829,-0.16315687592893036,0.12135288475444823,0.10293964622244874,0.1049135253745637,-0.061441328739952665,-0.3528987078254591,-0.11181587563335606,-0.12294502092234653,0.22516788232014065,-0.0280407816290505,0.017736508038679426,-0.08615032818204828,-0.2666071614869352,0.023029990613581873],[-0.4264197411645731,0.022218991012315246,-0.09249479014423564,-0.15573182962180895,-0.10451676302788812,0.01577933331399389,-0.28649171546901714,-0.15799432863480278,-0.27229607680969725,-0.14450628552630282,-0.0073866882046304955,-0.36212055122151415,-0.10213669563415183,0.35199525856993374,0.06366657070537043,-0.1472208119502501,-0.21114786451336645,-0.0871283467461852,0.18853642866920814,0.0013083700911919285,-0.02527318852582047,-0.05621740035735031,0.07466213755348663,0.06865964868136075,-0.06553460776629513,0.23439660819320363,-0.008276592298181035,0.3241798554888331,-0.04449387018021644,0.1764124805427539,0.13766250942171382,0.07626938246564594,0.177851832512798,0.1492436747650259,-0.04445460116686504,-0.2125437348697513,-0.1790279864520452,-0.0061150647705380135,-0.07628069818237695,-0.05698778508011377,-0.10397888901029177,-0.009383537835993461,0.16627181665459662,-0.15962193635617905,-0.19154698145813198,-0.21962513358762925,0.04828206364331567,-0.20356661323211309,-0.048178570772288036,-0.12933433381838957,-0.04528096540469795,0.0011304512645416418,-0.24652290930343287,-0.0932287065988135,0.19634404454596255,0.10259157931242009,0.2707298583381117,0.09849153984369793,0.15637421425904982,-0.38675179688969064,-0.1162052320066264,0.2940751451534657,0.0592431846286155,-0.05220183468987789],[-0.05471821857548841,0.12887353891315284,-0.31202993533708184,0.2408789636172423,0.09180307886098647,-0.040397700209068126,-0.19635439477531252,0.04083598889819552,0.2174400396004557,-0.2604296087551703,-0.46721262696306454,-0.0022376026874413625,0.1512467850697389,-0.11799854768041904,0.00040363246988424454,-0.06334820356372274,-0.09695183599313087,-0.1506962569126394,0.1973111474542738,-0.22242613979994735,0.49857963423087825,-0.024229986909949985,-0.4047385729799015,0.2695216996195866,-0.03316781585003535,0.04117368387947736,-0.041489396463050617,0.09643864688850994,-0.11250114095677291,-0.12059644692931719,-0.05663645419674511,-0.24958387912234348,0.16182976833596863,0.20663679918865274,0.08729947739995429,0.06276227768685134,0.03135209565302904,-0.022631040651759433,-0.0034528250428764633,0.14964996480391068,0.18525214899701814,-0.039456494301889126,0.2148014557484652,-0.10569600696025998,-0.07380883789867297,-0.21449036479274602,0.05198867133376018,0.08058060693916376,-0.15215511897315964,0.25749712988630247,-0.19419757035433174,-0.1866535857310891,0.12386179268021236,-0.09624764420982387,0.05717930505254361,-0.03301368485372805,0.20036664757227082,0.05749754110813479,0.15073424902590718,0.07057647349606838,0.020949999074924595,0.3423166371230617,0.024228378275795704,0.09383123069006488],[0.3501972524897322,-0.2698503943500778,-0.38733875426237785,0.1043949360819364,0.13333748118114028,0.18311451508997245,0.10898291837312163,-0.3865994533646789,-0.04864753278525075,-0.3366082105727981,-0.04581757203240524,0.14919309220817908,0.2766088746958336,0.2911459692898673,-0.09711824295641164,0.2351723988569011,0.18408428853082304,0.004751750271985919,-0.20130549497660408,-0.1456865320768933,-0.18154075956072357,0.17675021754737616,0.019669931892572632,-0.0009568236827279057,0.22295453927474781,0.026435600141763507,0.17632009268968868,0.03623187692123932,-0.1941865235115736,-0.2519504052461922,0.09221829666133088,0.14275422761978512,-0.06316241836945863,0.24188034087840377,0.38457390622365845,-0.1710377832135826,0.05893150808046096,-0.3540951037696661,0.3252678286005103,0.022276093541217908,0.13370482910557988,-0.23903629328823203,0.1472879270835408,0.06365146513713946,0.02673602188547065,-0.18214782139463156,-0.047449170675527945,0.10528247825446158,0.24005268270957014,-0.12741005870311892,-0.06375512301589369,0.2251564361043772,0.5618442685233562,-0.23912546948739832,-0.0169622402039593,0.2506974348826606,0.1295885940343253,0.20300745915907967,-0.06564622117703804,-0.03107576192629472,0.256192891805364,0.035008860190617,-0.01808747653576943,0.21241925853996538],[0.14386417924185085,-0.23244141132271598,-0.20816167317627135,0.24547219242645005,0.025893083414662243,0.31691799118257397,0.04132718152738784,-0.02425704409207611,0.02479749549181214,-0.20561701364569226,-0.21009760276516856,0.10367660044571662,0.2998586988039995,0.05700287579536722,0.06631311495654565,-0.07077887538966454,0.3105928245267476,-0.1286922804774495,-0.12770550366406913,-0.36764675131103375,0.17441771918363802,0.1300567372851312,-0.10556484981176419,-0.08468927062959622,-0.09573459730926641,-0.038845607546860034,0.05323739589192705,-0.22280431439250273,-0.028441129017413427,0.018011771984359343,-0.017625956592394347,-0.07253323014657961,0.12714370119176963,0.2366547448376362,0.020591353784862564,0.24918472858262383,-0.08488095590673057,-0.04653310404980282,0.14199043189567928,0.26969071588910376,-0.0153795446135406,-0.15582811927881118,-0.04531644875762022,-0.12186971562181562,0.018001259201612097,-0.08097104428666436,-0.020964659050885553,0.07541081519936024,-0.08139696083884393,-0.22886798878042353,-0.08232749541071338,-0.08042950998638136,-0.2620380240043289,-0.11817330078164183,0.10138261645288671,0.064698274821974,0.27374797944743606,-0.30445888454495673,0.02294654573842196,0.045071587894226064,0.03062935912978286,-0.05304409547730288,-0.07799089297159696,-0.07900382923832344],[0.06551000688617786,0.20605381443714887,0.10492071887480432,-0.105741621507279,-0.19319809087763265,-0.18764725991912934,-0.1318948923267297,0.11518292097669555,0.026938771950972377,0.1772832719204695,0.11431252542540528,-0.04594307174061939,0.11456327564058902,-0.1577095893319448,0.04314615020865598,0.08865938278076246,0.11817158900132103,-0.11876460865087443,0.11813935404760112,-0.04225265850004678,-0.22073683660017876,-0.42674309222391044,-0.38769621745757016,0.10817460772231842,-0.14010780449339447,-0.28868859844570155,0.12456322604219888,-0.13730247104961366,0.1115630777641724,-0.1672562767540726,-0.12047245994307126,-0.07287305371257005,0.08424732321612315,-0.01672458822960571,-0.06813852589501986,0.04783181621989949,-0.21334228668280464,-0.2768242211214843,0.22589859465491197,-0.002588808376794165,-0.08069254761474465,0.012226510839229428,0.2623152759777305,0.0498291580608093,-0.11651027232431942,0.005665769159547962,-0.17526715878082455,-0.2258035513789424,0.5577023997835696,-0.12514543850258,-0.0044921436053857585,0.09233821245399973,0.09691264267452426,-0.3800937145916245,-0.3800742517745736,-0.11136179561360704,-0.013736478239805951,-0.09911158781673311,-0.12903701654240868,-0.0726882226718277,-0.17376264438959466,0.007050384492068997,-0.0864795109085139,-0.18336489978021478],[0.2296578850390498,0.24042763999933237,0.36690346447241207,-0.1367146842439645,-0.1535516445677236,-0.24553745997259674,-0.07295847540937203,-0.1648653519754423,-0.34544751395178613,0.034598922624143186,0.0756806521241028,-0.05426384211273189,-0.13090412247708413,-0.08686015466734653,0.02686705318183324,-0.16937797424861217,0.19412570396626408,0.5159222067953181,0.15295579193693842,0.27389512188544857,0.050556935298866984,-0.07427085586219305,-0.3043359257304626,0.28057342812257485,-0.20634223771610094,-0.014495214890711042,-0.32826183379656376,-0.1862803656273665,-0.04179492702436997,-0.3176499575369499,-0.1630727525664413,0.14382228367669195,-0.09513579671168255,0.1186848871071767,-0.12247923159155698,-0.04805893562470427,-0.14774170610178652,0.2563087768277789,0.057734541208163646,0.22898456277469775,-0.061288191469234456,-0.2693825527416674,0.16880800713802818,-0.09129689122114007,0.022420763995863513,0.04344553994837747,-0.26797414956895216,0.35778565670155876,0.12973169527580683,0.36457022057267746,0.18880613123227843,-0.1309637304146699,0.009272365564595172,0.025772543721866825,-0.11092874025712833,0.1710468963674032,-0.25759739926586217,-0.045353845958672256,-0.009604466984087373,0.1881618188795117,-0.09606004130906592,-0.08976168471762115,0.10475400965049098,0.08668393028436015],[-0.07977121805396702,0.1365023399028111,-0.11498614687109496,-0.11344758865538682,0.14931516235140155,0.053509307624034476,-0.004110624184915365,0.24909051561659887,0.3083460033405745,-0.02724946696379799,-0.172254824795742,-0.06330869479797077,-0.3109376013922053,-0.07235463690110654,-0.09640487605939083,-0.0576212596326492,0.034853697874048954,0.0023873529125915324,0.06299300882155358,-0.019728995425726033,-0.013201707681092639,-0.2584470083834139,-0.14672235536541628,-0.3235203303472256,-0.1619154718490784,0.13030860676169692,-0.045184811018444626,-0.03882873833207449,0.0738256252860828,-0.14896739743499138,-0.19780093601660897,-0.2040461848670755,0.14184576471209367,-0.031219210838725274,-0.030300082598584247,-0.05597146236099005,0.2761362335150594,0.07603001416512278,0.03333947002548883,-0.06262465893383294,-0.09048682602294382,0.20097594019924608,0.04916067464025297,0.17541152300994625,-0.09366975705872195,-0.019295440318256588,0.17550260112917226,-0.07560449283231518,-0.1519274363387332,0.18239739441808273,-0.09378041129921927,0.15303244257768142,-0.300332925769946,-0.15231754302822362,-0.18312287063550475,-0.009195935339069782,-0.1330775974626276,0.14832147195665524,-0.0893980967392156,-0.08971070132465729,-0.09532452729477607,-0.10131111979868346,-0.13897022851687862,-0.33718804562709537],[0.0008897661639557553,0.014788840599137097,0.0046007985292034655,0.03632602214808655,0.05207601938072525,0.18674139307633625,-0.0898895526383406,-0.3853430814275488,0.19128550944215114,0.12400880841463352,-0.14865846104848673,-0.22943361324434486,0.012519878139729738,0.15673897054202557,-0.015069777719169787,-0.048393682940092664,0.06766391662651841,-0.29073676307230406,-0.018886909287430517,-0.015921171466665655,-0.022652998179673367,0.05424080116850332,0.1772221701946415,0.059799273995070415,-0.09540342601817285,-0.1946039691261863,0.13801736671873518,-0.08032852925961877,0.12095153458273783,-0.09525885331137623,-0.04682646681317856,0.06716681685616895,-0.34488953816910745,-0.21757753256726606,0.11868869450486105,-0.23068993727107853,-0.1013039325273887,-0.31629453638895155,0.16760363027708233,-0.08751127587689998,-0.12846185303026997,0.046388340080947305,0.11522309802173031,0.18099992428902234,-0.12319635655093991,0.08274882910299036,-0.28735867701290724,-0.24449484979644934,-0.2406604939034988,0.03676910753862761,-0.044639566597973315,-0.02338263100690311,0.004183046662302425,0.025795908205282544,-0.07340476758259502,0.01834275542938444,-0.030068565396069283,0.0003497455834204201,0.2961867206908752,-0.05872209440352988,0.017627155778376265,0.05140393152303914,0.10726354152651772,-0.2643378373159691],[-0.15688239579276916,-0.1735166605601297,0.25658282293260987,0.1740552626332587,-0.12388671659076443,-0.11688961488529655,0.08757394106544912,0.019157145456554482,-0.0224715503098562,0.01016237068027744,-0.13359541560953145,0.2361536478125279,0.25606130772425745,0.5274770869510889,0.1704249710781668,-0.06394886491517088,0.09404372711621013,0.20165398226442408,-0.06405609011308105,-0.29986100714488073,0.18309016255448599,-0.012347108965910925,-0.1764141762405531,-0.10877418732080167,0.1866627320040091,-0.04578972923778454,0.0966518086067259,-0.08545973841476247,0.06160011745247477,0.08146300065392621,-0.11232270956354605,0.040949792604633724,-0.04739779585999252,0.13653992097823148,-0.09729540032506741,0.016225138252720383,-0.3380613384056257,-0.11782291693862139,-0.2765442908256737,-0.18692223813323283,0.241118966804518,-0.19438193288107997,0.3671016806841241,0.15252556579064575,-0.13237163329751797,-0.1474665124843175,0.14797977842377308,-0.03861705570600608,-0.04226251249767612,0.09336501290674319,-0.10930712871833222,0.2712664091413595,0.13855046050089218,0.20922680753157258,-0.07306377217927214,0.01876977469202552,-0.3576372128959613,-0.00851481887557266,0.1651351871210647,0.11452518084407841,0.14298544556644074,0.029955011688129883,-0.012501428093620036,0.08559796328847008],[0.04900142966507233,-0.0643245788571497,0.03102549160080433,0.15574811661493532,0.0312716760356956,-0.10633583508062963,0.12780350129437784,0.051795643659918074,-0.0033659944714211276,0.06105386066090129,-0.0400897966874952,0.06579184211699349,-0.24543865848563384,-0.08684942117409593,-0.28718195239911104,0.003310528884583856,-0.06455264267271903,0.08949302457673669,-0.18574592200134216,0.15418351753951468,0.06729479225580053,0.002421622680631074,0.09763117318349468,0.0016195815984014583,0.13436005455103486,-0.0601374426346788,0.3472977382532141,0.03755875066920244,-0.059589172342720154,0.26794453202512125,-0.23980410306381453,0.11762214381144634,0.107068323872517,-0.12008187510068838,-0.16130411158588306,0.24147911166824035,0.11216524561709902,-0.050168210584432014,-0.2766680215497312,-0.10625564039491726,0.11832884044751278,0.09120030232735155,0.016938999314740178,0.00787193116655714,0.018946762898719105,0.09729829735666765,-0.12291838636778114,-0.16813792104253092,0.2665124704300511,0.08465085859492849,0.18000488671360448,0.037010512415785,0.17080294837040624,-0.2185952524166911,0.1908510552017559,-0.27122944992658166,-0.44288286593833204,0.0626769115908996,-0.08602040397904219,0.13468092410435387,-0.039700248284866284,-0.28242595713074103,0.23866833748811758,-0.2797343724470651],[0.014080954893629443,-0.12008306546102625,-0.2045223473742295,0.22696213716285524,-0.040270013448692986,-0.15897868289028505,0.09812989436764402,0.4853846602463046,0.13501608601034845,0.14500043343324376,0.13026999094246677,-0.3786015707495173,0.019462658742549682,-0.09830955505923945,-0.09979502904187679,-0.2262449342668127,-0.12447981669639932,-0.3549028736292409,-0.0955309634513077,-0.18766113356557135,0.12245297649738647,-0.0530490139043328,0.157715101031429,-0.08292625706757344,-0.04738479063635368,0.2928606962569594,-0.08198090380670042,0.00038993298889779607,0.053242065376762265,-0.10775475438793698,0.3940994802027761,0.1006073326686584,0.023192323996320395,-0.05049805700861271,0.13229524897481731,-0.08021553971515882,-0.19348714046466817,-0.08184583440123742,-0.027650531813861273,-0.13886237738753301,-0.027991607062815067,-0.010778509906250436,0.06087881975077002,-0.23200346805645342,0.18893875211821393,0.24240923152876417,-0.10039484149878553,0.3626735727601596,-0.07180556678216891,0.011941002592493834,0.25134729442846776,-0.05066901309853137,-0.13855345403270555,-0.14426893631078738,-0.12849457505204995,-0.14291557803687138,0.12870071676771702,0.3605657362903978,0.3058707720327917,0.0052697783113269826,0.38616277490561823,0.11926658536459014,-0.12676538859657557,-0.20392635789492736],[0.13616287108703698,0.027585788863530324,-0.26181017805145673,-0.4385553780059583,-0.18659425980265984,-0.48588587243175224,-0.12339177232606575,0.16455576760372106,0.029248860265375314,0.12748751560994653,0.015782695814706822,-0.21904733234254234,-0.25382737439030373,-0.01065438947031294,-0.09081903668369923,-0.07943885789471225,-0.01675737197463102,-0.004346970034270339,-0.007797923248492799,-0.21684088521979758,-0.01773314104655379,0.06481428650123588,0.14105229711266848,0.13921555132087665,0.16933935180320853,-0.07247339906597113,0.11957332638891086,0.24207747392091206,-0.038253108038002324,-0.29028340191483026,0.18935159154952416,0.21946565480433422,-0.060697620211482395,0.04200154988544,0.27956908537481395,-0.4847216958100551,-0.0609688272047066,0.11737820430811859,0.17011276250917942,-0.010611399578771977,-0.0670074405128276,0.4044439326089657,-0.3319885590434221,0.05616476431784723,-0.2774527651237012,-0.12072873240097529,0.28990164168491217,-0.48940883037710087,0.3575022969378975,-0.18522868195719525,-0.20000068506267213,-0.17044943201995774,0.03814879788378482,-0.31712298106589853,0.11864672110284033,-0.06492280408832002,-0.10757151933795218,-0.2677289145966499,-0.19792002110962484,0.013916568835931998,0.15310687163358702,-0.1768357603668824,0.23107910433344264,0.02318944937386405],[0.07709880112374289,0.10525293409263169,0.12493643150724126,-0.08548847795051491,-0.165279908176725,0.08386770178477462,-0.034892988019401536,-0.17912336297166295,0.10256371527786454,0.029083491676885505,0.07261677539315697,-0.22580235624774786,0.04930046655933412,-0.1543442823440162,0.16362359383411526,0.02349649302444332,-0.11277880432523237,-0.1544108834350099,0.18216069996975903,0.06864794969707735,-0.3650342568443203,-0.0033438983213862302,-0.3424519207114794,0.20598307242398967,-0.3026777316715073,0.32956417130785887,0.10532656440918949,0.1827040253411957,-0.13939267013560447,0.4230429983539715,-0.1993984651980733,0.052576472482637325,-0.15197833406404684,-0.04830844103289025,0.007418519035878441,-0.13942004356933585,0.2623999074052848,0.03769816249259772,-0.09239896990653278,0.49645965371203976,0.09178487360971481,0.2084786306394425,0.007419259934529117,-0.07369344888514559,-0.22633907873937484,-0.21778414029250143,-0.04435327236648284,-0.47662472018515833,-0.30768011830552605,0.0005892327593003238,-0.4084057937982294,0.10449759910806997,0.2679023650014934,-0.03977405672140225,-0.1330046180359185,0.18497009608955065,-0.009041579642174445,0.02615867172100234,-0.09201695869484575,-0.11003370887249526,-0.1536771382458338,-0.022034846517522837,-0.0048805181456335785,0.29292648441882685],[-0.24011088915108583,-0.114394955875627,-0.13212592447823007,-0.0022840909307551924,-0.348928102659713,0.03050440544346924,-0.05161744875455741,-0.16336872847863657,-0.28713969828412306,0.21770422549245438,0.21071276402986333,-0.13457702738838193,-0.08792087801118367,0.21332856612092124,0.19425965813233576,0.06585548316930165,0.15611840949078437,0.06096289176422488,-0.08575034884475452,0.010128847331713285,-0.005341444825952435,-0.029266750683683895,-0.24227487640993237,-0.16899109751992614,-0.14801733029303324,-0.08797723966552203,0.16490115037136324,0.004779430836341435,0.01307286629406858,-0.23455286866846875,0.0684528410568533,0.0075673099504238875,-0.15331220102530724,-0.011148203436425473,-0.26928870803745153,0.308239006059881,0.13966903864083105,0.09241006834378533,-0.0577511702739217,-0.03556055340978426,0.09509068265604895,-0.3480973144034814,-0.16390514193223782,0.3804963776204921,-0.14511514037520148,0.19171266145650895,0.1524451989061224,-0.21296421289462536,-0.4535652012352066,0.08131314721753113,-0.11327098055396309,0.22524682371849053,-0.14845721189446048,-0.10466148617823691,0.014211407182881624,0.16813935612184439,-0.09803749807673241,0.21958486675555436,0.07921094915458447,-0.10959429856156042,0.039142550785215835,-0.04877254222469837,0.018291051390422978,0.15154119500002822],[0.1392773893376511,0.25220246854432804,0.02018237367786855,-0.042164642533150755,-0.07861072602861471,0.07368246096781925,0.15265623988044574,-0.012898757450185247,-0.029613357212056435,0.09271019416993928,-0.06051918719102942,-0.18969189067381392,-0.06336668352075506,0.0005486427093325853,0.1791698334843163,0.26023369982846206,-0.0454093810689557,-0.03822123021905518,-0.14303330613255757,-0.06164029105312425,-0.016737093483564912,-0.05634818700204851,0.1262411458223597,0.019758066537249555,-0.09792967696081759,-0.03748142220118833,0.0725899207573991,-0.33528576654653963,0.220386947998885,-0.004434356841346258,-0.12001784083994387,0.1593744041113248,0.00959598652977184,0.18270651807738156,-0.22720595756406245,-0.1009801077966881,-0.29444326002838445,0.5887756740980588,0.10233482800844763,0.26014886458353403,0.08540040140366588,0.2021626505260653,0.10852262742774049,-0.10017221368699826,-0.17708684398766755,0.1414658805879829,0.061868300816575086,0.21854811201679047,-0.029921215033768177,-0.10428847138374223,0.04961452950184649,-0.005115422589222133,-0.16899806977253207,0.05670722166949592,0.01174961535104752,0.1815895890422678,0.2636751858294755,-0.2179726633378705,-0.03106384341312265,-0.06451129972080745,-0.17636418140225643,0.2524237281521253,0.21254990749117272,0.02728582554265765],[-0.13743497698254156,-0.23642483269178663,-0.04527528798433076,-0.040402560223744055,-0.11704092558899234,0.00403688923114321,-0.049281144203587424,-0.19635401067427588,0.0840833527542138,0.09112548288414572,0.1668995909830793,-0.2980678250462998,0.3398193990556726,-0.006817262959804179,-0.08418977493415224,-0.044449622167469706,0.1336878942004812,0.07653426598309696,-0.06130846359380511,0.05420857692570357,-0.004651157054541931,0.04031342900574891,-0.031389451601088754,0.19993070868177715,-0.07661205235144504,0.15582745533770187,-0.12076275979628834,0.20780184204658556,0.3603677697886281,-0.01643091221925771,0.13627847478520344,-0.007697455817933753,0.033024537658859855,0.02399125484694939,-0.2734338416883199,-0.3090825612651311,0.1308038193560933,-0.2239116199886212,0.4044415934288342,-0.016243644492118205,-0.003074293466039552,0.049814973947104935,-0.04209494745662798,0.15635170358213493,-0.13424361734794663,0.05320693107259151,0.1524295732345425,-0.16956919855743088,0.10391811208775767,0.29159763824486906,-0.2359979062894067,0.12275916492475486,-0.13564767695323532,0.19719776160776065,-0.12058275908815867,-0.17211111302767498,0.09161111503369394,-0.16802701830595893,0.052303061027648624,-0.15279392405718034,0.030348996411926652,-0.22440578559588226,-0.05220812785792689,-0.04811215162467074],[0.15684995862158146,0.014552095865174253,0.004556191892385152,-0.09575897629026198,0.012971406324828093,0.131843609923679,0.048125020344883175,0.03274694536257186,-0.13942808587692673,-0.07865443572641188,0.20813131148809658,0.028267345813322357,0.2716592405857451,-0.2399331654555684,-0.05381336032994711,-0.22808352190207082,-0.13970943846628125,-0.3138962080570999,0.127869945841714,0.02369003616017761,0.1194859602356165,0.05073838698426653,0.032981425712020666,0.033591106629536904,-0.16480411124971603,0.19660063356728294,-0.49922493539836493,-0.3334030976797429,-0.15270625283535655,-0.2790787188632075,0.41433859314089905,-0.013494569752576296,-0.055313385405741766,-0.23664790968415272,0.08448679494763671,0.019269279115065263,0.1938530175150284,0.1242927321892355,-0.036033318477830645,-0.30004447617034535,-0.03905954153277669,-0.07059726805422374,0.2239574306947113,-0.288382505982313,-0.11210363253067669,0.026959932801681623,0.15080177497988065,0.16663896518909121,-0.03218986797614135,0.17869038361256076,-0.06035882543927412,-0.12336129171520832,-0.14471354620000534,-0.11347653770423881,-0.107398463946557,0.20814589740127193,0.021471276136166607,-0.024972657102672834,0.18336068856710847,-0.14512592869622368,-0.25485134938404663,0.1955545772839307,0.15125853141447387,0.313892866598741],[-0.11702125545704657,0.050795727348032144,0.130379092252381,-0.05290808452809872,-0.23295205568269742,0.1343963007231572,0.16284169518945377,-0.16968292999529183,-0.17928845566157092,-0.17574311997851605,0.08199714738083376,-0.05306008216475449,-0.30021926334022825,-0.15578046957786942,-0.1717221935196996,-0.11494650758991021,0.07367981118156404,-0.13727622544328466,-0.21161143900614912,0.19269313094273383,0.08277923705340992,-0.02458684809537406,-0.10377067368084371,-0.0683760250147513,0.11832107889748379,-0.2058332094005175,0.1334283265935186,0.03987419045377871,-0.029399093736338446,-0.23920012436748767,0.05249917166348266,-0.19912273053235216,-0.041417192262114884,0.0958119634042403,-0.2151718340092143,-0.04950891854009319,-0.11009804871640425,0.06966888488618926,0.1390286125929058,-0.03427537813541671,-0.04047263364115823,0.2330557066954108,-0.06248614401810668,0.10649040471290822,-0.15158534894219344,0.10543766105354961,0.16494894684008238,0.16278687265362585,0.019635906144406128,-0.033292417902985066,0.039559879720901456,-0.1884689333190143,-0.1474611294616829,-0.05891729413937283,0.07987591361600678,-0.3986143575929804,-0.07134891065921994,0.12778253883534024,0.23969486511443433,-0.09124180782285315,-0.09165260331592565,0.27175888778289464,0.3398215687387771,0.0009470392790084512],[0.2918833313893402,0.3680720707940792,0.2677876431427103,-0.06376176963077138,0.1389512189214579,0.03684680279699335,0.13728242320192663,0.10978618022817974,-0.11677771334579226,0.06560084027865098,0.11911177790500646,0.006015590162302483,0.20803698001741885,0.1533210091043644,0.11028993939809038,-0.07593407836160979,0.28344637361910247,-0.0773721950617218,-0.09189609533652196,-0.08847398887007561,0.051858431318992954,-0.20869829817886756,0.15251897790412347,-0.17230384311815972,-0.029221987821214428,-0.18529781686503458,-0.15977197517624564,0.2189149739816633,0.024102854474969154,0.11752153381057932,0.20005149538824044,0.21570675377609413,0.26249216476012455,0.1822514855647821,0.1470312726938615,-0.04771608642587595,-0.08359015168581628,0.00252046911514794,0.13512020887122445,-0.09481624995361178,0.3364792265116779,-0.1411942519503869,0.2820458238526154,-0.18325600001080905,-0.21019243692100595,-0.08285508198554205,0.2262884484288816,-0.04121417356648385,0.3237406684684836,-0.020906369211537153,0.05895169958322233,-0.24099622811488894,-0.11751405275449282,-0.18797678225174572,0.06432480618493205,-0.0373650791444989,0.07960301572291725,0.10536404499012593,0.30772839647596933,0.26180411199632014,0.020786177650111377,0.3086106309427409,0.05618787851308273,0.15483337924221552],[0.11427982615783164,-0.155947222456399,-0.14240011887379914,0.0016370348954880612,-0.262013259834273,-0.04714099192883156,0.3714431830139042,-0.022583415042285677,0.31666675000629974,-0.10873218319300236,-0.31188125322404964,0.10212687051323872,-0.04016644436716773,0.11336921860221395,-0.06343312658873435,0.05513753674079489,0.26376837273271436,0.06592298484035515,0.21086269159706766,0.029058388669282346,0.007330156784205807,0.21856219738851007,0.07881864920536187,-0.291676078442199,0.0672895031828612,0.09296932169049715,0.24826683528292778,0.12719551529911324,0.27874293284672824,0.13389665089280334,-0.23934103132688261,-0.0632420505554884,-0.2447176668131888,0.019576202959976426,-0.14321659251746163,-0.33825793079182515,0.22657843675179073,0.12353257684091092,-0.09492863475972058,0.14855254990472205,0.0790382973940824,0.012333701437343796,0.44797835186484425,-0.01308362748891078,-0.15288446025504573,0.39357938037761264,-0.03180087970405464,0.24632491063371353,0.06561645504021134,-0.017181868871042248,-0.10458348459930181,-0.1131103676759871,-0.0843969588375318,0.06317677623649753,-0.17150426177970138,-0.03846996913010476,0.311589247038713,0.10681147820246484,-0.046238032075735694,-0.273559168486111,-0.040015672012836026,0.25606645518160037,0.05903798107662943,0.10798420717698295],[-0.02467980481496417,-0.188097953462661,0.08374439414571895,0.12030065819274335,-0.141682604645742,-0.2669746104784249,0.23161511035068494,0.014959121815036714,-0.10578165896922163,-0.039117339568024906,-0.13606119572468559,0.29415468987604587,-0.18933304547349689,0.137385257449898,0.1948158316342804,0.17437606276745984,-0.31290924800624936,-0.1541537123545595,0.1318228809273402,0.4534328165065147,-0.14586951945874588,-0.1231585207339036,0.26163316221162947,-0.20948806477194817,0.19617857216415152,-0.06548767547350445,0.10725891158274534,-0.24414661912560418,0.06551868066989111,-0.11271238079608856,0.28737879954441076,-0.16099010440944758,0.24480795035772912,0.20480110341613916,-0.1711310871895373,-0.25335890597990285,-0.04377460415515814,0.24230645381077615,0.08955467993551293,-0.21691318871450765,0.009356222107552005,-0.014481120718235069,0.16507485464427993,-0.04903429587320357,-0.3283212699742017,-0.012741069944989497,-0.07170525896483619,0.054503546630508555,-0.13044476378555464,0.07940934791430232,-0.12677560292200726,0.026982044630736994,0.2098021026034784,-0.06727538618115184,-0.1343802887078818,-0.2718540195161547,-0.13420178566989954,0.19791350958139708,0.059779872120942636,-0.03962532545255614,-0.003078784422368227,-0.04386756565115797,-0.3993666353608745,0.1156805591627753],[-0.023010069701798874,-0.05044025315607756,-0.18178493645377095,-0.0013956639982186066,-0.054792631670748285,0.14211285958292735,0.24932457648248788,0.03684142116291187,-0.03440686449476214,-0.4460345224851819,-0.19666274006228435,0.12101347162041945,0.05638647206898061,0.0372998458360592,0.08227313905542763,-0.032701573763387844,-0.06358768476743602,0.08830609964634424,-0.058611450088157574,-0.1856942242227733,-0.1457986933524832,0.02496351513702333,0.21070750020555715,-0.07045909895974314,0.0069360433349494165,-0.11101031555654008,-0.3016386452695546,-0.22431678389312082,-0.12842522935635403,0.02379648100302876,0.10988048938438817,-0.3977974181001269,0.08967355038781849,0.009264138302474823,0.25818035045292015,0.00335900056341248,-0.2749793394248371,0.05715933404884854,-0.24359607301119646,0.2891915070261606,0.0126753163063346,0.007787250025679622,-0.08273705984508842,-0.2984273078640169,0.03154334720441707,-0.16457846968922593,-0.031815745055884005,-0.10965278991171762,-0.0037625186736601817,-0.0093642583779076,-0.011799308185205573,0.11152228625504865,-0.11736809546351926,0.38143511064791513,0.1472869567824598,-0.003323288972619921,-0.024528469787040916,0.058382253380811315,-0.13688429746067682,-0.17154069667215938,0.02587468815491051,-0.020852892581194736,-0.10485777677768848,0.19081627573399895],[-0.23005179582038987,0.04680213106207761,0.1813641355958811,0.0219207244687152,0.2173910701421725,-0.2727554229646724,0.11535243930876847,-0.08250079542516017,-0.022298588996934793,0.07670943045635878,0.06586421624074139,-0.06486391006412255,0.18738574205331637,0.1133011636078808,-0.09876646371423771,0.3726476696947463,-0.23473836740441434,0.02221073915915645,-0.022449939640715146,-0.17157103082809327,-0.20406582817911664,0.020526990170101983,0.10595804416216734,0.13490141137095174,-0.08033981505352722,-0.024799944013925924,-0.06556240454197895,0.07895458052008592,0.1532922149824912,-0.004649411317870012,0.007569060747501741,0.1435420708131523,-0.041352348932414865,0.018857666921983277,-0.051010058291353265,0.22171551158236036,-0.09192978978107758,0.017246560562041692,0.00024173624676580483,0.10012002758113468,-0.01974420007205242,0.006404041684597404,-0.4120880703229869,-0.041462968985226396,-0.09803516082503849,0.06039525366550486,0.08265744916222112,-0.1250205911887133,0.4297708479547251,0.2180690543482238,0.1230104319632493,-0.06709670986979903,0.04914748736124692,0.0011064166314009847,-0.1781118070367741,0.1140955751375851,-0.047085078269153355,-0.024690092157704818,-0.11404121528151849,0.12165602373421999,0.012353325075622196,-0.010913419852286254,0.10859489429377862,0.19537251679649612],[-0.2449247622082983,-0.11622581043065178,-0.18644465888592354,0.11774110671590056,0.1652989555886467,-0.018873016112986994,0.06918774917203623,-0.3031922140011445,0.03684777944320166,0.24275328598210827,0.10278477305360194,0.17627649667153422,0.18374399653610535,-0.027508201420547253,-0.06349907151491518,-0.26157226024951374,-0.03391296367165141,-0.04076505211951951,-0.026365742796282385,0.13244143600338212,-0.11639373341391863,0.1542128006966227,-0.007337990254292775,0.06014022825322371,0.023898982431159302,0.014426463616207481,0.08774630302030012,-0.21566469097024868,0.14683934073201105,0.20083823374685325,-0.02199296861612877,-0.1633842752713044,0.07244802048192184,0.22334587635021752,0.21575331602946962,-0.11138029309983447,0.1436065580052278,-0.1119236948263567,-0.14310369008279902,-0.0031128353649343024,0.11831684769241592,-0.14833869125568444,-0.18811206951838058,-0.03492746736441844,-0.1397981667851751,0.1564806432975332,-0.07630966015745959,0.24367333728746413,-0.14996833163537923,0.11479434830366446,0.05073876656358984,-0.07728197965689651,0.157974600650528,0.3069731839161345,-0.08916464162073773,-0.14173219590271324,0.00018347583728807722,-0.1063138810323824,0.15755968656867708,0.12825576455730472,0.14237022381667783,0.16076911976604388,0.31621586849589317,-0.05727518992385653],[-0.12486775238923632,-0.1513987346522165,-0.255745020635163,0.11253879269064802,-0.1845956686487492,-0.19764972481649293,0.1422420274290578,-0.05812943576352095,-0.2568383774302511,-0.07467716877854233,0.05057346311763486,-0.15456295827669372,0.07806279717057733,-0.011918391627220868,-0.05542839181122268,0.4286540588771082,-0.4892059030228024,-0.19301735965323447,-0.0038669666282564364,-0.1065196679187825,-0.012881666251989618,-0.046100526013949754,-0.17763787835521974,0.26288975323851516,-0.324578825152483,-0.10610542156952864,-0.3137730353454027,-0.10004029315858401,0.006796686665168145,0.07937092315937393,0.2928314850929955,0.11330821917343671,0.2964169327125806,0.19316142882100362,-0.0826794806935695,0.2723719420764951,-0.17121572537367086,-0.1830298394511788,0.25435513412511984,-0.02398378370574298,-0.2830393489482321,-0.09840746058485082,-0.21707805500137217,0.09402658730773228,-0.27319058203738367,0.14001808650038697,-0.304203066882632,0.021943093154475683,-0.32184552380781506,-0.1927982713816296,0.18117658669275802,0.013968459286304826,-0.2165723781374419,-0.019059509966966162,-0.26017285928512074,-0.2677620695082801,-0.010098096950360862,-0.19587755315141708,-0.19446085939860414,-0.15523744727781047,-0.246375706950477,-0.21864621576305768,0.21567096215762024,-0.1809386927641563],[0.1571784378623768,-0.06553281785652218,-0.2477062844016221,-0.21632650911632353,0.28520315545890335,-0.08519232969345197,-0.09478688090222895,-0.024782901116471103,0.11031271922934403,-0.04680429916357734,-0.02847777920483192,-0.09776408459589227,0.1915978284405943,-0.0070234783464510914,-0.032826141670379616,-0.09180787538397216,-0.13859826142031778,-0.07437144861175772,0.12466569096673132,0.11006187246985408,-0.3152771592132159,0.022063362643010186,0.13221486117780554,0.05483177048221827,0.020731623858512065,0.08804451210475775,-0.16372755996636515,0.09920027405154294,0.28002325828618535,-0.04843555236589833,0.05794505017641069,0.003070890821973911,-0.09009720714427998,0.18985997625798562,0.22769710733274057,0.2387073345087902,-0.09768831954406111,0.2268092289708299,0.10259838963780066,-0.006757771666637414,0.17614811806810654,-0.1723754361824712,-0.328161923296068,0.048745328882012676,-0.11475373336739304,0.01759892259238504,0.21036530610050067,0.03380072464797366,0.12913994501013332,-0.2452411375148596,0.16653953507613245,0.40390565663015343,-0.05377469676219426,-0.0948451596829293,-0.5390354849538764,-0.09205897343662721,-0.05923261579250383,0.10849438774940529,-0.2312096993395814,-0.07563740488803149,0.025853558255279383,-0.10448256970836498,-0.36165185070326594,0.06357925934156193],[-0.05016386080135038,0.0019497785777555377,-0.23892765666984692,-0.11467459190173684,-0.004038193866021425,-0.18130605370086947,-0.02359865800733608,-0.24831203053519688,0.23580397582345555,0.23308284873371934,-0.17106137110619873,-0.045818456063124194,0.07389110805022714,0.02497589574342857,0.25850376172368356,-0.025177476710978766,-0.07156144776673846,0.18971118276980956,-0.03320061624228809,-0.001728063338082636,-0.054863564325460495,0.27925001146611417,-0.2566100748526728,0.02179171035807458,0.43922022482355966,0.05752623400931995,-0.11298034353964984,0.0283847645657416,0.058855044872100706,0.2848344815338887,-0.00036900479571095246,-0.3343404783748165,0.07130245339686943,0.1349106917077919,0.07925974692241869,0.09605476271212332,0.19568320339332285,0.08432790743291628,-0.08805985430835947,-0.06294931655069108,-0.09607264243249819,0.2284198155641168,0.33728005784722775,0.13602352652574695,-0.11607538902532435,-0.26724998034839126,-0.0865890806228299,0.14877434878258758,0.28020438681618576,-0.23321583675313834,0.2544233200679329,0.2820869005044533,-0.2797185055887882,-0.1430751516142,0.02814880736767444,0.29112128438175766,0.10614123454618807,-0.25974125168893775,0.0638077826490903,-0.2680424419199848,0.3175809480801133,0.14581351636481693,0.017151784462904503,-0.06812158730643235],[-0.12533326103042547,0.05040214828583982,-0.05749041144277539,-0.25429984195529076,0.0378159732829753,-0.19174671183187117,-0.370373410804961,-0.37260493960530777,0.18555415188383362,0.001527992456358624,-0.2969033710982269,0.08526129156566857,0.13260549466662294,-0.07349798886592879,-0.040687961742000296,0.1306874822550934,-0.24539811216607327,0.35292185136780424,0.12043772916610375,0.2533295231127065,0.06972252416026453,-0.017782035591451598,0.06405378546673576,-0.06307982854942212,0.11261113692663995,0.2696611121393326,0.16947296422458608,-0.11585956616573127,-0.09867352182107644,-0.23517691949556488,0.2749308022636021,-0.3436633242857892,-0.29888665748388515,0.05686955815578914,-0.07941723606363553,0.06992997242705253,0.09753361206275449,-0.08168563116268564,-0.4013268360653133,0.041211014261609516,0.031017967290109527,0.19453717704248474,-0.1443252247389827,-0.0231700591112969,-0.30435311540783033,-0.04407834002942272,-0.2493434975836664,0.01838000887165135,-0.12706829147686116,-0.08092585864496726,-0.06225594565912407,0.0694763910487531,0.12738345305926996,-0.3414557539772297,-0.07020994190267729,-0.09049929315711637,-0.022725583494288843,0.02774090754964059,0.19387298665115546,-0.3729767531671632,-0.3754152818808916,0.06762988168509183,-0.03665946189070182,0.12364324054895817],[-0.005631273885695634,-0.3198525390323681,-0.01898540696555268,-0.05161282992461687,0.2046016320601015,-0.21514951205646182,0.2278904497729178,-0.0018456455076761784,0.22222933389649488,0.07534445574142046,0.15045164046494128,0.2656898583589628,-0.22676345667283032,0.4287182868707666,0.14232017076912937,0.06593323050895893,-0.16057604255954214,0.23789991391045198,-0.012302167733489197,0.031715521255593467,0.05537341926364286,-0.11087854148984308,-0.10228116706490688,0.26481369715403835,-0.08481880104407334,-0.28854188814131027,0.11202578405116213,0.12914366686480935,0.039674880240931465,-0.06943434692612097,0.11711815381777733,-0.19493684053760296,-0.12075570287205203,0.07434893761599996,-0.055608660651880366,0.11582295016769158,0.15270633688763616,-0.04700035469141766,-0.002299104576313709,-0.104015899253116,-0.2678348548043107,0.3238261701879789,-0.11817923169997252,0.1503380168085902,-0.28843593913827736,-0.2105536085208913,0.38769092310189385,-0.3849213207376105,-0.19055699968806156,-0.036384229431314724,-0.21694859352121493,-0.12085363682064428,0.04234418877071725,0.23068814815577066,0.22525672435978683,-0.15362115061489628,-0.04906243858038643,-0.18235140937225425,-0.14312590639155914,0.10089639395781826,0.014209668032430645,-0.12361484398026458,0.3100107647643193,0.24035679863778545],[-0.07058281518988375,0.18226145259006346,0.109650577940572,-0.025527141975374285,-0.03770680747107944,0.0023418350740531005,-0.023909699697092154,0.052822291668206824,0.06776580811863113,-0.09598021240229787,-0.05792150205587157,0.04845964664946253,-0.05178277552478561,-0.12082887838734185,0.08147501885969649,-0.23757609915362643,0.14971781316583122,0.08862758252665758,0.08045667554775916,0.22815080656254874,0.021092148343620727,-0.3654961942993439,-0.06709439790079352,0.03896471011208135,0.10499169741949624,-0.099495250686292,0.1904961329059267,0.23963359240599796,-0.2330148405085395,0.37765425240109474,-0.16162066473571543,0.014811332238302066,0.22755867132783328,0.1694275941894943,0.11040087056093495,-0.045009360087621846,-0.10721961965259656,-0.5015420004951742,-0.26698163124586155,-0.029030756344187326,0.13777540001310082,0.010031771882491044,0.37711634082553946,0.18416237605728344,0.017286384143284754,-0.009123058389088867,-0.07537683906362722,0.05135195669147381,0.002814893055126825,0.0470099371149204,-0.20825756208540652,0.24891384339173725,0.22593294043311982,0.03822844386557742,0.2902745212319749,0.20680633531689024,0.056953675021409314,-0.09338159623476328,0.08279087073235394,0.03454132975373372,-0.07970184126513764,-0.28761801943462567,-0.04604118923801501,0.010726292166612712],[-0.17003180821429104,-0.2343447160606747,-0.09211759346132664,-0.1443899039703576,0.04458592070600687,0.2547970058376916,-0.24627992750560557,-0.020727827378489078,-0.2907064831808975,0.21903527594235958,0.10544176935740858,-0.2513515738710749,0.09976820800820137,-0.09685992148925991,0.062068060036690076,-0.19854626076726298,-0.13614555721270608,-0.0928738088280502,-0.206689243994119,0.01416334549907847,-0.17583515842797745,-0.16166541815802873,-0.19138568393114938,0.005744818328436303,0.14851796267812725,0.23275312179249216,0.033783973818497466,0.14766324896109811,-0.11170809684508612,-0.09479149048933957,0.028505595653628327,-0.19584156595839866,-0.10960800800655869,0.02991895056971443,-0.08015326119770336,0.12507501278903507,0.22287489007162528,-0.15759026895998265,0.17403632529897414,0.16620648156229573,0.3384557352445097,-0.24773973665967727,0.16285692316568642,-0.008565080449867908,-0.040380827444042935,0.10863620302260661,0.06736834696810295,0.12038537690942014,0.0035979651127606193,-0.050568517518370826,-0.038406391228443706,-0.013649293395435674,-0.20683680495582,-0.22061597767104218,-0.3307765757356951,-0.1925642339211838,0.11634389475732483,0.17089480487273692,0.031195210495716625,-0.18657991652821512,-0.14332168110558346,-0.36521431387460407,-0.14447748176971142,-0.24293270355969235],[0.023463184173703584,-0.45451506616927195,0.013893296469374802,-0.07218551829419718,0.1388094636581869,-0.05370548477519795,-0.13347573550150427,-0.013496105549563287,0.11610338944593929,-0.1592419750426193,-0.32473200559900217,-0.07149634269535908,-0.03770212640339733,-0.0030467053445884444,0.1610684744919578,-0.19013004846504544,-0.2849876461744259,0.3861816385451758,0.3928218919463441,0.18363682799505443,-0.07750854455644067,-0.07571008221677457,0.12025105744484935,0.12953781801802478,-0.08948321154849355,-0.00575605201727145,0.031693517096488155,-0.021614536217624943,0.10688428829312227,-0.2503303771750736,-0.05421884257005121,0.1628468954408938,-0.06225002119431365,-0.06466205825322555,0.31710956815725155,-0.20057423395905025,-0.21911759127447197,-0.08975357336591035,-0.33503642684718726,0.22935824271441507,0.1357242067441092,0.1913075042443935,0.39777935660606356,0.35965539920543377,-0.30296817541837895,-0.010077607585430777,-0.11124590797076828,0.127774288361679,-0.39699258418882666,-0.07344652631651466,0.1762628077421317,-0.039105427293374115,-0.03205071869581,-0.1712230588387975,-0.22424278620956442,-0.4385076463231613,-0.08905970461084693,0.05213765011798622,-0.11971945444393403,-0.19990930877794194,0.07432802600427421,-0.005704812504784584,0.09840100366698325,0.11323399274335391],[0.005690211392197458,0.07004917575382005,0.1523147971381607,-0.11818042761696612,0.02640936135437971,0.02989413438515415,0.12479833191626959,0.15272553421010243,-0.19333785429098674,0.2590560014838467,0.08957298371057738,0.0029765472511499007,0.08344705516167275,0.05326758213221561,0.2882161711963382,-0.25732027281324055,0.22917745458746994,0.21830305075492276,-0.032482454872394095,0.03578480938214276,-0.07606541548653609,0.0709436110703752,0.24821734625143363,-0.17749249525414323,0.17692212198565732,0.11671969776635979,0.42989038602256513,0.23906495524072785,-0.06941869989396789,0.12843969817631462,-0.26662087335216755,0.02347786518675583,0.24363309136237,0.02654442029277099,-0.14267501116447376,-0.03560330122364514,-0.2715398044847559,0.04709509778951568,-0.13065731335115663,-0.23899145305794184,0.2916729269972622,-0.2981198464892648,-0.30354584612980356,-0.053294542177099315,-0.061181079146724146,-0.09282678587012191,-0.13915160350710634,0.5354599221818628,-0.04605894140879063,0.2540178860826899,0.14844726461631513,-0.11592561594510618,-0.06364213297344595,0.25135580698579973,0.03741319803073062,-0.12042369795106397,-0.0505260092557587,-0.17547165230710793,0.01435737548143911,0.33121901622961186,0.16512147899053847,-0.08148680571896215,-0.19293738814925004,-0.2891238654564227],[0.055505592338947814,0.04358346895612421,0.16016621604224665,-0.19573456941901543,0.17550069517678862,0.02506312915230035,0.18830382293731676,-0.10804732748251657,0.1916467771715744,-0.18765058521363162,0.23625772475136794,0.32742870321755396,-0.19067666491858917,0.34276841155475546,-0.13359522060464635,-0.014663046330224553,-0.25225555144573275,-0.11629097351898698,-0.3151287395534383,0.008263719674651115,0.11501997584280928,0.5305990385447573,0.04661072514879487,-0.027555378041461895,0.15936102352424564,0.05105115800559241,-0.1595592272494381,0.24991570169438163,-0.14048454720394293,0.01668304421142674,-0.12504807264473786,0.3603388913643832,-0.25434411580037797,-0.10207211559287581,0.1278348510882045,-0.055931509885113875,-0.18317448603756364,0.02803779750620467,-0.05937296396904729,-0.11712433721882919,-0.09259603310066028,0.42722749093633966,0.1410009242828295,0.05010744348340915,0.32717195870784643,-0.20881977557819104,0.03764623059586304,0.4196813588828192,0.016475229718352025,-0.07480264508662263,0.05431673648754018,-0.1449144003691618,-0.05423210345562441,0.07047046391775495,0.14101330449691565,0.07100926931734669,-0.5213177887137583,-0.15502952396949443,-0.18677976107130292,0.0411836175910567,-0.046191685921366785,0.2739505915305258,-0.238439530528384,-0.31807628336398125],[-0.1666990497334027,0.02600988006113925,0.2522751835575381,0.1457562891478817,0.31013069310399216,-0.16281407771065373,-0.12606979423369433,-0.02025889276336225,-0.15343240920829251,0.1667283142781118,0.16684370570948223,0.2679322410876307,-0.1741287132011814,0.07690892184618658,0.07933072311086967,-0.16735085631918797,-0.2871097398277361,0.12039264950940369,0.12486535133529797,0.058149496059727815,-0.3460047753562163,0.18014947050421976,-0.007906432997535904,-0.11059440800610519,0.1283587483718899,-0.15417530657197545,0.09749685347953937,0.3954069178845546,0.014592559423155928,-0.05915812011664864,-0.2936670001632859,-0.040194581520494314,-0.264828427899499,-0.05149140090690868,0.33144772066608486,-0.0035049809143090347,0.11601067817551695,0.11888091351934367,0.14138629455046553,0.12444004241857272,-0.11596963530099501,0.17862738863158809,-0.2673363795986033,0.037872173774380416,0.21370501795197683,-0.019936685515452957,-0.038712570247951876,-0.14093434164684804,0.05582212364675477,-0.17222639741914283,0.06252596568903707,0.17480469176768024,0.26709274993793136,-0.2183743412787525,0.10345192547970389,-0.16270118357115163,-0.15660806711611655,0.216643066176898,-0.37933645017240303,-0.07667819145854345,-0.16406713187870925,-0.19019305391167549,-0.19780034408744776,-0.02683020045766963],[-0.17309926351617166,0.2553133092487671,-0.11565625027325331,-0.06071912603091081,0.3225884917308125,0.01689059798177018,0.05283252858365898,-0.06929732500198477,-0.04250875101424677,0.02416439654271049,-0.27579584917644306,0.011896680241343926,0.3467402350829952,0.05547653479615322,0.09296157477476112,0.16038640004519225,-0.08066407498880851,-0.26362180387329176,-0.13560687974760158,0.004761143642948954,-0.0683519814112301,-0.031023874510875734,0.1346322029064792,0.1699870212814258,-0.08528220802606687,0.19296324104517174,-0.40700121960242924,-0.0586269279376644,0.18485584496262755,-0.19109957650089193,-0.10363286626340011,-0.20756661178404065,0.08136686894406854,0.1282411388618289,0.17559008791232697,-0.04098961555205216,-0.013147187798550345,0.26000990011066016,-0.03058493242365369,-0.18799302956799277,-0.4390739097731262,-0.1513434762103261,-0.018105293168911466,0.08051430959063036,0.18068347182365577,0.13183675929450508,0.14362075081135134,0.13253118633711372,-0.07124175533324761,-0.06865101319573597,-0.03640956183934705,0.02870164390452629,0.05839015490234996,-0.4002615407825384,-0.1294705935270634,-0.05429724647906364,-0.008106257021288487,0.23655033538593304,-0.10375256215263326,0.016317003706176777,0.17077939193389216,0.06960137812266469,0.04156286984878134,-0.2697424346100073],[-0.1957799904751558,0.3119379196002405,-0.2501820900928309,0.17712665030078328,-0.33839031554635374,-0.04156223509421139,-0.009785329207283006,-0.1070917125098259,-0.18852447833597036,-0.3261288217541821,-0.22415215790462553,0.2305842064969386,0.1355750473681341,0.03218230811253355,0.1775728026138391,-0.15276301942769036,-0.062274336612904525,0.1315437751190634,0.11388936161557049,-0.017271210765815465,-0.1751416101039518,-0.1299212905072163,-0.13613901731815917,0.10188384966228817,-0.1422681850295345,-0.37880939742682096,-0.08396001298718052,0.09440588693442283,0.20080956628571903,0.3054476848220385,0.03202120242676846,0.09802410788648364,-0.12162802498721119,0.10314392016525305,-0.13893291668880597,0.4119281921992277,-0.28019695508815423,0.04463754747881689,-0.000015766585553601532,0.29335622588226606,0.1878846035319201,-0.16602857306240526,0.002074293713196798,-0.13106049225944313,-0.07540187151337147,0.1065108364528705,-0.12814570002104858,0.11361958701665961,-0.07795643177914899,0.17134155432323356,-0.15540510450886916,-0.08703011091025607,-0.06717800574801391,-0.022747758141430895,0.31721434685601313,0.08668162199500222,0.08241078968587333,-0.11239147445093717,-0.19000394006474583,-0.019405897543136676,-0.2496495345095542,0.0362853326277497,0.061310267368511924,-0.11019412131262445],[-0.17379198315456962,0.1089721586790162,0.17611993808235157,-0.2273992257955821,0.03603657462954495,0.15066046962282376,0.3246857613143978,0.15663637124408342,0.03459184723679293,-0.008566312554316564,-0.12570040345770936,0.11124033483988782,-0.26947934056375744,-0.07641378577248466,-0.14864331652333196,0.238282748306551,-0.011354288652830934,0.06842168895535045,-0.14201818597017832,-0.11152593192781464,0.10595651483069779,-0.06748266357207769,0.10541041076118535,-0.01650957739766273,0.03957065921784698,0.04958362644289626,0.08586760635971345,-0.11863534491016908,-0.0857329900249498,0.08898873659601773,-0.29092323029690875,-0.264272393703339,0.17926148695066452,0.01794538703653667,-0.05840312969578268,-0.062215011501022086,0.1514811047873949,0.2207840971042404,-0.11748770409947039,-0.02576994692473651,-0.15951628093725934,0.27357984462082136,-0.03140333527258842,0.05690008789703464,-0.1736591981219408,0.034401689126309656,-0.13267256090171226,0.19848614454431707,0.08850262387332303,0.05348596809487015,-0.06995665071053031,-0.1448024316597685,-0.11605774645689072,0.040923138404798144,0.28859933962201795,0.13634297224209185,0.09502360732274397,-0.17323225321488414,-0.10131934040218236,-0.06823742254814033,0.14333752885064155,0.19022159909863712,-0.15080452759370705,0.10344650240397138],[-0.2951040199999528,0.0471186538344216,0.19868283476121015,-0.039345247365255145,0.025632069543808277,-0.08284172248863515,-0.11203781914739704,-0.12832175424845843,-0.03307008702560001,0.08820782514997844,-0.30257355841472994,-0.07291426715922925,0.10475122688334915,0.1234022494178908,0.0615251765239632,0.2316814142565337,0.20875193112461327,-0.29456909025418304,0.03727554806548874,0.020896858182261422,0.019031749496323185,-0.16329878175371054,0.2249559379164216,-0.032484159724773344,-0.3172354945351503,0.005780728346255708,-0.12859596609263638,-0.23521792322701482,0.23610673038475194,0.061771843290403854,-0.02963545798569739,0.05227732014380659,0.052575011241089244,-0.08506933124140244,0.018762544832879573,0.02422781660913272,-0.012645042465599514,0.01702117892359351,0.2137973794746128,-0.36291881890153793,-0.056422627576754106,-0.2043612884692927,0.2770844259233082,0.14860298894683274,-0.007105557760484864,0.09668225214160328,-0.11397602125687253,0.1625431312428452,-0.06356343371780367,0.3677285755701763,-0.18399655971251144,-0.31464743870673617,-0.23825906610405123,-0.10902217159851134,-0.08087420762169396,0.225441770297183,0.045154231666813885,-0.008852677447161514,0.06134768587570576,-0.17614336174966813,0.10572655629716098,0.11827010526803124,0.07102869429431123,0.06090722224376296],[0.14826414710147112,-0.11407555427537533,-0.18393337026465764,0.006185540290040943,0.003285501496682925,0.23212650292796302,0.17276510900643802,0.13299514748187452,-0.1151627680484724,-0.22899605251564886,-0.06816324560392344,0.11660649974939098,-0.05064230788654132,0.12084231607958183,0.18035799039134368,-0.0913618590204465,0.12628572871462754,-0.15307206550519295,0.09646080153370842,0.3252304012087846,0.1377825042344549,-0.07153776166246938,-0.11621220168177704,0.14174309471148072,-0.03517711550163488,-0.21386116082764708,-0.08708218625064852,-0.017795870824420666,-0.16210947223869338,0.01798667388886037,-0.0911181845645225,-0.18211568578452927,0.0770422018165239,-0.04654478830172651,-0.4295843736218116,0.440213332078429,-0.1830047925179146,0.2692348096176412,0.07867153311919328,-0.08397693919316321,-0.014197866918159946,-0.27298739675306466,0.12669581528748758,-0.22731178439250616,0.0829810745703274,0.2371877297046783,-0.14196939167289044,-0.03742813548336676,-0.2179930876508674,-0.011199680575210303,-0.01254339633494233,-0.1667535945823296,0.08051602065115798,0.22224995204352582,-0.17930124159645586,-0.12411940880773344,0.03898848512195918,-0.004652961570402123,0.03263084994518174,-0.1350946234332086,0.04084965971315297,-0.02603871531379417,0.062239881717012634,0.021283964690264983],[0.12394341128258024,0.11780054324126375,0.217068188829751,-0.006832150086952031,0.03293743633959368,-0.032275573177593615,-0.0485137829842969,0.17440710677027338,0.05425510305350224,0.28998860392112086,0.06586691734941638,-0.1685449270828911,-0.06901403744714192,-0.1252593640171555,-0.2865871056247307,0.29689931206522907,0.27224880437367016,-0.1917291050470679,-0.061462601302900904,-0.15822023257712944,0.17793489667432408,-0.1588899324717367,-0.18396155198635658,-0.281348723223789,0.20754343433767444,-0.02818278741193277,0.13182536723753202,-0.050029427510661285,-0.0759740597364485,0.11804324721964284,0.01045114196115042,-0.588254193785242,0.1592961900327658,0.31463876845713684,-0.05602815280452495,-0.28361541506703386,-0.03336251100647509,0.14133507433943138,-0.08917930384111532,0.11543319044886871,-0.1256226259112199,-0.2662900089516973,-0.26440518634685,0.02169198249550338,0.27910126310390476,-0.15308606189740434,0.16779539866238485,0.01922794012252427,-0.06313371406404332,-0.23084181547983973,0.35203531706597074,-0.21202779475567926,0.07248766712018827,0.11469268774785632,0.060406985320957986,0.04867139388744775,0.014566655909143408,-0.1820276586736081,0.19090072653515266,0.015045355408543775,0.2707490637854377,0.06391658862441074,-0.1753511314807975,0.4407623417329963],[0.056072044803061945,-0.12726707494986933,-0.06588861015097325,-0.07507208355179158,0.02257465544775102,-0.017349319981957354,-0.30404241150440886,0.19578141368462132,-0.14467078473878378,0.005590163622085363,-0.41874939916495485,0.2272095133889996,0.19733321328758469,-0.09828886631096853,0.022286817646651868,-0.018562047090303267,0.2754648411612003,-0.03888134626939626,-0.15905848575981205,-0.2091586695837393,0.04484678935145601,0.15792962795995286,-0.0990419771876935,0.19825326007737776,0.03204825598299717,-0.10704869141621719,-0.13852851979326125,-0.3119097313817329,-0.19713888685043657,0.0137380497169595,0.14947344393219372,0.1899058390526602,-0.11966414212499224,-0.10211980763596577,-0.025825929099991735,-0.09944758915427612,0.2181861088210342,-0.15078914739239044,0.12187945483544571,-0.15013804537791006,0.0399778509078268,-0.037082491418160606,-0.13562501854006206,-0.11212919894648381,0.08996195215010543,-0.06167769267120927,0.19634835227003677,0.5917150418435603,-0.2500005204029633,0.18875597810935027,0.09730943144152569,0.046068131096035775,0.16934294233596983,0.09202816185643531,-0.278900409159195,-0.1509450258220365,0.03318793662835607,-0.14143872585826223,-0.03853578648882843,0.22120565806374606,-0.32472309131113425,-0.17917148875416578,-0.0622150966963771,-0.23239168598977644],[0.13810718963446555,0.1178453748221754,-0.04762064200627683,-0.006781151945895057,0.04111608671797112,0.08039690861405974,0.2004309525824551,-0.046525559611771176,-0.11720280353771734,0.10159663846510492,-0.08071133975348568,0.09206871625264725,0.019405540616699673,-0.20902731457172788,-0.011670922426410001,-0.1618104715617088,0.054946786318380486,0.12867125278996597,-0.18842655804235497,0.3299887899054696,-0.029941252658665464,0.04268249433313809,-0.06853999795403361,-0.09536731517738427,-0.06406862267315797,0.08168925861186103,-0.044436262603921806,-0.1070672681337641,-0.3155684934836916,0.23933563185837822,0.13070016899172532,-0.20128343192643827,-0.27768009618921646,-0.1310535175971705,-0.08360034191968731,-0.19814972819097273,-0.005974096949229041,0.012237543577866437,-0.13820946918485671,-0.045301962569734386,0.10607333871476218,0.02905225987627264,0.08159311861907502,0.19109516418501651,-0.16018690412904413,0.04496723466771528,0.1043800951708449,-0.04589359343556938,0.05957793154860792,0.08096503513913085,0.11408067680005983,-0.22838395153385083,-0.12049191634547551,0.06899860644174721,-0.1281499239608536,-0.08261454868613631,0.11796544127423123,0.23082442225071262,0.20075487346872026,-0.02321696185909731,0.26857967556702095,0.013290500693334501,0.18668441531518704,-0.1315164505316355],[-0.16141134835686827,0.24851204098973134,-0.2070603905316062,0.12673751326676697,-0.058838823122894526,0.4157306765576337,-0.09800895581571344,-0.031951574414602384,-0.00919915243823133,0.025732266802917046,-0.060973489439094294,0.17738229765378746,-0.20997443164629745,0.16388464413248366,-0.02493728792651484,0.10370639076957215,-0.11005580001945595,0.10889965711074742,-0.031370423015087676,0.30162076162575274,0.13646736788674207,0.021089889926955083,-0.06881191996710329,0.11636821442082865,0.1781103537935399,0.07204636129694014,-0.17385399382326328,-0.3907004758919193,0.08803397939882456,-0.13411216362495537,0.02227275450677276,-0.07827515892576532,-0.23986302772937812,-0.2323699264238044,0.07095334548808467,-0.05638232149707178,-0.06380260120284367,0.10047251384448197,-0.20738586150575927,0.06472752859281541,-0.02471798230216981,0.0016037447402186213,-0.07176918089099174,0.4450698531450705,-0.2144729747809844,-0.08624994957513493,0.2352549035604349,-0.10565543409100536,0.03286396205924411,0.31855721692465655,-0.11824179167003088,-0.15175612658013266,-0.2547681422875258,-0.1555751727018904,0.13903038861482198,0.20050453061831516,0.34289712870472905,0.11716156998118286,-0.15908895956143598,-0.056263972849190505,-0.1723450096292475,0.023541189773490172,-0.004927861116515229,0.0832206727765589],[-0.06420757752874183,0.11322830407993263,-0.12797070074244188,-0.04571069344196016,-0.07220346353149865,0.14208816090556878,-0.08713190305871107,-0.008983022903610055,-0.1641693364496828,-0.07440283294082427,-0.26441391171497725,-0.18344009985101956,-0.06959772984933806,0.09459573547448835,-0.09098624200461138,0.08353026476612357,0.07843960046460823,0.16041600612936344,0.15935765124412513,-0.013818698782231104,0.08950530170031483,0.24045955209356568,0.11864179184027329,-0.10945581815231861,-0.19720410551135692,-0.047991855896568285,0.010465390221045583,-0.10703550217321602,-0.12686109033270312,-0.1729624567551241,-0.008353867525455212,-0.07354395240406095,-0.08369960838608013,0.1156645964342513,0.44099032618115364,0.03611496796372983,0.007449002230036741,0.17983541059981817,-0.11849128186921509,-0.08258211445256801,0.10316369130809716,-0.05135683823422409,-0.008088827574100592,0.1615617328205947,0.34097852878238266,-0.19077873720041785,0.15610911422811355,0.028733402728385492,-0.09021471788997272,0.07655105505757921,-0.2148265954675209,-0.08720797611933549,-0.009530085908920924,-0.05506669497286861,0.027454307169984243,0.05228258601196761,-0.06899334251600805,-0.42926793330228336,0.2335197932464799,0.13725588057150165,0.18067154416472178,-0.16281420570757338,-0.13809483399824116,-0.07026169295283134],[-0.29468648016933213,-0.10699410172675214,0.05858244332761693,-0.08139927269251168,0.008383021501731446,0.08256670177335135,0.22124090672887115,-0.05575472117346921,-0.028375604981636025,0.17554742523592845,0.04884783584644853,-0.007036654043321761,0.3232242643431263,0.11397755814348638,0.12100964835314867,-0.121211198714148,-0.4148814065180587,-0.02733345152152282,0.014066533364550802,-0.00853832113408615,0.14881451707139967,0.16663708001794797,0.0072166174455453045,0.213092920721691,0.03634718361372814,0.030740829132137205,0.19018213191677968,0.141329067337985,0.022879224781273456,0.10886119473217128,-0.15559178429931017,0.011194231351024177,-0.041510750767354984,-0.18000530970612458,-0.0946401509415509,-0.020579617014099272,-0.132332306503978,-0.0386214730533608,0.17170791153311807,-0.2099948471334881,0.02462447061412598,-0.12202380931282653,-0.11686076842200295,-0.03657608398499462,0.1685214963687462,0.16356677362723318,-0.10090402942005193,0.18874007372956136,-0.006008155268779962,0.18394863779550066,-0.18943368386494067,-0.003379885704352051,0.09126227355536133,0.23559804087378428,-0.13234366034005576,0.11144396300101667,-0.13234270425800887,0.02193006914592254,-0.10113874699958364,0.11901031082817813,-0.0937822773333185,-0.1549462223129616,0.09508109093623594,-0.1413829234156397],[0.051644372006267994,0.10925258633549659,0.02338539252858024,-0.19324377074606472,-0.2366459038996863,0.05162869018643036,-0.1521830206529538,0.24553110560213273,-0.15872724384152204,-0.07066433872458285,-0.18238965825907047,-0.210682825190422,0.012028054782333087,-0.15391114272833362,-0.1499146346853622,0.1864456124077307,-0.32598310022681415,0.05643019004928343,-0.14975845004526817,-0.18777670024625795,-0.18043797844332474,-0.2970829174670088,0.12175139853549667,0.1472157835131338,-0.017347662113235414,0.3184674209765604,0.17389303738940595,-0.21349921274993974,0.011651764479055242,0.02119866197461735,-0.01310702230045288,-0.20556264399429555,-0.18942713950869183,0.0752133665488149,-0.016993547511905703,-0.17271299559609948,-0.12354639742803811,-0.18427270037435484,0.09286391964355203,-0.16866280706714037,-0.1155077955161764,-0.07605204330945387,0.23259313632460107,0.09044034750605433,-0.3835215778821918,0.037101587740245585,-0.13836612736216217,0.11843712246653272,0.2376689717807057,-0.013690860556916042,0.048698735551692275,0.04072091187757836,0.12135286320682834,0.04421428630072066,0.21112312116547735,-0.13327871045594894,0.19337106166678497,-0.4283371683250556,-0.06616803271983267,-0.16765766663149018,-0.1348331546686202,0.10351951264114644,-0.0003262585022761418,-0.19811003178599754],[-0.2429027160976288,-0.05428789004504182,-0.010989047839291928,-0.3194691185106134,0.09512031368456013,-0.09623318094235656,0.005439144641901226,-0.055639692026051124,-0.08072317935997646,-0.23074456226700746,-0.14495833430978725,0.14739358190167526,-0.08127367258366502,-0.2599747041867444,-0.0457161543897281,0.1767684715356713,-0.18825046673338025,0.18332163436505614,0.23971566222566043,0.2534703936552881,0.07735331389189867,0.08703075598072933,0.22293188488469368,-0.07875202384392295,-0.2853598586592328,0.13783387205589842,0.21770343496760472,0.2675280266388596,-0.2478645581739882,-0.02382316830678925,-0.04521598188322066,-0.4015790466323672,-0.013290033579804817,-0.09924566700760964,0.018176453453109327,-0.21063483693346846,0.046326158183247895,-0.12708820664210563,-0.22193893914408727,0.16674161942797094,0.20558794713536221,-0.23744092437945055,-0.02469185251256463,0.01709361779208522,-0.058918271048124186,0.30538125051250076,0.19372654694924812,-0.33172792099882437,-0.17582374677023874,0.040086137223574535,0.13038125357694538,-0.15663673193008762,-0.16146239959477637,0.039579828841009614,0.13200427466422596,0.06905802632401625,-0.002807377919189721,-0.012735970059558262,0.14845295492493082,0.02242089288245103,0.22748747503126254,-0.058131495383572714,0.1345086778201995,0.03254187632318511],[-0.25221175088841397,0.023282604453355813,0.12200236801807496,-0.11838071535457838,-0.028142048032071126,-0.16229815712975731,0.034651194006762635,0.1211431156221037,0.13866841881754352,-0.04383721331696924,0.1193260094822158,-0.03467644255073192,0.32328563296091517,0.06550231692411244,-0.04975943522506639,0.02291706276577289,0.037065682568561374,-0.2373453788936353,0.3245744212544571,-0.077941811450216,0.22176037141864577,0.05174104727631843,-0.09978848138750841,-0.3695750374787046,-0.3886064526519073,-0.12020244474359452,0.0626840623670437,0.025788240311124446,-0.2120888806464173,0.05790376719730238,0.2255784964147874,-0.2358898718295232,0.13257009094271377,0.16744611125103093,0.13722983885949278,-0.086274168300609,-0.08396607587507644,0.11612228886985053,-0.08335985245362675,0.1006962508178482,-0.17252685759155076,-0.0008152500649728447,-0.1647852660293335,-0.03994752765378013,0.40315060572135414,0.3687413543277456,-0.09719210604189278,-0.025404046956625122,-0.16779613797125337,0.13877842764821186,-0.1495242676692035,0.23057968129552303,-0.12508591875996983,-0.1789347740215762,0.016879855669127895,-0.27222114432445826,-0.08501823517140104,0.04386492057152436,-0.13486738375656174,0.06150137578086614,0.3192341756664549,-0.2200143515247771,-0.0684328633119448,-0.2265670381172929],[0.2807600541099193,0.2657184157552426,0.38555960820455487,0.04477714403295713,0.31065690303102217,0.02540601687453488,0.3165604313438101,-0.06618831658474372,-0.09323105268024943,0.22996830800407098,0.33133411581993905,0.12947640749537415,-0.32333691149064886,-0.0581222986806799,0.07056367080491534,0.2390779462385873,0.02057388235567753,0.2537450624886704,-0.11797512210150765,-0.13579654074890032,0.12231503860642941,0.024356744277159604,-0.03589563821971919,-0.06275971254888002,0.02891461727566237,0.07598364233781997,-0.04977701890446229,0.03516381292353904,0.18782740004389123,0.25902554515859705,0.19265786521123768,-0.21370444648930143,0.04458728003986947,0.29627642437907736,0.20672563653904105,-0.19487095564264317,0.07652993132777797,0.19705833423450186,0.19810518743227212,-0.158477533161636,0.005083312824350045,0.2687631835188781,0.15418034929217095,0.24159222031282251,-0.2614836591967308,0.3429707035313957,-0.05809814856365621,-0.22977377693582018,0.01961138307017399,-0.30725617113564885,-0.00039728801518201963,0.1381162972582262,0.25544199610409013,-0.037912123261282196,0.08863415524672223,-0.24645805613068061,-0.2665885873989169,0.2190401536903841,0.06407110678043995,-0.015293812419578745,0.3727088596275667,-0.024444521359330947,0.17553962940683085,0.09402689037840747],[-0.07908450605057046,0.1492444117901476,-0.2693561007036602,-0.4471346207436288,0.1605190917418141,0.0275867780644783,-0.06031659442907375,0.16252241191569036,-0.06728675954225799,-0.19701414521226954,-0.13886142656802283,0.04394417200422236,0.046239617428334254,0.16977381255554458,0.11165936892362924,0.03003550305471152,0.3437550191131672,-0.26918369310489204,0.20795012266580934,-0.22446474539480737,-0.0790318172062946,-0.13159025417851872,0.07070028467344021,0.10912012614470412,-0.05468511777621289,0.15874711724591178,-0.010494268994763816,0.007154496512657601,-0.024467200075321615,0.03093215538611583,0.12299901344138293,0.15217669411257112,0.20635519144357026,0.06135353435569004,0.14593409292422987,0.07525690320955591,0.21126779595315207,-0.09277517671784667,0.1400137313646221,-0.06865652395906763,0.09345266197277706,0.11602639082469929,-0.034058290713151584,-0.007251788123236283,0.18281238085302884,-0.1141000919071016,0.19188418497273826,-0.13257322143209013,-0.030343163789880657,-0.25857824152992637,-0.06392081149789332,0.21448888153080242,0.2714860581520712,0.27830536596762523,-0.22948219324602645,-0.14830773517791618,-0.11184123584132395,-0.2716689230010688,0.027792301435141345,-0.03957060289181069,0.10965479595024161,0.07742804855978297,-0.287939561070971,0.26762600888031984],[-0.5647469803382159,0.1738901820978663,0.1529521462348661,-0.0035523570668019346,0.17010195495885444,0.013042237980803196,0.007051096736829241,0.07955069648113136,-0.07824882126796877,-0.14869965982688957,0.18086100130064142,-0.10018597964510782,0.020057902276550188,-0.2632729769561885,0.04019356280832574,0.08649929522884464,0.060757274183388985,0.008981173552123762,0.07708165752983663,-0.19055723169814728,0.13522550139450681,-0.11005274423005988,0.11675145004247194,0.1513199684120202,0.06594287387652677,-0.028253213214011606,0.21101817348728794,-0.01399314777537649,0.0566150927736253,0.001925356759198795,0.08765175327385126,-0.15201361429666643,0.08742117936189855,0.0069722791109848095,-0.3058078372977706,0.06835706521949855,0.2443023681424643,0.030082342128653107,-0.020299393398120546,0.04691714293216782,-0.19578757359988774,0.23747586802910114,-0.16738109936859352,-0.06553418129017974,-0.1358906661543012,0.0878054305771906,0.18264175133699428,0.09737950546729411,0.12387486551139171,0.3269395563807879,-0.04206811916148236,-0.057205151195519506,-0.2005475558285339,-0.03921987100441745,0.15805763332117018,0.07505267827824047,0.09360996370691564,0.12224784099319398,0.14838455364131134,-0.11051733679345703,-0.033171781815973723,0.18460579492118048,-0.05678638602062314,-0.07345579361359499],[0.045600519274588094,-0.1379333835648128,0.07931281827428172,0.10024792856728175,0.20731286993309042,0.003968438159898538,-0.2445420713045473,-0.19633527518722727,0.029692732322270515,0.19581242294258533,-0.20087873675138468,0.003495951568932583,-0.07635428503023846,0.06673171979872056,0.28350067996777795,0.449623729038719,-0.15731756391259585,0.003401767005763637,-0.20254347222687014,-0.04188276395924656,-0.13044543001065526,-0.3302835865813697,0.0068393225031911226,-0.05701251899341002,0.08036233346978867,0.005112487406092259,0.030191162094686162,-0.02047375841775228,-0.0769021343168121,-0.09042815679278308,0.031165785625893564,-0.5207943049601662,0.056189354519196724,-0.29744619858817384,0.2602876795420689,0.2487999853427923,0.024459331165108626,0.07038224251264351,0.27971811690730536,-0.2505657194148785,0.24040251347755884,-0.11388229988962657,0.09876611777127825,0.07844053684085087,0.12359311758709879,0.36987596382749177,0.051709555951353535,-0.07203788335968371,-0.2418432441762191,0.07115769288302148,0.11385652310303189,-0.02393992668818,-0.041182575401450844,-0.16746709237113322,-0.04972769786974386,-0.24720564281075658,0.17779799815016914,-0.08923418311283511,0.18532531183455228,-0.055588944852970675,-0.20916939587155392,-0.15590340960987759,-0.06066143803573292,0.18105267965410143],[-0.025004365784392215,0.16926258766214328,0.10843038609025932,-0.035734567320181376,0.06434250563159484,-0.018750648977158817,0.10980468475552578,0.17820199766953945,-0.13965876438532915,-0.07441087919982167,-0.03291027130848611,-0.16964699459257324,0.03660194924679123,-0.4128554812158296,0.15600640503326846,-0.017036822159334074,0.03523079886736196,0.07812880932457249,-0.051225900465214184,-0.24587966893580954,-0.14485883371484434,0.008963148267547258,-0.19974205509664086,-0.36924357433785143,0.04280089424151449,-0.17699695229521858,0.2478306339284652,-0.012423698157334422,-0.1188706117731306,0.08034928885595173,-0.06734764878044902,-0.0720897141789556,0.07023603106005687,-0.10776246492155528,0.14096131225663389,-0.03216047723151054,-0.07861358841682604,0.05562047373877532,0.15792572789455434,-0.13214569667802448,0.0022048464192169076,-0.32278821171006655,0.1391532615214177,0.05891267895551901,-0.2603509709310213,0.1706299821841592,-0.2003541562182943,-0.30721997774321974,0.0015686412098026227,0.04409856401767452,-0.03849987644293606,-0.26657867229590637,0.11475222093569654,-0.18711879204982823,0.1024999963702709,0.06955134634319021,0.24097465543929858,0.3404721016951839,-0.025478671977127165,-0.2467703428171577,0.11213242913519421,-0.18438535656445043,-0.05179348356856321,0.024104033984943762],[0.040512262039933335,0.3258868592761367,0.01055808902016306,0.005013129406778915,0.05472426387927651,-0.3072349658037487,0.1797859004930554,0.09148071428031494,0.2710673845893558,-0.11717124319082418,0.2204309475513019,0.3191543388050541,-0.15002081573394527,-0.09684586429094903,-0.29872916844048486,0.079114791647686,0.08848312133658842,-0.24408333607485883,0.030348437329616392,-0.053343999505155455,-0.05310993180563394,-0.20370532674722314,0.10647679432723318,0.1830012228079921,0.37794158737247063,-0.2568487549003166,-0.2309912348333488,-0.12588283818227414,0.11165528362574559,-0.03784894861074152,0.052649009130919903,-0.16069449526104057,-0.13268290555129336,-0.21227222067278667,0.11671483767663453,0.07557674450886095,0.12154693763236593,-0.03736534325070889,0.14472735287303984,-0.09842686142167512,0.039086615092935525,0.3809140355641494,0.21813528418068784,-0.284241245627273,-0.19512560339449173,0.10247534964349386,0.3026097775827207,-0.20674104318510406,0.011816962235863687,0.2560638211653278,-0.32203002484263166,-0.2863805138378617,0.12272720259994702,0.05924098995428219,0.12261942808154307,0.17797545966023906,-0.2129390037277382,-0.15254806464220133,0.04591140675924045,-0.13552337342296034,-0.15788093354219657,-0.0807225209547852,0.018007406305154204,-0.034127539550752754],[-0.06866643854904776,-0.054793245696259554,0.11646625547348972,0.08324920917912697,-0.20337175786147124,0.12863739194134843,0.12065255870627935,-0.23816893240938455,0.03126451493616851,0.18990824741854145,-0.19243622241574945,-0.16123668284706458,-0.03586737136571251,-0.06347927761806667,-0.1565710302648789,0.22920786050209258,-0.09074149252428226,0.32743034147325584,0.07914901857019734,0.2954092892455903,-0.006535032868065299,-0.24874152809871408,0.039019455529142905,-0.04904559929588051,-0.016997119641287983,-0.08472539922715909,0.2217205653511046,0.0371124009849004,-0.3302520639620904,0.3334480744550516,-0.03680842482668437,-0.214613483286777,0.19086676546522005,0.1900320235997553,0.040745222842984256,-0.3195216271865408,-0.2511836507743397,0.13455794428983006,-0.14935454229448755,-0.2091966701645509,0.14863699400793653,-0.150297535026311,0.1331547882966851,0.0379142480380795,0.24935982738671725,0.07830329498487201,0.05856130740951006,-0.14550112718141808,-0.010631025109559307,0.01632166088492404,-0.0350164343573215,0.09578997374264596,0.12532786929425388,-0.12722471308779715,-0.04201319529707223,0.06042144479211414,-0.11870298607676759,0.0636353370265612,-0.08884519279051444,-0.051289164116626706,0.06307975804106977,0.11791291791574023,0.1664349459983874,0.05445766419378954],[0.10413791698641509,0.04397052433204883,-0.4083986498628082,-0.07920152901402444,0.1805048231233353,0.30509550110353645,-0.16058600467045175,0.023089958556146404,0.07095322783834435,-0.08532435780152717,-0.1296659200408225,0.0863776553712072,-0.06774347977802675,0.02961466433899651,-0.10737527113886938,-0.0020065208815170186,-0.20962252507736653,0.2832586441169016,-0.012418389154853052,-0.2692883302622524,-0.18787851620432164,0.14238599344323782,0.26576873180113414,0.14489185650063016,0.29732874185198105,-0.06699661540971606,0.10873257058090292,0.008957613467940426,0.16776353383814996,0.08352736081128755,0.08366430817314059,0.024675212958353072,-0.0827122693337047,-0.3996079937920083,0.29369927578867183,-0.19555495505279155,-0.15565047288242903,-0.011124548406271518,-0.13731600700323285,0.20860772964839547,-0.14887066143228508,-0.05767924495006131,0.10153144259061986,0.13824512521196036,0.40783536406000115,-0.07039865891990318,0.09003663645888635,-0.21711244432954463,-0.09228681360910461,-0.04171599065928205,-0.05215459134954566,0.2637970816965548,0.2884090169762244,0.2803521852598397,-0.3086640645623389,0.12436238147862498,-0.05266983170174515,-0.10890047075822694,0.14722004284577955,-0.060623215893300504,-0.04804512531336476,-0.14937264944006964,0.21210048697986353,-0.07556897978846948],[-0.298963387545594,0.10334467526845498,-0.38007534721742176,-0.016645193254084516,-0.0211499339703833,0.01363657795407212,-0.15620872446539663,-0.11224161520027819,0.12673088548287803,0.5458427005104111,-0.09855184638204591,0.2725416768200545,-0.3728542172521619,-0.1659634329727394,0.0397700239206426,0.10637752995089045,-0.1627089608164462,0.016957166677764448,-0.17178976972569932,-0.16228617520664496,0.5543007343716024,0.09724605703424276,-0.037135429964669064,-0.16090520438791342,-0.1253957920171569,-0.014845432902489726,0.30057213344663936,-0.0892590849067597,0.15213875406487293,0.14956413209151695,0.12851103228631905,-0.19199243136420335,-0.020260451125921213,-0.027437522312341513,0.18112496861526758,-0.2492736745615296,-0.3075044208574371,-0.25961159021309105,0.23920939403853445,-0.042512565813044016,0.01152940262347994,-0.1946417747423477,0.153631210452625,0.04813973354535385,0.01320502638344117,-0.0430056503041395,0.0625141002744416,0.30294817008355,-0.06630409125111161,0.200069288030205,-0.0850285853996688,0.10657293055542635,0.008207665428065536,-0.1683774439525939,-0.15949298931198425,-0.012844952500415098,0.011543138918143044,-0.3455667015786777,0.017284152177213994,0.04616996598617675,-0.10747883668576086,-0.048060037166805875,0.06029507931612524,-0.04589927589623415],[0.05726851393526978,0.18071921026950438,0.0892021516761074,0.06507131557636256,0.1039154809268388,-0.1992448498490575,-0.016097869837434893,0.027339811793130758,0.2582334436399521,-0.05188043352959845,0.003696763633029791,-0.044954804467943525,0.07713523312405944,0.22958784334580598,0.1319441133433326,-0.09414101222261066,0.293682707934649,0.4047237251662678,-0.0977264527929283,0.14872824889342387,0.16640915901711467,0.27854309368185387,-0.025873026123138878,-0.11569796617999256,0.09197723204951469,0.044008623847176645,-0.26033142567924195,0.1263544675466236,-0.05801771862057719,-0.20379663627713948,-0.20843115510831645,0.3667138627384208,0.1753712978681507,-0.2660288479245446,0.017548520304427863,0.1408739696554589,-0.39257537531250625,0.1823497291890948,0.3130160064148097,0.03406286018242305,0.1463837237988272,0.12477802016614134,0.45292838118582873,0.040362151929787204,0.23307882532480706,-0.17971444648931312,-0.030927164250355153,-0.20326554736899752,-0.08690106723479525,0.13213634366224883,-0.08822481507065755,0.10665244053890972,-0.1901641514810039,0.2863488317909814,-0.49404154966050257,-0.0208918763753166,-0.1978809867578778,-0.04181643726361628,-0.44661578271323776,-0.0816114688778496,-0.042584393698323106,0.3339885686056942,-0.0037670795343971077,0.07184948461368722],[-0.3404391793255372,-0.02635555896420593,0.06716816203317381,0.025914513446578035,0.16866920777239988,-0.09260708835740382,-0.13756421679726044,0.11977685047954816,0.053670406619676966,0.16917399634720143,-0.010604179763187956,0.2679561399889936,0.01846096760752931,-0.01709996633705629,0.0047308223342855515,0.28848292466274145,0.2716876084159477,0.14694712945760097,-0.15812520054398377,-0.10660816971303545,-0.31974087762571746,-0.3199486467828534,-0.23032928568961347,0.22778503610392395,-0.12237454215891574,0.1847356350890637,-0.2357773935556299,-0.24833169242848327,-0.21199368706798644,-0.07386804491228086,0.20368098919629682,-0.014644205624729128,0.08434004351593642,0.14564843288593324,0.24782394299407365,0.029430900859650545,0.0623590064458065,0.1951158700502335,0.10751809711302743,-0.20465257433910367,0.22941391095248895,0.12836029828655335,-0.23870178862847882,0.2659318432350269,-0.0023885201951476392,-0.03187039494535517,-0.08557588570743956,0.004595228957447695,-0.22894990622629427,-0.08798971031906665,-0.329672275558875,-0.036160216302028446,0.29645536662198324,-0.2025594766602512,0.03749881685407909,-0.18274722521095452,0.3153078130827249,0.03513272240303151,-0.04116756453362024,0.23323376956297526,0.23468745323210555,-0.18020105656029686,0.02717419819502846,0.10139014369218373],[-0.12281900147415761,-0.315168554608029,-0.16819089853746794,0.34949614013027347,0.3442387332947531,-0.16295931747549458,0.1553425606890568,-0.01676749090226619,-0.0032578918844281828,-0.049339202635660856,0.2919652314253623,-0.07849688139852698,0.029531255160860886,-0.345643281822344,0.05568392313654005,0.36205159817600935,-0.33373597698224966,-0.22288406072307745,-0.0015451369883677378,0.1084675153065665,0.20974368915083721,-0.10097788728128829,-0.22481197723455515,-0.10913861522651341,-0.03890665785682441,0.16078517264805572,0.07888671963104274,-0.3870331626772729,-0.16520294887133374,-0.12205062444375377,-0.03180678860168934,-0.13541455998343924,-0.02056373705835794,-0.18128620087584948,-0.1989456068292407,-0.135157366488929,0.22162841257438928,-0.051661102586238565,-0.19527666005090713,0.009532045191823412,0.10965057763550715,0.23535037139986256,0.11273365208068008,0.09687545381200745,-0.20661298401759842,-0.09103792260064146,0.07715601841605225,0.13120749081892608,-0.09522846270384082,-0.06880773534122514,0.27626662086186105,-0.29856965035704724,-0.005592331753300528,-0.01060369854439653,0.00490242233179927,0.11512673161337357,-0.31391938897037963,-0.04175931538847984,0.07919179584964343,-0.05235838729868128,-0.1877112080498185,0.008447578204357684,0.10332916957915345,0.42242296577525623],[-0.002516310582716721,-0.34251345445611747,-0.06819507278996725,0.0018996104391021016,-0.19762494317508825,-0.013522078045501398,0.08955131025594391,0.0936641019856527,0.19326810863455285,0.04581454112386162,0.24227347624918827,-0.12567030996250195,-0.13529325643752188,-0.23723107008477193,0.04805740883284737,-0.179167757083324,-0.13458812414255888,-0.08275376807854082,-0.007056109009536206,-0.06103070853431221,0.011276993595971717,0.05399757668010207,-0.11682994035516965,-0.14773735171663224,-0.10047859854614755,-0.28210328751518704,0.19080342972574188,0.15704572425372246,-0.06416543321247446,-0.3846200156652377,0.058058287117162266,-0.4570408272627821,-0.15696636238900527,-0.0067526607887144876,0.02267027767380285,0.2122130256639188,-0.04833292413438232,-0.08080862121572585,0.4178130053651398,0.0270143940341747,0.14845103359033637,0.15772033947536518,0.40802054581634756,0.1295898850940232,-0.11658122438700215,0.26302124211113653,0.23748603295540927,-0.20016744577619963,-0.09835288195864227,0.07286560546802294,-0.05770565665865704,0.1404839273452806,-0.038198283599044494,0.12433216156759881,-0.04448798246178863,0.3145332823280964,0.023916097465793963,-0.031154314921567526,0.32252524110952896,0.004226288300657301,-0.27032695297983644,-0.26210226954027727,-0.09768881686439661,0.21801121069953588],[0.09263885545459667,-0.21407724165941772,-0.16337216824809336,-0.1755480717477127,-0.00481121491381763,-0.37133724736009677,-0.22362504789980744,0.15791825915588978,0.22963617930603505,0.06187410983170563,-0.028127101974682517,-0.1082235989040159,-0.09216497509800035,-0.03725087961040677,0.08013928459440663,-0.037768477862595656,0.0764153632163269,-0.0604865396330176,0.04681168748956353,0.1455435121966803,0.0642247367034213,0.22819887178357762,-0.11870419049251377,-0.10830565955008796,0.05609973917335734,0.05648273020891659,-0.030408827051716682,-0.06260892031691638,0.01426059092853204,-0.20477510213208114,-0.10414889601133609,-0.16142783214928239,0.08942469422725459,-0.15209036568764597,0.22289231848943056,-0.007661388346700058,-0.06289466616863443,0.02292823730146323,-0.26994309441373415,0.08986953369427522,-0.22094241018745536,0.04740650201689715,0.1566636609234786,0.13302022653199955,-0.16848650794586212,-0.26927019965749877,0.1824423741924312,0.08640467879995731,-0.15889343877201575,-0.28601506805483357,0.06957376606185528,0.1902373352286063,0.027455307470908328,-0.00823840762570026,0.04126670769705927,0.21228765545189818,-0.03669518507029176,0.046381164991815035,0.18272927002823558,0.05030124394968756,-0.1359419796883305,-0.1256928095926632,-0.0876038751404643,-0.16316106130692798],[-0.05309702344613608,-0.05225148388133756,-0.11425754373555431,-0.36177718601488884,0.07975014955318223,0.0043888017806523365,-0.17429350441556402,0.018656798493884245,-0.07850471159335633,-0.23970326936792788,-0.1540252406682187,0.06864739858951954,0.04592540484311697,0.15709703205223544,-0.23349234201477384,-0.04038161276601537,0.1364839838188147,-0.027558574626453076,-0.06288150064091284,0.036984803734183065,-0.20898112600383392,-0.15585732765815785,-0.086889242087713,-0.20379113572958016,0.047131010085492475,-0.15634777812870995,0.0163029952046745,-0.09221020725612948,-0.19382602504978047,-0.022803086624537918,0.11399217347299533,-0.18366391790549758,0.1818197547859906,-0.15902942922923935,-0.014637734596840533,-0.0045032566100296455,0.396388184977202,-0.06866391958241591,-0.11656727009684359,0.11736930353529738,0.08569910636210559,-0.02282853730708401,0.04913574046642505,0.030600155382660112,0.027817949527173293,-0.03782812787408017,-0.11151203035066501,-0.2124336939253815,0.14539147853222295,0.15910482779894736,-0.0020756732402466256,-0.025453121532691716,-0.04153423234530092,-0.14162714408773847,-0.13947474887370404,-0.05661363449052653,0.13654487315953193,-0.20856290613067135,-0.012791327307296365,-0.17777014127417187,0.02980194731573227,0.06432868830403145,0.0035244858827586305,0.17882904390853593],[0.027221349682394105,0.11910403990473666,-0.2078372114981817,0.25076009569864965,-0.17800357814123388,-0.2365154002633729,0.10244746323155825,-0.2161149562183443,0.1756043286360096,-0.08157804872382228,0.06100994987529056,-0.05120689868283407,-0.13251710098065994,-0.04957882727309327,0.19586082012350045,0.16703606263317425,-0.2446752843941698,0.20655969138613164,-0.07984855073778012,0.24301651986956685,-0.04586040554684617,-0.11634763103420312,0.2069264655525263,-0.11447698121104097,0.3315824381659006,-0.13189379966028103,-0.1876895139282565,-0.005950685206546011,-0.1878506959309477,-0.08607307819956567,0.02492115254521439,-0.03328451336456919,0.04867387851668176,0.24554350311178982,0.04961118651435934,-0.36945047281289495,0.014828221631972524,-0.08458076953439275,0.07378857512829169,-0.22644588542407998,-0.16327039873055363,-0.38558861812649076,-0.1684494396020267,-0.18430389410492956,0.024106440361136645,0.11741666100204488,-0.10781008381027243,0.2946509945616884,0.309511961998243,-0.10820290514915507,0.17974422036634483,0.397323480114467,0.2179919453853328,-0.08749045911423965,-0.04585736352058927,-0.11580370812240982,0.43657193802096733,-0.28681176414022536,0.048204105585509464,0.04863526598792619,0.09400854105717739,0.0705380988401198,-0.3022100703633494,-0.20242259053583012],[0.13382736803524092,-0.17629926661214418,-0.2864015606314737,0.009354600060309295,0.396497370474813,0.09655941165207932,-0.05749740048097806,-0.17454746417016961,-0.018429359358359553,0.32369727004867027,-0.29951404305848,0.20133246304672703,0.22408329047763764,-0.2604102410472578,-0.206537739156473,0.2221041107545284,-0.03818595408924226,0.022789373516621168,-0.3323735008513151,-0.0887277104215663,0.08213016276232447,0.06897427886506248,0.13991181511730233,0.03432566621629313,-0.07337833351064822,0.12134408682427084,0.1877647438923225,-0.1750345211381302,0.0757127701832381,0.07777817047571577,-0.14917219226199135,0.14303174925666762,-0.19441803001256083,-0.29893209647625624,-0.16418202978487603,-0.03954857739182064,-0.20747229456676358,-0.0434285472273843,-0.21437365091134902,-0.1142135432193653,-0.04095632611816862,-0.11225354484633189,-0.04697302663889018,0.1317281849750309,-0.16265598197627346,0.1609704422676188,-0.23083713367033476,0.059562494419087904,-0.348284725807791,-0.26275665730109904,-0.22680082997686626,-0.1773089683026517,0.16915976837547358,-0.06577157969627544,-0.3439422088430554,-0.07951385378101161,0.05397775681586181,0.23758558280279157,-0.19164212815862977,0.31081681403846445,-0.09892856301866083,0.15004291394947106,-0.15792246573680777,-0.20489231700446814],[0.060571911989111736,0.3466055690869962,0.17427474223003814,0.07268436566623329,0.35196293686846447,0.28859016144534466,0.13342784044961462,-0.08749562840632923,-0.14889759130277808,-0.08652352273950378,0.18966631294208872,-0.16366247206150755,-0.08775605761899527,-0.3017737448270561,-0.026284999575192564,0.02851146346229938,0.062353990045763696,-0.023405790442765733,-0.1806706399294374,0.05607379715825228,0.15866436380361915,-0.28379912602449153,-0.27110333225998196,-0.2594197597674054,0.3030336915389211,-0.10229347362821442,-0.09573381962302442,0.0555763330766704,-0.1621606953138221,-0.05237538405371023,0.12484298660143024,0.14743244715544027,0.14784084296219407,-0.23400485149775233,-0.01686936158969737,0.19806052368953533,0.033032106502839866,-0.15077123470855308,-0.013872311271568715,0.06443488738437075,-0.02458656507206182,-0.043943088678854936,0.014439118727902137,0.06895503816484629,-0.10238316211589205,-0.17103487254073224,-0.08666774726415143,0.05492545409568403,-0.055523429183080765,0.045786537796241256,-0.01947767986783191,0.020400977825526738,0.3660232399125443,-0.059163414739642387,0.0441948406249257,-0.08549681863521605,0.025639846866215458,-0.030762310069472085,0.19779487048752845,-0.09625963906680654,-0.364768542843878,-0.12156487193816845,0.04740163495445327,0.19117855264811973],[0.018438252099100504,0.051608019454428285,-0.12179187288633006,0.15994808793976148,0.0004993438647111626,-0.0588322438909321,0.17211445667352449,0.029997534115039227,0.15813176261773734,0.011879152912467796,-0.04234246599490881,-0.161879024533234,-0.15459403999747456,0.326315454503015,-0.0053576812110493355,-0.05030458941441687,-0.012959644891717652,0.19445450202097755,0.188072530977804,0.05906964001102253,0.24755816732159067,-0.12075311692371639,0.13167375764502134,-0.006057660216659038,0.3688810392469472,0.031793291439543105,0.04423018821616351,0.06360142826451302,0.1737995857774133,0.18190809184584567,0.21733409251279587,0.11220906127423858,0.04082904613209318,0.039601585776308346,0.06760273941750726,-0.3017648826300706,-0.20823779181065966,0.08205153410930631,-0.11401296882324885,-0.13061756397879193,-0.04217777356155701,-0.03953917640678881,0.01202823151555999,0.08433929100021419,-0.2514823058693272,-0.15618012993872185,-0.1586842136952818,-0.05665429454068114,-0.22941511065029602,-0.08984086515860193,-0.11381273513404128,-0.07005489897674307,0.2838439779916995,-0.18687981545634222,-0.12345339227457713,-0.09300542518507426,-0.11759737076429667,0.09039808461343622,-0.27407804544454767,-0.4579075712870726,0.009886582264494554,-0.03826761561847546,0.11543608640286995,0.21248970559895358],[-0.08276331541849472,0.12920664686568523,-0.3939530064156268,-0.06870894639443643,0.06319280010241517,0.22945383161282873,0.2760422607490849,0.12113718669591013,0.05703324300839555,-0.23981874154574342,-0.13834036040131178,-0.07055719177988919,-0.02900222653956389,-0.03997383570606161,0.013330592973501658,-0.48123653244197034,-0.12763025088129737,-0.053231987195230035,-0.19011612449783785,-0.2764130735044393,-0.09824605520094556,0.18552804936997355,0.11449465979741313,0.07413941865095572,0.45899911261802084,0.024140614363335807,0.13042653186749817,0.014035302648040301,0.0648326126629516,0.20661777225467703,0.06454541706163343,0.057153675983924165,0.15068037416109784,0.19537298643667741,-0.3256805633116093,-0.1110192162354655,0.04277280269675498,-0.2534165703090352,0.08873125624742684,0.07843998318036415,-0.050827111879127154,-0.05711879524531654,-0.15406851007392852,-0.1158940619997093,-0.1638100367249181,-0.02281472375273266,0.1696558587845256,0.09488207084038437,-0.09248641079910724,0.23158198870380992,0.1837830407067564,0.313071107679744,0.045927316427027305,0.16508167250255507,-0.11907667972636908,-0.023071743175759277,0.12433515033568718,0.16706225752022935,-0.1105189576338238,-0.30147051699451477,0.09067361066012271,-0.18201239825633023,-0.32052721717056304,0.0033633192912798683],[0.04618974136993214,0.18789742346039445,0.18658340450892247,0.010323352446805257,-0.14510455798614938,0.18205294153559387,-0.2726729509168969,0.19585318015806574,0.1795081266627336,0.06793633816155696,0.17946936533892838,-0.02629192233219141,0.3732366712593436,-0.05717319330427324,-0.1634168217103719,0.19092969523862124,-0.3325047015701661,0.09344703866171067,0.22907261897545905,0.08880147308522533,0.16944140205974528,0.0035545094596810324,0.1362452958625075,0.10510600756993638,0.0515101597187711,-0.042800513093587386,-0.08843491894093893,-0.07535520059302091,0.14563850369252718,0.23010149465720336,0.045451178195652676,-0.14402399768737228,-0.12958571361695911,0.09528936304090285,0.12490584154393802,-0.2926063176674928,0.18868689476404957,0.07634730296606737,-0.010359614434703722,-0.0003813847526992959,0.021258386199522892,-0.4014311843326412,-0.021895760234832747,-0.06018473215524451,-0.13330527292670927,0.08538618301947373,0.11675071059932421,-0.11527810378857735,-0.08040570426266433,0.09375001014963694,-0.10878529834341989,0.10660953044493356,-0.14701451727975606,-0.0840503060557503,0.20850739047815267,0.5035631997955453,0.10056469974995895,-0.051398174973124294,0.26114288248149575,-0.09265973012151721,-0.19469507943909434,0.023037806716614484,-0.15958146577626503,-0.19804323822563916],[-0.01383589393922834,0.13216076171240415,0.11652981382090082,0.0625170272139645,-0.016608824191685342,-0.056678217054222,-0.039797878422411274,-0.10458913583092763,0.15455634340883506,-0.10748641209346439,0.20484860104118763,-0.035119532895044075,0.12126091842151844,0.1104579736959448,-0.05465162338167037,-0.4605969300482729,-0.017279553163084185,-0.024184791276210788,-0.03745804465390053,-0.16614289101066435,-0.11472432314085462,0.45747853312532566,0.31862618945415,-0.3693016879476809,-0.11623156150374916,0.21674097213393703,-0.3126745416759713,0.09929817172926123,-0.01115729513279479,0.08560979473565718,0.07609614947862074,-0.020505760641019992,-0.06632978693952554,-0.1709304248553986,-0.10312157477695372,-0.0669703771753508,0.335052383282843,0.036527261826913474,0.1965494583638226,0.0651768179766166,-0.28423902445863075,0.11745427695325389,0.18509647622093592,-0.1153956702667184,0.18678150226672935,-0.047987048162236465,0.21707902947600155,0.05676438812040253,0.1205034711403988,0.33661781583686295,0.05044839314273744,-0.03724277452336318,-0.17003549951695093,-0.41442192588828713,0.17704586046531945,0.07568262512434977,-0.12616959943289635,0.034392875232557435,0.19394429889794826,-0.1760756373545169,0.3731124116458361,-0.3297814375692251,-0.29265229061372694,0.16255969810957133],[-0.07217424853476763,0.02841292546579489,-0.07132526368952445,0.06539301377518986,-0.06477775649458226,-0.2315173498345846,-0.3597840813205271,-0.3404292417771242,-0.1614132413553261,0.17736614748483992,-0.14653487764871378,-0.236673510678156,-0.329111038492201,-0.2522725503382674,-0.1724447859820164,-0.15410445848520296,0.13380530791099876,0.022079821868981716,-0.1514181400360155,0.09393753107584911,0.19952461900287863,-0.24537582894872378,-0.056372752588635895,-0.11498887268990714,0.3495535863092611,-0.06276216752387889,-0.18398521344702126,-0.0878600894223238,-0.042501502691445175,-0.12379779572201381,-0.14323233917637704,0.10967223127669523,0.05079743544496862,-0.07641649267463384,-0.15346303804273217,0.17752988974255787,-0.024791574243001976,-0.03590368582359249,-0.16469666069999556,-0.20757925612597836,-0.015075356343666121,-0.09284147499269191,0.2210933699882261,-0.06060043892369045,-0.05518840411725648,0.025016708711156018,-0.1318342494320815,0.02064067542149532,-0.10740633117974718,0.044514627125368876,0.01843852314261269,-0.06852322113241646,-0.20750590368481875,0.0503549871603814,0.1336767068505723,-0.1657811701181215,0.17236655364508258,0.07197637307738944,0.05232456650544654,-0.1654891155474345,-0.053244320024650744,0.15834166331650762,0.19399164368012034,-0.04034391852826692],[-0.1469742546805184,-0.10560173203198885,-0.1860129300203226,-0.10400293611258672,-0.18724783812162127,-0.0607941458004765,0.1274961985073809,0.2656540119896399,-0.07882217527729739,-0.0005739517786361112,-0.05143549113593146,0.10291494816276067,0.49483043190806736,0.007000284563172403,0.006464660607870636,-0.11040238954596746,0.15730559909227954,0.349249909437175,0.0011331823011283173,0.05731475990761226,0.1769272695182226,-0.0020938945008544857,-0.1950841167578948,-0.03956846351597589,0.08569682106913708,-0.17067395639325744,-0.41086992721335963,0.20193046637410833,-0.014113038441353202,0.07014643655530606,0.11241246721086545,0.043168121847452647,0.08431793311420838,0.14043508035662786,-0.17262072094727324,-0.24373322205782863,-0.12244162687521959,-0.19125892618082427,0.15235577932617375,-0.1746259870674969,-0.2896933718503865,-0.03675333937024741,0.30839951525477843,0.05532132749619598,-0.11113021123044735,-0.2057271901845916,0.3041588304944804,-0.22193960140662955,0.09218391957502821,0.3581998741713693,-0.10851833954101815,0.21715357866813847,-0.10251872540134484,0.237443950506273,-0.0997334428134694,0.11257142156947914,-0.009620780473252813,0.013996114790565782,0.010755843136222885,-0.10225008164666238,0.04602659981731934,-0.1182416139336136,-0.005554386535161337,-0.06408531703556988],[0.2901318101810006,0.21311279873201627,-0.191919600240074,-0.0400487718879899,0.1667473283691577,-0.0195310819816766,0.1227900738177626,0.0763727559853216,-0.15642696051494243,-0.11427796542505159,-0.18382878153710083,-0.07962573027445925,0.002798182801344928,-0.03843752115076147,0.07330178190130028,-0.15721746314646495,-0.39758867372152557,0.08907092916658928,0.21062552669000506,0.34817916712969393,-0.07110184128782131,0.22177187287846528,0.011049161989779751,0.03063744024369966,-0.011612926567407813,-0.06617852607782257,-0.03792108566338415,-0.0746799760467265,-0.23002718707463277,-0.004208239605456939,-0.2575676417013356,-0.031671742211611405,0.1093056339288278,-0.006328602230638646,-0.15054816443595626,0.14897082634675332,0.08870224543078598,0.2578954349411963,0.004967559129686016,-0.023953091600261302,-0.05720175012330131,0.07916504063600094,0.13280740164903684,-0.06361716815183499,-0.007117855379179392,0.03675144406130079,0.0044655783790303084,-0.009567409412944903,0.0928977247626562,-0.27581066823752626,-0.16174461388483483,0.07506335077774874,-0.08950977713461028,0.26172993780408815,0.12487262904965896,-0.07266409324634719,0.1915460125002417,-0.20047756892457966,0.09654215559297018,-0.02598385345086183,-0.06818251636287656,-0.1542187627364666,-0.15758760873248934,-0.25656994064765953],[-0.3348599735908825,0.06268988611318645,-0.0409965777781392,0.007220190622089469,0.15664255037679342,0.014536153993244505,-0.15400504431975706,-0.14128666222442893,-0.19688234215682665,-0.0824781717531821,-0.045977916320300974,-0.059059008633641,0.5728316021674623,