{"layers":[[0.5490188525190579,0.755576086835895,0.30850923048373585,2.182882581863826,1.9102108030741003,0.9641899327350992,-1.9051438244143346,-2.183074480898158,1.3552326869489106,-1.1273851707905909,-0.34859995040390135,-1.159865851418693,0.8098752756570855,-0.6413338389044517,-0.9956739245345275,-1.8860057630751887,-0.9277753821395255,0.7388862857909297,0.39411330861450705,0.2745570187409588,0.6111101910263735,1.6870244502719967,1.4033389904389788,0.7789511619244325,-0.6246904893300991,-0.9835290661232735,1.3338695332119106,-0.548904384917133,1.1897366442861168,0.5082511326744084,0.3906645691001602,-0.6131274241604164,-1.2091818252369864,-1.5805314595965159,-1.3368710609298096,0.8901448186955238,0.9,0,0,0,0,0,0,0,0,1,0,0,0,0,0,0,0,0,0,0,0,0,0,0,0,0,0,0,0,0,0,0,0,0,0,0,0,0,0,0,0,0,0,0,0,0,0,0,0,1,0,0,0,0,0,0,0,0,0,0,0,0,0,0,0],[2.5968755382572413,0,0,1.3385383569157385,0,0.9718997223920378,0,0,0,0,0,1.1001284783655558,0.7797410647812254,0,2.588550735784499,2.2253838907418464,0,0.7843087358637866,0.3431530627478147,0,0.38422164268851455,0,0,1.1880386458733039,0,0,0,0,0,1.2776022757161463,2.4670199599884435,0],[0,0,0,0.6264856012686341,0,2.280311574860941,0,0,0,0,0,1.0202866237896016,0.9871334067785538,2.378201286566323,0,0,2.6295069343157524,0.9105977801701227,0.384817238528397,0,1.1320933915394786,0,0.3176824962910776,0,0,0,0,0.18166297102383044,0,0,0,0],[0.7410772146316925]],"weights":[[[-0.03131531214731793,-0.19797652389330037,0.12080994127350864,0.3886888269458197,0.26190530590123123,0.01469909777127576,-0.021417580093787428,-0.13381639145602195,0.036345314567658105,-0.37558690318805155,-0.20604938807788953,-0.15844975904544625,0.41916041807477217,0.15884065268182992,-0.21092148714664025,-0.5736530060656767,0.0021211099008458965,0.046991391983961885,0.0197509536015068,-0.24954960948303606,0.048572005161390486,-0.01454424801725102,0.01666104975969793,-0.39392863845439785,0.06312532748657489,0.04101904273425494,-0.0386908466373105,-0.2319079024114429,0.2976167592232068,-0.23395369018521386,0.14048377964508219,-0.3097336066842348],[0.01204001098329303,-0.011248202617864952,0.0743895533531219,0.009711231777143699,-0.12186504625351884,0.269688989636327,-0.14801272364271123,0.25934395480938655,0.1991756600626709,-0.3110541556088737,0.3733068307628602,0.007150507318554327,0.5772740103858696,0.3579825873444347,-0.24759320717470165,-0.20196042501070935,-0.0004269924591247144,-0.01950649054636729,0.42774557445131667,-0.045650246970765807,0.03384401474035915,-0.28444973271661717,-0.1969511917697795,-0.309089398356645,0.12068820189521849,0.017547731535757574,-0.5010214248671724,-0.26796173471136275,-0.0029957481831647467,-0.09225095969447204,0.0035371203788772225,0.1507637619918838],[-0.10168084934471111,-0.35703769040248545,0.07280303563669697,0.040437916431682944,-0.14760684999844234,-0.11520383973048214,-0.13574258338729678,0.10461363535550597,-0.33123206954954404,0.17901273576112883,0.06538721182158366,0.06961174947415757,-0.33529685089275607,-0.057336658292036984,-0.2748193902801468,0.009518513648666365,-0.07522214786369676,-0.01661681903996739,-0.45727310893405076,0.029755011350960578,0.07852982316336027,-0.2566488995743218,-0.15267219625692036,0.047437104383651854,-0.017213049614276443,0.16754273545365964,-0.5329546296010261,0.37290516930818574,-0.05961275172219646,-0.41454246229922515,0.18775965935109595,0.1957135416113618],[-0.3711986526692155,0.07514006693122396,-0.16504142336822877,0.1384582687966886,0.08709298260221036,0.06866095237456772,-0.19684454547325095,0.10128827314458069,-0.6607301635370527,-0.15063256652707008,0.008527554905218204,-0.05779922187866685,-0.4197786022757815,-0.20843345257117654,0.13775813993796715,-0.14725558851937223,-0.11688226403702484,0.1726947281554388,0.047068775396040666,0.014857875259732168,-0.2363923273769653,-0.17543328384777918,0.10125868963329034,-0.3301851308857809,-0.13917679954530185,-0.15400106400559377,-0.09453708016064738,0.4001596960004364,-0.33939730659597517,0.053750930538200625,-0.10857548669087445,0.03854097571300424],[0.26582170132222327,-0.3456853588434283,-0.14698198208798033,-0.026464516676715753,-0.299826173375473,-0.021642905415684918,-0.1886361318306858,-0.3944687583700533,-0.20593276922127865,0.16365640195613954,-0.409582639784766,-0.03612973133872256,0.007145305277710072,0.26697558370243224,0.10606825161097753,-0.10657292379234201,-0.4679411441541515,-0.3504941466120337,-0.2773663459474483,0.179334263280356,-0.055842760133916376,-0.2982087424417855,0.6119556913994054,0.01692468400840733,-0.20747911632267355,0.0014638890142366413,0.06981732779502203,0.11333072839175008,0.09998848290505986,-0.08986333517765904,-0.04399335881442485,-0.05000397929453548],[-0.48993703539054734,0.2829118201923309,0.2257931982501183,0.1571109397993021,0.17369335679011158,-0.08585750257816545,0.5640156338652195,-0.40804080162603523,0.10118409659966646,-0.41472173885365127,-0.03944767360313587,0.07171895864808912,-0.06448485699614055,-0.41178507195624475,-0.18345470059806812,0.19330389306378687,-0.0283911231502567,-0.03251104831127597,0.06432138649060494,-0.20951203040683414,0.581340918446956,-0.20495404089810648,0.0807556288648388,0.025411511073436772,0.06335136254984942,0.12549389471419486,-0.2077237858383043,-0.3061156417997238,-0.03094721844049357,-0.3469011826495586,-0.36686547514781204,0.05967307428311904],[-0.38061877008993117,0.2692256482436109,0.3094943734432718,0.4658401482403557,0.3892029464303775,-0.12418052307182903,0.21271996403786786,-0.21346111295120002,-0.06151860623636126,0.25261321045148016,-0.09400600342773872,-0.18903552047067515,0.07903007204362383,0.07672189206171567,-0.09008181821516202,-0.4162936082234206,-0.3465920431029675,-0.12626028910823714,-0.2418581935734868,-0.0796330233052948,0.25376574850038075,0.05107063182251551,0.09492108713601718,-0.13259459016157663,0.2513913397963058,0.10292452388220855,0.09023058148499073,0.08515651854890373,0.15068003707416266,0.04647266540624897,-0.25279542044064685,0.28685784582793555],[-0.2946754157343672,0.5435051465289417,-0.11523254551349463,0.179829873399207,-0.2391192121063487,-0.1681014648576463,0.19759129728759486,-0.14312916320652394,-0.5446802776421191,-0.0916621400108428,-0.02686476470974611,-0.17869304868537672,0.09779600957337899,0.30184291889503306,-0.08734292229107612,-0.23477306651380492,0.2094201167879793,-0.04173119754910835,0.26047171461632734,0.1556040362245184,-0.30756138029080754,0.16177644752664821,0.18296945871902143,-0.07487960024185605,0.20128022511775354,0.24335094650414976,0.011709617215244626,0.02556642120136161,-0.4069827737174491,0.24607608547689047,0.0938709229814743,-0.4763375630135318],[-0.11129936591852385,0.06231484777017038,-0.2808323583519996,0.4394698253919613,0.10847025206630036,-0.22118600320429593,-0.3855108866286108,0.34514988102337363,0.015099389129932323,-0.5020529142268393,0.11217376096873763,0.17902959833733806,-0.28749752386622135,-0.4291448701387441,-0.16389863532134322,0.4118965283927928,-0.39557142976381504,-0.05459262703078942,0.02352004746253347,-0.05599815774295918,0.5365468276856168,0.011287721914035523,0.21867085460278604,0.23760877669706132,-0.01583381214655794,0.2796934780231897,0.02143092059574918,-0.31044905662497413,-0.028944039552589014,0.258650053708169,-0.05134135802107334,-0.2303198810034911],[-0.2865988446556164,-0.42529100332888253,0.12530307925945863,-0.05437019144636594,-0.03740506566392264,0.0006086991602289625,0.22788488459719095,0.008661511375151592,-0.32986115395931326,0.13276669986662912,0.037261958046229976,-0.05143723702892411,0.0076644702819241494,-0.17533350388972113,-0.2566839041951649,-0.08014382767951454,0.1353189860299712,-0.34851754258251816,-0.2613777544369741,-0.06726727591471302,0.010318026424678182,0.16987054621462583,0.034484466285122625,-0.06153656599149173,-0.10334843483454144,0.4655072311874124,0.43852680194664667,-0.3912790475159666,0.11949150162797875,-0.3311635402110138,-0.21587491428655875,-0.14830606069921226],[-0.21168915750589587,-0.160993084780497,0.01176966273329757,-0.303143735580199,0.1548412629363971,0.10706946730111222,-0.08030493807569729,0.045968014411697275,0.058346018838314515,0.3410828250328746,0.014573147472342795,0.010962986332332614,0.0024540634989447217,0.08031902249291484,-0.2114515637602748,0.07598909299526287,-0.03407319736785675,0.3678994149121872,-0.1293856463278976,-0.02008053274054063,0.35080578437353954,0.23167868664105123,-0.11907644232106904,-0.1912935821097406,0.1883408244290895,-0.5630888484494546,0.09904733678520801,-0.06493752048189556,0.11989006194052311,0.08019766252243736,-0.04885967306262614,-0.2832699029813156],[-0.12185544580435442,-0.05943266512372806,0.24039936519147684,-0.08257607356872027,0.05890974872212655,0.18637592157995841,0.11784885267603355,-0.18892214268567528,-0.17214102414382587,0.09406576697829196,0.19023962250543575,-0.13991715565884258,-0.5175275496711272,0.047540622088316796,-0.26199707444460424,-0.03248567612137994,0.16706635920467158,0.23755481277206697,-0.04631133174753965,-0.06938663772703609,0.11102831071946434,-0.08458573711131921,-0.2658372569572977,0.2694566114517485,-0.6346266580598001,-0.08813129808949621,0.006066882680452586,0.001833942015009347,0.20253989776512163,0.19099425386322869,0.028930611261960375,-0.4742151596410624],[0.028768750733755316,0.21313430389232466,-0.19966153448938515,0.07102079926911405,0.2271009486914096,-0.4350539693163453,0.17508598467210165,-0.13329776888410966,-0.24120040791012778,0.18988140447596247,-0.015912098634524374,0.13482497322592224,-0.3260287364579889,-0.08896035396708099,0.11893363029150979,-0.3422106411517027,-0.15717466969716082,0.17296281072599376,0.09146998220162139,0.13198303342267034,-0.4142131125800098,0.4124951834259035,-0.11723373766705943,-0.08656414025905901,-0.12702925608288906,-0.02192177314378132,0.07394956657991054,-0.042193195475676765,0.33016171623426976,-0.34293202057272004,-0.06721759423108759,0.15975073140677373],[0.017970608888882928,0.1330600724452772,0.06617750010116802,0.34975396767500144,-0.19529083682843013,-0.2566173193715285,0.2713312675792186,0.1597551583664266,0.25834624191136535,0.10821594531328413,-0.1379158544655589,0.09145036494072409,0.0751395355378723,-0.054346863926532166,-0.009104292319740043,-0.35623445948196575,-0.12551123146628637,0.01953847403305635,0.357899294900511,-0.34474906200405786,0.3570070227108782,0.029308288895365367,0.28949496991262486,-0.1903204129182155,0.46107484684112215,0.3664717237065409,0.4573339690820406,-0.23619513498127387,0.18454820811326064,-0.08880147442935615,-0.04712069307080788,0.14194025471164923],[0.07108717427498694,0.16980669215722796,0.17522506470444682,-0.010977942414704643,-0.2819222586744635,0.26858960504451823,-0.03696716734753127,0.20711413360506528,-0.04352382308911502,0.07945243293606043,-0.4676669312434368,0.20693383939313686,0.037317220923871096,-0.16244038389166504,-0.04228072992965678,-0.3668579439409917,0.37561670815276793,-0.07237537212368474,-0.23132327879886264,-0.48264073516144446,0.48951848526559677,-0.24270362875826312,-0.3364186577729988,0.13877418621451315,-0.008573873189625799,-0.14849386305312318,0.0631092504159077,0.11112998531109884,0.0796503296313618,-0.22908513597248026,0.04246872613690958,-0.11238632341323267],[-0.1956450898007704,0.31362806834574314,0.22637016404115926,-0.07486192190618342,0.2982987565382845,-0.007593901053851863,0.017170365172726743,0.051782482700360816,-0.14653047410648792,-0.189412852429394,0.16309924974271028,0.4024088944284333,0.10115787325321593,-0.2994140286839513,-0.25224377768291156,0.013101202035199187,0.45011501831997797,0.09476394866949713,-0.1489381962073119,-0.023199171936371023,-0.19736715624062612,-0.14634660898466173,0.038932289257272025,-0.03218756523985871,-0.29642684947221437,0.3855270951528303,0.026364631297967133,-0.17388682773249223,-0.12368735867412868,-0.45202963342396163,-0.5971612875197698,0.19837600421683538],[-0.32175486128315106,-0.3470749120719895,0.07894104662719784,0.06825670265652027,-0.3520102680911536,0.04152112194999344,-0.3267416958379889,0.0981126595733056,0.3456288130831921,0.13151385430817586,-0.06436555547392078,-0.32227018839700644,0.11782772999820522,0.3555960126627766,-0.4254115026750728,0.3484797062538505,0.5255275473358899,-0.07499617822624334,-0.027736614976411222,-0.19342254567713651,-0.02582543106286529,0.36168951444150976,-0.0683991605010539,-0.4248692938029293,0.21912316991051994,-0.22872100719077415,0.2338949423991669,0.08822910692229322,-0.04876732900590373,-0.19733959806511112,0.22140370886065058,-0.04527405722595409],[0.012815599604873313,0.2298699089307238,-0.16408593932258608,-0.06167252499704514,-0.20968430349986203,0.24834056018020337,-0.0033125534150032342,0.4628422735450181,-0.27177522741916593,-0.2396029570157889,-0.3043209610017995,0.0400570320361437,-0.07276959431166596,-0.02077221007579433,0.12260503200590794,0.023300818653274814,0.5356592221437507,-0.06299409099353477,0.1972644819583112,0.1949258474144844,0.3966258192191381,-0.060711998404963934,-0.12293693851688157,-0.0724365880548513,0.029818483149399153,-0.10735240119934752,-0.20932733813097087,-0.3308385893048803,0.0865949029139453,-0.2761607256144507,0.2721793292174034,0.01876595055795313],[0.032559310967348584,-0.20886335612795465,0.18949696893518503,0.03831900664375157,0.15391956799021425,0.07308845053945193,0.4838437285548364,-0.11831335809783,-0.5298461487007738,0.07824462431388195,-0.05815418204260926,0.16946388652563793,-0.025593365823996666,-0.16606694003118583,-0.4214968351450979,-0.018799406481942324,-0.3082061355824238,-0.43899570383481806,0.17184451448219504,0.4043116184539017,0.212380455854906,0.0667546044365979,-0.31430721370018255,0.10914721921869755,0.2421316402632692,0.05827178208608844,-0.018394263148324798,0.020743759801163636,-0.2531296735443999,0.2046474529039488,-0.038607138254773424,0.5045698128432707],[-0.1226351811547575,0.369909341524984,0.023698718718559695,-0.559453549000201,-0.18952287063649242,0.06734641663337373,0.04496356824345141,0.12085377414619328,0.004215549937751602,0.46000973788047783,0.018737487522885926,-0.19162699592053573,0.026663793909664918,0.3577598203141279,-0.25672788605670327,-0.15426625709522354,0.009746306284073716,-0.09978287663750884,0.17726882297014143,0.15946776992149955,0.2550489485614627,0.28711510186302647,0.35992160310876625,0.4169208761461612,-0.3484446430010514,-0.03545569225824867,0.13772398836566854,-0.24779628837985565,0.33509168837064207,0.1934422577859805,0.311907095103317,-0.02533283532610316],[0.1245382769471027,0.21248055857128717,-0.07422423068161928,0.29889783056823116,0.2149584628029065,-0.21153134475821092,0.027868385740097222,-0.3311232463553392,0.29784740199499454,-0.1441401027582082,0.32410039372058336,0.19162481653734778,0.008903833577142601,0.10818195499907268,0.1641971159872117,0.00779908781752646,0.25209923912878096,0.01984293281896181,0.19994136901596793,-0.44498205853439765,0.07052783744349865,0.10728214500900725,0.1926432007216321,-0.027563429316045156,-0.21106187119274344,-0.09204850636542078,-0.2714597437513369,-0.33799963891805507,-0.05725398560238404,0.18582580883699393,-0.05194240698968313,-0.09469210578807041],[-0.05509348375379032,0.08733832920501365,-0.2760796891608324,-0.47200980705298456,0.04538660675497321,0.07635214566354104,-0.002481452064461386,0.1322658928493069,-0.5774104024952077,-0.24021841749646353,0.46109773059090686,-0.1192421579902344,0.030763468378099176,-0.14253477848409957,0.25186452027987283,-0.13069967942485805,-0.20453583931311342,0.0868254509907629,-0.5885823761446402,0.21412297345856618,-0.41918756124440376,0.4300375884749244,-0.11757126407794259,0.11152836965609414,-0.32757006388290155,-0.1991030067801606,-0.03327318943229984,0.1423550398792762,0.10059802649665239,0.43148930265504093,0.2557032365497679,-0.628290836656325],[-0.2749353913928208,-0.0019981123881614364,-0.010408934120768019,0.7138096340398147,0.06805559473582207,-0.23229644667643753,-0.07105951284824172,0.19512639671143645,0.2229160396806945,-0.2876526141692625,-0.026723491377473322,0.15797361666902981,0.20433732618647943,-0.17826719139124567,0.234268434274608,0.06794622534945027,-0.05806626183641504,0.11341294179181381,0.08726874481963574,-0.2058661500914956,-0.09662955943811305,0.13645553518230472,0.045968729002994924,0.1754794907098939,0.2498099468816097,0.38401507669531404,-0.026925195444102615,0.006673359213313071,-0.1962490872366924,-0.07088941974937088,-0.2830285168886176,-0.15022165245198088],[-0.0955013616052026,-0.24552128334174428,-0.10754517290687411,-0.21923805755841608,-0.3550654762503424,-0.23113333476345357,0.1538462574135985,-0.031489678525386484,0.4901273379100057,-0.11800148701498722,-0.5015779916024663,0.09272944940152095,0.3575196571903003,-0.09588890250225453,-0.0545188423743832,-0.2030535440093049,-0.5030333353954077,0.050112830825288154,0.5455909641192983,0.18262699237444863,0.40636627571735373,-0.02083933843876211,0.11930097657081977,0.45079990007217824,-0.23571359578011455,-0.0034567218503109066,-0.07943888215999068,-0.2696630845383173,0.01145070847639745,-0.15726632742040417,-0.21188481706832657,0.5577825279446706],[-0.5627754577151687,0.17361263244137085,-0.1339989141236266,0.2200312531513385,-0.042032450768531494,-0.13864750101902426,0.0739905139957411,-0.07225653062047575,-0.07153744068366695,-0.31330582463026657,0.3527650206740219,0.05902638777629533,-0.369834198109271,0.17594706423230433,-0.09620953714758075,-0.002010751125297873,0.01377257555908727,0.07432065100929118,-0.004878646628534464,0.14809371216360914,0.05799227683151612,-0.16272091739952,0.13424809461657197,0.20156756203924767,-0.026254517320197204,-0.26083870526540903,0.11613268951318076,0.46866526433908307,0.3103237398974211,-0.15438655757195127,0.10691947495949336,0.04420312959238688],[-0.5899012055990179,0.00885352313809788,-0.550449804954246,-0.15884181283641924,-0.19373881573815255,-0.1301351413882826,0.049983332304022236,0.22860063785751342,0.044187673743152564,0.016669986749038614,-0.13845524167508133,-0.32311767115467893,0.05961172182813823,-0.2342071461684355,0.057458470696725224,0.006181512321869528,-0.23975504808686013,0.19863314868583534,0.37148502358861374,0.2963118381881477,-0.2129039076060743,0.11659142276437896,-0.1984696548913785,-0.16677853236038018,-0.11509561055793185,-0.03319729593101497,0.1180091223706564,0.2830804628443194,-0.07921512884851706,-0.2976369150896747,-0.24850827916686205,0.5043070464868128],[0.06792535493764437,0.2318865639379974,-0.13821373671402692,-0.018403373086387932,-0.08257266036992543,0.1946251273926049,-0.13925864038740257,-0.23679173591404315,0.17704767462935642,-0.04758083822434489,0.06607836983851961,-0.046937904368913166,0.20833181786806315,-0.13988921687499045,0.1580766916311091,-0.013947179425530485,-0.4607109109873413,0.11786852738659058,-0.07623666532341025,-0.15773088155362003,-0.312723528646659,0.48404327093545335,-0.2695706975800079,0.04043304407588085,-0.43367774621799476,-0.09465207183140795,-0.08332901685297557,0.48529134191121875,0.019615588769405973,-0.1400907639859905,-0.04350417971572412,-0.036956252796602265],[-0.18401495907163595,0.30106790748606665,0.0554050463664471,0.12579988294788746,-0.023699802092241474,0.17112767161367953,-0.108941630324269,0.26955274295978954,-0.5292083350050611,0.18460618078983873,-0.08384365777383271,0.555841050524219,0.15389369448613965,-0.17616216390553258,-0.0929705113577677,0.17139790625040258,0.15012800629191067,0.1682183381053979,-0.10533596728414087,-0.11013091099953368,-0.04643620055750008,-0.12264262108038271,0.24508638369769073,-0.27744419840466705,0.20280917964506065,-0.020814043868417665,-0.0946997382875855,0.3088270786673623,-0.25324201843414734,-0.29771654592041824,-0.10675822463441842,0.07905158476281579],[-0.10104388912829482,0.08206029371057319,-0.1931879697992105,0.17307157659860592,0.42852903310544227,-0.17996763613087743,-0.20995381325305007,-0.4455544081146981,-0.2664167542682664,-0.11237392458119998,0.2813741808462381,0.10854325972683788,-0.29050655157953953,-0.3453085519610885,0.03365797701613558,0.16456444196433703,0.23451114581381213,-0.012628183955732526,0.04880015032997265,0.3331023075186647,-0.18278729544525785,0.2986297942761226,-0.16411902665560807,-0.0939959850937065,0.024168030506198254,-0.181667167673923,-0.3427052134300979,-0.24038224573103342,-0.035651742919527704,0.19214196858761012,0.021927761725665646,-0.05297678356741933],[0.14100588489531132,0.2344004490978884,-0.08924244230427826,0.14151324989512337,-0.07880532736779797,0.5432708452399114,-0.4139017456590338,-0.23621588855793466,-0.3803155733654529,-0.2732083504518505,-0.004865794920394553,0.1221817901231626,0.32820356134856915,-0.1479718622079828,0.06700621439412784,0.007118041145342318,-0.08401703664442017,0.1607099572008506,-0.06030690077014235,-0.2596794709956055,-0.36288425934219165,0.06551104522884459,-0.29004395460647153,0.5098645215438755,-0.6309814785099049,-0.18376259527273492,-0.3153937085058725,0.2827484156713443,-0.28113203942596227,0.12127629125036629,-0.26731409995267663,-0.389691605663998],[-0.03753157430356302,-0.07138674532525646,0.24571760742372362,-0.33501410870829945,-0.14157317371056113,0.19312656635459932,0.03801102272961302,-0.3450882309486528,-0.013434744061681953,-0.2736147294863487,-0.19048376892942473,0.11337845098551887,-0.49481644213444936,0.11201147459845713,0.008189711327422432,0.7283096954006607,-0.5039980832061579,0.07163624293717029,-0.12256310691734322,0.0843634618407993,-0.06476618399976744,-0.03179404701471237,-0.4038145650570173,-0.2220365855492016,-0.5758315316622133,-0.0407875115811687,-0.3259122910891627,-0.17656454356247953,-0.32079416822847395,0.29434620109776183,-0.13243131234864447,-0.30776661040405323],[-0.07129447193494347,-0.13680852909938387,0.0205990786704083,-0.4729236990732598,0.05654632229588126,-0.05632449932512542,0.21444761781687693,0.10428283984130794,-0.1995073448945758,0.12883763915024418,0.34866342193526306,0.02895252442663433,-0.30035662932808926,-0.10194354131829868,-0.1367356071404203,-0.23573219899230527,-0.18291920145531262,-0.05711776066582632,-0.12081304479018211,0.4444292432628248,0.1442489134091535,0.013525886174030655,0.21345078129020273,-0.019532623901122387,0.06598683602220178,-0.166488041568688,0.003944588852009161,-0.36248199637013995,-0.020866210929140937,-0.2353368871845326,-0.3037918986487265,0.13457692481858885],[0.42982500325803263,0.146766955151451,0.10100270957088164,0.1594859424101981,0.015709001924063732,-0.3601851515065217,0.27275314651079524,-0.15069888612547683,0.38504501861699164,-0.00412168884812346,-0.31207998581108654,-0.11693568062892687,0.10389991433003362,0.14940373439347523,0.04370362452155395,-0.19540450931674327,0.110342598269954,-0.19516219928078285,0.23790143834047228,-0.2290422614360604,0.10798260066500126,0.10769614560227556,0.0320507991996952,0.048105908125293716,-0.2099083935601447,-0.0003286872973625103,0.0762649884939775,-0.19151437193506618,0.11720425377294162,0.1317535470701507,-0.15201760910923243,-0.1915678458601428],[0.16617643578729385,0.09569203932438942,0.33187180098895236,-0.21482011488953223,0.05164064843696179,-0.41824025686460226,0.18220990189388134,-0.34885243342026206,0.3890285081418236,-0.1371074094125232,0.2986914649416931,-0.3216485882942094,-0.15167571252343812,-0.16168520220699317,0.23179871096565988,0.21765917966306061,0.040491739179550436,0.18280539164822895,-0.34480669992911894,0.08704041803823509,-0.07483374415787535,-0.10640919463855328,0.1751481442494061,0.08613638825453025,0.20683082582650023,0.00749368795454066,0.10433127254899613,-0.013432974643831221,0.29120084914097094,-0.046541821794233655,0.05337151988439862,0.13241631140669316],[0.04631994337996445,-0.06025887527596415,0.07570251373123053,0.30783641620854635,0.20125368055704135,0.12440190917939271,-0.17529541082778374,0.05556488578111151,-0.10509671871555155,-0.16110187140281892,-0.1879339299971645,-0.16580332438604034,0.09243397795454071,0.23311488610432743,-0.056553213014707095,-0.2969600384053068,0.10343003773127864,-0.18528517626038454,-0.13704271072510904,0.2562149342017893,0.09886288087153361,0.2731614045244677,0.18977097668324644,-0.04405609813585115,0.20168667748436872,0.18564102604560886,0.26670286669102006,0.3842178663177349,0.13884011365023463,0.1409065570977788,-0.1822082994185036,-0.11292914728823544],[0.015634322477134498,0.07773481231976145,-0.37601318906383924,-0.15883458866417308,-0.11844259361735203,-0.06555426165521601,0.0860580509875829,-0.003888187518878792,-0.1247160419101176,-0.245341683396866,0.11097012604317473,0.16346283190192143,0.34896292676319685,-0.10191476783318924,-0.1272288124919095,0.08981014741738524,0.18098385056119629,0.08914945809765562,0.0769920087402718,-0.11320675964800446,0.10614082134852439,-0.16770653007917266,-0.03209742265680261,-0.2447654600043183,-0.06559435999623146,-0.07553089324130405,-0.12687652342181052,0.1593297228206317,-0.3212653111621605,-0.08744592905209021,0.4025438674201646,-0.21019858255043533],[0.3245788309906143,0.0046492767483041885,-0.047470334199059216,0.19692324925900248,-0.012968099575787496,0.19143009378059891,0.04639720337116586,-0.4394886554951767,0.4985522630310699,-0.319182152277062,-0.4378042730029115,-0.2349862402097888,-0.06378880016337904,-0.24789350316092812,-0.06178498819278488,-0.14351706528856178,0.01922048058477083,-0.4413281983704339,-0.24171655980625298,0.026921517947813254,0.7221251983430776,0.27132303795472384,-0.22526158650446806,-0.04258124062094117,0.15668240413825207,0.23010564661495989,-0.016234649265598682,-0.16302337490075824,0.4413196433990255,-0.47579554091660403,0.2605901849144293,-0.09726662314303179],[-0.17708498500519324,0.3399186985776501,-0.09012022418406825,-0.22280611722024884,-0.37697890655170996,0.7653579773335162,-0.2064881181000234,-0.2766029775203274,-0.03988658259592802,0.35654782949596947,-0.026914635906614075,0.3012099268843579,0.4767063126182477,0.03003264099306751,0.17531247201908703,-0.2062652672646592,0.4187114912916405,-0.12420448839205553,-0.2935579165019205,0.1358275388466498,-0.10616752568954228,0.23169510009989827,-0.044410392145220225,0.22338248189693719,0.02233776940278514,0.061245723340627944,0.21513711452169185,-0.007166994793956374,0.05564449453469718,-0.056361885649045255,0.24791930097548082,-0.1310840765981342],[-0.7891862037974232,0.05585200457154727,0.07330982606688065,0.15001756596566723,-0.00858689872191609,0.29303935126510167,-0.06093762406039677,-0.15922133138026626,-0.053760607648007344,0.002363770866634906,0.3671620489773991,0.06037515772369152,-0.016753342460871585,0.20074272751253197,-0.4478388386383587,0.028596069849332877,-0.3739562163724982,-0.16764694906506278,0.11465556316789502,-0.2652661305543116,-0.3328218007832228,-0.10712187834329633,-0.06201872913460259,0.12040267602939424,-0.013464823935295911,0.10341013570353032,-0.33837993764712926,-0.2822639587407483,0.13864594652395287,-0.2133638177520982,0.050366500072868026,-0.3213953750132443],[-0.18789705693722009,-0.24240807722509666,0.03344214765158941,0.20703947193162606,-0.06550188926624312,0.0644563720677447,-0.0661990271840273,-0.3586378804149635,0.1582556803525795,-0.5383699614589744,-0.011556886945470317,-0.09131451316653405,-0.30035983284772494,0.12405451535636801,-0.18082488152374107,0.08276347036849452,0.3922477238703211,-0.2165240646372628,-0.17078381622428102,0.366249682299273,0.05003962942977044,0.22733025563716158,0.24007570112337023,-0.07520718812845247,-0.7995855084031231,0.258408033169762,0.3699910708060917,-0.3026242698120393,-0.4526590714833932,-0.3921143315953089,-0.09848205545416423,0.046996342075479765],[-0.5873643660071661,0.2657748425794041,-0.2695632341727791,0.12925356892863732,-0.2749510746267615,-0.47910975096643804,0.5433031880363338,0.23176872568155288,0.28523808336166157,0.05635521340228846,-0.19061870705671985,-0.3262581245867527,-0.08715843629182833,-0.2899819266112377,0.2297203938336392,0.02621454818780735,-0.21585211610112587,-0.08801586479493101,0.01715616883516073,0.6203618398991505,-0.1181403639613449,0.19377107155761916,-0.3341081026293152,0.023894785434001035,0.36193319404192625,-0.17064174155048245,0.09170124623828042,-0.269147018261861,0.07951872411804925,0.14902475337190435,0.11296716444123035,-0.42444064834116135],[-0.1236846109877419,-0.15374497584465402,0.2983903117566698,-0.19260477073136567,0.1561510102884213,0.06034517929760835,0.46444245948107177,0.29111025746473673,0.4516781821437738,-0.08702663117628248,-0.26685798988037907,-0.010682694083542514,-0.47068348596161613,-0.06519062991754739,-0.25135804723137556,-0.25653680595178935,0.30383360715009555,0.25190212024688063,0.2071311549707087,0.1766698187191838,0.04064735999216982,-0.24167053395292126,-0.26964788835234305,-0.11379409977590774,0.019216741992505816,0.4806500848613947,-0.11483754381903592,0.08306172683091316,0.09197632144554356,-0.2733492215480565,0.45623024302729814,0.396084003776593],[0.09321163441900877,-0.021193102833865225,-0.09641398992009083,0.3234487189366218,0.2778579613469689,-0.1181146942756806,-0.3377720623100699,-0.31296301567824797,-0.06829463079499438,0.05249108013479323,-0.6235238051771151,0.04013659588592802,0.3350091236292793,0.4651571735802192,0.49813118363423986,0.10347355519772375,0.27741239743322926,0.029830102525429558,-0.3282264019865759,0.20356258002623662,-0.16148208573042935,-0.23747296508058025,0.19376454040261112,0.16910109978019477,-0.44677307798959814,0.03293416638594044,0.14723992831759314,0.0697458069749601,-0.15472630184455327,0.21925201563353724,-0.1673803662013575,-0.003809141463510936],[0.23358848055036066,0.2977525843952326,-0.3092185441651727,0.6717784820386978,-0.023726800480892082,-0.594002493121723,-0.12716791647013884,0.07082319706740536,-0.027640661650448692,-0.13095280680411323,0.50544545401829,0.046127578921326975,-0.6463459612188933,-0.05816563517162007,0.20655782497791197,-0.17347022361946152,-0.09914019509369976,0.12978991558434988,-0.2869160482286587,0.23705482256116317,-0.31228188540223634,0.1993963904466602,-0.03476673409682508,0.18635796501885124,-0.2602070740929018,0.23373360309681118,-0.12375037905010522,-0.14011010558360337,0.06557924073881569,0.33238301417466903,-0.2536234899117289,0.3643597879635507],[0.05048278471427691,0.12830666734822593,0.46913178675586953,-0.1369289021645899,-0.048738293292252655,0.05643399067859913,0.47061084552721394,-0.042513921096586645,0.02562573146479278,0.7143589360481618,-0.061182302413639846,0.16855004425222098,0.02890645912993162,0.3803862557024059,0.24219676088512263,-0.15558712241069264,0.3021664850584075,-0.44413931518724525,-0.1566563721335808,-0.11280653790316839,-0.34744808578355146,0.12752333860401052,0.18888261006355545,-0.18412912872650627,-0.3166255686185176,0.01369552943087524,0.15319367305840342,-0.19540099155138121,0.03300287702918152,0.08657378281945705,0.011147929168478019,0.04346968510700004],[0.08969567587310004,0.47789399806295263,-0.08285221751284233,0.1734971302180289,-0.0929673351358941,0.11869527560885339,-0.00522608504502308,-0.030310251529382378,-0.21905681528759124,0.3486280267318918,-0.035083483393333066,0.2239765445223329,-0.12575183339344015,0.40855701220537405,-0.22695390701439777,-0.09153860306509566,-0.13189706752972047,0.2280614138086134,0.13544690639776427,-0.021096843071380503,0.18961227653941834,-0.2835423256817292,-0.12822284369324127,-0.23171588699348983,0.2629316416657453,-0.3350791350088544,-0.08701065248028889,0.039219717865072314,0.15095826508367927,0.32733586851827373,0.10966986284237562,-0.317536436817827],[-0.6704394515902257,0.18787083950333297,-0.0089039214918119,-0.10946701259326977,-0.08976156973943861,0.09658400412639555,-0.22124126892669413,0.19942108701359781,0.06000249025331838,0.029062795554844804,-0.11650365112918801,-0.45955095971691745,0.09707730065656789,-0.13115516495464288,-0.061106519139758876,0.22760471743264574,-0.21893308060413405,-0.150382689173535,-0.25870137107675173,-0.07158476010180212,0.06549072085905897,-0.07577596449837436,0.1773767575413542,0.24376723690392746,0.6298330307831792,0.3506109151550043,0.16541302748297795,0.009582289743407545,0.05656220576979495,0.14307003852437244,0.0447510792477983,0.1449640025576142],[0.32750402903750503,-0.4296177473402981,-0.21416163172782857,-0.5881309079171153,-0.08235461956509739,-0.02785937671973605,0.11295324530258102,0.07633213847451975,-0.20086961164528078,-0.34357419955589863,0.19724352625390829,-0.24571640030237743,0.10952977935813164,0.41902439528717916,0.36530594223879864,0.0828190643638173,0.08625576858732768,-0.13265040062303726,0.17510238088690694,0.48075650034423706,-0.07272193525305487,0.3981035207879076,0.2013484136278863,0.2703348908211125,-0.03757754025221875,0.2578538555562534,-0.3117627959219686,0.09571866987676461,0.25423591207357765,-0.0782057293719101,-0.2012299668606458,0.21027710121402418],[-0.23678798829261355,-0.26356069970032203,0.266942981787701,0.07590144155363994,-0.12176150869518386,-0.03919971789572013,0.00915155165023443,-0.08422830911902175,0.18382270270159298,0.23813866176437654,0.14081771614501148,0.15954818761092088,0.10463405646830767,-0.20345811658718393,-0.15809673497664034,0.152930597440086,0.6228200722084701,-0.1842092699972966,-0.08419310588496985,0.338157395701346,0.2330217757140541,-0.04302566633300646,0.5496386404113405,-0.12577232811269543,-0.09630434022750879,-0.05495716463377411,-0.17213582980369138,0.37072914957238506,-0.13539439518624058,0.027312946306340145,0.16094061512113986,0.599319235785546],[0.13071840560339693,0.17605433738662843,-0.46860885010443076,-0.16779400463283745,-0.07628976338982231,-0.10089058658411358,0.11192430768029131,0.30783315110268183,-0.14163521112639094,-0.5410642532600964,0.16202638621976398,-0.29078360126362024,0.09080031617508073,-0.20449179781860785,-0.4354490716374803,0.22607505108477605,-0.016083120388424275,0.16545815747994227,-0.5526856100631374,-0.01903339128179439,0.03780495752082625,-0.13343742070184222,0.1267114031899839,-0.16722297188238774,0.12970552024467372,0.2714925980043972,0.018251382178986194,-0.14500720597729536,-0.2444243886640208,0.07674717022206518,0.7030393993179398,0.012658338848219172],[-0.11424726650474883,0.5017025319744466,0.22529846116078403,0.24063936342636794,0.038747220421319895,-0.11014032470522421,0.28917753467832197,-0.1279661397398353,-0.01964114081003682,0.28027010779891576,0.15119914408426982,0.30068703897845234,-0.1965879926457846,-0.4949139932730032,0.02641290283841369,-0.1630861078055747,-0.11267611839183361,-0.020233037610043664,-0.038012318850563505,-0.2508232893000522,0.08163469352202171,0.0748738056158158,0.31411838685594384,0.4195589368408729,-0.14285006304975936,0.019056475133458203,0.007182477514701542,0.032704092292075736,0.1441548652994357,0.4357904092226452,0.1572472666454241,0.022360755821775376],[-0.08247625021061035,-0.04561256166931618,-0.27510629487876875,0.17813461218320217,-0.19574849714841785,-0.12971314779593454,-0.24958244112922992,0.4470265584979055,-0.20176792683581488,0.09994170951758975,0.04317453511814782,0.3581815835083932,-0.030080939681973864,-0.02174085569309721,0.2856946474179026,-0.2069669445871714,-0.4794462062757469,-0.12522240720346822,0.13796097076603445,-0.010070073677713056,0.08852684538267273,-0.33989053422842963,-0.5290185873095207,0.25450609601478896,-0.08007305707142423,0.05066734080088881,-0.6090128336281003,-0.23867611716232576,-0.4401341306452291,-0.2732803030109456,0.1104040290290019,0.6420893770224719],[0.17838541394684157,-0.08576501885248258,-0.0051535467102464426,-0.35450037477868374,0.2584605815349251,0.01357270952316971,-0.14014651907688397,-0.3114029742985761,0.07095536481689026,0.032233475642776274,-0.08229296750993823,-0.16451972748072594,-0.1633339261028492,0.025125113237315,-0.42885058650681396,0.21834991351954866,-0.09101735504681176,-0.026459655940603063,-0.42376932246561283,0.6388403328098414,-0.3803810157682706,0.19852621124404451,-0.1581876528821135,0.02732442970310349,-0.01663392406970633,0.224201534390799,-0.21952052582301546,-0.027626305016255702,0.40863868297428174,0.4602273867365081,0.07349186806388325,0.058128741817186885],[-0.4262072017883134,-0.051656514723643146,-0.11049508383207689,-0.14272472347536974,0.08216137317905099,-0.2564744939645662,0.34577773374346,-0.027818452746782987,0.3360156190376467,-0.29643985725899696,0.34226152098667395,-0.2954313910139147,0.5730263311115116,-0.2608168598158651,-0.32135360614483843,0.15699548478608066,0.10684977679587288,-0.36743784413802305,-0.264212996633656,-0.131100098458913,0.18928433610226356,0.3362353665543769,0.44210878185317176,0.06947546290146923,-0.3016807186942345,-0.04512071135075432,-0.059440507977278366,0.1334243991851911,0.15673839131865946,0.2830496951679453,0.1451155718962444,0.0950323202369952],[0.03840592522583191,0.05929483636974039,0.09619382251446042,0.23862898348137848,-0.1680203918360726,-0.2831530011340899,-0.043324176687351834,0.07815486528995702,0.36497688440810555,0.38841392377429573,0.202216247069959,0.5519677230536358,0.13654757400844184,0.22204545603274428,-0.07983774960701168,0.17972226300315491,-0.006189673844190465,0.31590439144413945,-0.26488980406723467,0.20024199855307087,0.16141243768989053,-0.18760261083627916,-0.33450391554308534,-0.0685839863170472,-0.013822952287001127,-0.0734590432336952,-0.06991661313186653,0.01941334916031082,-0.013448456862525665,-0.19454862582254315,-0.09066025282321885,-0.10707800811602193],[-0.07526774301126021,0.033166472723580455,-0.061733613056766584,0.24183919384295577,0.5867822437543126,0.0921720770691325,0.08078413810603592,0.09224380316177477,0.14974089539984328,0.027565416734581225,0.27950196491854196,0.03138355234099589,-0.2064438603757234,0.5094037383133638,-0.17930049090956438,-0.09208889444320575,0.6224826304414538,-0.1011027617600314,0.07532237212864204,0.15687863621545536,-0.008218450380922887,0.27937900120867554,-0.07836820934362546,0.09557991314231078,0.1541804303474775,-0.13095456098110567,0.22976146530574737,-0.22348051703006597,0.07295249661833765,-0.0702898621384657,0.0747971457645896,-0.10039015256598104],[-0.16865257732511688,0.03346467121769342,0.10110582841768471,0.275996268790887,-0.41450336961581824,-0.08570849481127504,-0.3753902398677604,-0.2805529992571251,-0.43984174475669613,0.1768911907347308,0.03767210911120711,0.29873051910253234,-0.4486309062351952,0.4336698516990304,-0.17929573758138473,-0.023964082455570784,0.33558514508222936,0.253388296426021,-0.06231269872467536,0.22017889831522952,0.006079925692988565,0.3378839504550198,-0.13888463599454462,0.15230775519422987,0.1698018003190833,-0.03901419973063521,0.07487861042320736,0.1652642309501479,0.10131922928254494,0.15084449156979382,-0.030770004286334945,-0.44638356652606126],[0.12613924483284525,-0.1503334126041191,0.09833721062609314,-0.037627640827906705,-0.1856807418528157,0.08616515999574519,-0.10359524788938093,-0.20722136228865676,0.1471280193336708,0.24541264343714206,-0.11082507066360867,-0.425978513039676,-0.38805133672493186,-0.30454725699936996,-0.17548692730289023,0.056302637075242,-0.08492421664017831,0.3477790534146233,-0.03388934125908855,-0.2140174906867168,-0.37621982785719643,0.10455311602559447,-0.10455523329226309,-0.01134170631958826,-0.3704000594273957,0.2731481873870408,-0.18928673906348106,0.3488788183248326,0.24091358104623128,0.1018800011956721,0.13208958512425834,0.15559997121278013],[-0.2646795740441825,-0.14637291725663015,-0.35555011825348476,-0.08840141236546677,-0.058801371361267556,0.33652726892417834,0.3348977746682723,0.01194711964701748,0.09706583777273908,0.11013936585678735,-0.3351956002628306,-0.2532591122786521,-0.14803131546625722,-0.2079509191680229,-0.007661021001255361,-0.40243925663923535,-0.5883174235658721,-0.186096063689048,-0.22759141400589022,0.064392837380059,-0.13437221453380677,-0.3439431547682021,-0.05729074985550812,0.1271701625000284,0.19489770650471383,-0.07372789188964421,-0.029284775935566085,0.0997578202754846,-0.05624623829397696,-0.06290625243285827,-0.13836732704943974,0.08083632801322072],[-0.14181769524649515,0.17773809215795774,0.04048816307158086,0.08549032983716082,0.1864836146570224,0.15201003445604858,-0.3755558983655943,-0.6114743469100675,-0.021925270238994227,0.35040063943653965,0.4343328587550526,0.26329927182615814,0.018027489887361862,-0.1416426066505043,0.19856195599277082,0.1047465794184642,0.024360794851025186,0.2021442277232677,0.08715066221246431,0.1427125099814579,0.31218640362083433,0.13879277263918194,0.09304375274010127,0.08265142883458672,-0.22390876635544332,0.23585930458628612,0.021365793087795033,-0.07483602390347842,0.2914743169248933,-0.12436567168883439,0.07972059759516557,0.21999908839653132],[0.4613657742841313,0.20556503382946614,-0.13383374564479675,0.3929223216182012,-0.02676643828895159,-0.1268391450982808,0.229940629447194,0.11023909028482484,0.06331115991965705,0.11573821285149505,-0.43547084341521025,0.17777558039094082,0.09056233952272469,-0.28137731694677015,0.13231182788969625,0.042399303221438506,-0.323345256512571,0.29444073236016993,-0.23356518897256356,0.16365874875805844,0.1908043220808757,-0.09709593178681393,-0.03862980443895408,0.007726564175386354,-0.5346748528485105,-0.199586081676146,0.12886726700188833,0.07497324439842191,0.12185430493940781,0.05397632543247651,0.02641624566071911,0.018168470822882542],[-0.10267592876910674,0.063351863725819,-0.33995466169738675,0.13925718749026278,0.04838446060239311,0.12860599380168436,-0.3050074357097228,-0.25671736414980706,-0.26174620705282875,-0.13876146256881847,-0.10909369589878035,-0.039157776537122144,0.11342963044267325,-0.1686683693684576,-0.294851474728857,-0.11875397653047884,-0.17147357754236095,-0.0799387830852465,-0.11767489210220154,0.4558282068289522,-0.12010481637112504,0.25703975044640226,0.13796077217268332,0.28189755206031014,-0.2961757097264492,-0.0560569561055177,-0.28329082879820955,-0.30689007694226567,0.2640986403788257,-0.13559852678652196,0.31561548343159107,-0.14215257278531282],[0.06890839824587829,-0.0790701855910597,-0.4678826916260107,-0.07500471372269217,-0.3844593088872128,0.027542279388258508,-0.5207021531074869,-0.19673669009715153,0.014613149453833414,-0.04647320911698506,-0.14112514308153995,-0.16789736604529545,0.22343035052012572,0.2760237929946168,0.04902630353909212,0.0961052752764401,0.27903669814855436,0.28677539439442806,-0.24330868707668804,-0.5005031381264168,-0.10167587525128788,0.0014879567807535494,0.15772217433508243,0.03501794976690907,0.1181615482186719,0.0621221110389509,-0.06525721519059656,0.014297922455420015,0.11020901572772837,0.04834096696150229,0.13176980110318964,-0.2703719007388117],[-0.11564941863632529,-0.04371068352262201,-0.007476068212126331,0.28772905083336436,0.2955870245199039,-0.2926836705572591,-0.5716434197979212,0.056213084699634513,0.3672994865611838,-0.06269536461704311,-0.1457500587696748,0.07750613364597109,0.0030410566190885815,0.1006078875417226,-0.039476159684927264,0.08556851878657487,-0.22260985705616398,0.27734418248804826,0.23950550758095726,0.14170057996871155,0.4145776575194003,-0.15637169151300412,-0.2977523768697158,-0.09321900371467756,-0.01956149794091114,-0.04257061095810085,0.7570413638057202,0.18143635766107713,0.2499095629514575,0.14782242962894804,-0.1946284370282801,0.22187349617358465],[-0.23612731419190777,-0.10781451107066105,-0.18189509042592109,-0.23856380542308533,0.35424733919206813,0.4351669195086299,0.12705004605771603,0.03787921975053992,0.320843440771161,0.26427691064132014,-0.13222196775711098,-0.31714051003803073,0.3052588570913639,-0.44612145683755144,-0.40945549538507753,-0.4350136348522648,-0.1605718986347714,-0.004187012870377673,-0.09822247474575621,0.11042398877343028,0.2594699474652937,-0.000706484466356168,-0.07549486474052768,0.30962318434629116,0.04368969531950753,-0.10257461375054515,0.36052497886825496,-0.012023583528869881,0.017888641249251182,-0.2287631161036518,-0.43466966197750545,0.4344434105878289],[-0.036716175519439564,0.16369563482360105,-0.2068038745686946,-0.018935187608151556,0.11125101676850184,0.20841838214755679,-0.3435035528085807,0.28415471389824465,0.21251605201899657,0.17715712392815677,-0.13937554059222168,-0.23526791286262883,-0.18216103011089899,-0.334671898773891,0.09106464403974684,0.20877047185035602,-0.06206477161003487,-0.08415205125054614,-0.02872130779445815,0.443691537107625,-0.1513973578486783,-0.19254549136296406,0.030721671861427456,0.1250378540660557,-0.14628108349418315,0.062111018326685606,-0.3015801943727203,0.2015028241627538,0.02075112773725213,-0.07293465737203048,-0.26954981736690947,-0.2857168208792276],[0.0862114156434965,0.20400331128489377,0.19348427866698592,0.07395925211452685,-0.41791848297410633,-0.2277667626629682,0.2754515095351926,0.7053632686469389,-0.19555449548358236,0.3783649680197375,-0.13574147109538603,0.003626358634470637,-0.20470318050500436,-0.20790421442234105,-0.5678854774002342,-0.06125301925927535,-0.23684846518804184,0.20894017237311802,0.0033652386414241816,-0.24082388510007696,0.7910325505759211,0.7108388732900414,0.1700823628772388,0.15661729365064322,0.15859658273720936,0.05656291455386078,0.13797348399062442,0.016993245256773887,-0.45035048488470025,0.06719017782208113,-0.09285409726194736,-0.2990793746582075],[-0.4342803703685968,0.5265277759513458,0.24657341393155877,0.013596340887332558,-0.4778413100615472,-0.3096910360253151,-0.062259100629258914,-0.4071782045907085,-0.29175553337008786,-0.3073979982275897,0.27499218430584393,0.03426291402431366,0.3610149955562551,-0.05089525230228635,-0.033361417796316156,-0.03461766492871596,0.5018616063159935,0.012846161360831386,0.3893969676178747,-0.1346936544842531,-0.3496113438110157,0.2224317671713958,-0.527704053787761,0.11744060007241885,0.174560639640302,-0.25604026538153796,0.30693768773837393,0.052837360787196544,-0.07088885772312174,0.016281894668514842,0.06929286279798329,0.16818166226043432],[0.012886632902355106,0.19005517459051513,0.2474670538332987,0.05971986188017234,-0.0016609010577868914,0.19435027723041762,0.12945536324420207,0.4239136332346871,-0.0251916254601828,-0.18462327935867115,-0.05169573025155189,-0.038836931756766446,0.23413049084653514,-0.1209033963883866,0.4789494219317706,0.28089865546431136,-0.06521305070023617,-0.2650712962795492,0.11707914852733511,0.4513453015224912,0.15090297870456404,0.5683486816239666,-0.2629608361378228,-0.23738486203791304,0.5387697324590439,-0.27974111075911917,0.10374670909216138,0.05164581844732962,-0.012221470570897598,0.1761216549888129,0.6004343693631833,0.02438639820188925],[0.07798936541198827,0.324131410990351,0.10228843470591817,0.12706639685972845,-0.3719500353647118,0.29124728801037914,0.14731728270230288,0.02638350707313287,-0.10961053295208265,-0.017050545052366493,0.5559421462804588,0.10776159176764497,-0.23785613242114753,-0.12964898108934583,0.17850803431667878,0.3210210767673164,-0.07828113733111336,-0.17064841419169852,0.10562280298136896,-0.08156726410113045,-0.27785471947223445,0.004032333087685928,0.6174555332426601,-0.1872638721673197,-0.29301258835015487,-0.13795055301753578,-0.718195419119965,0.11092724846321173,0.011915454460265693,0.1232188768060347,-0.08746745023104056,-0.22584848823378864],[0.22391806239474124,0.005964566441280618,0.11652052770063764,-0.6850172117626431,0.32330598361248064,0.34616521739595313,-0.24380100357226553,0.3312791456361554,0.37225146471197507,-0.04791560995005784,0.20082138497771626,-0.7121248979880718,0.1425136141484168,0.15072014542008133,-0.2488638609307415,0.16030702721660323,-0.06584063694150913,0.4193879653203604,-0.05333648738253606,0.09901246328175763,-0.49108387777997003,-0.021837208162125345,0.031000365564711783,0.3223085143952696,-0.3389046678391935,-0.05902017073757523,-0.0014375429091737042,-0.22952859214319513,0.3238357697932186,0.20745740223865558,0.5180006420399873,0.2954694298719142],[0.16841768786924097,-0.14991823424141018,0.4039415512428544,0.24928987225714047,-0.044652020556933666,-0.29946763073212673,0.3874481372588542,-0.04249347782148448,0.021274998958199953,0.08169454018903782,-0.22622855503208714,0.0031374608029744806,0.4458409313934118,-0.2647823510120072,0.10111674888204428,0.6872156533264159,0.14357335925415704,-0.05745630035949424,-0.005976920638708656,0.18616006659675083,-0.19993960555854884,-0.05467517050887048,-0.16561910511089098,0.31276634270072046,-0.3242307889334783,0.42953856216513003,0.011280458149343722,0.16834978936027453,0.04224079990301922,0.11715828081236054,-0.3641989059557562,0.10056527337493774],[0.5271043470608953,0.1039624280872962,0.30039565042575933,-0.17184217924163225,0.22891208636172763,-0.1518390732312572,0.12018503612567899,-0.2164575321525201,0.4061722491791954,-0.3058416769297246,-0.1657909715246566,-0.11961758339812503,-0.06529310971859484,0.06437080057005005,-0.308975642952374,0.11637423346907519,0.31022655188008436,0.2013082887632958,-0.44586263008442006,-0.41341924473500025,0.2284487785717776,0.3049276622952021,-0.12431304473779875,0.00048055639735051847,0.2047618645571496,0.07392842275408475,0.06344934520021484,0.10558371243595317,0.2047059948931409,0.06989783123458707,-0.1954162654051655,0.14527645106679477],[-0.0034413042505652453,-0.6682253219403533,-0.28131980188309014,-0.010251823060536357,-0.3063405677471302,0.18417297768609497,0.139768791667608,0.03768397251808377,-0.3072932022088788,-0.15993292194829303,-0.023331881124469614,0.05681870885090717,0.32871001192463933,0.13516957557847203,-0.49527301339087115,-0.24110952327954183,-0.045159735995960196,0.1843579725287954,0.44787907861778403,-0.012437978225443246,0.36115261532515014,0.30749828100498316,-0.20447230115766687,0.18398641665427495,0.011706757289454917,-0.38060034902513196,0.4113267169334511,0.43897049668569443,-0.12621551495584588,0.3674579682757843,0.20207555713421285,0.36475014113185694],[-0.33013122331064715,-0.09806645314530779,-0.2577016336726893,-0.12487124344417297,-0.15376009870416382,-0.04333486744493964,-0.12182231738612688,-0.32912505069226433,0.1996768893677072,0.3323909089716754,0.017543326714564968,0.22243703135669132,-0.01792090828948449,0.43794129318126834,-0.06981819705275469,0.09755700092013958,0.2695905750379573,0.11683733174692319,0.22153231067590004,-0.24175133179071373,0.14724393009859169,-0.18384735685415554,-0.017237604344078367,-0.1717239159346879,-0.10181261930166939,-0.22691151627934192,-0.5405085164850967,-0.20520211296414,-0.07783623323060448,-0.14783356611976073,-0.1633143035265318,-0.12036765880825318],[0.04277420247917705,0.04623168718605911,-0.17885085599950404,-0.06711323124705025,-0.2872145294406414,-0.06924295278565316,0.17206157072520634,0.29344628080867785,0.003744225280820458,-0.34440661055852595,-0.15473330538491695,0.14949733546074365,0.19570677505710637,0.1573857097806975,-0.22328498114601214,0.2211423254799444,0.08200909091608558,0.10616285658537669,0.2780842147417678,-0.555562059971026,-0.22730514813372743,0.09750179893580481,-0.29361681718429394,0.08842304420097485,-0.20431893566950513,0.003168644717631157,-0.08134322534277558,0.049541995185582804,0.1904146240315716,-0.2748683301908863,0.16228243529464054,-0.11139291559323866],[0.11920177293289438,-0.06190535519055426,0.044028143114027356,0.2789040158286743,-0.3077751978522272,-0.14743643833951778,-0.519848527114657,0.033053594604187185,0.3053809825098225,-0.13675558637939111,-0.30602124870650355,0.5187026217834076,0.13211736318271,-0.08058501990408268,0.5385705516336968,0.157516687639529,-0.004932527285189564,0.22448391349254282,-0.2200938043224737,0.13681802373609925,0.4119043558888053,-0.08426104209117022,0.22846416704843436,-0.12509527099850307,-0.13590113329985348,0.08333592088007445,0.03476756942812784,-0.14386095752820585,0.27350931472601164,-0.0157263596183393,-0.048785697616220314,-0.08918327735062424],[-0.03467620099430495,-0.28202194237657763,-0.19381534789666857,-0.13158587480085923,-0.11958306580471795,0.2056539911452037,0.24590548545907387,-0.07756132376114831,0.16895872734007827,-0.3007424168700889,0.35558465474271744,0.09938536990599547,0.1963667390515037,0.13133688817283534,0.02997270410014602,-0.09586084380936048,-0.00662969962996208,-0.5757516714494482,0.18212778226197723,-0.30534212895657437,0.11427634888628183,-0.12388320416747284,-0.3243500359125183,-0.20133239552379104,0.34499095761470017,-0.2529130806595964,0.26949666599650945,-0.13674695433969858,0.4894039420016547,-0.16348349323730502,0.16419208264836926,0.11007584365564178],[0.22470622559295403,-0.11956753865031886,-0.05260598165493655,0.008295063863673438,-0.13290839736336882,0.20857531017352338,0.019512947431965345,-0.2572204583158962,0.3077029705373426,-0.2468405983681145,0.5010742483620662,-0.13804914720981643,-0.06421064840351812,-0.07691684897803232,-0.02327165845380499,0.24169401675145388,-0.13611029430568664,0.058587816474415105,-0.08659619105580339,-0.16106892897327502,0.27472401930191115,0.18772615154408248,-0.0039241476945614745,-0.22694556069581362,-0.19598025098409985,0.19464065981873738,-0.34622856445406675,0.14197235525702814,0.07161742612045263,-0.020091867450391362,-0.3486117086704474,0.20342028677342247],[-0.18386291783493747,0.04600426867496497,-0.40916839438809266,0.14853455914468358,-0.08304979282984001,-0.4026921055017498,-0.023220552811802367,0.11880662755394114,0.0705929872128383,0.4365878197469206,-0.20517085882901023,-0.22132179502005248,-0.38208664818886934,0.4940721465696501,0.17240022778454187,-0.05146111392203326,-0.2039953173795267,-0.2319067525652291,-0.4779716039038852,0.2708362627638269,0.08582577178749586,0.2249573252498588,-0.04731792467607876,-0.009282605447625726,0.22622648051888017,0.3489222962518704,0.10793924622080768,-0.5088354744332291,0.2873245636300976,0.23151004764683303,0.3484952525081545,-0.06326512989605301],[0.273217953977903,0.0725066356721456,-0.2495330484762177,0.026344673891508272,-0.22809551218457136,0.6211167224294982,0.14724244268661105,-0.1592735716200757,-0.2290944042090588,0.4975947864974512,-0.28046986091296333,0.14430620224628077,0.026180198978505046,0.34514386338125497,0.2758002680628535,0.16007285332204205,-0.1549866352746739,0.22519464904760386,0.5673176618763173,-0.003753394455343689,-0.1609543377944586,-0.3148246171611442,0.47998340341943235,-0.24454773331655788,0.1754444491972376,0.4406354937235072,0.2034399620324026,-0.09209439910190877,0.18978074790378274,-0.010619906969432826,0.4037732680318908,0.3296588229282178],[0.03376402603119179,0.5518925496919018,-0.13035683260480663,0.13319282568376983,0.43710330177288476,0.013418754017394976,-0.5654949805521766,-0.21784495541467727,0.1162313896921272,-0.3131152571015966,-0.2813743267710967,0.049025646061885114,-0.16510782869916082,-0.6926344401697059,0.35075745511216877,0.06562622248467333,0.32044548426452074,0.26228621744887887,0.06072124226570757,0.3672376674787247,-0.35797369725303224,-0.1850310257366106,-0.05302935056463147,0.07503873501388775,0.05684517877656379,-0.23674973774522265,-0.10689747299784962,0.04861464836107113,-0.39046100172396886,0.3233765158264347,-0.17275523447212754,-0.25816761623658924],[0.1264949254528558,-0.04522936239570197,0.2776926227299495,-0.02488702240605243,0.22213850143909986,-0.0991735065488017,-0.2873792249158739,0.16588736849045863,0.17527237017433916,0.4449271900942635,0.019571449909367124,0.30783943753274734,0.15024741009796266,-0.1799255160966186,-0.2849043108884901,-0.06428348200285045,0.3042676372185132,0.013142042041900136,-0.08059745416814122,-0.10845337320697757,0.09843898145620805,-0.3891341600264684,0.16871065194141546,0.029957297371396737,0.05418854990828256,-0.16480301123940985,0.005183587836692257,-0.07053373268748847,0.06585470412174743,0.35258699402416066,-0.04781607124370906,0.320032279995654],[0.3318224794134617,-0.37175991683475523,-0.24915787573590223,0.048273256586263066,-0.07695066106641511,0.37751033258762123,-0.10517276916182408,-0.5956785051333338,-0.06711297433079039,-0.12237815095786272,-0.10913676081800057,0.05968366412407181,0.3576874079634238,-0.24425884140434276,-0.11478798186514858,0.22613299326338845,0.10679714772428384,-0.2938444211263431,-0.15037417292785984,-0.06106007723371114,0.5318976583752485,0.0556613069430657,0.04958011549720164,0.04954670309780498,0.059657356208215113,-0.10816647538770946,-0.13186882341187536,0.013707177395516652,0.41204832058468127,-0.06220601145771314,0.19538169216403753,0.02052816742313788],[0.016627472922626785,0.32755337124478523,0.14788769366588564,-0.4161237660821818,-0.2843731753876807,-0.2639945499710882,0.24496221930273843,0.34540920510090545,0.10472592445291051,0.37183763654602064,-0.24698577970413632,0.18333738381377718,0.12940513547114593,0.4074812560951074,0.45254424439424773,0.15115661301867994,-0.26075116294605016,0.19336617523023752,-0.10920333713961515,0.40306117390518065,-0.15197639579904962,0.11392283509055823,-0.0003449270084702951,-0.1884171909328461,-0.283356500895655,0.005173081817918973,0.050578430225808206,-0.4292618095383244,0.09373982058379676,0.1210595737437458,0.36737354447453335,-0.4504041827937415],[0.06344151177297606,-0.041283812124923526,-0.1398251098091889,0.5167271142080003,0.009093219018146586,-0.12689168450284652,-0.36767917068930234,0.11145680232416873,0.0834892544439448,0.33049293786798867,0.039398969382406716,-0.5241955782611464,0.33206880524959187,0.1541712970889275,-0.22813467196514284,-0.17844409616202872,-0.2871637489634327,-0.08910354027060444,0.03482560381003393,-0.2766852119704207,-0.1940357650662524,0.2086124134335895,-0.1271079841960908,0.10114756114245979,-0.5026987938154799,0.19600959244121002,-0.42297290281141087,0.10238114332591272,0.2611409849278407,0.12493994476311783,-0.437936261054172,-0.3083812498871907],[-0.5077311191423575,0.4555379000085449,-0.20668773724789896,0.3695177281550522,-0.14277110003920826,0.7027678269040747,-0.24765549442908966,-0.044012891054950105,0.20416048630693961,-0.19661409630510862,-0.30684792578991843,0.11752232123798174,-0.2673396111863396,-0.02924777127136789,-0.14780707783531194,0.1334743792876081,-0.3229377764411911,0.5573978132910882,-0.09637488881746588,0.13417910617078602,-0.09803299292604892,-0.1506334799016269,-0.0031718678278244657,0.25280142667835076,0.25945400609855734,-0.10153478705454101,-0.05542685642690452,-0.08604552079905209,-0.26426561332748677,0.06313429494103212,0.2728603260898383,0.0558897098420699],[-0.4192157021852867,-0.03606884968660883,-0.185661354764692,-0.01573728551928577,0.15323445967143756,-0.32606278822527013,-0.04183028401823658,-0.1397228621305452,0.28713858928290525,0.21429784899280485,-0.0265687617416293,-0.09080197881149002,0.17258261111243178,0.12477342400201698,0.3555952765807552,0.2032658280264932,0.022847012157130992,0.20678394255214716,0.35800805056114715,-0.4917113946716259,0.09512276181727569,-0.3366597499800701,0.15667498082984901,-0.2023539747363561,-0.14632000081300328,-0.0368802608566877,0.13574544073498154,0.2977163546430088,0.056360788042795554,-0.41340768661179345,0.09875622399049744,-0.13078826908505498],[-0.07274971258696168,0.3954817525908075,0.14773727353310515,-0.19563384578740878,0.19875075489288418,0.2243886355698129,0.15822599693241612,0.005097411947722882,0.18031368803347525,0.19169033144880798,-0.2595648211717501,-0.32864770033185076,-0.2318395618917767,-0.3563905620334233,-0.03376606802877338,-0.10608784908542004,0.04581290657091284,-0.10137847130794324,-0.2647841307483615,-0.14104309103805393,-0.4958949425582724,0.19316307898324897,-0.48071280213971007,-0.2507670640001389,-0.08651905386735272,0.056970459310951606,-0.1484950335389545,-0.12334019599244551,0.3030906433645756,-0.5498087534105237,0.33177048442836365,0.2560272113256615],[-0.2705671377702509,-0.30920451312503083,-0.0035958026412543334,-0.019308704320764224,0.4143100477591779,0.5745527516373189,0.13445973821381949,-0.02505248832630393,0.37485752430348307,-0.14529636978332866,-0.37731651622542783,-0.06303691619095762,-0.024946088754731838,-0.22509649231960113,0.06972588450516765,0.18449849105201668,-0.020638274299807604,0.14240534776998925,-0.5459894382075582,-0.07911138040896415,-0.05362526660221378,0.6009866464529963,0.10853605571873615,-0.24189644439865735,0.13095627493188314,-0.09738090041986819,-0.10565505762961085,0.3235284681778376,0.075705077475578,-0.42475907304022276,0.19083911326919442,0.34246502654576527],[-0.09678473310544292,-0.06537547895000298,-0.13691226812490986,0.36411786914560995,0.17228926073327386,-0.19671430745516577,-0.3890932276479173,-0.1301171141327701,0.28791333321000845,0.17195210974957792,-0.03600484584136813,-0.3297840880395152,-0.37973628137148907,0.3133866003836043,0.3990764356907714,0.32617077814301293,-0.20119664040984878,-0.14208493896171723,-0.12346163639430609,-0.23985173858389075,0.0481977618399355,-0.06388475505729142,0.18745891452478194,0.23714200087575493,-0.11313328903698033,-0.06355468005351164,-0.026914706868327715,-0.2048524396090122,0.17112640039567797,0.09645454989281281,0.05208688177873724,0.10276525644839382],[-0.050968344838370594,0.15721255997214584,0.22773359815117092,-0.0834821815739648,0.262005070654276,-0.13369830004934655,-0.032313463185317054,0.48047715346809855,-0.18223544443086387,-0.099087084755581,0.045519475599322276,-0.0435410531450138,-0.33306520728140515,0.044481138323662434,0.21218058766493797,-0.01831755870564333,-0.17689713884408073,0.17265515267309384,-0.2181039683773296,-0.3414264059009052,-0.02724058543400099,-0.1010584087050933,0.026086993061357994,0.07928105878747896,-0.0949749479512403,-0.07169418004469602,-0.2738722585800199,-0.16824200428341998,0.02509016395420244,0.059840085064504944,0.12219932990382833,-0.14129986831828714],[0.015061149502205754,-0.23619384731547355,-0.1307807121481312,0.1181275550753559,0.10738930950129669,-0.29890824805224764,0.318233220624421,-0.23451443978728875,-0.033569430627209816,0.2484843218263779,0.18485395994057893,-0.2690438621223219,0.2618608109859041,0.168518318510152,0.013580720194128877,0.05541334821735901,-0.0896190547452628,-0.4000815839946865,0.41187511452924847,0.2744021110539548,0.31272775034237615,-0.05332370813530477,-0.0053342536666489025,-0.12605186760988343,0.12990224362985925,-0.1858662814502745,0.2414468053431577,0.10585698161708239,0.3148734877165869,0.1180096652996789,0.0009419989161813347,-0.24279435975082977],[0.44999457467745735,0.35474926819155156,0.4204130399579596,0.36952925437452994,0.10088269495054672,0.3808647711245079,-0.10221894434979487,0.24775247195782862,0.6074886104923581,-0.11607298175675271,0.06300679161332615,0.6671958685388043,-0.523787619074147,-0.4829935991432448,0.06516101568397416,0.13972335909039066,0.2582560322606216,0.026625030294035432,-0.6424458279106388,-0.2651335174359619,-0.0762919738582076,0.3919337191980279,0.35963265591052346,0.3029154834545897,-0.2566766526114913,0.20821333687909294,-0.2778256100080553,-0.3094739474641438,-0.11939314322087925,-0.5049855225954053,-0.431320027232467,-0.060436257637385644],[-0.29449859722296584,0.5903132132856788,-0.26727407066569103,0.14063394801885679,0.09776623062234296,-0.1554921834937261,0.27723501729983024,-0.1808166070660522,-0.41158337746958795,0.34658427326380675,-0.1958972117586,-0.3704838561936625,-0.10129683195293106,-0.3473604017191492,0.2467139230485614,-0.18096940702144887,-0.12607488722871063,-0.6196979770540165,-0.2693573193828923,-0.5472971377125302,-0.015272313759126051,-0.30990941665742555,0.3814433214200723,-0.04871450500049104,0.1266221291912035,-0.0848474835598345,0.08181724901051414,-0.12709132464252676,0.17819017783498264,-0.1868226150452471,-0.31323246346302297,0.29524094012908464],[-0.22681990184403855,0.1995040202976583,0.3477804070141533,-0.17822924330370002,-0.02334695235349825,-0.29471601706929274,-0.012035619979170428,0.20343439726161744,-0.1599305145972415,-0.3983775744196259,-0.09068851683397164,-0.02983974560278306,-0.0007247803030955399,0.17748653832374658,0.029344259156388924,-0.01211988987257445,-0.3068114982720419,-0.21244089669148444,-0.12185444343331053,0.34208040230451947,0.04935105536651628,-0.004431013306749325,-0.2106634083235947,0.047944277780794645,-0.03312780579602802,-0.09833339259395328,-0.007314888283735172,-0.06855888591012847,-0.3365091655109238,-0.012940524508287296,0.04754766243618725,0.24013572772163053],[-0.0047039727367448846,0.23088340102745125,0.3908088878611204,-0.35731077787313786,0.37337294313713204,0.1501780916511783,0.33413935772697106,-0.0325938601007594,-0.28324967611375546,-0.05581289307120855,-0.24371302610350917,-0.01843352847828676,0.051321343796669326,0.4033672449702919,0.1483512096954497,0.5546561717714619,0.10331512655863405,0.21335824448589527,0.1982129918847735,-0.07319266377765125,0.12987495855705083,0.12335420688312332,0.1833843028525612,-0.21363632635488414,0.559332058943455,0.016327922948056926,0.024377767964133254,0.20348327742494246,-0.2811497383469341,-0.2939249880316615,0.11332839321812246,-0.1678414007957419],[-0.03174050306466552,-0.4095156373563456,0.3813632344813297,-0.20031565731048637,-0.07979828145547788,-0.10895456040727249,-0.11813309925634173,-0.04272429987050105,0.4026118790379342,-0.0708267651597084,-0.21021882912580678,0.39445082688242283,0.1815980133707877,0.1322219877042085,-0.03721122045869905,0.24005015660211776,0.14400896320769177,-0.5090782923231999,0.08781902445102946,-0.013295931228616956,0.02483990539014578,-0.0434733497425145,-0.6260115947332986,-0.2447761416758553,-0.49022870977626,-0.606994755454217,-0.31031510691994785,-0.1146210444719396,-0.044840812410876944,-0.1116942582543963,0.48099853079175237,-0.24505739781280825],[-0.014661914879870912,-0.04790945991895277,-0.05204306419671142,0.2622416615562474,0.34185923066481405,0.4990781561444115,0.1335625607734562,-0.3080517557800577,-0.3551359379838771,-0.12162146382975332,-0.07252624833509884,-0.1143332359103933,0.13475138634586367,0.007061562050440626,-0.48728461180820754,-0.0861342534869404,-0.1354036244016862,0.005643366933322325,0.21184843135727904,0.03899996163042287,0.02181717937893665,0.13388100260277264,-0.13603795317044487,-0.1615770351937158,0.2996363622409461,0.13320570914530844,-0.17510600846741825,0.032152944750190954,-0.1496717738762916,-0.06673744435156742,0.044949828006933375,-0.3235884722829743],[0.1855464275799718,0.14770703807110117,0.40315108759608725,0.09496238086691962,0.07397961117147865,-0.1597372112742637,0.026120368133173127,-0.24111771033395443,0.49805398407550866,-0.01350815021518747,-0.46993248775976126,0.29690745260285983,0.06814674858793457,0.13245524967778233,-0.0012241467520956496,-0.13671936718705477,-0.28435749018669776,-0.1822983139975857,0.36602609038731554,0.028333574565922375,-0.3869575799703128,-0.051371690585176356,-0.27946274583666036,-0.41923775871574565,-0.06253779708189033,0.3868229619167605,0.1088000779637937,-0.5155581232677271,0.18486090118013487,-0.03310674211759125,0.09652970923810436,0.32900694299490224],[-0.07881076234987158,0.1930935241750751,-0.2397875208342504,-0.08278135249799835,0.24081577784596447,-0.15667223901269292,-0.510877578957697,-0.4488525979610555,-0.16596921628982148,0.029793535801473682,0.1971385995521565,0.05350746649840226,-0.185753122126533,0.2002925706211552,-0.23356332039519953,0.1433621098328954,-0.6358469971481091,-0.1093394043214215,0.22654269111208916,0.02958292643684335,0.015994008390856337,0.12001207937486535,-0.09739836247237334,-0.1936850701853151,0.4109848886079269,0.31323515177458033,-0.08853654400320858,0.252637964682821,0.2756767670229143,-0.1641188645220348,-0.20545628684085906,0.18645745235047953]],[[-0.12205540900126928,-0.09519758462181543,-0.04329515816756741,-0.018779398166456875,-0.14412678643546323,0.1712622974567261,0.07949382732908869,-0.53249351802983,-0.26665958624412006,0.1098819462561923,0.17115596074817144,-0.18132218498678998,0.21350035728743738,-0.2719884816774583,-0.05265875154196696,0.10655605323483296,-0.059903464616130275,-0.02196140609380263,0.01941309761696105,-0.48115897744137864,0.12016146228941972,-0.5875071781783915,0.40519171736774817,-0.03181253854016957,-0.0009763525335767293,0.09891011779989996,-0.4200440827771105,-0.039687126671967964,-0.32462101750355943,0.4498506968158547,-0.02054518779465468,0.279878186435584],[0.15429839819215987,-0.3061136018885485,-0.1348944219615254,0.23591170125377567,-0.10992114489665587,0.143494948391912,-0.33429839605171124,-0.029406390659119232,0.1894469715984365,-0.0860346743506734,-0.058667087804141364,-0.09708934847721883,0.40502984694942706,0.020064455296881962,0.2739614552887038,0.31223292933963226,-0.058595669136752696,-0.13730203098798907,-0.0844173201750855,0.16967600413188597,-0.20085482291537227,-0.17148823575579486,-0.09882532813271418,-0.17007570583733506,0.1632607441069186,-0.090896199859701,0.36017297561852907,-0.3677228904991799,-0.22468857879325424,-0.18291707949416203,-0.08807099554781116,-0.20022272983973216],[-0.18176288670474158,0.5462315563212194,-0.11013033992290942,-0.11021410459372014,0.34534146109866,0.13915431909080747,-0.09702241317942704,-0.4276493134778161,-0.13016642363657194,-0.25132366218592717,-0.12049859727927138,0.30522435054158764,0.4572255882549382,0.2769624365745957,0.27336333262007606,0.05892650557738226,-0.18974416417282422,0.4140071495324488,0.017595570412283934,0.045108084129336826,-0.30235453832719306,0.15787867959002697,0.14095811863134974,0.5431121394220125,-0.49967703143313874,0.1806966123477125,-0.27829471444804443,-0.18624225158302754,0.46323283337443916,-0.04115528328879758,0.3994992262772081,-0.125365447095628],[0.022384206382011707,0.19769235457919082,-0.13296155197821302,-0.18121579184317854,-0.345225532325443,0.05032113799856576,0.06996368096087703,-0.2917058005053403,-0.16623607339902102,0.05381637286778086,0.26202618748629264,0.15857143072988797,-0.0021278113174550317,0.5660024172169976,-0.16670478346251894,-0.1726775030875577,0.04340788999503978,0.3216846992278575,-0.1507200614342773,-0.4813767952876312,0.043753868856734136,-0.09325439299146392,0.2384490729327836,0.1236539197745123,-0.1337572769095117,-0.08752862195826065,-0.3904178069626278,0.610473303350894,0.16174088537527884,-0.5644040002905378,-0.011749267117068066,-0.21732212639668635],[0.010131765428566053,-0.23111500680707361,0.33544135144330695,-0.09041191953296487,-0.08345514271436312,-0.3541009534373582,-0.07941031379597989,0.5341985500952899,0.004727643455348868,0.004311093863415683,-0.3053922249432642,0.48871946370476044,-0.3109283398447605,-0.36115202862983714,0.49509578203940274,0.3340196291526015,-0.26731780719850196,-0.12896917908946995,0.16816945741375114,0.3176422459635133,-0.17168804047061606,-0.21044965004132152,0.04785846461217841,-0.22854715815026191,0.27707063726743986,0.09671201196487923,0.11557584526936707,0.06645415912446218,0.17920674410700652,-0.1120402294457126,-0.08092285632347711,0.04666239485646289],[-0.2034341373588234,-0.05854157868576618,0.09096498407516225,-0.0556356903941597,0.07655591323141056,0.03279574786534263,0.304333448995883,-0.12852997784912992,-0.15089248396643834,-0.0293527957663752,0.3480500730042102,0.2842289389493775,0.18571360965527922,0.008132500600170765,-0.15774960668180268,0.06613485553121887,0.003461436263937044,-0.4350922596038527,0.24771914027826594,-0.06291500059917078,0.3687867829693429,-0.1205097758377358,0.014001390468304434,-0.16493476436551044,0.0024216356469845424,0.07383780944656626,-0.010209958000439714,-0.5164192335367328,0.06116535049066435,-0.37894437294598127,0.078017378839061,0.1969112092891015],[-0.20145733048465078,0.08383386617420377,0.219263463010779,-0.0922954687560338,0.3460609697785924,-0.026969490501511015,0.007946705845082874,0.0900910928610134,0.0821159886152588,0.1531916363194517,0.1446317222487924,0.03449966972881753,0.07200532518620147,0.043188218554551495,-0.049039427154946184,-0.48301337542792827,-0.16183716213955793,0.45566357007559644,-0.007309548323116134,0.6417576592822571,0.2406829588685363,-0.13818196460209942,-0.24113806280243663,-0.0816825304401738,0.16732097852934286,-0.1293508263294715,-0.03046542263128563,0.2090978773814146,-0.018859065238167223,0.028238286593684468,0.3544556001657913,0.10316561486513726],[-0.06183842750623941,-0.12986589976127877,0.35809097267706486,-0.21738288685141746,-0.3923073579084925,0.16316402863703874,-0.5100330073755783,0.11739580402706211,-0.018465114699166583,0.007695395129597322,0.21133192820209007,0.5001914420366067,-0.008961369914756453,-0.17941121308604693,0.07254680851020817,0.06528232360867654,0.49212029697376536,-0.028265765179655077,-0.07101566476281904,-0.04245172423777786,0.1982607378042501,-0.1397659338596067,0.11816648667990814,0.11093988042092544,-0.10797009421654682,0.14779982391134122,0.05446231582140234,0.015855047328679837,0.06873241049040174,0.43910109510434847,0.03726156042190054,0.26953845584968505],[-0.2659955901081248,0.2371110985772138,0.002412850374357906,0.22443710050341054,-0.16946456444648114,0.14880288876417688,0.1837710838299512,0.07180500865508424,-0.0038024382479418957,-0.27300586326787013,-0.1293557035914116,-0.09327946355957083,-0.025830340016399764,0.2899211708171103,0.025435801480415923,0.3321844507291442,0.4837172705634798,0.3954584745400223,-0.14957325539195748,0.056464717724858726,0.07770235454073383,0.3374178231936179,0.11903924345990309,-0.3637709148002763,0.14114361287973592,-0.00800181231835655,0.17664534208934185,0.12681902821092506,0.03751682414721129,-0.1725924199299458,0.07630596384816406,-0.2520487111551519],[0.5421429579715841,-0.3988848846147449,-0.17511473107065081,-0.22389240893176018,0.2953184416066751,-0.2735321875100724,-0.009929573014885276,0.04163439280754559,-0.2006223065062946,-0.1790264443613451,-0.34967538113356783,-0.1577920562435417,0.03703136909119273,-0.010276554327151957,0.18455728985332756,-0.48224002323809956,-0.1271907842458167,-0.3026474039241045,-0.2756918003619092,0.0483495317636838,0.08729100859037303,0.30839421940877904,0.32925545269600537,0.04656158459796011,0.12311854020256106,0.10322910762146867,-0.06565396750438939,0.2866848613393136,-0.27097807555820974,-0.10482902865506913,0.0359247993820047,-0.10546910721746966],[-0.010812355663596472,0.06997037377639749,-0.21334763101308482,-0.030192273282422234,-0.01868775520587752,0.08466495552997058,0.10802913668411165,0.017028479587868135,0.46754405715738373,0.06258047945200691,-0.26682709012511546,0.1633890573235956,0.269501952629968,0.5868121957607614,0.3174360108815915,-0.17284297331583368,0.001214838144352309,-0.616406428907499,-0.2523833762258944,-0.13519208467741686,0.20024131771956732,0.22305924035888705,0.059358112332886695,-0.25126801138214505,-0.008094974841218204,-0.13743642695984512,-0.4171625107706692,-0.05667651732839264,0.3189324063200234,0.3838311293048464,0.09300284397679306,-0.246574786638891],[0.11823314205554915,0.021623940263339882,0.4968482950923604,0.22609276002401912,-0.0848338654155559,0.13041346030082898,0.2365626145435093,-0.14902698580349402,0.020529283044474395,-0.07210330404044128,-0.430684338102036,-0.10133407752718361,-0.12473652940832651,0.38362864260202884,0.0018904562430573308,-0.18029699774432711,0.3219430730791255,0.40756569972297274,-0.11654602799165183,0.02429307159403645,0.17926480629374777,-0.7297223428828301,-0.07937926477557866,0.08589405178772211,0.01745199722739362,-0.08206577779002366,-0.2824482151052884,0.22803832712544206,-0.3879718453431889,0.05785653528884453,-0.06250325006186377,-0.026289688102160293],[0.20141038993564375,-0.007349762887418498,0.16325868561964912,-0.29483628874619666,0.0395067147327761,0.2940603586569664,-0.332413558702393,0.13108636429741952,0.0898589326033578,-0.1224134368728748,0.09548483342989358,-0.4243074511111754,-0.008518074477516851,0.026430399353967602,0.4580807409476085,-0.04966038794462484,-0.013991841295670005,-0.10093617690208345,-0.0851578937954868,0.2409669814353697,0.25730057225356895,0.1412766460128116,0.23379127013751694,-0.4904526517519035,-0.030101942248075123,0.19800008531010868,0.271249265871994,-0.06011106684617849,-0.43054720820538683,0.39641842093883567,0.13680259888661173,-0.5563856610835396],[0.45593270605989433,0.09390364707211533,-0.18551677720816526,-0.4019646548085689,0.2212597896122952,0.34658268619498334,-0.12618781586219593,-0.048004477970029186,-0.3558751067383288,0.28951667690682314,0.15398979946372957,-0.11352784441540845,0.34940730939714515,0.2036561657400007,-0.16414099433003107,0.10158892110442576,-0.43007429662992464,-0.19670353022878476,-0.4294266776861541,0.1301495866671932,-0.20612188855588856,0.008821661932637554,0.019341305408023847,-0.35297526013519104,-0.04208046938071483,-0.23254597747759476,-0.17541769948689848,0.0691144854926486,-0.06457530430442014,0.02279920214808058,0.14767735684723216,-0.41430142446027957],[-0.11574226814947419,-0.20925424494858494,-0.2708281843986877,0.31222572693315215,0.04767117525790319,0.3032815524036838,0.11264102761120366,0.22789694540861155,0.03166138234549972,0.00854053549785314,-0.09943077302339412,0.4068755884215229,0.007172445199409151,0.3303038207134061,0.0193831445064384,-0.2966736301623908,0.48833551271703596,-0.34408326944238987,0.06080057821259723,-0.20712686997717913,-0.02273641500264091,0.45192949149271205,-0.38894148836874193,0.2748616971358017,0.06537512468663942,-0.14094454834878536,0.0980339000296517,-0.029267644805361506,0.4389555016441734,-0.20850032517105146,-0.2542883233640502,-0.3224937616917906],[-0.24847468416186833,-0.10785155260450008,-0.7898226008022134,0.14079682914779496,-0.1719770118463039,0.39566716959916337,-0.35541660097776306,-0.1190093044352505,-0.22171572269965015,-0.4295670480148273,-0.27620180057065596,-0.3058765675096267,-0.05391985029846477,-0.1283095358845737,0.07647660496026892,0.1478164891979886,0.169794888064086,0.10186573415376905,-0.05402656014172446,-0.09641218012587051,0.273487599450567,0.29883828824938385,-0.2069185415821422,-0.29025378301180077,-0.43664219679445126,0.2587837853387689,0.1443777139179163,0.08800528176494918,-0.10770035005007639,0.4517962194901129,-0.16526090273866037,-0.06403300510944301],[0.14074739757859256,0.3799780930944408,0.10065797284761396,0.05219487279048219,0.0332639347693005,-0.07546204667926189,-0.005632283214025019,-0.3811572797341658,-0.12937673632714547,0.14411937172524258,-0.027519267431693986,-0.1440385293871191,-0.433446540575486,0.012492093738935062,-0.231871981563172,-0.3863315996157003,0.24312300708097997,0.016979773531561698,-0.01746989063020216,0.21095625073059807,-0.3100661212457497,-0.28114675320187255,0.12189937740446413,0.01652230713357059,-0.008626745340247802,-0.2852487965353139,0.2434290793115873,0.3526980635925105,-0.48027448756723573,-0.010775690498789946,0.24287992871627936,0.3438924422944876],[-0.05868384548084104,-0.25099940785520963,0.08888135029626584,-0.029967815325863834,-0.4130148721971042,-0.15984179156107606,-0.4966138011944194,0.2150900463607799,-0.42580407048591873,-0.5537535592336981,-0.10492003882189105,-0.4387956835560583,-0.23129765910363748,0.2203703393277476,0.09666511365306572,-0.24638579152153575,0.12742160026791316,-0.02221330724922184,-0.2811514068940726,0.48433064673796933,-0.1595782298399494,-0.03726553385657192,-0.1886318338838019,-0.05042690645175898,-0.23568638213910081,0.5744223023237134,-0.3697116038748319,-0.3385725882669818,0.0954639364416838,-0.1873101976647559,0.019167443534897115,0.02014949847329732],[0.3029256284548655,0.18668852519212303,-0.2867642431561283,0.16784218657413053,-0.1334999893601954,-0.08746373522069137,0.19343374357854276,-0.13304495225034035,-0.2888101625862071,0.23802176303782172,-0.23688475907156115,-0.31025240811216703,-0.11814457568719197,-0.02367868486158238,0.035371868300505226,-0.4582120708759202,0.08283501050931032,0.011236797022488879,0.14239614817338953,-0.12756313284291024,-0.22778674484119255,0.11379138646137994,-0.24248711642249013,0.026870285047261768,0.01501724153278699,-0.6877993671362357,0.35863579557951947,-0.49478783361382,-0.16215907530891815,-0.269809865958016,-0.2304001250876568,-0.5619561235412827],[0.3838108348344037,0.26033842865362744,0.12598614868375235,-0.4937839703627318,0.05754268329739871,-0.44093147613342065,0.33080702085772434,0.12957266011948274,-0.048312016687517674,-0.13039130534461732,-0.045113386587201584,-0.03294563730545628,-0.16678306148253502,0.08459520295952874,-0.013959075848652488,-0.4536688586131344,-0.3116100475985793,0.2811160007720432,0.1246695927344776,0.06703671146354848,0.29992466869130885,-0.29946906243779325,-0.35941916908178617,0.37505820468677353,-0.23519043387139593,0.06230731485013252,-0.1719349296380616,-0.17694577656632396,0.4715370544567305,-0.11550499055909598,0.2602688856834983,-0.11072882426504296],[-0.3328919293471127,0.2588982144908554,-0.13483032546155216,0.07074947844866278,-0.6951401735297066,0.014235636165164793,-0.14187596321618273,-0.17010157876702006,0.006341490829168219,-0.1829215256461705,0.22789874939616206,0.28782095653779427,-0.27645012803180713,-0.09873989744180005,0.49355083082492207,-0.16443198822747038,0.039816163939728325,-0.05731550496266891,-0.09230303686945213,0.05407726090719607,0.3789691733269906,-0.23619052084063943,-0.34199730721034405,-0.2909886023278173,0.11103339987054732,-0.07095343527744406,0.08243404743402047,0.21642189561922873,0.193419057182066,-0.45664843257808774,-0.5049783538193647,-0.11921990931203474],[-0.27437086538634836,-0.38683389027666737,0.3196854411779481,0.2638509317429824,-0.27089342579009507,-0.1367035649952891,0.2337039189841355,-0.08751640276341455,0.0659641801103958,-0.2441653343616335,0.5586373215580634,-0.2137438097192719,0.2088489415966443,0.036079576618017764,-0.20826720625547504,0.4239845561480831,0.1489121812923102,0.13038970989094534,-0.0701975237188508,-0.41141018936530516,-0.216629460392743,0.11181988294306022,0.06513964883493069,0.25319823705911315,-0.00820055282489409,0.11848389636767975,-0.3263625307863053,0.15854482912964543,-0.19697426944895313,0.16877167043867813,-0.30299279238137317,0.34813690880813847],[0.05731452621196133,-0.07458043521996031,0.2600560816364263,0.09244935134529914,0.10603618577051237,-0.1481925833409935,0.2816874494286051,-0.3966892995771171,-0.190703140476855,0.3198462402392765,-0.06838702155660537,0.15351121761236955,-0.3352553719894585,-0.018472856724719846,-0.23703776804515966,0.27929470299411163,-0.39741607154876885,0.17672819640616222,-0.037229128347183,-0.10716090670447298,0.20493556335002322,-0.0032407947846381986,-0.17824079692398415,-0.03544068316832135,0.09966898358507736,-0.12841333691162654,-0.05722686240330583,-0.1360490112486248,-0.19585103789914388,-0.09991905150900207,-0.1929235998852376,-0.14827133982095073],[0.2314500780701141,0.14814509721661465,0.38703736978178055,0.21438042008853045,-0.270844846018052,-0.40599005070786776,-0.2709926757177112,-0.07019643667712931,-0.10173470173435856,0.11620757500800113,0.10243453310714,0.03434898167749094,0.20187192380604166,0.4476773584873254,-0.06211867776635387,-0.09793135813059564,-0.09934794416485067,0.2243989644558668,0.41385521191504704,-0.28386425144845634,-0.07778744335555271,-0.25319719209551017,0.2465171982270731,0.04527531387402889,-0.008980458838487448,-0.37468235874028666,-0.3557549515746455,-0.21262932775729612,-0.38802932326956097,0.10512105436737786,-0.0391648709239814,-0.07125742015744507],[0.08075776927808585,-0.5294747114585365,-0.0918700882820764,-0.11308802710404826,-0.3076269498749863,-0.27566461925084884,0.29229706625119434,0.06162261074468468,-0.14725986618113285,0.18467300692063512,0.418067813301422,0.12847485091588,-0.0822035290380435,-0.14308172941506953,-0.20263077540404753,-0.30624757518694373,0.024625251875803864,-0.2823531416899651,-0.040145079258460586,0.16482070527230375,0.13956657584197044,-0.4030984199139244,0.2971044518614077,0.02206520296512233,-0.2411580382789067,0.18960388149839139,0.23623199744027693,0.14866350515245758,0.11543175864771836,-0.2584357033701624,0.2115504513059198,-0.19273982110024745],[0.3762841520848581,-0.4830916472098594,0.12045250004656761,-0.1803345328163679,0.10353468316312801,0.3729382035216856,0.4145988141800805,-0.31839198405831504,0.11826833022243,0.15119418505838123,0.32434490501988766,0.0473032506106167,-0.4460782981064605,0.2984750194380737,0.045537304736090564,0.13207552919564516,0.33047900273662834,0.14607312383826823,-0.4373198389689884,0.3616251502828494,-0.36486254068886953,-0.11369577164725421,0.0614977238176769,0.08248804023587067,-0.11964102249314576,-0.04030312799903769,0.1538195121706236,-0.010423346388344799,-0.4087437275358887,-0.15762979983528505,0.4594387749106637,-0.34968086070967946],[0.33807916955134004,0.09228484802744803,0.280262046738293,0.061906472353868584,-0.06047166373803045,0.020058226939622188,0.12076826992887027,0.29507676018759793,0.07982229208955559,0.030056334745637642,-0.323788717416092,0.1511854131875965,0.08433174697945993,0.46656977282672785,0.17097319206064696,-0.22712170314368335,-0.369472014940754,-0.1812519325147118,0.09393782649113541,0.08364329872417725,0.4063390276404445,0.14785903728407146,0.06231209110822056,0.6262512213145488,-0.391708455722947,-0.35752249806271946,0.0779934613554099,0.13181828499434498,0.007448488319996685,-0.03883181609298826,0.40357095500630913,0.7815172541658222],[0.0411588985658502,0.2647715854638252,-0.16841969266542603,-0.028234170387574455,0.16688838932870234,0.08370717723428009,0.06224322547292397,0.092188688839914,0.15759234450977555,0.09885988706777317,-0.5909331815639084,-0.2953933885462118,0.17997680895469903,0.14999459802404602,-0.05610902518467456,-0.10925743559495368,-0.3771233456295703,-0.05736479697088837,0.1599480104354825,0.2202326444832279,0.5265058875041913,0.17414069144422525,0.2553817536135443,0.42802158611254215,-0.11939846603818959,0.01752260816198082,-0.03118183347677338,-0.43380012212066904,-0.15829092291666655,0.4815373717548629,0.4089577531543889,0.04873581535307334],[0.014675197766615676,-0.25694136778992865,0.39556795205202055,0.07882780761377338,0.277798405288738,0.1454401674085659,0.17410185752633367,-0.1309194952139569,-0.14890260273779915,-0.10782937468178877,-0.33906340761748666,-0.13447127136424458,0.2952292808470406,0.25971289143891013,-0.0019930625946254993,-0.14435600515054636,-0.29515528810902564,-0.27248841318575934,-0.01195335064442218,0.034436199664657274,-0.24945011977058054,-0.08214280129927107,-0.33750243659611395,0.4071710097095857,0.5206938842081263,0.16401582043917312,0.029267306606039566,0.010264222638785118,0.0807794702940765,-0.5415555127517864,0.06752833988829267,0.062218179486667864],[0.469878556500543,0.14453533131955723,-0.10639412330436487,0.13405671059932767,0.056442887885093974,-0.19027756549296926,-0.16622877852060158,0.1785144935362164,0.252803897235141,-0.21808812610829115,-0.14350197664907532,-0.2030373353006236,0.0356792185277766,0.11400154265198241,0.03092359072105905,0.16741846109586755,0.15661806865839648,-0.1192738136030113,-0.254261724763668,0.4412285275246146,0.07385267269312794,-0.42900636473846954,-0.031021856171272108,-0.34267032399273617,0.10147077714907415,0.10746287228105977,-0.45307782432869437,0.051019772700102994,-0.22298551582650003,-0.16513791195901312,0.21379427533476003,-0.15160550629633682],[0.24341329701030215,-0.19550648998868342,-0.5322531567275613,0.027027265361398572,0.26164039003786893,0.08150457135403791,-0.10961622452050723,-0.36288361897467686,-0.08701470081614111,0.09441903908956988,-0.35475078596637305,0.6475010844229877,0.0898774365692704,0.16703654571988813,-0.21367583193962222,-0.07899117294308994,-0.116661653847422,0.5956757297547914,-0.1457933208466386,-0.045110263688564634,0.1285935741099815,0.15251352155952708,0.1835365897987291,-0.09114202638477094,-0.5403209140294666,-0.2007041142727579,0.2145041184718887,-0.1441396617558381,-0.033858736794869525,-0.5571477972917079,0.051529973329157305,-0.048726244099211315],[-0.09103546244074605,-0.04466631653384843,-0.13259985103426006,0.09456566590092202,-0.29844538984097807,0.015526155491745424,-0.5087833070286575,-0.10353347505292483,-0.3532315681206521,0.026844639513099906,0.003421972170592987,-0.10843837164953615,-0.33801525953057704,0.1166486862591721,0.051888915801631956,-0.3120070029788831,-0.09387581620035758,-0.321552205464065,-0.4811242812379747,-0.05704897416132655,-0.02044340593932055,-0.03959330706939356,-0.018275939676540294,0.2698209536160799,-0.3726427861274344,-0.2730036457162339,-0.33477084719296424,-0.17125324715271725,0.16929436710887857,-0.061756728789001306,-0.07166621266121104,0.33982590245445293]],[[-0.703675258764043],[-0.2098904756341944],[0.449313882610931],[-1.4738854529115322],[-1.2570597519407831],[-0.5874060000161985],[-1.8858001243724585],[0.7343148175526398],[-0.30120346661606756],[1.92896298249807],[1.4427032195818876],[-1.2677558309247452],[1.1100190017527938],[-0.2580336255534354],[0.12810372886184604],[-0.31276891578429855],[1.2115161569462025],[0.2889111876533363],[-0.8350606042153818],[-1.4334550254647793],[0.4778980537639176],[0.12702413601590082],[-1.185841696911911],[-1.6363526373906292],[0.8388823920882807],[-1.860501769470021],[-0.9259780336690928],[-0.29151561682814214],[1.113395964603028],[1.0162706730338342],[2.401092489317045],[0.902166975900518],[2.3770475631515184],[-0.4281358173394428],[-1.401806292819886],[-0.09011265428929947],[2.142603865544803],[0.20101308258013642],[-0.23395029827530542],[-0.08146210633260233],[0.2761869400735417],[-2.4295283165574246],[-0.34261356504794227],[-1.8627192597830973],[-0.030744728080439876],[1.0845788251996176],[-3.9254917291258216],[-1.5463180572745097],[0.2135561194951912],[-2.180960994169971],[0.2169757987756035],[-0.8495528261754404],[-0.25820230391132337],[0.7086482078920692],[-0.27200004829422486],[-0.05095110021820627],[2.272323326143768],[2.52266450549237],[-1.3063049781575662],[0.23912036454141133],[-1.7456841742282072],[-1.8679057227575826],[-0.6936139950369705],[0.4458506950595278]]],"biases":[[0.8166094548445151,0.2149669289517274,0.6310298759886517,0.3453501162187538,-0.9145696838281773,-0.11294101516065284,-0.14054520833041279,0.16493239957779451,-0.5076549777577034,0.40054623163659625,-0.3982079158363335,-0.197447496895756,0.8001883749030586,-0.23926135860953165,0.7033672541973673,0.9247543491836927,0.9367950702119933,0.6865332090129848,-0.2317968175787358,-0.7097944699152129,0.548102720075453,-0.5483513263422579,0.7049058539906881,0.6894765603861462,-0.49498153273272893,-0.8119118431995297,-0.6999665491183613,-0.19785449625675025,0.28719736383868294,-0.03570992465104819,0.7962584616106152,-0.3471900637528351],[-0.5524838271424706,0.20410507594992844,-0.6370726657260577,-0.7223994991540604,-0.7324782454377998,0.3722668615926069,-0.37297766763954754,0.42725143816648975,-0.7505367616196024,0.8557417488792985,-0.18653732647220334,0.033690187462424144,0.3213705738041527,0.09051762529733878,-0.08506469453663976,0.329197987470435,0.8004717233060128,-0.29394241259862863,0.852806486089233,-0.7956865366263953,-0.8060102566673114,-0.6595775673262253,-0.03850067548272352,-0.5116296430788047,-0.37305736096579983,-0.15831281715488224,-0.9115765085925288,0.5406098598192847,0.23153025144561268,-0.8742630888292511,-0.5158565789396414,0.2647822529300739],[0.8870322339272572]]}