{"layers":[[0.5490188525190579,0.755576086835895,0.30850923048373585,2.182882581863826,1.9102108030741003,0.9641899327350992,-1.9051438244143346,-2.183074480898158,1.3552326869489106,-1.1273851707905909,-0.34859995040390135,-1.159865851418693,0.8098752756570855,-0.6413338389044517,-0.9956739245345275,-1.8860057630751887,-0.9277753821395255,0.7388862857909297,0.39411330861450705,0.2745570187409588,0.6111101910263735,1.6870244502719967,1.4033389904389788,0.7789511619244325,-0.6246904893300991,-0.9835290661232735,1.3338695332119106,-0.548904384917133,1.1897366442861168,0.5082511326744084,0.3906645691001602,-0.6131274241604164,-1.2091818252369864,-1.5805314595965159,-1.3368710609298096,0.8901448186955238,0.9,0,0,0,0,0,0,0,0,1,0,0,0,0,0,0,0,0,0,0,0,0,0,0,0,0,0,0,0,0,0,0,0,0,0,0,0,0,0,0,0,0,0,0,0,0,0,0,0,1,0,0,0,0,0,0,0,0,0,0,0,0,0,0,0],[1.7562410782838591,2.509709116947017,1.4644730944211977,2.8427866230869423,0.5556086842724945,0,0.5545522955385227,0,0,1.3397850548143044,3.053608580666389,2.8429097018240523,0,0,0,1.2280125514379403,0,1.4923107537065625,2.5463448093598404,2.4058059402738174,0,0.6235116864178811,1.1588796442240437,0.8327491982950752,2.107431678139875,0,0,1.0668483560985713,0,0,0,0],[1.9372573309312464,0,0.10688867414939031,0.17114588292563898,3.7122366076951483,0,1.9499617379824112,2.302653046685665,0.9497316730403149,0,3.142903313121419,0,0,0.6737044022284597,2.6773707458865346,0,0,0,1.4221471552697518,0,0,2.5181819069725666,0.42225724528643743,1.9513611844722099,1.071881056675289,0,0,0.649079663510577,0,0,0.007140237697617957,1.2322133861065712],[0.42878113389716815]],"weights":[[[-0.5980290742783683,0.11097289105730329,0.3616656084028724,0.017199209379260748,-0.29883109868550406,-0.37844503693970416,-0.2837363599944383,0.3872059131667668,0.011436971686494237,-0.12912724496997788,0.23696927457539418,-0.022970441551276945,-0.029175497378853905,-0.12463235347763782,-0.40036075170173724,-0.21333914244644286,0.07671081014742126,-0.0684917591814099,-0.14167587974540127,0.18947774503654216,-0.3223313198441663,-0.2325865257584477,0.18245908911650008,-0.3263765277932415,0.09454483215721218,-0.11728118524550511,-0.1725964229117033,-0.25544726580239285,-0.26200004029583684,-0.273310809464169,-0.10492765754644302,0.1791407379697797],[0.21838264482468847,0.06315402015258395,-0.1825709735568632,0.07024136910779785,0.25924185834176455,0.21183206801959573,0.3143174426434111,0.10852025817915158,-0.2999938191470556,0.05204279343490689,0.0324696511725985,-0.009466264778088575,-0.2142449374605161,0.01738143280015521,-0.6156482023832653,0.15795523317406832,-0.4569814100469522,-0.22219104532200004,-0.19103783153263623,0.2730187043325905,-0.36101646489227485,0.0845606357826196,-0.08007115414667941,0.09753538121075717,0.13551288082903667,-0.6121245947033299,0.7319132495589459,-0.04727707421583743,-0.4055196960369663,-0.4324866566458187,-0.18465581687671387,-0.0027902100239946648],[-0.24943621961431744,-0.05662188970625752,0.1339230521282806,-0.3746783822531458,-0.5700050207631854,-0.12735915257309313,0.43632552277675973,-0.051621297777217315,-0.14413740142871798,0.005149816902413779,-0.15716847496838077,0.1286977803842021,-0.02687656775329263,-0.2549561421896428,0.264445003310092,0.13384901520797918,-0.07851567240716376,0.018640251756243304,0.6665569993006188,0.10563084550200667,0.0002716815560477253,-0.294086925765512,0.03304780053599521,0.05742117413057374,0.14416816557282963,-0.08918736269609515,0.14790830498903068,0.029781069999427548,-0.10958039116950015,-0.177407206637745,-0.1295473213201223,0.17753953983350668],[-0.16380744877907907,0.25976705540944817,-0.028118261994409147,0.1586539419929671,-0.5092333181630191,-0.12341114278120985,0.3336642957364796,0.26842135245058385,-0.11209915932312381,0.037658403853280925,0.38334360260002975,0.3917990423236554,0.08089875614697664,-0.04924711058742983,-0.30368361704040014,0.2992080798246645,-0.36522886556172846,-0.1875768684806608,0.30315933237702825,0.32449328516280807,0.10306495199867834,0.03302265930321114,0.18652757569607425,0.07875159135502498,0.2978474716310248,-0.21879435210248296,-0.06822952510729008,0.04702336158366805,0.040178325470733266,0.23003117948181206,-0.06194184820877335,-0.07780865180930455],[0.09834195397977794,0.41811689921228834,0.3733958829208179,0.09297829135024013,0.1340515992922569,-0.13216263549869886,0.13220037365885676,-0.2320718790592659,0.2664243120170968,0.32645288300021147,0.4720215216931466,-0.1334844961347349,-0.07095304804397717,-0.023460098785353482,0.17316770268706236,-0.010264833757673219,-0.27034849874708466,0.17068124067814086,0.371386599209729,0.2646466328204955,0.29661400701639573,0.3936965787201398,0.08558710129757922,0.2856260011302671,0.08171612375271213,0.2744013818044956,-0.11463260355647234,0.05221209207730169,-0.07612197100372814,0.2823430870725208,-0.04695792748024438,-0.31911795405516635],[-0.382310812249847,-0.10850674437191975,-0.30198670903903374,-0.27432740724524207,-0.3274775979179183,-0.132479450763131,-0.009899527686626811,-0.19779649422252552,-0.17000532247281758,-0.008920627986044089,0.17005760885011956,-0.23032666918536648,0.183109023176714,0.02652928419631237,-0.37724717472704145,0.0006395571125182019,-0.4574077329232775,0.12295177657691905,-0.14726225915526378,0.520578500378987,-0.06309931567646432,-0.2894898553734332,-0.13363846917125752,-0.5024979182101104,-0.052842377727739295,-0.012309358136812373,0.5832293294574559,0.039512068029759484,0.3506545327909358,-0.14719969176339803,0.4041613929803853,-0.26714068717005895],[-0.28549269322760584,0.2836242498391172,-0.012114578226946037,0.2896644094671339,-0.07712676142653199,0.506894764301424,0.6983366839346609,-0.3840623234941468,0.3834890545477854,0.055232120388691526,0.07553574180779914,-0.38001836151752816,0.0738254788414342,0.15245121703356795,0.24868038843756,0.11859106632751472,-0.02149394590173751,0.08308980711688703,-0.1415653765644563,0.13925052778886576,0.11715084377096764,0.21583721376829373,-0.04894491735577328,0.568275655027218,-0.1568099828390275,-0.2303391416664337,0.13813971066245684,0.21787338069160406,0.26271317734871336,0.034055020853799335,-0.2981928671640059,0.07373686061492998],[-0.21047971249135455,-0.1509086662764263,-0.03273209277881102,0.05242186000921324,0.0249203247450864,0.0921605500011778,0.03784010528757511,-0.15416193777725865,0.34958149181726117,0.1379664213159033,-0.166334127467703,-0.31023550187819177,0.4660221391267396,0.45981676443539676,-0.18017472679965352,-0.05939169580959206,-0.042832267744238255,0.062209713147162525,-0.4421771433651718,0.2764731271047679,-0.3597659279105949,-0.1666182664626556,-0.09688946810920643,0.17134130675515483,-0.019289838647754017,0.28024362928691143,0.4676339427687201,-0.2742298888505737,-0.23272082650765147,0.0725846403020975,0.3275938708379846,0.18467641210048757],[-0.18872826634049455,-0.17297202706085196,-0.3229021404701839,-0.16399356508426052,0.1509805747293855,-0.0986695385347335,0.169518675556826,0.08782676742447906,-0.07636638569240435,0.09405253108067765,0.3820510644981313,-0.01628322247706716,0.12589749274240214,0.20993052799357395,-0.4508183729081444,-0.08099400347388988,0.18433871169878774,-0.17326168237068587,-0.00343937755601396,0.10596123712568443,-0.015883142496024395,0.16468316228740312,0.15612614974126826,-0.20876395325371372,0.10103086436397542,-0.40607752142694753,0.13912414583428265,0.009266886422677693,0.1254799242337741,0.1228650076346204,0.23618979834876674,-0.32313261420279804],[0.23695505379992574,0.28251556426355984,-0.3982337561451037,0.0820793854462806,0.05823808734136146,0.0034935040936523967,0.1691763745893838,0.028233686988788885,0.07267803344585466,-0.2376684794133104,0.13596711372669526,-0.2279117361306735,-0.3682930140331286,0.11335016293936508,-0.09571661685521478,0.2783163605775672,-0.4227533003308065,-0.25391591396955154,-0.22022468428372735,0.2408623021613463,0.35344701512813836,0.36138433778850787,-0.21670664536366732,0.2681311934939498,-0.1683879882321173,0.1891435480835565,-0.19551909132784856,-0.4558401751529565,0.20890588306950503,0.04379207019966219,0.04419084214948434,-0.005084052155990865],[0.07806845499391589,-0.13951726596587727,-0.22782137776493366,-0.25166886011441897,0.6006819492385546,-0.44299127711870656,-0.08024496577015013,0.08742759030206826,0.01040915718188383,-0.34281064195985655,-0.1088064504315892,0.06744177803900933,0.37741225829816566,-0.36054722611752427,-0.22192267983565334,0.33720847205170434,-0.2682419791342923,0.4669361323281961,0.07366831909569038,0.3106787123773398,-0.02667011676274262,-0.0028904845068106447,0.016897417394258794,-0.054867775280133195,0.27597781715645975,0.02729409493777494,-0.05150057930261579,-0.17472555456029387,-0.03409272046924011,0.050951713327475175,0.36092690066128247,0.5438098199217858],[0.08873763432314541,-0.30493217566603903,0.03609495158883057,-0.1535108503274581,-0.3771205226251565,0.362006150114078,-0.0782259650918689,0.14574636696900412,0.35258621846074145,-0.30245521727274094,-0.16440152615433654,0.23566872060270797,0.06866963879586341,0.1463994022283671,-0.10481815902819372,-0.20818029930909734,0.12318141174677981,-0.4156452358465303,0.5863254682362934,-0.2425079449465569,0.2365491021150007,0.3226036982457639,0.09022273210415684,0.09267136582640834,-0.14911991278175557,0.19601878916168727,-0.11246915860234429,-0.014862481511644937,-0.02918402527675133,0.2941019109325176,0.34642693772949995,0.0961878118294036],[0.1081001892166505,0.008514298240738948,0.20434118812527402,-0.1042982652727502,-0.44949289918706825,0.15624424543580473,0.01460551959838619,-0.08609045647066522,-0.04541772081661008,-0.06336606318912033,0.25152139154315567,0.20249880576563037,-0.22466845270491345,0.24275615477818327,-0.12846690946222966,-0.049879812378370504,-0.4986447572515146,0.0492410790908066,0.2144723096749356,0.0017556963832038894,0.3457680904242382,0.2787254405537237,-0.09197106319272551,0.10989533222275683,0.1282768079792714,0.31560097163267004,-0.32078990080846564,0.422312450429722,-0.308984898410012,0.07064697347320095,-0.2546338193537645,-0.02327617903319912],[0.04621143988831914,-0.08824905957361816,0.31212354341033605,-0.041149849715161696,-0.12651584958250733,-0.5728388886770879,-0.2878480313296757,0.48135507696302193,0.10176988261779801,-0.442740870096761,0.1287710703959468,-0.22833218402972202,-0.09060004352797373,-0.026754749720772766,0.2739887665086108,0.04805394467858719,0.15540783367809077,0.05146462645167282,0.07345934188047393,0.01712728398443712,-0.18329560580096516,0.320713973216919,0.05445132886820766,-0.45564390827440443,0.44181417284240604,-0.3415656619484039,0.3567264596520959,0.2359174069775323,-0.041769373124616864,0.12784726031648713,-0.11000961363920075,0.21498366473177294],[0.20621799449729816,-0.20584302351025285,0.06887999776181246,0.1556698413536729,-0.0031367660644809822,-0.24068571281922363,-0.29487783906519865,0.2513542347304925,0.14120235996638647,-0.07432579187782529,-0.2168168218061996,0.12487616195617049,-0.11959326516183894,-0.014328853137980374,-0.11005542710100827,0.23631876112495845,0.012041375539720636,-0.4168693936215504,0.049656613479132396,-0.49631622541455833,-0.1319354668218489,0.006764418989476416,-0.16614759781775235,0.23262049293039064,0.21889913339106598,0.018255210971021462,0.19016259230706758,0.18738588248044427,0.009340189023544387,0.24327242805336538,-0.39927051910658423,0.17870542731224262],[-0.1713643813336263,0.1474536844054565,-0.02208364683340125,0.09884399258788575,0.09013690195917796,-0.005261379693471893,0.06432750230760431,0.09677325239557646,0.40673269290302755,0.14054126957295585,0.41618887161850804,0.16673317154199255,-0.16099056609864212,-0.16340800923971263,0.03726125420151678,0.006400088590452262,0.1908919269521661,-0.05216597114313198,-0.25632522064897784,-0.079290526595151,0.09864466773437021,-0.28025978402145174,-0.023548272818709155,-0.4721998543588419,0.32722720615902867,0.31997918064647857,0.3891700018180935,0.744390922863518,-0.2281528934640771,-0.09316577343101734,0.08996658158031183,-0.32785922570641196],[0.31290252711217936,0.2832709364244986,-0.3260945036379333,0.15625093716864258,-0.18580759614142187,0.011701688620948012,0.11995731130345105,-0.41810933096267655,-0.3236538979184512,0.3180176098982529,-0.38304306585145165,-0.02365644965180877,0.022587007571211307,-0.19874616639522324,-0.1701792740427927,0.17721609123894166,0.21522156154949854,-0.21178371338179086,-0.031556258369671894,0.22614886352572516,0.09929439715878366,-0.14226154743908642,0.5388694097079079,0.34665700188327003,0.15120698787769732,-0.0438734664547775,-0.1868859465463102,-0.10377417117411161,-0.022395955258369227,-0.05130662021651391,-0.18694139046366584,-0.013895195330780338],[-0.14614745905804716,0.3359166009502141,-0.05101634499185219,-0.01443012448083249,0.10056841996229106,0.1633877978828667,-0.3195097085617815,-0.12459603625949198,-0.006262128627204354,-0.10758963803592124,0.14695544519354947,-0.060372795227897166,-0.4344668405763581,0.0009807683987026682,0.045157457087534235,0.3294536730162371,-0.34102294218252605,-0.054721671689343075,-0.2024760185044739,0.5172863805534867,0.07885660745835714,-0.3592172756582133,0.5415863305413464,0.25580336834091233,0.10540472502874185,-0.13911635225994556,-0.12011133935324957,-0.045367556462515515,-0.08600979318197007,0.1794246514967807,-0.10837480832997717,0.05368546927032797],[-0.25557752428146896,-0.18043371950827422,0.40518570362539125,-0.0035024159837696058,0.3208246893743368,0.31315321439787525,-0.20414405579067843,0.27963430418476815,-0.1461693416127709,-0.1255545085300787,-0.12387772167761482,0.059771900575860605,0.405670909373431,0.29409002656970656,0.20877090675592488,-0.06502439875795687,0.13644311496823544,0.03724537767379676,-0.4185165292869207,-0.24764456416319733,0.11068491196420757,0.09154240358442471,-0.13855621673191523,0.47906697076529153,0.33749453075411145,0.3561604747179682,0.2008289325030597,0.12395449662428562,0.4738749250371442,-0.16560899242088153,-0.22629554542584546,-0.20311312384722566],[0.15374965234479415,-0.036743176446793015,0.06239491283538057,-0.26998635861586506,0.06950029209498984,0.12598786493143144,0.1495110343769238,0.05175489417546082,-0.43139269780193845,0.2587177095243295,0.10205238428668395,-0.2814035643947364,-0.15756631472179117,-0.14008346938065702,-0.10761110663965329,-0.40340181879745257,-0.37026664008628063,0.20946916089486056,0.2626762949969096,-0.08321182643036143,-0.07916318196520908,-0.19581426624834383,0.30787904704372343,-0.44727356566451926,0.009237033640057105,0.10650950296077354,0.18939620901288548,0.132071320486731,0.06373412906781398,-0.38806535278463694,0.4437809663791405,0.01923415219477698],[0.06768003955554112,0.19272390985129015,-0.21312303546962647,-0.14821524494074972,-0.027353374167919376,0.09332928862599764,0.24598290622227315,0.11208040738903763,0.40364928262338584,-0.03988968860461399,-0.20841240310444265,-0.1155051603247921,-0.09485316059843142,-0.4084351289229543,-0.19935379748092957,-0.10610574432368301,0.502744731012933,0.020488483540233544,0.06238602896432248,-0.28759650740323073,-0.16468867261307257,-0.21123863889454222,-0.0033943604186566748,-0.18308486229259022,0.39948304035420173,-0.43388171829862676,0.604945084263495,0.37459343066360234,-0.24081834406531477,0.2715770939289092,0.07177239454651411,0.1269507907647393],[0.16073516148410713,0.06556815765912945,0.023284051726321885,0.15527232829300497,0.1524523043031792,0.2128974812562297,-0.12967065413468296,0.09411617289007816,-0.066908083480794,-0.2885252559000092,0.059460435398816625,0.22718616335860373,-0.2649842367466412,-0.20003229631523908,0.37128343193629937,0.5348092602927353,0.006199925818142775,0.07101155468424622,0.1180882435930673,0.09157688162210163,-0.040906160294741076,0.07384113187559659,0.10119565427724769,0.9037340753737992,-0.12979987592424755,-0.17852534622874053,-0.1079562737663437,0.43562280914367635,-0.03359272270755077,-0.05824958349026843,-0.20211246553261575,-0.0600559758410512],[-0.004892936521610806,0.360384750374482,-0.09706634322735908,0.09796125882808907,0.5082502417437768,0.09921173892007676,-0.491102438101332,-0.2796514565327922,0.21436118553201972,0.34574119723770347,-0.11737118041206672,-0.047421061629600345,-0.35540083799941435,0.15863079726095342,0.09996657885684787,0.2684994039777599,-0.42934234296647883,-0.11609320389807894,-0.17843951381359527,0.0005937652113947246,-0.04916559793206633,0.39797432644131986,-0.04919194199357892,0.11822231705885443,0.31230100477056566,-0.2721606509609326,-0.07062784523621803,0.19895001724424405,0.08098844189795178,0.03805549377781923,-0.3090225102601667,0.002496891618340744],[0.3422511423050943,-0.03519316400322384,0.0641348533273555,0.16566644804868846,0.07257249335188988,-0.3423957435572199,0.0498336706931951,0.006809718340660764,0.012055428672334655,0.6088623872773922,0.30873477928009235,0.04278343225037972,-0.46138965391123715,0.005953226292949863,0.03773050699288495,0.043659889702800006,0.33031203313741825,0.04228539199145702,-0.2361479228356881,-0.4759813762397414,-0.2884700220448448,0.08292036720326379,0.01633298355834984,0.021701619278589154,0.1700502810604614,0.18281710270852566,-0.2141133878519234,0.5557852004932303,-0.37698223084216087,0.28522393395463047,-0.21244536782037102,-0.35757263672526196],[0.08685454699389489,0.12083306363537694,-0.1169004517443051,0.3738906661336847,-0.002059449915435941,-0.1769327701669007,0.03946953596161963,-0.23724403044070125,-0.13150693987243073,-0.19808602936820432,0.047122165322018204,-0.07752318778771287,0.4276397028679822,-0.35209906847954503,0.36598066191213235,0.13235230212758656,0.49061863413077694,0.19134744652508645,-0.09048930867627801,-0.026477123426833005,-0.06755255170885213,-0.02989532109262696,-0.3287564771966902,0.03925455323669083,-0.05812906799333698,0.6239427806293818,0.07394832995101965,0.32801026135258277,0.08884140378518758,0.331407992020958,0.37944027084538956,0.26810252841420723],[-0.24113282943392578,0.051505518546679646,-0.19530383747484914,0.06727675169302241,0.18720316920233074,-0.14642341950401797,0.024562649001545547,0.2108435025731057,0.15671628610247784,0.15066646165285233,-0.30605300942387026,0.12901820236734535,-0.16169725674696683,-0.08131489771519221,-0.21136913444443944,-0.18330219229084688,-0.06520909459840059,0.05940101200014565,-0.32508248700793807,-0.019241858863478775,0.06948946815847158,-0.3605900793244371,-0.27179575894715174,-0.23350110106710614,-0.03096649318975192,-0.011341466157075474,-0.14600028971098158,-0.12209314913711358,-0.0013304055097147576,0.05900554419142595,-0.3707399131647568,-0.0780603826008332],[-0.09252457880635072,0.2431910158650021,0.03605501974183219,0.36746650451468993,0.30701507844357434,-0.00995289633687638,0.2927621003333564,0.11645825802595816,0.17031903226983883,0.35743378439802126,0.12857002413816943,0.03109721640629385,0.29106252982603703,-0.1401166199919483,0.23861139841990908,0.4420471473865072,-0.05193060660546015,-0.122888092067117,-0.7659229757720786,0.2427619391264266,-0.27705899017829483,-0.3266629309202482,-0.21881069411633527,0.06355729773777061,0.357862409387823,-0.20809307686335118,0.13464305977119234,-0.017462491248012364,-0.31975011946892656,-0.13135576118545048,-0.1262935217186443,0.30836180652138745],[-0.47257376475371404,-0.18683740049706576,0.25219871019737755,-0.6362584344108655,0.35742932062960275,0.06540586249575416,-0.2582697007129153,0.5092315483105834,-0.23170538689158268,-0.08369639732336041,0.35896313672823366,-0.4073210347625579,-0.1063925532706143,0.18834497185405086,0.1647938200556973,-0.4133514336184574,0.4277831313422016,0.044774221087460264,0.03665244319221325,-0.4754853181395597,-0.05035971371593571,0.035250357179053345,0.1559588580248749,0.0032928543189996652,-0.042039974952015315,-0.04473891701552948,-0.17712810893781036,-0.16891910612601546,0.19567774501749557,0.35706076583244256,0.2650799126778257,-0.29762802595739885],[0.41982026833430486,0.17873648677356585,-0.5071014595951987,0.27583493327637604,0.14682539834991737,-0.07552551315585641,0.3941426456178121,-0.29204656513645577,0.21547634787088715,0.4314916669541723,-0.1549003754048441,0.22098572173649209,-0.11995424230361103,0.029679219623644386,-0.1735848576117638,0.201878744886838,-0.3277605751296079,0.02183844887530335,-0.03592672092180474,0.0570241107712624,-0.03620058920479928,0.04458700512902957,-0.18255982988340713,0.15106516378867132,0.19938010430522768,-0.11439533343149424,-0.12182237233366362,-0.284042488287448,-0.017871125530715,-0.17870554885896445,-0.4283791219357523,0.1586938231105208],[0.09662910450427561,0.2563554000085002,-0.11962622042888774,0.5123507693365055,-0.08675311300974137,0.26523076373851345,0.41362243195193027,0.28611719587616435,0.4167570440965971,0.2218345916624171,0.07761688250915133,-0.2436308612401299,0.07416209695362913,-0.22546665953485723,-0.5860345606878629,0.17424658955765066,0.1526968828403313,0.3499569947549886,0.1549961519617547,-0.6381174319922424,-0.18301415646271177,0.009235251029399517,0.1404585883379437,0.016264270361021908,0.3489769917998999,0.017122185406280875,-0.04631822524020104,-0.10567764957322032,-0.27438796757534484,-0.045644963390912605,0.15713793794102515,-0.08632580863994399],[0.12023484585948441,-0.14954830122345775,0.08899345843535784,0.16177090545046469,0.34715676229160425,0.06969175697776926,0.09234542253856508,-0.20914135706379836,0.3369505448171593,0.22028985518717956,-0.10074500067102721,-0.668591579219566,-0.030785601066617197,0.07561418566198062,0.5110313943275072,0.256872897744899,-0.27738449530927795,0.08027695858074659,-0.4950398605179521,0.02005804421193424,0.49431986100253084,0.11385357544863023,-0.09491680328777323,-0.13273147792583592,0.228511163423781,0.10016277351153444,0.231079817854535,-0.14616226913415029,0.060186535253961136,-0.27280622149864586,0.20885982071089432,-0.0568495011224118],[-0.45630103766069924,-0.07661427632865069,0.15230607531914803,-0.37708278200509693,0.11418089225112929,0.30902350695348785,0.0838883799610783,-0.060743673879024955,-0.12206693166459133,-0.321721279146071,-0.11364286207081992,0.09034759170137975,0.04966742152751735,0.09478112093820837,-0.1253874816508998,-0.30849997705124066,0.07219707206288441,-0.1572171121500355,-0.3979213280161044,0.027951628497917217,0.027120245955889872,-0.09225363014255507,-0.15169906871385916,0.2147164888862606,0.6064306766328835,-0.06511690568926155,-0.2710781623808282,0.18644220163011266,0.09258757673217573,-0.014065250514936475,0.000767109054567588,0.46732516379003425],[-0.0880068680494682,-0.36562624983996933,-0.08880976614971715,-0.12128303725016541,-0.25285693091856015,-0.16515900305987077,0.4453439182416385,0.10890347679180248,-0.09646116652538993,-0.30861892337352065,0.25069157353924426,0.09434585412106544,0.4532832041493956,-0.19886609832465751,-0.01570866335333043,0.17651421298640696,-0.2230929932815109,-0.009262325807598858,-0.38156603397979255,0.7154367995289236,0.15012107577078435,-0.07634151023032076,0.24617122922966778,-0.020463798666668684,0.10544166470462485,0.114750788001394,0.43548554708842796,-0.0763452801632243,-0.4336896081529703,0.041950481478120465,0.1694585899842958,-0.04222431026975946],[-0.05046888120103159,0.0030160185327819697,-0.26196723371933245,-0.10422402605799372,-0.021503227799615963,0.10006122165904455,-0.0052192505393445585,0.15358444149798856,-0.19607621865172808,0.35994818503180476,0.3825291238973867,-0.1593685850587457,0.1838469559307933,0.18999095341410666,0.36085699505747315,0.24946981355375836,-0.23691740114845766,-0.20953792067322943,0.19825679453750442,-0.3123155206890291,0.21921937164269995,-0.07625176983911906,-0.1373141981783147,0.2296426883205109,0.2753175838738686,0.21693631366182403,0.13864629922049085,-0.5088598446032075,-0.050527183166659745,-0.09022156069459158,-0.1817472988194816,-0.7928983123443443],[-0.15216714149362018,-0.02691145533643414,-0.13309037715826194,-0.09919113988156335,-0.0017882801187234403,0.1763962271866695,-0.536101645595275,0.23904422371434653,0.3207167814353613,0.2143105150316424,-0.3092391113472063,-0.2827220740690629,-0.5433958171025592,-0.2293408389472748,0.24725797889394127,0.02168323250339297,-0.23084022875906385,0.1418929066083193,0.4053112839144422,0.02474233269052456,0.2996015813210165,-0.16438265035884547,-0.17268843899619957,0.4839782063381593,-0.6736809191336671,-0.1019960791675941,0.46259241866566514,-0.11744021244392212,0.22955814737605584,0.20693043908134665,0.03129809060431003,0.16182681741617633],[0.2916104785443098,0.006393320213012596,0.18716113896580444,0.11908161705978768,0.3074011579635457,-0.20105198223993784,0.18659744285263297,-0.12705078818568194,-0.06112932971235183,-0.18285772739810702,0.18480728123920667,0.4260272687933276,0.3411263182818696,0.06692481557207773,-0.09678998629337135,-0.2454295437007,0.04178843526491679,0.22144790592214822,-0.08126755588105218,-0.09369039907014991,0.1373082292387652,-0.2027939849608076,0.21154063192256353,0.24779630404481637,-0.18007761063341132,0.30291575226957707,0.5452103959396317,-0.0634467107234563,-0.2981585360792036,-0.07847150027036434,-0.036966098719831496,-0.11297601246846867],[-0.012262821187414034,-0.4703194478570613,0.014257547405597992,-0.007011425623103132,0.006056570979794898,-0.5198320024097497,0.30693582384605805,-0.10863132979849748,-0.06659592877538315,0.18274808630134157,0.13124010624394777,0.04702815776974497,0.46355847952592005,-0.09038491921172624,0.23854733350087393,0.07912565306513722,0.24731935275801317,0.1845795666980368,0.07081413064336432,0.5394039395319322,-0.19782552810933485,-0.16669081686631884,0.09513824450813747,0.09353393754560033,-0.15403303579675034,0.25802275059605484,0.3943380427958771,-0.5032204004810026,0.08098368790068464,0.21775221450703258,0.19729608954673358,0.007355243557004489],[-0.4718982759976923,0.01908564114662216,-0.12647401780626008,0.255918708759699,0.12333764752634448,0.024808470627221427,0.09147164666960467,-0.2871183803130525,-0.05903648024693551,-0.05630179023523345,0.7905734650622933,-0.15890702510169105,-0.025733783130269777,0.12209020723162829,0.16442490415654618,-0.09409267863059223,0.201060150335482,-0.019401451819761273,0.11688695688333342,0.32207197655896397,-0.32196468989126387,0.29528735285052277,-0.3816461965109602,-0.12755268454267882,-0.2765756177311881,0.25195325693124593,0.1357105887164721,0.3589932174940146,-0.3720435660184924,0.1972238178230528,0.1510182307053725,-0.1524357415201876],[-0.1513383182218817,0.33908092792126954,0.1185184858645139,-0.05041841986283961,0.28561705006284493,0.031283850585972495,-0.11277277955365875,-0.039934997398040656,0.13386298499425328,0.39819284418801604,-0.12133167617186265,0.05056274736634875,0.5312659595509338,0.4829686570868651,0.15884999636731892,-0.582915862660101,-0.5135618866762992,-0.19056144813412124,0.23242974298537236,-0.22917269782827052,-0.013367715055149026,0.011276531183338651,-0.18190400127962916,0.31455089183881957,0.04185147053926777,-0.03625247690893529,0.10652094727802511,-0.016137812587279227,-0.2712706326297617,0.1966225008211012,-0.007156720086865466,0.27877183646685894],[0.2892018698270322,-0.10673503923372077,-0.046749069530502965,0.011559058213312757,0.16481809137914125,-0.12280482929394085,0.10807853259594563,0.016499256808809832,0.3879244060846327,-0.0568367182413618,0.10977871093716347,-0.15570076184049278,0.2527207290019538,-0.42624632661277617,0.04235446263520835,0.043623686772528765,-0.14070168042148268,0.07415882984461647,-0.13214612672260073,-0.025416299926574515,0.21186010131887004,0.26634321837005015,-0.030538743292157278,-0.15336823600673277,-0.19495137546346683,0.02120889243588695,-0.5620532901470416,0.15926259041808377,0.3840785375827652,-0.264444668063021,0.3319652687293908,-0.47398893158231753],[-0.47595513052050176,-0.07360692244258664,0.0034491106614281896,-0.2901605838259383,-0.1522795838810724,0.35400436322563317,0.42070974525995153,0.02813487896920282,0.37401022924791144,0.3548812737714395,0.10683516175757556,0.08300713782207043,0.029858054511650804,-0.0307454453465648,-0.0673849982668278,-0.08469290866626955,0.3132763594909858,-0.12091090476341705,-0.018349950705159764,-0.20555854744795268,-0.32644760567863684,-0.385763842257263,-0.03390271449050153,0.12284414198333417,0.12815883031894934,-0.538377166532864,-0.10660707333610257,-0.6368377038536224,-0.07456290985226327,0.280719798358761,0.3595768442355984,0.14686268322182044],[0.2139907760747471,-0.18886932850355956,-0.09288569633433005,-0.2300836903009855,0.29564635666231537,0.2455332378688299,0.04918376296011307,-0.06366913692741999,-0.32818371791971346,0.004550225439216316,0.2498538116540397,0.5830674375931173,-0.10632008028063966,0.47507896785368,0.011291316877429713,-0.11921674815908932,-0.227355811989588,-0.15212238680358128,-0.1333883231525438,0.028760096619908786,-0.2671680937608428,-0.19122280802582337,-0.3864129916610123,-0.09934010661183237,0.7447106785978356,0.0007819334386223818,0.5506595274334803,-0.17114736904792444,0.04711784866628368,0.5619437672581209,-0.2267366075936059,-0.353728961593953],[-0.005309077778436333,-0.005344082200296854,-0.004043290453701633,-0.4106925229996368,-0.014262968219616125,-0.3327951160806213,-0.04661812050341361,-0.06825965730352686,-0.2723960352144382,-0.5434449884278592,-0.04977763500397601,0.18948858376936673,-0.5432991906502286,0.039964592697235735,-0.007078859417516708,0.7338378833427106,-0.13958904741371947,-0.10533115311193268,0.3480002439001054,0.25832916197399985,0.24735252060953644,-0.213604151309295,-0.27236391080946115,0.15888940278793226,-0.180666500670977,0.05849521742419183,-0.4368586070502575,-0.36707892985307683,-0.23808836222901414,-0.17990932639476753,-0.40192613073494016,-0.0023866009389604172],[-0.3185186903188122,0.3836899424168439,-0.07905712552293803,0.20370142263835866,-0.0482236240527532,0.12394958521289964,0.18908570257643875,-0.3810558189880722,0.15474668471244857,0.059323166181961214,0.056464715846863654,0.12196354625954399,0.26609463379417464,0.11350474243687823,0.06610518567086966,0.06707091256724511,0.10547579548318356,0.5157912213910449,-0.2213883011747949,-0.2731220159317612,0.12686836833830661,0.1265416824507225,-0.3528429540510264,0.162481751281317,-0.272705496141738,-0.2949317484733355,0.37624965263715127,0.22937188848755394,0.12254485987947263,-0.12991949806622055,0.6838446775776695,-0.09429177385599817],[0.16349566184110548,-0.006340340892373547,-0.47730662844051713,0.5076982821063111,-0.29332737480974735,0.17379166158582118,0.12286724548253664,-0.09090418911428205,0.1844269939174688,0.4189973776019287,0.06773747992253407,-0.536386026041796,0.01459738754623263,-0.19683391940425218,0.3097951286389655,0.4165010878836595,0.2777568325366813,-0.14319166694538368,0.1416192606679594,-0.001362427039174108,0.040426416173492935,0.18018100606021242,0.043484622479158686,0.27286693495711317,0.002880175273060801,-0.1646549280461968,-0.17390967799911766,-0.12965020141208763,-0.3841630475359041,0.025347381546096816,0.10410014900112416,-0.3559934229287268],[0.4852983540334449,0.22735281181596997,0.08297723620229841,0.0677820407925456,-0.3648640942496548,0.3907186149358993,-0.15081678213368374,0.41562797731276263,0.028382015117011883,-0.2970356191247094,-0.13033224910225472,0.14812305085369357,-0.029814907745904912,0.2638367989571136,0.32032296887430967,-0.29598024096177167,0.3792067197960415,-0.30879007460814234,0.028899492256504202,0.14610624503430666,-0.26539209160876015,0.29417065054192204,-0.06855017300790987,-0.34158776234232524,0.48107543776850903,0.10216767186885543,0.09780989707014495,-0.07031463882419271,-0.35993463711369467,-0.054474797119253404,0.20274490807530746,-0.18382722951804314],[-0.2690369501043558,0.031632008698925664,0.12439656683610299,-0.37040784002952076,-0.015724920755456322,-0.06764782424371565,0.14898858900639367,-0.31186565772316754,0.1984689575221602,0.04906946761612305,-0.4247895092542086,-0.1501955233608917,-0.04217928742586856,-0.002722534723376554,0.046073934437930016,-0.21047305541852848,0.14038070163403427,-0.03885102908480895,-0.15606874724752948,-0.1985135791989423,-0.24179673806004268,-0.05149396547057977,-0.12269550948534447,0.2594999339031841,0.03693928352818831,0.1415620637027161,0.5150758830620285,-0.16378944894430233,0.2975578547846887,-0.3337808874157213,-0.23554451497043086,0.3899663000717081],[-0.3076569906300472,0.09218870268479838,0.009488074673912715,-0.3074816385795079,-0.11259886300258265,-0.17441509891636076,0.19679049452701802,0.18399713796657138,-0.17702051066634222,0.07325309524407225,-0.06634188273276889,-0.4833333236496129,-0.05341657468103743,-0.01168805922161046,-0.6883869352226278,-0.024003190917695344,-0.712040680678576,-0.16766366136579974,-0.4030333105905636,0.03177139296377442,-0.4123260111449057,-0.1255025023112904,-0.1475384525187689,-0.32162277302392667,0.22908837137148017,0.40561312270331445,-0.27136606986021217,0.20348123609748833,-0.4462490883655532,0.3959501306248018,0.3715889549631103,-0.31180778693470795],[-0.24195563792163347,-0.08751855117452192,0.11326279094280318,-0.30933173381406026,-0.31216109923431,0.20422740715636106,0.3975012730623203,-0.11101058621050636,-0.029730658132571763,0.09633755012758886,-0.22820245036638917,0.4408460094042588,-0.08184326171060773,0.3130875119425422,0.2347766070207959,-0.06794085280386851,0.18249319138288314,-0.32929904539368604,-0.15162707306619347,-0.39189161359316593,0.07741172903175446,0.009815087988049946,0.039094020893211436,0.20049378428808443,0.2660530888295915,0.17778772271710158,0.43667472233532706,-0.519645576778003,-0.3624304297355392,0.005844562662105594,0.1618229545050191,-0.2362526161743115],[0.13447333895035277,0.0679279445926547,0.011691771286953421,0.049245354956290115,0.14300941401468886,-0.296277863333964,-0.07052782245445614,-0.4112466204370382,-0.37464625222439524,-0.12222245672692982,-0.269728084186703,-0.10993120224104541,0.1199448992424861,0.10502775867590408,0.06001965469258081,0.1278599199130987,-0.1742120996156405,-0.04064939886489626,0.23994324020703128,-0.42998244425174675,-0.04924645581186636,0.336845695795724,-0.5014513073089336,-0.16008248727133642,-0.10155645541666544,-0.16798802557739362,-0.10119818666226153,-0.15041100858042122,0.2228330032953698,0.14919993733768303,0.09279565122585505,0.29058179292312536],[-0.12481052686426795,0.11233930920527656,-0.28052314150332724,0.026981131561566424,0.01832539539922772,0.11160509903805611,0.2538049478578651,-0.18253529030294052,0.06502523366854875,-0.2204930215577334,0.20317349693413755,-0.04791619599114669,-0.4485410767757512,0.10632097863109823,0.42096529820591855,0.00177263417634537,-0.21253632783891555,-0.35150284769733364,0.17351378839365947,0.2619674408579809,0.36177944231024667,-0.2166981691310279,0.5156276557409314,0.08191460364472353,-0.21819058241891837,0.08252451299200576,0.3139630085173954,-0.009165051426045498,0.013645609927597252,-0.10114560330864143,-0.4414967364693849,0.3324418009493903],[-0.18370232389357188,0.10272781849567421,-0.05224002974987665,0.7424777970672698,-0.2178408379868609,-0.3039327802009933,0.07711125007519012,-0.029491641884390456,-0.3293345851419878,-0.33198172829708855,-0.060755993966437376,0.2796647348158736,0.38831526003916905,-0.29755070726825017,0.17860792137515907,-0.51128651965482,-0.04028369732143256,0.09745329407333421,-0.12367477678490968,-0.46196809179289594,0.15508493127888523,0.287887393692521,0.4964381070817376,-0.06201257512380429,-0.4000687336423011,0.012917274226227831,0.2826272093327419,0.01419029605338933,-0.20295404549237692,0.4211645560225147,-0.18559763149560282,0.23401497027206541],[-0.0812831683324267,-0.15726606772331522,0.21703338512959733,0.12195862848621064,-0.15236624128903878,0.13806846849623466,-0.3388432025424804,0.14402166884623127,0.29823195537045855,0.06908267827864203,-0.29342405241104946,0.3177020885483677,-0.09069879783708641,-0.03180029766012657,-0.29734790307356274,-0.0461801828261777,-0.24181443841763187,0.0060711784063212535,0.14056738699665722,0.33334514003402976,-0.34507396194778556,0.03127769660614611,0.30264503937276904,0.6194768452491782,-0.03138664412807676,0.19535317116276404,-0.15746934490078413,-0.36143312359943874,0.057635310720529076,0.002956278919863189,0.02858366376574748,-0.14988098914894246],[0.05747755666814147,0.035982926021245906,-0.4199855710405489,0.2501873746354235,0.38781032048557224,-0.4648445175450394,0.03250041624149227,0.03446473557835423,0.05280879792202271,-0.020613796002015017,-0.4317703728571392,-0.15812145558005336,0.291254586313522,-0.00753028649536586,-0.27769725789734884,0.2839988457801608,0.057156736998585436,0.44317566064526587,-0.20356952794400762,-0.09526371875925754,0.12901886524681724,-0.3559326845545708,0.22884399792129761,-0.18947357192092906,0.17356685805455815,-0.1381509219624329,-0.20593895249186162,-0.21457226469944357,0.11853945781675844,-0.11366624610167644,-0.11592427128447216,-0.1607340696977253],[0.16714312156869218,-0.15021229863510127,-0.10479672690321594,-0.42555964881352076,0.06228666478097625,0.16538355285522532,0.4110173439169809,-0.01647909395206118,-0.36297769060065727,-0.07541762102757592,-0.23194880638194318,0.1570894461264016,0.6557988669766824,0.30375085173568656,-0.6731554906650202,0.3406921182244706,-0.015959471617693576,0.16851315631750552,-0.3277358126012222,-0.013997002539436414,0.08861812881825619,0.2123182058572718,-0.052752021452422755,-0.03389128025663341,0.004275943309675075,-0.3585145828990488,0.4953647189749563,-0.11436886277042736,0.141693796194615,0.019735155829551484,-0.04184595434840269,-0.1349040566631068],[-0.03738427151683065,0.0743251140462928,-0.24317214261458414,0.21729936871031189,-0.29621643058076996,-0.06655918698071707,0.08603096485150291,-0.42878320519052493,-0.3628190481829715,-0.42267878680808646,0.12541284404171432,0.2913270773147407,-0.4043492312225685,0.13295840534997405,0.6315627433854265,-0.1284583803041478,-0.4123615666652761,-0.05382004489466167,-0.1310045680793441,-0.005469880746264919,0.41743457116796023,-0.10577871834278801,-0.17087905964164735,-0.08015902274022925,-0.20486399030121288,0.22149612190963922,-0.0717086327263133,0.23643078820609464,0.08714517963469229,-0.27456785165369996,-0.1573902769954287,0.03261601262543742],[-0.030495434907779784,-0.08323949351817282,0.14682388937319035,0.5438568129989539,-0.48038206581304493,0.05906658594042075,-0.08717678459216792,0.0392080062708511,0.30728864318060733,-0.06314889587975081,-0.07296116524386163,0.0469102494743863,0.07292681124757612,0.2596355889819321,-0.07108155037825983,-0.34492771822305773,0.19589938565677523,0.2136555618845201,0.0622662164301183,-0.3676290088668932,0.00015549823208501715,-0.03287123898100328,0.038238261020057424,0.2570139447512635,0.02655181475626274,-0.21980543657017426,-0.442666490533179,-0.16333146206503607,0.03030393262933429,0.10139793987702767,0.08567030840193385,-0.00987762095886402],[0.27234270878303796,0.09287682905309927,0.24539143841238364,-0.02208372998092992,-0.33974271938779893,-0.05552625152190079,-0.12327569070342627,-0.06131045718068521,0.1525947591864712,0.33706088711687104,0.3217699429408808,-0.10402470569779415,-0.337605368037763,-0.002532509354048522,-0.2628688506255561,0.3240434105415138,0.11572036267945544,-0.19994613936887282,-0.27811076575006066,-0.048010486259233806,-0.12981220144924274,-0.020845696057861615,0.11847326347695615,0.2755720194303337,0.29019945827425186,0.3576575756848436,-0.1328639065926352,0.3427009360208358,0.10780080456987434,0.15654049555513655,0.09704765787985499,-0.3805868875514195],[0.1900652445172393,0.12884967904325426,-0.20164341203799474,-0.43379784908046937,-0.23268744185694498,-0.372476534000913,0.12476902223835347,0.2673798862203175,-0.4060257357428226,-0.1168615583602691,0.1263684166446928,-0.13955047311069965,0.010213483702605218,-0.14705093066457606,0.20853382944675186,-0.03480795063436232,-0.00547625847660703,-0.5737016819967677,-0.3317826015711826,-0.1506091995190103,-0.47463070584092826,-0.2077017098252195,-0.2991783225676265,0.2852850413389202,0.3277480689503412,0.048820833017000596,-0.2539745276689526,0.2505046036024663,0.09099127718305115,0.08103610980049117,0.10718806512651985,0.4512996079761329],[0.17261658483916822,-0.35386657226014917,0.061622453846135565,0.10858377093215753,-0.09536986866167149,0.2417033167152821,-0.16365438350088046,-0.12239744135745913,-0.24853545368622393,0.08659189387051122,-0.05019318391238233,0.10345484496924125,-0.3718321572659888,0.1390794788518539,-0.018652322950721882,0.19722600890819994,0.2095258296214102,0.3960880452823571,0.1616680849661242,0.0524623763196212,-0.08959264603076293,0.051754886332121726,0.5567403432266103,-0.10511058651690788,0.28644403208501723,-0.07756061006942079,-0.07274456732857956,-0.4992623991936293,-0.23649056904505716,-0.14661113424301017,0.3604964908373235,0.6620293714326765],[0.10324043008373053,-0.02995910952066144,0.2724326790035104,-0.32972062730951446,-0.423932724946032,0.20720929484888423,0.14013536264940715,-0.11595451162523354,-0.15027429767915132,-0.2782544783499773,0.11055124282365289,-0.3805399899474699,0.25169973718373917,0.45237663113765897,-0.3053344363689238,0.09946248417572359,0.07624023796166514,-0.18481004757502575,-0.2225556359317611,-0.38525063435593127,0.1298388045368266,-0.43544572193601877,0.17719479476064232,0.08009691857388342,-0.5365867976286915,-0.1934150229836804,-0.09642438788855376,-0.262390972234724,-0.08693817168854384,0.18066497375500445,-0.1699419202904566,-0.15787657328767085],[-0.28612557451181575,-0.34713694531797856,-0.24649903125162395,-0.41323524135681355,0.07395698710501912,-0.07930994593388692,-0.23101834898327872,0.22609070639859966,-0.2096019389703659,0.38467041549608605,-0.2170279244213247,0.10878266294582906,0.12612441986740305,0.2598873602053766,-0.05623146666407299,-0.35045558931144133,0.13946353036712447,0.14269079137591606,0.05854278490677007,-0.1861704313484144,-0.18933912227869057,-0.13953531988657905,-0.2500207440500725,-0.562163285314393,-0.17502482898067448,-0.1361244999749157,-0.2821900954032993,-0.36311798961578506,-0.2895750290387362,-0.47285453209135947,0.40981440756216575,0.21783322502045238],[0.23269181857878404,-0.20909640355235143,-0.5473559070090285,0.14013869474693755,0.34435328086777045,-0.5080291254192917,0.0811287873871086,-0.4949033007796524,0.16284402435298667,-0.15629779662300744,0.04560959054188428,0.19047270872330668,-0.17169665449945243,-0.3769432450131729,-0.0874750481509991,-0.028365495903402555,-0.28618873470887873,-0.09629088976628201,0.5082597986230489,-0.1662708384950991,-0.18398409387524328,0.355111689514941,0.09019941851160715,-0.2702284198863958,-0.41926084039677347,-0.8624013151635191,-0.16406589144703604,0.284876072222697,-0.1259527551974901,0.17068955775719294,0.10353823565167307,0.4996220898686243],[-0.38406791180389127,0.20744042985157551,-0.11350628485325165,-0.23652901454434289,0.10933301110916949,-0.5398070092515219,-0.08955699895356545,0.0969635960063309,0.2166843926195661,0.06681335093241228,0.26929958539891397,0.19841179462440203,0.3681808815154645,-0.21888054110956115,-0.24844554875872332,-0.03574738506722747,-0.3204137371449739,0.00047144784430465245,0.20440975356567564,0.08373662916322323,0.11408233562588889,0.040949316871017265,0.2039202939403483,-0.07699753684364176,-0.11615674168030725,0.39717416198570155,0.28486173370665185,-0.01635182514813122,0.10796536172652221,0.1416687997750042,-0.11969978147911824,0.5169176353672847],[-0.24678181091596788,0.1618791824682277,0.08038467638029809,0.07848134851961407,-0.22079714724820215,-0.5822136149579253,0.11783224177357554,0.31713061201600024,0.24930744593714774,0.3833814550054473,0.0656995744253794,0.35054259442438024,0.3083464919025751,-0.14746160443534614,-0.11808238814383945,-0.24114413219988073,0.23647094649168562,-0.3550814291539349,-0.3759723476315778,0.014575574652945874,-0.06965117086274288,0.2560684109176691,-0.11209412252447033,0.14352790811471577,0.31611180635610114,0.0563772154292141,0.04537021703339247,0.12492761983517994,0.024952098787370314,0.14282035068750482,0.22835102575943828,0.025393006373035952],[0.0903780771451935,-0.30300600435543973,-0.02250012161870129,0.28797510013391314,0.19886698453227564,-0.05791171104293029,-0.3551977908451469,0.17484548626907845,-0.1443034475359826,0.28844625627995896,0.11235609441224363,-0.1442361632214172,-0.07511186043106674,0.25105312797469975,0.37801773100545955,-0.07159540450641418,0.19753858040529743,-0.24186438634727744,-0.21866020874182784,0.016146586953056746,0.1766249015414561,0.5592308548411996,-0.03947478222299561,0.0874844191609177,-0.21259695481100108,0.34398260155259314,0.35234059822229985,-0.16641261912173236,-0.23521520424245926,0.278009655203274,0.016069571326620593,0.2951180146938886],[0.15741310738893596,0.23225624063408754,-0.04321765778170138,0.09399018581342955,0.08036562617694121,0.23265921124127936,0.3248949986934971,0.2671634481433155,-0.12256380414484935,0.14438936388576684,-0.37519187520812447,0.04018531394154909,-0.10006228348441532,0.1959201746226948,0.5273206404140596,0.11717331729117225,-0.25576383260055024,-0.19847123667798375,0.026308392992954937,0.2921742999165171,-0.060604963578419546,-0.1847954700425129,0.3156655838730864,0.01313223967342375,0.01784352256861705,-0.26690582225142645,0.5363772222622997,0.3833548278595069,-0.19660748842901088,0.2604106491350684,0.2530644300115483,-0.22103951883728878],[0.5060869918949583,0.5173753004874881,0.3633287195859807,-0.11761470285163313,0.18451229059309796,0.17786035864038988,-0.3801426832611171,-0.14072114665342367,0.18284063751692362,-0.21963406113058861,-0.06612161167823208,0.3317886072641661,-0.28859188154681825,0.18625913211428977,0.3082316296021319,0.20027395815974644,-0.10743919823296735,-0.17111518723323438,-0.054555687605235624,-0.025417510336712208,0.3119170339005643,0.16017662099741853,-0.23256239627376868,-0.030782803213922898,-0.24267580838194686,0.3378889787871518,0.11193374340461043,-0.06668840314824033,0.3189582243747083,-0.16015913983292293,0.19012767662930302,-0.08134653280627789],[0.1293269405458966,-0.14795703047382597,0.23064357024864166,-0.24775292953908737,0.018497730313510322,0.23069988782455642,-0.11018318164572874,-0.046090186502996844,-0.047670154980644676,-0.04607838340783972,-0.038293144407800704,-0.16901307292127699,-0.1248277728973809,-0.1760889645970546,-0.01736203187444002,0.0763601374814037,0.06016223414325795,-0.06994378840557311,0.04233816536473058,0.3964352149858265,-0.4277761849369636,-0.05572521860094496,0.13613364003612233,-0.3591116845607855,0.03842102885691168,0.1345989156707438,0.06440469221335487,0.38055024875201715,0.42048731946073686,-0.19640067981063872,-0.12356352892895091,0.07380534078746484],[-0.2473645100775207,-0.04093052449489846,0.07877808891662919,0.10300262115033619,-0.1547157515912587,0.29550779811084205,-0.1835083376175501,0.2728000597219253,-0.19695915849436565,-0.09611737350954103,0.2605738218125768,0.1869198074014854,-0.022659354933147195,0.12395293165156748,-0.08362489676497428,0.18928493775287886,-0.09931103987190788,0.19004675086336534,0.2357772634789212,0.14787812868607594,-0.1220255935926961,-0.6086970284253816,-0.061545590683775804,0.08301921269767318,-0.056841090680905926,-0.1317108143732403,-0.09315971699420376,0.13850107734646994,0.335108931380425,-0.043542806458177596,0.16242318291858154,0.13628922189135756],[0.3391498348230789,0.18371093567709096,0.04748868570756149,-0.23148654865609072,0.5030617524231323,-0.04741221597121164,0.14670470264483867,0.08199316283895239,-0.17582396591563473,-0.43209648777333304,-0.2583022765754292,0.0018890878362041936,0.021251934682589884,-0.1809696824700682,-0.16119275852985754,0.11727511719072235,-0.27734541500184534,0.024862251705112894,0.3387895591995945,0.028903460217459202,0.1336749248813823,-0.5112389873723122,-0.04131590463556047,0.14518256425929962,0.01563223381643786,-0.06995988911788725,-0.16425149853001597,0.11550438231496883,-0.16747663036632646,-0.10196688699056695,-0.09009396763525629,-0.8317735298435143],[-0.1619232218633422,0.05469214330243377,-0.21592297814051106,-0.0032289762453737267,0.18784031811058904,-0.40920201593126054,-0.14211003627927984,0.26267962436613096,0.39477693363784194,-0.17951839559469437,-0.14458443178869906,0.21742933393049982,0.17804363401599885,-0.15477016917436928,-0.25371786743712227,0.3115114618842447,0.38236498295395477,0.03657984302889468,-0.2167628599572192,-0.48191783735162896,0.17862328342837877,-0.332493310834037,-0.051612878136585195,-0.19947609022647553,0.7595318025844774,-0.035422905605707634,-0.32997561694980043,0.2411778516858228,0.11168157743286022,-0.12070955711699048,0.12436361080403928,0.21460946071762396],[0.19862422125515786,0.022055950596224585,0.2755030473181013,0.10726426981350781,0.5162888925831144,-0.040680957973123016,-0.48546364940071773,-0.3491304839455535,0.4481177385942406,-0.45854623748060885,0.04089152296580746,-0.23979921147580802,-0.14024068188499214,-0.13242497617288668,0.03874038976468621,0.04068516793889159,-0.35125062400542667,0.01720164584876543,0.2962180919709776,0.12476628461911674,0.6376834599234166,-0.251721932724809,-0.5222564458778056,0.0821509760034209,0.27993791510764116,0.25048342734189877,0.05881986709939934,0.17549189691664133,-0.054596607258382765,-0.017709997678455023,-0.3424071025911852,0.3126478962234291],[-0.22138891248532408,-0.1152935837071995,-0.05286336541031025,-0.43426849139588075,0.0653252825536305,0.2809178320095197,0.0971267526808596,0.24445599333985055,-0.19058101487977194,0.1049455372295996,-0.32743282788423966,0.10676391675256301,-0.31710858913752554,0.05027243197641172,0.5030415668004297,0.04624863933016405,-0.2390118469919553,0.1678690835598573,0.22682822830863303,-0.4228563653538941,0.25375853404585375,-0.11533890066724034,0.10436361383321881,-0.15506199110940205,-0.3149800227657267,-0.27152887969600153,0.015172867176845559,0.23179074860964888,0.04388472469453305,0.03612598642660725,-0.20869912474056546,0.08950800171977583],[0.2232760116026501,-0.14709366156597067,-0.6116524135636338,0.08922672999548528,-0.44451492666904235,0.2299792484846625,0.056202107523912026,-0.5164982035799184,-0.3433141222544539,-0.06056480629558283,-0.08306616805329403,0.05419612361794556,-0.5396558046937168,0.02175702804148708,0.07894354408526973,0.06718991749747809,0.08808142256072392,-0.018116080361424557,-0.10526934325921972,0.3269013020123811,-0.13733934280318702,-0.1460649881823516,0.0278368805739764,0.09541718691192026,0.08835370806866284,-0.19568208186900563,0.13333324348509545,0.1270799697522525,-0.18416776089619138,0.07097096607678126,-0.48135598722338496,-0.1648136708597703],[-0.10492144256559703,-0.07610723951783047,-0.40072197953702077,-0.13179962745929272,-0.446793516408684,0.2369569009532293,-0.27454073966839204,0.41631092141776227,0.007478143064502131,-0.2987566575859027,-0.055877981159940915,0.06509157482825828,0.46151615741508495,-0.4661735670722797,-0.1261532647406326,0.3763785577212277,0.08519444019330034,-0.025097155291631777,0.4854394896707083,0.15452999968052494,-0.13044341460772677,-0.14718510815343389,0.27062306716805595,0.24663987766370613,-0.22482779521533802,0.11873686078181202,0.05979999284789067,-0.015257991051793159,-0.1755727478509609,-0.24414385804261543,0.018523091746466113,-0.27795514347085915],[-0.4352821514963336,0.21077088615598094,0.019150356131930935,-0.3382991753482428,0.009317362268540937,0.07246131398158047,-0.05479853179905577,0.08589103373250176,-0.10972464904592343,-0.24666812829480744,0.2219150321180587,-0.22582427225859328,-0.1256776450616075,0.4214676394511237,0.001252958162843812,-0.22188967407846874,-0.3858154644058973,-0.003507442069687213,0.19387648006677277,-0.02899043609240577,-0.05220845390367555,-0.39991409856407845,-0.25266809517661715,0.009644274404073571,0.4258675863094773,0.20852680384812083,0.31736247508795024,-0.6774404835200335,-0.02436235801913498,0.4500117461324467,-0.46564106330922517,-0.18586124648475055],[0.17038625946671312,0.07302463073353063,0.25029847123340804,-0.07436451440795089,-0.1856919568593683,0.14379345657295234,0.09928544522721967,-0.012773373894730971,0.001813485124219622,-0.22584945751442304,-0.026300718603232513,-0.18464746167536772,-0.19355556719201808,-0.05055693110214229,-0.10822849977008019,0.08127513876424086,0.04017644967593735,-0.002168896710322017,0.005215639349642849,-0.3594804676127452,0.246420548196625,-0.07517798128462595,0.07402749759219382,-0.07445535838742898,-0.16575173500472168,-0.004228948497225844,0.3071522350405139,0.04279606455844071,-0.4680341873307057,-0.09216810372306633,0.1434820669084523,-0.26041043324108804],[-0.22050709668222815,0.024951902917593895,-0.07512238212182176,0.21894266186913308,-0.2060035942080866,-0.24540000427738717,0.4222206513216453,-0.348524997106267,-0.32730715525613285,0.19584088107672656,0.07504293610251934,0.1412103832409162,-0.2212941858156397,0.45145789448037704,0.3123387981141282,-0.1523523880436406,-0.05664259387350002,-0.31794333363807953,-0.35559012752984154,-0.13771451500713416,0.05351970947734238,-0.14061260443221263,0.14546843023320885,0.38544336090576486,0.14170386930424267,-0.05274819249254082,0.18354332563332354,-0.5612269388817399,0.2641073307045308,-0.04443334326945221,-0.14107320484803582,-0.23939964211388676],[-0.1488058715608866,-0.43504062028625684,0.03531096015067696,0.16234841070076295,0.6248133161005087,-0.1603447541556866,-0.2499170813131851,0.0879468115246995,0.07756276346850005,0.4326255142558246,0.11122232541418425,-0.00024776764868726414,-0.08532782279575987,0.20223520634881775,0.06712110992265613,-0.13797552875248684,-0.1720948313157096,0.2056548107000633,-0.013006937733231774,-0.14225878472950132,0.19353240153344187,0.1483111214698569,0.06858426101207407,0.0764822087070784,0.10262782666444345,0.0039383632396413635,0.3092792282784782,-0.028065221370242942,-0.2240297192185641,0.1728662527959813,0.09242345998749082,-0.15180195333161706],[-0.19804383552548263,0.2955755407757429,0.030223593420380473,-0.42404371822764736,0.05278148340628424,0.030052462722069035,0.1993359547810778,0.2436367242278001,-0.07986539392981855,0.17880255296838835,0.0658422527493232,0.004044512013248845,0.20252348013906998,0.7088608014078399,0.2130901626791124,-0.12991302351122588,-0.11388759097750159,-0.48188389028474377,-0.2848802741292553,-0.6454925614745789,0.2860940385136909,-0.030241748330221602,0.3284538881874082,0.21693239645590673,-0.056770349883656646,0.09233567836101068,0.4438904811651925,-0.04623575640932505,-0.3586443230119154,0.11317645302090505,0.020916097219233175,-0.07209420487408716],[-0.5041922078489713,-0.3459942043651042,-0.07415454040619426,0.16663467823954398,0.2203847463634383,0.021678607359508256,-0.01163797589431152,0.034189669747287335,-0.07911395428436223,0.31892641573611064,-0.33418836664791013,0.3372494689778788,0.05719648707538934,0.010017600630594323,0.2835624243383879,0.5033555053436602,-0.0018631016560293457,-0.22904209270195944,-0.14859691964191446,-0.09127104115157858,-0.030911182731930855,0.18166459965460763,-0.057669454480257676,0.3694148898076632,-0.2378562013888394,-0.13405653533409634,0.12997597967077598,-0.0007991488433248095,0.06216868969583157,-0.04222748448806075,0.06982837473730656,0.04047085955348362],[-0.5323331350470978,-0.09877231972229562,0.2709901156310945,0.24791183563374514,-0.11748724528473825,0.09559272663438674,-0.05266244806065326,-0.07170795715101509,0.07144013043459263,-0.010167798604264559,-0.08054773984687738,-0.5433866577658037,0.040141270570099676,0.07836195073779743,-0.380985772699026,-0.5190485017423003,-0.3224575792512879,0.47857293729977407,0.11024448681902273,0.24239392634864076,0.42343771734264923,0.06911010512842937,-0.035210036400079206,-0.40366969653987667,0.04808170251105825,-0.10603218249098566,-0.01143952820399996,-0.2858948559904902,0.49994622945527256,-0.11902654091328166,-0.24394989416177787,0.03942528005607694],[0.02974081600428261,0.3951901484693266,0.013644555472034714,-0.18790894280671264,-0.4662839809792264,-0.02960736709514502,-0.07022936107091704,-0.04832925042290444,0.009743367912721398,0.16699892986805057,0.28114056468896337,-0.14287560871638638,0.16728634374444382,-0.6425609263941056,-0.04820586504095397,0.2991285903349041,0.13067579610661284,0.1458357571716788,-0.10366124216053096,-0.17504776427130436,-0.06190165953276978,-0.12216673018752436,0.12479153681001016,0.6021579058737093,-0.1393980950011382,0.27077911576704794,0.23233131117266947,0.13544467518788095,-0.15789880726551803,0.3253642038729538,-0.1368260542407109,-0.19515060921204522],[0.14652069897819517,0.16553441352590562,0.22876371951148539,0.07871632192733918,0.33347844794837206,-0.4210764740007715,-0.18834964781345764,0.004119218771684358,-0.1666844214138876,0.16238519861061243,-0.13015357280183318,-0.1981289099666229,0.0829426296317584,-0.26798735022026315,0.31103443677579573,0.13327846580489605,0.08835865168296797,0.1201780934006427,-0.13308373986795133,-0.2595191001361867,0.0015903809651699932,0.07840727482503339,0.38619355614856005,0.42141194426099615,0.0972431689772664,-0.41333314015576395,-0.4596273550204777,0.0748827803236344,-0.22279746680729806,-0.29098626693815094,0.09427041967883971,-0.293794074384444],[0.06694809049418425,0.3303924830515325,0.050888029819602484,0.7065258908883003,0.3235023827959867,-0.1449220485678674,0.4119665998729526,0.06943784189618674,0.13153390420201252,0.22255144144188874,-0.4722997230572205,-0.09786623856645567,0.30206427304075834,-0.32636375803972567,-0.03493937038705888,0.10690789706602241,-0.28039159059368773,0.26275267299565047,0.345837016838311,0.3041230358255699,-0.24468427028019235,0.015421688159931706,-0.4139198136757889,0.21478312140611738,-0.0001676435299303672,-0.1475871332878421,-0.29252341570563956,-0.5255044634810029,0.3109040702515437,0.48468060512903705,0.05339596703903498,0.013609031071496459],[-0.15325133886981193,-0.13804294718934648,0.3265826896049744,0.020141299975130776,-0.3741636058430256,0.4718598524515847,0.569273363918697,0.06987899601303293,0.003901716782641443,0.07270818354473751,-0.5475607961551163,-0.010718323599938174,0.22362012723868663,-0.4446151594699163,-0.08640948546430599,-0.4550442961997496,-0.25840940341355934,-0.18643218330117836,0.06602522906040878,-0.2812957461841206,-0.020426777485090662,-0.2160149016154642,-0.35492226821922535,-0.29016803663871293,0.05055123371887696,-0.05604212972271488,0.21348561662824192,-0.2666300189417552,-0.008470637577806073,-0.3991616832466453,0.08567592991986062,0.12235173283140183],[0.00563565016948054,0.3822190448974775,0.3425481403885728,-0.025145446029164263,-0.3275450870451928,0.22127386173984961,0.059568657063111784,0.4018001957425498,0.24903865417456372,0.3631694063645867,0.03253629326938422,0.15069324714946766,-0.015157457535181836,0.17773964500147896,-0.30069439858523067,-0.03413505776931853,-0.18555058278214018,0.15200948031597167,0.6969998784844215,-0.15661238479352127,0.2353571479749249,-0.009813983352943034,0.0007127286113790008,0.2578577057282192,-0.11525163452715126,-0.07958085762370008,-0.2601726219536221,-0.7821464363474946,-0.5560701458476158,-0.2118634095582994,0.1693667742812189,0.1949483804073096],[0.19756631946295186,-0.24550785942049205,-0.08302930474173897,-0.3493725430287507,-0.47565980950977377,-0.23112731650197357,-0.2071267024671042,-0.017126151811196488,0.126899401595362,-0.05197417895505742,-0.007266356694989631,-0.13932108892918818,-0.08721380658584334,-0.09914701087337453,-0.08775617977669037,-0.19034514793129165,0.1787926577131269,-0.20042463602736285,0.06985013266261138,0.04239595052859411,-0.24985567752401383,-0.1598375476223824,0.05441487356726549,0.5591464703965302,0.39239330555349894,0.4829674015145605,0.12268727198132975,-0.013771213995488795,-0.10223955950426782,0.2305236686065155,-0.21765882532592226,-0.22318442139518782],[0.10267830430945893,-0.11971252869156407,-0.3190116443761069,-0.297400539846687,-0.2887832223428676,-0.02165212024187687,0.029407825358015796,-0.09400329831363079,-0.13219972102906954,0.19489148590807545,-0.07033684622135712,0.07234961108028135,-0.28168653670314653,-0.18639462203237517,0.26918224671112034,-0.3101394781820262,-0.15609199918136357,-0.4116945864761566,-0.23758185333802115,-0.19286359217040763,0.01733739238716917,0.10528431574437815,0.19504623179346062,0.061166417630866825,-0.6648809075242901,0.22124216257245444,-0.032072957830915835,0.628217354563211,-0.3676691596248398,0.18710736185292806,-0.1689998495123805,0.02704901225802303],[-0.19541513472194602,-0.07792024088077348,-0.3831354249876833,-0.27797515522963345,-0.10586334032870086,0.21600092784575595,-0.08580011214091184,-0.12053344699994843,-0.18223822404259782,-0.04432139208420888,0.18919321778187953,-0.20618440299095733,0.08522388668900524,0.020725626839184073,0.11654768181975954,0.14399475908429007,-0.16262464029823737,0.005248366468771982,-0.16691526910560814,0.1424995358594705,0.05290602266545951,-0.2953810529978111,0.009466860409005632,-0.8417555368950486,-0.5311104078355315,-0.002852506637847683,-0.2530200183459525,0.3990312718444693,-0.08832710198481053,-0.008120594166360249,-0.3023408795711219,0.19688134207217786],[0.1850228966150238,0.3044122498861207,-0.40616736575704915,0.4818922793443096,-0.21795167637146223,0.1873230411984095,-0.11682780708920099,-0.11251251844095811,-0.3026667050523006,-0.3823499926916778,-0.3449377073471448,0.07727490051493213,0.021558927105305117,0.05564776434867226,-0.18198782296217222,0.38254637442693745,0.13514092502032568,0.19834261687563692,-0.049867477288183144,0.13648089468146066,0.26919729442108364,0.1773057423028159,0.15620045116706144,-0.07071719123793198,0.40351707699674516,-0.8113086493781649,-0.09907296423413804,0.3542329624299972,-0.04276539462840496,0.27742852454264094,0.02934752273647499,-0.15795483392518495],[0.3700909644404987,-0.1671346603894168,0.5310472186967307,-0.05097869833602667,-0.1134715246171149,-0.062301644244340135,0.002277617619014014,0.26401371955166886,-0.5305128657341843,0.3658633723877192,0.3223844148920174,0.13334114999464433,0.0744983442021944,-0.14417406611925512,-0.09321339958160017,-0.2918216738706219,-0.20997388845210518,-0.0995140505614214,0.38051771483614766,-0.5683393061072415,-0.03423680858541792,-0.1795466577539173,-0.05877468798072374,-0.19875410733102308,-0.05264625068238901,0.017250777372529773,0.0059350948011103934,0.14313587470047023,-0.07699088578097682,-0.15041947152513485,0.13978580971586702,-0.06619759082740592],[-0.2205646436640241,-0.259500100159614,-0.08333418852338961,-0.021595684501287366,0.2009695265818986,-0.3326497431599769,0.019599011353183496,0.37314153757739027,-0.24309412726189725,-0.12929744305736665,-0.35770434929301714,-0.22393739773975951,0.08597647827116958,0.18875604951876163,-0.024357951515771734,-0.2713795934799365,-0.3068230212966771,0.03819466722344504,-0.09733990814664367,-0.22342289870555262,-0.20627594480655945,-0.12113629099665953,-0.23712052365399794,-0.366342457712098,-0.04587083704837273,-0.03132386487275084,-0.14986527547644263,-0.006604472971657731,0.051967349140451057,0.05701744600677879,0.20770603072219496,0.1361012435277896],[0.2307076034819212,0.24651661839613062,0.12608385653070814,-0.4354460224873648,0.3149623235125537,-0.1381065243623268,0.06128336707884451,-0.2321117908580902,0.05558152874768584,-0.11973012333309721,-0.1624094270143257,0.006256419218466078,-0.057651188115648636,-0.2154686673651593,0.10402388606767801,-0.3855269129521631,-0.10944129753076598,-0.4078630565682926,-0.22500045675434513,-0.3273769610956727,0.2058489680657051,-0.3535278894546883,-0.0975622998095582,0.01197534983007337,0.32577503730479823,0.030883793024008146,-0.2955760268375991,-0.010583539413881132,-0.15471438200307897,0.04955613905162306,-0.1502481742245442,0.03485603326899625],[-0.3635987070157284,0.22375830379157255,0.47223409182348003,-0.43490509393915994,-0.1034105820188378,-0.3971553230683337,-0.15193160186876084,0.16794506669486622,0.18380659256055978,0.7964997039626648,0.04879461989972844,0.14982539321099503,-0.20921700939476398,-0.3087161640585447,0.6299593755785453,0.13717496863213827,0.01260064378159807,-0.03679074992523552,0.1557226597160297,0.4030801535865235,-0.36119688098529157,-0.16238443943778502,-0.04345946663196464,-0.00617622168228828,-0.07704176738762175,-0.015552249712482282,0.045780317485361426,-0.010730294282752522,0.1493345686039775,0.21909184924631922,-0.09518579159885318,-0.37422510090829836],[0.24526743666117531,-0.40709732432628926,0.4753832205885815,0.09132595640358826,-0.12093091259767037,0.16968640733522114,0.05011015220574327,0.4426962715790694,-0.06507523350592165,-0.0937460121281049,0.2532866096497474,-0.3514492941723023,0.5873859983418466,0.3657580434323463,0.41620456955705143,-0.06430445562457149,0.008158206560058234,-0.18769187588309466,0.1346481348537407,0.015438735336867886,-0.29316154902812047,0.4804093878433633,0.0012681811777064617,0.07314811108900887,0.29793048693502544,-0.6441054802532407,-0.09572132002833043,0.17208408152404828,0.5660251743732292,0.25076747779732256,0.1274944241049649,-0.06953956503352655],[-0.35162152074528213,-0.01900177175218491,0.22874022964224994,0.2238662819528676,-0.46209471736598706,0.23642024889953533,-0.3880425381631412,0.1460361882636441,-0.3360199022095393,0.35988801827010036,0.1536422465462623,0.023992763568777435,0.3575445592097726,-0.13920265292578568,-0.15367729007855363,0.373809583369176,-0.3686598033912829,-0.04380503599066868,-0.3455075533036088,0.24635029457345783,-0.11713502701478165,0.17053908378828594,0.24956325907574747,-0.058700005338324084,0.1019765006486555,0.37340772037726794,-0.2570408584815177,0.11877310245293891,0.18993110038490743,0.4186615904783267,0.16152666479693142,-0.691862873865277],[0.19867413813996157,0.6779023530617316,0.24532637853049735,-0.0801467523188101,0.03302191317588425,-0.048697685114503904,-0.07530968321455918,0.3180849233386967,-0.1833040655007936,0.052845021943862536,0.18835056363955086,-0.6383288051378455,0.4372475753213412,0.36393874708805113,0.07665759589225743,0.6568919018955656,0.37906798272386694,0.08995451735066172,-0.00004846405719628777,-0.2524670691350277,0.13773129779148693,-0.17088032249309343,-0.46933210784983553,0.20792858908206924,-0.6488536514752968,-0.1356920927419908,0.0487519466074519,-0.4162711019297284,0.08079611658354198,-0.1994630471552543,-0.6738951876032662,-0.4126523673389862],[0.5002096661539362,-0.03899903146415033,-0.12803185788510824,0.22920854502466773,-0.25770259930386785,0.0922973310997842,-0.2748060789946741,-0.20171396251513488,-0.0957306532686865,-0.14305888845440293,0.1379930423650644,0.08139525403226873,-0.3748120979522485,0.058691965171314725,-0.26133722157819367,-0.41853730463440186,-0.11266902669015721,-0.1328583931118928,-0.07880818256653793,-0.023993271449746865,0.17224664028343323,-0.0015951164320611604,-0.3985307697113606,0.04899209940169047,-0.09030104623352653,-0.168950451159226,0.20537180437540928,-0.20553324620795982,0.10122221773767924,0.08746305839854028,-0.41243568263069535,-0.12907822962234886],[-0.5016445435036622,-0.3203839645033776,0.10837464641178411,0.19995973722043028,-0.021869628237562357,-0.00025392349147778455,0.24287073004615545,0.27483510883095813,-0.49837655490829563,0.4134118410906992,0.1026296752204776,-0.05027701827824929,0.014355587419738995,-0.12251833292842478,0.5731375712465852,0.25894431102239196,-0.04394848907815997,0.38579988519874037,-0.12769510171030007,-0.312043178398077,-0.22253525470235408,0.025324917599955393,0.058849041323516725,-0.26203373246268197,-0.39025849329783474,-0.10293793688585058,-0.19389390853115174,-0.1754157466879061,0.3448327358555965,-0.1285408845100793,0.05161364264591953,0.34134063714060875]],[[0.06710652234900646,-0.2034660936876238,-0.23867374259158844,0.10326385994795283,0.0797005877408659,0.3930851826740532,0.02626341731358683,0.449887459069239,-0.1318886792755093,0.06582733024883974,-0.015352418995518742,-0.0650106259513191,0.2365535839103391,-0.1467508232226528,0.2821942955283093,0.29437765163861496,-0.29331292334959885,0.10958518558092076,0.14307499770153942,0.41461462498155205,-0.04119449432400279,0.24357353940666215,0.10710834562767363,0.16283561625337686,0.13590977587803993,-0.6166430541726324,-0.12647226334649952,-0.3054991440199975,0.1534119869867465,-0.3320257722760757,0.10339969862030958,0.5522615967875177],[0.3262904377580152,0.26944661225127525,-0.00817174561892989,-0.1363334530034332,0.33394966122523556,0.29043546127988923,-0.06418822125324201,0.6234616558212808,0.03825335927371631,0.0023814220299221336,0.46851323353447366,-0.467370389419048,0.016758044390712976,-0.04741626785977583,0.218465599483189,-0.13178361177815257,-0.35363622251296006,-0.29348659381374304,0.18002596291939751,-0.3033691233579543,-0.10382733280095462,-0.07518034305158214,0.035613440537628126,0.009564146162573058,0.05330531990611333,-0.09776267284331135,-0.8174306363363157,-0.11617288041942274,-0.349303342636591,-0.9207783599533546,0.10706874579714304,-0.536118345323169],[0.23384652585300034,0.098484807603854,-0.07078030695539428,0.264301456973731,0.06703739112318806,0.05010210765620558,0.3101450387806162,-0.036501119872217457,0.27654909659501437,-0.3489015896832819,-0.45833724353695854,0.004932254711538306,0.23420952065090792,-0.18483359841838679,-0.1936394043400624,-0.3605537322339529,0.2152047328125017,0.179022253619284,-0.040682152084333595,0.03052383892569795,-0.5730610333850897,0.23027982972351416,-0.0318061486258721,-0.15025253632243943,-0.44503892569883063,-0.17852824457631802,-0.28214714968022564,0.3049872970847133,-0.2580067510007644,-0.05315594630368023,-0.03505156426940246,0.1986986389736561],[0.012175039226720419,-0.19706253034579307,-0.08801744035480795,-0.2870439263375877,-0.13121744931629023,-0.05957604488619524,-0.13428327004482396,-0.504514846443207,-0.24064908502235538,0.06801460290200194,-0.3715225968462424,0.07139682127425527,0.0015786453816257254,0.1845236927958954,-0.031214383709117867,0.20745653943091566,-0.37324272232146277,-0.5010638129632612,0.3093216872867795,-0.0026411675027244895,-0.08528516339397299,0.3866829960892067,0.04039478015225173,0.6119018727561308,-0.26275616428244486,-0.24216631517501225,0.017116615511716463,-0.13804405827226604,-0.11969512514837825,0.12825913344074846,-0.09473354429416878,-0.4603195129090367],[0.16643809176203864,-0.21951212643929524,0.5988899258069869,0.4013783428988204,0.2782002260156537,-0.37888695519957066,-0.14600684193782484,-0.12055662916429682,0.03566372345724834,-0.28607071437069814,0.5239030004686521,-0.0907885733101239,0.2837217550168603,-0.039636557182847004,0.40077064213449115,0.3510988211973766,-0.1260452439779475,0.21511032750877493,-0.030825220855539657,0.1361339504563671,-0.060652951145160526,-0.1302896285273259,-0.4032719408470703,-0.15096182650580928,-0.07056098903997676,0.13080682307069405,-0.3824200999086292,0.16405032424224827,0.006330522452465839,0.1529379061654257,-0.29135177708201165,-0.2825519512802115],[-0.17658224602441028,0.0066517322241256595,0.02816443918140694,-0.4170841363756496,-0.17348408190405631,0.03143845173928401,-0.16521709350817476,-0.09300133903101505,0.1499439076124382,0.09226561975293304,0.20946325139312721,-0.20796990722786846,0.03156928002203072,0.004862345483234024,0.5319909449560386,-0.042472875269878384,-0.1755860875092423,0.5630374173316344,-0.16594992844651577,-0.15582760650007105,-0.23373201599546434,0.45588057275315486,-0.3292822014993566,0.6917165974501936,0.11135133420487742,-0.1712769117661477,-0.1754557868448945,-0.08723629415046062,0.07597652008115334,-0.12332228615116636,0.5790457637937324,-0.4150030298321185],[0.33982690246986885,-0.3855571947311669,0.12007202111413665,-0.18448909682564768,-0.3525802503164084,-0.29886229418678284,-0.11992800932334144,-0.010667846377876291,-0.14190446780471333,-0.307729388973124,-0.10189219120654029,-0.12928516679679164,-0.17975252916943393,0.1111433405657081,0.4872328472379627,0.20274363352402025,-0.08120610491772663,0.27686629355566184,0.4035898777800748,0.06679780140001278,0.20433485889796077,0.08232808246940684,0.1320079262979667,-0.3726222350796335,-0.04475121628908271,-0.10308649522955908,0.26093094688958546,-0.06067304184833551,0.2340807380165194,-0.10771371147108258,-0.15891686088918322,0.19379624680365318],[0.08244431155104426,0.12395515605204849,-0.22756962715734294,-0.15218440340264777,-0.06281151306506298,0.3290636931532065,-0.10862616825140063,-0.26920264488865925,0.20046139550003342,-0.37874432231082616,0.19071550570022933,0.31872140458514914,-0.03684691866534711,-0.26328375167117846,0.15536440646715338,0.04858207314108318,0.10057654480981232,0.1674300314957595,-0.19258148174732478,-0.5207025274633135,-0.14131264556666817,0.12298990723662105,-0.0015824770276433938,0.14397979129330643,-0.04091185349257818,-0.0675375821031886,-0.21631984376328894,-0.10521545068482299,-0.17900750363626064,-0.06842406309838209,0.19692420707890435,-0.5390700574830177],[0.10776512762375536,0.22313076816947502,-0.25144460965801313,0.09469204907966094,-0.06161823190914546,0.031666712218415057,-0.1385495160762259,-0.036105935505591345,0.0294790453091722,0.158643636480726,-0.23369060297892963,-0.11727445644765264,-0.06887931336925712,-0.1761792759667329,0.16057787677565538,0.001345441386590253,0.14955268130915228,-0.1522581420060492,-0.04998223179853062,0.4854070873830687,-0.6748068179968744,0.539128700730912,0.35546604510654406,0.5529819091157487,-0.2284214736614764,-0.004601216001464238,0.04886768024949308,-0.11813817170178757,0.3267464755329392,-0.11034238195753707,-0.05087640392723442,0.28286536607912793],[0.30132341857773276,0.19343311752781153,0.034975674452402385,0.24946128908400347,0.10455230293322966,0.07049319545648823,0.09417843496683408,-0.19531898230840677,-0.39616895627956944,-0.3491292162967,0.34273166702564367,-0.0029084754248357813,0.0014972901953452667,-0.21183892220652506,0.08683205458131739,-0.046454571266850445,-0.30458214777258835,0.25331002042902656,0.4508424011721833,-0.27110067921096553,-0.1897801367863775,0.07923299695719963,-0.08779179126499531,-0.6517302808822678,-0.26283907945393786,-0.17321593251667042,0.24557891272350993,0.17074557058092338,0.151337593924059,0.029658586506158234,0.2417653166066368,0.08736828412701954],[-0.11550131040171153,-0.02856889420294894,0.28160979499079164,0.10410289634865512,0.2942787903284534,-0.21580905915396356,0.22961138201614495,0.12327511863509992,-0.08826506376821226,0.06903089603170606,0.14985991084555814,0.23485743330895872,0.20409479608420733,-0.10836787111541028,0.24528854889304874,-0.13101830994652694,-0.1730969333189094,-0.2009785023283138,0.3721872490125314,-0.10378042859968215,-0.48979604931909215,0.23439582319239147,0.37177326234380526,-0.07794148760305986,0.12497194268100971,-0.27367729385017353,0.18220803971463068,0.0065823866566557775,0.05254756502595558,0.20256488585470833,-0.03946259907631194,0.39619319939991576],[-0.03515720905529962,-0.3670105976938543,0.052541919134132635,0.046348857797096625,-0.13622402534333625,-0.027874136859572816,0.2401391829479688,0.026524835163814896,0.33919476505032103,0.23867649155481968,0.20134736557022978,-0.47396520251260593,-0.11710965582396554,0.19607057475368075,0.02741902125126697,-0.05239501107940182,0.013724561270223996,0.027762990758253465,-0.19948379559820298,-0.09845953897853692,-0.09840497369615282,0.25363791202615127,0.013126942336671905,0.1777060113664016,0.2669580447913288,0.005372187934598278,0.12649938678669798,0.04475087931024295,0.1581442478828451,-0.30185314990546,0.11143512477231494,0.3084045906611428],[0.06889357407152788,0.5203638383015344,0.18935814313046379,0.10595695619498373,0.07211967002626388,-0.3551422627316991,-0.11133256568280933,0.07794714546654065,-0.522636868678063,0.22170609148549536,0.19139283094223022,-0.029078291468238763,0.013192973608821162,-0.3515203768801315,-0.26067153808845805,-0.07157516099895281,0.16353514351350135,-0.19613799653913322,-0.5002828185283853,-0.06648065289316067,-0.21688296672931107,0.12334351588067181,-0.2050979295885141,0.03586371740195238,0.2374430434685035,0.1800371784267428,-0.33599629946822857,-0.38215344663228407,0.11254204014555468,-0.03270076346708019,0.07496551603747571,-0.15805670955354492],[0.05981835555044689,-0.21095347294304273,0.20182280748295073,0.13948473980525444,0.03379058679919439,-0.2015901198731945,0.5032748701820726,0.33145416262228217,0.03820687634646131,-0.22324439224665216,0.22830937675604263,-0.25059641651706593,-0.03669282029488937,0.022866870542146374,0.18536323886687525,0.036121007596242025,0.4177697817322749,0.1264422957820673,-0.2662153321399595,0.12044837975575119,-0.2045854996178361,-0.0025307074963762115,0.3662527566490577,0.035278996610385624,0.411378069707157,-0.4063315105409624,-0.32212482578951,0.39600327616378433,-0.012386250859212583,0.02497306237532071,-0.5748769146892142,0.29367490603569],[-0.04439468337938219,-0.03394280923890052,-0.18807479451559417,0.3699811562459875,0.44206918702390813,-0.1017992878691118,0.449364068290264,0.23750900002938954,-0.07440548676170332,0.22369580229186392,0.1779207468904665,-0.32110120551755833,0.18044016600324103,0.06854748809150762,0.3157786992459515,-0.0741773696747518,-0.15867136914406268,0.011393055330652201,-0.1422616328331957,0.09092081151856446,0.10884375115744654,-0.011706305651236187,0.17761757560412375,-0.2126011485060144,-0.045333353028073085,0.08285819520128532,-0.02935496672390175,0.46657870616510555,0.11301953207785942,0.07939025092299874,0.14355404971085423,0.20819929500606663],[-0.1719775930641173,-0.4437615676624037,-0.013402089760259016,0.19458756613576692,-0.212619132297824,0.014812480107840937,0.07204288422770079,-0.01960405871699205,-0.22916406389297744,0.013460531011790396,0.1762206636487224,0.004911350581171276,0.008728613764440347,-0.032752182060079266,0.3236228673249091,0.315302935338433,0.6779361906220266,-0.0019247689435503632,-0.048283644369010205,-0.0003765647573680627,-0.40154662504045574,-0.24660267777722442,0.011143041441098669,0.0981276696078025,0.07619237984578796,-0.027765994862454575,0.11599956045605232,0.2391121428197442,-0.24840266395272026,-0.09555536736485414,-0.09920512826573545,0.40553611862343275],[0.35735014492282835,-0.2893251496214427,0.012468292447576397,0.32715479038224854,0.029409195677136794,-0.06256587391319872,-0.2787422947255618,-0.1632409976259829,-0.14069314411417055,-0.26385355148051504,-0.25055899714750013,0.051708684989030966,-0.4376988739097715,0.05461890504803347,-0.39859428380806466,0.04761801835598799,-0.3600779991992138,0.13020122478797122,-0.3590444294796312,0.24574801453023826,-0.2903544819666024,0.21357939289603373,0.5111740297735377,0.018079668751567374,0.2104007620915114,-0.03283293175292791,-0.009280887175916689,0.38263432935953784,0.08340520258288199,0.15339456424644088,0.2808775692579091,0.23334512823004197],[0.3617600835661889,-0.30027018050577614,0.04224299326733232,0.215968569852591,0.2539878966994205,0.029273143874262407,0.3431496197117798,0.08784573479972123,0.21354393400034008,-0.134477908216866,0.4947333741562445,-0.0017355566509177404,0.3872718362374635,-0.05132850952385101,-0.18706103032357058,-0.07108889683350643,0.09707750420275961,-0.2840336172056109,-0.5263319315794336,0.1287181246630465,-0.26132278811820314,0.05107639123698459,-0.09222959499894996,0.19484967496046252,-0.13442095394982256,0.3201176065030792,0.11378387335941048,-0.1361498765140844,-0.26644166184130985,0.06326954803370391,-0.044244009127476495,0.31646556323326464],[-0.14556101847329783,0.008595023148739847,-0.2174260871428495,0.04082373468825661,0.16346791018371443,-0.43814297124217244,0.3675207132226084,-0.07628898783193203,0.08426689138463683,-0.41172793015122117,0.5536226388988109,-0.2996442297147519,-0.27887144073505515,0.2624740535896375,0.39131471370371484,-0.19394095981117085,0.03902526366768063,-0.21507787556027363,-0.3059419327276696,-0.2080715057643583,-0.33202601290071654,0.12493692341297327,-0.12354771779113295,0.03672729239255262,0.2518961756751671,-0.008045404173740979,0.21374168336863747,0.09368287677319853,-0.0028820843141484287,-0.06387854956375888,-0.07746315380733121,0.017529731973814716],[0.04836992254223613,-0.10992659459469975,0.09468375993687024,0.02914117315573506,0.3463790823037542,-0.2867739423963149,-0.03419845041162101,0.0031769711206741397,-0.16768417423659904,-0.31227138851528174,-0.21684970942013296,-0.2682902165094214,-0.12157735364556725,-0.019756555743937795,0.09500780345328115,-0.006693747251007908,-0.033734735914664436,-0.30222839909062743,-0.28289675856249574,0.17696947300123694,-0.15947409166140214,0.13899081305559324,0.07767853203382862,0.10653610342061459,-0.004531162587280469,0.4627488008508646,0.010094965354217587,0.13933643046824795,-0.010457226904527977,-0.5666823716585446,-0.10293006111758184,-0.32898280741964087],[0.08113266066076369,-0.22409384080360725,-0.0034861751448029064,-0.3471873218937725,-0.13245906034328084,0.20309065046036234,0.04287402858742669,0.1025093237761944,0.13064006756193028,-0.3280686038604168,-0.5897785944581111,-0.029402554765647678,0.20828583057144062,0.09770224791071591,0.5967867006653412,-0.08481313530079217,-0.4131403932401482,0.1042719814911781,0.518526345768156,0.17671047539521537,-0.04438255623559191,0.28054488216748086,0.010933651218476273,0.04108362656394169,-0.10829417607740016,-0.07224298575934188,0.3847768232226342,-0.07188654107902401,-0.022019256778467323,0.07851104671015188,0.2897180259816314,-0.2588268063166153],[-0.2116448868863758,-0.10167444152508547,0.3918593411753667,0.09786062447650659,-0.1584078249199788,-0.469386768263279,0.004560839406915978,0.08727317834816177,0.12148287302961608,0.23396972252552936,0.13880363566964676,-0.2002831958543305,0.04670169133194219,0.23353268678064762,0.4416668185214852,-0.05415261827442344,0.14214836147181384,0.09115958676127232,-0.19106631291467346,0.32592282507574105,-0.26314799062664235,0.22508349417535842,0.37927188389374056,-0.11834099772468226,0.1467231885951177,0.12422206667495862,0.05378213011273742,-0.12617026213778346,0.3175447197690629,0.05557598255192233,-0.09455397692332117,0.3817767854922936],[0.029318967649532873,0.08105327153686696,-0.40746630767781167,-0.21667157606124723,0.1046501152023484,-0.07885413096440884,-0.04734916132646655,-0.14063892028856767,0.17840879311974314,-0.05826055058983036,0.1790539659966047,-0.4498882559022899,-0.02542219390846816,0.35210719505909294,-0.11595770780184393,0.042677584452395674,-0.1693810479537708,-0.3964776744289253,0.4383876524136323,0.257875015683168,0.1882126600276315,-0.0774502211886837,-0.10027013507914204,0.14937911525400627,-0.24932259991602634,-0.24434266681742803,0.14164189635234897,-0.07911750689929012,0.06839326835910106,-0.28124373814400766,-0.2598475050191851,-0.30529975941257503],[0.08635641755050665,-0.27130493310395654,-0.14317445403472598,0.2442805376644957,-0.1604821837191551,-0.21218958899568136,0.20938782825616775,0.3641363683445756,0.02875630821087044,-0.3702509175596913,0.2064466645441522,-0.08799138970934031,0.03620462238523832,0.2331221732127814,0.12152008705869415,-0.2863847141461715,-0.5675490177996342,0.32097595458177036,-0.4002989079347746,-0.248425676859477,0.028133719814102225,-0.36329291619884807,-0.0091805154049122,-0.049517955783817395,0.4286809904928158,-0.004518661150080338,0.09548027286498968,0.12145571098184064,0.03299832664972728,-0.3258177105863441,0.48137348051854073,0.3626532002580958],[0.17110834233436958,0.44850066810175165,0.0009106410317862758,-0.260056982128385,0.7118849333077897,-0.12916991889088078,-0.1321847471224069,0.35350742157405224,-0.11848084027550344,0.06414136193039024,0.3000273116615138,-0.03254684368234576,-0.37130051914318174,-0.19000582004799074,-0.12593077160757474,0.036709052581751236,-0.30815765607532375,0.23642218259047812,0.07195597254774716,-0.04430046450129438,0.03129175882646921,-0.2371842098929623,0.3017655332243798,-0.13843598648090172,-0.05852544804108599,-0.13893711162550007,-0.006347031403753647,-0.011699933214287857,0.027554260951428093,0.028133041401257268,0.09158509435057886,0.17646103216012898],[-0.16080417143050504,-0.42225528599373363,-0.2993476112821858,-0.11206922959012212,0.2271234736663426,-0.03590794601027729,0.0420081966810086,0.191198347161074,0.042191119595464004,0.021327809981138528,-0.17671212873331724,-0.030098374178654377,0.16655381977097639,-0.13151074019462283,-0.29254966579834774,-0.11269519780062257,0.13833850581528412,-0.013622242109418349,-0.4095415512319327,-0.2216833179613582,0.36911918697136137,0.13875219684078485,0.04564475667869248,-0.11876248531320964,-0.4058914032910692,-0.3555062845333732,0.30068654587735444,0.1224941050917497,-0.20159455510250832,-0.256622650813342,0.010544319392271203,0.09618648131567972],[-0.025190460820938763,0.058951347955296204,-0.2390561469864356,-0.4747857025241794,0.027434357357463697,-0.03206815601886829,-0.15045666501521635,0.05269108665298869,0.04634707499918936,-0.17734974665561934,0.10550495008735063,-0.18975022514442888,-0.015848250078106252,0.2081204178009509,0.3521991013216596,-0.05630187105443542,-0.15257055095922675,-0.2855285243194444,-0.21440730164359045,0.2877316570669723,0.28785385651201184,0.4022969398622358,0.18071146107586034,-0.04699332583238113,0.048227067952730227,0.10484265823783678,-0.0745057393887293,-0.022575894699296255,-0.16798635649287044,0.3008425840297956,0.00043152754543648847,0.4734738664135462],[-0.030023825704226008,0.07125933757668372,-0.08042356518101655,0.05574244144584343,-0.4831911729887936,0.09288921625467293,0.2403530570189093,-0.051583759762416616,0.5188936234415557,0.020225546804125093,-0.14174202240336148,-0.0452552735348302,-0.24371229888978985,-0.6693250658595822,-0.11941152277345617,0.1468247124150446,-0.11771989544988024,-0.14140930949212646,0.09805031633388088,-0.4276115882982646,-0.49690731621192247,-0.35942891034544616,-0.31893439360879966,0.3862348617104804,0.3317737431986323,-0.356384173748055,-0.13950071733449065,0.23177366532176918,-0.4383526830057932,0.08740426132306345,0.3267626289940867,0.2751439362178321],[0.05229758816689318,0.0025151440271349154,0.10900799232893645,-0.2736940653439807,0.30509187986619907,0.1348370462408808,0.5299522031887245,-0.1484694464751703,0.24334374320335145,0.3295367619030439,0.5184928613225386,0.16038216039837838,0.3062088278968649,-0.009961742740634872,-0.019426393558145398,-0.20126399017435448,-0.11226118319041177,-0.2564331869386385,0.13213639369842156,0.027164143432140728,0.32080365801341104,0.31704373752811077,0.13425362320171266,0.03609899315451185,-0.16144731901695025,-0.24769132879218722,0.136556587533995,-0.12539036013938093,0.4525155239517508,-0.14168690896073138,0.4620798302156312,-0.1465156643943226],[0.05710850843667166,0.10779457900209215,-0.043810828593703964,-0.03035404884895143,0.18961129356101727,-0.579022116382854,0.16194675435723307,0.0051631877314301826,0.19132679400390357,-0.5794710137551061,-0.04142019788176255,0.19467291001249876,0.17339172449382648,-0.1536766211934688,-0.3402757658432575,0.19006916254902997,0.0929085744320789,0.20945300152962185,-0.42689347920599935,-0.18241167273027586,-0.08535075707410814,-0.0016034835373506255,0.4175548876086964,-0.2347183223544694,0.0810153021798538,0.05120525927096295,-0.14940360135137032,0.4247952826528386,-0.4419393271483414,-0.3263342607789432,0.18202971529052764,0.4422454251280646],[0.32082031146699796,0.02618377914385453,0.19654783591042765,-0.15593095721166414,0.16332855685080971,-0.07170287095937172,0.09112505170242084,-0.34142954082230714,0.35695325086079094,-0.09568383131658802,0.011986980747272799,0.017981780314804397,-0.11624534276549187,-0.04572133102778018,0.21268524532453287,-0.2157161129008924,0.17663432141225083,-0.16742955605548016,0.3387242095545416,-0.08667027693442828,-0.11362783308775154,0.14561410693519045,-0.13495811341224767,0.16318249176852903,-0.10310226606820375,-0.14906321189961205,0.022793167597589845,0.19061183775868595,-0.3317549944351429,-0.22711033392689456,-0.11130972050853688,0.30110017369924236],[-0.16503053720207037,0.08694255519180008,0.14656481955941086,-0.3513922126264089,-0.07790888186149171,-0.09617728683693266,-0.04229647795658254,-0.3205457850265372,0.19607038254860068,-0.049045246892177895,0.37337014405508695,0.2855940851518535,0.5231483831197681,0.005599047341447474,0.2265510968692217,-0.04205263814264311,0.18435853024060056,-0.026408755072014442,0.09406006051079074,-0.10004767357673518,-0.2897755996454551,0.14017242893706475,-0.09846543011062324,0.04974246298485014,0.27361506196282226,-0.03733010087358024,0.0586153974286672,-0.05967924714890039,-0.5437515190721356,-0.324401838993975,0.10307847675659787,-0.26140220707699946]],[[-0.26988527521621003],[1.5167576809678385],[0.7406317827832838],[0.39790572386249884],[-1.831629538136394],[5.22616961555158],[-1.5912649638309389],[2.463609109049562],[0.562460016680292],[-0.06979440521441523],[1.2743832217848423],[-0.3733624309980633],[0.3117850393706764],[-0.5135121048168011],[-0.7623950734934831],[0.3947355707630663],[-3.0860426490904485],[1.7508403841081792],[-0.09561035400140701],[0.8988944017397956],[-0.22376394669160654],[1.1521044197853447],[0.7501436819715196],[0.6388568434031758],[-1.450767288735029],[1.3764864300392343],[1.5776431778194189],[1.4413196449749484],[-0.6417157374381937],[0.15384727949570295],[-0.14543230011169175],[-0.5214329390777344],[0.21426099101301474],[-0.27249405290058437],[-0.6471664019995315],[-0.7438119706272562],[-0.35547909545309164],[0.491377850931533],[2.8371631254356418],[-0.8424060629199815],[0.31714476600522873],[-0.6862839414406949],[-1.6392299401009753],[1.6991447308523067],[-1.8634479112869209],[-2.651003910594188],[-0.2906363254315775],[1.6524541893411135],[-0.47037984486348966],[1.744516085787414],[-0.6579288674798579],[-0.9363978305188729],[-0.9688914032982361],[-1.9303221782848237],[-1.304911764514182],[0.909976019809479],[-0.22205533834350902],[1.004937971498618],[-0.9480661921655892],[-1.5521036174984186],[-1.152791436527055],[0.9175108231347835],[-1.2747526495835846],[3.705186541239391]]],"biases":[[-0.4913344428385309,-0.32809241597016536,0.19085606332668253,0.8038473603664115,-0.3478215695913463,-0.553796536392265,-0.678103889631965,-0.2684695248354382,-0.8779328635527298,-0.7763190692380825,0.8716038194482874,0.034093666756321556,0.023831896184808857,-0.8651653602015223,-0.9097577353519571,-0.4853135348932603,-0.6121849758297412,0.39429805909710774,1.0169206693789457,0.07377875049744757,-0.4812722226284425,-0.660104474492036,-0.07285508388551491,0.7633497481130375,-0.4646539097729148,-0.707865368105774,-0.5607960795245197,0.41097504607216356,-0.1270674123478447,0.41921786803324584,-0.6748336281378409,0.02984050949453222],[0.014561214555198614,0.45833783428741576,0.15519797928396104,-0.40376014208439487,0.15741195866042626,0.5764464790518293,-0.924221210789363,0.513228309068251,0.8006047850072869,-0.31578827512339486,-0.7921259361483115,-0.7528070909190695,-0.5781763593798342,0.676965256790165,-0.6230360463495552,-0.5753467894732792,-0.3484355260581492,-0.5113380393434624,0.5117530352639529,-0.8589853354470897,0.866953401612301,0.03569260491676852,-0.984238150609013,0.07890421605148902,0.4601060034382505,0.16752176255533396,0.4466040791588504,0.1717510475492922,-0.7988783271033886,0.6578109553337008,-0.3423943628093551,-0.6037991416313628],[-0.8995791796676427]]}