{"layers":[[0.5490188525190579,0.755576086835895,0.30850923048373585,2.182882581863826,1.9102108030741003,0.9641899327350992,-1.9051438244143346,-2.183074480898158,1.3552326869489106,-1.1273851707905909,-0.34859995040390135,-1.159865851418693,0.8098752756570855,-0.6413338389044517,-0.9956739245345275,-1.8860057630751887,-0.9277753821395255,0.7388862857909297,0.39411330861450705,0.2745570187409588,0.6111101910263735,1.6870244502719967,1.4033389904389788,0.7789511619244325,-0.6246904893300991,-0.9835290661232735,1.3338695332119106,-0.548904384917133,1.1897366442861168,0.5082511326744084,0.3906645691001602,-0.6131274241604164,-1.2091818252369864,-1.5805314595965159,-1.3368710609298096,0.8901448186955238,0.9,0,0,0,0,0,0,0,0,1,0,0,0,0,0,0,0,0,0,0,0,0,0,0,0,0,0,0,0,0,0,0,0,0,0,0,0,0,0,0,0,0,0,0,0,0,0,0,0,1,0,0,0,0,0,0,0,0,0,0,0,0,0,0,0],[0,0,0,0,0,0,0,0,1.738027612916247,0,0,0,0,0,0.8030998751350515,5.002454344831113,0,0,0,0,0,0.26685741613424974,0,1.6989999266378182,2.828660749767486,0,0,0,0,0,0,0,0.07091512852820803,0,2.0674666480834554,0,0,0,0,0.5857830253113692,0,0.598188109683468,0,0,0,0,1.0666491313949347,2.1145122356798822,0.8858612925230496,0,0.5564444101250774,0,0,0.27973993829854155,1.331521583923823,0,1.07695963236761,0,0,0.2771148652489505,0,0.6179334493102024,0,0.5762038219865245],[0.27686262724147087,0,0,1.8103507308135718,3.732541177749536,0.25354969109308584,0,0,0,0,0,2.426458221336375,0,0,0.7230893037459059,0,3.746521535974409,0,1.3163709934008525,0.22087411932071171,1.3526195396551064,3.377196204043279,0,0,0,0,0,0,1.4700015521360568,0,0,0],[0.6844696482558615]],"weights":[[[-0.11298879447330544,0.06258723812151237,-0.14123338067372113,0.15794483500855444,-0.3944648059041662,-0.13003843946466176,-0.27163272374528835,-0.15269581933333928,-0.05795743501424895,0.08855126333114466,-0.16410975921600515,-0.17191735235009378,-0.04768410458306705,-0.28636524289671,-0.4944320085447694,-0.05699220057170999,-0.051762114635962364,-0.08891729716311794,0.17291013811859024,-0.004810714093074966,-0.12424028863778815,-0.11132648764888013,0.07857836248334024,0.03325737520617416,-0.07463081183231553,-0.0733544627967694,-0.16645559698053342,-0.0883223428563842,-0.08488325972252711,-0.5986563496981802,-0.21700224481741132,-0.03391543090817923,-0.1713332831698901,-0.14117728923624387,0.11957459665850055,0.009945290693647146,0.20190159473679892,0.0928180494620645,-0.01350988969289081,0.10262796400656816,-0.0351477936248386,0.024321875369465083,-0.33650513058559745,0.055353198110311204,-0.07752097690941728,-0.04288533308213899,-0.14696438015466906,-0.2643579925636097,0.02797594308871498,-0.20724063735424256,-0.040954458310461045,0.05395543297052443,-0.38771545601474977,-0.07770630792505193,0.025240324184208268,0.24931546673289406,-0.018133387407203987,-0.28751001368487145,0.09697853997529578,0.47159238215424976,0.21542175803401978,0.09628086102217397,-0.24974624046981828,-0.10524294134871688],[-0.1077256692856717,-0.03290162802888997,-0.306849832673054,0.18950468155500536,-0.2250626150430594,0.13989811396842847,-0.14334051078946616,0.0079019155490061,-0.3133522761508052,0.04058503672888484,-0.06057788902828602,0.2662316145707071,0.04523978649212975,-0.15044678568807618,-0.2244030099767678,0.029767705275924806,0.07278980151174921,0.11046656398525963,-0.4520005829963567,-0.21374613984747476,-0.40670057837156004,0.11483131644829435,0.2945207125748643,0.10654292338049198,0.004995337647603967,0.04435667069287062,0.09727065436373097,0.0029757287198811494,0.018727223154660338,0.16365433370124083,-0.06198926282836031,0.18055664309287817,0.06633736737666449,0.14589985233845693,0.25398696536744547,-0.19604223204970295,0.05296695579048395,-0.019263655554466377,0.0019446622329264353,-0.10059236009780849,0.18161884951907253,0.3188220388436693,0.1248366520413397,-0.16351381720749844,-0.24674551939381537,-0.0261119237120481,-0.11308194782909452,-0.12139244694671449,-0.07200683110992243,-0.0510446504511845,0.08583347849814166,0.07238920052815663,0.06699286842600675,0.20257458932216282,0.2543727324860238,-0.3021087324225674,0.10226485718133478,-0.014682292657193294,0.3335834453170813,-0.043899979844076696,0.14317843895664392,0.024723100443809175,0.0587132350878033,-0.15980969982667836],[0.017874971337755965,0.03088197206959137,-0.009565536122663532,0.025754913061724886,0.23783962375559606,-0.21999519397210013,-0.08754145939320125,0.009352207963167703,0.23055144737877234,-0.3145519013287827,-0.010474733856658851,0.09029237490070091,-0.4374996649269301,-0.2907907211102349,-0.04345909214238071,-0.27549609274956954,0.19865948708387993,-0.0028247789707208865,-0.09846471663741141,0.1546428892704017,0.22047102239240468,-0.29150837015571074,-0.06997134295843706,-0.09889913687644938,-0.11126063349763181,0.1265268480111459,-0.01013708800295152,-0.21762443445996782,-0.014096770856741402,-0.4192070559477915,0.0809848514547835,-0.23852063086156045,-0.1397895905611924,0.20875675600200702,0.0780928940532073,0.06840697787976825,-0.007391511784059439,-0.07250125083986826,-0.04782790023706513,-0.25598565718301697,0.004700610389915117,-0.42053704013768006,-0.06730306432926071,0.08582490877399401,-0.1183296866456267,-0.0439244396996704,-0.19863837292991612,0.14205793662373034,-0.010637393635837558,0.04251823720942609,-0.14852844325366837,0.23852577344060963,0.28304814945033846,0.3291877991658023,0.21056261693477116,0.20669363137969396,0.13309750165286552,0.005275042015501837,0.038838684210508526,0.18012416163088793,0.008622922397992618,-0.09762082257137189,-0.07485835598298869,0.01370361289987776],[-0.08367119875368725,0.041130207896967544,-0.06891864784300235,0.10700902877254964,-0.12454891822872485,-0.006392985186318712,-0.43750644529300986,-0.007306628206632561,0.17294880411676364,0.15651898531352745,-0.09362547365701455,0.009342248510497066,-0.18080505672234662,0.0968941983991636,-0.12358302913626218,0.13722882259529723,0.14957039741013312,-0.105201994644783,0.2947901817054311,0.08345816040817366,-0.12721663449502363,-0.15441873598447003,0.07071601083169518,-0.1630999734979296,0.15178949484234952,0.19339299417964328,-0.3415133361801454,0.20381452673850922,0.06810008679202066,-0.2543069744597877,-0.18968711445463424,-0.22784638042200342,0.11827359672849504,0.09447160239747741,0.24222709128344638,0.006912263058807767,-0.18512969448274766,0.018356179022408582,-0.07953573467990586,-0.0482937381107147,-0.2475280100677035,-0.2144146136433454,-0.09666372807267472,0.0035472694187875975,-0.21141142065562207,-0.06642612293720057,0.07396619092611281,0.26577258309875484,-0.13925573078854855,-0.32073345921629465,-0.07950451532380894,0.09163960210406656,-0.14108562218977597,0.09778498063766287,0.0017990341407830954,0.030704402170633662,0.462486528308977,-0.49103800049019786,-0.15001593305680763,-0.03672067364610434,-0.18704160705215717,-0.15831265184032736,0.15321826658381943,0.025982462248149343],[-0.4316499222436531,0.2858646235808489,0.20135499161345222,-0.17631394623977117,0.10449246339656217,0.021573314687954624,0.360206930694101,0.184293976049806,0.008098144748640701,-0.07419525079744248,0.03853539845271203,-0.0724378472955968,-0.26919254133315684,-0.1053069976181173,-0.007914143256703827,0.17778659792146018,-0.35503992264266215,0.0656246966743138,0.007962665919971199,0.10756508048203796,0.24570620876589885,-0.029089494733777355,0.0889321853202873,0.07695837088379016,-0.2501498612983055,-0.09746688833588414,-0.20281557671589864,0.12473164946599427,-0.21501494230773996,-0.06994100585475856,0.3210451845433326,-0.012038052843942444,0.0371132242255843,0.2633793887647365,0.28818029680930246,-0.06728214075857022,-0.06637867407632761,-0.08126848487411478,-0.2219283802962368,0.13365345549711416,-0.10873263818452508,-0.25317557586850037,-0.0905844843492213,-0.07130919603394396,-0.22840655675234153,-0.31466151784080615,0.23032775089165994,0.004477978156814321,0.013632641172816432,-0.07626921852187883,0.010222536994051587,-0.23451533610858247,0.025614510618963162,0.04230389843808225,0.0958652344866413,0.1623769497943749,-0.09880115488859262,-0.12153768963545046,-0.07274667514904201,-0.008595676244246609,0.008379573169667821,0.09943235847411254,-0.29840342588419155,0.08543377303161903],[-0.13850046834735455,0.1790322998438503,-0.14318564738911194,-0.08722657084612677,-0.07292038257630752,0.19120130242059744,-0.028225290299827115,-0.14418428886909032,-0.15016311823082898,0.006084329708074921,-0.3769114680469096,-0.0023228208429049426,-0.1585557253773253,0.16696514863232712,-0.009220766562747762,-0.005101982898182053,-0.21724246991303395,0.04792356119273043,0.09272056517951728,-0.0015692245406370379,-0.14298428718643522,0.13616667986864212,-0.02975567594897435,0.17522280456350403,-0.000686011077981969,0.09159903090379978,-0.18086374495201207,0.012637478976530529,0.04778791168603984,-0.04733481946645436,-0.015027861831837096,0.1989276113695859,-0.12410356631077263,0.13591117420653276,0.11423287674519002,-0.13813162812328741,0.014339926597445714,0.03979200550216693,0.06585794144440248,-0.15175678741700846,-0.007530802832115873,-0.07996047963904666,-0.0012222824263194783,0.12549289168456546,-0.042649731916740576,0.19664333415364899,0.0018027933928397917,0.012256837599286094,0.015501110300562356,0.37481734297739944,-0.10229666581679854,0.01176732048705205,-0.193520873376906,0.2651399841546007,-0.11900834600978825,-0.07992685064932512,-0.08801242710292019,-0.003940069392740569,0.13634924798244843,-0.19388917759014057,-0.2635134204527868,-0.24040506426287928,0.022007075681188728,-0.12101318394864963],[0.06644190647487469,0.03225102550483743,0.1422122922186699,-0.16621925001140267,0.16083020018940247,0.1304958599828697,0.025932203918480272,-0.09501341390627559,0.005923142943388784,-0.1817011090189218,0.3102811296781673,-0.05180780792239819,-0.07702426843927695,-0.08460979330398356,-0.10389489036792673,-0.10824652515342026,0.22998972770202059,-0.018656407714668963,-0.07826850440902543,0.20428069461808537,-0.2835118593130964,0.12880489200424738,0.07189422549531585,0.11662362046650462,0.014992592575271163,-0.03789892445785841,-0.3113051442599159,-0.09386162703957948,0.2711642585378209,0.16763946267949414,0.22872524460462273,-0.21541039689609867,-0.2775160115169952,0.31679188365751404,0.16130726218787728,-0.028834578955337954,-0.14696438238633258,0.20104132719509776,0.15127986987852735,0.07799147936137123,0.05114997231414202,-0.09248721759975312,0.10295710024966741,0.07171046246890495,0.11072188885100859,0.04864505272048246,-0.01855330215459153,-0.1323551725015051,0.14469203873158973,-0.016736750643752643,0.0015105111592883442,0.013623063291916227,-0.17392278102426448,-0.1341823171253551,0.08088937782343095,-0.023994246308478642,-0.15046698658652866,0.13976181064771526,0.27585703642202203,-0.13256652783945888,0.08245307373547998,-0.1465357029936125,0.12651329493739955,-0.05361798391360129],[-0.20550687610418164,0.11058551563411553,0.2800703994884944,-0.25190017306042256,0.1430235751101746,-0.07416624492124949,-0.13678522548517622,-0.013471600686280422,-0.046400222757154864,0.01672175206444886,0.02989111252842495,0.2286299793435031,0.04001840953579446,0.06043467768515953,-0.04271087320161258,-0.3455384875628107,0.04378254499916794,0.07654578521410732,0.04779766100136679,0.2660409952206044,0.29930130727500986,-0.4438828819209902,0.0050819682399765986,-0.06709893877813133,0.05753481059368279,-0.10621552269140078,0.019971603508696315,0.12263020748314146,0.07264969251994832,0.14441683694836083,0.002423428191138425,0.10218355402879437,0.1800211904616776,0.2239454898318264,0.09605771637246964,0.10095365164896006,0.1584296283732708,-0.0009631310975400138,-0.010323604247580413,0.15198100416183022,0.2346234496524302,-0.1694024940598939,0.23822865438301574,0.2350752806376539,0.17122685208072955,0.12925640454061318,-0.3582383242277167,-0.016799539518062147,0.11042117688742654,0.008953887673755897,-0.18583416275346112,0.04022646728408722,-0.10267945987093764,0.07297922965257828,0.06417934173233926,0.4076679992841586,0.20172220392544857,0.21840038422503896,-0.031891132083278,0.1470701881565421,0.05666023170156768,0.0018029928383632365,-0.16271162065699557,0.051494646614251995],[0.07946221353007471,0.0008158468992290655,-0.14379556079673053,0.13765668481642881,0.0937468103751177,-0.2203155944102016,0.2409597626191042,0.23251406902979108,-0.018997722043592714,-0.012053468442046755,0.20818785024768469,-0.006840025636184939,0.18185575836300683,-0.18339803969615429,-0.0051820281804586445,0.30241075395369255,0.14060786824311666,-0.008245552993509585,-0.2261320516591607,0.3176251653538147,-0.10993295367926252,0.0722276304964735,-0.13077980512600648,-0.042211372402086215,0.007061064830525164,-0.054007746376520074,0.2938895134800882,-0.08687926213749021,-0.20735274623302308,-0.5647856232124648,0.2990821191491797,-0.32115931593888203,0.16141016711049977,0.15712090005831567,0.3070583290157286,-0.0869085931305634,-0.06056047506885502,-0.22344316598866792,0.24494055470049533,-0.16845924831271988,0.24752335591818664,0.15895782480605944,-0.18100676612355693,-0.04579837672175708,0.47018613907136586,0.05832740805427834,-0.04718527075375099,0.15542153060897754,-0.006266885752499977,0.07149411304945252,-0.13910358083910535,-0.11342495133729287,-0.09208411734526471,0.2398182468206857,0.18351673948095878,0.2054207469483016,-0.13412564765177387,0.21240194109141053,0.0934125170396369,0.29307124496769793,-0.04243916517072271,-0.2114921160348571,-0.21861176541123037,-0.024468457605493304],[-0.02027119866808049,0.02755463434751122,0.3972885845772672,0.22076505024390955,-0.0398154706909577,0.18898469688094385,-0.07750912857055593,-0.12942630213250597,0.16829538233243607,0.3478716849317992,0.0036563840255995047,0.006153084660176292,-0.053131280195825595,0.11268740633565247,-0.21986336185821947,0.21012203712752892,0.04405809194767997,0.18259530826683257,-0.12122820199138118,-0.01316147735150727,0.16082768034165246,-0.09469177613559472,0.07612042214587415,-0.239858746340519,-0.022090732656871077,0.2635973120910427,-0.18291140738178852,0.09191493853908712,0.2974974933066554,0.017168644475050336,-0.07511965492201206,-0.06347070174549826,-0.11351976421407736,-0.10212967601518938,-0.0296244074698863,0.12702123810605837,0.07156712399848715,-0.22162141849039513,0.006926432004721602,-0.18945756979797423,0.015011254277025453,0.03682911337293442,-0.060142077797878474,-0.1563158955665425,0.10814377952324486,-0.06391968060620969,0.02457612875607961,0.02620819370604482,0.20546896143829532,-0.08163644713975195,-0.10586708991732148,-0.21712408086390822,0.06509936333879257,-0.004082420567806175,0.07877919524328232,-0.05032869833289524,0.010303945342365558,0.014539205688751002,0.015190562817808277,0.23007697612344405,0.058342334861124986,-0.05543854889098695,0.04679563315433742,0.03990975582125082],[0.18451614614449904,0.2614502342471933,-0.22211315684995767,0.10153928565280129,-0.0047851544610663065,0.12056705161756329,0.2266211429245996,0.13917743498745597,0.105740029699951,-0.06912916578223267,-0.39064027023153514,-0.15454774429852264,-0.09336067641304131,-0.13922837537102808,0.0898988580709553,-0.03288320933538294,0.06740223824959196,-0.020121323117929173,-0.10411448745578164,-0.11632053402072799,0.07150259688441855,-0.006299572387089818,-0.023751619078562852,0.2701275097037514,-0.18671344523436945,-0.22793529537913013,0.08973030371779489,0.08572967329869546,-0.10931956442757293,0.16584162376623263,-0.055523904066849254,0.31160375405708063,-0.17430908158948066,0.12028292379824418,0.021796697971035565,0.16055765688708276,-0.006552010024370105,0.14587824809919825,0.07096885848208509,0.03081762697747927,0.014432555184489066,0.21693573891529366,-0.21148155288642706,0.09925815951862126,-0.13090676221213052,0.11143329299311433,0.13877411018881172,0.16595726017811643,-0.03628227979435958,0.07540398202694283,0.10712799655323495,-0.24548348744190168,-0.012608829695293793,0.03173161191737396,-0.21476565394380565,-0.24632331913009275,0.38591919591980195,0.10290267350774131,-0.05306107985035929,0.0004859242362534712,0.13103973002687327,0.20959943310968052,0.09315037248513922,0.11508048332530421],[-0.26199630660520234,-0.0422182633661331,-0.3317741210886527,0.029670098438611747,0.3596662662757344,0.12090578087910198,0.23696415150954417,0.03185746610787777,-0.045902878913286135,0.06416425827791072,0.10179188708905028,-0.10417623249073951,0.20447669064949428,0.004744601598593165,0.16293652974232517,-0.34781008069663455,-0.43039316900955193,0.19826025303653966,0.19103893984852907,0.08674906660654509,-0.05405832868028286,0.015680871706499316,-0.09110554977855224,0.015872834965007597,-0.09610120383213028,-0.07302156895112227,-0.20943053442445586,0.08697146585046585,-0.20653972478001031,0.08139023165673848,0.09666844351262271,-0.24794544031764296,0.12290506220596537,0.21673481285920881,-0.06681792618450882,0.09443314719862443,-0.020806097212593997,0.0210048921708761,0.21983525195486492,-0.1907735014558965,-0.23210283639390977,0.028803884990312823,-0.23628194029252994,-0.0945453283403989,-0.16313618212533545,-0.1311952644146548,-0.13753948404624147,0.12109415374431706,-0.44299037310510336,-0.4606459759795983,0.23950701495239488,0.056856053495728774,0.08909896103922206,-0.012026349114684764,-0.2748132170643325,0.3128102102667435,-0.32160482044843375,0.14756028700436497,0.15379944892625141,-0.13999582742920255,-0.14261216831646825,-0.07577724561478108,0.018363784434403545,-0.11094054698370408],[0.08287460479325587,0.3041752928063875,-0.1671436140183972,0.19016323980907165,-0.03498020536593477,-0.23758486008260804,0.14586708295329734,0.1071414305928216,0.10731111452235079,0.03791453025095182,-0.02929279370121751,-0.12668204174937633,-0.005965062613444628,0.11100162415350363,0.22246340033252376,-0.2587307564990577,0.1619033946817993,0.05151998920269012,0.2303243644360748,-0.0675892849069302,-0.05439002101548155,-0.12486794231972856,-0.20533624097910133,0.2767770224210921,-0.2193659071354563,-0.32849906410733953,0.07666579851670549,-0.07295559487048715,0.25913997416607776,-0.12422100057131986,0.22538797549389117,0.06528845169036418,-0.13759286173428137,-0.12313782845361233,0.15493626302738087,0.13505590274070214,0.024359959332679648,-0.314654996234087,0.16314413146870294,-0.18116566959144909,0.16170903249529842,-0.1625593110229217,0.22051860342875834,-0.032019136615290184,-0.023791429417911843,-0.17779573499734652,0.12393012974379546,-0.10984952023057003,-0.22080528380447778,0.06616220303073346,-0.1216065098133841,-0.2789172437094492,-0.08417285203984982,-0.222898650407961,-0.06988659952842285,-0.2868510481525448,-0.10876487686899275,0.37907816558065754,0.03178336369177593,-0.0268426570196054,-0.2722169843287668,0.03512430190604828,-0.06983243436112088,0.30355507089038664],[-0.09851326851935917,0.14354324924232892,-0.019551743609171866,0.10254496414688426,0.05409534346253628,0.258501288650054,0.05331219808848221,0.18010766380356386,0.030266332118519628,0.37054016857830024,0.020470752176540766,0.26953624193784576,-0.013361814943261911,-0.02292024182334254,-0.1589441389306616,-0.09268347762880404,-0.085641051423927,-0.07458921457432469,0.08390407250003659,-0.07210627303353992,0.04485637930125441,0.3156601118578315,0.049776249767970016,0.0446484821206287,-0.12318046670589167,-0.14490151183395045,-0.06585601000142009,0.09142582560121816,-0.3550390561510004,0.038474381965671524,-0.05503051333110598,0.096353097727292,-0.1010186408876751,0.12245763494026604,-0.05970907673267615,0.06890086906476768,-0.2534121760720502,-0.09916508667706443,-0.20907306574872694,-0.040771720324950876,0.0788272117423655,-0.23524465883124265,0.15085793688087246,-0.024165365490546216,-0.21627257011165865,-0.344031132544348,-0.04456774108408478,-0.2301241445602012,0.26179368669051095,-0.23635745816442877,-0.17499953634716986,0.06846183312416143,0.0294246453670772,0.24798268397567477,-0.26871681169235734,-0.14213244992068658,-0.06534368498720855,0.10269717144913815,-0.07367353498875649,-0.24145339950446493,-0.33723882966969637,0.04234363790455825,0.10342497616227851,0.09052259521396769],[0.16615151646024223,0.24868954283607184,-0.18168891349195626,0.05477869296926509,-0.2467307122978366,-0.03682465539559511,-0.14962371770442168,-0.06106244426675201,-0.17464975243369013,0.21533343893967374,-0.11404354858115276,0.048455663458396234,-0.0733442897759791,0.21858497567445365,-0.0261449875072585,-0.37612442638205806,-0.023300412103053142,0.06446647016126741,0.0627328571286445,-0.020341366529048284,0.21237611151200575,-0.20074754429623337,0.10688343957080511,0.16346832826268548,0.02142866035178877,0.03125152795541393,-0.29605430807193167,-0.09972670866563549,-0.15219790698674707,0.09542794545976391,0.015617743151858073,-0.006779510117005259,-0.18069915848906107,0.02459571835649737,-0.10850938353855591,0.31562485406623864,-0.1643453638796572,0.10725358380676757,-0.26571710950607924,0.16973856250142028,-0.1717861974809823,0.10353256585545992,-0.1617056014439313,-0.1981132607035351,0.08151185250131962,0.10532468255088501,-0.1275310509708051,0.001823455141034393,-0.004611006821675541,0.11418306133008428,-0.17590225106175528,-0.08261256065812897,0.19574008054880154,-0.07607976276755057,-0.023697172851143804,0.05778447127368215,-0.46751603651499757,0.026929619879845847,0.17147331209575703,-0.1426948876356026,0.17301130949360644,-0.04918882901615161,-0.041314382254514684,0.23387966315000422],[-0.1107900001019216,0.016339776770850828,0.13735801660465585,0.02776903703660309,0.25190248523140263,0.09676306783512784,0.045303211177924414,0.12886946413891018,-0.2691313830767284,0.10342361571936444,-0.2842134370258627,-0.08250743920088313,0.16972170038835407,-0.1468718884807092,0.05577960837557064,-0.1673436354592185,0.3269378987552455,0.03044815799613017,0.27063078693604364,0.17566004772926958,-0.16282597502493062,-0.14333474412264502,0.19598601147603326,0.014056944385425948,-0.23684037661542814,-0.09984237055804432,0.548312057380683,-0.08241515132937655,0.21042475077711797,-0.06240750190146435,-0.04329588459662023,-0.12476076250595868,0.03474177729693897,0.13346455859373701,0.06771372426152214,0.29592111240113306,-0.034665235231698684,0.03321030097033151,-0.00925257732510364,-0.33228602566197124,0.06292685158246705,0.07999221835379298,0.20893352949918448,-0.11007771131095011,0.0032697462576575225,-0.02622094014751701,-0.09925853269804637,-0.0336315664699889,-0.04971645209844617,0.08154594883624891,0.09318881643709753,0.14597046043149198,-0.03657975216806143,-0.11306182984073201,-0.1618397395872907,0.054343336888595876,0.18449316507369784,0.013062178463211232,-0.04385650994989677,-0.11380126897857859,0.147887090510942,-0.2356192017543395,-0.2467674171317498,-0.053124277688631254],[-0.1059720045831407,0.10272870981935968,0.18137154324950516,0.34258880621576554,-0.26237418729421097,0.10471743713964991,0.12338139002427034,0.08546211440846888,0.2044224111622958,-0.1644613890637223,-0.036113462888125544,0.00008148966051506287,-0.005126200293453409,0.03504757325113143,0.2434099916456427,0.04910164158027865,-0.14637975175538265,-0.01856916807424894,-0.009735744432596642,0.13566029913868857,-0.2560745715667537,0.17999911046974304,-0.174127268871631,-0.12529431132534188,-0.1360353994823343,0.1685433339306794,-0.04742427112202786,-0.18936138639578043,0.2935255434694302,-0.11374047709786765,0.20860372269954686,-0.017270157740458376,0.08552162079733892,-0.3518939016780154,-0.060462348184130425,0.14378037290483028,0.07112689447403706,0.18007607904907655,0.02537540485003905,-0.208014522986061,-0.024084209399469758,-0.0018871544426044627,-0.15142778618637434,0.137978094727703,0.06324068682959154,0.2173407137799012,0.2526900047284113,-0.25234733866141273,-0.2483402581651715,0.05036066593979054,-0.21114191942184332,0.14006641752533616,-0.006463103973867326,0.027402482714207303,0.00929859415564685,-0.03601919194919048,-0.3240671499874545,-0.1389833961555461,0.02620121962343974,0.26798225547590226,0.3051227437200563,-0.26266956967066585,-0.08433195278222151,-0.07277403083138217],[-0.1056549281787256,-0.02485389585661468,0.009028169624008186,0.007226035885524004,0.017750716625299073,0.1924857492032981,-0.23190286360754234,-0.10162411376254754,0.29093908155211856,0.13140443352598596,-0.14314755323464476,0.10081124362209093,0.3364759939420065,-0.3411914404710463,0.1024594752723383,-0.022725819663476334,-0.2142404991264597,0.02255024204832289,-0.08752984075369348,-0.23275479600709603,-0.3698727079297725,0.10120802463994327,0.008806828971108157,-0.059027005393989695,-0.16673530339493578,-0.1747337895310737,-0.010873583044278646,0.22075747318431604,-0.024102294077569957,0.1756347380858464,0.12464510307788014,-0.31489980010731583,0.11641041495547887,-0.009927356802930927,0.1974269852391781,0.2848743309896171,0.11318108906777116,0.009320051822658845,-0.007086521024674992,0.04197157328319715,0.01698645256748288,0.07681628115342157,0.10855516296402688,-0.14948554778988027,-0.029735798721434475,-0.21898807251537195,0.008965332597515812,0.01156062148438269,-0.13502485957383434,-0.07060521975802643,0.10419439309032,-0.039595565132517926,0.30143350138969055,0.20185705888011718,-0.07127003856596402,-0.09201164218616491,0.04577182212541544,-0.1093137308886018,-0.17055900212866218,0.06638384397413441,0.17505392085777532,0.08765147220902764,-0.07236831526263272,0.1756141667912676],[0.09513374887228689,-0.3077416372462166,-0.06850731047972508,0.188709540070852,0.37491765985185516,0.12947614504529437,0.14479422157248484,0.2689665329291485,0.04230566409954704,-0.007440968439220126,-0.2721697963579828,-0.17029288772582143,0.4563961313767963,0.12514860218529403,0.15047332612843609,0.16259423665406797,-0.2876131008157218,0.07367536305956214,0.03941478234081826,0.108965576652857,0.14691335050799909,0.3253035926031226,0.3920535721383572,-0.3225170719695504,0.0579843867133507,0.12467221264115305,-0.20281542363676622,-0.11234249573110014,-0.02095268409527016,0.16643049373343943,-0.1512409861626041,0.1291497255531992,0.19535382676449198,0.24817552475119015,0.041592681019690964,0.0015993387746202352,-0.029084104740737318,-0.088472702292382,0.1767799512185651,-0.23247564673879073,0.1365024587516319,-0.038841909928631894,-0.1378518626235392,0.20035029148788602,0.19367102739175474,-0.4089539641487714,0.032463813433236836,-0.3326921245477779,0.23127358817357455,0.055167451255871754,0.04901972329843817,-0.3885703831068353,-0.015525033675622336,0.12495917794364873,0.14064778939918973,-0.09557455181006007,0.225671225358446,0.039795894230129414,-0.154682054906926,-0.13524852911089633,0.3159305711251828,0.2076327337628934,-0.29530233901954367,0.00826133092167368],[0.1315708622488138,0.0732476904311822,0.3356034161771712,-0.10957243621483118,-0.13187744623230666,0.07302700129632711,0.09231958175021825,-0.09582966722885815,0.19797013939538483,-0.2923862499766628,0.015025342802184666,-0.11600669895793134,0.032131886826993035,-0.07229507956434027,0.22991018254560783,0.37561073229612446,0.14401659130048197,-0.0855721709103976,0.020028782175887327,-0.01070700825782629,0.32868652772282686,0.0725671203766028,-0.07441149712859021,-0.085093802113752,-0.2903732943114673,-0.03973913529105808,-0.2897630946248263,-0.013346947961612675,-0.009850350581097364,-0.06703318742418281,-0.042527491329337516,0.2692007368912753,-0.026377140838428372,-0.11671741772283047,0.1098603621904421,-0.18934426600102022,0.036196853318299936,-0.04932644986869375,-0.3438655974162424,0.023819368838092277,-0.2503312041835449,-0.012852798417553025,0.0033460766582707907,-0.04631584871191964,0.2600467013137554,0.23961926589571445,-0.37765575057500994,-0.05220167736283215,-0.18231382874497548,0.10487781012974975,-0.03194611841014788,-0.2467407291242295,0.17737894433420712,0.3699998793130795,-0.19377647441054077,-0.24208516813749512,0.03156656888197091,-0.04460746845932816,0.1564822353510774,0.0019400500587864204,0.11207148670290709,0.053616146078454135,0.035955479853976846,0.2845828165914886],[-0.15968167180510093,-0.17207626404760934,-0.20875301684921657,0.03529845305558486,-0.06217959826040503,0.08973339301980418,-0.10059706602262056,-0.0329157100246046,-0.11046470558669093,-0.2805022458334506,0.07411376109208272,0.03298268376557475,0.2189919144330764,0.10416012374418468,0.08817420545937031,0.32649598706720734,-0.10450410567745819,0.14731226504373243,-0.0597552727747923,-0.033004421698915154,0.1320363004233482,-0.09966885169864084,-0.04933945801226613,-0.18782591933831022,0.23113059278340645,0.15234731856098158,0.24845010822735025,-0.21312776324442473,-0.03652266105082036,0.1704023619517713,-0.14859602403437072,-0.019487703803255672,-0.1754180989427014,-0.44037963521676193,-0.021567934913880486,0.262927739433878,0.06987381381187059,-0.06420119855921301,-0.023546153384012107,-0.16388291475290995,-0.06545746471764825,-0.18690270558767408,0.05129722352099515,0.23822513794370112,0.15247454376661765,0.1409617611197058,-0.09574296560136797,-0.22576197614658408,-0.0680512152699932,0.07254074763706489,0.10571959257885039,0.07445250049295174,-0.23568992733984295,-0.29850983936106623,-0.06616732678098355,0.06587700913426885,-0.030755643839360417,-0.19453413417825452,0.24326090403588554,-0.069278540558843,0.15904069620467692,-0.27699678786828136,-0.11673463536535215,-0.14292415213985307],[-0.02659508092093617,-0.08087284996437535,0.058536349043866356,-0.10584708933158311,0.1194293229069381,-0.29512982947399763,-0.006269490926738418,-0.18190319105265457,-0.1158827895279205,0.0626971579761694,-0.14568580339073084,0.020693240683376694,0.060003759365716634,0.23178429388441557,0.04624693731191949,0.07168473060733288,0.20571688386637077,-0.16322038108345727,-0.02585475613754299,-0.09019268721963682,0.26688241260478773,0.029946560134296543,-0.056456076507333024,-0.16623759439819785,0.12164627128136958,-0.12962208151988505,0.056247877200795486,-0.06755355905016433,0.1529584690361524,0.10935072452428182,-0.011464864362385179,0.16630164515753024,0.02086577551127306,-0.05431739820837017,-0.05474507361513173,0.23698369518449927,-0.0049044008192606035,-0.19176971573800203,-0.16726533662214216,-0.0274028270935885,-0.04165548833452019,-0.15507835556149338,-0.13191814500647658,0.16455155899059343,-0.027347014243168648,-0.11678547692467164,0.11358225759384186,-0.034172221868093156,0.10336245563818669,-0.22245911233567753,-0.20038621104429288,-0.1517965051208598,0.25503439951252543,-0.03497725631066052,0.015540586192445523,0.08856169165236719,-0.13359601518161462,0.030645182642608723,-0.036171826476840974,-0.2329383311294157,-0.07112239397554927,0.20132191518450618,-0.09991587340763179,-0.16697725038237896],[-0.30416113775457787,-0.013096896453546385,-0.11823808507358306,-0.08641424776943468,-0.13008669986744092,0.043443022224131635,-0.2808517097368802,0.028295890913446083,0.20190208167076643,0.030722652557782244,0.13318992354243278,0.015988839373802594,0.15567408005337036,-0.2680184665386925,0.42394693156043173,0.34913282062496703,0.09682617311823989,0.11463883304232965,-0.0993642966176111,0.04283614399607109,-0.15346279938903662,0.17343149832144408,-0.12617502432646577,0.13228748000385385,0.6106050987487579,0.03354790349710925,-0.08564433894644627,-0.26567443806811136,-0.049971675400969966,-0.18754175407148502,-0.004382432528171157,0.06543577775113127,0.3004636159027861,-0.2772232851050162,0.29193499627591474,0.26221045648018876,0.13535475920548376,0.182624558064563,-0.0733006051739244,-0.005101873248993894,-0.023268030806860972,0.042392430193284605,0.030627870586887405,-0.015063349658336042,0.06481888697092177,-0.09750590443647096,0.26705576918570056,-0.015143425936333152,0.12797124090181922,-0.14060202869052538,0.1689439207581144,-0.08407757483223477,-0.022500078239638847,-0.04131703384662069,0.27108131437119576,0.08229836825815388,-0.01617401260650585,-0.06778103812368155,-0.11691980612986909,-0.006248292598453516,0.014592896290958023,0.11132076023324995,-0.09796243274437201,0.030262944317140373],[0.22560096236910732,-0.4276166173818754,-0.14850771457216416,0.11092164867544096,-0.1674890721746551,0.0748042115423395,0.12114488177390176,-0.06586430732669929,-0.052826565626807015,-0.018221793252785203,-0.17096299642113652,0.27487667139727856,0.19586791025164718,-0.016789137301101445,-0.04478287772903693,0.306387541626255,-0.09174155000660249,0.013892185791967139,0.02492935315926945,-0.042085558116571095,0.1239197411498589,0.25536301613668466,0.09464758065767592,0.18654483389690515,-0.06412906597334667,0.03572102590167112,-0.004561209009263917,-0.10386560840317088,-0.16072426494496772,0.0986525250609292,0.15592621237251406,0.15706190604246473,-0.1737455922765034,-0.20049287096983534,-0.03271328491642689,0.13926819698183937,-0.04789862145356062,-0.11278013113946012,-0.03977363084954029,-0.20196276035271296,0.038743179294295514,0.07396720506210157,-0.07058815862294911,-0.019744423781823166,0.057067646833609514,-0.12249598535260008,-0.19710857868787787,0.146934987490742,-0.041726149274369954,-0.30984935675673564,0.13665273395861732,-0.02779604686110016,0.0911305784353814,-0.06874019019459492,-0.18281367189094666,0.020978763929903502,0.02198448708174308,0.08551659822737423,-0.011921802063233166,0.14106471422665703,0.1297299024248033,0.35470914533833364,-0.012964869224100492,-0.07354159109890342],[-0.12544874139598555,-0.0611907803853156,-0.044427601446676644,-0.14176326387032806,-0.47107788463413375,0.3921647752884556,0.06057550326952879,0.2621381605339574,-0.2219737538504842,0.1346793155002922,0.0410358904121757,0.044426765456692004,0.180475290111046,-0.13051384183554152,-0.23997753185934861,0.011536403259184464,0.04128935116922555,0.15359590548287982,0.3405463937412007,0.045278006202765717,-0.16514198284803275,0.11154637096171724,-0.3780992776355881,0.03016914116042168,0.17776595638035866,0.2658970287650402,0.212983355071708,0.0541608522966792,-0.042922971814550626,0.2547487461857066,0.09210508838456213,0.1982440714794613,-0.07547356473592116,0.055487086834022835,0.07283767503773554,0.10526475240076888,0.05199583191612661,0.11039166120537312,-0.018553965721483677,-0.021738315012549293,0.030262533790683527,0.19003521038551832,-0.001595977511612988,0.17957193444556802,0.01343043764716462,-0.07645283457625122,-0.07222784318490252,-0.19526915564536454,0.02692070241986983,-0.22002332282341228,0.1875964675658233,-0.2866264081845661,-0.26328348940251967,0.09086402645557992,-0.49150066696874123,0.11312537917200564,-0.031720964847173044,-0.29418008002371615,0.23332210294333708,-0.0941457480043542,-0.04861752038354223,0.15707443241843633,-0.09747565058014912,0.2079200786463681],[0.10541251584450247,-0.057639207942663716,0.07310371097397939,0.010920221387843014,0.1406014494624716,-0.06915957713175155,0.1614044111177566,0.10215576135312653,0.06264491934229278,-0.049435837009053386,-0.17298575058662868,-0.028771297834533756,0.09128929587625101,0.012132654839459509,0.04305051680506383,0.05956288156424481,0.04686959986416082,0.012408648033802863,-0.07558521306588487,0.04824617771266997,-0.037541888280246974,0.08993149481206313,0.2493621516380954,-0.49472209705298875,0.13163301711781344,0.26944203426797547,0.13010141685908613,-0.04747706930521313,0.20249549078710108,-0.09246591994405982,0.36776070955018964,-0.07964601647039728,-0.0026869767201206114,-0.08549040506999667,0.003198615430118303,-0.03854209066708364,-0.022593662599506143,-0.04472913298351671,-0.15176519653690865,-0.10205209875731448,-0.013345285080109317,-0.015115730965532053,-0.007985893155428936,-0.1138424121640495,0.20907469728509495,0.007808307061960185,-0.031299658864738775,-0.14579299968723458,0.011513060420175624,0.01478856281575626,-0.12912010460321402,-0.10474434390508974,-0.008876644623475068,-0.12999196850419864,0.3630209928019462,0.11650802640350341,-0.3354510937572682,0.03323134935736055,-0.1920312484447436,-0.16618525801646325,-0.06808723411123906,0.02391287572018689,-0.014202841822735226,0.08177647909848565],[-0.03725210785754129,0.14958752374602707,-0.26668387376490965,0.1520292292239527,0.12715021216093292,0.06405274124391154,-0.0846795186371358,-0.23224787168029307,-0.1112165718119254,-0.2003620791455487,0.15278094340287995,-0.006572784665494768,0.06509123901392702,-0.13817004878429712,0.04494252698055863,-0.2413211207857663,-0.11500098331899236,-0.2649094602121012,-0.2652536795235205,-0.280197706958135,0.21665707327407127,-0.24908017471078642,-0.024521171346861863,0.14270012331523826,0.05459726068417267,0.20421044408600247,0.06138958430908497,-0.2614467414364566,0.23582157086787045,0.04879480936954162,-0.023521450776783637,0.2415571991209087,-0.05690214459604298,0.2880455052030885,-0.18449239597174621,-0.077271153296126,-0.28189396701613484,-0.0875548821334866,0.13399248107269646,-0.007194985478987483,0.3260078411541253,0.29155559269971026,-0.03979299035605274,-0.21777394687746138,0.05678105766902444,0.07103446901607151,-0.10903414512456716,0.24290467906789293,-0.09062345617825494,0.09009879146203706,0.23166940092117183,-0.14869761304529494,-0.05309900579555863,-0.15412631500820698,-0.051873452044563256,-0.13115801910335653,0.06522961218162672,0.060302595316924744,-0.23968874693472528,0.316264976443546,0.28768018609593854,-0.3543262119464726,-0.09677813799312286,-0.011041455518059018],[0.151325429289368,0.05772274058391283,0.29120912268125076,0.21162960696420074,0.11448613958650823,0.11212405047344627,-0.10748906411062929,0.2801869823414295,-0.11338691039098156,0.31459225441968536,-0.026590481756676103,0.15703423835944155,0.08601617170096179,-0.043792172847576624,-0.1586095876018473,0.12933846331613183,0.20326970258426535,0.005802773469729255,0.15450421851389726,0.037847909567822045,-0.2109243802258538,0.15152834717424535,-0.23963381763376718,0.1534939033772392,-0.19797458160628062,0.11767089547032014,0.12163963141248631,-0.16933205331864454,0.16345141386034054,0.02328403007300577,0.13118517971403706,-0.011646930345934321,-0.3026847455748166,-0.11098598617321909,0.1214041253366317,0.005308433477615202,0.04443704447628272,-0.07326226555735091,-0.3093325073887887,0.09254365381810421,0.09024294641697164,0.10335461022419082,-0.19770565660187783,0.2358623635907388,-0.0004829724253572782,-0.10740378064634262,0.09345126495317654,-0.20509409526211353,0.06422766459793759,-0.1799040089925916,0.20988207619281202,0.07223793795238097,-0.6062649057817744,-0.14882532852429453,-0.08552288414936007,0.34205320478340895,0.01028991357585372,-0.5669302066026141,-0.04333158040107134,0.13252992109925205,-0.25764348600584164,0.13299994942069002,0.04625834600361278,0.05606442811128829],[-0.08434935117783895,-0.10394878454462497,0.08450153872467746,-0.20638552633863128,-0.042014698862623594,0.0869701223076619,0.08844045529930715,-0.19810070329208873,-0.017310696938733744,-0.32930104770319923,0.3634818148477793,0.0814067578363382,0.2485029620499733,0.21947130900393638,-0.003410804960945003,-0.03516637886579304,-0.04878578785461089,0.06940105719054522,-0.16793377080392816,-0.18340565773386025,-0.019531136946881668,-0.014125267996677252,0.053245574198790765,0.07976054653878205,0.15589647437935897,0.16516190620550905,0.33203622932683197,0.05008575726399604,0.13341207415028777,0.10184885355968673,-0.09032108477416688,-0.07684465549768574,-0.12889721014111907,-0.16006136622982076,0.0356446135082476,-0.47866131448867666,-0.08461932768067747,-0.08694451032340644,0.017288317078306838,0.19191798084275466,0.07248485962385555,-0.05301395430494507,-0.13023833038282387,-0.04056919900936819,-0.03549987152113732,0.0866505205098246,0.04487335776075883,-0.1570317126817877,0.3140328988004787,-0.11180481330175703,0.07008777323711766,0.005766943298585038,0.09541541239212989,0.1532450660207595,0.08423663564430653,0.14206037392230475,-0.0747327579269837,-0.19228220523740194,0.02078477442113297,0.08747244586254502,0.24238890366539312,0.05870198217885831,0.17062786881358535,0.0728544441120299],[0.1111038522823797,0.017427287558978544,0.24701700838828236,0.05762126985833204,-0.4185301663057285,0.2744109974020892,-0.22480388153800043,0.27689031807366316,0.053928571965580145,0.19663807527040608,0.06272914190211462,0.10743391149014639,-0.03320731803636142,-0.4087297929337035,-0.3977108212194234,0.12576799805254738,0.33696160495671196,-0.18783260258050322,-0.1785502577344299,0.2010806246951971,0.17092582033078924,0.038068463129879423,0.07974655319483072,-0.08753538679266173,0.1130567053566845,-0.16245476600040357,-0.283405195413694,-0.015547963324181855,0.10291966472242658,0.023450313807133798,-0.07975941157368971,0.003019897334050053,-0.22454639739684595,0.09951649757411994,0.08724241389913258,-0.08743538430426846,0.01787227446581428,-0.40093074939667545,0.21797823735199978,0.22479301209171626,0.168360202987856,0.1327133228925606,0.1833836791498934,-0.23965445108306394,-0.15925152348996724,-0.15554992599176068,0.10675375697356036,-0.20537610719243443,0.2128260434455707,-0.07908985595793118,-0.35508545375381734,0.26956278194134475,0.1936123928823556,-0.23513600857254016,-0.02396407047462561,-0.09476997187017298,0.1505965406456798,-0.116906381059367,-0.11958046024411378,-0.2708424415025323,0.014299837944417877,0.08699589774497377,0.0551006427532176,-0.010969095805001605],[-0.043592993168657605,-0.3758025050941628,-0.24988232770864874,0.03186160264770137,0.05755319456574907,-0.017108800116001223,-0.11083522659468556,-0.21827567207563547,-0.04646642395249734,0.008370595088700325,-0.04677224343297037,0.25766778436112325,-0.07386628930071282,0.38603451258756727,0.03505408460100124,-0.10418817381593422,0.023358090574599196,-0.04864754750919766,-0.10117060073063225,-0.07084232500177907,-0.04930925733807297,0.14574905074890057,0.02563366825037399,0.08216707774590121,-0.004223277255735903,-0.05129022735730037,-0.0542508347055187,-0.15476997298549858,0.09701449389066948,-0.15397887522399573,-0.022259354983820746,0.15518868876252254,0.059684078473461626,-0.25613118840994237,-0.32247814758045595,0.230116630959062,-0.1868434876670826,0.2869768249790054,0.28932320649196946,-0.034454791114718275,0.10886678154338215,0.04854468118289133,0.11516884537660271,-0.03008348243780035,-0.27801745753894275,-0.044361953783518135,-0.039513959197538265,-0.03517852567363595,-0.1501706823929825,0.08626367139909234,-0.12974538410575326,0.018503688627330088,0.004856798393898116,-0.13421096381495773,-0.2840423749864229,0.2647986298223877,-0.06508916689206247,-0.004762124365761423,0.06786932608126268,-0.4541500817243169,-0.01399753431882172,-0.21422837245397716,-0.07555257128712327,0.21579859519175743],[0.05179447357846243,0.00706158946919697,0.03320896208837535,0.47451168532878923,-0.030573662644171922,0.022203330482985215,0.17733446725261595,0.0661277103224408,-0.3037866648185914,-0.08445648187104499,0.15905716217114568,0.16808930233555913,-0.10744002923514663,0.34889779226610507,0.14087343911022515,-0.12927417130686714,0.1415071672467187,0.2241791390258234,-0.018410088761055123,-0.10176123136924753,-0.08096035252796088,0.08767345960900456,-0.02763730649799867,0.056695208138256244,0.12924359204254351,0.09603547160821144,0.07385983665349052,-0.14636522219187473,0.09546590057172627,-0.04432980788673168,0.15174297263987968,-0.025412045134237837,0.013229489935251443,-0.0786327441026963,-0.06044110187982305,0.012509401868747985,-0.08321543151597993,-0.08702964590573745,0.14698212315120748,0.04492209631393885,0.1323129076161954,-0.18094390909166813,0.11028141031379232,0.14785142989368538,-0.03068495847972508,0.11410434476019447,0.23467513350902833,0.13269911822325214,-0.046947592307666014,-0.3186336373980759,-0.08855203526138977,0.34715037456604214,0.04670425280578254,-0.01233900111363929,0.006766583663319782,0.010145219536880462,-0.08946974152764472,-0.0948950330143888,-0.06051785904229126,0.04122624565182614,0.11268681115190624,-0.20907127520436158,0.0819456599950894,-0.06334861858182046],[0.08336060438739719,0.03184226197360501,0.10359505468958183,0.13665000545885606,0.05107620030976576,-0.20667099065830666,-0.2109165362801461,0.012203845881333365,-0.1414839834148483,0.12034667878714121,-0.07495163855269045,0.08025411319794841,0.046648263316922664,-0.047810101951593936,0.11441277440619121,-0.2783807659176395,0.11890026727293597,0.17607702547931267,0.024758937758244153,-0.17383514578313836,0.060251331495297974,-0.23754039137850327,-0.18276642212513897,-0.02963743370598422,-0.14204520008146257,0.19262912421675232,0.11759441663409934,0.26715211942963535,0.15264989206277402,0.14508085886642047,0.1076633534693876,-0.002176960121819899,0.059089692952304484,0.031562713192135015,0.4965248869582722,0.040185361225148326,0.3861199546038026,0.11536853128544654,-0.16831624723940913,0.027969391741064192,0.004719215784896747,0.08675376115081931,0.05665254376990691,0.2595744620471495,-0.10858942207888171,0.2880462957119066,0.02987340814494957,0.17247992186401348,0.22382259405641486,0.04498737264679614,-0.20848593604484683,0.10172686800854813,-0.1669467678370635,-0.08885032404139047,0.3212823136275827,-0.09623634187189649,-0.0992987717910237,0.01635928545414292,-0.11387780397395124,-0.12499548784397149,0.13159242303341318,-0.07318862237670325,0.2399607616698966,-0.26914414587120083],[-0.11005898408375427,0.2161653395429517,-0.17524899129336438,-0.014963278885118314,-0.209235248300558,-0.13072610982500102,-0.20092278315495068,0.04649448748806011,0.02335777744637879,-0.2771045292983697,-0.06495015227235262,-0.09364209370717408,0.09430629871571818,-0.039641704737093816,0.29580965955205735,-0.11226718024814628,-0.11833760577287135,0.1360359989505687,0.011012381382720376,0.06917159512398513,0.1807985444579746,-0.1550170750369145,0.2298853377846532,-0.10123496352375089,-0.006858993111664807,0.18465809968267446,-0.17358739765655043,0.23508295685630023,0.029528178699114213,0.1271705831470495,0.18510389404629893,0.17907404679312003,0.36747127680210145,-0.02023420928248963,-0.27962850590859695,-0.022624466551695463,0.06133968171585769,0.19636520764290338,-0.029327446917127586,0.02069882167180117,-0.08653806217086178,-0.0014954352705605287,-0.20687780027422373,0.07377816793188835,-0.16917487793283134,-0.20516354673357473,-0.027970896227899507,-0.24967153865851394,0.03211238773520654,-0.238553635241191,0.08236282638836569,-0.07954721766526417,0.13126189895534285,0.17605022901513012,0.040471609278388804,-0.17008147007661328,-0.03990015122044956,-0.06134681274048446,0.01761008212946521,0.0942839151098821,-0.0061193758095621645,-0.16339016452847702,0.14585359751759497,0.024819922061760785],[-0.12106535955684779,0.08733675184407047,0.15751184304559732,-0.05025676861541499,0.030166345655683553,-0.11189591007616569,-0.37904212672326876,0.0347315435864124,-0.07923295548073118,0.17413057029126086,0.14517111382517886,-0.22401640576749998,-0.12312055184594857,0.5256388481075162,-0.10614735668056247,0.06535199066428259,0.3831232582085118,0.3956684160673014,-0.11711618528917232,0.11688631046612356,0.23849861065179354,0.13228827978132848,0.28866057301014003,-0.08508096928448135,-0.23840860008701775,0.02688719225125373,0.10544283737681864,-0.19611077907113617,-0.011263682267621592,0.0074059632224309875,-0.011907689949806859,0.12975235277680022,0.1644707867139773,-0.012847205189595569,-0.022329142658498963,0.03122052490244727,0.042394169547844696,-0.2456330583242393,-0.04362266576722616,0.04269503655037101,-0.11027282313129516,0.05078712910256892,0.2130186718217082,0.16777629387159151,-0.21454847906733893,-0.43965668254982027,0.1849519702002824,0.19203992883164833,-0.13726026108871076,0.18068619180818998,0.07033662704698572,-0.1982403277087347,0.40508755729039964,0.009383408397165343,-0.10948786807064577,0.1239088641241614,-0.24263882001874768,0.062134497710853276,-0.030748592437441057,0.09659846831294523,0.19554661241188598,0.09891417789929233,0.06795278840820543,0.017530115511579944],[-0.013415427266700636,-0.10683718266232922,0.3393198453966954,-0.2715171972014613,-0.11774296137266806,-0.030417654546334525,-0.06955999434965304,0.13783044688805557,-0.018497036644100035,-0.06095970492893776,-0.02635119293427453,-0.020313573615095767,0.3073694748273728,0.17582275085003246,0.17410759252074687,0.14019806813381538,0.17729749529886005,0.017415808563436493,-0.12336704545632066,-0.18340781038558757,0.013721686747388552,0.20326489813140497,-0.12072516384735306,0.36761772102267043,-0.10135331405975788,0.03175367677347702,0.0884492236189688,0.2058943553359718,0.08015881960477829,0.3224167812390141,0.1917800952261364,-0.00723212561565383,-0.24269744658710624,-0.004866852963281913,0.2003360134686099,0.18620682492301116,-0.04147326514913588,-0.03661025709464345,-0.04744676665808282,0.1462919355048113,-0.12117727640842076,-0.166720914417171,-0.10124203586781576,-0.028001874251112047,-0.14352870449046412,0.12780312127653845,0.2576022790448223,0.2804658711123866,-0.063880499600452,0.20375764285933856,-0.20251034162892081,-0.05894313100165751,0.013876221873501288,-0.2501877646897768,0.16468635082686092,-0.02481169890336975,0.31810962554748184,-0.03727851735189408,-0.1544483414104383,0.22744689446835653,-0.14671557177214012,0.05029177107357472,-0.08996351811971247,0.21626056892110684],[0.19697668294266865,-0.010839409574652679,0.11162380915160974,0.06275894035268284,-0.3771028982071951,-0.19098678613096712,-0.022616494908634262,0.07107652523649272,0.09712468268403825,0.17594712680267688,0.17091823590812286,0.05710794674952097,-0.2589006956164081,0.12557490911510877,-0.11537827205419633,0.13597512705863662,0.11492433981542625,-0.0038546248823609266,0.17923105496818173,-0.19471734754498587,-0.12238762093833827,0.09639534967952373,-0.1498988679114396,0.26126360033347107,-0.09136842811443567,0.1298477590351339,-0.3225276944649275,-0.19149390951817605,-0.11241326206421558,0.02865833786068783,-0.007692151467089323,-0.15384966510317213,0.03129767405248728,-0.21591944213380893,-0.031928124503945825,0.06607383506437613,0.24065450302289357,-0.27980722110371764,0.07959288084077051,0.020521262926315807,-0.05602752701249117,0.3121577717160577,-0.15337969108711155,0.06976149757092473,0.025424597054388806,-0.1893733805036107,-0.02715991932250211,0.055879935590644816,0.2600848912603299,-0.17532855455241714,0.03650754108396031,-0.3272338313657776,-0.06658923812480654,0.10219111012908219,0.1727672206651692,-0.15468840117384342,-0.05065764101560546,-0.14614109533231645,-0.31997131362266823,-0.03786122140619248,0.12013533049380538,0.15329471872823972,-0.024228458076428445,-0.08481643991009098],[0.15631128468553487,-0.208481671168019,-0.011880283719756449,-0.0029773721856403285,-0.004399800060805179,0.17726037145842458,-0.02936294511662603,0.00461475245905085,-0.030175878521655552,-0.21243129996891322,0.03400513359757928,0.38419606821707997,-0.024299086779002728,-0.122996605133722,0.06007003391235386,-0.12393751434885479,-0.1938666279248969,-0.21204482964097726,-0.3106694334703781,0.0727097489250998,0.006966300989132391,0.04264961084478551,0.20072578451826617,0.06738175891225004,0.1020812211243932,0.12097783181303295,-0.2666029561472877,-0.09312104191248931,0.0775034154863301,0.0038025155297951104,-0.08842690759375163,0.10931318184945198,0.09422544190046074,-0.01962276437956128,-0.3180488786973966,-0.1399633462029233,-0.15506008363593551,-0.213708398375796,-0.1256206487951434,0.021371745865636137,-0.17250628075611693,0.03655179960516643,0.07818166911812884,-0.19697004942854499,0.014800991923023192,0.05643972464733776,0.023752039809298197,-0.07556182890639873,0.17896023584756152,-0.15810197110335866,-0.38863710723105555,0.011649663940611897,-0.05083665998433588,-0.18981731209781053,0.11110672473661888,0.1233367642310944,-0.09327610781678453,-0.1960510475281008,0.1721185092378097,-0.09163738669275759,-0.04018136603815874,0.42471657337187824,0.17654421328205402,0.04505251878818002],[0.04093869019006312,-0.14778664709636213,0.22750923315804197,0.04264104241301977,-0.08104855007028221,0.15702662826054312,-0.13785649387969545,-0.1423759574910487,-0.14997344868423748,0.2364924070892439,-0.06608057180244033,0.0721807721019717,-0.37798967551956,0.46583670400272564,0.058485467399536424,-0.10586589324447547,0.18536508331048324,0.1382526309215079,0.07289345092709494,-0.2124794590326699,-0.10699075750000947,-0.10299042671042238,0.19589617798775302,-0.4040491533244805,-0.11051040163478736,-0.2110503543874315,0.0254934104583228,-0.3518105421762926,-0.12603141600956458,-0.14397511775707736,-0.00794692210432955,-0.07739917493542312,-0.0733600692317195,-0.021004510923450355,-0.16319877584622,-0.1013882845991208,0.1591172858029775,-0.06490243519020328,-0.02017381358806479,-0.22617300895417028,0.0016144323336007241,0.33040330322431893,0.15060072977057237,0.042157102085908275,-0.002438989198844065,-0.13189028170840522,0.009953469297662974,0.3635308433692157,0.03022204447299638,0.19595685937890292,-0.17385822978157978,-0.055931982305680035,0.06878140647905726,-0.19988399283175018,0.28621724534352655,0.04835395442027723,-0.022330747332353757,0.032869786683590814,0.20484227292095378,0.10641113478109793,0.1409158480098861,-0.09564154799342627,-0.10843164782556489,-0.15827783582871596],[0.04758768932380847,0.20330930964411553,0.16953289041361064,0.15470463876893562,-0.37231262182395486,-0.17258008768327016,0.08137538347330077,0.06017047258701572,0.25786199731637827,0.03417350170409506,-0.010252742295626099,0.4347254733059963,-0.1515617115269838,0.3417443249497041,0.21205424713772955,-0.07645833907800488,-0.15628622163909286,0.03444532333950288,-0.054932836311487196,-0.11914282090638705,-0.21623759364171102,-0.015780824991054244,0.004824310133997888,0.189229401521393,0.12739388238043334,-0.3149422710058058,-0.26686172019320253,-0.08849339910408421,-0.12460086431324294,-0.41151812109104574,-0.08142093447538724,0.20403996524963783,0.14680975298399468,0.4648014081259055,0.04548474545618336,0.14444565648995253,-0.11073671282268767,-0.31625468131570744,-0.04004759401330398,0.15991265462055013,-0.3367687829933644,-0.2206386711167233,-0.34460976806338445,0.0621282067210898,0.0030619733604658867,0.02377676042060209,-0.24571851201604875,0.2986400078474631,0.012891492417732768,0.4033721093321537,-0.19336750022102284,-0.061225886036294905,0.2546205261977965,-0.16315367128902158,0.1286658714883389,0.03587709751391841,0.11228160044958252,-0.2557262727734533,0.14167158849238734,-0.014229337441786831,0.16748639717231636,-0.17068608311886688,-0.14947822851517492,-0.03903262192963548],[0.2419481466025748,-0.2054058130427296,0.07758383290331301,0.16178413025801022,0.0317723056307019,-0.16131626284198242,-0.29790131084455423,0.12551938935742288,0.18525045985713404,-0.10950830040306737,-0.331288767179256,0.09107207852307894,0.007790123739106702,0.17440854710037465,0.0631225150141723,-0.09384270513292127,-0.2121043946937758,0.15300686528342267,0.062009806307503704,-0.21288352464390525,0.307637059128716,0.18028218722222442,-0.16184553519790135,-0.0705128365032583,-0.011630834484470899,-0.15259711308008336,-0.07050129232787095,0.05236639973748808,-0.1587910755974392,-0.0750075171963902,-0.20532634908052333,-0.11893972600426733,0.13384285050806904,0.10598925922749303,0.03728651351466695,0.07511962534494034,0.26349573573627094,0.26623450873833854,0.18613503656390568,0.16847030571590882,-0.33250639417892286,-0.14813755196415743,0.11858377187546633,0.15196322885149527,-0.1313783457406875,-0.0790344198276058,0.09325224934860538,0.3305689176341829,-0.2893035838704107,-0.16084880335429486,0.06907241663690333,-0.021632347656475967,0.2960368532227119,-0.0071097641530241005,-0.023090664605710378,-0.08410961304474057,0.07642537325521369,-0.1336572503290315,0.06484858575159631,0.2735359771439558,0.01062979122725106,-0.1666818815896534,-0.40983218474602157,-0.12333808395502849],[-0.028080332847550894,-0.07918530935740145,0.1339870881145227,-0.34534652279388706,0.18643262841610556,-0.07337940101274605,0.3416937204167288,-0.23895967935506435,0.13628113270486963,-0.33548933722293484,-0.03269501953715906,-0.24065424255171494,-0.05944434945296255,-0.021312861405724116,-0.027890987045538385,-0.0234338633720353,0.37513467414604856,0.0269596559670467,0.04228884773530278,0.10244296668729472,0.06355125009569844,-0.2942023393206751,0.2224552670570457,-0.15827796802264812,-0.028669263920758248,-0.15529899945768932,0.07689956725027186,0.09503762123731531,-0.23271999703962845,0.05682379974231535,0.029801346998493003,-0.009004540992200695,-0.13481306356797856,-0.29337114101128053,-0.1297998615175104,-0.07017049181176643,0.0991204344743709,-0.21467816784889532,-0.01886648545643569,-0.2268521445398551,0.10993015195577799,0.028803418128049277,-0.03737306796978835,0.05760528499336216,0.22600268631326167,0.09710832403054524,-0.10239776473864093,-0.24655954817700876,-0.4145915673366678,0.10605541870920596,-0.1392366954489284,-0.1413764599577756,0.07747435626834719,0.03754822779318212,-0.25203399694595185,0.09062492149843851,-0.19947129715665887,-0.22367953049194705,0.08296784720792198,-0.05704721242004536,-0.06131123856855844,-0.10313303416132892,0.17633023566008002,-0.006691756912755384],[0.15173094666015047,-0.23056242216917908,-0.17439239954513291,0.03238957486522487,0.10303455331920766,0.17886270963540363,0.01574388603835159,-0.1634120658629817,0.09595669599399732,0.02213961865920117,-0.3783205879472581,0.25447196333828004,0.02055615045071532,0.32475937515620834,-0.19386896201732984,-0.18804050581656592,-0.012219494524302897,0.1032919015915256,0.020528078615976574,-0.04583386433122273,0.046403766675353605,-0.11961652612134636,-0.20088388470997962,0.17295303488355124,0.008881518611846804,0.14171822942273374,0.09852262682337244,-0.2026324847979992,-0.1614243726557739,-0.14526514825273087,0.04069127828465811,-0.08591455044797021,-0.14449316406289717,0.005765916586795376,0.11673647882946711,0.08894788617194013,-0.05982832892975327,-0.08597635475873787,-0.12861734950449755,0.09750185308904173,0.24631775891884897,0.038429940318573746,0.04365557583941504,-0.2814505769950752,-0.06016192253380599,0.1278739722286936,0.2285650065426969,0.12663943740079628,0.0999905670711428,0.027344375608342554,0.1766927341262937,0.2828618064731635,0.10020071054178385,0.25774040338777454,0.03237155988415344,0.21426897558036906,0.10626914801186581,-0.17655580405834778,0.009409747007179236,0.052749122771707554,-0.12487404844088681,-0.15848102883010123,-0.14691006065364076,-0.042824557210673735],[-0.046019746883153065,0.09436377191635668,0.0057638794620454665,0.10486064360332034,0.3510493838715386,0.2166855358618577,-0.03814174908299136,0.20243442405332215,-0.38526972834820583,-0.19027343955431486,0.020600990243062153,-0.0288553257836162,-0.21533840586531133,0.30761663675357476,-0.07614574084643631,-0.2233509492764357,0.013082968488320686,-0.2921318995611072,-0.029275951412533793,0.32394328982539594,-0.21641505962742513,-0.039350318844370194,-0.11438090189566101,-0.08524466969071874,-0.06987944862935623,0.19081727671089263,-0.20670496232749155,0.23102854466954756,-0.15088681580864788,-0.3245830763809008,0.12220912194923993,-0.021470492554786013,-0.22173494030377236,-0.13079474957469892,-0.2198083052096522,0.14583758820313314,0.0003309492580838621,0.11796948531766911,0.1298643470513754,-0.13235204038162718,-0.07673370679693833,-0.2308155543597744,0.2130188745342252,0.19170261591570906,-0.4657266499768409,0.10391377986250003,0.04492142048698208,-0.07317039629914657,0.14622480369984012,-0.12767293137928373,-0.09402999055174474,0.25300961558914575,0.3995256791550664,-0.22097864866577144,0.06378680724573482,0.14116032901267592,0.34998392418368796,0.10123610460078167,-0.06413075634935046,-0.09463000927633769,-0.2551814500802062,-0.13885922318270677,0.1670358133947989,-0.06389230573224068],[-0.2255986697626983,0.06899842105617687,0.13559797462906012,0.09661937173421578,0.09204607687299768,-0.45781248025018,-0.2615861502510527,0.1509297586601577,-0.08845825203023884,-0.18287361471215918,-0.19046858316151435,0.19650210388934158,-0.29460924711760916,0.16535981419904563,-0.17112551305197435,0.0034421933554387683,0.007705526271949989,-0.17643818930942706,-0.181106463918299,0.1383431129270109,0.33676976893877025,0.09776979220180412,-0.04668821729859526,-0.2050993458779998,-0.00964495718790195,-0.006309658898151264,0.0161871292253483,0.021716332317619713,-0.04611213292123892,-0.20705097600623656,0.21284053871733769,0.2600379119907804,-0.08036414380761475,0.2591741677763703,0.024470140284396258,-0.17138919779855374,0.08581648699349835,-0.11545529485988915,0.3572837532669927,-0.10873864765262072,0.06740222407365115,-0.04936516736198037,-0.08290250216585664,-0.04623212326923935,0.21539838366875352,0.30499083742808986,-0.296706614744693,-0.07585628115944937,0.13097454786255075,0.006486809113739943,-0.09537554050262756,-0.036569013486794755,-0.04138216500061455,0.07337356531810697,0.11096835692873869,0.009689980736205554,-0.17428322489879533,-0.046446766602639133,-0.16809239792218475,-0.10542994890665214,0.2519581860270023,0.0736968126516035,-0.07360255549863176,0.0981254018216996],[0.06450170136301968,0.15910772637468767,-0.07353280850447584,-0.07204780414253392,-0.1408145202003533,-0.034986087505170016,-0.2825403780514742,0.15702045667656192,-0.18829052516390107,0.16503749005133944,0.06526553300874736,-0.0685462637172363,-0.19901752571869877,0.07034159519204404,-0.1080435334102618,-0.19959880168204852,0.07694901810746638,0.09740085898190394,0.0018073201911391569,-0.23888322736560633,-0.14101785757133073,-0.13159537055679477,-0.3806636444605022,0.003963597653749912,0.3206502188679271,-0.20140038186739725,-0.08861833365399796,0.00895081837369902,-0.1237829332779357,0.056678113256849814,-0.09488666615829021,-0.08983167162911576,0.41727099428966474,-0.02323767386405531,-0.3537167852013597,-0.09773906414305988,-0.08729228141005395,-0.0036366586408283553,0.06068497596757419,-0.1381846661806718,-0.24328291292480447,0.2239240175154644,0.28449222907641003,0.2839918596325031,0.012085688622182216,0.1214854718101442,0.06822059122152356,0.04233382004315198,0.1257850617745609,0.17720695433888556,0.03918728493092211,-0.21618930149400947,-0.22731820994324783,-0.023828404904569923,0.3458087390480673,-0.09877241947497457,-0.1406725767764808,-0.08624772043142216,0.09782953928785801,-0.05044891336131647,-0.13342286085930938,0.1694001693169358,-0.0119319713968796,-0.13306451827206778],[0.13446778884838487,-0.1353507691189479,0.024873448678554747,0.003692777778259235,-0.11310559562736407,0.1605866601345557,0.09674374006537312,0.193462278907428,0.015348693993398691,-0.21849211800971277,0.1745879372361487,-0.0739767988954134,0.15485393376864637,0.16600824565521366,0.21530074804798197,0.12272250649536359,0.023711025858908084,0.23093996615141954,-0.15860926379242515,0.3176322907417672,-0.1677867368056977,-0.3839948355695711,0.02559060789016009,-0.0066805057121218136,0.12439820145667459,0.10634065230472316,-0.30905821397196725,-0.18152862894559907,-0.13932049052309786,0.044649580472790794,-0.15943174929637122,0.3182858809511414,0.07482603806922285,-0.21274677079442772,0.09232032606993448,0.27049055908131014,0.15554465519945,0.07872587167929485,0.19256416128067455,0.12379007524387915,0.029737025301589476,0.2946694792343012,-0.022517251497275653,-0.14876834762393462,0.09921848405698695,-0.33805291215880484,-0.42078569670377436,-0.1931945630405553,-0.22301714698012676,-0.44240176989463226,-0.11794352697903084,0.12149504671479092,0.0966356729576395,-0.17351288113514782,0.04626705596203998,0.2668873466913543,-0.279263556007091,-0.205004906461889,-0.1925016179997796,0.17015272078543323,0.017673904849249644,0.16171345148494043,-0.15253095057366908,0.016688148287808176],[0.19777361442410793,-0.10262103413863104,-0.08043877408677717,0.3152488330545845,0.12478964596949481,-0.11560919853304852,0.2990646215989934,-0.1077101848129309,-0.14794402204872248,-0.20009559053606715,0.0057231846099706045,0.23558583675068567,-0.2499955907524127,-0.22564036204131785,-0.2233437379566963,0.4025405514208089,-0.19474856545407795,0.023532654854989187,-0.046372332246586094,0.294340371445842,-0.21589031125092434,0.11864444827851829,-0.08602232170397568,-0.4061234642999489,0.20533965329553716,-0.05912184334987476,0.05254491176405002,0.24096436981099764,0.19656667438348596,0.07036851285887978,0.06560556793889112,0.26910940062139405,0.12812565047250188,-0.06704989337027893,-0.0704184765460526,0.061123907274867696,-0.13351548067032082,-0.33288652252177736,0.2070436267891578,-0.09360837959386654,0.03717475969330426,-0.2738663047642774,0.060966658895331025,-0.21703317679036518,-0.09736509470001882,0.07933243393163704,0.03648201258526719,0.1298944907038614,-0.00030116904398954833,0.20817533006737704,0.15622043118838247,-0.07322154039516289,-0.07811075483099708,0.12795783702379476,0.395025998310345,0.10142956472324823,0.25443976048551337,-0.07602582960927365,0.19709007773813456,-0.19561364566789574,-0.14335148578605264,-0.23917076096031697,0.04195309235765432,-0.21858921986391963],[-0.18915360827892366,-0.14606142870019992,0.007807931334931966,0.16946999601973264,-0.060706792524657445,-0.17400800845847275,-0.287756351162785,-0.024509328128935748,-0.09382401820265096,0.11651950036033004,-0.03682104988185922,0.1775667189362941,-0.04522833230748803,-0.0758920528525748,-0.1307755341451246,-0.09252942195414861,-0.13820540312254262,0.18458303666408307,-0.07310595709710732,0.432719795417448,0.007473387015256063,-0.31156031569075576,0.04341162616614776,-0.1576846616076823,0.20426928889463908,0.3450130378507132,0.06740862062475655,0.056506141804338945,-0.03554771733904751,-0.04269065186690738,0.11718679218730146,0.1249742482851393,-0.03193506937154732,-0.016902628645197544,-0.12003001346641112,0.04512713795159521,-0.23756228415931427,0.08826334924378698,-0.00947031351591821,0.10988901325774604,0.09080740401164937,0.2175241958302645,-0.022793457103014787,-0.21203305373294878,0.18697410781369558,-0.1442035993768458,0.01574016531964648,0.059918556419000735,-0.2906675926615984,0.1771101372208034,-0.3874883090217352,0.29732003591283024,-0.12494572643285505,-0.015127427001548196,-0.1790395553791771,0.08854943734321138,0.24136271030753775,0.10435871527569966,-0.054227964158509376,-0.1156805368009286,-0.008237724130663432,-0.2682216579255225,-0.04635712185251749,0.04483566672995466],[-0.0636616003343579,-0.0790582407883376,-0.029323119944918694,-0.14852627018589615,0.381115724605514,0.280399280013266,-0.19106467342435757,0.3794899188891816,0.014792527738272125,0.021149177681578084,-0.34151457736319685,-0.15356047224734665,-0.0030041548747598815,0.12120536205140932,-0.018979040556002906,-0.061651741771393515,0.01597099605889992,0.2538947467746281,0.1256343688310508,-0.1556035309926631,-0.27438117811828916,0.1591217178780905,-0.002986371569883179,-0.038701793291028866,0.1944301597113666,0.0884410179127195,0.19875467567811975,0.1681788588084822,0.08421472455673228,0.2108321583032401,-0.08419204710506362,0.13487460247626368,-0.2021920195153428,0.12306348314654288,-0.0002740665144713601,-0.18082293587568432,0.06741896277870398,-0.1090004389588933,-0.34868243672048416,0.16711958490303944,-0.4165054031488286,-0.12174674760840747,0.2429506051395204,0.09517113944504993,0.2386468342168557,0.06411866784306869,-0.19746179739001665,0.050416597655025486,0.0569818983552908,0.11840538407205109,0.060621430398818545,0.10608705622649928,-0.13203895483367123,0.09538149494260285,0.0012502726169833084,0.11119847211958167,0.19893465462221918,-0.01206864188760285,0.18062355769852836,0.07265704533527323,0.20644058976886948,0.30470537546892795,-0.27465927603207,0.10286695325650419],[-0.092438729751265,0.4256750294956632,0.0334337273102646,0.1593883352423816,-0.15861250513705877,0.09766942689129093,-0.1484452511244732,0.06022387878594303,0.06155314825189999,-0.06862183197339967,0.3399414618570788,-0.36713564121738596,-0.06983107478426762,-0.028066631063893652,0.1981585785503308,-0.13206564540206348,0.013889224199079255,-0.08272459197471625,-0.056055894500348896,0.06327660132225528,-0.06965856267754085,-0.07100588820038885,0.004222973789266394,0.1579473275645283,-0.1038248959186627,-0.04578488792391458,0.12735360008141283,0.3018587437717856,-0.29713568040800087,-0.15256940512196396,0.2738121623372174,-0.10571239278564419,-0.13463029383025824,0.387360329953422,-0.18047736310304588,-0.026823746768209943,-0.03418391354206186,-0.021152010708973816,-0.15361252543285125,-0.15054917417190702,-0.3469771224512353,-0.06127979384695523,0.07312779603808066,0.034156217757345744,0.06065276585017158,-0.04140840745463633,0.15311610560945502,-0.15152983378274204,-0.33488812740251483,-0.17739445262110165,0.2807439093372325,0.16126517214660196,-0.08254980041078576,0.07076653824494061,0.007405791300702174,0.04546729516145059,-0.018121125632761973,-0.15280773548539556,0.06325745458544563,0.251755931529814,0.10046118002771921,-0.25441179417942095,0.1543330066427681,0.24993008606999217],[-0.27380947523969884,-0.08886379451055537,-0.0007448150647865346,-0.01827504903482627,-0.08222420702838795,-0.06203804613758109,0.014211667080491692,-0.21114778810039633,-0.03141011727617399,-0.0007356717174513961,0.1768085859864163,-0.018788094159716492,0.1292069410775068,0.1919556066356481,-0.12746567436295286,-0.21569803779529395,0.2348939557491157,0.037596271406337,-0.015895201970195044,0.20659632563868882,-0.08430723464035791,0.2352541531278983,0.2718274296708369,0.0031015539608893923,0.033588103580212095,-0.21338497963634323,0.002054354894838939,-0.13872817462421735,-0.06480552539539841,0.10177560305058335,-0.13104431022192115,-0.04432226050608202,-0.14281993576989224,0.09871933481208194,-0.15502440873379064,-0.25881331092275045,-0.030184734370577084,0.1215205748629411,-0.09421995726473056,0.03275226775429531,0.08571986886567308,-0.27654086370244707,0.09794113548913154,-0.12683524490270068,0.2749343666705654,0.10628144474437459,0.15294450095674855,-0.2172882449541187,-0.14069196765431666,-0.1974697212918314,0.0058416317790990595,0.08634392764659679,0.019213650905372113,0.011695872162374981,-0.08427542140965746,0.09636522801381192,-0.13143128351454858,0.07848945862566511,0.05669804898815528,0.18509500765175274,0.12204191711270772,0.16602377482267872,-0.2796195871170985,-0.06302489443883445],[0.08689446628091053,-0.12840439370728002,-0.0399778788331321,0.10424289224537643,-0.043638651080036964,-0.046117548822223346,-0.011323879908954004,-0.027723071104096542,-0.03461119795297924,0.027213517109364035,-0.03639314776850785,-0.14119918521450847,-0.06838996069558087,-0.04031258366580148,-0.08949526622479952,-0.09654509491963474,0.08144181115959417,0.03691829013624005,-0.21847258513070075,0.08101768223597318,-0.196128207841221,0.04687306409407226,-0.08900620478436824,0.1415779050055811,-0.042924671046922644,-0.19900055846977133,0.25364125291763034,-0.07022899917538189,-0.059562848288547944,0.3120879783339128,-0.2195466412551678,0.05836048100725258,0.08726682256936993,0.15717167516776245,0.0020518298519381626,0.12983512652425488,-0.01440291627826293,-0.09016235862587735,-0.06887456478094296,0.11286387521271674,0.17810487247497633,0.08060648636515731,0.07356187893628234,-0.11731275281301431,-0.1992046131240448,0.022695911013813425,0.1092260939744384,-0.09188282129988563,-0.36248569012224197,-0.05227431425798445,-0.27243196264884595,-0.26572606009064476,-0.06882553884974871,0.08290698701630059,-0.14248099882524967,-0.10687824252073354,0.1095438850223382,0.0858267531367498,-0.18572553682794335,-0.02653437413841365,-0.2977794171729634,-0.12007539439874805,0.2476003745701562,-0.022415635072937565],[0.0050635280732421835,0.22716621931399114,-0.152806916133921,-0.07791478323940239,0.12363367944920924,0.0693272961128209,-0.5153170796609146,0.19375654657104988,-0.08181064919980092,0.014731744342886701,0.1714357534443624,-0.15174621494042853,0.34355924398832755,0.008011485651612063,-0.009135717016682728,0.07302081122017541,-0.03316600065557923,-0.13339817138930782,-0.028001806363719788,-0.2718322680719979,-0.10212184629505885,0.20522769767257312,0.05234026218821091,0.21521847577165096,0.07495658544701903,0.22443355096828013,0.06256342189652271,-0.20096614869235163,-0.19906285585038683,0.24619130005710457,-0.011949492319153755,0.3992522048883245,0.15792487261104315,-0.06389122340763617,0.0016452153825279663,-0.01427549086379912,-0.09525508916078142,0.4001134980806195,-0.3564501547599508,0.11315679487805835,-0.39188175340718595,0.18388099123042073,0.0252663612353519,0.21005151899289848,-0.1899751180517788,0.23381409492762123,-0.1773946072660732,0.12783185114097173,-0.11138706770188934,-0.04029763233454548,0.1414818335955912,-0.26787870531683367,-0.1032546025842571,-0.00529849067822564,0.17272713549677113,0.2370970992931218,0.03020809618660731,0.010120499007224565,-0.18865699914518722,0.012353175661859273,-0.05292637457660968,-0.2138505117095255,0.037287319450884635,0.061500591505306956],[0.01151616649468443,-0.14237740235687332,0.18167328209583586,-0.012771795938946059,-0.34413242012753553,-0.13955399658508608,0.18097542002470535,-0.26432683962759046,0.14733815445742807,0.2505642079845664,0.17887730470238683,-0.18268261772049557,0.2174963915855791,-0.2512921040670895,-0.10765994002022834,0.2218724454861397,-0.027032737865924927,-0.0014156654519883174,-0.11929739437657817,-0.3983909212739457,0.3434871799681828,0.20612074657502205,-0.24944203304561183,0.04667812572297709,-0.00650066197940256,-0.28966126785696295,0.13082307632368842,0.0911899863020702,-0.07040081163802904,0.125738762298064,0.021257226664466923,0.10151241835347838,0.32609526974697756,0.15105169702608848,0.12471592546153877,0.3969646223128952,0.04693607071979975,-0.09514670502272601,0.25113125693492244,0.10350966459831637,-0.1677509586090032,0.1067165423425221,0.06912215153681017,0.2574327447559129,0.23156794496011315,-0.3162240799308124,-0.1502035334100159,0.04980770918633654,0.06348611482211675,-0.18543287842456743,0.020447216292120984,0.3221338529252732,0.2928532575249535,0.14394229105915418,-0.06388153892814395,0.3172153947155197,-0.1598051469403282,-0.12727824182620562,0.12210244252662536,0.14857467685418038,0.006588936805129495,-0.29143872428477813,-0.3231768130274138,0.007126577343299153],[0.1491299150692538,0.18790999789587676,0.09577923537473952,-0.10089056880061749,-0.26301455481381425,0.026112287698206813,0.110105927232677,-0.13487005986174702,0.2884918526220585,-0.06159872722202084,0.1261716696744279,0.09013978344054437,-0.06903308635500686,0.011452302070219194,0.08911962655239974,-0.12094708388908895,0.016181528333298518,-0.09899888180400468,-0.14242019364425612,-0.13865696994746846,-0.10246344089103367,-0.2946712918533785,-0.10233042421949722,0.1334681689443387,0.23653941422829988,0.1359757855179644,-0.015832678789078763,0.06816035105932011,-0.2091356921981613,-0.3871289148912378,0.38461426312853436,0.031942734125196375,-0.025791591726781832,0.09078715107369074,0.18263815681634488,0.0896018903406142,0.12352749176653136,-0.23379154821815512,0.01167801910044853,-0.09683812427479895,-0.04652868087590673,0.06662136793308403,0.04357523067994538,-0.28164889197368337,0.045414054289155445,-0.028378667409080183,0.02364411676351981,0.11405701766438295,-0.3568895312487223,0.18576182781634112,-0.21821317969294524,0.1057401387035179,0.12190868644232077,-0.012368614399756053,0.08958529051890791,0.036299008488040636,-0.10291824891222175,-0.04928510036380819,-0.023651278845549763,-0.1630578485163586,-0.022595051172680337,0.07877712705801175,-0.16918986699479893,0.10262810760265936],[0.10121434458921823,-0.06158661123301204,0.3360775799347196,-0.0028800677886989213,-0.12088929498259324,-0.15845625029111998,-0.17095164224746331,-0.15118473624291312,0.08468795021527882,0.10707852079967987,-0.17403670677024247,-0.04605568086560916,0.13244463261689518,0.1935411511935116,0.42192043874308643,-0.05478529949754055,-0.0692520691085974,-0.12706707151157293,0.028365083360088493,-0.02398686717059892,0.306906869969653,-0.11215363021671314,-0.33697963362877537,0.20779563971540796,-0.03453793406454211,-0.020317054889720076,-0.11412480602165584,0.15747708163499516,-0.2612271849141783,0.039688044665838064,0.0005262092833781741,0.3841852629269949,0.007155450291074855,-0.2495530066077905,0.0007568989882759049,-0.21844478351729826,0.2340460003553023,0.003128074905946532,0.09284773476903614,0.28527868797806877,-0.13694177312969294,-0.3415511195503545,-0.07038754453649515,0.2498556962225956,0.04964881578005921,0.18401068831454861,-0.09048138445469533,-0.17787590865779349,-0.03565780363483973,-0.08699399738139994,-0.2291229429203503,0.29253659106724444,-0.02944888462120731,0.358034029190719,0.15770671347756376,0.18230608293664802,-0.16996667399143964,-0.29461656422709326,0.055279186709830425,-0.14153106811016417,0.1758142841177702,-0.24525417235510966,-0.08329695359779937,-0.3047646712016988],[0.035361878841993294,-0.1383762545260792,-0.019453442581093088,-0.1506193649795038,0.01619340384694378,-0.4244205770708729,0.005902450672003684,0.10705022463529332,-0.013118233153037064,0.006706741507015828,-0.028490607984974697,0.03984775193430989,-0.10020734051446639,0.041522991678240764,0.04978708910321367,-0.0784349734151361,0.18958972700555607,0.14701851841540015,-0.06944676309533152,-0.04896183600642096,-0.005363588614319767,0.3363074477009569,0.15348499546102914,0.33319310937211816,0.09243005637464648,0.04302282518229712,-0.15385046405495248,0.27989560765299587,-0.22352216702573047,-0.14136595379883546,-0.14538769071696,0.16535951115524547,0.026911173423680792,0.084591155535864,0.12625053245216503,-0.055741666451680986,-0.05466286977514273,-0.1974513116436983,-0.25603752300640464,0.054587772969389936,0.2664435785948707,0.03360614187668465,0.02450570098756244,0.17064170660145334,-0.25145510670721,0.044316747955487755,-0.19348296622771352,0.0002219532913355294,0.06520279302090674,-0.25596125208533627,0.18137375778934417,-0.0430793118054581,-0.16450142589269592,0.3969025665401876,-0.06326107162902973,0.009325922980424334,-0.5023360537906625,0.2451804350396817,0.10375912827162127,-0.053454325296409866,0.23062997945133118,0.04843877302225149,0.10051790184826698,-0.04007067407452989],[0.05769574596772771,-0.07902327647055765,0.00751351838627543,0.19800870461849357,0.12389418447129867,-0.12086786967498124,-0.05966294656747239,-0.12543707485270814,0.15082854450509642,0.01987795617169341,-0.044518347139163396,0.016939504584259614,0.12127058882930472,-0.14504495951634155,-0.29256293609198364,-0.033200998984265484,-0.1371125839791003,0.15989104034239782,-0.30188116175090973,-0.2611729092870014,-0.16112347135075897,0.061216900320755004,-0.36034281325653605,0.07843981607849877,-0.026238264592623343,-0.18414662478447147,0.05433530026470363,-0.19426225725768148,-0.12488755488815938,0.16054644762970582,0.1143598367269848,0.02925966919153912,-0.06397106057499423,-0.06660526341655366,0.11627146956338014,0.2334234835334365,0.09580998955944017,0.05081163894743351,-0.10272983521284955,-0.037266897250286604,-0.09594176823413272,0.0875609013604326,-0.1321663752855455,-0.19078483719787248,-0.12943096102554594,0.19677327494293728,0.009465377661852153,-0.10259799225036796,-0.22524982285141829,-0.1103045736416945,0.08194810361016046,0.11905437922026635,0.13651677944939256,0.04021511677668879,-0.17119936978668465,0.021784233457464896,-0.04811052396917318,-0.0370573626091565,-0.2871379789059338,0.0784037685844731,0.044111170060783286,-0.20083221153380523,0.10195095043829548,0.11073991987483842],[0.05999842615962704,0.36087122765838364,-0.2740260160647049,-0.018730730887791792,-0.16344166495251783,0.1611485904347613,0.21546477267085598,-0.07778045771586116,0.30406991659875693,-0.3247291814082301,-0.12266389177543928,0.17292809236976003,0.05930025984666058,-0.05823012217977529,-0.13211178094707374,-0.15413610521272228,-0.09552799011375433,0.1458036509983022,-0.1100086745437876,0.10303076597388212,-0.10794216024476065,0.17136652117016674,-0.06178846594928724,0.08800247419717581,0.12301184383824132,0.14645543269802647,0.1164661460362816,0.052895194686355,0.3006244651927434,-0.13331495267677454,-0.004439462694218166,-0.15587289590392023,0.28687322209899946,0.013359956268177113,0.18275517946069572,0.14556342622671553,-0.0983369674258384,0.07560956305857523,-0.01129139647911386,0.1368458771155996,-0.1559967954796419,-0.2121357348121959,0.45326691061229535,0.15292129921892936,-0.1473503744118417,0.04961914115503557,0.2828418904622317,-0.17957193007766137,0.21743954582952588,0.048963889262644965,-0.2191906429144549,-0.2166807360939138,-0.16095357131894789,0.2615929784152648,-0.01523950724618103,0.07849993096931873,0.1289014950487356,-0.41464025244046426,0.42385708650289505,0.1262352339842312,0.05550566385363362,0.0005755313651155416,-0.035064880416859096,0.18430467729764027],[0.2228975708042406,0.22629879967693634,0.08633658990998104,0.0017980107820873387,0.11360073381350304,-0.15318554480509244,0.02679746012622296,0.09316732819187734,0.04424806489036663,-0.03233047442082993,0.1983680034018453,-0.11723230862556065,-0.47380143819519766,-0.08914229913368206,0.0032445212381313517,-0.08340077377745841,-0.02944613837692183,-0.13610076223096843,0.01968295541292271,0.13503621697651844,0.04978723433455392,0.16701532979440478,0.3744260774239251,-0.06635793671077378,0.10951707083798368,0.30492950940110153,0.0945607397855708,0.0614597666957194,0.04727425658611198,0.03832127660300917,0.15888571277114652,-0.2333059500867987,-0.15887045252530643,-0.017470110136942513,0.18057192128839755,0.0057163361349347845,-0.017085677569028013,-0.0616875269849998,-0.0831776201083257,0.19885960416059162,-0.017648978605636568,0.11020440914032655,-0.29628086682989696,-0.17830761614113677,0.02005440008370946,0.4281378206400369,0.05881206621901249,-0.2629750550519604,-0.2923194294601659,0.03380056752307851,-0.2664461655830277,0.17168127642758704,-0.09283335207020157,0.028109799866743813,-0.10347422543794614,-0.23656438646039119,0.15903011484556248,-0.13575803596277825,-0.02502342389700072,-0.192099203280194,0.2294701536979362,0.1747816874371486,0.1106056852215738,-0.4429174189176916],[0.004986471955173957,0.1571622568166897,-0.022247291082756703,-0.08232313119386192,-0.052977975096193994,-0.11066186046949225,-0.19687542789714513,-0.05020768160426426,0.17444745222328792,-0.11943400802921376,-0.009157467082446906,0.04121838199565721,0.019908202208887376,0.0017457421787524445,-0.023149190086602604,0.0482672896000026,0.21291604492795022,0.11783105816833192,-0.14084277466430895,0.0604267057721201,0.16381972863068017,0.1546523048937206,-0.20690429766999924,0.25005432671455674,0.07708471982789586,-0.13584271482100363,-0.006647594152338457,0.036744671308646754,-0.250533327671941,0.22481137817720712,-0.35510180373714934,-0.13349194433120476,0.18557479415946587,-0.11786790659127441,-0.3209477693063174,0.013322442975316326,0.07282994432089333,0.36799801831944545,-0.05479570428570218,0.06276172609443037,-0.0031994891872769815,0.07372126001753246,-0.002842533762169005,-0.2805149758553182,-0.010869783470509726,0.22744747414034874,0.1074533209439114,0.07729145499635828,-0.14259474178976908,0.09337205189440241,-0.04889908314638648,-0.2185857251513293,0.04849612564535392,0.01111780854884288,0.05705314595628409,-0.14560574244632749,0.019896231241698523,0.23192690612176653,0.16003709469532987,-0.00617132710918654,0.0203966764757533,-0.19117871617093526,-0.22798286111650579,0.026967871059591704],[-0.004897960850520657,-0.10476896298920443,0.00553490279484054,-0.2969739982643731,0.18211887966589652,-0.13097983706953006,-0.19109538099581555,-0.12669975866417438,0.1576841613041661,-0.2843554598512738,-0.007895657866583014,0.18450119440530022,0.1136788960779109,-0.22148414567024616,0.051011307349740014,-0.016071397410665985,0.0012780267791413253,-0.061842566632074006,0.03304845056538026,-0.021586137362949582,0.012022429679611077,-0.0884292373735203,0.17403942603074846,0.057748167244371915,-0.2654225453347051,0.052994549029734814,0.34605049681838934,-0.004773718895360258,0.10092144433200659,0.11477377337395722,-0.10020291943086873,0.019022987299168695,-0.09354188980440341,0.12913088352801985,-0.016729988272174572,-0.04493850155876045,0.11081730001723702,-0.24739452125827968,0.00038851575016279313,0.05230926264487345,-0.03933298879966575,-0.0830046302526249,0.1390742335259404,0.0672829437319411,0.0721533112241278,-0.12901839809369553,0.1934257851886199,-0.10573980609664554,-0.15326070291956917,0.00795346301007063,0.16736772802145847,0.15778550484746146,0.10623437299233598,0.012994194292067588,0.11939847538998845,0.29537773747379403,-0.20653972909544557,0.27463887332502745,-0.06337171951339228,-0.0039006470036557018,-0.22370669029984727,0.01898237975866143,-0.026861357135827095,-0.04127603076013465],[-0.14979894467440144,0.24652428655805517,0.011828286838440451,-0.2644721346428816,0.13647514255988666,-0.03992895574636334,-0.13405798345085856,0.030883153595100427,-0.10153459210666034,0.40179428714321164,0.08212527643895338,0.03337830319510563,-0.1531996193505332,-0.23930523853992633,-0.029853522416402472,0.31241089498131736,0.03013197527108298,0.211499434533267,0.02924186816772519,-0.049399053082351777,0.053043890711492805,0.06843110695639472,-0.10348356696308543,-0.036874041337178455,-0.09256542087380927,0.2662078928565206,-0.026185338768274682,-0.39550105396640306,-0.3195410928406401,-0.2331604562625011,0.05750092775768046,-0.14566181490383348,0.17663386622559157,0.13459444286343877,-0.035810917553339996,-0.23704668689350183,0.05240547686577157,0.2509528114135155,-0.08644222385159228,-0.017265323414318915,0.1709432670437419,0.2415279133670809,0.0825616871320601,-0.10262773100721963,-0.15980491965426163,0.11951979772838899,0.03725577256024593,0.1252786698490199,0.046052507035531536,0.08843849023580998,0.09199069381282039,0.0803100174833861,0.1599962073914567,-0.0033789337038745695,0.2201579051239588,0.2639882212318786,-0.07438201155331522,-0.08574832915566713,0.09314732848773719,0.06422350164101676,-0.26669101129171613,-0.21008150442337437,-0.18386969241442802,0.21375394568988904],[-0.1738775963884862,-0.2803712446220187,-0.1684564199763109,0.37499069249686917,0.11256347408053277,-0.21172783419125676,0.3418198700918114,0.26454868734934556,-0.046431057375983895,0.37546543968224594,0.060549857624706355,0.006587917855303398,-0.14980847099198738,0.11678827491722224,0.04904986653476329,0.248974870793327,-0.034400680142193184,0.06489239300349865,0.30763479657297566,-0.03664447526861482,0.24227375391457165,-0.3821421867834018,0.008125341144047015,0.03193874869173066,-0.06099052358314032,-0.08625128575611958,0.02444754873467584,0.10910849738055631,0.12489836384222375,0.011135972410146742,-0.10974711253340881,0.2283395376600811,0.05258799251217651,-0.2306618512050363,0.07258370352582182,-0.2104475210871872,-0.18659910439798966,-0.0973508754398639,-0.09867125563398418,-0.10544230193365645,-0.28037338981259996,0.25722659886932236,-0.023120005889609288,-0.07961816607366728,0.0859110158608411,-0.4760130111730376,-0.11691511596439981,-0.029190606965965593,0.06392071587543462,-0.15257150519021917,-0.3334254100688689,0.2185736356168402,0.33819964730604374,-0.07722473113516391,-0.04361670131140273,0.15064056339012888,-0.0815345669571372,0.11384600890936628,0.07510642179010592,0.009608210463146073,0.35356854711270574,0.15423622282359362,-0.2342731827253347,-0.05196422937473802],[0.04997659646702632,0.09501408754333092,0.07539360968892286,-0.10687341612434237,-0.04923805605429074,0.17763336590628792,-0.1485781381669539,-0.177305167878034,-0.10870156147454402,0.1801960049622233,0.09045078198648011,-0.009037391617309038,0.0905293518427423,-0.2320541065515427,-0.08375787059046295,-0.3166063427431037,-0.4915514224555121,0.07016029238719651,0.03888793064965172,-0.06874649255411862,-0.0020803031557385314,0.2136392448713939,0.04400557866804499,-0.24789803734682564,-0.07314264001527711,0.32236052774362284,-0.2242857402511477,0.36147634657268374,0.01626336664686458,-0.06240281764507582,-0.0009759611155739476,-0.20311930273922002,-0.05744287430448828,-0.19020600061925286,-0.0943628113506062,0.003533812188468939,-0.05859836764571524,-0.28751577456438526,0.2542067176119504,0.2273232049110135,-0.005372518393469554,-0.27392580524028914,-0.12796344574027152,-0.06280687492874354,-0.0667059936665849,-0.04135781083216807,-0.10306299727507592,-0.30560249843559517,-0.23991911812547367,-0.018141933657681387,0.01191178638063844,-0.2072624364811713,-0.12413906510548857,0.1655980063631483,-0.12353846230535334,-0.03888135277113678,-0.040567899080585175,0.09491552213844785,0.05161741437352813,-0.17795592638788119,-0.20213783397479726,0.07866055038033595,-0.0028119193741180776,0.030837625362446136],[0.372526417054431,0.32017661018225263,-0.09732662998625352,0.050306691308761926,-0.06473047365613041,-0.025281210483914022,-0.07238828189762708,-0.035463494555388934,0.18839527577298434,-0.3491549376764613,-0.12113133578488805,-0.1732465007184016,0.01987050759274658,0.3410458387314133,0.20717120813263087,0.21033849858379627,-0.1542104944653713,0.16720877085248267,-0.08266024394394017,-0.012069061018048449,-0.02513490406523709,-0.015718415546934913,0.25712612414045405,0.25632506423424944,0.09742217170154635,0.012255585709591425,0.24175503957566294,-0.09483664470110818,-0.24579744184888497,0.1065563832004221,-0.16335102964891673,0.22825228128075975,0.0073253215423873305,-0.14032601681123402,0.25725073774901325,-0.05878681750742932,0.053012441021904354,-0.16832493076531732,-0.04316342806635819,-0.09037523647966314,-0.14510210421089792,0.1578728156649973,0.11438071200169217,-0.1875320631964639,-0.17606539338770613,0.2469648669575968,-0.07603192109398442,0.0614730376196165,-0.2558135877398967,-0.018182318927796554,-0.05198566066496979,0.04139089118678485,0.2607954579309213,-0.04637177668289293,0.2978957921081556,0.14876644247267723,0.0011632031714138014,0.262919644327619,-0.05867981105892978,-0.19329011895918466,-0.19809859229054558,-0.0021301463415893595,0.17604153435297423,0.1429036923707792],[0.09229188372613929,-0.09687772604201036,0.19096476625243416,-0.10521955569346902,-0.06335839691830628,0.00885210618225253,-0.21053499187680438,-0.2980391692205605,-0.19875973545451792,-0.041166327263781895,-0.10005333808482841,-0.012146741207503054,0.05736081962148348,0.27018721376301036,0.06778864142261237,0.03757320140463469,0.04150650248935399,-0.019758398184192578,0.23963806070933658,-0.13622108869554858,-0.3996542753653848,-0.01755919298833822,-0.3111926901140375,-0.1132602556944582,-0.17997718246799155,-0.20758195626512801,-0.0274172428810436,0.15122775346406697,0.32617194697799506,-0.27322918940556234,-0.2115536980412242,-0.11682601157335204,0.07803293984761861,0.01850337786896598,0.2524575669877973,-0.029979577923218904,0.14056623704260787,0.21311669760076904,-0.18588548923987758,-0.06056872083723153,0.025729097141362067,-0.14040679316557864,0.06821553148549835,-0.0701481502337145,0.3317231839570894,0.08673459966425233,-0.08509519639029402,-0.18992585666417391,0.20608006804675574,0.21453458128880404,0.14525702784671451,0.17665077556332892,0.029038659033448096,-0.09561114862400434,-0.07827957018112502,-0.3455465801286134,-0.08288568648473482,-0.34321766970751383,0.21716898377161323,-0.09217351557565744,0.05484880226683067,0.3161737883063877,-0.012335735599414154,0.11874814585587382],[-0.03924638502339899,0.10826146879048297,-0.23567725208705273,0.03795877740779909,-0.009649323234381798,0.045566540664755746,-0.02570644262157563,-0.07313398972871771,-0.0049703307870307065,0.12667313579437156,-0.04809379561059695,0.3653273513377917,-0.10544054870856175,0.27217114037717655,-0.03097197046477799,-0.056465162818724456,0.12888267769761894,-0.037136086476969574,0.0035556278077884785,-0.017493950814150023,0.2759071810710379,0.3114008913814708,-0.010553627549766891,0.08309432207334126,0.010736376318666401,0.08442186985188566,-0.11128618122059232,-0.12411449607024624,0.008024255711004341,0.1361932539112338,0.0031879789027916055,0.1758604083956217,0.06429096418083487,-0.04919463081877651,0.29134199869950145,-0.2199744922299017,0.1441652194977447,0.10031728457023376,0.03776603832774892,-0.19710358432490072,-0.08705407012958803,-0.4195407046317852,0.02514899932863682,-0.03488223041995096,-0.014334924427443246,-0.1394642762553763,0.16680717870756318,0.3510319087221772,0.044255902018405104,0.1257036909253843,0.002245891073986131,-0.1605330886054571,0.14261507662313722,0.2190372248539272,0.026655448936327215,-0.005650943774714215,0.057055383503265875,-0.07874520221259831,-0.3051428950848853,0.005342330115987936,-0.12064313602357105,0.11530022310183513,-0.2677839456478794,0.3398504264288366],[-0.02901235318480531,-0.012563883529055768,-0.039329984493511806,-0.015873365687648928,0.07290876280112052,0.007463962955765736,0.17864004522253735,0.0850819531250921,-0.04589015540545158,0.20670382644122173,-0.17973007513618258,0.12939307500560396,0.09074554978165199,0.05072988787448611,0.07292819772682063,0.012924445716550048,0.18674496796556125,-0.03442109676108953,0.17976870110918675,-0.1189750060852467,-0.18180240312488855,-0.3428147448900652,-0.08603721636517081,0.20130625164176577,0.15453829980247621,-0.042172843967204464,0.18678171436590282,0.03998073631948317,-0.3342581267774449,0.08935481845097555,0.05522702936991533,-0.1472097967577053,0.10337094132694927,0.022089052937854674,-0.3055776804043115,-0.21299247767706853,-0.16501948932469238,0.24797192975769144,0.03159699497455033,-0.18230496854296657,-0.30646646462224125,0.019448923110554166,0.21105599337150818,-0.007191826641125659,-0.0879208293290435,-0.050275513360910164,-0.2471498056494804,-0.14841834130449053,-0.0002320557835877309,-0.2283007732916038,-0.23028120840615415,-0.13342786555951455,0.016264100532664114,0.141142709421055,-0.04807890311423821,0.058711609341089446,0.11314190897108718,-0.07727265549363234,-0.19361476753130138,-0.17267336899549654,0.06506510840253728,-0.18363732466342744,0.10989359939733669,0.11595901514915104],[0.1027181152015643,0.009180284988574589,-0.1771550706333016,-0.30013872717744416,-0.15556862749442565,0.07014343612613433,0.26927999624069304,-0.17130538890854138,-0.16939670611388088,-0.03775796546663375,-0.038224457335363476,-0.06440682752457155,-0.1514102120823219,0.09482792676148462,-0.0313664791289758,-0.11663189122557369,0.026851723137062,0.25324075866049317,-0.11467849194562778,0.08332680917667078,0.10835094873812186,-0.34373392083279575,0.18372903098063711,-0.12292061433346237,0.08111209374947609,0.0892145190754938,-0.10652794819000332,0.1918706477063352,0.3500546221060999,0.20886796097945862,0.13072825606856475,0.08103996410253335,0.10584487868845936,-0.04468819754751101,-0.037307119532266016,-0.2650781209942621,0.22201279786503395,-0.02657866018510283,0.008224958916010007,0.3011185620842621,-0.008480634167248521,0.1014962847165629,0.04833701789560593,-0.19606048710038249,-0.05173834596831043,0.0255028730850265,-0.24397037187849258,0.6417522192319307,0.21598206361342467,-0.11257968933311674,0.07753662765318346,0.030707973853331436,-0.14845721439043064,-0.1074943411641654,-0.0869425790157449,-0.3082792606022281,0.16021533751827718,0.18448971826055918,0.16240269020591053,0.11617235277171288,0.0745258608178868,0.10288017546660873,0.09747982841568066,0.0170878965286624],[0.1682690548745765,-0.08323203876088926,-0.13463522384109014,0.06428335558770236,-0.2880696950725647,0.030951661461519356,0.044000835362222934,0.19056345075416434,0.19382996042005413,0.240659544676714,-0.11853691075376044,0.05099076290010181,0.037801869619621876,0.28628319621317216,-0.19071345562042938,-0.31582020075709183,0.1987496663731768,0.004006818141696701,-0.29170263333636465,-0.010397808568623348,-0.12558904181022432,0.17461345923412697,0.13024951477339583,0.1724106819933985,-0.1455453319442687,-0.10406545452365434,-0.007824082505381077,-0.05059737629434291,-0.05811427155502358,0.1339377871556549,0.1833590661174315,0.16830957027794755,-0.30988046256401225,0.022362830442892258,-0.10468985540261234,-0.14376184118626636,0.28672270919017545,-0.285853593249077,-0.010113291918827956,-0.059797372715906474,-0.32015962340467485,-0.07976216091918797,0.09282229012865048,0.2649365930966699,-0.1800057076531326,-0.07839231194201599,-0.11481051231358262,0.004428767161301537,-0.511130296957224,0.21973306122357708,0.05956890154805707,0.1640897309636854,0.051052137990826564,-0.12292713295262539,0.44278182318015796,-0.06557015183404868,0.14832556516074225,0.15785156613072712,0.17395051842594406,0.15994690409141415,0.3638099684104723,0.2560324499958587,0.16417785661941864,0.24390209407234806],[-0.15359747811158012,-0.017348537761845143,0.03157087541437792,0.18171584935018523,0.09518990847974232,-0.06517708850139099,-0.1512135577740273,0.08786990248963954,-0.22789739046532081,-0.1000133785137705,0.06757117678827536,-0.30804181821512877,0.033812222042085296,-0.05350810774081952,0.03332938870171093,0.12181839075721841,0.024938391227409498,0.05331488131991225,0.3450945806055471,-0.2025057639752784,0.2966086455435872,-0.01153644100633401,0.08737035274693107,-0.07563251288145861,-0.2699159378078991,0.16357875965918572,0.12332165241807712,0.15094914286822342,0.1724175814823709,-0.1410557588593209,0.15819592347928887,0.33371097204620287,0.10520863871462072,-0.09828843295643769,-0.14145497557893863,-0.10670943711926549,-0.08488064875351214,-0.05073859438829531,-0.17036601889893055,0.08692100048027662,-0.2565161600259023,-0.059131094820152996,-0.09583727865226689,-0.09046943830722448,0.15028396802162802,-0.21129860970838113,-0.1558889117052482,0.015151249875873855,0.382317610346641,0.27220477532315207,-0.2742153694149646,-0.09761917951397048,0.13113812829380186,-0.09747595723997307,-0.0005195724784750539,0.04961420265155985,-0.1634111475791571,-0.021060439398677144,0.09126624613326269,0.15867124405592437,-0.3118784368876001,-0.2723077616577691,-0.011641521469529592,-0.0871766713210397],[0.2308719568222167,0.21140363325226502,0.2891054683547323,0.062398409044688775,-0.2616822737742709,0.08524907387296611,-0.4145215304643777,0.2819803603222091,0.09966059906267423,0.2904980521863326,0.2200172202234766,0.1556186419998483,0.07706540451261108,-0.17424963819938144,0.023291653118752736,-0.08638246770269246,-0.17918617432079523,0.20896851787129403,0.12203123217151761,-0.09052274105726466,-0.08832587589715551,-0.12019441720575495,0.024941273794205795,-0.15626858410430328,0.2854425782069815,0.17895323861481255,-0.007055032147227396,-0.046885466769749064,-0.05787410277388999,0.0480632287271715,-0.2055181053538311,0.4047154415787045,-0.08444269709519808,-0.07387601788948812,-0.11872067301779199,-0.08610410941784023,-0.10153786649613747,0.1430980026983784,-0.07644551855154184,0.31323507925798,-0.10418591394136237,0.03823709186817952,-0.19788186704470656,-0.4761841925143348,0.11131199290586052,-0.07705758144663466,-0.008616135273984417,-0.3428054793021182,0.41079980090935253,-0.2793749967987046,-0.08134898143713279,-0.26773744366978436,-0.13993134343786134,-0.10690892490733453,-0.0953693368110278,-0.042598797789697336,-0.33747390011352607,-0.03164263659176043,-0.17481963605641607,-0.15637462324403514,-0.03817077200825578,-0.0728731350457363,-0.07385766451184632,-0.051754957217031536],[0.049109279073557055,0.041033863120532144,0.019893041810601003,0.13135823668154425,-0.023579565505328453,-0.08296750274346065,-0.2611132675091736,0.27871969239853667,0.3102782974610838,0.18938114692293023,-0.09542794522298247,0.005925086024812163,-0.04778419316834013,0.014918508439355911,0.007179389489599284,-0.04781108457580414,0.13646347251465113,0.025177133303521584,-0.05526896010203081,0.1320859265208937,0.24131945269081825,0.08351270718725326,-0.0860561033314061,-0.012010427659740423,0.1664313767010409,-0.1907137456325562,0.015984148341520517,0.20958045437790424,0.007048848641997783,0.13860617906868816,0.18858675621167326,0.12067097764515787,-0.18212116699200234,0.22974581557916152,0.28704844343427344,-0.052215204519175024,0.11033584552941123,-0.18166935982639923,0.15468081382306267,0.10725081823055244,-0.20818735244311984,-0.2930341320661378,-0.070704742001396,-0.2913615192061178,0.06738926254622317,-0.12217641512454663,0.33399188972172766,0.1730346123830189,-0.023165434377051746,-0.22512785990310905,-0.2469292854005299,-0.03590816950508269,0.2456188202498006,0.16522628839082557,0.07512343592264627,0.2696106095010526,0.25431494762342494,-0.10693906178850503,-0.08815932558740242,0.025462376926528578,0.12725949353420296,0.01517462551801894,-0.2346241538522977,-0.1454903384106687],[0.2585478039995657,0.01025256020271116,-0.3601038996575617,-0.23672612610576219,0.31566256286040434,0.3765626617627531,