{"layers":[[0.5490188525190579,0.755576086835895,0.30850923048373585,2.182882581863826,1.9102108030741003,0.9641899327350992,-1.9051438244143346,-2.183074480898158,1.3552326869489106,-1.1273851707905909,-0.34859995040390135,-1.159865851418693,0.8098752756570855,-0.6413338389044517,-0.9956739245345275,-1.8860057630751887,-0.9277753821395255,0.7388862857909297,0.39411330861450705,0.2745570187409588,0.6111101910263735,1.6870244502719967,1.4033389904389788,0.7789511619244325,-0.6246904893300991,-0.9835290661232735,1.3338695332119106,-0.548904384917133,1.1897366442861168,0.5082511326744084,0.3906645691001602,-0.6131274241604164,-1.2091818252369864,-1.5805314595965159,-1.3368710609298096,0.8901448186955238,0.9,0,0,0,0,0,0,0,0,1,0,0,0,0,0,0,0,0,0,0,0,0,0,0,0,0,0,0,0,0,0,0,0,0,0,0,0,0,0,0,0,0,0,0,0,0,0,0,0,1,0,0,0,0,0,0,0,0,0,0,0,0,0,0,0],[0,0.6978769440680854,0,1.3900365529208092,0,1.0260208517471217,0,0,1.7450653462085963,0,0.3938814864951794,0,0,0,0,0,0.29445105895511753,0,0.6106643129616955,1.2878254121580603,0,0.3119262211772437,0.5037174239994455,2.342396264015752,1.4508621500720968,0,0,0,1.1505984629683113,0,0,0.18621399813843187,0,0,0.7278859406299723,0.389338468536996,0.5177315139185058,0,0.45004773929848874,0,2.0223203850329017,0,0,1.5078013769267256,0,0,0,0.30226906070176823,1.7726801595893034,0,2.0271162694876206,0,0,0.5044140797427732,1.7414523522991847,0,0,0,0,1.4514387490574856,0,0,0.21892931049797035,0],[0,0.7004041745168333,2.138028414970729,0,0.41773910446683155,0,1.2289280211879263,0.7837433779549581,0.49539857809733445,0,0,0,0,0,0,1.0784825817580144,0,0.3420811274989902,0,0,1.0048605677792737,0,0,0,0,0.8736831544286962,0,0,2.3418670097131558,0,0,0.08317598055486787],[0.5973031018217906]],"weights":[[[-0.023120903334710407,0.07075561298227324,-0.01378283631039245,0.1826975728634907,0.10579686258118934,-0.1368601996826677,-0.07108643426238394,-0.17347866021177416,-0.09396362402376524,-0.21348072211766417,0.010136712531403207,0.13332679924098537,0.016006273774383187,-0.27970489963076517,-0.0664884104950207,0.09187700461044696,-0.05874601911613145,0.06560414356252725,-0.0994427623586171,-0.29026815110613335,0.0596949345972819,0.012936106480296585,-0.23180575993176547,-0.26294272126236995,-0.23803704435998388,-0.030856089669459647,-0.009798220243113887,0.20147479530009083,0.10450290712979925,0.13541105140771592,0.06840664724655755,0.22098780330267742,-0.16587737711006662,0.058682000737518565,0.100150392260581,0.2518680671497912,0.28330998783674743,-0.1837207105901986,0.0035990856657307905,0.3976922865364727,-0.2568974614225927,0.15376076683189835,0.24401171545212041,0.24450809923304864,-0.03775229268786338,-0.01828834278323878,-0.2888362008955895,0.012382844577941537,-0.2075082220040435,0.04324788602266538,-0.4165917085217925,0.10068557991410029,0.03204091144944187,0.24678949344510898,0.4202163518829219,-0.36595757277618307,0.15704907277008273,0.026969513803377455,-0.02088927113750713,-0.27876839245948226,-0.16372586114270693,-0.1342871590311135,-0.1860470762795116,0.11479171187546619],[-0.036722403958205606,0.24226475165223968,0.06016753610541233,0.24070764098598596,0.0863614808392396,0.00786354076582481,-0.04349797070174394,0.0008167962831682858,0.16627598019604528,-0.045463036748278896,-0.1885981259922034,0.044951881470812305,-0.009957428967333296,0.23225914381510437,0.025570293468094706,0.2155556068675076,0.011962980486660047,-0.09291232838465346,0.1929562872486722,0.17438593170481956,0.014794805839751003,0.03943332715087073,0.09532212059847169,0.22621088137452403,0.1548591034515117,-0.16023308071888023,-0.13419679743488083,0.03028856992145241,0.06776921035976387,-0.32424803423036797,-0.1265058683015285,-0.06844526012828077,-0.09780031031126488,-0.008130083357090876,-0.06470079153815726,0.26512082379988416,0.1007071041819311,-0.26617820487547594,0.15238338785714653,-0.43232850677319945,0.14126752656148187,0.1454402438843672,-0.48225528343206575,0.06612926414954619,-0.24277530026761363,0.2145641155633055,-0.24170598062659515,0.1906598107797521,-0.07723006063914617,-0.03505548873712412,0.06708878177805554,0.1657692353636625,0.1281735174592448,0.0024859311181777526,0.13614965468100704,0.06049005796872022,-0.1730101678870647,0.05344699401982836,-0.06824961190149119,0.21158379902942184,0.12856057782501426,0.12588641483470894,-0.04428095347469931,0.0635627868062199],[-0.06497261491725306,-0.2623075715030848,0.08303845922419222,-0.14039523750330613,0.02605955218398986,0.2458013022832539,0.06718042552360382,0.14436626861609012,0.2532114454791025,-0.08036864512958719,0.28312208544870654,-0.01728347652671756,0.16331283949404715,-0.13352840738020139,-0.01933390270808054,-0.3322326334755777,0.0014074529729246855,-0.10496996856114625,0.3574819580959776,-0.11942601945885868,-0.07847045966779939,0.2841660777426162,-0.37184339020393437,0.17508675868971946,-0.28630589955822605,0.022655570620506087,-0.052751906605934595,-0.1311281911952897,-0.06336173430143535,0.03596512743764011,0.43415803620765614,0.09755303293291202,0.05103043427231941,-0.13968375006600003,-0.04945243969471682,-0.2146809874444736,0.11076382803834797,0.0436336267814794,-0.2316877793660007,0.0011664329456560366,0.13231797332228779,0.27973244124905144,0.0006921092356945566,-0.4293273602286278,0.1895538074939488,0.12406392132428284,0.14848991260017494,-0.05211433660987309,0.03930200960766181,-0.2727557614210097,0.3622767287833525,-0.2498382900493578,-0.1514528803076414,-0.14841712300458543,-0.3085855419406347,0.09351068756259233,-0.1740863082850243,-0.4160991090526429,0.27521892005133586,0.005360342224135518,-0.1844144191999002,0.32272683102409455,0.16237374314975578,-0.4742333721079001],[-0.36279792191532884,0.09741608897694548,-0.12859855030928158,0.21517957399584003,0.17499432801824377,-0.0016146178779429463,-0.33833878354232566,-0.08568077652758567,0.15559738858725164,0.08570504867952754,0.2857438043679204,-0.059986576516955985,-0.0026232114708658184,-0.2441423191506887,0.18607251782916806,-0.1627743574382428,-0.22625115869669452,0.003631764097201369,0.0454071132501976,0.1279959835261023,-0.15632516436961863,0.00048763003238741037,0.04525523372932428,-0.1784093002946462,0.003903642919882264,0.19422200298534337,-0.16902770161555247,0.14573424600551826,-0.28268121549922803,-0.33345237496880137,-0.1572472450551347,0.10229873976377121,-0.15192060443149555,-0.32241386362632085,0.13591497503263522,-0.01826494170659634,-0.10182402609920643,0.04077449877991042,0.10820200317611792,0.277036248146984,-0.09578688413927473,-0.4020549330110707,0.02112638122595425,0.011984524974526404,0.05785680759081292,-0.08575387069546189,-0.11224903726620299,-0.16256927265289103,0.27931947354727127,0.045161296471027644,0.28702516656039584,0.22795162609517555,-0.0928576221503455,0.2191525431651457,0.013314870905595955,-0.0037665208856057274,0.02925835175356606,-0.01794360894923298,-0.15377992374085636,-0.09396804772502346,0.0022731199478735003,-0.043763294545003835,0.12828985164318701,-0.18973627839095228],[0.1307059299045751,0.05306536447042755,-0.13516064957920051,-0.04028653579415294,-0.39827319193443494,-0.06996289576124566,-0.09863660966158254,-0.26451649524707,-0.03813944498108463,-0.08981687834959919,0.016061048330032173,-0.03999638789230521,0.1743407030216834,-0.23408245604857758,0.15361208303243548,-0.2859519083676955,-0.1416330148173627,-0.19451705445702605,-0.11060532007874245,0.11802987084095937,-0.1832694383787028,-0.05993229101767791,0.06436132772873947,-0.0033046279748894162,0.12419703231806545,-0.3039253193131958,0.07187360697980234,-0.14448372866866135,-0.005813526324580576,-0.23269007427700367,0.04330312249935425,-0.3246023839604888,-0.26863469188548217,-0.00567786698556099,0.012820449640760536,0.023710590544649718,-0.020814212134936304,0.14103855661777465,0.21855033247605982,-0.20593455923050835,-0.04625748754479814,-0.07528743549786812,0.09663212132998687,0.21427906497753516,-0.15508271724443143,-0.4053904347777498,-0.22888353772717585,0.16522423212870252,0.08364094945190549,0.031664477223826835,0.217993416795562,-0.07315429638932733,0.09932188290670414,-0.2476353781416864,-0.35889437699115845,-0.04016085408939854,-0.25018613474086177,-0.33632818882141213,-0.1596745918139782,0.02958414248288209,0.1084430947956929,-0.2887477505842157,0.05353902300778927,0.08696188902446375],[-0.2613922415031412,0.06023876556104258,-0.07655181845688222,0.3468437650497603,0.18366723915410524,-0.022490858337478974,0.15774150783588928,-0.5477380852799849,0.17209973699581538,-0.03248604446410679,-0.07631926847714054,-0.022600831898334933,0.18984092818167747,0.03270327906604504,-0.26541988434253777,-0.08507425869692661,0.12966508670704213,-0.20527265179996648,0.05547866744171317,0.06598923544832357,0.1747256557011222,-0.10806810289834179,0.4527794095814598,-0.09751143311260244,-0.2611200602310165,0.048847215698172415,-0.10686321337706237,-0.11751960108393879,0.28686564606197834,-0.1668302594792803,0.16876352789587762,-0.24846723894881945,-0.0800635277162899,-0.002848504171596111,-0.16510550722394965,0.303969502848769,-0.028512019718692286,-0.028767709993445613,0.033462980864344995,-0.1660427512935452,0.21213699598937555,0.1080152975807643,0.1391617611650183,0.08925130482485037,0.13785682982668684,-0.019467562860906656,0.16674372146833077,0.018375975483238945,-0.01886513830125458,0.006912937978892735,0.15600528858925114,0.16704345353543393,-0.2544622413524253,0.3086610409311644,-0.10746240675033558,0.03528530827981294,-0.02843106959304416,0.16226855516879074,0.18484527168290826,-0.0963472490220566,0.22814501519625052,0.19785636783707047,0.09608948538489251,0.13714619940042108],[-0.27067857718056276,0.31164553361536224,-0.038736658136933805,0.016925478335251078,0.10283458221892051,-0.4516193231497832,0.21482060160205535,0.1437837707449941,-0.1198187079870038,0.04988440204823801,-0.20778991942691444,0.27525307975599417,0.1943863127973793,-0.06729075078272662,0.2169547361469113,-0.14661412869181023,0.011031876412993946,0.09332128462469698,0.024502447562021603,-0.10907462378423291,-0.3905880918833656,-0.12194511772694112,0.20540132307362424,-0.18913196776225707,-0.12147129573359368,-0.11060244654234264,0.02241916632159986,-0.3934891578387268,-0.06575264639745039,-0.1453459583385299,-0.03003443042591823,-0.06294022895495294,-0.05617343227944867,0.014220544156426686,0.16058590491053001,0.13428556004316103,-0.036863365327260825,-0.01950190527538809,-0.20848953922900587,0.057314933563257835,-0.014448927820221998,-0.16320479904083107,0.08531089471127662,0.05173204997293354,-0.03689581812354461,-0.1806961327620442,-0.20831409752900049,0.02937612876547496,0.14598453890269206,0.0032309705746312507,-0.09562559633928891,-0.06182754390768948,-0.00403528135614477,0.18402943564862773,0.011203162688421893,0.0859928162875133,0.08343809069957608,0.12334598010348916,0.10365807458359026,-0.1362421714967298,-0.05114440232755925,0.014444364492907256,0.12999246380158733,0.06616809817188633],[0.13248587078924667,-0.15432972087993563,0.03607725199137019,-0.14854128589897633,0.03491262412019278,-0.1972719691154486,-0.11437879341940534,0.24477053380067887,0.04645796400533422,0.024449982191629693,0.08388631948272535,-0.050324732849540914,0.03158801981291334,0.026775190888871044,0.15179418590796176,0.012839897517899181,-0.2605690207910894,-0.02296227651821319,0.022208276452780312,-0.15324463618255676,0.30900449312463946,-0.038945491994023355,-0.06850405818191274,-0.08130653672268731,0.22908515273492772,-0.09219999885056919,-0.4269359529174275,0.19391917657025923,0.10310349612811882,0.30773796631584743,-0.0012567313892261054,-0.233331428109096,-0.02305331814041772,0.05594774047963799,-0.06744146771539579,-0.02182650447839244,0.12362651478817918,-0.06601209053839933,0.008202251598034196,-0.0664069519222024,-0.18859341070581015,-0.05978167264812122,-0.06525322728496698,-0.06302826049685793,0.19197907573658948,0.2253683084845114,0.2127253257896288,-0.054018862959942904,-0.3190472257117366,0.2730175190194605,0.311403544463098,0.25114616208168805,0.07701006851744875,0.06700317941700219,-0.04759620879388373,0.12611372844409705,0.07608964448190236,0.2967495314381646,-0.2981290171525496,-0.03621358079907508,0.15175336090504268,-0.03751464930841732,0.05371529234853956,-0.08962803173426498],[0.28216447088482677,-0.2548221036427187,-0.26640366339513105,-0.02361762523076856,-0.10430292036137402,-0.1492058610657777,0.23526748562825106,-0.022290951083836153,0.07262185334673216,0.16204138722421024,-0.23571293697872198,0.15397984398290734,0.0446359780019984,0.002974141068763138,-0.07593878554847952,0.32424284359410666,-0.1549814434703732,0.22608149427786067,0.49255038425512765,-0.19397337286294833,-0.3262632472478899,-0.12550070182559286,0.18755097334497578,-0.15485523691830436,0.2753653749771316,-0.07526111239007216,-0.0925310242486885,-0.3992423164515573,0.03508052383072164,-0.26040490695473506,0.03048682883754285,0.09028271978418838,-0.29344971411819937,-0.2530089740205815,-0.02308486163950513,0.1718611861816682,0.23261241273246297,0.16247978031414279,-0.03196850589437604,-0.02300393961907099,-0.32163811212304,-0.0511790283291913,0.02612221101287545,-0.05577500635350683,-0.06024946792177021,0.2662663190995255,-0.10659078376683402,0.04030157879830822,0.0000072976854087889375,-0.10793183031407659,0.0901237785505614,0.23349481877048403,-0.10614365125802333,-0.25906222234544907,-0.04210707403795666,-0.07094136449306568,-0.019983336994514482,0.022701582807392557,-0.032206947208050216,0.28955673800595005,-0.02979365670116102,-0.03341508778990189,0.15430448453140896,-0.017653762281300597],[0.44993034172778495,-0.22953181780177734,-0.034581233982301236,-0.02893588818746959,0.013078895498721183,-0.11097974997413619,-0.05084995940727713,0.10522991190877831,0.17994527150786901,-0.1894066342498956,-0.0528875634424837,0.07240162149477002,0.2772817702619496,0.030562527695173473,0.2328628558358582,-0.09894872655196986,-0.1283269659440126,0.17830481639867407,-0.03920130355462019,-0.1916719752875658,-0.018643782667810416,0.07509278383624858,0.062251801824085205,0.09424172606607199,-0.08292921237242169,-0.26263902740318545,-0.31172224738594695,0.34841415758031985,-0.15719198060676848,0.003804886603504673,0.06057721227834584,0.3376599730966116,-0.16788376303230373,0.048268657782534995,0.021334576846774617,0.13888985003734858,-0.017772386220283588,0.22386986967476272,0.05467751706115785,0.3251636172323484,0.12575292792513904,0.11836193804297947,0.14190329447009006,0.10388554572411207,0.06127555345689661,0.13568910542042467,-0.3419033621998523,0.11053364770725865,0.009092360273838578,0.03308818571291197,0.017099671110016368,-0.13281740546528747,-0.43855915598649464,-0.02279939984163951,0.03456546538788624,0.08844190016885776,0.35061619907578995,-0.011007674722885358,0.2019893150438554,0.19786387411522746,0.2587018109860872,0.17278360509436427,0.054182260688518086,0.05194362771322376],[-0.15946927914532966,0.04454874014489089,-0.22368445751062194,-0.3412146039680111,-0.17312158359609064,-0.3213658294094825,-0.05395924018001025,-0.008348948620345407,0.07978888987891489,0.04772703454758794,0.03362177485929988,0.21736960176359554,0.3630641776025178,-0.1818362898480169,-0.20181783781989823,0.02035841015267952,0.13397559100901338,-0.0634928873228456,-0.3534670572162622,-0.20032238776997222,-0.36125563373604813,0.028763281549187975,0.0032393624610540465,-0.2669642088296297,-0.20895872253307077,-0.030617230598735667,0.2632476251952251,-0.10566621663079871,-0.19763307113441522,-0.37857247906067043,-0.32633670438908374,0.12926796423424675,-0.00039406044551643587,-0.05510564750093114,-0.0981522991999621,0.061946849886046644,0.1413461397818631,0.11204621739197793,-0.03312903377206851,0.12596762323406852,0.11377278529981072,-0.15800428315857515,0.1543862885387112,-0.08591758908646542,0.16854075758865517,-0.1534537404246881,-0.06098229875415147,-0.3062993846386012,0.031367200101244476,-0.17489185826498532,0.010946126802694266,0.01101856466676694,-0.1208028666272291,0.24606667565154453,0.06553832741942014,0.048892157907195206,-0.013037443236780327,-0.0787376835116239,0.16647199598632503,-0.47848971899170545,-0.25828278834718876,-0.0007080782449307483,-0.1054738043289024,-0.058860223824622],[0.30294239413470353,-0.11546969756290001,-0.03230025100726261,-0.06520249500441905,-0.07279203942177544,-0.20741590285997605,0.02363697571806431,0.08383363414512761,0.03489778156750912,0.07621942344580523,0.07712768189271955,-0.07000488437415418,0.0022392698850881567,0.2353209715718847,0.19362075890545116,0.0661592626550616,0.3151881689638283,-0.040807396097696784,0.3669319516924692,-0.09295607628196365,0.15919202494277482,0.04432535645439479,0.21119181026537107,0.2277147595526129,-0.14248552948351023,0.05194475928161155,0.26132375255858503,-0.0700589246911312,-0.2822460984178888,-0.01108377842449216,-0.07919496762380854,-0.06815655564898834,0.22152803496591894,-0.09379483510371807,0.02965224204789316,-0.024186008161540668,0.06776888936037677,-0.20436953511429073,-0.2860725449001487,0.24975897794606025,0.13010951217677225,0.3228229137291056,-0.06309656219696663,0.04952591246935254,-0.04973171506015479,0.17328393920974475,0.2466179837475773,0.14216901975742702,0.21948562474813138,-0.086444278991233,0.08383774832601182,0.13028447240700064,0.10524603942650887,-0.0022183797324610453,-0.1296439773888198,-0.030717103556300106,-0.4778869128082841,-0.13397192662696114,0.33532791698180453,-0.3087275675948413,0.029683676089911657,-0.1512256197888841,0.36279846522573567,-0.07603047328319953],[0.48004908648077343,-0.14190490371361367,-0.05842129723942583,0.08878776841882778,-0.14161855438600676,-0.22070283490303647,0.007986710601284884,0.1257137417559214,0.19465099052928375,-0.26091942413699637,-0.13322581397957664,-0.1450534086634767,0.4357474438284811,0.016367283278716227,-0.2173560245501087,0.10254462252535086,0.2390707034150599,-0.1367449271841155,0.04843497881388323,-0.060080241929279535,-0.25538953589427954,0.0006564119219705267,0.2131870427118424,-0.06074276808288543,0.06081656483415687,0.11329329688438236,-0.055087492757493764,-0.04242052222369045,0.25988613401375255,-0.22976757922715668,-0.11735740900357394,-0.07308505568212033,0.009697097275066237,-0.1403532793608639,0.16972452149362502,0.07726610732408293,-0.009675177092031341,-0.11470632157685298,0.24627458175794667,-0.07403308038234693,-0.10057863936116661,-0.2716940460146968,0.12892771908751918,-0.24597615059270872,0.32026881696232645,0.15390682932970048,0.0019137831690918784,-0.3805745303108623,-0.06436403820159711,0.003903049378962373,-0.011226198221199263,0.24622697942343608,-0.21063276038038703,-0.16504339279891933,-0.008179054131460913,0.043314202109760724,0.016282666408803728,-0.01700365776149029,-0.050699653611652844,0.004101861374580047,-0.2024776753731818,-0.021532099632249935,-0.4342582467853494,-0.15890086422515973],[-0.07971194173014935,0.07293319282947631,-0.16435185900938226,-0.10920970319095664,-0.10917409772914963,-0.09346856598735719,-0.013127799232736218,-0.28955338215717324,-0.19638130651648478,0.17603202037787002,-0.06095152868674976,0.19995089801275337,0.08932128292226908,-0.14423372896210224,-0.05201273878319632,0.11643457377204473,0.13301439778889837,0.010531650873561893,-0.05722089999086857,0.20444190839286586,-0.1794755232543867,0.09818232082863287,0.08041647198863744,-0.026074030976242488,-0.008341330768637129,0.0513289578823927,-0.13205931590126702,0.4494528925348637,-0.21678377326747092,-0.026005877751147388,-0.04206259079293025,-0.09694772002474243,0.1238545387149026,-0.1415221523576639,-0.09197895194322812,0.026506950578125656,0.017845383896894006,-0.19645920949598347,-0.21084640966948118,0.14474613244403034,-0.06298779270027532,-0.18134394507689564,0.02144820828467759,0.07386039428350069,0.09398554733135417,0.12212119164588607,0.12609299793095416,-0.21294821328173313,0.02423496299184294,-0.009029233576749054,0.1478139367596084,0.10365422074947056,0.3535741854936417,-0.015549281022539307,-0.18804447860174378,-0.07849248288813755,-0.03468966552365495,0.17450464319924633,-0.1524326900630468,-0.15753572337494956,0.008101383242428038,-0.14842360583862177,-0.02608709124884938,0.07968607580861423],[0.2891666176081087,0.05452602042419073,-0.15292162233781745,-0.37937012530093606,0.06901935619803187,-0.18734331023709103,-0.25803029224124013,-0.1969795270656986,-0.15366853145691994,-0.22379139227235795,-0.11587726128796588,0.29500020967527546,-0.055228603107747055,-0.28384475755922006,-0.17351589714753124,-0.42816455331488334,-0.08932867621542827,0.13450106763752379,0.10338096124977626,-0.02240189146938486,-0.12417326275851874,0.19116752943988838,-0.10978937704343074,-0.19175991559951272,0.10690543705360449,0.11419158214673143,0.08109225478682772,0.15670430611411137,-0.3887821866113798,-0.2749136388905595,0.45589924504365753,-0.2039700590861359,-0.008655583354498656,0.27972225365840747,0.1274340169530937,0.34515655311762844,0.0854101895189477,-0.21287370465432703,0.0631960664324624,0.29992551185212385,0.0553097583561486,0.010157705908888271,-0.08867493106352532,-0.3700357892338642,-0.13794557155893433,0.47616820257274,0.11817933974883355,-0.010316088113378112,-0.09735476876959567,0.1127419959618749,0.022021903921160088,-0.11963930004026195,0.14229460462259524,-0.021532324588330952,-0.1036284926271586,0.1051992381334508,-0.03542098364492134,-0.11003162039161844,0.23632421970011483,0.09283501317840648,0.10617206170789073,-0.0371133361393356,-0.17458980155966475,-0.04242112423580876],[-0.06086918043682003,0.032505244960210795,0.0258357061228416,-0.46560793228380176,0.17682845680188128,-0.0913968468058788,0.017518158117503922,0.18014732250423746,-0.3713812615620699,-0.05759290263715445,-0.0628666038025485,-0.1789404041739482,0.06489500944684073,0.12787949942901786,-0.014520479148005683,0.1691896217176667,-0.18083151463265656,-0.08357150719870163,0.12201495897385015,-0.053222533709554876,0.12239967326946943,-0.11329642526070693,-0.03731047609333848,-0.17334460219311149,-0.10624579070592022,0.054373650566593,0.13235622005874068,-0.07602693442734745,-0.24955324148734906,-0.14341510016776582,0.314408939997261,-0.23312639065687255,-0.13118450356026812,-0.03965571665797867,0.08453030288879766,0.2671672807409705,0.122311380872116,0.09173935340476748,0.11482913711072189,0.4101064963559413,-0.3248782496176812,-0.025035496586735064,0.16275831925134818,0.04130632127526374,0.39679705757896777,-0.2238513599534482,0.3190284092829613,-0.051790615629926574,-0.11360597709709143,0.013519979979063209,-0.07965081381885558,-0.0793757425676565,0.3659379990935491,-0.026849712614882906,-0.01128687179634243,-0.2028272256956192,0.024157984809137945,0.10549560759935529,-0.07401293920344444,0.15365745104457812,0.43547421613903586,0.32097435254525286,-0.04338617544563325,0.10928492813082255],[0.08151618223696075,0.0608710306110402,0.11951336931715557,0.04765013396983916,0.0027989474354044998,-0.043783910697138884,-0.08435809291134355,0.0864825649192019,0.15143233053927052,0.01772502240546622,-0.05283232589043802,0.017256617946296286,0.09726450900711325,-0.07459227631302152,-0.13161187980067135,-0.12216345338058154,-0.14029592749930025,-0.16091723840813674,-0.16352436084623714,-0.09002147146794734,0.00804838329769074,0.3018911692303651,-0.03839987761912485,-0.36679118570140695,0.17462424143242491,-0.08459473125685989,-0.05982798029405067,-0.06572631556238824,-0.11409919957894328,0.21459248391493863,-0.13764237741362945,0.06689979241136529,-0.16129858467016023,0.06109115019726779,0.18286710029282777,-0.0031085623183293777,-0.04431821030934441,0.1595813638190534,0.13727614457608156,0.052422155015615535,-0.15717976871114686,0.09661770042639596,-0.10470732130479594,-0.18584676896869975,0.17703010386753418,0.013351834041037357,0.02023390651207202,-0.33825312912962635,-0.18253941562172513,-0.062430994896244006,0.09190100855058361,0.23090971585519024,-0.021443496675665457,0.09445277915448254,0.07220014380167246,0.06578402569119421,-0.040531963792681515,0.08185571734210452,0.2529453942812557,-0.17266566602534544,0.25247735804780885,-0.09005021034241963,-0.04319493488060111,-0.30713115609100283],[-0.12472689698874773,0.15307448902604961,0.08459585261655514,0.16137337934304735,0.045237977498397815,0.3463708114867625,-0.4450037655761105,-0.03488818733678406,0.1878817576607738,0.1666173245050985,0.03703582420282216,0.07351745254486824,-0.505688720444423,-0.16014048387503488,-0.16305880600679662,-0.06319773170216139,0.05505162834246753,-0.16567013828447505,-0.44006572259279386,0.004970082383788637,0.0395159510630248,-0.07653404951724843,-0.1357316109592928,0.056036430976447914,0.11620419959666509,0.05299982536279546,-0.07104462634519702,-0.024771800162214714,-0.23446154313864856,-0.03543797369954574,0.015317646499408965,0.09434136945809024,0.032397731213444955,0.21206412503439653,-0.003930503672478932,-0.1269655826015491,-0.11820203378133357,-0.15102717924702594,0.14092314521077245,0.1944257092383142,-0.03202012176090533,-0.052410910446227726,-0.3250073563198316,0.03374068850423521,0.23984144103282146,-0.16886345937102573,-0.06850583867073108,0.07534634362671985,0.41596138948731515,-0.15264316172258222,-0.13233279858405383,0.020325168516634597,0.09845512135778453,-0.049390862455795444,0.11787052093020123,0.15344506014821085,0.2429211773480086,-0.029015344934506495,0.006727188398458027,0.21498465437032774,-0.12126700162071191,-0.1658194861306047,-0.0180093698891697,0.5688494670341915],[0.02483907214157324,0.13397694806718424,0.1729847235463323,-0.15789379350756544,-0.17214687191069084,0.061443538333064235,0.26053239809345535,-0.006812805345246701,-0.2766792201449154,0.34007615195730834,0.2817243646483522,-0.36262320621659144,0.001183258230558264,-0.02749239784399559,0.2503710456480157,0.03909706534782252,0.05942127110628698,-0.17729909060946036,0.3516054503643489,0.2196303838690088,0.06689260857532289,-0.11907152132751878,0.12300594671401727,-0.05502824404117725,0.18767204099822957,0.33533753980629555,-0.2237884828974098,0.1469267764159677,-0.022491262483460887,0.23034178820484866,0.19036004362377965,0.16424430371903762,0.057608622467192894,0.16980176017538576,0.15259989378104083,-0.02558960867425755,0.33891319895263466,0.14769097476618698,0.019844542555961964,0.12722068163462796,0.14226414373274354,0.018632925640206587,-0.3655286001833836,0.2655647339904234,0.018080414490517942,-0.27033996753368483,0.20931472314835378,-0.0696424131383958,-0.3312602644091619,-0.3266799315928489,-0.23746400860468084,0.007894106597869452,0.09832940918603242,-0.022912577915707874,-0.29187128253658634,0.21591503983799068,-0.0799068983252541,0.0642611299741533,0.18757551015623558,-0.013689569446967729,0.06688213789678052,0.051075889682441825,0.3467123233107015,0.21040738013866872],[0.32923009357251676,0.1244331403719749,0.007165388338691907,0.005480664359747432,0.07210287999165005,-0.1838646047982877,-0.0821639506808194,-0.3293302909070428,0.0025058508879124168,-0.3724224849730719,-0.1807492219954255,-0.1378754314086163,0.40233542256814303,-0.22377607165245028,-0.2350821179185461,0.16138099566761793,0.22127450221489464,-0.05262865463417637,-0.010500478010244067,-0.10115903235543813,0.018679667681508586,0.0884386626570708,-0.025339121949070998,-0.1619895175683418,0.04807366568769992,-0.11579518906778281,-0.02849119377141101,-0.17178764452752704,-0.01291268191336842,0.06620123494855752,-0.047041918337391915,-0.18519019660611002,0.019018173694032907,-0.28688041693264865,0.007245487047632646,0.22874272579579025,-0.247395229153955,-0.04474172545240578,-0.0774315051476176,0.10699154249738678,0.2498060106865205,0.014761325449049826,0.4193455513743948,0.25670670726216765,0.11108383780947638,-0.19453757501745012,0.004424140634996009,-0.18269719268663717,-0.10098911997323687,-0.30849927369521907,0.12087061188598827,0.019113838581538024,-0.22705284021237768,-0.14546817693491673,-0.3437752579508557,-0.04892356634240595,0.13905244590918595,-0.04256544412885852,-0.08947317904964702,0.14668495022956934,0.08955922967121485,-0.13995771403513446,0.22429520361929187,0.002724732450998998],[0.13497256975534014,-0.061460675318153274,-0.15088069258365042,-0.040376284444869084,0.15110903878433476,0.0557228713701595,0.12172295993353514,0.2881754936544857,-0.09576970389114464,-0.1508049685925305,-0.05195487988761375,-0.10668291396477049,-0.11337614072142535,-0.08918213324936228,0.1293591213810138,-0.173014910184379,0.1496005983356445,-0.1877016502931984,0.12454945534337859,0.11950207055776041,-0.03652859256562114,-0.022702728898568978,0.03092945708167731,0.06978177903244592,-0.07155690139475188,-0.279990455340568,0.2846018546322245,0.0529351150109783,0.2515534258175819,-0.10816332407140108,-0.030934251160483622,0.04119221591426218,-0.25466921942514703,-0.3139751436462858,-0.31083300257086477,0.09264656500840776,0.04269283265588283,-0.010989319793912168,0.27824222665854514,0.3772302124258214,-0.06890175115482582,0.00814789637894334,-0.07850558826496436,-0.02221325116182902,0.18325225209859874,-0.14798809246338188,-0.19953733770490722,-0.09119307505218836,-0.14154490014895596,-0.1902922080854109,0.10800127366643922,0.13229703811664875,0.2776029781427361,0.014387943812749732,0.1918531264341393,-0.09765644107923704,0.06758473173417429,-0.10898936759204139,0.18869161014997107,0.03623017339331282,0.06769909014333758,0.1486846775772586,-0.02124597852578964,-0.020234024198502835],[-0.18892991786233082,0.06645923834609674,-0.150657007918279,-0.3900987158135522,-0.13120144851030544,0.1039082203892215,-0.1650019981423421,-0.19079850038397483,-0.049780838842489135,-0.03134502837898137,0.12351722980427825,0.003057291459989682,-0.23144874020085368,0.060785301299472023,0.05437648057377581,-0.029454527955435753,0.016171826388587215,-0.2873492822237178,0.26194887499533964,-0.15043734077015197,-0.09146431041915921,0.07155102154573885,-0.036912938277790644,0.2624783466711656,0.008992431654202576,-0.3635215734667798,-0.07953300883111329,-0.2315072506374635,0.07747488416964253,-0.01708054586733664,-0.37043499705878363,-0.1833428114928611,-0.24276338056702465,-0.07680462639759059,-0.28241334003136004,0.18988804919825353,0.054173609335326854,-0.11164416265336086,-0.03501114670260638,-0.0207744816273923,0.1502996754910778,0.06429215959597573,0.2352725480217128,0.15297940532735907,-0.3143537004958439,-0.20209778639260959,-0.13286153776840823,-0.054184443873014194,0.04661308583588337,-0.24610813699585674,0.06373036453069762,-0.056276569226130335,-0.13633453180275676,0.062343598090230185,0.20882133699587324,-0.13010407842889274,-0.13953598298639433,0.11033780797648057,0.1700423735148633,0.04285294158736517,0.010599839964306341,0.049368360892466996,-0.14097976467965417,-0.21709490180150975],[-0.12102067925433249,0.3079241629845715,-0.09041320679781076,0.26765889152415867,0.30373911469832754,-0.31806574117992226,-0.11785425711685196,0.04518958067790961,-0.2231787801035857,0.029403712525118936,0.023994112355444595,0.08495748550789699,0.12064049273443851,-0.46378605446056764,-0.33810011838648824,-0.2456238363564073,-0.08566619498217962,-0.021917019999136006,0.1462875526527688,0.19650566157095256,0.07983561068298922,-0.0978761179229974,-0.1841156529529512,0.14760761487172258,0.2619761500449775,0.19500548433568982,0.03093324628570656,0.10194544609835327,0.13810290448402282,-0.16173178762173732,-0.2027790449977089,0.2943941017695348,-0.13984144699660897,-0.04027976705238143,-0.0035150602290768603,-0.1804970478629263,0.04819211517452798,-0.31686150465441965,0.2721823286191177,-0.0742852325272697,0.21830863473258902,0.0712904059141757,0.11746673152736457,0.1952125302995648,0.17912296898151447,0.03390494734454032,0.11701582477519665,-0.04764069098548464,-0.25828956128572206,-0.022384051103978685,0.07814147058147061,-0.1936876538722921,-0.06507358864891112,0.07135592829335168,0.1591037373778739,0.05540567376092473,0.1667838825039173,0.10652528889681193,0.2409082778779188,-0.12620381233100555,0.29446798932760104,-0.10222102685157222,-0.06409959102326208,-0.09088457614764212],[0.13469494177656682,-0.0723812068709089,0.038539989322691474,-0.2602787190807721,-0.09863281320931502,0.22194878927539774,0.11384383563891812,-0.16717827928705814,0.16457542956050733,-0.05739393117582765,-0.008044908086192426,-0.014731363437897767,-0.016532722304279213,-0.12393460440986008,-0.0035074322576133863,0.1102183665519921,-0.058945929521652146,0.14741221732672613,-0.07601561325923403,0.06066032901721779,-0.153080922284869,-0.05825111448889127,0.02210336429843461,0.16596801587366217,-0.03652164093249632,0.22331897634290604,-0.1154494775810678,0.336158614382372,-0.11668195766306237,0.2715943697520752,-0.0432452849041505,-0.11796688990517477,-0.183910659659616,0.05187890940232721,-0.029062571158513902,0.047552604107479295,-0.17282055821719583,-0.032689907115380556,-0.3468690169721274,-0.2868875581073452,0.19612797683385214,-0.07837267670623325,-0.06427183527129975,-0.29783099414036185,-0.046392971657423725,-0.13683458887625172,-0.2734613294190854,-0.04289276366768959,0.23719273253938453,0.18499865417468764,0.07531840814656962,-0.01461828238890223,-0.05933054007407132,-0.00967237864253323,0.09902827085455496,0.07568729389443211,0.04409140796733044,-0.007593304951371002,0.20914462799003836,-0.04365428791909122,-0.13693283000209394,-0.11075176181212196,-0.31902932813868246,-0.09854880374892115],[-0.056067439836927954,0.051733644630282086,0.23264095888839573,0.10948742696420612,-0.20899569364906095,0.46051626562031656,-0.26760265013904583,-0.15512042136656815,-0.09864126077121327,-0.0014906639933065465,-0.19989608625803237,-0.15018257770964163,-0.05710768091011795,0.04288028555406644,0.3236090227037007,-0.16159783631776636,-0.042118666849260876,0.2696846449491156,0.20430610058498191,0.1379597743118901,0.22190165501629655,-0.21405185784439146,0.16085842007876588,0.022829979290684727,0.23826081839762805,-0.007942459459704105,-0.3667430345637196,-0.02978815584608972,-0.3819892713525878,-0.035962423102628205,-0.011983113831592776,-0.20966493909896902,-0.21437997500918946,0.15897321761113054,0.017421020648164216,0.06674394440151307,-0.14998474748562265,0.14373146561163377,0.08100669874258622,0.18229520275153577,-0.0470269524944368,0.13747080931748507,-0.014020797182268986,-0.18790219575277434,-0.38041242613558174,-0.28321712837190516,-0.2780958725420537,0.04600898641481179,0.08162856350356512,-0.19196657546555027,-0.12759755655354413,-0.008292062920095005,-0.08618235912444809,-0.10131097162424474,-0.12543649386622954,0.06904064077564591,0.13752290290997718,0.047665188108717955,-0.3414549007081632,-0.0971782394562506,-0.023648780917592954,0.3159494350749659,-0.18040746709603,-0.38802463567335604],[0.0228686733734895,0.24644120560081875,-0.11012936461307833,0.20734058390906318,0.0883563478789915,-0.009217969938804044,0.20635581619982693,0.07839741206115969,0.03729835967870361,-0.04498295533433228,0.2978826998200733,-0.08918727008558998,0.13700023676500228,0.29176656430100284,0.08337101412614234,-0.10233137260736368,0.23304324456460399,-0.20776720982147223,-0.3627545984933115,-0.07692455752160707,0.07202464599890687,-0.1464162147387687,-0.13330098957331352,0.10421127130527442,-0.19470168817454814,0.047264150841358,0.25363233523636913,0.19266888343508787,0.18914088621310565,0.10445720480891199,-0.19658498856636655,-0.08650262296947148,-0.07938913897211897,0.16392664167794868,-0.04850723564362927,0.03114122916355974,0.16628901841476879,0.04928578434274025,-0.23552274159130662,0.15724783353816585,-0.04919067164637231,-0.01112570567382025,0.17279179518898743,0.05824866522079206,-0.06569833790629576,-0.31393243237685353,-0.22060355559840375,-0.17109738951584388,-0.034625350723840466,0.1495318607763185,0.1629096376157329,-0.06660018792418772,-0.03457277412040077,0.16423480948379773,-0.043913848518029104,-0.013909936161744936,0.03665158951702558,-0.0029170988857147692,0.11203383048975449,0.032868822836848686,0.1724293632566104,0.3581527180208365,0.15713769925913862,0.2593844920755116],[-0.30107926559201476,-0.1653029090802511,0.002111670732071889,-0.0007233179480861983,0.027390075667586278,0.06190829905500047,-0.32811564613324085,-0.056610587208255334,0.01846960939938311,-0.12554157123568493,-0.3432775154176318,-0.21949860741348354,0.16615547406197184,-0.004535710267724181,0.0896286759231837,-0.36690108623823914,-0.16037850666926215,0.30327706158977413,-0.22972062930007398,0.18360392094987318,0.107574706119519,0.013147677130831464,0.07655468205962206,-0.14712590985557017,-0.09792408137107271,0.0687788943272847,-0.05604933378503302,-0.023951473348969098,0.13938012356645837,-0.142523331257549,-0.251103913556231,0.05877754491464545,0.1788886887519757,-0.07146363359453256,-0.04915256470753957,0.12344274845030039,0.09952858053641789,-0.11030867747019336,0.04764279791209243,-0.19148520796348792,0.15357289578407177,-0.012962797415505245,0.026531153555414397,-0.08844094290989095,-0.18060177720732307,0.1857391668242103,0.1670375368885011,-0.08017612388515424,-0.048822320960074585,0.03540878347991279,0.11119046353934489,0.2823714465660733,0.007512601457473884,0.08359727353405685,-0.005303135407385254,0.1905978650377457,-0.10164903403926613,0.15652207564266205,-0.02699702965286663,0.04260510496323614,0.09026523955037852,-0.25793671562370635,0.08609056595318901,-0.022460496319487773],[-0.302809772802385,0.10658072964587174,-0.017820807369112044,-0.254714719736491,0.24132800329131876,0.065618698263483,0.13086744584317064,0.05215308529585473,-0.1654794416547878,0.31475500056195416,0.08326575931809443,-0.006768384817148511,-0.1755771786697034,-0.18650878364858767,0.38255037542362896,-0.2216061239360424,0.07843272149702529,-0.13805978483992445,0.49629109809109767,-0.13563493104464855,0.3440217170664666,-0.06925225280002316,0.07034442053576795,0.16744329369702712,-0.21296489942496974,0.00042077194123142766,0.3366041856842442,0.11219897756529267,-0.03522799019988618,0.11710420203033907,-0.045205551482390256,0.21797536552613844,0.001092865344978392,0.1721431863431919,-0.5625346894958283,-0.240886483857582,0.3166850477046161,0.17851834937165675,0.10425008073499929,-0.02575325846219194,0.2098821232857884,-0.37241405145511486,-0.05888884763648224,0.1796438084398063,-0.03441367056701096,-0.0033700247375377692,0.3190499456652382,0.06745735300868967,0.017256572872358687,-0.10695641467240657,-0.06712143236649991,-0.033986176425279534,0.08880619530052693,-0.04703666651798354,0.0757470620092542,-0.13579356954905036,0.02996903012587087,0.23483716984318567,0.12649021723826412,-0.21327676110356958,-0.14632959328870024,-0.005230366132480388,0.03174030931812746,0.0649468555919152],[0.014185715877305228,-0.033166466998041946,-0.06811236380206581,0.3199516288299609,0.000001252580223753681,-0.07972634118306142,-0.21280795016286763,0.10773349655860825,-0.24054731211293534,-0.09620473973442206,-0.12448846356523222,-0.13868426676561205,0.0595026080630117,0.0001482974290886369,-0.014989425958391086,-0.1580991094104893,-0.11183775301103348,-0.21199355011881899,0.20014129358121677,0.010965917531539996,0.2113411792929746,-0.04543771040856784,0.18380292553970537,0.23386858097272847,0.1217866828080902,0.08587190051707536,-0.09680271992995532,0.1646572008949677,0.29029663031303615,0.2240440988047478,0.017049703710542045,-0.101767716391556,-0.14538989332688926,0.1434637818694957,0.060629010880601575,-0.14716873207196726,-0.10690640621917456,0.1279252657451631,0.14303960620076606,0.11940986579597411,0.24640210064507712,-0.08975982970310205,0.010705706263723068,-0.2015493347818041,-0.09971063970584845,-0.06572381573601253,-0.11695161018582736,0.03661874971956946,0.012370818004995147,0.058088763188798555,-0.12423413731297672,-0.19008221431416047,0.12425472184085465,0.3095512158388811,0.15704073024317827,0.20417908164339782,-0.13078201754788385,0.21549872814011523,-0.07142438005135654,0.2566761383599823,0.30604277758744236,0.1465308829924254,0.10773313206723127,-0.0603513095767896],[-0.29256666561693406,-0.22291333755346543,-0.00885870146635977,0.020886832458339007,0.04314500315034862,-0.26600981067996626,0.11727347406694681,0.2006342995278209,-0.1425688036481195,-0.07930583778172771,-0.03219831674155729,-0.06810882893658146,0.2031670051363833,-0.17733114107228123,0.2121613655511674,0.06887144880792544,0.15625230068155266,0.006149245442925755,-0.007353142153773894,-0.09366742878433686,-0.04563016449948107,0.06107478427404796,0.06937876164765053,-0.31740734026841644,-0.34201242124821096,-0.25725002084136445,0.05611743221591001,0.25449963708112144,0.1935599994224279,0.16609809001872403,0.11161621352170653,0.28506803484629073,0.14120031302017907,0.18186761358835601,0.13583697368749958,-0.3979416725472266,-0.0003439005282769689,0.08039221651001563,-0.3213347150599646,-0.08777123649533267,-0.274436888432054,0.015297088280489757,0.04034416611231121,0.07451634674142926,0.10200036203308797,0.22315766361235995,-0.05901707755923054,0.09488389650975174,-0.016461291520258492,-0.35070591629100895,0.004948803228202715,0.03498860759234298,0.06298556852166537,0.2225955972562671,0.018562752812706716,0.19830183229583556,0.01982777607494724,0.05320682149795783,0.10006526956200228,0.2925230869790461,-0.09307502578943842,-0.07956382260852074,0.07878251801343401,0.04914900415253739],[0.022997165874418808,-0.005348278168810465,-0.035555896922839184,0.0009025886921170155,0.10498145591205689,0.1485851527359239,-0.022330204771936625,0.21851542698693113,0.01964329942449792,0.07197776080730169,-0.23372351013206358,0.20868939221733754,0.030420386515701593,0.05410857500244044,-0.1254212646879202,0.08575878519428533,-0.048263868004279654,-0.05882151968186678,-0.24456584372267867,-0.1392496392242547,0.2078218999900268,0.0386662532895877,0.08215146066731072,0.2532042520471661,0.13656002970064227,0.06802986844520699,-0.03865896729866032,0.003147971220333085,-0.13025430597177823,0.05145614257296232,0.08189069120412831,0.14594148130593787,-0.3182347671440468,-0.46591618172236765,-0.02541388307312845,0.19437539168144546,-0.10180641386886986,-0.0686518496315157,-0.26683733437931634,0.044521135096778186,0.05616215645867035,0.252862879051684,-0.11601059095288074,0.14855319229413536,0.05871564659206453,-0.08698277270475958,-0.06031587115811482,-0.051957746797284744,-0.003361334965794469,0.10904861309166669,-0.17283788656759072,-0.1630007308053319,-0.21224564105045698,0.08775637669698318,-0.014754183636697508,-0.21188472515953863,0.19192166862075394,-0.03476310345110845,0.05965422159716461,0.12974844043353662,-0.32264324701743524,0.33928230186183833,-0.47979558969756336,-0.22884400685463624],[-0.21984917662180767,0.09731409787755918,-0.004497163294911939,-0.09083078974645387,-0.05330212727782796,-0.22061198510352237,0.25705284463627176,-0.0028840196922621003,-0.164520591126274,-0.3717263146691362,-0.10564234983506936,0.07512532014946054,-0.11775554943490649,0.23445324229698994,0.36830956226733036,0.23686254936017812,-0.1769363676010204,0.04391713282591006,0.11396670233635184,-0.010818918587637614,0.02753745062834063,0.21431061366162896,-0.04746953041723348,0.2854465331445015,-0.28642753160894074,-0.027049590707515482,0.14389847098473477,-0.13279894924747265,0.54905815217119,0.07541158733879796,-0.11773703047922766,0.07072239612581895,0.021318566750443343,0.0664886906923714,0.012251772419523391,-0.40844701958891977,0.38448416047348033,0.3946065478754176,-0.1859962530743404,0.057389168351384266,0.14787414764263954,0.057183475718562186,-0.12577141365237204,0.00380330882761121,-0.026939463169401007,0.07293751245254694,-0.10192972970362514,-0.04144115264212177,-0.0038631414086800595,-0.06366626961210632,-0.08308693049571725,-0.09195534580642978,0.09308301548517274,0.06475760477272623,-0.15419243649934894,0.13471688137059468,0.15778487645903583,-0.022864641955297096,0.17355621165700746,-0.18513358256114038,0.1010561368484606,0.13118001434666593,-0.10510102810635513,-0.15671552111547044],[0.036687090445065774,-0.09883371651514461,0.16341241905714254,0.07564685488848807,-0.06591785460150754,-0.09041392945059344,-0.21767730305472188,0.003421786208875534,0.13582980292299454,-0.16789908774861034,-0.04507791217466608,0.28501156373081454,-0.41256894867168187,-0.2880487328359462,-0.14879330814544667,0.0187343137300358,-0.1496750306874896,-0.05953422526867517,-0.21483257049565777,-0.024848280309550573,0.10400755548773245,0.10158274102861041,0.009968011656749902,-0.008282010076943642,-0.20849397668800962,0.25554115254378096,-0.06212816317218339,0.351288761693972,0.041200198665408805,0.20945580693394025,0.1667730893081675,0.12641403328661058,-0.1235843832073649,-0.06537817670718495,0.04348350697978144,-0.07596313307952274,-0.11054071787913447,-0.15327148941870508,0.03285967965554442,-0.032735686188644746,-0.1615532996788941,0.17285171467481006,0.002082521489731855,-0.44265049642278825,-0.17627318794562383,-0.04265384540229146,0.20901500153466535,-0.1255723639337768,0.10996471600295833,0.24149395687584307,0.09844219577344791,-0.019788216426095545,0.09181139101466991,0.1289657649830022,0.08018167184268284,-0.13597323023626284,0.04724862008128069,-0.09377589083758386,-0.02179152372364524,-0.15648112859478233,-0.10958746876586502,0.39612536243740065,-0.14947652853774554,0.1327428249663401],[-0.09242698587639529,0.046241740608385075,-0.051712567432620656,-0.0648480020280031,0.0784216997653323,-0.0694021490591923,0.17801699242022934,-0.07657096517062839,-0.16768428506099048,0.05125419675504287,0.15536906690733046,-0.20093557879947968,0.09973305033805113,0.07331039770777324,-0.064072367808578,0.01879859906356213,0.13526382755026203,0.12376147614547629,-0.015515528682326848,-0.10416989239612068,0.0929780987388594,-0.010763099386117109,-0.024004838929260173,-0.023000607593897087,0.3050921490915672,0.05498738107028467,0.1995982062142839,-0.12667863735707402,-0.004800764437920689,0.1043008736967671,-0.08662458252380818,0.5236997060063272,0.13899292201148408,-0.04970100095658151,-0.2924862362747191,-0.05107035614645091,-0.3763532068786725,0.16500334263016744,0.11729343302070466,-0.007902099140766682,-0.14493388511079575,-0.12510079161747317,0.21737297197771704,-0.13338754801853173,0.02731569310361289,-0.07734826852908534,0.07468440023235695,0.13184188679790942,0.10144537614331488,-0.06843229169244072,-0.061394230534835746,0.02702973645504553,-0.1889875433157273,-0.19679715403318007,-0.06049022137223819,0.08577035741513697,-0.08029436264196392,-0.13172483122131418,0.2449017556858558,-0.18054899475279979,-0.20140311172778405,-0.1770779678904848,0.13808956713136783,-0.2547372638241701],[-0.43081741876671575,-0.24972609926063138,0.14956086230635132,0.1474843259610311,0.4180366025097535,0.04931283917207402,0.28452401086700946,0.35332086672241714,-0.09095729485948892,-0.1531455740893162,-0.15235968516449092,0.05745986091438213,0.4171079673893624,-0.20426959603380065,0.20307913802805408,-0.0173965942072311,-0.08737577615090684,-0.2513261489019796,-0.15385832594534954,0.25891885459675396,0.14323177722945207,-0.057231081278271916,0.08696095245654421,-0.33803774274784343,0.005926987700879109,0.12134539958827387,-0.07576891599736382,0.104361045919294,0.058290640256623075,0.12917225485261774,-0.22059680265101828,-0.056923019338818014,-0.11979019697348976,0.21274291977448845,-0.12964918256205415,0.1963656599511891,-0.26111497093741654,-0.13554376725157677,0.3202922149389293,-0.5861777231650623,0.21666189980247416,-0.08993516666720107,0.057947175303203674,0.0255242905216499,-0.31934025000173516,-0.1953692758177031,-0.1655889722815879,0.00018751524459049176,0.12602870769633187,0.13883697597311517,0.1220457568744597,0.2523512359401396,0.03057474893260578,0.0301237592672146,0.11501174753913335,0.11182405610631803,0.370224788347783,-0.16576249803894139,-0.055843855172235585,0.2106442325667229,0.4782250477617194,0.23408864962201847,0.32803996976934413,-0.03589924135817192],[0.07506721987336593,-0.0361959194433379,0.08195419672822757,-0.12060223399456482,0.028626183990608695,-0.01255753996337933,0.13511545806742184,0.07914331102855257,0.17631041663572894,0.3584611516134152,-0.06354324888302189,0.34586902797160807,-0.4813960915915453,0.18513025972969263,-0.16507232766794316,0.1927590452579502,-0.1662295580492793,0.1036454751849481,0.031411523145569394,-0.09688997374912636,0.36491269125254605,0.15914894921852832,0.13149682018778946,0.33606755925641185,0.029971594291990755,-0.14459758010150253,-0.0913321478346956,0.027317669354932534,-0.09929728380912545,-0.12250773614209225,0.18926540012753845,0.06910709158687622,-0.06736741118990565,0.23093206747791295,-0.01045737778651173,-0.48642853235662553,-0.12225415846597075,-0.002852581739242456,-0.2255213619545343,-0.030351662921119425,-0.0009364910190469845,0.11923264649841134,-0.06722324241356156,0.16249663400894268,-0.4228485080917497,-0.29948012340317604,-0.013213492205183195,-0.025996034487583173,0.016919551746095454,0.03416863399649795,0.040339604541257235,-0.12682148629619985,0.1127732915541681,0.018665399597759882,-0.07689667958462784,0.005838276136776844,0.005862882297270368,0.006543112896472484,-0.09936044834750618,0.01948214927922107,0.4568970275285787,0.02773388561508704,0.15177855908309917,0.0751930192215726],[0.310872111660171,0.009090631499934497,0.1609085683108019,0.07277242483353057,-0.0895101843729516,0.09242730924725293,-0.15685378886008822,0.27629671639405756,-0.08122805517197512,-0.009916697469993104,0.14631126864952004,0.047487765139044104,0.13884148605822139,-0.03794455975114587,-0.04666991260045657,0.2518067879442061,-0.06613131594088228,0.020431468712189663,0.22400365305596762,-0.05245654850673527,-0.2325658800399521,0.11340618023062031,-0.32713857892314924,0.1717032274828257,-0.20333012961645927,0.052862216187666504,-0.1575314785735053,0.034777732558064156,-0.17668721388679268,0.040916610397402776,-0.2084270754012587,-0.10071343736025434,0.19871859874066788,-0.08310879799748205,-0.17350006092325626,-0.20133216117627084,-0.022894547786625977,0.07290717996704386,0.20806335549982083,-0.09633739211994262,-0.026078013669916286,-0.14431679323830904,-0.02416238401374441,-0.18543291840899767,-0.19177049957749046,0.18073065804333552,0.13257142320029544,0.09592669882888859,0.04805743067395722,-0.33050490587799003,0.22556182619786333,-0.19286487422383966,0.0037161695860103284,-0.10423138384392824,0.24185003143772113,-0.1759531264074159,-0.09527563263223618,-0.2137087762655427,-0.07939446881959845,0.12434450760456027,-0.3566935809089719,-0.06480016483951558,0.20455783464675606,-0.2985913120631829],[-0.04748780315738679,-0.17942900414772434,-0.09477071579692423,-0.25152748885523557,0.014435286921744547,-0.03673258722706608,-0.03582132018645758,-0.41247919042928977,0.2970198856735118,0.25537284936879756,0.028214109082923673,-0.4616913648854605,0.0674064240997946,0.05141266338516255,-0.10205545469880016,-0.00950691138757486,-0.014639295210212743,-0.29757096496280216,-0.13358696175710144,-0.09144678693765707,-0.3271233803258822,0.08520439363455906,-0.32532356809025964,-0.10807333322105545,0.022102535258855145,0.023912989472025505,0.03464820622747946,0.24586091033962015,-0.0370027822030229,-0.12826293279436513,0.020909478702935705,0.0834037168631,-0.22781412478327484,-0.27767113581540903,-0.10942507674500734,-0.10819162122513176,-0.3287744653057006,-0.014154476030558038,-0.11530827476768513,0.1370989845929573,0.032519505198670605,0.1866475203089039,0.023105446744596723,-0.1664436214066789,0.06578470956964469,-0.09618236009214345,0.0263568669437664,0.415992864476578,-0.043332136058696236,0.07651191788374219,-0.02238277413985568,-0.16658138443619205,-0.15536876438918235,-0.2410286037193248,0.09874551470519898,0.15197584823146992,0.16034890813742156,-0.21125771696998158,-0.03575631042631783,-0.09459366549939394,0.2750134513840333,0.12199306846990818,0.007302966196559935,-0.08957199011942725],[0.1211263864759787,0.062159977277853364,-0.08235505089978332,-0.16807582581487793,0.29237692433651585,-0.06884813963223795,0.016422161614670663,-0.1590958880212345,-0.11244103783207575,-0.17541037169921883,-0.3120747385328723,0.04447473817387829,-0.18130180372184918,0.03018497461014853,0.516665862138816,-0.27312120135851753,-0.044481901203430846,0.042336397342436334,-0.014494647870970686,0.1857660557987191,0.41123725744687945,-0.17593917413950946,-0.1531764297429477,-0.03460070946412389,0.11015219909805922,-0.11270072283915886,-0.0991784802965154,-0.013514275448611564,0.047207744519802246,0.14454984712610752,0.06582616546193343,-0.13025453081464577,-0.14843620851152975,0.1707076122459167,-0.01262645757324596,-0.08015214749238163,0.06169946604112465,-0.26491368280841276,-0.1815717834965825,0.059466058247581215,0.08243294715813024,0.012701214923389308,-0.20509132283822637,-0.03796067701044567,0.1448900493037504,0.25157623952997005,0.01731384416397787,-0.005509466913986213,-0.09688518209938932,0.06427401450948712,-0.07915793027142387,-0.08891497988089281,0.037384912478965665,-0.22030017008400218,-0.027506917581945563,-0.06242501643912737,-0.20286100065938362,0.304503045140248,0.015129869442354803,0.4030735269874338,-0.3570793276684369,0.0953721787585451,-0.027346480977386872,0.13423548094745694],[-0.0397906783982364,0.012173268134575758,0.05003366285295081,-0.2284556615109318,0.009858886414257192,0.012975976359411247,-0.2712710655036315,0.07687547338667611,-0.1321626620820744,-0.11957134818927442,0.07661877539027798,0.09211284675815527,-0.2962393696912025,0.18681303005490404,0.07891116103564934,-0.24728161720895245,0.18021364105471294,-0.16964837387735301,-0.0033982375821087697,-0.21059039160585846,0.02644242834011548,0.042433513113170736,-0.10532670188826787,0.11154195264396748,0.1211566725598434,-0.03706085127939958,0.15927036214360504,0.16911003621191376,-0.11330418111217051,-0.20438719859872295,-0.013143812628512436,0.11075916586137026,0.1407539154274071,0.08253267837505099,-0.1027368762756959,-0.07064770149128068,-0.09355554596418272,-0.09348919652290255,-0.1616342502932893,0.024240326844819315,0.021627239104696553,-0.12359241919553973,-0.016269990280479082,-0.016383852128981687,-0.15164567561184955,0.1388981591235058,0.009094737550582979,-0.28095545884912604,-0.23917089064276761,-0.06055000238335813,0.23666201316290567,-0.239534761708916,-0.00217334420813506,-0.2387779367351151,0.09186113967513411,-0.09699458197844633,0.27117454283469566,-0.08088499389137623,0.2180889260751043,0.09149341069724017,-0.09097432324494302,0.2408831484069251,-0.005945737026149309,-0.23001653773726785],[-0.22552217589545615,-0.010905032604705437,-0.20944462969137354,0.23018336305072573,-0.03774832723990489,-0.14836829411013483,-0.0483533473835001,0.1881347953890634,0.28662829799403433,0.060495108105894355,-0.20240246576990087,0.2348889952420022,0.3355695698190817,0.11926331308414692,0.09969646677124414,-0.0862318618393215,-0.11179663470786008,-0.15286794240402654,0.2715380042450165,0.06930592810477725,-0.0012291298047620086,-0.18123987971578182,-0.007856444345774804,0.07601630330496797,-0.21913119574575016,-0.14225387965100372,0.2655618778313725,0.2734860621133901,-0.07322039120699064,-0.058112617910871696,-0.05488401516974999,-0.10445886195369221,0.30663493161206795,0.2595015445831527,0.04669341867649667,-0.019406066363822312,0.24633759606201885,0.02084062638795556,0.07385756608380016,-0.30849882770069254,-0.10782638317272127,-0.14148744178950232,-0.2424633330379104,-0.16730940496745866,0.33825190052405396,0.10703743207517549,-0.08759230888723023,-0.045400976435015915,-0.03775860688378364,0.10583683853939369,-0.014569636910847273,-0.15551501712609295,-0.0924546819969165,0.20832242712568005,-0.09047589742708972,-0.34508392417341427,-0.20577548146534527,0.08298153028806954,0.09976874327323743,-0.0617189832354446,-0.11431654138936582,0.30122200274240357,0.07910978471294713,-0.2205293624524886],[0.06462069992264491,0.30325811266524194,0.4647548015501354,-0.1893949955565571,-0.09262276870180766,-0.06120963360550867,-0.023392444405750015,-0.07734755802992697,0.23203996319851514,-0.18939809652074216,-0.05087265242514333,0.10285522832255775,-0.03677946839347326,0.05293313352464313,0.08545285081019606,-0.34972144975479597,0.15964800581076988,-0.13114751086810444,-0.20879220256733458,0.05328640762847605,-0.4029222226582356,-0.3526380151035792,0.21072419451666194,0.15572484842933146,-0.09190346545728476,0.012100515446913289,-0.028792059365467276,0.2529910544175364,-0.16727076384291545,0.07518758323530887,-0.15497155741197396,0.274524589909489,-0.28763888215678063,0.11124662643740289,-0.23993135978791444,0.3413335287821588,0.21707849366054907,0.1979920083678782,-0.22020776956082366,-0.349490937839886,0.03274946042484308,-0.03646705419023864,-0.28424383669921316,-0.2696837598685022,0.2965549878521799,-0.05293169405960044,-0.03626403090742043,-0.12288930524515855,0.08977644051017716,0.15447009922518323,0.15233838936882718,0.034776078479563634,-0.13316936360351883,0.13171510808682052,-0.07147351235603008,0.27172831288924804,-0.15272259011484407,0.2207042932916559,0.02599487810687774,-0.10196536137263547,-0.14880415893088364,-0.07371979724225074,-0.040625812740257075,-0.38861997648501967],[0.21248239353438905,0.12952674652100485,0.08387629357160548,0.11591168332466271,0.017823272900535203,0.11516807198593619,-0.05025352755245155,0.041586371185379875,0.5044376193425988,0.18515513652916515,-0.06423491712337642,-0.2556349439805554,0.06639623219869897,0.14730443677771415,0.03473839866110919,0.20937786338834766,-0.10220857282610818,0.25134686484698815,0.010618870262158658,0.12080052109864621,0.18001270932743996,0.14174670916848836,0.2114647044727223,0.04069620293290283,-0.24882485117508635,-0.2744641712550584,-0.2182717709790376,-0.14588851701735098,-0.14894378525120353,-0.10846974950230452,0.3509764921432834,-0.11054435357221792,0.043862459355371,-0.21917472923725348,0.24476436123842635,-0.13472970197606413,0.1314495957338171,0.06246616387929284,-0.01443526408281146,-0.11561690237059037,0.015553410151419006,-0.10335223665880107,-0.2646028843124739,0.006615787553843934,-0.17997704193954656,-0.06923745629393241,-0.16642042683810257,-0.07746689132087857,0.23518224130926293,-0.08925152588384318,0.010577553823338214,-0.16996225982074997,0.13233858684165706,-0.09900664033206787,-0.14143561983081454,0.005140176551518615,-0.3444037968537043,-0.08103073955382656,0.16203478982003863,-0.2241866951896709,0.09389231568788542,0.3132152297049487,0.020896923969697515,-0.11282456458772898],[-0.08710443604593515,-0.12298437064623739,-0.00842341697802636,0.10157233123894097,-0.043471250001391515,0.18091291828847675,0.01995039363720384,-0.056279185457854694,-0.0898708413819517,-0.05620889074209045,0.3624657466745312,0.19479773787774576,-0.002750306309972932,-0.07711035245447066,-0.05089162169852434,0.32639785616973427,-0.196886280499716,-0.1908159991750253,0.12189682265527778,0.12054794876661362,-0.2865556707025866,0.12598722234292398,0.21449857582624485,0.09908992771249302,-0.09046908390543291,0.07209396848233232,0.3508456985828597,-0.1495408409806454,-0.09821343072605737,0.056942452872197215,0.04039571730971079,0.2292617574823352,-0.20982392416021292,0.1828824652422237,-0.02566186032032328,-0.18313724744191992,-0.0145551977343331,-0.17134714205555687,0.23383965060723563,-0.008037412545051276,-0.04576172579056319,-0.1201201240895718,0.08428637430818561,-0.13853890977967764,0.0036228647769645426,-0.37483858217025495,0.04996787691651712,-0.046504785158726004,-0.014644583496529022,0.13080829315538064,0.14508032272017096,0.04614088439543029,0.07765631482400764,0.2776879366463062,-0.1414393115003413,0.07891993935641403,0.0004988557828116245,0.002829847090341506,-0.019786490585265482,-0.05974736024676024,-0.1099396261461083,-0.07377005935124546,0.045915151528656835,-0.11770136090680057],[-0.31881198444581194,0.13375810291047932,0.136988235487257,-0.09686698669424808,-0.12077418237870138,-0.1099052040975869,0.22351663163692073,-0.1646140202789696,-0.022879532260160564,0.09931191684134297,-0.15466306938497426,0.08206664993791805,0.05476455833483916,0.013041355857194981,-0.15188419952616558,0.2761581804595712,0.10244900696758556,-0.0628128438732078,-0.16238826814145738,0.031191610996503052,0.005352338188205398,0.17746579805189155,-0.20400406002676785,0.28031115050558203,-0.1405315187028032,0.027528300248754575,-0.057969240126834735,0.22287141533785385,0.08043368567125037,0.1154774490017006,-0.08977279434448647,0.12001471250675878,0.019932023821766086,0.006293789525437899,0.08796892855308469,-0.07482523352174814,-0.14635951046882972,-0.11511313150413154,0.04668167010177541,0.16514510281673056,-0.3647000251472225,0.15285114888581214,-0.061757372651438665,0.025497346501093573,0.23768219437927948,0.05583311561683894,0.279703672723882,0.1250551818371866,0.39916879760063256,0.22557938104262074,-0.18130019005494186,-0.07558911678930592,-0.15062551845598487,-0.07349822647086947,0.22651976975045462,-0.08794083015064526,0.021393717083498423,0.23914711516996615,-0.05245420648494307,-0.1885050738402304,0.016573847270097187,-0.01888069038665402,0.11878975120938254,0.008839447699094519],[-0.17581892375688674,0.2230288587509776,0.1998321288632279,0.33277987563185524,0.24775354480609926,-0.014081163999538042,-0.003929438641212915,-0.09031120219802316,0.01376955724974004,0.1069027849796746,0.2630266894550797,0.03573803496556329,-0.20195166864465064,0.30030561833077635,0.010745640702787834,-0.09332107447186651,-0.1929178437695132,0.2820280814998899,0.015483385595550023,-0.04698477407273134,-0.1689004934563108,-0.15627198776541418,0.1736223456181057,0.15235253563675893,0.06467391828108564,0.034144649267715946,0.11388573251323758,0.03384453075569517,-0.029136390682295912,-0.20616528609917825,-0.1274212855917898,-0.3351915850057196,0.1330075536190396,-0.12127093189271042,0.23024986992419938,-0.06306362156980132,-0.21935236053645005,-0.3199753708657978,-0.2075175504858338,-0.05677544849681357,-0.053532901304311195,0.09260185948286323,0.39806197641853397,0.12549497722781064,-0.4937028307107022,-0.2791064146963647,-0.06984669943291932,0.09135621833335844,0.07681488093924864,-0.24037349928750948,0.24842576900376234,-0.13484895942566982,-0.24429302597026678,-0.15138008011412715,0.25300603018569395,0.075915336233709,-0.06011466276068628,0.11415065711186602,-0.20472775192882636,-0.11223346625332234,-0.20921952574102998,0.31028860042003253,0.20777963127400315,-0.0064009185354601825],[-0.23159913484768008,-0.12534347531931536,-0.05568641550458374,-0.0023790736529308043,-0.057688806824699596,0.11534186514088957,-0.06626978833723259,0.452821554560938,0.06586418953265173,0.06410535984766806,-0.1216972522513835,-0.023321115277997677,0.11119853557377232,-0.058058619787282925,-0.14133140632791116,-0.15564364514260726,0.05174653611126064,0.17721150129031224,-0.052211762532318844,-0.08396773418842315,0.20120791982498645,0.012876571760297311,-0.05574092695722863,0.004481857502348605,-0.0691809635132731,-0.14065606760130306,0.056882108329256206,0.235514350082867,0.11650921104452246,-0.1176647310547241,0.20738123766665956,-0.04413281075880981,-0.29511421215912303,-0.19815545716134536,0.24848501233396547,0.16553101324399527,-0.15816793452439196,0.3211520687609868,-0.052775081221464716,-0.08816251900652446,-0.04705759234254579,0.18410536871118519,0.21475515177874938,0.1984022154914664,0.5156521932032985,0.03280883725238467,-0.11127167296094127,0.1667293091115924,0.001103888676781059,-0.07729962615004907,0.048242198226736185,0.2153706045116822,-0.1452277588839175,0.18921930759631578,-0.18585850123962613,-0.03564231327263739,0.12500155989488848,0.03245315320934542,0.14908334525553502,-0.03258690182787973,-0.23562959840695505,0.055449614031389524,-0.03544109192017885,0.0039729916980092385],[-0.08606179036336455,-0.14100343123846926,-0.046581156329997514,0.020137440216349486,0.09715225185531388,-0.13763916260520415,-0.22667906300677335,0.19565611319939172,-0.09503615986265727,-0.47877964910835347,-0.1587494356586051,0.36032625438012716,0.16783748096395773,-0.15519187899940673,-0.02803084222512421,-0.141875102556796,-0.14247358539514066,0.1085050821051716,-0.11006398272629331,0.17572114307651238,-0.3205709762137377,-0.0008951139097994589,0.2519147562473685,0.13340406109003858,0.3327261401873959,-0.04558064593546153,-0.11536115067179911,0.09174550967877429,-0.3549797800218419,0.06414342730999063,0.05126378581592433,0.12014955414502095,-0.07331651011310006,0.039120600363941126,0.037178714252346826,0.24702756149261149,0.01808537855371058,-0.30031688206653523,0.16588285730237748,0.14928154247642683,0.043696416862752385,0.21153777840259008,0.19362120842341551,-0.0351484158612044,-0.13727101617288465,-0.226068590682,0.03245344266712163,0.2973586267330741,-0.26590810717472274,-0.11576376834232445,-0.15567569040566148,0.0653653684413108,0.25007601225921094,-0.262596395573377,-0.13211451991235107,0.0012394795616658461,-0.10528761573098575,0.0017873059218854348,0.14756995735340397,-0.030886654680385452,0.09701999834178691,-0.19070260530585895,0.16901107793551678,-0.09804964651507032],[0.0006342729333935885,0.1931977073793544,0.08190724329425332,-0.0041507274818448,0.3467788769219476,0.07346269854153796,0.15875325341958207,0.006016984330743396,-0.0346147912666299,-0.059588298176761874,0.36149371671047575,-0.011182202071753218,-0.10128216654067061,0.1793834514160661,-0.06745801670450877,0.07852531348798222,-0.12913201975431932,-0.05506574713622553,0.23687134888149305,-0.15846802496318987,-0.10473639580868238,-0.09633411803589362,0.1213222617587521,0.3316092357445213,0.21288795504589714,-0.03297681211185065,-0.20031618596491074,0.11856973398105862,0.14437643590008598,0.10029210101508568,0.12020593321719662,-0.15981259498571496,-0.2447419873015805,-0.11512799560452863,-0.15334240808127156,-0.1808854537973411,0.017397961607802992,0.19179930992181574,-0.08106713174863854,0.32474064775225453,-0.21825216342505466,-0.06529600475387923,-0.2096785054838043,-0.15928472155543882,0.05684382606015671,-0.09032195314024771,-0.09744902717064172,-0.21234327024228056,-0.17123420682736618,-0.17457168682346258,-0.10920297787568067,-0.10881754590731932,0.17807530115632295,0.11098664523423339,-0.34813411481602957,0.1471595595954849,-0.10513040808437286,0.21717992194617874,-0.12238913815410907,-0.0031900615450202742,0.02747340896252522,-0.10716516981993736,0.1578233212875435,0.18127528315637442],[0.05744661610302043,-0.03935300602549957,0.07756316346143831,0.260209750519198,0.027048842356886232,0.19063436308074513,0.20303762148752283,-0.18086865590109935,0.12124716245523107,-0.05604530637272483,-0.05618535943145463,-0.08082751567921129,0.3647962585284658,0.017137204819872066,0.04483461995283911,-0.136261671750773,0.02719409339957365,0.16308322303979905,0.09655182625200365,-0.2521863839001417,-0.24120016005734318,0.14946603394512573,0.3039438558132443,-0.1936199209273781,-0.06677080607111158,-0.13639769711181365,-0.3742542566990394,-0.02309293698264603,-0.0678115340192919,-0.12120819602799136,0.08715327159249707,-0.23442070185324054,-0.06208014835612719,0.1909639181786217,-0.05926430938076641,-0.006899621761173568,-0.003590050899460942,0.044409405545613,0.13017363942563898,0.12271668474509438,-0.1764165466602779,0.0023850339445698906,0.21196269037997478,-0.14169705005690655,0.0658812480543098,0.2293453394341067,0.2423180918345293,-0.07323377282943826,0.018308933984015882,-0.17903778781706342,0.04104459564517878,-0.15082120680337044,-0.03813446607355249,0.02926541451378181,0.05229493318097355,0.21884900419366324,-0.15401555917204143,-0.005796339300923099,-0.014945101607592909,0.1426294105337597,0.28404022483025837,-0.05838396868780365,-0.14575661447852284,-0.028329086001145348],[-0.2343660387660141,0.09110151724304262,-0.513274822309061,-0.2912076989566085,0.2902717296334117,-0.048473290912866715,-0.23087091500791887,0.17631567853641542,0.2509389491893543,0.23607035107291574,-0.1381489099569661,0.09355930644724048,0.08397720909383907,-0.05126802899928633,-0.0607628002365986,0.09946427021737529,-0.16391027695292712,-0.08956994130221838,-0.20157746383240974,0.02765023593785525,-0.15038748308791205,-0.05217392993124822,-0.02056476439922809,0.08559850136896405,0.17506104352141869,-0.2555930744516622,-0.04612324175984429,-0.2880183612606873,0.11961828862333554,-0.17965437334670653,0.033013309036554715,0.22718040208222665,0.21852063549879733,0.08148734616188422,0.19005041658060995,0.11790391309757567,-0.026627633801865228,0.16670659673058003,0.3208186022551843,0.040194885439030055,0.05641430998091706,-0.09550034246026899,0.25493801291521173,-0.14631964920966298,-0.006559473875605935,-0.03450110761776254,0.09342683256255332,0.03986474513717155,0.03912125708172795,-0.061259575264157276,0.014952175894944525,0.054978601488924216,0.07620467735258678,0.11962706629705865,0.052883400518810186,0.13741108764479582,-0.47333419829979384,-0.09824619146662836,-0.28790228907095483,0.12435846823204137,0.04709793687473507,-0.07778704204783282,0.17127704527559862,-0.020068411773762056],[0.00032807884801701066,-0.05212343906421783,-0.07766475113819545,0.05463424225269489,-0.3473617528878485,-0.17562010713422943,-0.02413345598214503,0.050793186040523915,0.005543389460392114,0.03923321729922687,-0.05823705595283502,0.02881473713577339,-0.0029264260458752014,-0.1746259797920114,0.04583598986849436,0.03757069547744561,0.028536648430887452,-0.05074989254075128,0.08981642869733145,-0.09504771856962291,0.12060050624274858,0.09066222778036324,-0.130952227334346,0.23097293225614327,0.19453654360581685,-0.11231519809444145,-0.180953698786776,0.15308754266445904,-0.2362626838679869,0.12654423349791227,-0.06579679278744927,-0.2610680657441245,-0.05470652008676784,0.055387900223038786,-0.06185410737090607,-0.11870587099391784,0.11379571032937441,0.056416659792892995,0.08247380644883787,0.04617356410769591,0.03911219638303317,0.050702342387978605,0.0055882806372344,0.015638931582839476,0.09379791371023428,-0.04495241027186289,-0.20985989519282786,0.08267693835617951,0.19489010244106844,-0.1165797671859785,-0.005085217304600147,0.3479941923496222,0.09852230807331107,-0.10859167840214619,0.13538518376574799,-0.42837152546323365,0.39003695364212676,-0.07927950433141007,-0.05333113138925518,0.25865330999515285,-0.08499513713038193,0.2038532896936376,0.09343160674161267,0.2273506331098101],[-0.08381926753641682,-0.004915786969584289,-0.016283840632695903,-0.37136601930855817,0.04888133931774679,0.12321406460046004,0.019237874977380172,-0.10190271206412083,-0.04265729952343146,0.09064555064940531,0.0661094095985271,-0.13403850812474397,-0.20525045357577426,0.07592439085399287,-0.14271417188035485,0.03423217335779834,-0.15364183024643507,-0.36806365474563485,-0.13178728115896995,-0.17954970919018587,-0.10633998792043721,0.24963963424848454,0.0723712994249149,-0.13920325586340115,0.0660668176034737,0.16297626518300762,0.014243329537293783,-0.0783979546368886,0.008919133082748937,0.0717146914035798,-0.035872394866129344,-0.15428797418974047,-0.18790021360993836,-0.2807628650605876,-0.1526530797732396,-0.1788345460695142,-0.2845862243732323,0.03536001652202811,-0.16260156809619694,-0.010855269675174221,-0.042263794494100754,-0.019360862995286623,-0.21152931799945904,-0.11927031147893674,0.019710951671118457,0.15168801957609876,-0.26318360672152935,0.016030707461176037,-0.08839137545092131,-0.4734726909057358,-0.09475734870573208,-0.22491026982313755,0.15983745617296444,-0.0251577079546629,0.034627412329647896,0.20947255402491272,-0.08682506705573663,-0.3334140666134002,0.14552524681128925,0.13004846775806056,-0.13076614106238035,-0.022701784854776412,0.2256886403711729,-0.2864109861468779],[0.24689246961309233,-0.34966795461301925,-0.13517470215564692,-0.06384723039181084,0.23503633222877793,-0.24608662257385397,-0.08927602756422663,-0.10962136726847799,0.1067064768670963,-0.1817499830632441,-0.16284471250849675,-0.20155729619549936,-0.16036017562232047,0.029934867158405706,-0.036782141224846625,0.3728844206764475,-0.008412739174197275,-0.08030102906359267,-0.00441761235849723,-0.05298576502137445,-0.1283596630273669,-0.22775148931583225,0.13538097491735943,0.11565920355572434,-0.1586558137631736,0.20050927953851683,-0.01183622096210273,0.13907459879165182,0.01026755936865188,-0.062087755426690726,-0.12190492163645768,-0.029106942253525152,-0.2990327429023043,0.1888870067042604,-0.0547453283515864,-0.247704642952632,0.4078526284964564,0.3011732798121084,0.10040479011713345,0.24381536941580503,-0.11141549450239069,-0.07406483414495074,0.10325900290997414,0.053253175034425476,0.2643481766746464,-0.291937916556574,0.16274087532937737,-0.09862130759431846,0.13670611242876715,-0.12592628339652814,-0.3796949012679753,0.029489340771257765,-0.10793676518742848,0.02870187364580202,-0.2113118091590152,-0.09417589277500377,-0.04130635583416794,0.29403837489524165,0.3013838516046223,-0.1680559882638938,0.0807950359712244,0.13747965157841943,-0.05931694474986955,-0.06544242204300013],[0.006009344522947683,0.2255558457744242,-0.08801611908654966,0.1326533851851695,0.12633787680147995,-0.12919843947000897,-0.10310538545541478,0.15696822008969494,-0.1506040441169357,0.00469030935440945,0.3666166039907375,0.09337168154703028,0.3317518767745201,-0.2143118402019422,0.29802124582207246,-0.1846224695171285,-0.006133435759051996,0.13707615646635443,0.3457529315200726,-0.15386031490713112,-0.3525421761040504,-0.10192899402578838,0.11827965974814927,0.24029420872476107,-0.06535275424915175,-0.11988890953689793,-0.11025531448508559,-0.0013624580301332114,-0.007738481776338942,-0.3675010307989814,0.24317257848890006,-0.25118025617178513,0.3009563219984941,-0.2185173487235354,0.1268114866898089,0.19177176007326294,-0.009313495811337242,0.04631153448848113,0.20902483913727998,0.17577358070026217,-0.0035005087528926096,-0.15727556683544996,-0.09716699320902006,0.05644390376662291,-0.0466992640378221,-0.18146035605985528,-0.059161310037231456,-0.29587848800754524,-0.3753548934249563,-0.022583451895021284,0.14067025842349984,0.3080286088221171,0.222453487161821,0.07512609634725147,0.022128633050788278,-0.13356399195272947,-0.03179446495856617,0.03262297279105273,-0.13692033510073615,0.06490047429955367,-0.2510657450943426,-0.11817448534605146,0.12476766575840917,-0.09824059647102742],[0.09022030416089695,-0.1311544620770272,0.11189873309460308,0.015276820411094206,0.05150127914535017,-0.11012100109891482,0.2587164774577513,0.114308189149367,-0.3383141370058245,0.15734354592876307,-0.29349651921581255,0.06168375902777854,0.06979351587570959,0.00041925705820013045,-0.0720050559369092,0.036572827826720763,0.43639062775771115,0.29034927893835893,-0.10843234064721519,-0.044266418548537766,-0.07682847788718405,0.1857045730368655,-0.3403381105701957,0.11729150139674202,0.10118006831360524,-0.10713092742999618,-0.09167243278140595,0.13233215146490107,0.005958390650491941,0.1501623388872645,-0.34952164701825894,0.2637742358787842,0.03708147573353201,-0.049154933488007486,-0.11932623433109657,-0.2188443786087368,-0.05445363688610308,0.10747771615139871,0.03386975511743723,-0.1066414231211111,0.15375928865959082,0.1750364811876375,0.16188445626392176,0.42638459964289643,-0.14781493432171006,-0.10659821367605522,0.49916756104136745,-0.09362394987374185,-0.07344620735624409,-0.016734200227720698,0.2701148814677729,0.018293408480514063,-0.11446508977489367,-0.05508745937417627,0.29651935258796713,-0.0658211346963548,-0.0035071112622694664,0.12417210886422658,0.104496479828402,0.08376333507070094,-0.015234653835771429,0.0033079623940904016,-0.09817386143504214,0.25156142662848746],[0.08698098396524159,0.11068022064769817,-0.17484471762867207,-0.11550447093995357,0.21018335358431273,-0.19591032218653068,0.09734128488515204,-0.25776676550331795,-0.17934164718344534,0.0214041419268788,-0.17429595245392587,-0.13729417922752019,-0.19190234569188988,-0.14913622004573765,0.1876850238176419,-0.1464347940598711,-0.12058681852571806,-0.29464141765596286,0.04011157278446376,0.15054106420921762,-0.05878636853974498,0.04466968077141505,0.16641006871835276,0.12785384360849605,-0.07798240234525355,0.3880170847132406,0.09780970468957023,-0.10845753982427983,0.321187388240627,-0.1263240792788828,0.10529559903094264,0.01689304433980499,0.2778326851749154,0.059403575411314184,0.26794880453747266,-0.002824355462458964,0.04502423792525982,-0.20826113872890914,-0.05198157286450558,-0.11257668521248897,0.2959006137391115,0.12573621272519026,0.016343832868902765,-0.04919694239157351,-0.2845496050033495,-0.30245566899830856,-0.13380528708058148,0.2635278106504454,0.3977731569882042,-0.24424414620306178,-0.004286707336868573,-0.02022277151594832,-0.11462455125148806,0.15173994435634972,0.2873070864791305,-0.06130943056852878,0.10876390634789404,0.0022446269391002654,-0.20376753464496472,-0.07188128548796513,-0.1795264970681159,0.25389205844114743,-0.09075890952815832,-0.014607927771585],[0.10548550025039818,-0.12978824885029544,0.20414926489496552,-0.1173840189207037,-0.20059356051362587,0.09877740197787768,0.015935650406357832,0.4227410851756025,0.16166283047380828,-0.17215278960411454,-0.19556076432210007,0.21506411184259963,-0.20697890455991447,0.027228546975231905,0.15929470601884077,0.08882743105805288,-0.28691767673908847,0.18631287538302718,0.1293082846284122,-0.00913659647519422,0.24046851949411047,0.02897870962748743,-0.06395214661501922,0.23074675468505265,0.7290408536701781,-0.32279506481748566,0.4444339317266897,-0.2910431256741453,-0.06594782281586914,0.195247884436722,-0.02124577269322776,0.10887192333590862,-0.2076474136173519,0.17980741291642374,0.48578419176341703,-0.06829521380850155,-0.1793514156054184,-0.11034225536410953,-0.04121012993287789,-0.33004729634298846,-0.16729224542023668,0.1378823327553248,-0.06283269940211246,-0.07900158334769433,-0.10655945492206462,0.08246026020562175,-0.26035043413817205,0.1127755722187225,0.23194067474946736,-0.11023752139100998,-0.030287350828330315,-0.22949329742654448,0.15272669922623444,0.021355048664412467,0.16091730850134292,0.08121034480910756,0.017288057437457958,-0.00695324356757905,0.14815046839538037,-0.011194359809623142,0.1575673659145443,0.22399137875495737,-0.1605796350427921,0.015485933302428678],[0.032901108756700305,0.07354664103755612,0.1295023752697845,0.09935404856613886,0.1362413672460073,-0.0033599847414187392,-0.039348387798695095,0.2579713767495698,0.04041910366332489,-0.07501603058065404,0.05929532015245874,-0.0479215164113789,0.08790817738742836,0.1729504084147455,-0.09609119424207611,0.014127389122117813,-0.16676246524121396,0.09341321071374441,-0.10128087803613779,0.03422124917077638,-0.019659509345770647,-0.0841691946114453,-0.11613138537041788,-0.14491800797597526,-0.08698145692566073,0.2162311523559887,0.09882249791365971,-0.4510944683348259,-0.16131143841222845,0.05069824989489754,0.16006911752564645,-0.0876145835014968,-0.19378177552278536,0.1586351375493881,-0.015941144029494477,-0.15854971929189715,0.041831942206538034,0.24743311725469544,0.11969401923948157,-0.043598057948424085,0.03471383860836283,-0.09212340837540221,-0.025019468689847224,0.020131077510567502,-0.018773753838385004,-0.3850396617122868,-0.21893503550171112,-0.29818904452840994,-0.06668888831410802,-0.3638369998091009,-0.17683137732981966,0.1170136867743683,0.2151869764771396,0.22905142471856135,-0.03808501267750298,-0.06354735356090703,0.10691177212043114,0.21784521443637425,-0.12654880212778563,0.059971334822148205,-0.09681201641563669,0.03393124198048436,-0.06618860517697626,0.05645611604320323],[-0.0077182911732146505,0.14153969333394878,-0.24888536280688592,-0.12300605358923698,0.12380760356865349,0.09127982115976946,-0.25884231368246446,0.18208192497086992,-0.10720664639394988,0.10375883188758339,-0.27726924623258165,0.03429639546443737,-0.07380623728467929,0.1352616884602589,-0.19604050579405777,-0.31432121163960447,0.2688421595173348,-0.10192611156804564,0.3920980624747667,-0.08379531144067887,0.009952742196959507,-0.038692675681099416,0.21770190082284246,0.148910926529992,-0.01370019880021565,-0.06770772685729483,-0.08987380302658045,-0.07736402031596445,-0.11932130697452736,0.026824007547035573,-0.16971354956980617,0.09695859448132528,-0.16858234450752974,0.20137726218564292,0.35219786121191493,0.06839295496550171,-0.06658001855306837,0.2630976277330468,0.05169268713944274,-0.1703834968955891,-0.31909097236627876,-0.028683671462020503,0.04555751872548556,-0.34850371539549824,-0.013355153188367472,-0.10506752222162698,-0.1260195247935099,-0.26280136357153633,0.12192017442951301,0.15451331992315678,-0.1613570387649772,0.08004477220970883,0.1269628496185455,-0.1455573198722345,-0.4512659524611157,-0.11022117325071454,0.1679807732310531,0.3422562870673853,0.22716188741276827,0.1886652613346531,0.25196597343671856,-0.03268393871925427,0.3131762582171513,-0.210468938640573],[0.14426883553206038,0.12193955904880024,-0.02601888621102774,-0.18578012756793574,0.097490878581832,0.3224591541575599,0.14967520445757773,-0.18871233809251145,0.22167679419161318,0.29201186792044675,0.19481069893141792,-0.17172597454134847,-0.11473771847858294,0.08976713557088596,0.14246241563356837,-0.1397017941506842,-0.09454028969647137,0.008289788523503875,0.0263040735938949,-0.2758253924326963,0.011415869159797476,0.2748256855890814,-0.10722877222401782,0.1922030130912478,0.14784017708338618,-0.08816880236666182,-0.21183977752646763,0.054269249498881844,-0.16868538392758822,-0.11303539307719543,-0.07087304350514935,0.10211283531637987,0.039413469508043676,-0.052740185327119764,-0.24044908946460683,0.09137122798036681,0.05469519639769604,0.4809086464922785,0.23407582300359275,0.2025384174877357,-0.3372900402503755,-0.002038034714922544,-0.1016671521744785,0.0471407260301707,-0.14308570619226715,-0.15542208236610172,0.1704680335317749,0.08570070021512997,-0.5776109279194515,-0.06177090316680539,0.39720486082362777,-0.24605001879887392,0.040734598335331815,-0.3197900276850046,0.11047322463614276,0.01148127065703759,0.15222629501070653,0.2018793155008706,-0.07063472889464865,0.2731055791976851,0.22664474882554764,-0.15374916860140686,-0.39866588740253034,0.06728773615681222],[-0.3299477315619639,0.12610848352003143,-0.12483494646000177,-0.002432847530193395,-0.08447916937497674,-0.06421437821375657,-0.12902466701381496,-0.15933604212818095,0.265034507007202,0.09245933365521294,-0.017634497906391683,0.004992366303056872,0.1083867287889263,-0.015646183767511836,-0.04369855300383032,-0.16502892340358902,0.027643466433602864,-0.02505166598261863,0.07013251363183375,-0.18126975315873894,0.12267386479132314,0.1942468583534276,0.29872874893230883,-0.25331648985376987,0.11532057862457086,0.10443221832763554,-0.17810097443558154,-0.028220822301106136,0.2070440214473139,0.14145205184447937,0.26622418407486526,-0.11348306805979715,-0.1314512578012758,0.14353767816751997,-0.13720752879395418,0.05972707139872088,-0.15992632415406727,-0.11788652059803233,0.02486163383271619,0.2432808539683595,-0.15588659141840494,-0.3241063573899862,0.016702179146923162,-0.023711221030985677,0.11120386561281403,-0.13214623705579948,0.08074257344568322,0.11312104425003099,-0.07518261876023455,-0.1428319448864585,0.006845171721710882,0.10081467380309875,-0.30968470983927093,0.17963174744158955,-0.0059909388961768215,-0.09080170059663625,-0.24250347937987848,0.12907372456086424,0.1630615711471751,0.11153922995004537,0.0064698802220250744,0.4790773635747233,-0.38039179271142165,0.13895272884113205],[-0.1434731828424282,-0.12716738914091885,-0.04458981351741002,0.0239679390747578,0.16569723743202047,-0.0028885929982663404,-0.014842406352467166,-0.01290501617137722,-0.06927171319059482,0.051200838229538914,-0.017131403667790396,-0.10544015293774064,0.08766022683055691,0.17427707873207743,-0.10231266174672837,0.1433032781370078,-0.06346749221925482,-0.17771634153737972,0.3236442671887456,-0.018932208018050515,0.03468765620839876,0.0494028175146115,-0.37279825276781126,0.09989836894772954,-0.2508837637828081,0.45905436852691184,-0.08376188871424384,-0.0637425447169216,-0.24080598846774393,0.006418993813992838,0.2804888054524508,0.07828602207591968,0.09539470377608576,-0.30722142297152105,0.07603481887074662,-0.007221558755507461,-0.19628946822073515,-0.003737080947831318,-0.3528080755995563,-0.13497939346155566,0.23545706942350128,-0.1456217145063009,-0.1887097018878873,0.2223661475020866,-0.19611103092509263,-0.12557944098562823,0.2725321841573386,-0.46361691526971044,0.13803524515890603,0.4166201996056093,-0.31620012508089923,0.0828452632297587,-0.27111007019183525,0.08234156062958786,0.06831502395084356,-0.21027892394753084,0.30477859265910234,0.09068402082865755,0.14733384384372647,0.08712751827418157,-0.11721534070728995,-0.08119032333017367,-0.26827796749634714,0.2640771821188787],[-0.02916136255857313,0.2158487891761734,-0.14364254534008386,-0.09529683954412672,0.018253083859428768,0.012695907689666065,-0.1450242798953915,-0.14397875049163264,-0.016349718875125797,-0.18813252787969598,-0.09616143553310305,-0.13855976511593068,-0.3481263227339065,0.1565272903824418,0.057892100658702254,-0.12420593619764556,0.10592404651880054,0.1822966934875149,0.07530144569026426,-0.30187830541578287,0.12652883147022312,0.01410371379635366,-0.07920687235959435,-0.13579112922041203,0.06202233791750588,0.21995398816663422,-0.1550973098460358,-0.08242984496303972,-0.018285636625100084,-0.10369017870206816,-0.03589356267423612,-0.0030198413762299622,0.25647934960535684,-0.005604599864887423,0.15645641734671797,0.09371813136944873,0.06236948347005515,0.08440781512893285,-0.10624822946427658,-0.07312774394507375,-0.5643248812719287,-0.14173867593141068,-0.14670474382636153,-0.06173245389140868,0.054383430802222535,-0.03185927468748984,-0.1843572380937674,-0.07608634819923248,-0.09321028056565964,-0.016447569094699667,-0.180703407913078,0.23217305163261356,0.037489323765114824,0.31026879297078586,-0.3122391693920743,0.038672999482942165,0.1952520844576346,0.09721384683976601,-0.09131831090270875,0.26959211305966047,-0.012140186746706196,-0.14412435798513198,0.03684741333592731,0.0034049387180319396],[-0.016697187983301602,-0.06568840902395325,-0.030128660276493215,0.06429721882369059,0.00434741936319153,-0.12228207618243078,-0.44815262980507664,0.14149376183541787,0.266861339067614,-0.107508383065295,-0.04839009271438733,0.0028819707886714686,-0.12305863581131568,-0.0935020363361981,0.002663340890568118,0.0941535565857637,-0.21749724716412358,-0.16170875730857073,0.2618230264933838,-0.16137262043820014,0.06801829583614764,0.005282250549359237,0.08014456344499865,-0.16469517966439845,-0.10282620893745964,0.07374758936976042,-0.000036288598864336514,0.06287405392024313,-0.0014342493445034764,0.007946669479120157,-0.1421390594989039,-0.0903445718016389,0.052503127019527945,-0.060920868557081585,-0.16066195486656326,0.06582227631315625,0.10712334207747091,0.0976723713756785,0.1303373699761938,-0.03899183265049776,0.008499348799564162,0.23764277609073617,-0.03480980059770364,-0.3107423472411719,0.2973579946663058,0.0376079216336834,0.013673433637631776,-0.35852844640469267,-0.01589166594815775,-0.16567970879697025,-0.22201743751475236,-0.26304282648936905,0.24313152469503221,0.2873240381109107,0.21182328135597542,0.07726814940732492,-0.07347905985331833,0.015108537778617648,-0.22586530266833246,0.15847690491582003,-0.3499509366066274,-0.10980376925785873,-0.07243550157392734,-0.2021935551336804],[0.2654721190940422,0.17083473655939246,0.010528908997938086,-0.01842470109803632,-0.26512457358952496,-0.048908034449765506,0.02381041672165602,0.0019765029300828595,-0.058780990693820485,-0.08509637461475239,0.1480036979040602,0.10655262057142821,-0.12898170356953095,0.05908766545743919,0.1476936094415685,-0.17186315320389312,0.09151230043361662,0.17806657878525742,-0.4923956558335556,-0.15649764538695501,-0.20525843145167616,-0.11819530950040492,-0.015594005830271183,-0.10390973120764928,0.2947625772773018,-0.26756029509337287,-0.05746465763109369,0.024404275313821694,-0.18947558468933834,-0.26344210633604365,0.3223704993277132,0.24246389570360247,-0.31757343746254807,0.11962367845768465,-0.13316032332444527,-0.06775021506427623,0.06873728756568338,-0.11888876478538409,-0.06861118293025661,0.06475222339900469,0.03907308187963522,-0.45765442231964515,-0.06529475566938488,0.2168906782961211,0.0510802823677454,0.22523028478215715,-0.0632284678514519,-0.05199956222144614,0.028269590650486377,0.24308912762851304,0.06518514127967512,-0.04733335753745087,0.17469926178637935,-0.19533634836096628,-0.010795148558443438,0.17734344137949698,-0.40004562633329566,-0.11269709042366693,-0.11763867843064303,-0.09480019013347724,-0.15634551828042165,-0.2384571652599304,-0.06617554399730637,-0.13863708018261972],[-0.024216398464835635,-0.0019992609052134997,-0.0630389683185183,-0.18648435849117373,-0.04081746671571383,0.3083308496997156,-0.06050609331071702,-0.006311179919729691,0.0637635139600225,0.020210651147726078,0.15610398126149982,0.21702658955408197,0.4449885719206481,0.024494111033239462,-0.3156420395766241,-0.13840826404704026,-0.1894985143537405,0.13945732024813057,0.05223753664661718,0.24992360305678335,-0.412278283070184,0.27841293485891444,-0.1334840539983231,-0.19541304174973614,-0.20942115350843704,0.01454481539419115,-0.10998834097216233,0.12393195631560042,0.005959627133521249,0.3300206036591788,0.09235624383891919,0.17597915992692864,-0.14041316652359465,-0.18539676335435154,0.3212344270278503,0.04672861040247637,-0.12018729957344353,-0.12753880615578767,-0.11058886963590067,0.2180343657666248,-0.1412437558447048,-0.1590568491487843,-0.021437958620352922,-0.024504458125530693,0.03539948292225081,0.2877334633753616,-0.13317124501744868,-0.2137962205575224,-0.02073362192110544,0.190572421385007,0.17698294520139438,-0.03461317364615981,0.08245653331400979,0.11594248396700757,-0.10685581959209817,0.10956965369818608,0.15171283733551488,0.36560827346848224,-0.06399411801627941,-0.3440376274618022,0.22626069889836314,0.07357744874718553,-0.3811580567366975,0.06222826816027072],[0.06705726259059987,-0.11445334122879129,-0.08955755203137067,-0.22179557194197952,-0.10883320201462784,0.10456773725603535,-0.27418388351719897,0.26050743281250754,-0.14242378100383996,0.004278589508186711,0.0388294395725024,0.08597646322687323,0.3798018212478232,0.27770710826741607,0.1297558511936357,-0.00514096782577001,0.28509757694880483,0.03752277709334532,-0.17906782139372718,-0.2162191354468638,0.081021155983761,0.020778173855411104,0.4255454069285125,0.23846741587158934,-0.2502799348350306,0.13420534765198533,0.15442324137385702,-0.6067952073348587,0.11269912220275416,-0.0266098086301103,0.23160490577506393,-0.031332330733622495,-0.05577059976501384,-0.05550154693447287,-0.15768367853316326,0.18843818750030678,-0.26971608348053144,-0.11995873311506752,0.0062222283488707255,0.0747403969760414,-0.04803979772847369,0.11224390297027159,-0.01024906864601941,0.16662421632379498,-0.057307959766951626,0.1452722310868929,0.04115795858286401,-0.3027157984568379,0.04480789055565649,0.29645488603870684,-0.14727004053281167,0.20543523834187974,-0.10850141822887939,0.1682713646129524,0.004611746111085293,0.3753595837023009,0.04547798231957982,-0.16472373738249138,0.16033016834533512,0.055973726398193716,-0.11739876729362166,0.14089806747779515,-0.10538268676203047,0.11868271436846929],[0.15789760434111103,-0.11330520886434926,0.2845960389363405,-0.19403713515386478,0.0825376794193191,-0.07359975284286017,0.2079362040717237,-0.1310217360664951,-0.13966036081170807,0.058653050163347306,0.18263391419024821,0.17987769983366664,-0.013194313141350668,0.04382160803410487,0.23325863598322072,-0.2115263196897214,0.20056828422959797,-0.06794192764876845,0.047558158459551365,0.113641225414267,0.545051980536892,-0.22001576358892028,-0.022423476778694336,0.004318110677673393,-0.1052926827820735,0.10372664957482497,-0.08725595631463122,-0.12284578549118454,0.03947801595658258,0.16385248049589196,-0.0883730722800281,0.19141598719746314,0.031631497275965974,0.029636126581038712,0.31692319040851086,0.3157845435397054,0.08454145756023396,0.0987574524453426,0.16327331377900692,0.01779739161489512,0.16111459621084395,0.005053076508080359,0.09683071936103885,0.17597225722926932,-0.1157200962532594,0.3300542727421061,-0.05697353400469725,0.009918839261174995,0.047384342450635615,-0.3181996953413953,-0.10929817063804918,-0.05785905945739065,-0.1568163319795764,0.2142083452770265,-0.05574319399456579,0.08287942170364598,0.07751516306230874,-0.09066780391545272,-0.19636665421919294,-0.14745260838650237,-0.01909873356064023,-0.0054570457196070465,-0.20267301081817773,0.041743115227195454],[0.23431959239726538,-0.06029073111672386,0.15649768571139924,0.1331888779017351,-0.10885214794413736,0.09269925219615857,-0.2708328765566522,-0.06957554617958492,-0.10169102225391607,-0.005746713043171061,0.004319284799904845,-0.16084869485505707,0.06645258583928348,0.143586764786223,-0.05099022746930662,0.05081615761874886,-0.24387513922909668,0.04006533817862498,-0.28095224460931906,-0.3313012189153242,0.0075159020075856176,0.09194537288473877,0.042641859256584244,-0.18893163215722078,-0.11614841676513568,-0.0027286753975356826,-0.14517124298761397,0.12182825279653209,-0.0938954669006643,-0.08996719316877994,0.09267474077740337,0.3551631345228443,-0.11138647769277896,-0.05631296427637281,-0.020174796793990243,0.17381767374879653,0.11350563949593147,-0.028933838395607155,0.2585988545150867,-0.015561166090992652,0.12570404824103884,0.3442223078464531,0.036659625000186886,0.0903990815658112,-0.5024839694550431,-0.04678679972893325,0.3860784438854409,-0.014470302659437696,0.0016190196061375622,-0.026625129393584298,-0.12941760346020098,0.00693544091002572,-0.03186858699482471,0.22301337837091842,0.09623370617471878,-0.008300274782051545,0.10624760193070831,-0.23705968098657787,0.20262557868047285,0.035207926460272106,0.10259187883417474,0.10335936300960068,-0.0937628242655091,0.14341834783954263],[-0.3061577639390363,0.25118019184108287,-0.001158229683344165,0.08680598544215663,0.11605941568464608,0.11928655473737573,0.09856004160805668,-0.45935076085335597,-0.29753613313064586,0.20771297771024017,0.2944605765229532,0.019086354328224375,-0.03302293513661999,0.003968146047597616,0.08878463703392882,-0.030435120176432583,-0.12964871399304564,0.17977127201756335,0.33726350319225873,-0.0824678913640579,-0.020750441002871312,0.42999381375375184,0.02645713760812228,0.054416587500663444,0.27384021866366043,0.11054014669474446,-0.010626764714093002,-0.12206838637587955,-0.05497737368762897,-0.4614307971429426,-0.04228150502424538,-0.16013193824422667,-0.1639864875345001,-0.1946373760327983,0.06640436760686834,-0.5218025667225368,0.09488952618713328,0.16774132404472636,0.15996172242040302,0.05786080367682896,0.15163770079466724,0.05895881673996385,0.04041774879365472,-0.036864677389999365,0.060794442995991904,-0.08033470859090946,0.09652388997967,0.041193861383795737,-0.1545171764118956,-0.04074275145828631,0.10099661935602597,-0.18127813267166762,-0.06947922188869073,0.14788322728403688,-0.33548774040446394,0.09130154678455166,0.07373118932893086,-0.022392307888960895,0.11599865568965338,-0.08076092120204116,0.29502501380038304,0.13422317411618984,-0.06768930746998687,-0.0790372441841401],[0.2460639268337207,0.20759978653230615,-0.11085712376133544,0.032416071550593714,0.044602957603887446,0.2780498605826435,-0.14556587466638907,0.11561808513100194,0.06220596960157046,-0.08831944420388553,-0.06481778980222648,-0.015052224271081197,-0.18820849274241344,-0.2261364692584149,-0.0058177412320032425,-0.4085316025140308,0.200340147947612,-0.11252029353646355,-0.2524953301725147,-0.035027268497505856,-0.14457161943362654,0.036469130898892255,0.18361506758542973,-0.22113516701250527,-0.14263569991320782,0.03298113030136774,0.23112677065704212,-0.10840035580253428,0.08440000263007466,0.002237387768130126,0.01348767207807953,-0.011147083696764237,-0.09425086724425714,-0.14497520756265006,0.05051479065505221,0.14537903441389227,0.0876947381812615,-0.09286642496228849,-0.005407809878590006,0.02710864428050346,0.0976584770714385,0.3011251012459294,0.2802050360139344,0.06346916599239846,0.06922935147455532,0.07647051856992498,0.01089949738419626,0.26135947185242364,0.11380708797954446,0.12994927147843943,-0.10232119318450508,0.1269345161732679,0.1422410674929636,-0.0066511326696277705,0.1921433883429194,0.00035223947597550924,-0.40290004650750955,0.03199377684571342,-0.03999544582021553,0.15177716325013077,-0.17978056116611618,-0.014110244314467588,-0.284486082381428,0.1444327485647131],[-0.1575389603464499,0.09013327008483406,0.18398339993918342,0.17979211592483182,-0.36132832681743404,-0.1153984657329718,-0.056525200156630206,-0.10344828532989257,0.1258997856175888,0.07189511850395804,0.3736066174902957,-0.22201357675723798,0.09766245032975769,-0.22504036336894917,0.1752775401362741,-0.018966837480888114,-0.3077255224567844,0.040311648358964204,-0.006061971133508396,0.00151609904600705,-0.04160690976902905,0.07839658282483473,0.4214862728602151,0.1255595922403408,-0.15113006434851362,0.0020213051539088077,0.38642099369359667,-0.05789754479403324,0.2225577128277628,0.14624799928033952,0.41709798360630435,-0.07634014177145068,0.3125727684383493,0.07693472786509346,0.03387798046868098,0.13125672775871572,0.1859890901986499,0.030923918081964978,0.14576296139587627,0.05664108472373599,-0.3847283993397969,0.14680717633353083,-0.10657163090620105,0.09713282350902529,0.018846539346318514,-0.08840243292861155,0.12306562290143541,0.10428383176694622,-0.21029395391354935,-0.03243895476521669,-0.02132488177670564,-0.05263380842295596,0.04501312436320975,-0.01221737369201053,0.264351753859317,0.3143737414098425,-0.42133169182013464,-0.005818132090427476,-0.22292812612963506,0.16653279056942705,0.20445199626387825,-0.05792709653049911,0.07695172592349771,-0.3196195177476247],[0.2435005754491195,0.005706211506647096,0.08643615170552535,0.021247122920114863,-0.14344669627900086,-0.22283367650792985,0.056391916775972425,0.17869242293027074,-0.22959281704125858,0.1356569130888426,0.07459600339373183,-0.3541319187990366,0.27933834397998203,-0.17069481805020917,-0.12355778539025132,0.053963225286191116,-0.1803235509336244,0.04556121140069478,0.12355432422099816,0.029462116404062197,-0.15605548287780346,0.11217948264167335,0.05114014201380157,-0.07122895721985237,0.260224945676483,-0.09544021242537454,0.19815058638507502,0.09636806875823571,0.20303328493218767,0.20961021392825302,0.04412154565505387,-0.008030974174028933,-0.19464821646480615,-0.030749080603614136,-0.1971570606109778,-0.2838965035244367,-0.16211172671585314,-0.244183152585473,-0.049463803295513024,-0.24534756278029127,-0.2054282057419586,-0.06411839600737616,-0.04043654350082115,-0.243679896904717,-0.22186590337946688,0.1856697835230726,-0.011024630024546525,-0.16282744840052651,-0.13310600495190836,-0.054325120661748355,-0.07132009280509244,0.0009424287585292438,0.05805798032158131,0.08091524721948204,-0.2349746635855012,-0.013082854042590913,0.03531132940983097,0.01782436254980452,-0.12816848398933336,-0.061334999585122084,0.13493971938894722,-0.23445597188844228,0.45975197492561837,-0.006455960474485852],[0.06558858476786997,-0.050015658121941226,0.2272251037451521,0.18784474523161312,-0.05532927815997705,0.37491865599298807,-0.16168005134952565,-0.1875161782609241,0.16479255869707243,0.12053958328592819,0.18027601093272397,-0.2703836415756776,-0.29362605688989113,0.0491151417127857,0.26096901722192645,-0.08862564646946208,0.01352036061966763,0.25795345255168484,-0.2987231111987016,0.16013412707972688,-0.1857223925644997,0.2862608479721191,0.0027560189309884567,-0.01014846197727747,0.37339618943616787,-0.26279794936886397,0.015878332603961987,-0.2614325757752312,-0.08496323709647122,-0.11614331299580664,-0.18262646971626476,0.02696633324822763,0.028142073510850997,-0.11549654829420306,-0.03137443411832511,0.09806963780452858,0.39468557607888644,-0.17742369226127627,0.04070437631517715,0.2033231226751983,0.13170607171543947,0.1469018260426787,-0.06513847934974414,-0.12496273150387995,-0.2313878645047352,-0.10270767069703471,0.3561985879536194,0.024792601261371228,0.08930787743755172,-0.05279288064779904,-0.2190034101457224,-0.05536040042713493,0.11679057331240092,-0.07873431142292878,-0.26946874909907603,0.007280212375506104,0.19685009442192766,-0.06004234325620117,0.07221195300408897,-0.08052687454832949,0.30016927654404124,-0.010898999628952756,-0.008870588134889818,