{"layers":[[0.5490188525190579,0.755576086835895,0.30850923048373585,2.182882581863826,1.9102108030741003,0.9641899327350992,-1.9051438244143346,-2.183074480898158,1.3552326869489106,-1.1273851707905909,-0.34859995040390135,-1.159865851418693,0.8098752756570855,-0.6413338389044517,-0.9956739245345275,-1.8860057630751887,-0.9277753821395255,0.7388862857909297,0.39411330861450705,0.2745570187409588,0.6111101910263735,1.6870244502719967,1.4033389904389788,0.7789511619244325,-0.6246904893300991,-0.9835290661232735,1.3338695332119106,-0.548904384917133,1.1897366442861168,0.5082511326744084,0.3906645691001602,-0.6131274241604164,-1.2091818252369864,-1.5805314595965159,-1.3368710609298096,0.8901448186955238,0.9,0,0,0,0,0,0,0,0,1,0,0,0,0,0,0,0,0,0,0,0,0,0,0,0,0,0,0,0,0,0,0,0,0,0,0,0,0,0,0,0,0,0,0,0,0,0,0,0,1,0,0,0,0,0,0,0,0,0,0,0,0,0,0,0],[2.0564653369732984,0,0,0,0.48574271292029164,1.7136068541493064,0,0,0,0.49903858261798045,0.5072477471491382,0,0.5234829530168736,0,0,3.1512201154758492,3.7411224167275843,0,0.36115597165535795,0,0,1.3858693634403363,3.249076268915923,0,0,2.154948350516001,1.5073421338713302,0,0.3726037568460383,0.6972034174160542,1.7705073284604265,0.3097976535769844,0,0,0,0,2.06998587276646,0,0.000673004556943746,0,0,0,0,0,0,0.22657265780366456,0.4251614630804791,0,0.18663628999249104,0,0,0,0,1.6298162607321607,0.9277510586413229,0,0.46203192061613496,0,0,0,0,0.37766328104786423,0.2766779842893622,1.3977017133974443],[4.182964477017746,0,0.4640064192058421,0.03319081690042963,0.8460624276092079,0,0,0,1.3639244489442914,0,1.854664558801382,0,0,1.072148522103103,0,2.782993970502133,0,0.661447828875147,0,0,0,0,0,0,0,0,0,0.15468796535542806,0,0.8654109038369477,2.682718849092405,1.4145451432395673],[0.8255726165627026]],"weights":[[[-0.06728995614524037,0.07259912497354064,-0.049107312550948676,0.28528953758446735,-0.11277174457119778,0.06928312577227501,-0.35150039888960405,0.19942143190890754,0.10600867665907426,0.08128130742462882,0.1438975130689325,-0.10026949794909348,-0.0655049282690416,0.05062513608496756,-0.13404568051131482,-0.005084525784108391,0.356307493665964,-0.20421675175117385,0.14941803511228255,-0.01227797539138572,-0.022088058640899383,0.040720502822439976,0.17560129443070996,0.05240171327533016,-0.2791203690305381,0.16773174574747965,0.0489797570687136,0.3005428764154238,-0.07262050899232496,-0.05051364424074422,-0.009903526801857977,0.0002499685921214486,-0.002153692922891289,-0.07425560663163247,0.05243297999106606,-0.03366830172085354,0.37807773517538884,-0.009077473017530108,-0.26911466188796523,0.11665100084672408,0.25018573695863905,-0.23036443913598426,0.5378225046139171,0.03137031317514472,0.2107801714785744,0.007460562214651297,-0.11812801284471597,0.1768296795760449,0.0487507603305549,-0.14842745001369387,-0.022873799309132917,0.24461929447877048,0.14426295038212045,-0.0937548869949991,-0.026964257814413216,0.48315045705467496,-0.19572571736384117,0.16561831632163007,-0.19070002633047656,0.36197647956561607,0.34613904085195785,-0.1478906432580312,-0.1868155559685925,0.011319526442346841],[0.0008152137803936927,-0.07517575801525439,-0.5301068235344057,-0.0010493650580521638,-0.054656689697526885,-0.12248749875350264,-0.09166166542950563,-0.1515667196702089,-0.11492061427826579,0.18047026014093942,-0.06024074573136564,0.020114298759067353,-0.0159871872324203,-0.03765099096249647,-0.2773946593852851,0.2100945702948431,-0.19966387609090946,-0.017848540227769393,0.10706626353619889,0.1322207820697204,-0.21133672638331802,0.06863713291828365,-0.10475676606767721,-0.17588515390747325,-0.1728436155715274,0.0301020638981596,-0.053220283094733,0.10363578212639155,0.03280077613392732,-0.2289010854781352,0.233560992624597,0.06451926932623028,0.0101408101807501,0.03152432648261611,-0.17567947381658994,-0.09885742033625255,0.03531752815831245,0.09518994472350867,-0.040481242013674715,0.10578115961213029,0.1020699383101512,-0.22026617910819968,-0.08890621869236376,-0.04273734781135967,0.0830776428813737,0.28109744145932186,0.0008522548507063035,0.29313857617766864,0.007164026932503659,-0.23447036299798965,0.0888727302324355,-0.004427421856211296,-0.09457163375837113,0.19885044204936878,-0.21988621562359742,0.11638166734277684,-0.3644938521124207,0.023123465886425536,0.37697474533121805,0.001589908304022098,0.11097346362925754,-0.21867772042716682,0.03311845525323773,-0.11642897665600802],[-0.08060290467408346,-0.23614172227862448,-0.23471935867146923,0.21675235384443672,-0.06663330031492912,-0.020486415703905705,-0.06087165458590616,-0.38576425071673415,0.11566098464311905,0.2260699231214699,-0.17403424583375499,-0.1329061806822191,-0.05864917124544387,0.136422481879726,0.22845374694419496,0.24724104719850343,-0.1842340132879739,-0.08195135161371238,-0.04412754935584036,-0.13652221279869758,-0.056969290353147885,-0.20817879440980874,0.25648978372541453,0.2127817442110419,0.1748274829614035,-0.20112512780302125,0.14168455631434396,0.005018889732919707,0.04376821922155618,0.004174172245705573,-0.2602355434300948,-0.01028198873930361,0.3011522322740334,-0.2567523175110443,0.2720454143344438,-0.33557405929137735,-0.041713885006781456,-0.5809242211257195,0.079742248843327,0.18774568839032246,0.2011036705576221,-0.24170263896307878,-0.002137900477383646,0.24955160243901767,0.03511929428822519,-0.02445151050580227,0.0037779531555950144,-0.3028184844513501,-0.021157514410867103,0.005430269374469318,0.1542439473715012,-0.11004807684243277,0.090317807393386,0.16768514990293568,0.2745809396526809,0.3256727689220138,0.11081379027026106,0.37048492998330196,-0.037622128674934065,0.11002252497595352,-0.2574745034214724,0.18934113657398186,0.18798717206156867,0.17964066609468624],[0.34111582914732563,0.016377277597455362,-0.18004058503198692,-0.2181137760322254,-0.020130212824346513,-0.26351741709332965,-0.050481618828111974,0.16052253685440962,-0.07822093347348856,-0.11210654494919557,0.05121786662927372,-0.035008481252585266,0.03892268535206354,0.1504968446519921,-0.21221816170681954,0.04483026626291421,0.022581306256784953,-0.12180261062936397,0.03493397648507535,-0.22723631716487416,0.10620448360511252,0.41785004643073204,0.3531893707927249,-0.13401505687330798,0.07475285356998293,0.17847635897571965,-0.057324187066908276,-0.35698392566226167,0.3570418828950688,0.08802913137505829,0.210232830386301,0.16404637666349967,-0.06304024675707738,0.11154158271465865,0.11509526036913277,0.19098605739925864,0.042775810389829444,0.004755819593623656,0.07647190016976999,-0.032076757037155755,0.05669840280235933,-0.37882465491128375,0.08794367416271454,0.007714791900832554,0.041548910794388445,-0.23656738688802248,0.037135193472255974,0.1375405017533187,0.1711870936951448,0.348187521269456,0.15017241479875235,-0.04565887758972211,-0.28017339348436837,0.31939120825171435,0.1720319737131315,0.022217625840046773,-0.11452513576724921,0.24664947201980372,0.05309135711281258,0.26770871666374463,0.1625982949501176,-0.08986619306936106,-0.10953014550878995,-0.012809580242711123],[0.07483187118946766,0.1649759566294947,0.20771300328541503,0.023537969847892068,0.2666742499930102,0.1778036875780789,0.045883698156870635,0.31656059374793183,0.4719591561820872,-0.08603826059287392,-0.10309530620573791,-0.17876793540197433,-0.0107364845107857,0.03015205039835188,-0.2526652503659145,-0.0632833331349842,0.26730051856805037,-0.1111426530843057,-0.36111950997673115,0.013082876739593323,-0.27171303084672305,0.1471277617501679,0.27735668060962143,-0.02364301888519486,0.026353441013618247,0.06718077255605102,-0.10740647293984833,0.07328441251706404,-0.13649633958025326,0.04939173167438625,0.3403087333570859,-0.12051574513439578,0.04707884273325452,-0.31232371480921683,-0.09639600809126209,-0.09797371451748657,0.1558113735809484,0.20698569473548914,0.3346368552437949,-0.060718153352352165,-0.1298238254147543,0.05423958415506857,0.004423777972273831,0.10827271922117307,0.16680790953278518,-0.2545984844042564,0.11875454145108413,0.05314500633581313,-0.024990566831170544,-0.3767675544695762,-0.19063182094991457,0.12679762496899438,0.11640925961260642,-0.02270263184518736,-0.27109129916002556,0.053849130357706776,0.13860874706433685,-0.15677386952818492,0.08680214958309547,-0.07476419752360135,-0.12822432019384766,-0.07453518334601704,0.16233333551703896,-0.13785556738669288],[0.12092170677359892,-0.07080264963108272,0.033227325262487194,-0.060104562069697755,0.015357492389317209,0.16465459756761086,-0.06697386637909139,-0.2401186351131018,0.07274738476570382,0.1721000869835191,0.09980110773613268,-0.05600675578181858,0.023251118502041337,0.14877174449376548,-0.16213217291478021,0.3665582260619017,0.11522012982916191,-0.021730568363897897,0.18836661433884141,-0.00013109108502271135,0.028658010580695115,0.08750822324058574,-0.07683334198661754,0.12026379460063663,0.3704479266558541,0.015268860528202692,0.2939357594471732,0.14150474084048614,0.11474287279478212,-0.02136321359219105,-0.14886633715820083,0.11769375805104991,-0.2862705159845412,-0.17826878309572616,-0.2581789782582072,-0.20697477229855998,0.08329377741857873,-0.06193139142757536,0.2467070724816886,0.0062414662352089575,0.015176375006074095,0.03829049773792315,0.07799350609706755,-0.2452880301788814,-0.13953183503340394,-0.004755304860816648,0.038151802318773284,0.03827919295701988,0.20025127900664455,0.06270176236575983,0.10823993703088394,0.0814250896689103,-0.04904687224156376,-0.022660763798099726,-0.0694243530958473,-0.14139710710532605,0.04907421669091101,-0.21920270205083683,0.088655473021265,0.14164891270321056,0.327703334471805,0.1852270212780544,-0.2392194103942012,-0.231477349095737],[-0.05111210904200524,0.012406109659042725,0.2880709611562921,-0.3529768749563211,0.0711350885167406,-0.051487701355501764,0.19230871124892154,0.3103736838895035,-0.13347138889870971,0.2980980485199969,0.04537413533614492,0.20277797344958468,-0.0755283012340476,-0.02010927296631428,0.18559692648825027,-0.02203495187089966,-0.024123176345543812,-0.052656262830580135,-0.3301141411216908,0.12436268175034494,0.08501500396618192,0.09978994435224432,0.22232579058556584,-0.0879165326637915,-0.06138398344663529,-0.15373919681136486,0.0976427067358883,0.10869502312231469,0.17016393476516767,-0.1677149571375135,-0.019709809059510898,0.3676902847863437,0.31106317207450046,-0.01985392700448855,0.05286980432930003,0.019961431735108875,-0.23897272300942599,0.03180130493857246,0.3506824838355422,0.05004719269382114,0.09442585565333501,0.08607801801834142,0.13848604598076503,-0.18798964423429218,0.28340236401410585,-0.039807270776139575,0.09953567973254221,-0.0641947008152038,0.11960113012916318,0.22277375271223912,-0.006223981829665767,0.38441460922543624,-0.007497413883386806,-0.12210771449816861,-0.13959318538626628,0.11630241009127838,0.0822666302481117,0.20319935516983365,-0.07704826673755613,0.23452824172944178,0.1055682675540684,-0.060137305190836036,0.10737076557997847,0.2773757164203175],[-0.013811319259333694,-0.1176503702919422,0.2530182120343931,-0.12549892108304186,-0.2463126493850965,0.11545745986568985,0.2598016847012593,-0.021857333698997925,0.04884252601333982,0.12960099509838133,0.16832684479013335,0.01850666353563563,-0.1583885120917971,-0.04466008793900711,0.06722444062035245,0.04498519871411315,0.023265939977409153,0.014509766176226417,0.16385665540253605,-0.06327139760759473,0.1495402044747225,-0.05984991349453721,-0.06841096459060399,0.2640719372734316,0.2806143544212546,-0.054233294291380164,-0.054597461159148104,0.05732229909842453,0.2811512048127858,-0.011559352152157183,-0.3627389802091777,-0.02818214447835332,-0.13618714254527417,-0.3594584064966355,0.1355787883105863,-0.27044593265078154,0.08759481250527903,0.17471804701821533,0.04647074210212004,0.015635807749067067,-0.009171314404505115,-0.007122148857355981,0.17600625608356654,0.1416977443491049,0.2783407357545,-0.04196302545191173,-0.09151521853432966,0.3204039492808503,-0.009046226696764269,0.1495552129315705,0.26614880744506775,-0.06424301902986762,0.024292142758461043,-0.22924701362871377,0.14224958187734268,0.028033089830438968,0.007561100935321173,0.4135885863855468,0.038076752416243344,-0.11633205164965979,-0.12241048409485,-0.36822622632708296,-0.09426442002685756,0.03936596086997536],[-0.062108261716863365,0.10643135437887902,-0.258475833215019,-0.09567523865141146,-0.059047513897232375,0.4873474351726011,-0.22413972943230728,-0.0754912877384893,-0.17550850177862073,0.17474437642598867,-0.05224184175687205,0.2947818980887413,0.007579413666958712,0.03882916569772598,0.12057424002016326,0.029338242128202026,0.016002452728774222,-0.1592083491672091,0.041248128993580914,-0.16689848734961762,0.017649854397641346,-0.28607294932742977,0.2669970116571187,0.08800060766153472,0.012860437618840117,-0.028443754516973504,0.15564205981065762,-0.3388507379184096,-0.05764479393745802,0.20191931895370466,-0.1549753463718978,0.07614559415040366,0.19231268702772075,0.053525543728073624,-0.17329893501791538,-0.026994603808984344,-0.19634976179456942,0.02361244177205448,0.18404607198686954,0.04009474306747243,-0.21877642693655222,-0.07418446577370047,0.37446810927847607,0.30349284611336264,0.14731187448917787,0.2955693571290787,-0.11064513532695851,0.04666974356329474,-0.026531709477147718,0.14706975318944884,0.09737435207100585,0.10524429687153362,-0.015014986198770149,-0.1294574456942755,-0.06293947445512829,-0.023031649452475655,0.05407115429837446,-0.16317913275575227,-0.29172219117143056,-0.13264087302863078,0.19990526673330533,0.1177981611552039,-0.03921475477365914,0.2534096708555462],[0.03355453145478331,0.10035174686141586,-0.1450416104363143,-0.03947684006770664,0.21854377403208214,0.008125001014336419,0.05617286582701724,0.08223302356426364,-0.3289649475551567,-0.1994340626943317,0.10269647495532735,-0.014890914441280627,-0.208065824099642,0.032410423823691775,-0.0955968620559392,-0.07180796490172785,0.24173971990115312,-0.053201150400899365,-0.10112922968950913,0.06292956503061943,-0.13286010241920865,-0.16436225774171614,-0.10308106385760755,-0.08789834218968173,-0.08037754601365336,-0.25742292597654004,-0.09588676144281152,-0.18084144137462516,0.11852847310582412,-0.01894570024742204,0.17424172133408228,-0.026305063324956746,0.00018800432724492883,-0.01405306650602561,-0.11422370480145853,0.28476911131059784,0.2240732033507834,-0.016651216023995188,-0.24466119256902366,0.12312812431070652,-0.12998817025345735,-0.12831777321226348,0.11734062233808461,0.24177593387018,-0.05193100355049432,-0.0728578804848206,0.20353060602114673,-0.09721777386922256,0.08231774193355411,0.2667973634493668,-0.263570036586921,-0.06138913402818395,0.22806546150729817,-0.2643474505005256,-0.04838986749771251,0.09245188344104223,-0.08045047811269651,0.15730799181293031,-0.11738840596158365,-0.18629257496847115,0.19668447877922804,0.1184178532801026,0.03336718841099989,0.009286343430734608],[-0.033671761113704214,0.050981309401349456,0.4896326528783249,-0.13414546856169515,-0.08722101843258627,0.11773931627604078,-0.05669825407736117,0.07823921941068006,-0.029908506261922322,-0.18513435627323604,0.10831904046983214,0.07734555371022243,0.2375811195609271,0.05532576654775331,0.16600904923795823,0.11794730762747341,0.09609134482984054,0.08478896483818002,-0.014703513661042559,0.03210729889954885,-0.28197808132415697,0.006840368780533858,0.0916344971012156,-0.14175709010322327,-0.04713192710632259,0.09821024498876425,0.0650327968101246,-0.030936721203578106,0.046980132652505655,-0.04511381965879606,-0.09019127776873148,0.04728146888128202,-0.07951649603174327,-0.18700220043769142,-0.2315488126350238,0.07745079820602668,-0.18667058047097215,-0.0503721945433242,-0.5113108239110502,0.1504664078627073,-0.17232772501369864,0.05588594868514857,0.007765139313985925,-0.012599526155226285,-0.0075734281534517445,0.10406007587911355,0.07103503860924949,-0.1755355442583288,0.05866480961087072,0.17814548733902058,0.08144773450909339,0.2438247496886171,-0.29184118818306626,-0.2030916069304329,0.1052533199843948,0.0266067961562257,0.1773582088743119,0.12952301999258212,0.3485068901126866,-0.03077548613424595,-0.23014549746922622,0.13712893093374473,0.3203160135119721,0.012528070929308126],[-0.20051706206077216,0.04140352380219285,0.14272961984209015,0.4101908874006769,0.0860769948911876,-0.09056061994257346,0.14478234760095496,0.16707562331294765,0.08923522529994134,0.10481423918750014,-0.3558528806594765,0.26534573148174334,0.046693050194415796,0.0776704853021641,-0.03575807723792279,-0.3298826313893109,-0.3427139728341603,0.17544198710722855,-0.15533839583304782,0.10382006222663995,-0.19718635915428467,-0.012765674779579662,-0.3300273103453567,0.011116046990876996,0.0784802062711848,0.001140530412006214,-0.15593770819966532,0.08051608144885024,-0.14087145573340684,0.0651254870896205,0.14588821363816118,0.2111665707988953,-0.15599028397377715,0.15994760789049742,0.2628868697142094,-0.12394751427821654,-0.43869471374567054,0.1912966609642615,0.29752132529623476,0.026099910651303827,-0.04797930455495015,0.17414991844846073,0.09378541947758795,0.04069088623342751,0.01265754844530291,0.12812922322952208,-0.28195074646094737,0.2108340327438869,0.3074980750465533,0.2077602834227629,-0.07189380462804983,-0.05431698186924269,0.23619195442714652,-0.054496539629920716,0.07740198477745563,-0.0358807384317076,0.15986230364225748,0.12407566938293456,0.18374513449283625,0.015901380033722944,0.13636725441226147,-0.42089085564663165,0.22002451662969946,-0.27865707500780884],[-0.13731828821917144,-0.1943871630050938,-0.13086698880071043,0.12966952807786067,-0.3022841893457495,0.15925414610670988,0.08426489706745077,-0.0597977653017151,-0.30640507019240204,0.0739328964670926,-0.1681429789581543,0.002509362290923454,-0.17563795062325635,0.16008303244014618,0.1899211405833146,0.30733594249182067,0.08380959206933647,0.04518539054663348,0.13662157805969605,0.3427066223521248,0.18117546917691457,0.11790242573239139,0.10141632374559248,-0.3364029498553062,0.18590185428615547,-0.12043260355781735,-0.10394832624051316,0.33436764537769853,0.39943274296327125,0.09948090350143443,0.051756339721590196,0.37320620284716305,-0.4788571502305272,-0.08538458212589758,-0.10713123947631133,-0.17476146144759544,0.1368708668223686,-0.2056149517359922,0.03295893204242138,0.04387499133877579,-0.1242231671616739,-0.011851629048053872,-0.34580708761606,-0.11703141878607952,-0.028407180669783896,-0.2164477255159827,0.10895084592322633,0.07783177546633678,-0.08540631407845008,0.032907005749683894,-0.15095736939892196,-0.16195609063216268,-0.17647413069395518,0.24900884356849243,0.22713339174861788,-0.127035896266698,0.05850344497724387,-0.17282966032032088,0.024988978599563786,-0.24030237015003766,0.05741174263656416,-0.19792445576847958,-0.22618673831764943,0.08644719917679647],[-0.11081824907122231,-0.18132405536733637,0.4948377291372346,0.3642065854533402,0.00898625689239052,0.1122432461409235,0.07135059796214303,-0.26233526168209076,0.1069322734375443,0.1973171382139121,0.16133750093844604,0.11443616245616967,0.37393027080817803,0.07223378171632971,0.0504577760912126,0.07369016026219055,-0.16738905263826293,-0.24668076058401348,0.04312003580041038,0.04201065386198523,0.08664698015157139,0.060881975933485356,-0.02568168524058669,-0.07814182461057291,0.07418951348581644,-0.16524821584451324,0.07402274471016905,-0.1273603376360021,0.0028651239973246086,0.2275250521232019,-0.21298698042221964,-0.16207539185431621,0.19132283168047945,-0.006095030864432207,-0.4038292676645078,0.1520739206526117,-0.05005240831215144,-0.1263265188614055,0.0012547675843086535,0.3048886187714832,-0.03804387459724772,0.16445722623744582,-0.06983226957410253,0.0850661638829276,0.16175126780368212,0.03413386273779731,-0.026209532717990112,0.05680984313292399,-0.11220610781534196,-0.01615797525924081,-0.07266978124905023,-0.22705272587394312,-0.24322760797576218,-0.21493086037896517,0.1254732173099878,-0.1046196497881554,0.0010952282618137434,-0.14339159691165085,-0.09858941275512424,0.13078638242493826,-0.0738096268863516,-0.015838232664464068,0.10505900115161122,-0.06372155348515199],[-0.09904471127505296,0.34004561674504413,0.11749168671672051,0.030173783899713553,0.05959659356746243,0.01133303669592212,-0.05772657946418605,0.14876141314009864,0.21684002124792118,-0.1029661602396885,0.01938187787929353,0.2635087219226603,0.15424813854367253,-0.3473130777553726,0.011870153523564143,-0.15263877312402127,-0.05327785313727811,-0.4131177017532025,-0.012821265794544151,-0.19304992053377967,-0.12624849922009426,-0.02861300851178723,-0.1260176720768662,-0.01777681498998597,-0.1072760960467967,-0.23788233076003096,0.011374620013659218,0.011155047438430519,-0.06794055890130558,-0.04915248141281043,-0.034857415457223845,0.21431185074776188,-0.09362074302010599,0.16531711436000573,-0.018426971156788104,-0.07688676232489279,-0.04826261644459871,0.0813020053996103,-0.07644964448050655,0.3953458732187387,0.16331667481555148,-0.23233625068044517,-0.1915016994355774,0.0766925007233115,0.00457751980907064,-0.2015382755410563,0.21399415122302626,-0.08897081270254391,0.05934672804907964,0.5034486987737433,0.31653626094527276,-0.05896877300569538,-0.20418651878349683,0.05968298895287633,-0.21235805572770722,0.04650056886692312,0.1056545346226769,-0.4390532177166986,-0.1667782033524333,0.11654403386141261,0.22874383697984155,0.2217312179026441,-0.17390480375798728,-0.010903239860888989],[0.05694723828862317,0.09225685064712041,0.10174152293407883,0.21132107728919958,0.05166290286385535,-0.15480941108256968,0.060524519936774976,0.42350378998309013,0.392291635022579,-0.185473975533846,-0.5295810131629108,0.058766228155679535,0.2234308934513281,-0.05613398010166251,0.2602734583318599,0.0613937359607818,-0.01940854559766421,0.11679622852284835,-0.12438697986141366,-0.278285081415467,0.08080292768824174,0.08006708460629312,0.187920527819018,0.1548945245665331,-0.012596691359470327,-0.11632409619686361,-0.044990768701307776,-0.10084524074534049,0.016124151772792063,0.041765585926551566,0.20380448080922836,-0.22928525797819801,0.30865710428154797,0.015194252288890358,-0.1393442192343748,-0.045822102486145815,0.12805916450434235,-0.20865234364929136,0.19307554705893248,-0.17837268796315442,0.14237296779606087,0.14009856687162447,0.04379506706442946,-0.10748034462060146,0.12660827292195528,-0.030376647574220088,0.2749668422339448,0.1262808392834808,-0.21627451433011652,0.1975190813938399,-0.029038452831426628,0.17178937734145455,-0.10441763461450713,0.290501026584712,-0.016960637470068263,0.0720359120127626,0.042100711901483,-0.051493426874603856,0.05859621770698047,0.21932205094084362,-0.042723394744079476,-0.2464022137316391,-0.15565295006026442,-0.19252775591255922],[-0.22053161713688382,-0.050918966023286175,0.3947042229591848,-0.07788864257523345,-0.47441584066211534,-0.14810957192105395,0.28578211125728503,-0.014126297069334558,-0.2465040155834103,-0.1036043664020585,0.12569181559958387,-0.09037175060942121,-0.4284749031736751,0.3951266915287584,0.20751752072972646,0.023218222616418642,-0.0544444424684735,0.021454733249067142,0.029213620491582153,0.26439012254725913,0.050534577375843506,0.19814144314940776,0.41153313696061644,0.17360659266004347,-0.20363146848420255,0.057902496086719664,0.034645988678573075,-0.03290503165557405,-0.12849367037146034,-0.16819191735885852,-0.01775745682596298,0.23096422347474574,-0.060623079046910985,-0.12256760624122039,-0.18515139305572376,-0.08068692761285062,-0.0023382528487774987,-0.06875462111128516,0.21021280102280906,0.2248978763829463,-0.039165617097488246,0.05273687325371448,0.06971382319751099,-0.22103860784738363,0.3550929522310846,0.05374076771749862,-0.35684944569497606,0.11373400918097852,0.07857657236672845,0.1517225961642496,-0.3270247031839424,0.23876527930570884,-0.0027784632740723934,0.015775886075670074,-0.26832198597322027,0.1590290293385322,0.16433380712426043,0.09783269718284082,-0.1297477311898513,0.04196464924920033,-0.013390428941471216,0.04786084479550104,-0.08255809906065577,0.12648053838686737],[0.1081094380035905,0.09414662232491791,-0.2502881085982089,-0.1643546280263398,-0.08467281654035339,-0.31007765040278323,0.12997296478682635,0.01780022970372281,-0.10403756160056138,-0.34635851199936335,0.0774797347298567,0.01647024063837765,-0.04492490412389281,-0.021515228696626004,0.04974719035351126,0.10550808658500105,-0.19435656310200583,0.0865448885436519,-0.2622918025401852,-0.05179288299490342,0.3421752282574513,0.3112847059571673,0.014834699223777111,-0.1805603050119544,0.15333864585649656,-0.16623487749282442,0.08978091256494876,0.2939752674952239,0.26835987356559204,-0.2591830644794747,0.10207834667407306,-0.1580525606264279,0.1280000747542059,-0.13586029260138321,0.1481605734596317,-0.30574424302314773,0.31443038440733345,-0.13831049538249776,-0.14887120815739108,0.1941622595179546,0.17472193546040213,0.22605566286323064,-0.17051180012255904,0.08070238567675304,0.3218444091991188,-0.06732012524703539,-0.22628197108847656,0.15731474971530002,0.32304141797822356,-0.17545321162530556,0.09252449641618715,0.3322878831673007,0.12992697292966324,-0.08362281053726074,0.3839584951391269,-0.004406148692836989,0.4346551138820418,0.04777690554131843,0.3250259823895007,0.09082562659163611,0.07254428136350975,-0.027328863516482907,-0.04995876680746149,-0.00017506264996053496],[0.09773629917962741,-0.2915948167720873,0.11228604207321403,-0.2861636563285132,0.06850598400542493,-0.10148746837630648,0.2619346464496564,-0.04690328066819003,0.2416481763450645,0.08872915369113586,-0.18887238894001557,-0.013033457893727953,0.10480218820142255,-0.08423699887065039,0.2425292895813409,0.08516921912220485,0.08998139122787017,0.13430429778354253,-0.061030504267723,0.00020334259372931568,0.14636376894022968,-0.13894661448163628,-0.054733586990670574,0.0056623165821494395,-0.11055218130061434,0.227354015110061,0.03201447354349225,-0.10849576858485296,0.12954588853984783,-0.026702502951563203,-0.20103737895107557,0.15369655784395006,-0.040360483871891284,0.1908865305789708,0.06333578317833921,0.20256239170677384,-0.017588343016722748,0.3086691385016372,-0.33949027819031646,-0.07055529298552352,0.23686445464480171,-0.014029618044447894,0.09242005808787418,-0.04595961496339563,0.06264076986974362,-0.10818345250577803,0.27946358764859613,0.3143252400930818,-0.1274767612409325,0.4243457966635404,0.23700194103214106,0.22842179632191265,-0.11124754736801398,0.0632188892591943,-0.06558645608451057,0.3553027143192927,-0.18336859606014883,-0.07878497263314947,0.3731816074097785,0.03558434759448808,0.04170702165976405,-0.09024553660923076,-0.0414897960040435,0.14110105510315452],[-0.030612896367336544,0.1675876283246496,-0.0657307959936437,0.10907621474532743,-0.22342939467439096,0.42544115130083565,-0.41995541669997327,-0.12012251742183332,-0.15845859416555158,0.11406933929846619,0.17730152543804864,0.19118049084483024,-0.19806384056018272,-0.23930087701027447,0.03742957818953181,-0.15399748878971617,0.12025523360452552,0.1485393399538764,-0.008082668737104424,0.11887805591808698,-0.07574347558613592,0.12148860565484873,-0.10752428017122391,-0.31813704856035874,-0.16577112826224685,-0.01037583722172964,0.1433474125427275,0.3521016681952274,0.03781572831725847,-0.2506238307114062,0.11851280160295341,-0.009892892513659,0.41438788384857783,-0.3567166067384777,0.10434799859327723,0.14811935468607093,0.3076865485164671,0.05061043301739037,-0.4726841464193314,0.10581229419654962,-0.012765187013794912,0.16881424037925813,0.21755925458096184,-0.16792032578475505,-0.22338049568960283,0.0919069644703266,-0.2161888303864877,-0.06614199708721688,0.12515825074757347,0.14534384980287338,-0.22843371197679274,0.2252356424192611,-0.13982958225161785,0.17445669002046824,-0.1475094133523839,0.0008349567424960871,-0.13682249182647158,-0.1890690612025502,-0.08926576547659948,0.15283745418228767,0.0995190937709444,-0.035592825375069886,-0.23472329778790604,-0.2935088983507983],[0.003103861631817659,-0.04054319806274591,-0.23423823125718904,0.13127341332566908,-0.13280041648641072,-0.1014504662309988,0.2752629328946126,-0.13257566434971071,0.19346610763745595,-0.4539841887123635,-0.17672734387566477,-0.2735456323825359,0.1705309658707844,0.1484875311622366,0.2992914820660338,-0.21345662202239926,0.05355402564991689,0.018202668951352603,0.23267140329502345,-0.19716275608543418,-0.04578309246820511,-0.15420272614098987,0.2650795415841038,0.17191227333464618,-0.1696121785552626,0.05239334612833451,0.01642594503059326,-0.12989339756052515,-0.1427952760171933,0.007362848754064238,0.035073095407922125,0.048875034459746024,-0.21160508092249716,0.3451379554316275,0.29704904022760953,-0.09429706220905297,0.021915846010648273,-0.10481623176704362,0.1373213066445987,-0.02492650307298109,0.5584780219487611,-0.02556505328258672,-0.20914729349576744,-0.19741954636969716,0.05453688162335055,0.08198059548890975,-0.05069266222361396,0.07369745383933918,0.28297219200360024,0.01820555098586576,-0.24492982808502517,0.005743194219154119,-0.1682098755752431,0.17913700926604925,0.11419676804126573,0.10635943320268595,-0.176144160171838,-0.18542135830128031,-0.10747380851456854,0.02377336025576631,0.000322694461531503,0.14871977616582668,0.3330918019847948,0.02600935843456669],[0.021519496155592014,-0.0810962499759393,-0.01650836028160487,0.03540934462166516,0.019281863322998995,0.30792141305975385,-0.0050997362584609554,-0.16553762907841996,0.1782903455733456,0.10295514712775154,-0.06408537623422081,-0.09636637387158803,0.28430225339502396,0.06551692744680718,0.10915104582303534,0.2682078900551001,0.0723373571066409,0.006191193632073582,0.05193499890362805,-0.14776817257831726,-0.14786615304387035,0.23601316935448996,0.032784866312842706,-0.1406524500989936,0.18567005437071793,0.19607264158103302,0.19778388307442082,-0.2204544092194259,0.01129951558366602,-0.21348574245779495,-0.0496111169220852,0.04519940787533352,-0.039101273341738525,-0.02417273875280771,-0.31966197782797884,0.05115663313417614,0.2160216167819035,-0.14706100143325643,0.16782370020144288,0.168093214625682,-0.36613340871133887,-0.11682282175051854,-0.010185386170560244,-0.3397880772079206,-0.08184491308362933,-0.06275659092601903,-0.15401005274278662,0.11746379665281405,-0.05405827319871555,-0.2289330133021762,-0.0810423000272935,0.16717306059889503,0.03806022080364707,0.00691691834144029,-0.11160465344583437,0.13731937893136473,0.041302607875768046,-0.30265017750168294,0.14585925883336145,0.4002020767364378,0.04336193397179728,0.19738619599091894,-0.13341847548254282,0.3283925415415225],[-0.039211170089104984,-0.1366405103725227,-0.10673000378717389,-0.07914236017600013,0.14003233442287658,0.017079261468912678,-0.08501365563356934,-0.09802529823421562,-0.21814209127489004,-0.05563768937086961,0.08579429894311277,0.0951396359897674,0.1136320083068566,0.06910733594864273,0.08619889517325466,-0.1449730122812718,0.3496088774220551,-0.03071323525964525,-0.1824920909241899,-0.17684881800230734,-0.022268753339347035,-0.1131431786352079,-0.042353596508769534,0.07535698687464144,-0.18101220291482728,-0.2708231046843875,0.11172167600245836,0.25376751562896505,0.0017773037497084687,0.1300770746744752,0.04939465837358499,-0.04225533321152947,0.18346114386952042,-0.05232044041188256,-0.13528706013659192,-0.06666283518071044,-0.295879639591309,-0.03947266508311942,0.12978037395027234,0.06370265900554992,-0.2721304827594924,-0.3147620472320816,-0.30386666969846615,-0.07210364341195129,-0.22435815753045316,-0.07362260457491426,-0.16397613915214249,-0.15116451804725722,-0.2340983485347843,-0.2598658749445008,-0.281154424104075,-0.2369897531830965,0.10010607108241171,0.10639939259277513,0.07116722755405182,0.07641498052610546,-0.30121274936125847,-0.013632930056578738,-0.03472135836066893,-0.17485737646273572,-0.2392451692957144,-0.02371568563313033,-0.12304716744539491,0.16578166932053662],[-0.1332756165987168,-0.1268500970813786,-0.007279092245032777,-0.08980036952146919,-0.15277322518839737,0.13808585624154976,-0.218916220573661,-0.01917010507266769,-0.12506499179012504,0.1104109343651644,-0.18982757224388935,0.07401929138797927,-0.03816381100872058,-0.17103608904725812,0.1947564599981903,0.19322263309857016,0.13344559195297812,0.04136509960848543,-0.0019066605117013424,0.21568762169755637,-0.12751228108657667,0.007638076084251608,0.5546215058762002,-0.13219410316937075,-0.24468653534748155,-0.3507962957837307,-0.07677058642797815,0.27039365437731927,0.22834929703975257,-0.11288566116262448,0.016485797348306047,-0.15024021536280777,0.2159572613780738,0.05819048352919451,-0.12750599222610126,-0.2199824012465037,0.047294834609067166,-0.25160848932243773,0.0001677308092925393,0.04153734225614686,-0.1451108194796328,-0.0264095065394959,-0.21475403860596354,0.4516742391328789,-0.02157240094907064,0.22103138189782193,-0.02904834244175604,0.22582367116165336,0.10924098078000456,-0.3035053065675053,-0.058887209794237214,0.013475455939737634,-0.14426096300410318,-0.2368610276793376,-0.09704832079395333,0.14972790962599214,0.023569209021514697,-0.25282836409679926,0.06937172799284604,0.3023740654098383,-0.2203137345932759,0.06450950841933056,0.01797029283969866,0.12050177558116944],[-0.0026009717865412506,0.3703699006305015,0.005300030193959239,0.11566713619958212,0.02479085807054243,-0.19265129888599314,-0.021145461979007518,0.19590327758339454,0.028280550502301494,0.24090641023353895,0.1180957429414683,0.15389097075060387,0.0013799150299598963,0.10419817478406884,0.17914830993379166,-0.026674811631907172,0.05724768097217579,0.3191532391021491,0.12388730365473194,0.05947956188651783,0.06343557698331156,0.2360513660125216,-0.008794196146464052,-0.22343632152009263,-0.056503539352488766,0.11986120303437757,-0.1886626456941872,-0.11083734255723052,0.029961387752653383,0.15498149979483292,0.1896039336328604,0.020270437614180792,-0.19980990198450013,0.08136241009347758,-0.07747451982204599,0.05139290700030644,-0.04051378484577187,0.2761765596838598,0.1357935463862584,0.3142836167447986,-0.06042049422286462,0.025090207700968477,0.031042255160268022,-0.25419487759519255,-0.36431646272267365,-0.08124345162724868,-0.10030936144546332,-0.08110334607064636,0.18008431598987865,-0.21947899663341797,0.15495809804211136,0.08361628476751669,-0.027381933218025217,-0.05280497360682895,-0.032165149553807657,0.20293763215876034,0.23953614327865236,-0.3912150971919896,0.3144767317720152,-0.0875999571100112,0.020199771151029184,-0.04973522911724401,-0.09127670804825054,-0.08222295011439838],[-0.0050928212195191225,-0.3254619526306208,0.012630049765905687,0.23360870091411873,-0.18725692353955456,0.08993345801997493,0.2505015088651038,-0.22857572160077763,-0.09683159253246001,0.04154968308258107,0.21898028627017446,-0.18020456636724935,0.0540418259870425,0.25825226672588847,-0.11207769948823719,-0.31634912524522874,-0.31081065918639444,0.13559773414909068,-0.16273700520506698,0.1944826979097633,0.012366929771724901,0.17108391577370646,-0.12126451671880288,0.11996445279070543,-0.08530358710947326,0.1543405551270763,-0.3421551565006367,0.0844759685633028,0.04824280486979968,-0.19165994201796518,-0.1822187243949054,-0.14292597294467438,0.14054308227564902,0.11489883983603487,-0.17279252558646474,-0.13404747489935123,0.2040706739203126,0.26623879012899265,-0.3785348629713582,0.13157616035764427,0.12881947534437646,-0.11909344274852325,0.0012511711389785922,-0.10998070358063336,-0.14988436582845033,0.15881413716188203,-0.02148108998447917,0.186779636711239,0.005260227632762829,-0.21459077223899203,0.2795097658657164,-0.18110106562773687,0.2569676960035423,-0.19660046111703,0.05150108313399919,0.046372647094467284,-0.24808156484272664,-0.18165013584566478,0.060971311908726476,-0.12490568304934066,-0.006742132840753631,-0.006379766476862069,-0.2770372089078596,-0.2510930580212049],[-0.15048357364719767,-0.03576095277247414,-0.002350111345966623,0.14002525171002805,-0.1583000620033795,0.14501381311191125,0.17201319837632506,0.2605950988454551,-0.10779050638978467,-0.005915730119500064,0.18765025585217243,0.11957000678291595,0.16215038938164658,0.2631108197063071,0.12939782813332876,0.036626138576805925,0.29897345770425315,0.024131663057490396,-0.3775022116913806,-0.08496831877896951,0.0404584903443018,0.09515776097183663,-0.09576607609155803,-0.02771076178433459,-0.041193399590250215,0.13373506318834558,0.00018522858919505,0.007043636400118574,-0.11879194849118556,-0.1407414711265996,-0.32220666515009333,0.19056401248771862,-0.07620804297228063,0.24427863841893263,-0.0743941608365277,0.0676970597290418,-0.08461737063547935,0.008595428090932018,0.0839481011798224,-0.12690383704851468,0.17543432543135473,-0.23557656176241498,0.4088153137160383,0.17099954389339758,-0.09339438824393356,0.005811824046127336,0.1024076570604448,0.05996619642904702,-0.11257909147106032,-0.13926881803413899,0.05739720542365871,-0.10735807424283028,-0.15354740845272544,-0.08578665718265323,0.1407236051888259,-0.22542584553466,-0.08779521886659805,0.08668115385187578,-0.1100988064065259,-0.22290627991159576,0.06445231207007915,0.08119243700832961,0.1654342877531422,0.06299167734086382],[-0.09726371643059052,0.15629217572848333,0.11849199757542352,-0.20027639580394233,0.13180742449009394,0.09184480986865749,0.011859145507382826,0.29415776063487575,-0.0053474859591246945,0.02796189543953315,0.12344323058872719,0.2310185711058191,0.19913578336871468,0.07092490019001609,0.4932874244029757,-0.20100233870225662,0.015897292259557248,-0.045971444555557905,0.3124973831156748,0.2960756506049552,0.06324564209764003,-0.03922459692536333,0.309881473584331,-0.19340839465405332,-0.003396685847472128,-0.040140196094646405,-0.19038563487879082,-0.07177701444215898,0.0989582686599703,0.4032860781361507,0.07196613649091799,0.159670561422446,0.2031290648677991,-0.14904901805333762,0.09756408829357979,-0.002313734415314646,-0.16051724643644058,0.4534796592352637,0.06576562419680644,0.17717802315286618,-0.11571381499700367,-0.033358552847837,-0.08919157936505855,0.09588680495599866,0.11042782591639316,0.10267498536838425,0.19801592738428486,0.08362244861039164,-0.08513275976433803,0.03819067564658543,-0.08563970499234978,-0.07642443999988018,-0.19422279944459572,-0.1405282622842087,0.4663117027930007,-0.18635041205234668,-0.1999147872255047,-0.02398556651229235,-0.035955488120142744,0.10539819420407227,-0.23148111986295394,-0.39117779227124877,0.1795438722673369,0.06788540935330807],[0.18064918402320027,0.02839914138699754,0.0030677133617299703,-0.021625036763201228,-0.13285029600116563,-0.021320881187582214,0.18524058581728373,-0.04042528050890706,-0.01860653715243881,-0.013245434657851779,0.08855440729082477,0.2038280321120203,-0.1781726401189178,-0.1979077397658891,-0.049486512886196245,-0.09582147108309784,0.3286744792206779,0.09375787092808156,0.14429184825374614,-0.02936048110860604,-0.09314191003394798,-0.008807255918307624,0.07361280409223107,-0.0024038502078100937,-0.025185076540184516,-0.16429818320097883,0.12670785322628986,0.2064415429240175,-0.04615284125611672,0.21961384837989292,0.17811603030472298,-0.05265374274347158,-0.03657064819223555,-0.14046715441418076,0.0018666124823422104,0.21692310551281974,0.0990652992084156,0.08256664297932535,0.01480525823663939,0.12365783670353375,0.018603068055537464,-0.16835874793427263,-0.20766164219925898,-0.3272240712872175,-0.15089714413949074,-0.018580918972519882,0.048146037120652053,-0.24811550138751498,0.12599181137913965,-0.16393755799298637,-0.15019796254613704,0.04910261185773951,0.2066749041560961,0.18117198125017298,0.03997263268918541,0.24936957160299547,0.1614075048230154,0.08791824805825173,0.1526875694691223,0.0659731730224158,-0.13173070143901597,-0.08216772096803311,0.04929232480209651,-0.3472999927794595],[0.21528939564478747,0.10810825003646791,0.056963722684949196,-0.14590528929578767,-0.12224835071660675,0.013121816295865127,0.08707105259562857,-0.08554833296845132,-0.05871753814169861,0.024576790796400676,-0.06873602860466255,0.05996047052186694,0.0027684179706972483,-0.045408621664409295,0.029870132121617286,-0.04350603380776345,-0.19739951505927805,0.4562097269273771,0.2592577743265395,0.13123959336975274,0.099069544459778,0.06966864348421663,0.3738007097520273,0.08748685546007685,-0.08239315221131656,-0.0014483874636062736,-0.1789103141503492,0.1994977055432656,-0.07739608270429231,-0.23687399761474914,0.1789256127758528,-0.3171687727006396,0.039941448366632715,0.1104938310932007,0.03695507310810762,0.12769079643626044,-0.03709271152646001,0.1284423938674288,0.051697075410846526,0.058145131942292205,0.01752090656445732,-0.21392082191227602,0.016682436401989693,-0.07202080355400076,0.23729957729478124,0.2246036985917692,0.10191400359592465,0.10911494928979977,0.03489054713059019,0.17099383567599377,-0.07079288652531418,0.08326880741389142,0.2565989600228386,-0.24034091461208087,-0.024929488426051822,-0.16885061692626274,-0.025071742087582238,-0.22239525707223357,0.23211580355798642,-0.30400892386913964,-0.26034940900085124,0.1475132136897673,0.07485689775375273,0.01183924896791681],[0.00043067823257786407,-0.1494038125061007,0.25174553769778707,0.16629887419073391,-0.14030704613839798,-0.08746428247788911,-0.26823521545388024,0.13024296223864376,-0.16183666169676583,-0.17218717127443034,-0.2397441492155113,-0.14281193831220684,0.2136650849829635,0.060918214893574005,-0.04569269075309241,-0.08734307597507505,-0.03133963883164464,0.15540236928376766,0.014735028120788139,-0.19002288763873618,0.016504198180859558,-0.0051873611990809355,-0.04609476303898326,-0.0008571164766860088,0.20197287497198554,-0.06843704545004031,0.004613051555446135,0.08794571567052685,0.0708080624487684,0.18906715568401256,0.03317008029067428,-0.05422078907111964,-0.010177737288853194,0.1230571693460433,-0.0672796612690062,-0.08283078042705856,0.319457518704055,0.003271814092265815,0.2105891160387653,0.041802657209112644,0.17391975543039542,0.1678337921483858,-0.16324943963923308,0.01241615054865116,-0.018421944130020972,-0.021973435671384864,0.1648642954362314,-0.0061495369492839975,0.11008328416385689,0.10964804248285442,0.09397015331377599,-0.05586662900182105,-0.08803188356235495,-0.17418040844760657,-0.042466559708825055,-0.11085295026884798,0.07507531632913404,0.04450659804383154,-0.12211746300610045,0.16336901849475974,0.11767880128298043,-0.20001540322306022,0.0015408507439534235,0.02901962428650442],[-0.13088438767138114,0.20208926878542866,0.1835048113176239,0.10215667803667094,0.18566830471164605,0.13940484828272454,-0.049871193430889575,-0.28711161853644773,0.09155172064114445,0.12866067558955738,-0.038800411254946585,0.022740397545014047,-0.22871933068712785,-0.15739325656633782,-0.09117651362772615,-0.09759858343396817,0.08014790016908749,-0.1057361933387182,-0.16520797324857386,-0.019509510093898442,0.048060879952051445,-0.22602390090374214,0.04117061819858621,-0.0730474010899525,0.15080771399463938,0.17193010419520952,0.024675126694394006,-0.035150345946020144,0.08882430253806374,-0.007797049997091637,0.059391477901722854,-0.016558337909327165,0.20650565864003936,-0.05218044241836678,-0.3137780766328523,-0.13811342051983178,0.19118267701527858,-0.09692930247729917,-0.0341999769221653,0.16668836961645264,-0.04168558264507457,-0.10217579859675546,0.24955092260061168,0.011023091578702328,-0.28497712428166644,-0.22244766855153128,0.19810770658387647,0.005181115878427719,0.07187542030224754,0.13189950071427575,0.04878335436788408,-0.06258513807581319,0.01802642028294114,0.1353781179179852,-0.029153492205055854,-0.268640625915526,-0.13344220285228167,-0.019432241616813683,0.10234885319255592,-0.03149009160112633,-0.1419716579451133,0.00026917312555477805,-0.4366690230569867,0.3241536918516031],[0.22019803869241483,0.0994105315498401,-0.12319020564723318,0.0895922801786233,0.04849450784077227,0.24115582197888433,0.2133110019253861,-0.11315059988948453,0.03489885915540139,-0.005183147910514935,-0.18788165392864808,-0.19823019104375264,0.12178807175103823,-0.10185272004423898,-0.043013235380365174,-0.15301715462045937,-0.20335939557897015,0.1728111659287941,0.12561595704377543,-0.24474751396786415,0.10486728015442635,0.2487254808637136,0.04497894737232217,0.008853770170543023,-0.10747299075498137,0.13117520049208625,-0.04330737615694062,-0.23268080550839462,-0.09944868861068075,-0.07774030861219575,0.05115357995808858,0.05170605406650031,0.2246690484320602,-0.08139309706646991,0.27894609011467586,0.2949794679650087,-0.2718249902762077,0.2983250360570435,0.33431450838522603,-0.16982889256049366,0.030394368098566882,-0.10954601935522114,0.12564389518729405,0.02735972453977739,0.01729326945103707,0.3126620293405215,-0.28237628673698884,0.018649990614516748,0.060124622811475736,0.07068596851601724,-0.09956334407753772,-0.028016636383021407,-0.1874087348839735,0.10757376554460503,-0.1346646128204259,0.16023335503679362,-0.20328059516572702,-0.24832192087881771,0.040581494334875436,-0.14326609131703594,0.007317191522822803,0.07179901384090295,-0.3586559644059011,0.15398916283613626],[0.2999123130194588,-0.4231957662506093,-0.08255914348055918,0.24820084502875414,0.05685591423209781,-0.003018020645263711,0.31676187703229786,0.009464410217986835,0.08618328879416083,-0.1954215230540253,-0.10570708501794267,-0.1995941850195768,0.01434153362398178,0.32422399338164754,-0.08338732692019028,0.04932325933871514,0.08866945207024532,-0.0860998871366837,0.005557769596968468,-0.0399606692920497,-0.011211629125654052,-0.04796417122413549,-0.26562702617954753,-0.03429679760637339,0.11437777953221186,0.13347120129272885,-0.16434106829377135,0.39301774114148513,-0.09219678559066992,-0.06640344654179707,-0.2777889092471682,0.15016577088402558,0.12067878219176414,0.05864151651874732,-0.05439868654686112,-0.2998120462408616,-0.05168091862907604,0.005625862785098426,0.18117837558398792,-0.3028135137769023,0.06751143993752974,0.1743966278344881,-0.04531642069060285,0.3191983197153989,0.04791723630515284,0.05461275540989833,-0.04076012971287128,-0.306459403607952,-0.1163233072210698,0.17553928114188988,-0.02424865297338922,0.09666828369445161,0.16995227987326256,0.3892551258933289,-0.1004445351314405,0.05648027446371686,-0.3706122706621085,0.06963410872140377,0.3702422974727984,0.39526928062201155,0.333983093805956,0.1082110114725189,-0.005748262162703075,0.2108692156331171],[0.13206522178465102,-0.06855277036966932,0.11268764015097808,-0.13130927916388793,-0.09199824960521226,0.06804079247196808,0.02044834935328663,-0.09217747514490049,-0.26515346624159114,0.06300822601339112,0.23580148620250463,0.009644830907107755,-0.08399409442423,0.4015671210155506,-0.09763963516715145,-0.018115720683376337,-0.029664290412350237,0.16314620409929934,-0.021370595140014426,0.07670212875093778,0.29455902705495834,0.17622981649953107,0.09813615581350703,-0.02501682908715168,0.23199604334340101,-0.21482359199927248,0.019109235357841738,0.01563178173669611,0.3746885442572861,-0.24806139087778664,-0.3469748350318955,0.028013862776112595,-0.37253086582318135,0.009880790566615054,-0.18276212490416416,-0.1121876916290703,-0.42773954896443034,-0.06541395304368762,0.03438709858019526,-0.10509059089074292,-0.016404006958969528,0.19037483754192855,-0.08009146723143093,-0.09368043204235046,-0.15840545266405714,0.12968329167289291,0.3068432437954266,0.11787639787034987,0.14169835572627124,0.10170814929565608,0.002593085531727151,0.061865560177446786,-0.20773761064199722,-0.08550059045646265,0.05687412272617981,-0.010493428667015395,-0.370887622699183,0.01800938179573414,0.36660115548735234,-0.07182138599472879,-0.2138185819259553,0.03018745865477729,0.11436483682317891,0.12430194751272045],[0.34601108873991887,0.09180887660434887,-0.13457629698792656,-0.009150781141378772,-0.2560311272539972,-0.22551104082024925,-0.009893043199236113,-0.06256379926940629,-0.17506366532175066,-0.02950947145212302,0.06851198089993656,-0.08208821001930561,-0.21372369356208995,-0.19132853631234828,-0.1313371206401279,0.06318549433287832,-0.14651748752216479,-0.14931929254923634,0.08587341974754427,0.06339553451088523,0.2644979669787607,0.18191982471888854,0.27790267926144174,0.10805905597561939,-0.06680278371135769,0.024699865693641295,0.2842803924734789,0.004238519949683412,-0.07159258981511801,0.05804993413420698,-0.14408379704842886,0.1451484930026047,-0.03027366583953438,-0.13688819044990663,0.05092497986392998,0.25348158738403026,-0.130626934849998,-0.3730203970312238,0.2112359313950514,0.03199946081355484,0.0437205937642402,0.038796681634318715,-0.29834534605145446,-0.08876461419339884,-0.03189083374518543,0.07642182077791213,-0.06438711048098684,-0.16226839085251424,-0.019583815874335973,-0.05308411480780088,0.29340906878799716,-0.22389874953462788,-0.08454214756889857,0.008528462444494697,0.10767628713116484,-0.37528511937051995,0.010456660723823128,-0.0053672797754134235,0.04058023841547551,-0.0023241868364560613,0.10559088983908167,-0.11318237756329902,0.018288096914949876,0.3224470359462356],[0.002526528169050067,0.09831260910121704,-0.019306977552420303,0.22081776961065486,-0.04008396135103116,0.21389478936686793,-0.037454592534908966,-0.19463364143042344,0.37813165490982614,0.11548164168122138,0.08937833096901215,-0.08295238185612047,-0.11538622509323093,0.27014087059140685,-0.03039391689461912,0.2417877186535821,0.06113538320210729,0.12542549788557567,0.24867193480098285,0.42792682477941557,-0.29701871495927257,0.2372276262464085,-0.09878873471132886,-0.11949799346254925,0.28306158567908923,0.35202758167629095,-0.4303624025101705,-0.11872853469519727,-0.09832438278823956,0.008792567004289407,0.11561673256613465,0.256033739045609,-0.09131543533181674,0.15236176924481082,-0.08474656932829909,0.03383953029890155,-0.06787587990767475,0.1418449567526305,-0.0032812554097566937,0.29895727504541114,0.07007683764946364,-0.33397613001015697,0.07656315413384303,-0.06840975700659198,-0.06430363435385719,0.12161686685530312,0.10271441949077963,-0.2468768460210946,-0.21124302648627358,-0.08953839550122877,0.32623654959965076,0.034609688599362864,-0.23532573545537153,0.2669546482257816,-0.36290063611625867,-0.16974933202813847,0.014412477170175606,-0.30375815261772326,0.08530356813914197,-0.01776198912714946,0.17205304151515685,-0.31228921880724225,0.1282119300884633,-0.07110455622906185],[0.05371626473334447,-0.25910238197720764,0.13928649049917363,0.053708060974431274,-0.16016046139170412,-0.0013308784459174603,-0.06144388143049962,0.10075296526163091,0.15624445888218522,-0.19724723297669328,-0.09916680294392885,0.16536723316191693,0.1332495851874325,-0.29194421299202367,-0.09981243980770811,-0.28593178807639935,-0.15970299218346976,-0.1955892704574856,0.13494700623760847,-0.36552617835468554,0.006746166519175824,0.3731550897043823,-0.05211797404585605,0.15489792873762834,-0.33860829648568525,0.0019960207782156784,0.07617564499419216,0.2202341461873929,0.03328379769155129,-0.18020638844755726,-0.29091160958817386,-0.05582844980092457,-0.11410863460123095,-0.1978261858020206,0.05442083955178747,-0.08705730405993088,0.09906187902189162,0.05547711534068196,-0.12506822550601235,-0.09408109600461798,-0.1552109968102209,-0.05434447950281305,-0.2741339107561211,0.3547079280173089,-0.1906654579878465,-0.1084778578674756,-0.10493990508338599,0.005947510209005085,0.1271913825875072,0.10073834387871254,-0.033713397738968885,-0.44237105513075137,0.1709480656519364,-0.20522394893380536,-0.20892994693950565,-0.1258426830552433,-0.3626978654593459,-0.046873070739815996,0.20150835938087552,-0.40487170842208453,-0.015444972460414994,-0.03566993362172663,-0.1350907199822743,0.14015688529318432],[-0.07704981685255974,-0.0028751881931549424,0.21652126062905291,-0.39652744593197264,0.1034474118011683,0.160435261606151,0.14545796455192625,-0.15742925600525073,0.08886965285333838,-0.019797114174305394,-0.04924865088616762,-0.3092927617689564,0.10616077874090359,-0.01675302396318507,0.23967532543066553,0.22158594576433588,0.04138604138034448,0.04693805143312232,-0.01341769105490935,0.18777834360334275,0.03269419991882888,-0.17554092578858643,0.3177617940655929,-0.15165859980631907,0.27329376887835016,0.19611135339102984,0.000022677660787608855,-0.1327244080602595,0.023123091224818627,0.16656993322982538,-0.17542442991691765,0.050883272196658405,-0.023540974599801888,-0.15516211172654334,0.06880612595543112,0.30153166707969264,0.028139658928280895,-0.2145385545945118,-0.1929366729887441,-0.004638659387597969,0.0534076056714068,-0.20483791417463731,0.02863641563296202,0.042059814221663015,-0.05866013681462691,0.052355280444484946,0.26711933926532067,0.39721520353666895,0.24341079591071962,-0.1762549856372741,0.3193670117370633,-0.12349055458136964,0.24575203552175962,-0.3679532705555082,0.4371418351050686,-0.4392243878745764,-0.09617077757534387,0.5708369799468943,0.513205371693341,-0.024736608238281818,0.08097702577068647,0.24380911253789797,0.07742117447624224,0.14817752831603756],[0.022105944821051486,-0.017029533740665972,0.0609287632327747,-0.2021176805975099,-0.36883072088577207,-0.30913199682656683,0.01592224955854126,-0.024742052242100663,-0.3369786209289191,-0.5540957397551284,-0.14072047132941168,0.07691779902572018,-0.23836933230915905,0.18647134315862673,-0.01703297208741855,0.01623073693564409,0.3509072208878227,0.24507296272961646,-0.21545141599585724,0.13713053534104977,0.004719822526530105,0.3290635113939066,0.26185927442560825,0.016056694927742657,-0.011149604962781098,-0.1426274501125111,-0.06680657135216427,0.1695678460566735,-0.14790306058947839,0.10342711475493489,-0.01850169510562869,-0.0233483393821702,-0.17868859610349225,-0.2729158842033403,-0.17814359155872478,-0.40524568848857917,-0.21011853153020507,-0.14364499309145382,-0.20821446029407104,0.3799003414781833,-0.20323442009131396,-0.09890615196898858,-0.1795800949791945,-0.14933462389276964,0.008247415752193378,-0.10170154943966592,0.09004211790390045,-0.43651172447390546,0.09543693289001412,0.27807628020585523,-0.008816266352067219,-0.23879258210013687,0.27495130822482144,-0.10940444913005702,0.0077734192011056965,-0.13053287244638387,0.02827939387814826,-0.3559193445588859,0.26180433586836277,0.3414534370149792,-0.06613674576279198,-0.02121668234762303,-0.007672353484747572,-0.15364961915057126],[-0.19744853482635377,0.0386257290497175,0.1820836249280756,-0.0526436772873606,-0.15168369275933732,-0.29298905439638384,-0.0195278824387974,0.12755865660529825,-0.21066512302789175,-0.21020009168579146,-0.20128076933451206,-0.047746521123569044,0.06133478771856676,-0.40902108628608513,-0.06409038529863997,-0.06579995909807697,-0.0869200425356948,-0.0026306295902388133,-0.2456036272709618,-0.015247529611430515,0.3010814624685301,-0.03660398813464808,0.14828936173276666,-0.22381817237437854,0.14673265398354887,0.0780473544110192,-0.36949392838371087,0.10130206189975217,-0.4852388849710066,0.05896742883937824,0.3322884163199503,-0.1281776978569965,-0.32241478650071226,-0.15042999727815864,0.07478311173520642,0.12088648950096138,-0.09226361658401949,0.058050527820103635,0.06673821157997338,-0.1918176151165593,0.07127306904396435,-0.07836753503849533,0.01944814306323982,-0.08617773956492272,0.01340663040803464,-0.0966518225884953,-0.17378073927593302,0.07617958451431689,-0.049011493210365194,-0.22683150256696596,0.07512511844527921,0.15449286072629245,0.4633632123442259,-0.10012478229976376,0.1828357057426205,-0.11787299168038039,0.3233172026246696,-0.022029412289177538,0.31618552665688116,-0.062206967076642666,-0.03228926810445096,-0.18558578817495403,0.016319378265339246,-0.17555054007137805],[0.263719528828078,-0.0025204489651436198,-0.19355196556021637,0.15805005906656994,-0.18986033724249096,0.14964788259727058,0.14539555461174114,0.012274964958239033,-0.16617581011241933,-0.10161423602380276,0.09177388295806391,0.00302776152035054,0.14500790430810287,0.30070727741166264,-0.09761637952311286,0.20490754860534466,0.07037042212291249,-0.08157843410330166,-0.14491844045671815,-0.11095947587034478,0.1459536400545581,0.13345779168355248,0.3071164107365789,-0.19056428372252332,0.1792521665948476,0.028347749660084062,0.06519988719852397,0.2035386076318289,0.22293703440241402,-0.03325153257518933,0.08664160038616693,-0.4207804326919282,0.09464234044832583,-0.01683641045069981,0.21678891798964495,0.01672583553842169,-0.355513733384443,-0.047986534129420014,-0.17371490141602183,-0.06711448977911331,-0.09157635394371681,-0.0009913113856030063,-0.10525276536512623,0.15773348584333707,-0.2681130142708268,-0.11666540272939296,0.15257368222133336,0.007046553281494392,-0.14943415752901335,0.02549156495759349,0.14964342944629225,-0.16250760651253449,-0.11030095601804767,0.12584901350391794,-0.12730902594200166,-0.2032280862824535,0.09936786742570647,-0.2477955679609407,0.08979767392371896,0.17784239001785213,-0.0005209612747605434,0.059157826379207676,-0.17857899450828385,-0.04571709148400048],[-0.3574204951132153,0.029235588724359347,0.07136558465676754,-0.06882685415878348,-0.054146822818953895,0.024176630056463647,-0.07544126097214539,-0.029581660153810058,0.27116152751122086,-0.3206401513039306,0.1764199141082203,-0.17435318020086255,0.03330333170004356,-0.015156786429856734,-0.12731561136404435,0.1357703226547078,-0.07329515559879286,0.29645076189896813,-0.3503715296209972,0.05454907160512899,-0.11032719262736129,0.027262128357397004,0.008203000495587639,0.056829791017838235,0.0801027366221202,0.33246356926232506,-0.06144472154796986,0.14150849666115306,0.3064561815899374,0.1492533409330861,-0.052560215114303206,-0.18997972811233665,0.11762708582574659,-0.11695445291650708,0.3331596626475994,-0.012569091048773256,-0.04526205062604537,-0.0009205485035695482,0.270757418486647,0.13870656862057007,0.0033889431224764454,0.03499953739086267,-0.002910823086039153,-0.016655122449491556,0.05617942581392438,0.09497952940566297,0.051019742303925635,-0.0002733853182907127,-0.22818680850302678,-0.027261946013864453,0.021964819062645417,0.037185397367483816,0.2061871223259639,-0.04394419735581704,-0.2110922972883832,-0.09623092462591758,-0.18888238364904866,-0.04682675619139074,0.11247369646411287,-0.1559580750267914,-0.20786445306712154,-0.027478809141476594,-0.05197115853504752,0.07772141772952029],[0.2599340250326054,0.1399142803842644,-0.16403148210071758,-0.03250490158115997,-0.08096013707598267,-0.40270991445624854,0.37219480064496185,0.16452061301872703,-0.02514426781175925,-0.10498507156523113,-0.07265605993395552,-0.24920740157386367,-0.0072215861339384475,-0.0865699963352136,-0.1316153655718436,0.1422419104758901,0.2515589296491899,0.06403985488240259,0.021586957855629474,-0.3109171985937617,-0.254066545073688,0.08456463988298989,-0.10394281894108016,0.11983995411709807,-0.21807602238574467,-0.14863635658935118,-0.012726348205082153,0.08840691782923889,0.030354166570699413,0.12158951550037214,-0.005998803369291982,0.0065254701562175756,0.09458370521080939,0.005630455803870304,0.13487315491098747,0.024057949938800456,-0.4313921193034816,0.04217292750230512,0.0026198926991424683,-0.2401405290566547,0.13865900896559766,0.13481407877664872,0.10684722804457748,0.0039147385018605515,-0.03201053601971769,0.000773327446323505,0.32919329342254333,0.1899698343717695,-0.03047076686570339,-0.10180626221850113,-0.20733170946888765,-0.37045154366977395,-0.07690180188955158,-0.3756999555759857,-0.012900111854002612,-0.09817721626656153,-0.19199601185178794,0.1021982430662426,-0.19784834792722755,-0.20876213060739843,0.19681533359934839,-0.2522323414230673,-0.2430230921130305,0.14117191190587497],[0.10140317937917741,0.17676210173457402,0.04710100854169525,0.13540880163544836,-0.10878493171600506,0.24445137056059202,0.10928886566623018,0.20356715860855903,-0.17178018340509216,0.26254877119438813,-0.002999909976652556,-0.15527707373077265,-0.02465628043077508,-0.008991921232772817,0.20797078331785085,0.011946790793284775,0.24763177863318692,0.11332786007967618,0.1025364033146279,0.019077792462276665,-0.2480636969136204,-0.05609237627467934,-0.05880500043344127,0.06736818035869246,-0.33041798097765873,0.049020936674964176,-0.20717289587407994,0.01846138548532627,0.03722376256970758,-0.07221627263776983,0.04052987982011057,0.16220162940810404,0.07947571366245028,0.2069972677210595,-0.021326484153796593,0.13667476008746846,-0.058490801005163656,0.39238889150807904,0.16491870479862103,-0.007037443872789239,0.1341403076137961,-0.12452251306773032,0.14257131670257178,-0.16619876190425398,-0.058796582059625735,-0.22437294656400814,-0.13293111635386942,0.0047913819386760466,-0.02952402814571119,0.08504829386358195,0.00023296826173354826,-0.18608409420174732,0.04036691500244555,0.35007475311248576,-0.10669447279607862,0.0941611513222171,-0.02469366515554208,-0.2668233793813059,0.10442832920897928,0.11338864155144894,0.27320035276610694,0.40322724487794914,0.05007556843368473,-0.18873567365060392],[-0.02174924659160605,-0.024716644997910705,-0.05829123672708441,-0.4390303673416997,0.21251968412379443,0.2242096611133346,0.015989411670208373,-0.12707904496484926,0.014755496969970054,-0.06780933330963715,0.10977208773310926,0.056742434851565146,0.18598353258630348,0.048546629305690266,0.08049332140606431,0.2529829517736089,0.4156192075652916,0.11970088308050253,0.15640777375088893,0.10575876256113978,0.08537974895784486,-0.17258958765569857,0.016867839324047378,0.4421374257954627,-0.13547960157893302,0.005292472992957029,0.18798471563018743,0.07066419989515124,-0.17377702734210035,-0.2563819261509887,0.06509960085658521,0.057639794976085366,0.14543481112895676,-0.092227451296517,0.14568496707397846,0.010803613915006616,0.16477180523967735,0.05799671294744226,0.11067508604976205,-0.022456549860990643,0.16636014910872202,0.30066298862598867,-0.10434783670966254,0.2294834812953007,0.23505331038099145,0.19628185328793046,0.3139962305663455,-0.07004028441669745,-0.06640609590968048,0.23955743383005304,0.3486232735696184,-0.05820001317135839,0.5378330477991676,0.11406140912675553,-0.10260033806453923,-0.12923251979518025,0.31112168167088494,0.24561108054653782,0.03694941426984116,0.3655245857523033,-0.1333022993064554,-0.11866218953083559,0.2748082694339998,0.15389436103996762],[0.15537395917803085,-0.057984429594179925,-0.3393353516976729,-0.11957599646998461,-0.06012161183984679,0.139749447365884,0.17158740683230997,-0.5744893566805793,0.2373695251717217,-0.2416313287480188,0.07567895220953348,-0.13901231473501025,-0.16146812279620815,0.10074502317785426,-0.17418640181407644,0.29807775631455385,-0.24648988576764036,-0.29327945895114305,0.11504713252531522,-0.005968972500001793,-0.12374891681643214,-0.2095044233341957,0.38223187796642266,0.10573805538658743,0.2046243891844593,-0.15198815158734466,-0.18343988785103904,-0.03781087024097969,-0.05295041551562028,-0.17625461682181595,0.26694619124912067,-0.15256180394038787,-0.3869879991402704,0.04967460087669107,-0.05574101262367516,-0.12763320587757257,-0.07765271445676787,0.09793114263598775,-0.28517680971402637,-0.2622871445426615,-0.03693200603828522,0.047365678980057016,0.12951462426952914,0.1985742946861924,0.6099416276559063,-0.22596339751041059,0.07322702507502649,0.04491364949773056,0.1904426746983645,-0.07172559042397807,0.004208086683254264,-0.12322349439730239,-0.2954020212419181,-0.17602587326219027,-0.08074163614571066,0.02434205720165878,-0.058598686444580765,-0.11483878674590149,0.15974635777086443,0.264621455242851,-0.3274369411145515,0.2459980962989765,0.32182382749621363,0.16518715688778787],[0.24184817053164548,0.020553802905021994,-0.04405398172238684,0.3472324467698904,-0.26986180513694147,-0.07051913950254825,-0.11332612092540581,0.13335884689202093,-0.17379339366820018,-0.3056952683406707,0.06266094688583303,0.13295729571514833,0.16204015955823348,0.18877309463758138,-0.08344124283313187,0.06925469476103943,-0.20453014475388442,-0.03695041139700516,-0.03684026721307423,0.019040597778370444,-0.03254250807712216,0.05947695761475091,0.24787740311475437,-0.07153100707043504,0.12633335465930318,-0.0422180380909698,0.12379910217789278,0.1931389905793818,0.12835125384152687,0.0663604318917049,0.4022782707347948,-0.4697595417777366,0.3142556840641823,-0.06148965884860498,-0.11542841736859026,0.06286733859418808,0.17587827354228883,-0.36375194595832405,0.12040987108413317,0.2583240672778719,0.08777850552352812,-0.1464171412651984,0.04208737214504311,-0.19332458131198632,-0.049115830022132184,-0.35217461449724513,0.06723867230236628,-0.14841845414497207,0.5263468245824527,-0.04556816713559372,-0.0279498909384636,-0.014492939885443675,0.3054644872841135,-0.34820630024859184,0.25511991379506616,-0.008964077975353849,0.12062074686433676,-0.019264583225209207,-0.10117291790028639,-0.12731394420306216,0.04666020914740966,-0.20511916433560817,-0.05239356792707778,0.05502286289742312],[-0.14520105859411467,-0.0581297288002832,0.2708732378106536,0.002883752034588599,-0.1700748154047684,-0.028436699459874655,-0.03397869065411784,0.0690710001515406,-0.03619822934852209,-0.17147725248178688,-0.27849349390070954,-0.18951825674951883,0.0011674916604991893,0.16020344064136235,0.3896953465475475,0.26427088373656565,-0.14190099966994796,0.3763441865636586,0.03862452188310157,0.14888666002296272,-0.20992877037235125,0.306532693441636,0.012537539003461558,0.39200451030289596,0.27141577933652683,0.11538859555270808,-0.09605466406206045,0.07159684039762684,0.024071942276039867,-0.002220483891611565,0.22207520406864298,-0.06704927784801235,0.22040096438706977,-0.2586574142346161,-0.30598337495761346,-0.1234777070962234,-0.3148316581309657,0.03272184318640424,0.010533331459555826,0.6125072307575014,-0.005791038780655351,-0.14925224161302078,0.28289126817749655,-0.05504849369384765,0.11761416043459144,0.3486654148536432,0.10509078376752694,-0.2635862481165161,-0.061916979558539816,-0.25821514647361443,0.07487054030147684,-0.1388239672635659,0.0930975436532907,0.4064225915495927,0.054415630857244456,-0.2125683490956416,-0.4511042451837971,0.007899715776627675,0.28514932974185037,-0.09793358776885894,0.08780538994864184,-0.12633628958254742,0.04693107459566045,0.16510469020906549],[0.08354507038975487,0.04973175442194296,-0.03002684180485195,0.18386826926963135,-0.031194116249690356,-0.044304083621056645,-0.5550540342123589,-0.1454666183199042,-0.1399390951934432,-0.14328790972479183,-0.10410930095713976,-0.12340740877899307,0.09031462933355443,-0.18039920097140424,-0.02802120980370727,-0.16964233266447407,-0.16696693915136065,0.016624778212512924,-0.3160016900824293,-0.24279501064129486,0.11075524234335324,-0.0963151783675967,0.4478682650820292,-0.037587362393132644,-0.0005566412717069692,-0.12001648266787493,0.2509161755716075,-0.06797724558416228,-0.07126877826587547,-0.03437971783048155,-0.3068654934075788,-0.07853587148615225,-0.0011833329524677469,0.35519559711070936,0.011101125223788078,0.2856857924055453,-0.07704687707725863,-0.03799063777935147,0.46940691304614895,0.04195780289710303,0.24999988098246728,0.3828840345079284,-0.2629047061860227,0.10181289099278432,0.09210452007690839,-0.04353491355409064,-0.14195021153499124,-0.19456162168036317,0.20261462184561713,0.2683709399773898,0.016734419222222307,0.1959780417515784,0.15348302453771923,-0.12660849914289543,-0.2656678060007756,0.20501734485971976,-0.28460756234875245,-0.14206040084068053,0.13804009927507688,0.07112261207173722,-0.11290797051385915,-0.035495445117241356,-0.16407077399882736,-0.10460886787922159],[0.016558020573795677,0.5450016965826111,0.03262577088222673,0.29153203713911463,-0.21987962517291063,-0.12253255623680369,0.29924895926289874,0.10443029947880061,0.0012650073184397035,0.04836452810959477,0.07833039874684623,-0.10381578662619649,0.17319159295485137,0.18103436520228822,-0.4922195911707712,0.08431689739432109,0.05735852412418006,0.1549670120128612,-0.036692983681553513,0.19359375736847706,0.07647265489677697,-0.12486085483088652,-0.12886433447770276,0.11728488580691092,0.10093779007359689,-0.01636900018983146,-0.041175274376623154,-0.05217898853770932,0.12105873067496084,-0.01740420912520745,-0.09836600321883182,-0.01799563155742637,0.0564000610639832,-0.021499984559154486,-0.2746546402038345,0.02599415684717855,-0.2500351043114209,-0.26803962370592016,-0.13927190414120014,-0.12741074232258157,0.058666993369534556,-0.20224198091182027,0.06871801735865551,-0.25790245390063793,0.17459033937409807,0.20851503903007912,0.050644156521685864,0.12001165387840904,-0.03294666491425052,0.27300682251741154,-0.033404623155965554,-0.16252295820601648,-0.02370243864846786,0.10295711019014468,-0.2457712988774292,-0.22850088678401248,-0.05034006668036784,0.056094403879577655,-0.1986855361856616,-0.10345492139692282,-0.07843200222647641,0.27875714864804535,0.2953089067505369,-0.07676674248137486],[0.29447701881240546,-0.11254996427556897,0.08675377359963893,-0.0266009311077247,0.2864722577263836,0.10395306120828064,0.05240999455906453,0.06812758629720307,-0.2922711138568479,0.15394501772418084,0.26353983806763903,0.1527980622265931,0.014984658841267007,-0.023208354759712092,-0.2066391891697249,0.04790157631768242,0.06909279398837523,0.26705038586090907,0.04882987491067575,0.05389651562691379,0.16972948868465884,0.1216722403027726,-0.11631820735575836,-0.00288024395636396,-0.22200602854454346,-0.08381771404505832,-0.09689060243192532,0.25491411272917397,0.23631851627425252,0.2980762078379334,0.05985990556882815,0.07619450309535411,-0.1018411156067479,0.12934565293360958,0.08787954636900557,0.22385697448226688,0.16231199712302474,-0.3028933231905245,0.02188050009611423,0.20573919946206304,-0.356041565964843,0.08137331861392644,-0.038979475430764146,0.42699642800683035,-0.015994479447939924,0.2009666705274755,-0.1531991271844663,0.28186310704546896,-0.13570580921672426,0.10296237284632528,-0.15322180118038886,0.013815637312708512,-0.2511512169955068,-0.28834339970081396,-0.1426956585732273,-0.13095682472174563,-0.04771926578530055,0.32567028743350157,0.10603206187374059,0.1405141044621981,0.04354395164698819,-0.10250240923642621,-0.2948073020992718,0.03872278077077845],[-0.04340488594214069,-0.017092635642101516,0.022433999291170112,0.03777659695507877,-0.19049116861091525,-0.11087237103751614,-0.2517562137834872,0.04402371371610709,-0.07617269911657872,0.1728928938837071,0.38687142697343124,-0.08678897499143061,0.06349325742526978,0.13474798934380577,-0.19286251982223385,-0.027115704527220404,0.22379683868331657,-0.11512501531198112,0.0199175286750723,0.0809243668899894,-0.018225332107187103,0.105800537027549,-0.1799428100383302,-0.08810755508572005,-0.022166559232201836,0.13219802628108598,0.09160998200600923,0.26089454497254355,-0.15924462685518043,-0.19120010308058427,-0.16969667019353113,-0.15025819658651388,0.2242993701520497,-0.18529722688779154,0.5213491025961703,0.18771679979392786,0.21489474291391147,-0.24716088013326667,0.11563787290015536,0.0669278167294768,-0.24488936987640847,-0.14753983150030145,-0.02864864220973683,0.15253679520941227,-0.121271340110552,0.28052058808280234,0.0066330701207287,0.11131293958669823,-0.036255798774997516,0.09313733362034969,-0.284956586137135,-0.12243066541340808,0.42020404646768683,-0.01587672190767271,0.22600076938308764,0.06919158581126648,-0.3807890368850161,0.16630837302895038,0.23119665951037865,0.011456992538058626,-0.0068926163282405275,-0.04798308674644003,-0.07931919221329461,-0.25202078744911516],[-0.00006872071043542318,0.08804347075632014,0.12478048727382718,0.15978724070833164,0.25037449454118443,0.10875817903766384,0.2090730558542002,0.0005712560269658383,0.007424155713636104,0.025286761275778533,-0.3007722593189969,0.05406251920740321,-0.26742710200218084,0.14773078445352278,-0.2466399609308481,0.2337378682340715,0.04062978630324203,0.11421368787954275,0.2884272950296779,-0.27647994756073235,0.2795661143578007,0.0645508043975493,-0.16236041663394804,-0.04675020104639051,-0.0022667724772090334,0.16392299536379715,0.06084120801456384,-0.021278256645485348,-0.15184724991491877,0.08152013391296137,-0.27485384107784794,-0.22053454067695136,-0.03677311267972512,-0.11304511425061886,-0.36238158856651614,0.25354624481640115,0.18187170408949954,0.03327759502090699,0.1343500492847454,-0.2838982903556398,0.0977195738759349,-0.21484338448348608,0.1447999896657949,0.0800165763630431,-0.01399660374756846,0.08656525678899392,-0.17333518984254737,0.09389121557426028,-0.05846834062747035,-0.06378498234002518,-0.025349156125523877,0.0627922913916234,0.13842989495861865,0.10881811102442042,-0.2057054025321791,0.1714877046607189,0.06016529402706537,0.06972731561956987,0.06383759820726832,-0.06847865440432929,0.2216638170607976,0.0002873940649488575,-0.10278077402981173,0.160282343311329],[-0.1967053193415223,-0.0005420195329449417,0.21484286658261087,-0.04622933147662551,0.2641125887696817,-0.062138694500142914,0.14401476472894265,0.07294324695097695,0.08726805369699511,0.09774390762605493,-0.08018074129222454,0.18480852510736367,-0.009160364166236168,-0.12948502536604364,0.02853891939176768,-0.07504790185502203,-0.28226878628014657,0.22655474931633138,0.1400653412869217,-0.05013755482981702,-0.1421664068022512,0.3452015323036602,-0.2250592762843909,0.33489910194586936,0.09117996629574854,-0.013472119463062412,-0.053724070742098416,-0.28341927962374713,0.05329121591309876,0.006118467816697427,-0.04359460913123187,-0.1322147705727778,0.12124184954977202,-0.15454618421471672,0.04547950746139968,-0.25716799195809814,-0.2715991301226131,-0.0935230717840889,0.1351012845676272,-0.271964618635436,0.17244696986101193,-0.10548727566956143,0.26193287004605975,0.17731153448520348,-0.25795639544848875,0.034027922762172653,-0.022828158727839745,0.04322268643876871,-0.02963075053007406,0.10747142867675023,0.11095611712123515,0.3329358166958829,0.07922593688475078,0.16473650584132543,0.14734066996405487,0.20355773377867226,0.337241888328496,-0.12636585353069776,0.15908696151690588,0.24095824928767498,0.07608582411210851,0.16075694068727164,-0.13188941159410836,0.19199027327680052],[0.17965421991522898,-0.009981411314010544,-0.11422698620420123,0.050548459722145195,-0.054130138765936454,0.3324259060887397,-0.10633726589338888,-0.5672310731740523,-0.3153376654087352,-0.0011312662497787996,0.37831701518658567,0.13369717813101847,-0.2854329788017147,-0.015467733385807557,0.01670895969762628,-0.13325374614015661,-0.1516234185157556,0.1907725122994117,0.29887319569111914,0.36633459095556803,-0.11620325635866872,0.2268226152048042,0.24825953658670477,-0.03158612299399952,-0.30817593324642195,-0.11426538135601165,-0.22306330912588068,0.4579613577101929,0.1623166881447271,-0.0770115119282776,0.23240076924691722,0.112142937340413,0.07678077874961706,-0.2213579765503879,0.35587895299966504,-0.30470242675316445,0.00920943880734295,0.11809271951646376,-0.06214646994476163,0.13679174761609408,0.3153555457847164,0.08633439200088386,-0.10354123834852672,0.12760544975094323,-0.006424962316798106,-0.029251540235629855,-0.13762319616894067,-0.04355935711638616,0.11679045887845882,-0.15578448078941107,-0.03662120035028621,-0.008984771600558107,-0.12091068855741738,-0.2295531604650684,0.11928620484392116,0.1569778362272927,0.261862929357389,0.05251398229765538,-0.1974143730964521,0.08875835319443401,-0.1967671825509989,-0.05422324893898537,0.008703963799703892,-0.023304721567947443],[0.052697843502569806,-0.14507111788899613,-0.105453713732414,-0.013795423072143745,-0.014729459620256288,-0.3364553612938433,-0.2661481505117178,-0.054144845391662776,0.2815169804368399,-0.24085622340450888,-0.06209194047190309,0.0869550820589416,0.09550020885855383,0.03308987102933177,-0.1076184409545926,0.21165678226350254,0.11039550649385035,-0.026018003232078007,-0.21952461663246267,0.08792708701537748,0.030391301410352227,0.03420477507196386,0.19378709122908283,0.08875591537070196,-0.029385600740479762,0.5121674804177984,-0.03525089007751074,0.1946961974405314,0.041983003693189934,-0.14194057239634794,0.06736637836009347,-0.01774181605236289,0.10002492274553881,-0.010389690309076745,0.038016974883616814,-0.013723367979545872,0.15309543254860236,-0.341903489321795,-0.18363474866628487,-0.28618604324254854,0.227647974134693,-0.004888316118070174,-0.0072771838838128974,-0.04834934132961923,0.12136604619087643,0.36373965531650265,-0.054927857342559665,-0.04535141282653625,-0.2724961572586954,-0.1189297701055248,-0.027945682384959848,-0.2794601330632584,-0.012596888203784021,0.003100560719155756,-0.0895073084763259,-0.25537939011260374,-0.06451099843897823,0.18067484971892636,0.13480316989628593,-0.05769516252385107,0.2933361201719076,0.2247462087320893,0.15170540451443784,-0.20978428727532591],[-0.08900727830090875,0.10693829309740699,-0.09297676592350353,-0.2512219393876297,0.09512571563190282,0.04964813134040009,-0.043047716400108474,-0.19378332944456855,0.015625160627393362,0.10254859732459554,0.05044842007271611,0.22384726438807181,0.19459314299047775,-0.2198753771837132,0.34727443224363785,-0.09519344349541217,-0.00800772251205495,0.0364628242960991,0.01070429916669794,0.17934959068384757,0.16567685858246883,-0.013151738162597548,0.10523552635524193,-0.23622977487359703,-0.029448661998215168,0.251408537648668,-0.27988085462771606,0.14578486430213625,-0.09926976554975547,-0.04351453043736657,-0.10187331868228515,0.16296781541529445,-0.042403991909521904,-0.007693986099109864,0.04836531364654038,-0.20523713705022265,0.023742682870591367,0.13347084301583784,-0.023956923493478423,-0.05267871894947009,-0.2877366154335982,0.1508584807789268,-0.2726878927969756,0.1953001993641921,-0.10965261355485478,0.1300560738687907,-0.19526519783996413,-0.09950294909559111,0.025226517477286096,-0.034697385247207474,-0.0702417419494129,-0.10870637484263797,0.08136717530714163,0.02407716776134704,-0.27764388567400333,-0.23589532823363363,0.09940907751950444,-0.11947341696530474,-0.17866711761329213,-0.3290307413783662,-0.020146802785944693,0.010993896147853923,0.12518165672735734,0.012749026081708605],[0.014129835406261277,-0.025408692137638376,-0.10496479569568318,-0.19529776170508317,-0.017836495078647204,-0.09903859660256858,0.17333684851978545,0.08512030647884251,0.059373086324015154,0.13735464247783497,0.21410817616033576,0.024745551973684006,0.11075861815611993,-0.008553787981189276,0.02564743861293148,0.41227397827778073,-0.3062458228350235,0.22508361102194643,-0.059314341119716826,-0.21243603850562484,-0.34134943633031045,-0.012796956462863121,-0.016648149499973123,0.20116976260081748,0.0956456926771137,0.05895091300299307,-0.13511821916077124,0.31882383390243896,0.09933692944920026,-0.03998633141132236,-0.0009437319526855166,0.18894123878957778,0.026717426005666185,-0.130977862333495,-0.5042752140391233,0.22501462641147946,-0.10902518046579246,0.01078086483069239,0.3137862505234436,0.09524462382034353,-0.137895406277153,0.2925457391146679,0.039687569052172175,-0.08362197903371,-0.08979543616212467,0.4359771121624753,0.05138342548236513,-0.13292091272673504,0.048651582974490154,0.09009108199882122,0.2066128551447316,0.04840356071174598,0.3117432088514486,0.03753592095039534,0.07053441357741695,0.05033659851987654,-0.36074894186659645,0.17398762016629601,-0.17475389628671603,0.005013141197880997,-0.07400462345582172,0.08279609396761498,0.07970505305399758,-0.004639231116278607],[-0.05289997320901923,-0.01546275153608192,-0.30837318823824905,-0.19571885693766813,-0.3175205103556845,0.23068712268327737,-0.1599559029677622,-0.05821423485392154,-0.03113415026965988,0.04200017620465775,0.06255520380510389,0.19702553476671697,0.2062789376011836,-0.12639053411630696,-0.14236350213804852,0.1906827167616766,0.1785320615883493,-0.1530046551045893,-0.33961267153937524,0.1364973347530432,0.2892974656202252,-0.11888362391642196,-0.20771649435314649,-0.04220330269059439,-0.03959372809261435,0.19374791914015782,0.11973346240998627,-0.1104374817877027,0.10701444290492798,-0.21212417242073903,-0.028217280427502378,-0.08059282251932338,-0.0722118916860879,-0.02330141809430055,0.18281764810787265,-0.07075210706441969,-0.2305171936748922,-0.01948456292016776,-0.19092652708718005,0.042146669596368494,-0.09238706004834492,-0.21611323758579887,0.13944923325042136,-0.03856917647962723,-0.1576429567395124,-0.1408438893096341,0.010000320954034966,0.0037904104551058446,0.16578836096137026,0.16564381939929332,0.13196147757680196,0.02615594773470481,-0.27328354960671236,-0.19184667749853204,-0.10560661165018428,-0.057103883431261535,-0.05408623322372399,0.3157512554062668,-0.07006661981551926,0.11759889001148253,-0.07064945690376585,0.20211630115857743,-0.06264421671541898,0.07933687509307444],[0.04820954588679609,-0.10157480214987874,0.12195866400010617,-0.046308176082215935,-0.16034788687555793,-0.08993799477923466,0.11486923901592518,-0.13867537109039624,-0.02301153135701283,-0.14446039003510722,0.17311715577193254,-0.29567132248936895,0.07255413329828797,-0.24611635883039698,-0.044907587524801736,-0.2023369697964874,-0.38897448702477305,-0.011129519030484111,0.09462212359218009,-0.13857455134738414,0.006738396879356506,-0.3686970413868852,0.13355366551034586,-0.26087864588031917,-0.07651434774916942,0.13803632738497199,0.24781448024584157,-0.16598063198345894,0.13065772033141293,0.042690316270711806,0.02852853747481686,-0.03079406830650468,0.12016153802766914,-0.09876379954289688,-0.04129977646305141,-0.14430962777293443,-0.06634577078966701,0.115656190763712,0.14351409611082394,0.009827896067274997,0.3564701883914462,-0.15578064742001244,0.35806366212696455,0.27649184791847586,-0.09612971992650494,0.009800478473950781,0.1772407267278087,-0.10946671719480293,-0.007649281313419782,0.17925978090941203,-0.15513321126144472,-0.06362517250675151,-0.442062657724564,-0.07537581578839354,-0.08619487577217491,-0.10636136211172129,-0.19191594026411976,0.06254924595181825,0.10191208680039242,-0.08668605919003104,-0.05214932871352467,-0.06727758127862629,-0.20223073355363547,0.22538784100374432],[-0.11620357451565679,0.13222406465413022,0.15853993357849208,-0.1360767373225469,0.29105424095542876,-0.2419051001789576,0.1556135206918556,-0.008867573452396136,0.2935796773513937,-0.027577174291751546,0.0792016912328602,0.06478449334929222,-0.16275014464045695,-0.07025375046217103,-0.23170542321876184,0.13762261343828727,-0.059809823707272246,-0.020420022590654976,0.21907421421790277,0.11141064244011752,0.015456267583705111,-0.20316674584474725,0.09159163791603014,-0.14351091229235077,0.10618282273901367,0.23690107459030205,0.38198467807756786,-0.2670733112928856,0.15008407984759467,-0.06375535523028505,0.13345117587116023,-0.0958434408336625,0.2731949961826959,0.18901744274523724,-0.27715323459887975,-0.09967985329560457,-0.030111539806222554,-0.08021620637351545,0.34367797873443373,-0.011942181690898647,-0.20956375354780696,0.0895543215927719,-0.041878796548368874,0.16429662077104445,-0.1686872619903662,-0.1854334879477442,-0.009648113438885138,-0.054536682909215164,0.16393890327161578,0.11716250321068974,-0.06347924959128683,0.1825601972365023,0.02633923467609636,-0.10038076130976248,0.12077451668753326,-0.1490711561399418,0.1435977565030224,-0.039762017421337274,0.39895030715891217,0.5607268540086294,-0.09817978258918313,0.004611550416518348,0.03416839202612979,0.09314945189080355],[-0.3005442524253522,-0.15191078975233296,-0.17680583747399303,0.07785997826302647,0.26990249222931845,-0.02827971013925084,0.00833720407936249,0.16565823155119283,0.2979499751687787,-0.36474843201801105,-0.06409716675167945,-0.144245095985383,0.015334395741411518,-0.03423421749869873,0.33193629534769936,-0.1736306807551084,-0.07248774819506672,0.1580341886553409,-0.2536836144460241,0.056354070353628646,-0.007754297282204147,-0.04605847268912725,-0.03248389029090137,-0.0013980882657040152,-0.020134617018937134,-0.08224836517907187,-0.1263433718598726,0.03317970850967691,0.05129336939815591,0.03353391890354864,0.008832518179745173,0.30357689510676283,-0.009168558300072507,0.2601975797249687,-0.3010917569493023,-0.2815117630991436,0.32030884941221566,0.06413626843869165,0.132255172013609,0.2202206166982117,0.008186028587898056,-0.14498652074078988,-0.19325101786973062,0.4822767371345782,-0.23468254210295966,0.3376297440481078,0.309089982938837,-0.1157416739195952,-0.09934254835542383,0.22093567713999618,-0.0588853421901475,-0.05163055089937089,-0.03548258640806245,-0.060848442628865615,-0.36539524581861516,0.07234286922708792,0.05347587989842713,0.02659106364204086,-0.17763879960085321,0.2993479199967175,0.2725900023297758,0.018751013690997347,0.02974382395725278,-0.07937581895418402],[-0.14852758144180536,0.20525902584563016,0.05880306840465015,0.10783079737677283,-0.4233636507760712,0.18986882676055863,0.21842384060301642,-0.30759542743743146,0.07068397003632733,-0.03373283546224084,-0.2899361552470344,0.04937521194108145,-0.2140524628423669,-0.19643728127130938,-0.027516611898219794,-0.1912068325795084,-0.18829362428438468,-0.10263702957773652,-0.17193498232163484,-0.46967439748145545,0.19835853909440362,0.032090117250137565,-0.07085624177519781,0.1825901881247016,-0.16351265043037647,0.09212003832762979,-0.05929379006588919,0.032637921900771964,0.18864671154463833,-0.053479404199537346,0.12562054594434413,-0.056505883479266834,0.35728814787650004,-0.023117104117657074,0.0923197808943991,0.058905446435229825,0.03485426685799791,0.031984631289301804,0.17426184548660326,0.3266283291355902,0.08049501872563385,0.20236368611834435,0.22726805794303273,0.12939379821287147,-0.06519433312563269,-0.049379879030114204,-0.2573356948722413,0.10971517166243104,0.1701851285421526,0.12893411787850076,-0.24482169689641006,0.3323611855624956,-0.11605924836100913,0.00685339936108248,-0.12867927874003174,0.2510292955274111,0.1196073472222085,0.4549472361455196,0.06046583011030386,-0.07748017566950176,-0.34307063980550195,-0.08939966471652432,0.031727205040463564,0.21020630868575202],[0.12459088815415585,-0.4542912855047812,-0.036765000580471136,-0.2503646262401734,-0.17081758606340675,0.1307072717049907,0.019468529103503357,0.1762234470847668,-0.12331315575509452,0.21182714698157945,-0.18017466320238634,-0.18332205310091915,0.3344533211369252,-0.29389458348895503,-0.0200265255265803,0.16733729865891114,0.055355089208413956,-0.37609739930485764,0.003697711361556875,0.11457200396796774,0.10365087168720083,-0.23727815827352786,-0.0488518831243665,0.14004502481567957,-0.0810307320328993,0.3029129364022777,0.2005219011474021,-0.2469842177978063,0.01132367823253874,-0.6342481706597317,-0.10278824847774354,0.2883025841432893,0.31578904902084903,0.026414545677287574,-0.018934520130054137,0.14778410980806903,-0.03043473550415759,0.1905753440481517,0.058813791201898356,0.2975133495283563,-0.049418199611400225,0.4080296656471215,0.16231534123457989,-0.052041755593949454,0.06460707921283954,0.04600549241546525,0.27284428034598684,0.18370726399561474,-0.02344859025285343,-0.004055325871554338,-0.1950399656633422,-0.07243272430730241,-0.18967756526687107,0.15866112306584773,-0.23163616878053644,-0.2308996243938416,-0.1466273299367413,0.25914066790754786,-0.15463443143306663,0.22081149897842675,-0.12420569026837155,0.24923100515264918,-0.2366553499642473,-0.045971754939321756],[-0.16577680984487714,-0.1784043259354282,0.17917508211199887,-0.05154142845479374,-0.0637467159150038,-0.0688306730883774,0.22247795434488948,-0.026558049150533693,0.12852080084737086,-0.1973614175307737,0.0012958921541561875,-0.055881727834847586,-0.12260465027294822,0.09904342351322155,-0.209765511787238,0.15687832229048337,0.48173384797760455,-0.3750195685376058,0.01698960587913945,-0.07356167296234302,-0.13444628124625416,-0.04497175511186996,-0.11980199933018341,0.2814028197360075,0.14244687820316243,0.0280173887229286,0.17346608171989186,0.2324253038687234,-0.12067641465103975,0.023282361580477594,-0.20982898629749647,0.16134383345929307,-0.22429128346769328,-0.27579442937977133,-0.08874493414720495,-0.1153809220449326,0.10545105959265354,0.042807739457749024,-0.01341130213927686,0.1667687177828851,0.05209500355540791,-0.013076632278891429,-0.15277042737180824,0.03148038139865578,-0.25473865721759537,0.31861354524326163,-0.05955523447204861,-0.21834320258889983,-0.23355559077957913,-0.04601387796409612,-0.21164527984052706,0.017767429248108514,-0.20528645429562895,0.0863766730312333,-0.051047093053382044,-0.19948506543199665,0.29028739623641747,-0.44763327430829963,-0.008376382119340173,0.16387359191159406,-0.4315650377728375,0.05441012723456838,-0.06288880237963547,0.12759660705752626],[0.07169892666081697,-0.08786216103335522,-0.14061524785147336,-0.20560478462925263,0.24735678833205837,-0.14804633211705617,0.49564260619396866,0.429578313087772,-0.1491845765124051,-0.03130455700700787,0.02110072513210368,-0.04414262472384002,-0.22196413977241247,0.17031089724170165,0.04730569071378306,0.07589440943487136,-0.43254242552038386,0.33749299905335944,-0.025154769157740155,0.06792269492922968,0.034342603802176366,-0.1776602356495011,-0.03680914601214774,-0.024012757838240265,-0.1542865650401051,0.08828436202786764,-0.11965479790774647,0.2126162330204015,0.0628234447147529,0.1470852704228044,-0.04582759863513367,0.04645284339848446,0.32665811312159954,0.014930020871556733,0.10307518585219684,0.10054603992749192,0.2446204809173405,0.07802437661126442,0.00673650828514316,-0.44444115272331464,-0.40354502212742077,-0.05522637600184679,0.07976071598704065,0.20819335221023194,0.046383754095195476,0.2514436335880065,-0.25199002972961937,0.24090529864245983,0.11704873486478004,-0.27248216334934255,-0.029133258538954654,-0.14373452247410512,-0.0008138355134275562,-0.39085190253192525,0.31835131899558766,0.131573800577292,-0.14660992954008226,-0.13895073862555862,-0.12112232663212402,-0.1200379538045219,0.0016526867244003641,-0.050039151414982476,0.15223311833461364,0.03827588187404948],[-0.24249816950222966,0.2650980249485032,0.03249562832053809,-0.009855711306318937,-0.16046669051412563,-0.049456680263208944,-0.16885545366963822,0.01266961603275953,-0.3645849745724718,-0.11371569499249456,0.09723121388755955,-0.23198424803069584,-0.06476137146505283,-0.2665473783412672,0.05383149593504239,-0.1103161244164127,-0.36696325339637853,-0.1388151944048344,0.0582965060645091,0.1652678874001416,0.23864662549066512,0.028333304671276868,0.0618595344340586,0.1827494818891462,-0.025197389829297118,0.07643629688929997,0.12540697018645144,0.318452793903019,-0.03561513006173389,-0.03275905529257854,-0.12180604645992855,0.26433558701660426,0.16810899442777655,-0.06407122556355532,-0.0015003696123167527,0.4336666353364376,0.06891782172502728,0.10278919118583096,0.12118645337044993,0.16335391844329947,-0.16249464461310756,-0.0983181959708545,0.041421982846834356,0.005536879665298124,0.20037534803909238,0.03688089462770145,-0.3903636204080859,-0.1707403253126847,-0.033454129641836354,-0.009501048963183047,-0.15522264230249533,0.20133814353127572,-0.04195679330982985,0.11251646732217933,0.001808275737827123,-0.15780541713036098,0.035090565168036936,-0.21889553352647506,0.14211084627193504,-0.14503964871432093,-0.0491111211586166,0.1858602491208664,0.22268116492790435,-0.25463137016586695],[0.04534492611426579,-0.22098489861586623,0.45279359119845525,0.19933159629271113,-0.2846168728457655,0.20238344855293863,-0.13014871858467525,0.05588157885526177,0.10154168822612647,-0.059104490897342085,0.3175975632063558,0.1893114135149844,0.0782915038658541,0.10494730123641353,0.055227583195608033,-0.2013090463445668,0.16035990276076337,0.020577998401616438,0.05618880467732647,0.3301002427234162,0.011419909887741877,0.11390410698259892,-0.0001499514065935999,0.09030193212913966,0.0852296588848347,-0.15901730743529632,-0.057870254030388944,-0.08344707530135022,0.0455285710022356,0.24320864823426383,0.2414129544582497,-0.27179089486384894,0.22286788956763687,-0.05845184314885509,0.1461013486107372,-0.11433349362003423,0.07651209524409729,-0.12346897635416881,0.3929859446370336,0.3124008209420975,-0.10383384798571568,-0.031056022275305375,0.13509238453401282,0.17315703947008812,-0.24912915020248758,-0.08848322953251828,0.3789974565180173,0.18291803102381965,-0.0044124362304116885,0.01947732316371504,0.19451990378275033,0.19262338642531307,-0.505995303138278,0.30743499977665695,-0.09106196117516739,0.17212341458297337,-0.008384144987267233,0.19238543489996096,-0.23502379721357614,0.037011675240325205,0.1586289868405366,-0.19807027226685117,0.31188005004716224,0.2486203633518032],[-0.10838916030327252,-0.041469122921483324,-0.1895648767786987,0.18968603884632146,-0.04987138939423717,-0.026334394616148265,-0.022311371820718108,-0.186153583034704,-0.22831240386094132,-0.12888656825425276,0.2850547483640376,0.07602188016537913,-0.2596103660639963,-0.12368812354684791,0.15832879240412479,0.28413701258110985,-0.20884813861516122,0.004836846482747709,-0.0657214641835032,0.02694513193211229,0.05198270423935062,0.0474229328212903,0.26729690424207614,-0.05537008578376722,-0.07437083369391319,0.008911412617696896,0.23086508922426938,-0.03401964445464143,0.17697435587203408,0.4434407070919403,-0.11872298433867282,-0.0221940166609356,0.08970728860353645,0.11469938750089839,0.12224739753422806,0.013245306965101998,0.5241985955661707,0.2467382375350313,0.03848172041350952,0.2751456203100842,0.025210068507950295,-0.1583384123736499,-0.06555321760290898,0.04515298192046561,-0.0806287960183449,0.1995649619671535,0.15256387562680812,-0.2053680470814502,-0.015541510107673387,-0.07130338548703734,0.07503835423315337,-0.27154970550076685,-0.38295244521376404,0.030882552780990585,-0.32678264185495326,-0.007679760030228212,0.024938723793761528,-0.05540044567075435,-0.0506975659358014,-0.14319446951920184,0.055858227100669046,0.17917990577493176,0.016766407513050863,0.0218078448054714],[-0.1824166544337795,-0.28190664637323015,0.1926879874777485,-0.2538380409686096,0.007269166370491683,-0.1901249126380428,-0.06174886035969175,-0.2537521245699407,-0.1988664745029178,0.12825576556589902,0.06929222049115381,0.22777374206864956,-0.0450964241218011,0.16506698472859496,-0.01070519123761324,0.11270132547300818,0.12301418942687134,-0.26380854794730085,-0.012718673270660277,-0.22228839851994697,0.18854799319495016,-0.1426627255598804,0.02220131963938209,-0.17096200427409042,0.10716660988078294,0.14851553176720148,-0.03602866484426227,-0.014813387930624975,0.10215253077941731,-0.06549200544618837,-0.04348485407275941,-0.00013002674105477494,0.13220055028146216,-0.2773905359694323,-0.22752222986215825,-0.3073454746890494,0.16374242239161224,0.08039445893034501,-0.37195642217998265,-0.03887538835869295,-0.003318000213781685,0.12785103755536678,-0.03780847262652994,0.5592066507767339,0.15573118164642077,-0.022033538447713854,0.15892330224136367,-0.0064088179194265885,-0.1729371709449552,0.18641967386808153,0.04889947140735815,0.13939544867582965,-0.20508693046584275,-0.1839658616206253,0.04129399698923185,-0.2727532137787684,0.09338891324055314,0.17374638984041632,0.23107430041157367,0.18447693038267599,-0.04396695715933592,0.30721819899583763,0.3193927439242778,-0.33253947541096174],[-0.12611657783700644,-0.07960395943087988,-0.06116273784907085,-0.26482144514559147,0.12150866412455379,-0.3044955896057749,0.03479467647908309,-0.038028110304428486,-0.08729878482457057,0.10492628927556799,-0.04257297784410868,-0.2882760955349351,-0.11363606503107444,0.21599640439828602,-0.15619635686719596,0.17598139307806268,0.0834235060245372,-0.2687289753184879,-0.09697280407801419,0.08994978080734803,-0.164253127874578,0.1110871708465474,0.23241341053401618,0.08348658682589065,0.18638372152974647,-0.0707442091635982,-0.08264511656308203,-0.33702639762931036,0.044126204629967775,0.10309228941850289,0.12749685129078134,-0.319925515747611,-0.03875411086332949,0.20333390595050205,-0.12013793016698703,0.0766380804912804,0.1945803075205431,0.04761170794632204,0.09510375012169618,-0.07340868486658533,-0.1152912265004455,0.10437932584202687,-0.30012010359522623,0.2743987030341015,-0.20003161420954918,0.19030615954712776,0.16013807528509827,-0.13815506477433623,0.11574542712775626,-0.04712667771498096,-0.057204809058092554,0.03521550058206193,0.15571944266430574,0.08658421748483669,-0.06469836945805126,0.013224864045021328,0.13792341465421334,-0.24427646679910528,0.08643937366419581,-0.2751177625316498,0.28771817402375544,0.0054842827669986105,-0.1408617129710271,-0.08211878036225027],[-0.32507026676312295,0.050991949208532505,0.0017107974742314467,-0.2973690960847383,0.08728758163109318,-0.2274813706421802,-0.04591490899218198,-0.1595143846495898,0.1529486509108606,0.12249885220799474,0.14370684967394237,-0.16808212336921483,-0.056737489969445234,-0.03481086462818561,0.11046974020622395,-0.0975542825228838,0.13891875956363978,-0.2443589542394397,-0.009896817937824686,-0.010816020148452838,0.009017307415694864,-0.0859809463292456,-0.16669321978990068,0.14620977020266884,0.20073426675407882,-0.03713432777343609,0.1743389294155276,-0.16133178204541238,0.19323570519825262,0.26399594439165464,-0.39062313149031436,-0.22458476543352454,0.11815248667459566,0.051736281394321064,0.026566101813758892,0.002035900521236491,0.126925374083741,-0.17621673130430432,-0.0002554690339295729,0.18652427722526171,-0.1832714100131791,0.0017495563973522633,0.13905555663068822,0.3230812310663752,-0.0026687199757179205,0.24192331034974332,0.1485557570210941,0.01849907104102251,-0.20743105414848387,0.16000571659702129,-0.21935956397023773,0.18686722998770589,0.16364429390212282,0.01758298183127926,0.09426314734742133,0.18459991103069978,0.06652160091206957,-0.028871931263513603,0.07259828353568604,0.1517881982787324,0.47252110467085917,0.0071502894021883865,0.021710981011253745,-0.03753674573847868],[-0.13136656842517674,-0.14259295875738393,0.04278315531521634,-0.16546502230444404,0.08429065915156586,-0.08759013393584628,-0.10805560181277596,0.18270018695851376,-0.06711937604178722,-0.1984907070275434,-0.28194344408427446,-0.0684876465525968,0.009597214115329523,-0.10361102473060735,0.18770532953226543,-0.1890352896028777,0.08921112282182705,-0.42949406558079223,-0.31931487943970854,0.17550053883919284,0.138070664363486,-0.13523013369195103,-0.0795236888562345,-0.21557549890123534,0.21367001649215647,0.03371215669995939,-0.20634436752759702,-0.13569666845519193,0.2160868638062989,-0.060785515795998786,0.165197578761311,0.08299618208691148,0.1368458239499945,-0.060219238931750095,-0.1477593353975317,0.21088807150597577,0.2060203428485166,0.0020651040088006337,0.056242824622067845,0.07769543420757823,0.12715766966940698,-0.14389549650887717,-0.19556907458904413,-0.09785689406743983,-0.13548225620755724,0.006804553172921133,0.06860681921215955,-0.005136446889217335,0.337892278542598,-0.12488457001796271,-0.31646983234032006,0.0044482652059535345,0.017935168902265347,0.045938367229862824,0.28577277304524795,-0.18638366474242374,0.03818237099554017,0.07937122094682594,-0.10125871575216855,-0.10976698847175212,0.1936712904825204,-0.06653984254613937,0.4184306540517746,-0.10472113141391697],[0.0403510025964239,0.11491099265217763,0.13855702455971936,-0.39348819463186335,-0.1091558259886421,-0.08285099033686992,-0.35149607974516806,-0.13965326098894432,0.24783194062408212,0.039216326803674074,0.1969525388455136,0.12594162452201646,-0.27871309554807505,0.044748590339959475,-0.0760554145833537,0.08747629336611577,-0.334011379549123,0.2563034813077996,-0.050436230423718705,-0.12507062174750516,0.08787402918613176,0.1391147907012212,-0.0756858786927383,0.07797343850928892,-0.15984054371061632,0.11189002389568144,-0.04164650354487738,0.35128885761426193,-0.24970517483710158,0.015728667622386668,0.10695001132076891,0.06350886239918305,0.007791471258243453,0.12431003701938181,-0.24306477242186106,0.05961545441604227,-0.03484186963411085,0.015711443330676925,0.023609946192836528,0.4105294147688494,0.05787589208487459,0.06751874724398706,-0.0994822408004734,-0.013917125406102706,-0.3096047591584941,0.011019575519921686,-0.2662391424643639,-0.39284795106862763,-0.1704968388638242,0.09685238591008916,-0.4715000197414258,-0.1520554099408839,0.03791655617469219,0.3138059157766401,-0.038782317444189376,-0.05681869992645338,-0.22084431290595394,0.0021955089340230617,0.1820343503603587,-0.03660742774218704,-0.07682393863218612,0.08193474579046281,-0.05238959417601768,0.014676978641274794],[-0.009027291306003172,0.08501983925727814,-0.30772936898773795,-0.014695747242334583,